~o
<STREAMINFO> 1 25
<VECSIZE> 25<NULLD><MFCC_D_N_Z_0><DIAGC>
~h "b"
<BEGINHMM>
<NUMSTATES> 5
<STATE> 2
<MEAN> 25
 1.046552e+001 -4.631659e-001 2.008467e+000 -3.844113e+000 2.586664e-001 -2.029361e+000 -3.979418e+000 -5.094041e-001 1.497162e+000 -1.428124e+000 -1.887307e+000 -1.614856e+000 2.639450e-001 -3.750403e-002 1.424055e-001 -1.295845e-001 -1.153063e-001 -7.131299e-002 -1.960677e-001 -1.851051e-002 -2.449911e-002 -3.407485e-002 -3.626615e-002 -2.799117e-002 3.027412e-001
<VARIANCE> 25
 5.075714e+001 7.590595e+001 6.945876e+001 4.855809e+001 6.891590e+001 6.326234e+001 5.920717e+001 8.093125e+001 1.093661e+002 4.982204e+001 7.015379e+001 4.354869e+001 3.611185e+000 3.876524e+000 3.575477e+000 3.757739e+000 4.997777e+000 5.275537e+000 4.947926e+000 6.067483e+000 6.717230e+000 4.733682e+000 6.415401e+000 4.031246e+000 4.873437e+000
<GCONST> 1.160163e+002
<STATE> 3
<MEAN> 25
 8.032284e+000 -7.809280e-001 5.357957e+000 -3.644704e+000 -5.363493e-001 -3.466069e+000 -3.817559e+000 -4.329586e-001 -1.189302e+000 -9.763377e-001 -8.179508e-001 -1.470523e+000 -1.205646e-001 -5.769054e-002 2.661283e-002 2.780736e-002 2.379860e-002 -3.207127e-002 3.523540e-002 1.598007e-002 3.033083e-002 2.484248e-002 -3.600116e-002 -1.985918e-004 6.374655e-002
<VARIANCE> 25
 7.769839e+001 8.220096e+001 9.184082e+001 5.316691e+001 9.618053e+001 7.364070e+001 7.003246e+001 7.742493e+001 1.075021e+002 4.886514e+001 7.557146e+001 4.026069e+001 3.519860e+000 4.325695e+000 4.405484e+000 3.870258e+000 5.300962e+000 4.578018e+000 5.051307e+000 4.914302e+000 6.192232e+000 4.273742e+000 6.286670e+000 3.625343e+000 3.767863e+000
<GCONST> 1.169419e+002
<STATE> 4
<MEAN> 25
 6.729811e+000 -7.055205e-001 3.927020e+000 -2.361718e+000 -2.243426e-001 -3.006862e+000 -3.474185e+000 1.124720e+000 -8.090808e-001 2.945696e-001 -1.354516e+000 -1.356811e+000 -1.326096e-001 5.036227e-002 -7.465930e-002 8.795829e-002 1.778983e-002 3.271702e-003 6.270123e-002 -2.234630e-003 4.126636e-003 1.555248e-002 4.854558e-002 2.764549e-002 -1.761135e-001
<VARIANCE> 25
 5.441430e+001 5.864254e+001 5.878531e+001 6.151025e+001 9.141026e+001 4.503129e+001 6.458029e+001 6.396502e+001 6.430239e+001 5.095595e+001 4.974044e+001 2.987114e+001 2.489256e+000 3.046282e+000 3.474247e+000 3.745340e+000 4.766016e+000 3.415089e+000 4.307578e+000 4.261116e+000 4.302085e+000 3.577555e+000 3.493526e+000 2.652800e+000 3.106807e+000
<GCONST> 1.106407e+002
<TRANSP> 5
 0.000000e+000 1.000000e+000 0.000000e+000 0.000000e+000 0.000000e+000
 0.000000e+000 9.446957e-001 5.530440e-002 0.000000e+000 0.000000e+000
 0.000000e+000 0.000000e+000 9.344873e-001 6.551264e-002 0.000000e+000
 0.000000e+000 0.000000e+000 0.000000e+000 9.641196e-001 3.588038e-002
 0.000000e+000 0.000000e+000 0.000000e+000 0.000000e+000 0.000000e+000
<ENDHMM>
~h "d"
<BEGINHMM>
<NUMSTATES> 5
<STATE> 2
<MEAN> 25
 -3.031090e+000 -1.647068e-001 -1.387752e+000 3.488297e+000 1.164704e+000 1.507410e+000 -3.738386e-001 -4.532146e-001 -4.875356e-001 -7.172177e-001 8.948633e-001 3.918944e-001 4.081379e-003 -1.408846e-002 1.327359e-002 4.904466e-002 1.925550e-002 6.732804e-002 5.691595e-002 -4.717999e-002 -2.059054e-002 -2.066883e-003 3.552472e-002 -4.601595e-002 8.798342e-003
<VARIANCE> 25
 3.847381e+001 1.428771e+001 2.130970e+001 1.279240e+001 1.864747e+001 1.626073e+001 1.902502e+001 2.040401e+001 2.119174e+001 1.550049e+001 1.483693e+001 1.259602e+001 9.475338e-001 6.333085e-001 9.365475e-001 8.996609e-001 1.108631e+000 1.055681e+000 1.112039e+000 1.266456e+000 1.259075e+000 1.161069e+000 1.035784e+000 9.105203e-001 1.063205e+000
<GCONST> 8.076542e+001
<STATE> 3
<MEAN> 25
 -8.589411e-001 9.370651e-001 -2.205357e-001 3.252037e+000 1.770836e+000 1.522930e+000 -5.658558e-002 -5.025908e-002 -1.509560e+000 -5.350425e-001 1.071448e+000 2.908173e-001 2.354761e-001 1.102923e-001 1.252116e-001 -9.134683e-003 6.429245e-002 1.021612e-002 -8.634439e-003 -1.571752e-002 -8.606241e-002 -2.848380e-003 3.941020e-003 -8.083975e-002 2.341075e-001
<VARIANCE> 25
 4.178882e+001 2.006953e+001 2.585812e+001 1.539749e+001 2.341254e+001 1.813225e+001 2.403764e+001 2.063749e+001 2.834673e+001 1.710906e+001 1.661290e+001 1.348896e+001 1.574926e+000 1.049677e+000 1.372177e+000 1.183112e+000 1.422628e+000 1.299410e+000 1.546303e+000 1.605130e+000 1.681587e+000 1.368549e+000 1.317462e+000 1.133737e+000 1.639259e+000
<GCONST> 8.675914e+001
<STATE> 4
<MEAN> 25
 2.267668e+000 1.838867e+000 1.119016e+000 1.097755e+000 1.543873e+000 2.354089e-001 -7.820827e-001 7.387962e-001 -1.702593e+000 3.279947e-001 2.758450e-001 2.167219e-001 1.654609e-001 9.882311e-002 8.872548e-002 -1.057013e-001 2.560879e-002 -2.787328e-002 -9.495333e-003 2.841286e-002 -8.314852e-002 3.189566e-003 -2.664941e-002 -3.300466e-002 2.095849e-001
<VARIANCE> 25
 8.310929e+001 4.509023e+001 3.621788e+001 5.046490e+001 5.369570e+001 3.710515e+001 3.601919e+001 3.906808e+001 3.222096e+001 2.888338e+001 2.829112e+001 2.184072e+001 2.275556e+000 2.602920e+000 2.191500e+000 2.752592e+000 3.054605e+000 2.697980e+000 2.747373e+000 3.139486e+000 2.491995e+000 2.367810e+000 2.048256e+000 1.820854e+000 2.689556e+000
<GCONST> 1.017158e+002
<TRANSP> 5
 0.000000e+000 1.000000e+000 0.000000e+000 0.000000e+000 0.000000e+000
 0.000000e+000 8.796359e-001 1.203640e-001 0.000000e+000 0.000000e+000
 0.000000e+000 0.000000e+000 7.341422e-001 2.658578e-001 0.000000e+000
 0.000000e+000 0.000000e+000 0.000000e+000 8.874191e-001 1.125809e-001
 0.000000e+000 0.000000e+000 0.000000e+000 0.000000e+000 0.000000e+000
<ENDHMM>
~h "f"
<BEGINHMM>
<NUMSTATES> 5
<STATE> 2
<MEAN> 25
 2.675415e+000 -1.781689e+000 3.747111e-001 -1.786245e+000 1.188944e-001 -2.957845e+000 -9.535002e-001 1.112577e+000 9.051065e-001 3.959132e-001 -1.051033e+000 -9.759722e-001 1.052128e-001 -5.220028e-002 -7.381981e-002 -1.415245e-001 -5.659489e-002 -1.774411e-001 -1.061499e-001 -3.631251e-002 6.566625e-002 1.535101e-001 4.863674e-002 1.143484e-002 2.503923e-001
<VARIANCE> 25
 8.743439e+001 5.361951e+001 6.458151e+001 5.386841e+001 5.135810e+001 5.756698e+001 4.834868e+001 4.345631e+001 5.625466e+001 3.475229e+001 3.689130e+001 2.795381e+001 5.113370e+000 3.330971e+000 3.100443e+000 3.357681e+000 3.343103e+000 4.313792e+000 3.670953e+000 3.543942e+000 3.787284e+000 2.629055e+000 2.796790e+000 2.317811e+000 3.432045e+000
<GCONST> 1.085257e+002
<STATE> 3
<MEAN> 25
 2.937335e+000 -2.034934e+000 8.338761e-002 -2.172114e+000 2.077007e-001 -3.071190e+000 -1.015496e+000 1.226321e+000 8.271027e-001 4.793279e-001 -9.645436e-001 -7.402555e-001 1.312611e-001 -8.055139e-002 -9.634716e-002 -9.233903e-002 5.470192e-002 3.022041e-002 5.903454e-003 1.897405e-002 -5.047038e-002 1.789084e-002 -8.803759e-003 6.964828e-002 1.953193e-001
<VARIANCE> 25
 8.880246e+001 5.551061e+001 6.833492e+001 5.097026e+001 5.469992e+001 5.501970e+001 4.530815e+001 3.889917e+001 5.823777e+001 3.420140e+001 3.694588e+001 2.756473e+001 4.937129e+000 3.192034e+000 2.872879e+000 3.041912e+000 3.172408e+000 3.743864e+000 3.487127e+000 3.216633e+000 3.573216e+000 2.738421e+000 2.826683e+000 2.261990e+000 2.983487e+000
<GCONST> 1.076589e+002
<STATE> 4
<MEAN> 25
 3.543446e+000 -2.878827e+000 -1.162799e+000 -2.355986e+000 3.304439e-001 -3.275082e+000 -2.900988e-001 1.776845e+000 1.252913e+000 9.599913e-001 -3.383875e-001 -8.504870e-001 1.927243e-001 -4.077055e-002 1.054812e-002 -7.657540e-002 -7.342086e-003 6.875715e-002 -2.485425e-002 -2.527407e-002 -4.693381e-002 -7.683459e-002 -1.188565e-001 2.143105e-002 1.998665e-001
<VARIANCE> 25
 8.643443e+001 4.735050e+001 5.667127e+001 7.010638e+001 5.361988e+001 5.969846e+001 5.508943e+001 4.149229e+001 5.415539e+001 3.745370e+001 3.938320e+001 2.942806e+001 4.936401e+000 3.583464e+000 2.890432e+000 4.672244e+000 3.957438e+000 4.760554e+000 4.688376e+000 3.768692e+000 3.917971e+000 3.517475e+000 3.029148e+000 2.535552e+000 3.868453e+000
<GCONST> 1.103258e+002
<TRANSP> 5
 0.000000e+000 1.000000e+000 0.000000e+000 0.000000e+000 0.000000e+000
 0.000000e+000 6.458067e-001 3.541932e-001 0.000000e+000 0.000000e+000
 0.000000e+000 0.000000e+000 6.479294e-001 3.520706e-001 0.000000e+000
 0.000000e+000 0.000000e+000 0.000000e+000 8.583310e-001 1.416690e-001
 0.000000e+000 0.000000e+000 0.000000e+000 0.000000e+000 0.000000e+000
<ENDHMM>
~h "g"
<BEGINHMM>
<NUMSTATES> 5
<STATE> 2
<MEAN> 25
 -1.748944e+001 5.586297e+000 -7.877613e+000 5.129808e+000 -1.810756e+000 4.401798e+000 2.946010e+000 5.427620e-001 4.403624e+000 2.931463e+000 4.150627e+000 2.720101e+000 -2.113147e-002 -1.281650e-002 -9.406271e-003 -1.552318e-002 -1.990104e-002 1.289230e-002 -1.094723e-002 2.090707e-002 -1.564070e-002 -2.982837e-002 -3.714111e-003 -1.076051e-002 1.616191e-001
<VARIANCE> 25
 8.746276e+001 6.511374e+000 9.070954e+000 6.212428e+000 1.154164e+001 1.801942e+001 2.029675e+001 3.288892e+001 1.514851e+001 1.584330e+001 1.000603e+001 7.958371e+000 2.042884e-001 1.645364e-001 2.484332e-001 4.234515e-001 6.058231e-001 5.804710e-001 9.569684e-001 1.166569e+000 1.017990e+000 7.867099e-001 7.756834e-001 7.666042e-001 1.431463e+000
<GCONST> 7.105948e+001
<STATE> 3
<MEAN> 25
 -1.182880e+001 3.384140e+000 -6.458000e+000 3.133683e+000 -2.771026e+000 2.369393e+000 3.342378e+000 -3.536876e-001 2.969159e+000 2.440750e+000 3.457756e+000 2.109138e+000 1.754511e-002 -4.730872e-002 -1.262544e-002 -5.641599e-002 3.435084e-003 -1.204039e-002 -2.384767e-002 3.659370e-002 -2.665897e-002 -4.784012e-002 -2.303272e-002 -2.666775e-002 3.328870e-001
<VARIANCE> 25
 6.076270e+001 5.920469e+000 9.293775e+000 8.166315e+000 1.164513e+001 1.392369e+001 1.680752e+001 2.633279e+001 1.665243e+001 1.532715e+001 1.188224e+001 9.045917e+000 4.090133e-001 2.216989e-001 3.626027e-001 5.885065e-001 6.456363e-001 7.281683e-001 9.004548e-001 1.092236e+000 1.078906e+000 8.481324e-001 7.834659e-001 7.538381e-001 2.849926e+000
<GCONST> 7.327783e+001
<STATE> 4
<MEAN> 25
 -6.125913e+000 1.560082e+000 -3.821762e+000 2.798913e+000 8.407945e-003 1.187995e+000 9.532072e-001 -1.576173e+000 9.313636e-001 7.478597e-001 1.754327e+000 1.511709e-001 1.912677e-001 -8.441054e-003 8.108728e-002 -5.664588e-002 6.261110e-003 -4.269957e-002 -2.206686e-003 -1.532479e-002 -5.063836e-002 -2.079646e-002 1.542972e-005 -6.501383e-003 2.311187e-001
<VARIANCE> 25
 3.354648e+001 9.573515e+000 1.712172e+001 1.151485e+001 1.291026e+001 1.216497e+001 1.891414e+001 1.482671e+001 1.856460e+001 1.287457e+001 1.194089e+001 9.134795e+000 1.046512e+000 4.383493e-001 8.382596e-001 8.059244e-001 6.361239e-001 1.061311e+000 1.042568e+000 1.042424e+000 1.270126e+000 1.003234e+000 9.245489e-001 7.741359e-001 1.615916e+000
<GCONST> 7.677103e+001
<TRANSP> 5
 0.000000e+000 1.000000e+000 0.000000e+000 0.000000e+000 0.000000e+000
 0.000000e+000 9.714903e-001 2.850974e-002 0.000000e+000 0.000000e+000
 0.000000e+000 0.000000e+000 8.869851e-001 1.130149e-001 0.000000e+000
 0.000000e+000 0.000000e+000 0.000000e+000 8.874263e-001 1.125737e-001
 0.000000e+000 0.000000e+000 0.000000e+000 0.000000e+000 0.000000e+000
<ENDHMM>
~h "k"
<BEGINHMM>
<NUMSTATES> 5
<STATE> 2
<MEAN> 25
 7.538133e+000 -2.278518e+000 2.376644e+000 -2.387099e+000 2.665048e-001 3.047871e-001 -1.717189e+000 -3.354001e+000 2.178997e-001 -3.479605e+000 -2.072573e+000 -2.379445e+000 3.318592e-001 -1.855841e-001 4.179281e-002 -7.835392e-002 3.938918e-002 -2.609273e-002 -2.408327e-001 -2.038541e-001 1.486610e-001 -8.932211e-002 -1.635108e-001 -7.999332e-002 5.834889e-001
<VARIANCE> 25
 5.780601e+001 6.575910e+001 7.507328e+001 6.515626e+001 9.813741e+001 6.813678e+001 8.206657e+001 1.031600e+002 1.093303e+002 7.241243e+001 9.623375e+001 4.316886e+001 3.166106e+000 3.726518e+000 3.863853e+000 3.861765e+000 5.238635e+000 4.355394e+000 5.394576e+000 6.147330e+000 5.223758e+000 4.954637e+000 5.186105e+000 3.135514e+000 4.619036e+000
<GCONST> 1.172178e+002
<STATE> 3
<MEAN> 25
 7.286402e+000 -3.185986e+000 1.208804e+000 -3.010022e+000 1.618995e+000 -1.197785e-001 -2.595598e+000 -2.753876e+000 1.373933e+000 -3.555984e+000 -2.930690e+000 -1.562566e+000 -1.063897e-001 3.933992e-002 -1.057532e-001 -8.678765e-002 5.451619e-002 -4.520569e-002 2.227348e-002 9.771243e-002 4.186258e-002 7.468001e-003 4.482091e-002 5.981574e-002 1.817910e-001
<VARIANCE> 25
 6.656873e+001 7.361752e+001 7.744369e+001 5.833030e+001 9.051947e+001 7.122061e+001 8.485725e+001 1.259260e+002 9.883191e+001 7.677732e+001 7.555101e+001 3.768309e+001 3.070788e+000 3.807299e+000 3.841106e+000 3.656796e+000 5.081846e+000 4.613596e+000 5.045351e+000 5.467602e+000 4.859409e+000 4.251759e+000 4.147748e+000 2.871156e+000 3.369872e+000
<GCONST> 1.160897e+002
<STATE> 4
<MEAN> 25
 4.578605e+000 1.913712e-001 -6.606951e-001 -3.021124e+000 1.392649e+000 -2.520185e-001 4.307696e-001 -7.929874e-001 4.881494e-001 -7.900649e-001 -5.083380e-001 4.671589e-001 -1.751191e-001 -1.902094e-002 -2.404903e-002 7.956114e-002 -5.644060e-003 -1.342572e-002 1.230396e-001 1.056101e-001 5.936146e-002 4.425678e-002 2.679119e-002 8.475981e-003 -1.346348e-001
<VARIANCE> 25
 1.298197e+002 7.782995e+001 6.842944e+001 8.379109e+001 8.421523e+001 8.277781e+001 7.480707e+001 1.039790e+002 6.656669e+001 6.487355e+001 6.042323e+001 4.084046e+001 3.913731e+000 3.635540e+000 3.712644e+000 4.815519e+000 5.146069e+000 5.952216e+000 5.408680e+000 6.358757e+000 4.549397e+000 4.509455e+000 3.802475e+000 3.253889e+000 3.383290e+000
<GCONST> 1.170663e+002
<TRANSP> 5
 0.000000e+000 1.000000e+000 0.000000e+000 0.000000e+000 0.000000e+000
 0.000000e+000 8.817781e-001 1.182220e-001 0.000000e+000 0.000000e+000
 0.000000e+000 0.000000e+000 8.271356e-001 1.728644e-001 0.000000e+000
 0.000000e+000 0.000000e+000 0.000000e+000 9.042072e-001 9.579279e-002
 0.000000e+000 0.000000e+000 0.000000e+000 0.000000e+000 0.000000e+000
<ENDHMM>
~h "l"
<BEGINHMM>
<NUMSTATES> 5
<STATE> 2
<MEAN> 25
 4.994526e+000 -7.918679e-001 1.247842e+000 -1.108583e+000 -1.460354e+000 -2.335005e+000 -1.420497e+000 5.589411e-001 -8.498763e-002 5.055976e-001 -9.789107e-001 -5.980029e-001 -1.095759e-001 9.108659e-002 4.739122e-002 -7.748478e-002 1.501470e-001 6.893639e-002 -2.699071e-001 -5.552999e-002 1.258808e-001 -9.838505e-003 1.040631e-001 5.721817e-002 -3.052008e-002
<VARIANCE> 25
 7.282596e+001 4.412046e+001 5.619370e+001 5.784956e+001 8.054838e+001 6.469704e+001 6.723549e+001 4.883555e+001 5.620636e+001 3.530122e+001 5.183126e+001 2.432541e+001 2.403100e+000 2.557348e+000 2.071401e+000 2.602505e+000 3.493561e+000 3.215993e+000 4.274792e+000 3.227071e+000 3.370791e+000 2.462563e+000 2.985960e+000 2.246136e+000 3.098309e+000
<GCONST> 1.071904e+002
<STATE> 3
<MEAN> 25
 5.129642e+000 -3.909193e-001 1.432819e+000 -1.565363e+000 -7.103844e-001 -2.725312e+000 -2.256573e+000 1.788773e-001 8.996922e-001 5.656261e-001 -9.732897e-001 -3.703677e-001 -8.583035e-002 1.314435e-001 -5.878570e-002 -5.902064e-002 2.465303e-001 1.704156e-001 -4.690657e-002 -5.820064e-002 1.939947e-001 1.070530e-001 6.895124e-002 6.986640e-002 -1.812464e-001
<VARIANCE> 25
 7.005165e+001 3.821918e+001 4.738101e+001 5.691205e+001 7.215009e+001 7.211456e+001 6.318861e+001 5.200168e+001 6.644740e+001 3.538136e+001 4.977817e+001 2.410003e+001 2.445672e+000 2.522978e+000 1.964986e+000 2.692404e+000 3.130814e+000 3.378043e+000 3.992555e+000 3.239390e+000 3.233660e+000 2.356466e+000 2.889422e+000 2.006516e+000 2.521564e+000
<GCONST> 1.063632e+002
<STATE> 4
<MEAN> 25
 7.549424e+000 7.498485e-001 6.156460e-001 -4.687957e+000 5.690168e-002 -4.214237e-001 -1.757180e+000 -1.936156e+000 3.206666e+000 2.076142e+000 1.129798e+000 -5.960836e-001 -1.454845e-001 5.962868e-002 -1.534472e-001 1.361871e-001 1.027353e-001 1.590815e-001 1.432749e-001 5.040117e-002 3.336074e-002 1.625517e-002 8.356624e-002 3.124428e-003 -3.786981e-001
<VARIANCE> 25
 6.496648e+001 3.365404e+001 4.148721e+001 8.940642e+001 7.462518e+001 7.390162e+001 6.873626e+001 6.976198e+001 7.043024e+001 4.206495e+001 5.312585e+001 2.763952e+001 1.527970e+000 2.056180e+000 1.872167e+000 2.993204e+000 3.101959e+000 3.642086e+000 3.984330e+000 4.043455e+000 3.299100e+000 2.628411e+000 2.960166e+000 2.311744e+000 1.628906e+000
<GCONST> 1.068753e+002
<TRANSP> 5
 0.000000e+000 1.000000e+000 0.000000e+000 0.000000e+000 0.000000e+000
 0.000000e+000 5.247474e-001 4.752526e-001 0.000000e+000 0.000000e+000
 0.000000e+000 0.000000e+000 5.489772e-001 4.510228e-001 0.000000e+000
 0.000000e+000 0.000000e+000 0.000000e+000 7.884157e-001 2.115843e-001
 0.000000e+000 0.000000e+000 0.000000e+000 0.000000e+000 0.000000e+000
<ENDHMM>
~h "m"
<BEGINHMM>
<NUMSTATES> 5
<STATE> 2
<MEAN> 25
 3.699165e+000 -1.335247e+000 3.972057e-001 -3.189970e+000 -3.341088e-002 5.179641e-001 -5.321414e-001 -3.638094e-001 1.095943e-001 -4.817177e-001 -1.345353e+000 -4.970464e-001 2.114880e-001 8.375523e-002 1.551318e-001 -2.674440e-001 -1.072439e-001 -2.001644e-002 -1.752196e-002 -5.543055e-002 -8.635928e-002 6.990124e-002 -1.628945e-001 -3.874885e-002 3.841011e-001
<VARIANCE> 25
 6.858834e+001 4.757681e+001 6.630672e+001 6.919284e+001 6.989938e+001 5.183690e+001 5.747146e+001 5.227712e+001 5.182187e+001 5.877682e+001 5.057859e+001 2.614626e+001 2.292109e+000 2.607552e+000 2.598969e+000 3.280709e+000 2.963350e+000 2.749956e+000 2.917926e+000 3.189270e+000 2.978574e+000 3.268758e+000 2.652545e+000 2.099743e+000 3.730419e+000
<GCONST> 1.074497e+002
<STATE> 3
<MEAN> 25
 4.632686e+000 -1.143325e+000 1.272591e+000 -3.790030e+000 -1.903460e-001 7.395466e-001 -7.580183e-001 -6.558924e-001 -3.107474e-001 -8.543280e-001 -2.171828e+000 -6.187440e-001 3.201975e-001 1.016145e-001 2.431251e-001 -1.449052e-001 -1.424258e-001 -6.403062e-002 -9.513301e-002 -6.622675e-002 -9.987923e-002 -5.685532e-003 -1.712870e-001 -1.600483e-002 1.739404e-001
<VARIANCE> 25
 6.731287e+001 5.228707e+001 6.801292e+001 6.990482e+001 6.846469e+001 5.112264e+001 6.261984e+001 5.802394e+001 5.401419e+001 6.169434e+001 5.311487e+001 2.836406e+001 2.114505e+000 2.578446e+000 2.442225e+000 2.848935e+000 3.038752e+000 2.963776e+000 3.186442e+000 3.109897e+000 3.099835e+000 3.250509e+000 2.827262e+000 2.277193e+000 3.297279e+000
<GCONST> 1.078601e+002
<STATE> 4
<MEAN> 25
 7.351112e+000 -1.632262e+000 3.161394e+000 -4.673034e+000 -2.626780e+000 2.105785e+000 2.611953e-001 -7.452192e-001 -9.533052e-001 -6.578880e-001 -2.646662e+000 -9.386374e-001 3.057315e-002 1.121896e-001 7.470617e-002 1.640693e-001 -1.094424e-001 -1.307211e-001 -1.108798e-002 -5.084396e-002 -4.832889e-003 9.500472e-002 5.249071e-002 -2.577162e-002 -2.001949e-001
<VARIANCE> 25
 6.555988e+001 8.697902e+001 7.491878e+001 6.847774e+001 9.471260e+001 6.275711e+001 7.111860e+001 6.969051e+001 4.695510e+001 7.491342e+001 5.467037e+001 3.136610e+001 2.525486e+000 3.471646e+000 2.995828e+000 3.249110e+000 3.749246e+000 4.184659e+000 4.519803e+000 3.916840e+000 3.629253e+000 3.704503e+000 3.376946e+000 2.823025e+000 2.961302e+000
<GCONST> 1.119620e+002
<TRANSP> 5
 0.000000e+000 1.000000e+000 0.000000e+000 0.000000e+000 0.000000e+000
 0.000000e+000 5.419874e-001 4.580125e-001 0.000000e+000 0.000000e+000
 0.000000e+000 0.000000e+000 5.503276e-001 4.496725e-001 0.000000e+000
 0.000000e+000 0.000000e+000 0.000000e+000 8.295071e-001 1.704930e-001
 0.000000e+000 0.000000e+000 0.000000e+000 0.000000e+000 0.000000e+000
<ENDHMM>
~h "n"
<BEGINHMM>
<NUMSTATES> 5
<STATE> 2
<MEAN> 25
 7.841038e+000 -8.134653e-001 4.646125e+000 -2.126737e+000 -3.294962e+000 -1.779051e+000 -2.811010e+000 -1.032234e+000 -1.232270e+000 -5.839356e-001 -2.471948e+000 -1.547515e+000 2.984214e-001 2.990289e-002 -3.607474e-002 1.891772e-002 -1.302820e-001 5.419616e-006 -1.816604e-001 -1.815993e-001 7.043103e-002 3.852029e-002 -2.188582e-001 -1.738687e-002 7.704099e-002
<VARIANCE> 25
 6.134141e+001 5.408891e+001 6.908009e+001 4.452422e+001 8.995493e+001 5.387093e+001 6.515345e+001 7.201110e+001 7.039524e+001 4.388343e+001 5.717522e+001 3.259376e+001 2.809531e+000 2.581661e+000 2.755816e+000 2.754851e+000 4.573545e+000 3.480544e+000 3.761093e+000 4.544764e+000 3.809968e+000 3.209737e+000 3.458058e+000 2.401948e+000 2.556604e+000
<GCONST> 1.097648e+002
<STATE> 3
<MEAN> 25
 8.245479e+000 -1.111975e+000 4.266631e+000 -2.009041e+000 -3.023415e+000 -1.526714e+000 -3.082558e+000 -1.418193e+000 -7.506695e-001 -5.981808e-001 -3.196707e+000 -1.461256e+000 1.599683e-002 5.848346e-003 -1.195127e-001 3.498425e-002 7.083226e-002 6.032446e-002 3.385922e-002 2.340961e-002 9.418650e-002 1.318600e-003 -6.859891e-002 5.421813e-002 -1.370601e-001
<VARIANCE> 25
 5.911980e+001 4.936266e+001 6.465399e+001 4.542185e+001 9.027399e+001 5.416318e+001 6.529785e+001 8.101108e+001 7.390959e+001 4.807674e+001 5.603339e+001 3.408745e+001 2.015026e+000 2.273018e+000 2.286948e+000 2.368036e+000 4.087467e+000 3.226273e+000 3.416470e+000 4.097523e+000 3.671079e+000 3.321202e+000 3.194669e+000 2.332843e+000 1.873942e+000
<GCONST> 1.082763e+002
<STATE> 4
<MEAN> 25
 7.975323e+000 -1.296758e+000 3.747078e+000 -1.815229e+000 -3.284546e+000 -9.057916e-001 -1.562263e+000 -6.069120e-001 -7.081109e-001 -6.812173e-001 -3.084270e+000 -7.795845e-001 -1.785884e-001 9.935734e-002 -1.658777e-001 4.983255e-002 2.027361e-001 4.308712e-002 8.732894e-002 1.053594e-001 -1.220390e-002 1.606371e-002 1.332176e-001 2.664843e-002 -2.767149e-001
<VARIANCE> 25
 6.073984e+001 5.412447e+001 5.505468e+001 5.034844e+001 9.454949e+001 5.277124e+001 6.153876e+001 7.394225e+001 5.357452e+001 5.604944e+001 4.835970e+001 3.109912e+001 1.830674e+000 2.622909e+000 2.345076e+000 2.510739e+000 4.332270e+000 3.401707e+000 3.419699e+000 4.068832e+000 3.230516e+000 3.187723e+000 2.720153e+000 2.219330e+000 1.703074e+000
<GCONST> 1.075607e+002
<TRANSP> 5
 0.000000e+000 1.000000e+000 0.000000e+000 0.000000e+000 0.000000e+000
 0.000000e+000 6.686370e-001 3.313630e-001 0.000000e+000 0.000000e+000
 0.000000e+000 0.000000e+000 6.694253e-001 3.305747e-001 0.000000e+000
 0.000000e+000 0.000000e+000 0.000000e+000 8.328002e-001 1.671997e-001
 0.000000e+000 0.000000e+000 0.000000e+000 0.000000e+000 0.000000e+000
<ENDHMM>
~h "p"
<BEGINHMM>
<NUMSTATES> 5
<STATE> 2
<MEAN> 25
 2.056414e+000 -2.387416e+000 -1.023707e+000 -2.129688e+000 2.951522e+000 -3.374799e+000 3.490597e+000 2.678509e+000 -4.337106e-001 4.539618e-001 -1.549557e+000 1.924485e-001 -4.873222e-001 -1.070351e-001 1.036332e-002 -1.780234e-001 2.205919e-001 -2.950444e-001 2.475753e-001 2.483647e-001 1.006498e-001 -9.340781e-003 -1.935217e-001 -1.962833e-002 5.804024e-001
<VARIANCE> 25
 8.851221e+001 7.436352e+001 6.655835e+001 4.860492e+001 4.994524e+001 5.343659e+001 6.642104e+001 5.288730e+001 5.747309e+001 3.867229e+001 5.372729e+001 2.903871e+001 5.234632e+000 4.983494e+000 3.784661e+000 4.546572e+000 4.074293e+000 4.009248e+000 4.408705e+000 4.048003e+000 5.227675e+000 3.088657e+000 3.805481e+000 2.971387e+000 6.769908e+000
<GCONST> 1.128350e+002
<STATE> 3
<MEAN> 25
 6.802311e-001 -3.005613e+000 -1.176751e+000 -2.450646e+000 3.401745e+000 -3.766968e+000 4.224964e+000 3.479373e+000 2.762099e-001 -1.706529e-001 -2.343042e+000 -3.919744e-002 -4.553696e-001 1.054101e-001 1.375703e-001 -6.068680e-002 1.180994e-001 -4.826429e-002 7.429314e-002 -1.415971e-003 -3.960083e-002 -1.491701e-001 1.325717e-002 -4.917473e-002 1.634017e-001
<VARIANCE> 25
 1.061942e+002 8.287218e+001 7.192513e+001 4.781394e+001 4.971219e+001 5.237500e+001 6.742596e+001 5.425082e+001 5.988171e+001 4.334241e+001 5.222846e+001 2.743575e+001 5.538104e+000 4.298906e+000 3.726827e+000 3.827083e+000 3.721895e+000 3.657639e+000 4.187846e+000 3.977540e+000 4.554547e+000 3.096060e+000 3.561953e+000 2.716662e+000 5.227582e+000
<GCONST> 1.121922e+002
<STATE> 4
<MEAN> 25
 -4.827226e+000 7.352859e-001 -2.005270e+000 -9.703239e-001 5.354711e+000 -4.933110e+000 5.247369e+000 3.165502e+000 1.007437e+000 -1.010352e+000 -9.732276e-001 9.029586e-001 1.532324e-001 1.321896e-002 1.357656e-001 6.067562e-002 -6.327359e-002 7.316025e-002 -2.037072e-001 -1.315956e-001 -8.477677e-002 -4.018299e-002 -6.734098e-002 -8.594125e-002 -2.573456e-001
<VARIANCE> 25
 1.321671e+002 7.836782e+001 5.461295e+001 4.857696e+001 5.365212e+001 6.516788e+001 5.502235e+001 5.069912e+001 4.853381e+001 4.079818e+001 4.321225e+001 2.920960e+001 3.658931e+000 3.195481e+000 3.191916e+000 3.585116e+000 3.544574e+000 4.244322e+000 3.552946e+000 3.772726e+000 3.992922e+000 3.087919e+000 3.141731e+000 2.599135e+000 3.879479e+000
<GCONST> 1.100711e+002
<TRANSP> 5
 0.000000e+000 1.000000e+000 0.000000e+000 0.000000e+000 0.000000e+000
 0.000000e+000 7.130862e-001 2.869138e-001 0.000000e+000 0.000000e+000
 0.000000e+000 0.000000e+000 7.039151e-001 2.960849e-001 0.000000e+000
 0.000000e+000 0.000000e+000 0.000000e+000 8.532247e-001 1.467753e-001
 0.000000e+000 0.000000e+000 0.000000e+000 0.000000e+000 0.000000e+000
<ENDHMM>
~h "r"
<BEGINHMM>
<NUMSTATES> 5
<STATE> 2
<MEAN> 25
 2.688066e+000 -3.081881e+000 3.967640e+000 -2.367547e+000 -5.620053e-002 -3.042425e+000 2.312929e-001 2.232216e+000 -2.289550e+000 3.157717e-001 -4.941848e-001 -3.626179e-001 -2.199042e-001 -5.227290e-002 3.448684e-001 3.393222e-002 -1.038859e-001 -8.900286e-002 9.141596e-002 1.480859e-001 -1.647980e-001 -5.363321e-004 1.031700e-001 4.586471e-002 -5.611897e-002
<VARIANCE> 25
 1.015378e+002 8.787191e+001 8.767295e+001 5.090695e+001 7.524619e+001 5.457076e+001 7.281937e+001 5.545410e+001 7.697404e+001 4.280101e+001 3.831948e+001 2.894886e+001 4.240640e+000 3.719410e+000 3.766005e+000 2.813916e+000 3.953763e+000 3.316626e+000 4.176698e+000 3.712179e+000 3.870873e+000 3.184797e+000 2.889204e+000 2.552133e+000 3.075547e+000
<GCONST> 1.112491e+002
<STATE> 3
<MEAN> 25
 2.260171e+000 -2.746575e+000 4.513643e+000 -2.164510e+000 -4.372417e-001 -3.260580e+000 4.560167e-001 2.488499e+000 -2.484045e+000 2.273224e-001 -2.553128e-001 -1.627648e-001 -1.094873e-001 1.522915e-001 6.373049e-002 8.129422e-002 -1.016590e-001 -5.334669e-002 6.299113e-002 4.031212e-002 1.250959e-002 -5.109419e-002 2.430594e-002 3.940286e-002 -2.107025e-001
<VARIANCE> 25
 1.034553e+002 8.919051e+001 8.353140e+001 5.139867e+001 7.656277e+001 5.749450e+001 6.958563e+001 5.299567e+001 7.672749e+001 4.039528e+001 3.969389e+001 2.823303e+001 4.029985e+000 3.461991e+000 3.563092e+000 2.852461e+000 3.680495e+000 3.534689e+000 3.740835e+000 3.672010e+000 3.731956e+000 3.052656e+000 2.977032e+000 2.515216e+000 3.058481e+000
<GCONST> 1.108092e+002
<STATE> 4
<MEAN> 25
 1.902584e+000 -6.600829e-001 3.919480e+000 -1.147444e+000 -1.261136e+000 -4.047053e+000 1.257982e+000 1.609650e+000 -1.353429e+000 -1.712806e-001 -1.459942e-001 1.828860e-001 -1.541600e-001 8.195110e-002 -1.433797e-001 1.093226e-001 5.932466e-002 3.481148e-002 -1.326775e-002 -1.506526e-001 1.364425e-001 -5.774304e-002 -2.098055e-002 3.245367e-002 -2.200537e-001
<VARIANCE> 25
 1.134356e+002 7.451614e+001 7.165926e+001 6.226553e+001 9.950755e+001 6.895663e+001 7.576364e+001 6.264479e+001 6.110546e+001 4.699188e+001 4.458475e+001 3.273341e+001 3.970122e+000 3.532284e+000 3.607661e+000 3.680424e+000 4.978263e+000 5.112019e+000 4.689841e+000 5.020089e+000 4.003545e+000 4.325436e+000 3.965750e+000 2.736629e+000 3.141401e+000
<GCONST> 1.139428e+002
<TRANSP> 5
 0.000000e+000 1.000000e+000 0.000000e+000 0.000000e+000 0.000000e+000
 0.000000e+000 6.304479e-001 3.695521e-001 0.000000e+000 0.000000e+000
 0.000000e+000 0.000000e+000 6.221942e-001 3.778058e-001 0.000000e+000
 0.000000e+000 0.000000e+000 0.000000e+000 7.844945e-001 2.155054e-001
 0.000000e+000 0.000000e+000 0.000000e+000 0.000000e+000 0.000000e+000
<ENDHMM>
~h "s"
<BEGINHMM>
<NUMSTATES> 5
<STATE> 2
<MEAN> 25
 3.525161e+000 -2.077831e+000 -7.317014e-001 -2.692435e+000 2.862138e+000 -2.170799e+000 1.479248e+000 3.328675e+000 4.859865e-001 -1.386258e-001 -2.650207e+000 -1.220709e-001 4.550326e-002 1.151338e-001 -1.093034e-001 3.182983e-002 2.588235e-001 -1.120331e-002 5.216579e-002 1.950004e-001 -4.309418e-002 4.201756e-002 5.815553e-002 8.652245e-002 -1.245677e-002
<VARIANCE> 25
 1.095397e+002 7.071896e+001 5.417872e+001 6.937434e+001 7.348913e+001 6.967415e+001 6.071801e+001 6.397529e+001 7.032127e+001 5.680391e+001 6.326513e+001 3.493094e+001 5.613523e+000 4.056305e+000 3.815275e+000 5.076587e+000 5.373073e+000 5.455063e+000 4.059528e+000 5.465806e+000 4.603896e+000 4.030598e+000 4.359397e+000 3.392947e+000 4.342236e+000
<GCONST> 1.155827e+002
<STATE> 3
<MEAN> 25
 2.845318e+000 -1.520571e+000 -9.158186e-001 -1.576424e+000 3.069952e+000 -2.084198e+000 1.690982e+000 3.616379e+000 -2.922460e-001 -5.803430e-001 -2.329532e+000 6.505678e-002 -3.278623e-001 3.150399e-001 -2.690465e-002 9.679591e-002 1.884374e-001 5.660714e-003 -5.427195e-003 3.962271e-002 -7.292303e-002 1.993943e-002 2.144626e-001 1.261519e-001 -3.586029e-001
<VARIANCE> 25
 9.545592e+001 7.541319e+001 4.983834e+001 6.584476e+001 6.146634e+001 6.784085e+001 6.455807e+001 5.763887e+001 6.942615e+001 5.003300e+001 5.973746e+001 3.066342e+001 4.513634e+000 3.353047e+000 3.064550e+000 3.992089e+000 4.173382e+000 4.172336e+000 3.719479e+000 4.275403e+000 4.137479e+000 3.326372e+000 3.820604e+000 2.986194e+000 3.012752e+000
<GCONST> 1.121521e+002
<STATE> 4
<MEAN> 25
 -2.190304e+000 1.277053e+000 -1.116159e+000 -1.707142e+000 4.540576e+000 -2.647930e+000 2.260585e+000 3.792737e+000 -4.324441e-001 1.977092e-001 -1.021495e-001 7.486386e-001 -9.075858e-002 2.099147e-002 3.627742e-002 1.561782e-001 -6.109471e-003 1.939014e-001 -1.439802e-001 -1.315224e-001 7.016196e-003 4.223428e-002 9.684634e-002 -3.775741e-003 -4.560865e-001
<VARIANCE> 25
 1.154160e+002 4.813941e+001 3.490679e+001 7.512571e+001 5.413715e+001 7.890804e+001 5.199371e+001 5.378918e+001 4.610242e+001 4.170500e+001 4.582472e+001 2.849998e+001 3.028089e+000 2.151315e+000 2.147964e+000 3.364513e+000 3.772239e+000 4.221341e+000 3.504680e+000 3.965578e+000 3.635873e+000 3.169208e+000 3.295653e+000 2.631508e+000 2.017085e+000
<GCONST> 1.080312e+002
<TRANSP> 5
 0.000000e+000 1.000000e+000 0.000000e+000 0.000000e+000 0.000000e+000
 0.000000e+000 7.144342e-001 2.855658e-001 0.000000e+000 0.000000e+000
 0.000000e+000 0.000000e+000 6.475976e-001 3.524024e-001 0.000000e+000
 0.000000e+000 0.000000e+000 0.000000e+000 8.248935e-001 1.751065e-001
 0.000000e+000 0.000000e+000 0.000000e+000 0.000000e+000 0.000000e+000
<ENDHMM>
~h "t"
<BEGINHMM>
<NUMSTATES> 5
<STATE> 2
<MEAN> 25
 3.981119e+000 4.808246e-001 -3.155184e-001 -2.283320e+000 8.895752e-001 -9.544723e-002 -1.706758e+000 -5.536052e-002 -1.685422e+000 -4.564700e-001 -1.002889e+000 -4.606853e-001 -8.205904e-002 2.219504e-002 -9.016652e-002 -2.321824e-002 -3.090498e-002 9.062759e-002 -7.083895e-003 -9.501866e-002 1.510878e-002 -1.565479e-002 8.535862e-002 -2.767800e-002 -4.387825e-002
<VARIANCE> 25
 9.662741e+001 4.512413e+001 4.463976e+001 5.298766e+001 5.162422e+001 4.720178e+001 4.865241e+001 4.542381e+001 5.623287e+001 3.799027e+001 4.283714e+001 3.057333e+001 2.189636e+000 1.941859e+000 1.968554e+000 2.498552e+000 2.972125e+000 3.034185e+000 2.705355e+000 2.944231e+000 3.031027e+000 2.329975e+000 2.662003e+000 2.271923e+000 2.311721e+000
<GCONST> 1.043466e+002
<STATE> 3
<MEAN> 25
 3.846588e+000 5.342562e-001 -3.099712e-001 -2.262261e+000 7.682232e-001 -2.068391e-002 -1.730707e+000 -2.451342e-001 -1.684960e+000 -4.319223e-001 -8.059778e-001 -5.425350e-001 -6.493630e-002 3.644454e-002 3.398601e-002 4.459449e-002 -2.679859e-002 -2.072652e-003 4.457796e-002 -3.058510e-002 2.069221e-002 4.990546e-002 6.977675e-002 -3.032647e-002 -8.790726e-002
<VARIANCE> 25
 9.347366e+001 4.500643e+001 4.335292e+001 5.178785e+001 4.979658e+001 4.574888e+001 4.881839e+001 4.410469e+001 5.496350e+001 3.767963e+001 4.343554e+001 3.082436e+001 2.128867e+000 1.839275e+000 1.908246e+000 2.472113e+000 2.777889e+000 2.880417e+000 2.581528e+000 2.820713e+000 2.990135e+000 2.297943e+000 2.575547e+000 2.187030e+000 2.319200e+000
<GCONST> 1.037275e+002
<STATE> 4
<MEAN> 25
 4.459156e+000 1.023621e+000 -4.603211e-001 -2.649116e+000 1.157090e+000 -1.224204e-001 -1.601663e+000 -2.611817e-002 -1.499649e+000 2.725410e-001 -6.699833e-001 -2.933255e-001 -9.029408e-002 -4.321873e-002 9.260601e-002 1.056237e-001 -2.893716e-002 -2.340481e-002 3.277498e-002 -8.911324e-003 1.752291e-002 3.511017e-002 4.719916e-002 1.296824e-002 -8.649225e-002
<VARIANCE> 25
 8.959769e+001 4.592247e+001 4.297028e+001 6.133530e+001 5.356221e+001 5.558254e+001 4.677837e+001 4.499286e+001 5.043813e+001 3.904018e+001 3.965770e+001 2.911573e+001 2.409660e+000 2.160789e+000 2.394512e+000 3.335882e+000 3.469518e+000 3.966948e+000 2.999231e+000 3.240359e+000 3.579531e+000 2.970762e+000 2.782407e+000 2.236665e+000 2.906968e+000
<GCONST> 1.063170e+002
<TRANSP> 5
 0.000000e+000 1.000000e+000 0.000000e+000 0.000000e+000 0.000000e+000
 0.000000e+000 5.366148e-001 4.633853e-001 0.000000e+000 0.000000e+000
 0.000000e+000 0.000000e+000 5.382314e-001 4.617685e-001 0.000000e+000
 0.000000e+000 0.000000e+000 0.000000e+000 7.271805e-001 2.728195e-001
 0.000000e+000 0.000000e+000 0.000000e+000 0.000000e+000 0.000000e+000
<ENDHMM>
~h "v"
<BEGINHMM>
<NUMSTATES> 5
<STATE> 2
<MEAN> 25
 3.642952e+000 -2.208378e+000 -2.507352e+000 -3.967487e+000 2.345846e-001 -1.588094e+000 7.717003e-001 1.066464e+000 2.135023e+000 5.309660e-001 8.186463e-001 -1.304137e+000 6.552746e-001 -3.290357e-001 -2.561313e-001 -6.433131e-001 -2.498678e-001 -1.788936e-001 8.652204e-002 -6.671744e-002 3.098716e-001 1.032080e-001 1.003037e-002 -2.147336e-001 1.281382e+000
<VARIANCE> 25
 7.786435e+001 7.132223e+001 6.562072e+001 7.534859e+001 6.267421e+001 8.296264e+001 6.604700e+001 5.728469e+001 8.056154e+001 4.443753e+001 5.011086e+001 3.177286e+001 6.590986e+000 4.555755e+000 5.402954e+000 6.422289e+000 5.237573e+000 6.523152e+000 5.333108e+000 5.195233e+000 5.883555e+000 4.734449e+000 4.502157e+000 3.554971e+000 7.987493e+000
<GCONST> 1.174053e+002
<STATE> 3
<MEAN> 25
 4.499719e+000 -3.031451e+000 -1.807775e+000 -3.968045e+000 -6.262271e-001 -2.662895e+000 8.433862e-001 1.465788e+000 2.503476e+000 3.224584e-001 8.045387e-002 -1.471202e+000 2.635787e-001 -8.289647e-002 1.364120e-001 -2.350013e-001 -1.042804e-001 -4.235346e-002 4.115526e-002 1.045415e-001 4.392158e-002 4.275117e-002 -7.022039e-002 -2.143873e-002 4.405415e-001
<VARIANCE> 25
 7.612460e+001 7.582471e+001 8.512463e+001 7.049026e+001 6.354270e+001 8.957458e+001 7.306930e+001 6.365966e+001 7.591774e+001 4.791199e+001 5.825571e+001 3.423042e+001 6.236722e+000 3.956607e+000 4.993432e+000 5.388686e+000 4.749908e+000 5.892179e+000 4.960875e+000 5.052939e+000 5.367816e+000 4.157613e+000 4.431277e+000 3.259261e+000 6.722886e+000
<GCONST> 1.169287e+002
<STATE> 4
<MEAN> 25
 3.548643e+000 -9.264429e-001 -1.834135e+000 -4.031005e+000 1.533735e+000 -5.414229e-002 7.618690e-001 1.072876e+000 2.285617e+000 4.652867e-001 1.400331e+000 -1.331542e+000 -4.580355e-002 -2.652769e-002 1.015966e-001 9.015664e-002 -2.231792e-003 -3.199995e-002 -1.773819e-003 1.445810e-002 1.149040e-002 1.904748e-002 -2.749739e-002 2.116280e-002 6.698002e-004
<VARIANCE> 25
 1.000895e+002 5.828835e+001 7.017910e+001 8.984651e+001 6.854443e+001 1.181718e+002 6.522509e+001 6.428707e+001 6.495155e+001 5.175411e+001 4.909050e+001 4.007998e+001 4.720675e+000 3.364524e+000 4.027376e+000 5.000144e+000 4.778722e+000 6.286727e+000 5.229542e+000 5.374555e+000 5.123543e+000 4.269903e+000 3.995411e+000 3.640196e+000 4.449563e+000
<GCONST> 1.161749e+002
<TRANSP> 5
 0.000000e+000 1.000000e+000 0.000000e+000 0.000000e+000 0.000000e+000
 0.000000e+000 7.770114e-001 2.229886e-001 0.000000e+000 0.000000e+000
 0.000000e+000 0.000000e+000 7.563061e-001 2.436939e-001 0.000000e+000
 0.000000e+000 0.000000e+000 0.000000e+000 9.350804e-001 6.491958e-002
 0.000000e+000 0.000000e+000 0.000000e+000 0.000000e+000 0.000000e+000
<ENDHMM>
~h "w"
<BEGINHMM>
<NUMSTATES> 5
<STATE> 2
<MEAN> 25
 -2.878112e+000 -7.269456e-001 2.352417e-001 1.710209e+000 4.159217e-001 1.486750e+000 -7.744930e-001 -1.587867e+000 -7.133636e-001 -5.878040e-001 6.040736e-001 3.712092e-001 -9.134049e-003 -3.324330e-002 -1.358063e-002 2.378308e-002 2.372162e-002 7.796643e-002 -2.411363e-003 -4.098967e-002 -1.319550e-002 -6.132761e-003 1.419597e-002 1.222195e-002 -4.241480e-003
<VARIANCE> 25
 5.921970e+001 1.909194e+001 2.632990e+001 2.378790e+001 2.688434e+001 2.659555e+001 2.272824e+001 2.473578e+001 2.454993e+001 2.199511e+001 2.193323e+001 1.527584e+001 8.727752e-001 5.842869e-001 8.277271e-001 8.905116e-001 1.192612e+000 1.255598e+000 1.271080e+000 1.350103e+000 1.525450e+000 1.308218e+000 1.334400e+000 1.137242e+000 8.190451e-001
<GCONST> 8.530104e+001
<STATE> 3
<MEAN> 25
 -1.940669e+000 -4.762972e-001 1.551413e-001 1.435606e+000 3.862331e-001 1.395362e+000 -8.622456e-001 -1.703877e+000 -8.914136e-001 -6.812832e-001 6.357936e-001 2.611229e-001 1.901461e-001 -2.285577e-002 9.586003e-002 -5.915752e-002 5.322715e-002 -1.546781e-002 -9.313169e-003 1.614956e-002 -8.985351e-002 -2.909203e-002 -8.407494e-002 -6.510386e-002 2.554810e-001
<VARIANCE> 25
 6.513821e+001 2.451347e+001 2.699434e+001 2.687233e+001 2.912375e+001 2.834063e+001 2.336258e+001 2.680849e+001 2.653701e+001 2.407599e+001 2.449519e+001 1.711926e+001 1.689296e+000 6.670051e-001 1.164257e+000 9.443747e-001 1.284967e+000 1.236776e+000 1.256435e+000 1.369149e+000 1.595258e+000 1.306243e+000 1.341624e+000 1.160794e+000 2.151797e+000
<GCONST> 8.872692e+001
<STATE> 4
<MEAN> 25
 -1.079036e+000 -4.877644e-001 6.127800e-001 1.263531e+000 8.475728e-001 1.251585e+000 -8.396861e-001 -1.215243e+000 -1.191695e+000 -7.026595e-001 3.433545e-001 1.558712e-001 1.865018e-001 -4.609954e-003 8.033074e-002 -8.413855e-002 7.531995e-003 -7.660027e-002 -2.312382e-002 6.458321e-002 -6.699657e-002 -2.861587e-002 -6.788903e-002 -3.732325e-002 2.179488e-001
<VARIANCE> 25
 5.086845e+001 2.237105e+001 2.306011e+001 2.545093e+001 2.950193e+001 2.245440e+001 1.911540e+001 2.261964e+001 2.433661e+001 2.150636e+001 2.096087e+001 1.678022e+001 1.038266e+000 8.047836e-001 1.081146e+000 1.158751e+000 1.462634e+000 1.266655e+000 1.347982e+000 1.552094e+000 1.612987e+000 1.445321e+000 1.389557e+000 1.166485e+000 1.239933e+000
<GCONST> 8.699226e+001
<TRANSP> 5
 0.000000e+000 1.000000e+000 0.000000e+000 0.000000e+000 0.000000e+000
 0.000000e+000 8.001698e-001 1.998302e-001 0.000000e+000 0.000000e+000
 0.000000e+000 0.000000e+000 7.202798e-001 2.797202e-001 0.000000e+000
 0.000000e+000 0.000000e+000 0.000000e+000 8.166082e-001 1.833918e-001
 0.000000e+000 0.000000e+000 0.000000e+000 0.000000e+000 0.000000e+000
<ENDHMM>
~h "y"
<BEGINHMM>
<NUMSTATES> 5
<STATE> 2
<MEAN> 25
 3.828972e+000 4.075468e+000 8.223837e+000 -4.169075e-001 -3.079882e+000 -2.029909e+000 4.423537e+000 -3.923459e+000 1.480802e+000 -1.536880e-001 -3.132954e-001 2.127906e+000 -1.763661e-001 7.307579e-002 2.722437e-002 3.387330e-002 -2.859479e-001 1.570534e-001 2.645880e-001 -2.116820e-001 -6.551990e-002 -2.508467e-001 1.121357e-001 1.109813e-001 -1.079564e-001
<VARIANCE> 25
 1.838686e+002 5.538661e+001 6.877238e+001 1.142183e+002 1.070378e+002 6.750983e+001 9.056882e+001 7.309348e+001 7.198792e+001 6.481335e+001 4.133092e+001 3.440150e+001 5.907530e+000 5.011082e+000 3.669121e+000 8.314358e+000 7.808339e+000 6.972680e+000 9.436886e+000 7.794790e+000 6.698506e+000 4.520349e+000 4.651962e+000 4.135059e+000 6.020560e+000
<GCONST> 1.207990e+002
<STATE> 3
<MEAN> 25
 9.482212e+000 4.180988e+000 4.244012e+000 -2.131851e+000 -6.633329e+000 -9.894060e-001 5.539582e+000 -2.675987e+000 5.607382e-001 -3.658682e-001 1.447374e-001 2.561409e+000 1.769560e-001 -5.673092e-002 -4.482728e-001 9.702149e-002 -1.852227e-003 1.701764e-001 9.405787e-002 5.407706e-002 1.362915e-001 -2.569337e-001 5.414443e-002 -1.186083e-002 -2.550690e-001
<VARIANCE> 25
 1.847947e+002 5.811855e+001 1.127126e+002 1.332380e+002 8.733316e+001 6.530286e+001 1.193153e+002 1.001907e+002 9.116223e+001 1.056684e+002 4.158789e+001 5.297694e+001 4.218680e+000 3.682754e+000 3.899771e+000 7.201396e+000 6.020199e+000 4.798277e+000 8.336787e+000 8.383113e+000 8.191736e+000 5.627643e+000 5.251451e+000 3.986985e+000 2.189162e+000
<GCONST> 1.210984e+002
<STATE> 4
<MEAN> 25
 1.165130e+001 3.880034e+000 -2.515872e-001 -4.699331e-001 -5.834133e+000 8.359904e-001 4.288389e+000 -3.089664e+000 8.578397e-001 1.640629e+000 3.337808e-001 5.116232e-001 -4.480509e-001 -2.119829e-001 -2.634319e-001 2.340811e-001 3.978536e-001 1.542585e-001 -1.823424e-001 7.414190e-002 7.249869e-002 -1.575470e-001 -8.846076e-003 3.968584e-002 -4.805123e-001
<VARIANCE> 25
 1.042057e+002 7.139912e+001 7.582743e+001 7.586171e+001 8.584817e+001 5.681785e+001 8.627111e+001 9.221888e+001 6.828953e+001 1.226669e+002 4.835992e+001 8.038105e+001 2.332967e+000 3.077247e+000 3.774290e+000 6.061059e+000 5.828057e+000 3.684897e+000 6.736732e+000 6.705775e+000 7.220862e+000 5.257920e+000 5.244960e+000 5.843181e+000 1.317738e+000
<GCONST> 1.176056e+002
<TRANSP> 5
 0.000000e+000 1.000000e+000 0.000000e+000 0.000000e+000 0.000000e+000
 0.000000e+000 9.666561e-001 3.334395e-002 0.000000e+000 0.000000e+000
 0.000000e+000 0.000000e+000 8.810899e-001 1.189101e-001 0.000000e+000
 0.000000e+000 0.000000e+000 0.000000e+000 9.498861e-001 5.011389e-002
 0.000000e+000 0.000000e+000 0.000000e+000 0.000000e+000 0.000000e+000
<ENDHMM>
~h "z"
<BEGINHMM>
<NUMSTATES> 5
<STATE> 2
<MEAN> 25
 -2.763839e+000 1.684150e+000 2.775306e+000 1.075974e+000 2.966358e+000 -8.636388e-001 1.040612e+000 1.206735e+000 -5.582477e+000 2.558061e-001 1.453700e+000 1.031492e+000 -9.811918e-002 7.396922e-002 -3.098671e-001 2.048025e-002 1.033749e-001 1.603404e-001 -2.426464e-002 -7.056291e-003 5.778375e-002 -9.938875e-003 9.298885e-002 1.139918e-002 -3.960721e-001
<VARIANCE> 25
 7.704210e+001 5.997557e+001 6.071240e+001 4.206657e+001 5.130966e+001 5.137495e+001 5.807435e+001 4.609140e+001 4.782282e+001 2.979379e+001 2.597273e+001 2.366733e+001 1.730482e+000 1.865409e+000 1.916434e+000 1.866947e+000 2.861122e+000 2.052311e+000 2.425768e+000 2.578718e+000 2.498933e+000 1.897053e+000 1.895302e+000 1.802563e+000 9.432121e-001
<GCONST> 1.004595e+002
<STATE> 3
<MEAN> 25
 -2.164413e+000 1.890595e+000 1.443959e+000 1.543203e+000 2.487652e+000 6.699107e-002 7.168060e-001 8.052628e-001 -5.340964e+000 6.629237e-002 1.406609e+000 7.887822e-001 6.695459e-002 1.550963e-001 -2.068664e-001 2.405254e-002 -5.789468e-003 1.000973e-001 -3.169640e-002 -4.108495e-002 1.178606e-001 -3.943009e-002 -6.778270e-003 -4.404154e-002 -3.080992e-001
<VARIANCE> 25
 6.577295e+001 4.698051e+001 5.307209e+001 3.780339e+001 4.813387e+001 4.621473e+001 5.222989e+001 4.318362e+001 4.880437e+001 2.651185e+001 2.313477e+001 2.180060e+001 1.491446e+000 1.808892e+000 1.866690e+000 1.854096e+000 2.599822e+000 2.046783e+000 2.211299e+000 2.482436e+000 2.696408e+000 1.824671e+000 1.741725e+000 1.692078e+000 1.011031e+000
<GCONST> 9.869769e+001
<STATE> 4
<MEAN> 25
 -1.001385e+000 4.145982e+000 2.722781e+000 1.169925e+000 3.913795e+000 -5.188603e-001 -1.264358e-002 1.348699e+000 -4.969636e+000 -2.508571e-001 1.249061e+000 7.169756e-002 1.945674e-001 7.506049e-002 -6.066249e-002 4.482903e-002 -1.322888e-001 9.151634e-002 2.768676e-002 -5.164541e-002 2.039301e-001 5.930562e-002 -3.374442e-002 -4.116782e-002 -1.952055e-001
<VARIANCE> 25
 7.859686e+001 5.413343e+001 4.588430e+001 3.571922e+001 5.647718e+001 4.562568e+001 4.905843e+001 3.650022e+001 4.367157e+001 2.622869e+001 2.103083e+001 2.541006e+001 1.864489e+000 2.666788e+000 2.475625e+000 2.462106e+000 3.469676e+000 2.764472e+000 2.773077e+000 2.929245e+000 3.231730e+000 2.273421e+000 1.885175e+000 2.047362e+000 1.861714e+000
<GCONST> 1.021072e+002
<TRANSP> 5
 0.000000e+000 1.000000e+000 0.000000e+000 0.000000e+000 0.000000e+000
 0.000000e+000 6.681040e-001 3.318960e-001 0.000000e+000 0.000000e+000
 0.000000e+000 0.000000e+000 6.733790e-001 3.266210e-001 0.000000e+000
 0.000000e+000 0.000000e+000 0.000000e+000 8.145710e-001 1.854290e-001
 0.000000e+000 0.000000e+000 0.000000e+000 0.000000e+000 0.000000e+000
<ENDHMM>
~h "aa"
<BEGINHMM>
<NUMSTATES> 5
<STATE> 2
<MEAN> 25
 4.879980e+000 -3.867843e+000 5.278049e-001 -1.907320e+000 1.126922e+000 -4.931545e-001 -7.870535e-001 -5.695537e-001 -9.186472e-001 -3.622560e+000 -3.883198e+000 -1.227172e+000 2.464947e-001 -2.487642e-001 -5.774305e-002 -2.352703e-001 1.397521e-001 1.289832e-002 -1.344696e-001 1.085589e-001 -1.020204e-001 -1.541214e-001 -3.357963e-001 -5.263300e-003 5.451192e-001
<VARIANCE> 25
 6.337717e+001 6.227907e+001 6.488385e+001 5.693469e+001 7.309763e+001 3.883118e+001 4.934019e+001 4.629575e+001 5.291656e+001 5.374142e+001 5.546137e+001 3.207377e+001 2.332946e+000 3.190430e+000 2.512466e+000 3.023624e+000 3.447400e+000 2.622621e+000 2.535398e+000 3.180686e+000 2.902052e+000 3.148176e+000 3.497098e+000 2.231776e+000 4.638807e+000
<GCONST> 1.076893e+002
<STATE> 3
<MEAN> 25
 5.511695e+000 -4.039855e+000 6.711439e-001 -2.799378e+000 1.089561e+000 -5.137706e-001 -1.513735e+000 -2.375974e-001 -1.736955e+000 -3.558877e+000 -4.210675e+000 -1.182442e+000 1.501216e-001 -2.013277e-002 -4.384392e-002 -1.900736e-001 6.124498e-002 1.226384e-002 -1.202388e-001 8.415857e-002 -1.399232e-001 1.273144e-001 5.669651e-003 2.052771e-002 2.182860e-001
<VARIANCE> 25
 6.125167e+001 5.947560e+001 6.421033e+001 5.491895e+001 8.224030e+001 4.008742e+001 5.506728e+001 4.508173e+001 5.824044e+001 5.713541e+001 5.952790e+001 3.514840e+001 2.027788e+000 2.264773e+000 2.328394e+000 3.073946e+000 3.280614e+000 2.611907e+000 2.592762e+000 3.037140e+000 2.711197e+000 3.029401e+000 3.449651e+000 2.367301e+000 3.542521e+000
<GCONST> 1.071642e+002
<STATE> 4
<MEAN> 25
 5.593687e+000 -4.088018e+000 -2.618875e-001 -4.590100e+000 1.784893e+000 -5.883707e-001 -7.154629e-001 9.599436e-001 -1.090443e+000 -5.840271e-002 -4.176026e+000 -8.369322e-001 6.448130e-002 1.220721e-001 4.072751e-002 6.495569e-002 -9.480204e-002 -8.479778e-002 -2.609879e-002 4.719769e-003 -2.688532e-002 1.694066e-001 1.261200e-001 -2.243936e-002 2.043087e-002
<VARIANCE> 25
 6.584645e+001 4.752761e+001 6.025753e+001 6.029106e+001 9.204139e+001 3.872664e+001 5.034795e+001 4.534232e+001 5.018028e+001 6.093392e+001 5.035050e+001 3.121581e+001 2.011524e+000 2.103909e+000 2.440593e+000 3.524081e+000 3.525246e+000 2.540345e+000 2.775114e+000 3.229670e+000 2.678999e+000 3.089755e+000 3.156222e+000 2.381536e+000 3.082676e+000
<GCONST> 1.067270e+002
<TRANSP> 5
 0.000000e+000 1.000000e+000 0.000000e+000 0.000000e+000 0.000000e+000
 0.000000e+000 6.751893e-001 3.248107e-001 0.000000e+000 0.000000e+000
 0.000000e+000 0.000000e+000 6.725392e-001 3.274607e-001 0.000000e+000
 0.000000e+000 0.000000e+000 0.000000e+000 8.195838e-001 1.804162e-001
 0.000000e+000 0.000000e+000 0.000000e+000 0.000000e+000 0.000000e+000
<ENDHMM>
~h "ae"
<BEGINHMM>
<NUMSTATES> 5
<STATE> 2
<MEAN> 25
 1.656968e+000 -1.200867e+000 9.312333e-001 1.060928e-001 -6.401362e-001 1.548419e-001 -2.230535e+000 -1.474924e+000 -8.534870e-002 -1.987156e+000 -1.935570e+000 2.370224e-001 1.442112e-001 -1.927703e-001 -8.803685e-004 -8.499306e-002 2.459580e-002 -5.338706e-002 6.355749e-002 4.221040e-002 -6.490181e-002 -8.652950e-002 -1.693307e-001 1.223032e-002 3.162965e-001
<VARIANCE> 25
 6.706561e+001 2.873577e+001 3.605001e+001 4.340721e+001 4.221471e+001 2.946413e+001 4.697464e+001 4.889367e+001 3.762370e+001 4.041180e+001 6.032494e+001 2.195755e+001 1.443033e+000 1.226360e+000 1.726270e+000 1.851905e+000 2.058625e+000 2.225642e+000 2.716304e+000 3.011331e+000 1.917217e+000 2.456750e+000 2.176952e+000 1.617967e+000 3.402518e+000
<GCONST> 9.963712e+001
<STATE> 3
<MEAN> 25
 3.802310e+000 -1.834002e+000 1.478778e+000 -1.062685e+000 -2.343839e-001 -4.263699e-001 -2.457485e+000 -1.436793e+000 -2.496057e-002 -1.744395e+000 -2.946077e+000 5.699908e-002 2.275810e-001 -2.379127e-001 1.493401e-002 -1.168992e-001 5.304088e-002 -2.813300e-001 5.502615e-002 1.987899e-001 1.784692e-002 -3.052459e-002 -1.820145e-001 -6.926681e-003 5.188408e-001
<VARIANCE> 25
 6.692439e+001 3.685778e+001 4.128145e+001 4.486817e+001 5.992856e+001 3.467574e+001 6.397160e+001 6.395772e+001 4.678581e+001 4.545061e+001 7.561650e+001 2.316542e+001 1.595808e+000 1.826356e+000 1.841811e+000 2.018586e+000 2.711260e+000 2.587363e+000 3.130790e+000 3.434353e+000 2.231369e+000 2.698116e+000 2.509862e+000 1.600932e+000 3.585973e+000
<GCONST> 1.035371e+002
<STATE> 4
<MEAN> 25
 5.669864e+000 -4.382175e+000 1.442070e+000 -3.767681e+000 1.119799e+000 -2.784565e+000 -6.360120e-002 1.954390e+000 9.613313e-002 -7.654570e-001 -4.289365e+000 -1.352387e-001 8.806276e-002 5.075932e-003 4.561999e-002 -7.470376e-002 1.064289e-002 -2.079520e-001 1.574948e-001 1.778969e-001 2.770397e-002 1.555724e-002 1.029832e-002 4.239568e-002 5.212908e-001
<VARIANCE> 25
 6.918682e+001 5.118763e+001 3.869479e+001 4.718420e+001 7.024385e+001 5.210048e+001 8.089644e+001 7.623550e+001 3.986556e+001 6.811807e+001 6.931381e+001 2.574118e+001 1.995191e+000 2.399130e+000 2.090260e+000 2.538071e+000 3.303230e+000 3.456437e+000 3.388527e+000 3.423862e+000 2.433077e+000 2.871748e+000 2.711097e+000 1.942064e+000 3.550615e+000
<GCONST> 1.069478e+002
<TRANSP> 5
 0.000000e+000 1.000000e+000 0.000000e+000 0.000000e+000 0.000000e+000
 0.000000e+000 6.486005e-001 3.513995e-001 0.000000e+000 0.000000e+000
 0.000000e+000 0.000000e+000 5.956826e-001 4.043174e-001 0.000000e+000
 0.000000e+000 0.000000e+000 0.000000e+000 8.049684e-001 1.950316e-001
 0.000000e+000 0.000000e+000 0.000000e+000 0.000000e+000 0.000000e+000
<ENDHMM>
~h "ah"
<BEGINHMM>
<NUMSTATES> 5
<STATE> 2
<MEAN> 25
 3.037172e-001 4.779485e-001 -5.479751e-001 -9.792036e-001 1.429107e+000 -2.972750e-001 6.516879e-001 1.752060e+000 -3.869397e-001 3.750076e-001 -5.555733e-002 5.022843e-001 1.161270e-001 -1.508306e-002 5.569240e-002 -2.034277e-001 -4.040429e-002 -8.210374e-002 9.963758e-002 1.013651e-001 5.817525e-002 5.026070e-002 7.818353e-002 1.687968e-003 5.309727e-001
<VARIANCE> 25
 1.038311e+002 4.906228e+001 4.599681e+001 5.529453e+001 5.183742e+001 6.048025e+001 4.624818e+001 4.792957e+001 5.353316e+001 3.853946e+001 3.892486e+001 2.507648e+001 4.711978e+000 2.733060e+000 2.549094e+000 2.985759e+000 3.377046e+000 3.400528e+000 2.716738e+000 3.183672e+000 3.512841e+000 2.647566e+000 2.575385e+000 2.101580e+000 6.433593e+000
<GCONST> 1.075576e+002
<STATE> 3
<MEAN> 25
 6.200112e-001 3.003021e-001 -5.530043e-001 -1.248498e+000 1.199685e+000 -3.985014e-001 4.325197e-001 1.509095e+000 -2.893533e-001 4.096412e-001 -2.578377e-001 2.580133e-001 1.556349e-001 -4.699209e-002 2.548643e-003 -6.920832e-002 -5.747394e-002 -9.531342e-003 -7.177249e-002 -3.257941e-002 -1.977274e-002 -1.825027e-002 -6.208644e-002 -5.630921e-002 1.431829e-001
<VARIANCE> 25
 1.000482e+002 4.671362e+001 4.552836e+001 5.782784e+001 4.995660e+001 6.082722e+001 4.735446e+001 4.555496e+001 5.330611e+001 3.675338e+001 3.879999e+001 2.445673e+001 2.994335e+000 1.972391e+000 2.087117e+000 2.710998e+000 3.007198e+000 3.161361e+000 2.657277e+000 2.929116e+000 3.315340e+000 2.513710e+000 2.530534e+000 2.123203e+000 3.365224e+000
<GCONST> 1.052321e+002
<STATE> 4
<MEAN> 25
 1.455828e+000 -1.070388e-001 -5.525591e-001 -8.640587e-001 1.642087e+000 4.808948e-001 1.245127e-001 1.328102e+000 8.228826e-001 5.047804e-001 -9.994392e-001 2.981820e-001 1.003330e-001 -4.518186e-002 3.150039e-002 4.567264e-002 -2.598095e-003 -1.813652e-002 -6.637320e-002 -3.994281e-002 -4.679718e-002 -4.064877e-002 -7.524555e-002 -3.128039e-002 -4.268887e-002
<VARIANCE> 25
 9.698100e+001 3.632970e+001 3.467662e+001 6.954284e+001 5.098441e+001 5.494033e+001 4.366161e+001 4.083974e+001 5.405256e+001 3.350940e+001 3.914179e+001 2.440232e+001 2.090072e+000 1.836758e+000 1.737901e+000 2.804990e+000 2.899805e+000 3.119756e+000 2.567017e+000 2.926987e+000 3.057354e+000 2.560272e+000 2.525175e+000 2.112546e+000 2.073718e+000
<GCONST> 1.032992e+002
<TRANSP> 5
 0.000000e+000 1.000000e+000 0.000000e+000 0.000000e+000 0.000000e+000
 0.000000e+000 5.392557e-001 4.607443e-001 0.000000e+000 0.000000e+000
 0.000000e+000 0.000000e+000 5.193662e-001 4.806338e-001 0.000000e+000
 0.000000e+000 0.000000e+000 0.000000e+000 7.576941e-001 2.423058e-001
 0.000000e+000 0.000000e+000 0.000000e+000 0.000000e+000 0.000000e+000
<ENDHMM>
~h "ao"
<BEGINHMM>
<NUMSTATES> 5
<STATE> 2
<MEAN> 25
 6.695869e+000 1.024640e+000 6.797042e-002 -2.982261e+000 -1.616581e+000 -3.131974e+000 -3.877341e+000 -3.939949e+000 -1.609593e+000 6.899685e-001 2.938163e-001 -4.137466e-001 3.326789e-001 2.994581e-001 2.278063e-002 -1.769935e-001 -1.474486e-001 1.800889e-001 2.235857e-002 -1.491707e-001 -1.329243e-001 3.551163e-001 2.408566e-001 -4.138409e-002 -1.302766e-001
<VARIANCE> 25
 7.069012e+001 2.809702e+001 3.634992e+001 4.342704e+001 3.660030e+001 4.740763e+001 4.045424e+001 5.549023e+001 4.172008e+001 2.812619e+001 3.237974e+001 2.812064e+001 3.312877e+000 2.025618e+000 1.687733e+000 2.869832e+000 2.885161e+000 2.627602e+000 2.827222e+000 3.074467e+000 2.797937e+000 2.361734e+000 2.472330e+000 2.311580e+000 2.749604e+000
<GCONST> 1.022743e+002
<STATE> 3
<MEAN> 25
 7.936728e+000 2.243224e+000 2.120004e-001 -3.139692e+000 -1.299295e+000 -1.754539e+000 -3.260095e+000 -3.089409e+000 -1.986779e+000 1.602472e+000 8.791115e-001 -6.946169e-001 2.044041e-001 2.215489e-001 1.303138e-001 -1.587895e-001 -6.290914e-002 2.928423e-001 1.664631e-001 2.794977e-002 -1.319699e-001 1.614893e-001 1.100701e-001 -6.222809e-002 -1.782482e-001
<VARIANCE> 25
 6.312646e+001 3.037127e+001 3.588026e+001 4.403526e+001 3.304864e+001 4.636166e+001 3.924612e+001 4.910714e+001 3.950610e+001 2.594533e+001 3.270943e+001 2.690344e+001 2.744282e+000 2.177232e+000 1.584003e+000 2.685688e+000 2.343868e+000 2.294482e+000 2.818000e+000 2.797147e+000 2.826435e+000 2.104750e+000 2.191073e+000 2.099460e+000 2.629544e+000
<GCONST> 1.007399e+002
<STATE> 4
<MEAN> 25
 1.081915e+001 2.293067e+000 -1.323033e+000 -5.776983e+000 -1.237394e+000 3.594656e+000 -2.301591e+000 -3.689640e+000 -1.217144e+000 3.235982e+000 1.781589e+000 -4.117998e-001 -7.241121e-002 -1.312688e-002 1.149404e-001 3.696622e-002 8.414289e-002 1.144149e-002 6.117568e-002 1.168381e-001 7.755870e-002 -3.984849e-002 -8.473831e-002 1.886781e-002 -2.364086e-002
<VARIANCE> 25
 6.336312e+001 4.143520e+001 3.574972e+001 8.409409e+001 4.392221e+001 7.948673e+001 4.967640e+001 5.841623e+001 5.131083e+001 4.382951e+001 3.803924e+001 3.171252e+001 2.404374e+000 3.243006e+000 1.979139e+000 3.978889e+000 3.627517e+000 3.474356e+000 4.043760e+000 4.400655e+000 3.686509e+000 3.936372e+000 2.715590e+000 2.454587e+000 3.858864e+000
<GCONST> 1.082257e+002
<TRANSP> 5
 0.000000e+000 1.000000e+000 0.000000e+000 0.000000e+000 0.000000e+000
 0.000000e+000 7.299145e-001 2.700855e-001 0.000000e+000 0.000000e+000
 0.000000e+000 0.000000e+000 7.215621e-001 2.784379e-001 0.000000e+000
 0.000000e+000 0.000000e+000 0.000000e+000 9.032815e-001 9.671844e-002
 0.000000e+000 0.000000e+000 0.000000e+000 0.000000e+000 0.000000e+000
<ENDHMM>
~h "aw"
<BEGINHMM>
<NUMSTATES> 5
<STATE> 2
<MEAN> 25
 2.887882e+000 -3.179323e+000 2.410776e+000 -2.159112e+000 1.730066e+000 2.218373e+000 -1.028913e+000 -4.720846e-001 -2.567510e+000 -1.241782e+000 -1.744099e+000 -7.323174e-001 4.982925e-001 -1.592887e-001 3.423981e-001 -3.427487e-001 9.906184e-002 1.913120e-001 -7.054324e-002 8.948202e-002 -1.576694e-001 -1.184308e-001 -1.108810e-001 -7.008965e-003 7.362973e-001
<VARIANCE> 25
 7.188580e+001 7.642612e+001 8.816451e+001 6.854411e+001 8.048731e+001 6.648167e+001 5.340760e+001 5.140057e+001 6.828470e+001 5.026471e+001 4.590346e+001 2.767843e+001 4.525843e+000 5.571689e+000 4.398510e+000 5.442821e+000 5.157068e+000 4.191903e+000 3.818607e+000 4.237692e+000 3.790963e+000 4.477970e+000 3.206743e+000 2.366493e+000 4.693994e+000
<GCONST> 1.137211e+002
<STATE> 3
<MEAN> 25
 3.721202e+000 -4.190353e+000 2.759953e+000 -3.958004e+000 1.610226e+000 2.627466e+000 -4.981711e-001 -7.352018e-002 -3.722909e+000 -1.527335e+000 -1.579973e+000 -6.651227e-001 3.635620e-001 -1.664503e-001 1.899072e-002 -3.923648e-001 -3.224562e-001 4.761931e-002 8.916901e-002 -2.933270e-002 -3.188496e-002 1.502804e-002 1.120425e-002 -3.834071e-002 4.729830e-001
<VARIANCE> 25
 7.504063e+001 8.895407e+001 8.863969e+001 8.299673e+001 8.947572e+001 8.214320e+001 5.786788e+001 5.954855e+001 7.255422e+001 5.616719e+001 4.408739e+001 2.516120e+001 3.704562e+000 4.623682e+000 3.912471e+000 4.588320e+000 4.996681e+000 3.755497e+000 3.481468e+000 4.053191e+000 3.965827e+000 3.739913e+000 2.902760e+000 2.065715e+000 4.370211e+000
<GCONST> 1.132981e+002
<STATE> 4
<MEAN> 25
 6.202773e+000 -4.528240e+000 -2.616505e-001 -7.245638e+000 -1.772038e-001 4.920288e+000 2.036387e-001 -5.581150e-001 -2.804781e+000 -6.731557e-001 -1.051129e+000 -1.274888e+000 2.313317e-001 2.068263e-001 5.170790e-002 -4.365045e-002 -2.676879e-001 -1.741880e-001 -1.423274e-001 -1.921314e-001 1.841721e-001 4.372789e-002 -9.480555e-003 -9.869707e-002 1.303911e-001
<VARIANCE> 25
 7.633120e+001 9.793183e+001 7.070756e+001 1.294097e+002 7.236505e+001 9.205111e+001 4.537982e+001 5.209067e+001 5.732168e+001 5.695012e+001 4.392079e+001 2.296816e+001 2.491834e+000 3.123668e+000 2.660289e+000 3.424976e+000 3.496812e+000 2.977705e+000 2.788157e+000 3.362062e+000 3.184910e+000 2.852860e+000 2.933522e+000 1.674655e+000 2.774090e+000
<GCONST> 1.092287e+002
<TRANSP> 5
 0.000000e+000 1.000000e+000 0.000000e+000 0.000000e+000 0.000000e+000
 0.000000e+000 6.960351e-001 3.039649e-001 0.000000e+000 0.000000e+000
 0.000000e+000 0.000000e+000 6.587263e-001 3.412737e-001 0.000000e+000
 0.000000e+000 0.000000e+000 0.000000e+000 7.598705e-001 2.401295e-001
 0.000000e+000 0.000000e+000 0.000000e+000 0.000000e+000 0.000000e+000
<ENDHMM>
~h "ay"
<BEGINHMM>
<NUMSTATES> 5
<STATE> 2
<MEAN> 25
 -1.227134e+000 2.608606e-001 1.304521e+000 7.250939e-001 9.199056e-001 -1.137785e+000 2.230195e-001 5.434282e-001 -1.565500e+000 -6.315503e-001 -1.503868e-001 1.409186e-001 -8.020478e-002 -5.748107e-002 -1.602578e-001 1.123210e-001 9.626555e-002 2.702253e-002 6.558648e-002 1.053207e-003 2.107702e-002 -5.040831e-002 -6.740197e-003 3.168966e-003 -8.358783e-002
<VARIANCE> 25
 9.492946e+001 3.452924e+001 4.175002e+001 3.619827e+001 4.149337e+001 3.582987e+001 4.309473e+001 3.408700e+001 3.681842e+001 2.888984e+001 2.976626e+001 1.857166e+001 1.968851e+000 1.665900e+000 1.775300e+000 1.697107e+000 2.131461e+000 2.222108e+000 2.150862e+000 2.272826e+000 2.372209e+000 2.069896e+000 1.690461e+000 1.368523e+000 2.168720e+000
<GCONST> 9.788077e+001
<STATE> 3
<MEAN> 25
 -5.639167e-001 -1.125435e-001 9.748325e-001 8.916330e-001 1.118831e+000 -1.055952e+000 5.033747e-002 5.786884e-001 -1.623737e+000 -8.450232e-001 -3.635438e-001 -1.680757e-002 6.331801e-002 -2.324878e-002 -5.944590e-002 4.047973e-002 5.418554e-002 3.375055e-002 3.817209e-002 7.112778e-003 2.172188e-002 -5.882569e-002 -8.040737e-002 -1.810461e-002 -2.468449e-002
<VARIANCE> 25
 8.957312e+001 3.400928e+001 3.773449e+001 3.306505e+001 4.065654e+001 3.237477e+001 4.086018e+001 3.372765e+001 3.522195e+001 2.776126e+001 3.034678e+001 1.863196e+001 1.403811e+000 1.502678e+000 1.405182e+000 1.404076e+000 1.812790e+000 1.974929e+000 1.959416e+000 2.059815e+000 2.093219e+000 1.857209e+000 1.651611e+000 1.400876e+000 1.746896e+000
<GCONST> 9.558267e+001
<STATE> 4
<MEAN> 25
 1.310073e+000 -6.393525e-001 1.396060e+000 5.661455e-001 2.653800e-001 -1.003317e+000 -1.311341e-001 7.162697e-001 -1.448319e+000 -7.799271e-001 -7.969155e-001 -4.178980e-001 3.174919e-002 4.060996e-002 2.042000e-002 2.094542e-002 2.125203e-002 1.389579e-002 1.240936e-002 -2.843254e-002 -1.116523e-002 2.354434e-002 4.029700e-003 2.162009e-002 -4.746843e-002
<VARIANCE> 25
 7.275130e+001 3.231660e+001 3.714595e+001 3.448440e+001 5.086015e+001 2.980820e+001 3.293664e+001 3.044053e+001 2.738908e+001 3.093085e+001 3.049865e+001 1.876974e+001 1.292269e+000 1.474438e+000 1.480831e+000 1.491297e+000 2.258832e+000 2.152536e+000 1.949985e+000 2.019847e+000 2.072144e+000 1.845042e+000 1.634184e+000 1.447049e+000 1.768995e+000
<GCONST> 9.535240e+001
<TRANSP> 5
 0.000000e+000 1.000000e+000 0.000000e+000 0.000000e+000 0.000000e+000
 0.000000e+000 6.829531e-001 3.170469e-001 0.000000e+000 0.000000e+000
 0.000000e+000 0.000000e+000 6.752115e-001 3.247886e-001 0.000000e+000
 0.000000e+000 0.000000e+000 0.000000e+000 8.648661e-001 1.351339e-001
 0.000000e+000 0.000000e+000 0.000000e+000 0.000000e+000 0.000000e+000
<ENDHMM>
~h "ch"
<BEGINHMM>
<NUMSTATES> 5
<STATE> 2
<MEAN> 25
 7.713287e-002 -5.230008e+000 5.649222e+000 -3.163735e+000 2.688488e+000 -2.878695e+000 -4.397756e-001 3.323686e+000 -1.397165e+000 -2.417516e-001 -2.107070e+000 -2.274394e-001 -4.224631e-001 -1.574113e-001 2.490714e-001 -1.309352e-001 -3.816582e-002 -1.420337e-001 9.073353e-002 2.709239e-001 -1.583122e-001 3.015511e-002 1.661230e-001 4.820861e-002 1.292305e-001
<VARIANCE> 25
 1.126737e+002 1.122168e+002 9.828259e+001 5.896381e+001 6.274843e+001 5.454709e+001 5.412231e+001 5.261783e+001 8.419102e+001 6.184413e+001 4.558492e+001 2.608763e+001 6.701663e+000 6.451299e+000 5.916387e+000 3.796595e+000 3.978167e+000 3.550332e+000 4.190751e+000 4.653280e+000 5.210664e+000 4.323426e+000 3.704108e+000 2.317198e+000 3.180147e+000
<GCONST> 1.147061e+002
<STATE> 3
<MEAN> 25
 -2.017990e+000 -5.924892e+000 6.656946e+000 -3.854015e+000 1.451705e+000 -3.013949e+000 1.071296e+000 3.852621e+000 -2.771185e+000 2.037215e-001 -3.776694e-001 -5.461398e-002 -2.364806e-001 9.073763e-003 5.330713e-002 2.737212e-002 -9.591115e-002 -1.100546e-001 7.972919e-002 7.600760e-002 -3.808693e-002 -4.184368e-002 2.108177e-001 -1.271719e-002 -8.641450e-002
<VARIANCE> 25
 1.176268e+002 1.159696e+002 1.172428e+002 6.453554e+001 6.140638e+001 5.665478e+001 5.783648e+001 4.629108e+001 8.060348e+001 5.621511e+001 4.268798e+001 2.189342e+001 5.075059e+000 4.824711e+000 4.686598e+000 3.506423e+000 3.509431e+000 2.947298e+000 3.564995e+000 3.365081e+000 4.339300e+000 3.773910e+000 3.199718e+000 1.741738e+000 2.494259e+000
<GCONST> 1.119512e+002
<STATE> 4
<MEAN> 25
 -5.140595e+000 -1.924011e+000 3.202503e+000 -1.388086e+000 1.406128e+000 -3.633064e+000 3.341619e+000 2.602267e+000 -1.117434e+000 -1.088679e+000 1.668526e+000 1.027699e+000 3.157179e-001 1.300565e-001 -1.822197e-001 1.207071e-001 -7.020358e-003 -1.472382e-002 -1.319330e-001 -3.254418e-002 -1.640751e-002 -1.167745e-002 5.535783e-002 -6.625585e-002 -4.096186e-001
<VARIANCE> 25
 1.140223e+002 9.719358e+001 9.534093e+001 8.582004e+001 7.472517e+001 5.869572e+001 5.441917e+001 5.585460e+001 5.189495e+001 4.294868e+001 3.568081e+001 2.382038e+001 3.290261e+000 3.380853e+000 3.475833e+000 4.137529e+000 3.347596e+000 3.659494e+000 3.258239e+000 3.493911e+000 3.283516e+000 3.284185e+000 2.750374e+000 1.985040e+000 2.323545e+000
<GCONST> 1.100611e+002
<TRANSP> 5
 0.000000e+000 1.000000e+000 0.000000e+000 0.000000e+000 0.000000e+000
 0.000000e+000 8.959852e-001 1.040148e-001 0.000000e+000 0.000000e+000
 0.000000e+000 0.000000e+000 8.215422e-001 1.784578e-001 0.000000e+000
 0.000000e+000 0.000000e+000 0.000000e+000 8.607816e-001 1.392185e-001
 0.000000e+000 0.000000e+000 0.000000e+000 0.000000e+000 0.000000e+000
<ENDHMM>
~h "dh"
<BEGINHMM>
<NUMSTATES> 5
<STATE> 2
<MEAN> 25
 1.686306e+000 2.201907e+000 -6.975033e-001 -2.455482e+000 -1.598398e+000 1.381037e+000 -5.287115e-001 -7.580025e-001 4.795255e-001 1.025438e+000 1.104512e-001 1.590412e+000 -1.067838e-001 -2.303447e-001 -8.495020e-002 -2.501248e-001 -2.287253e-001 -1.745226e-001 2.017397e-001 -8.527599e-002 1.386873e-001 1.368245e-001 1.255862e-001 2.696767e-002 5.273231e-001
<VARIANCE> 25
 5.904157e+001 4.018122e+001 5.382926e+001 5.917194e+001 5.046165e+001 6.558958e+001 3.850212e+001 3.185728e+001 4.984547e+001 2.999919e+001 3.181977e+001 2.248571e+001 5.400411e+000 2.645734e+000 2.723402e+000 4.081966e+000 3.650280e+000 2.671830e+000 3.596404e+000 2.661679e+000 3.423099e+000 2.523229e+000 2.636418e+000 2.333058e+000 7.146242e+000
<GCONST> 1.064281e+002
<STATE> 3
<MEAN> 25
 1.574104e+000 7.085022e-001 5.628433e-002 -4.008405e+000 -2.418781e+000 -5.862575e-001 5.575584e-002 -9.463500e-001 1.029632e+000 1.223707e+000 3.047104e-001 6.919791e-001 1.614938e-001 -4.111998e-001 1.078648e-001 -3.632365e-001 -1.500760e-001 -3.200491e-001 -1.479785e-001 3.386004e-002 -4.003902e-002 -9.253402e-003 -9.175979e-002 -3.393250e-001 8.411965e-001
<VARIANCE> 25
 6.910552e+001 4.803527e+001 5.373622e+001 6.882184e+001 5.369661e+001 6.179853e+001 3.896376e+001 3.264008e+001 5.696004e+001 3.500803e+001 3.546248e+001 2.393846e+001 5.268663e+000 2.692570e+000 3.659291e+000 4.427006e+000 4.193387e+000 2.611534e+000 3.579092e+000 2.907110e+000 3.696907e+000 2.963940e+000 3.178218e+000 2.213053e+000 8.516002e+000
<GCONST> 1.085270e+002
<STATE> 4
<MEAN> 25
 1.417443e+000 -9.640023e-001 -6.528658e-002 -8.048982e+000 -4.041999e+000 7.585572e-002 1.152687e+000 1.372591e-001 3.234568e+000 6.287054e-001 2.148283e-001 -1.932374e+000 2.192441e-001 -5.344624e-001 1.130310e-001 -1.470921e-001 -1.599773e-002 -2.123469e-001 -1.864986e-001 1.887510e-001 3.708170e-002 -1.256605e-001 -3.335916e-002 -4.217816e-001 9.841034e-001
<VARIANCE> 25
 8.747038e+001 6.262991e+001 7.490542e+001 8.035069e+001 5.281715e+001 8.818182e+001 4.977306e+001 3.727063e+001 6.340247e+001 4.720275e+001 5.222546e+001 3.365689e+001 7.730312e+000 3.037666e+000 3.897334e+000 6.044782e+000 4.479838e+000 2.766581e+000 4.679600e+000 3.690590e+000 4.173054e+000 3.998005e+000 4.253321e+000 3.424672e+000 1.851983e+001
<GCONST> 1.147997e+002
<TRANSP> 5
 0.000000e+000 1.000000e+000 0.000000e+000 0.000000e+000 0.000000e+000
 0.000000e+000 5.315362e-001 4.684639e-001 0.000000e+000 0.000000e+000
 0.000000e+000 0.000000e+000 4.957153e-001 5.042847e-001 0.000000e+000
 0.000000e+000 0.000000e+000 0.000000e+000 7.846783e-001 2.153216e-001
 0.000000e+000 0.000000e+000 0.000000e+000 0.000000e+000 0.000000e+000
<ENDHMM>
~h "eh"
<BEGINHMM>
<NUMSTATES> 5
<STATE> 2
<MEAN> 25
 -1.170205e+000 -6.454231e+000 9.252430e+000 -2.808272e+000 -1.069688e+000 -2.547817e+000 2.733757e-001 3.228201e+000 -3.144459e+000 1.445955e+000 1.072781e+000 4.036176e-003 -3.602452e-001 -3.291655e-001 4.075649e-001 -7.332467e-002 -2.358653e-001 -5.606565e-002 2.378606e-001 1.995346e-001 -1.318963e-001 1.732018e-002 1.119035e-001 3.910434e-002 8.009928e-002
<VARIANCE> 25
 8.974681e+001 9.880170e+001 9.901363e+001 4.396988e+001 8.900145e+001 4.623492e+001 4.312395e+001 4.762745e+001 7.277997e+001 3.095455e+001 2.882655e+001 2.058455e+001 4.090378e+000 4.291895e+000 4.336112e+000 2.372729e+000 3.785415e+000 2.702173e+000 3.399649e+000 2.712049e+000 3.354633e+000 2.248077e+000 2.078198e+000 1.926493e+000 3.262550e+000
<GCONST> 1.078046e+002
<STATE> 3
<MEAN> 25
 -1.260821e+000 -6.380492e+000 8.890780e+000 -2.349657e+000 -1.936360e+000 -2.438662e+000 8.544124e-001 3.344776e+000 -2.620677e+000 1.102438e+000 1.146763e+000 -9.788112e-002 1.370025e-001 8.650711e-002 -1.242605e-001 1.126269e-001 -1.970816e-001 5.457048e-002 1.215005e-001 -3.301597e-002 9.809108e-002 -1.417294e-001 -7.521716e-002 -3.303681e-002 -2.427970e-001
<VARIANCE> 25
 9.241109e+001 1.030736e+002 8.474349e+001 4.074620e+001 8.751149e+001 4.525537e+001 4.872361e+001 5.279244e+001 7.542051e+001 3.020122e+001 2.970593e+001 2.089713e+001 3.382889e+000 3.984511e+000 3.551435e+000 2.393179e+000 3.736628e+000 2.799383e+000 3.192325e+000 2.576512e+000 3.373471e+000 2.102907e+000 2.213545e+000 1.733114e+000 2.985990e+000
<GCONST> 1.071478e+002
<STATE> 4
<MEAN> 25
 -7.536233e-001 -4.025599e+000 6.516165e+000 -1.747445e-001 -5.145879e+000 -1.483594e+000 3.002942e+000 3.833426e-001 3.122618e-001 -9.132431e-001 8.401001e-001 3.984507e-001 2.374414e-001 2.339960e-001 -3.451246e-001 5.786556e-002 5.003696e-002 -5.622524e-002 -1.031787e-001 -1.048118e-001 6.105780e-002 -6.842495e-002 -1.374842e-001 -5.404068e-002 -1.217547e-001
<VARIANCE> 25
 9.141045e+001 7.755500e+001 7.115885e+001 5.493903e+001 1.019845e+002 5.136161e+001 6.168885e+001 6.709176e+001 7.793868e+001 3.750153e+001 3.280891e+001 2.736208e+001 4.198501e+000 4.791556e+000 4.579802e+000 3.956159e+000 7.215716e+000 4.212023e+000 4.679268e+000 4.401439e+000 5.230985e+000 2.939970e+000 3.204001e+000 2.306465e+000 4.859796e+000
<GCONST> 1.134084e+002
<TRANSP> 5
 0.000000e+000 1.000000e+000 0.000000e+000 0.000000e+000 0.000000e+000
 0.000000e+000 7.002000e-001 2.998000e-001 0.000000e+000 0.000000e+000
 0.000000e+000 0.000000e+000 6.829751e-001 3.170249e-001 0.000000e+000
 0.000000e+000 0.000000e+000 0.000000e+000 8.732319e-001 1.267681e-001
 0.000000e+000 0.000000e+000 0.000000e+000 0.000000e+000 0.000000e+000
<ENDHMM>
~h "er"
<BEGINHMM>
<NUMSTATES> 5
<STATE> 2
<MEAN> 25
 4.781636e+000 -1.334940e+000 -2.377760e+000 -2.462037e+000 -1.317746e-001 -3.200520e+000 -1.095590e+000 9.363398e-001 3.421157e+000 1.177196e+000 -1.421574e+000 -1.697949e+000 1.607927e-001 -3.062986e-001 -1.921925e-001 2.873036e-001 3.171958e-003 -3.577331e-001 -1.445709e-001 3.702814e-001 3.398066e-001 7.712517e-002 -2.319875e-001 -1.362675e-001 2.432005e-001
<VARIANCE> 25
 6.078140e+001 3.651889e+001 3.966342e+001 5.554958e+001 4.405980e+001 7.592971e+001 5.191943e+001 4.711214e+001 5.597778e+001 3.973714e+001 5.948600e+001 2.451426e+001 3.952873e+000 2.517943e+000 2.404696e+000 3.271246e+000 3.000140e+000 3.930236e+000 3.704162e+000 4.304065e+000 3.865958e+000 3.438183e+000 3.420572e+000 2.475270e+000 5.152434e+000
<GCONST> 1.082192e+002
<STATE> 3
<MEAN> 25
 6.070536e+000 -2.149903e+000 -2.579763e+000 -1.529384e+000 -1.985733e-001 -4.404310e+000 -1.856808e+000 1.927792e+000 4.389657e+000 1.009348e+000 -2.263970e+000 -1.900970e+000 2.267163e-001 -1.986755e-001 6.256009e-003 2.339945e-001 -1.942556e-002 -2.891282e-001 -1.664019e-001 2.463327e-001 1.405782e-001 2.616522e-002 -2.022632e-001 3.174771e-002 -5.893356e-003
<VARIANCE> 25
 6.205410e+001 3.566914e+001 3.884379e+001 5.042718e+001 4.469868e+001 8.461346e+001 6.145771e+001 4.568676e+001 5.773713e+001 3.870025e+001 5.235031e+001 2.521301e+001 3.718025e+000 2.386284e+000 2.214658e+000 3.068662e+000 3.220066e+000 4.245159e+000 3.854715e+000 4.025812e+000 3.872666e+000 3.231097e+000 3.232047e+000 2.417876e+000 4.627422e+000
<GCONST> 1.078758e+002
<STATE> 4
<MEAN> 25
 6.232975e+000 -3.621130e+000 -3.546910e+000 3.980613e-002 -1.643801e-001 -6.088354e+000 -1.174855e+000 3.738226e+000 4.639077e+000 5.690178e-001 -2.784052e+000 -1.433938e+000 -5.332124e-002 -6.693450e-003 4.667099e-002 7.091318e-002 2.656220e-002 7.841269e-002 4.703578e-002 1.627357e-002 -9.694824e-002 3.142201e-003 4.027926e-002 8.831082e-002 -2.070548e-001
<VARIANCE> 25
 5.308854e+001 3.523405e+001 3.687242e+001 6.401701e+001 6.238545e+001 8.814861e+001 8.224422e+001 5.705400e+001 5.447069e+001 4.133904e+001 4.355397e+001 3.025757e+001 3.414370e+000 2.496815e+000 2.171591e+000 3.831404e+000 4.432958e+000 5.058758e+000 4.569498e+000 4.301705e+000 4.505560e+000 3.007445e+000 3.222964e+000 2.588709e+000 4.486050e+000
<GCONST> 1.097959e+002
<TRANSP> 5
 0.000000e+000 1.000000e+000 0.000000e+000 0.000000e+000 0.000000e+000
 0.000000e+000 6.743936e-001 3.256065e-001 0.000000e+000 0.000000e+000
 0.000000e+000 0.000000e+000 6.937358e-001 3.062642e-001 0.000000e+000
 0.000000e+000 0.000000e+000 0.000000e+000 9.316154e-001 6.838457e-002
 0.000000e+000 0.000000e+000 0.000000e+000 0.000000e+000 0.000000e+000
<ENDHMM>
~h "ey"
<BEGINHMM>
<NUMSTATES> 5
<STATE> 2
<MEAN> 25
 6.295611e+000 8.689936e-002 -2.035001e-001 -3.878849e-001 1.004178e+000 -2.472815e+000 -2.258357e+000 1.186492e+000 1.203590e+000 -4.851037e-001 -1.327230e+000 -9.705738e-001 8.271704e-001 -9.179430e-002 4.290222e-001 -2.641809e-001 -4.068197e-001 -6.508360e-001 -4.853445e-001 -1.104161e-001 -9.149962e-002 -3.053595e-001 -1.060385e-001 -1.543039e-001 1.345598e+000
<VARIANCE> 25
 5.948920e+001 4.928548e+001 4.898001e+001 5.148142e+001 6.789922e+001 5.813905e+001 6.439734e+001 6.485278e+001 5.869715e+001 4.120205e+001 6.987522e+001 2.937595e+001 6.432500e+000 4.255412e+000 3.451748e+000 4.216437e+000 4.932054e+000 5.428609e+000 4.774624e+000 4.855265e+000 3.888432e+000 3.763767e+000 5.547030e+000 3.166724e+000 7.716797e+000
<GCONST> 1.138098e+002
<STATE> 3
<MEAN> 25
 7.802691e+000 -8.389878e-002 1.197353e+000 -1.114312e+000 -6.343566e-001 -3.688886e+000 -4.492512e+000 2.787567e-001 1.115250e+000 -1.454383e+000 3.272453e-001 -1.496578e+000 3.207377e-001 -5.921961e-002 4.245439e-001 -3.192990e-001 -6.227317e-001 -3.262224e-001 -2.199541e-001 -2.018599e-001 -1.521927e-001 -1.955269e-001 1.478861e-001 -5.923592e-002 8.462471e-001
<VARIANCE> 25
 5.131532e+001 5.144767e+001 5.405989e+001 5.728464e+001 8.139525e+001 5.973463e+001 7.570467e+001 8.382192e+001 6.466689e+001 4.617399e+001 8.943533e+001 3.130640e+001 4.823588e+000 3.493517e+000 2.937895e+000 3.334074e+000 5.053586e+000 5.138641e+000 4.251908e+000 5.318212e+000 3.890139e+000 3.733116e+000 5.718686e+000 2.787169e+000 5.888110e+000
<GCONST> 1.137465e+002
<STATE> 4
<MEAN> 25
 4.388219e+000 7.073575e-001 4.494302e+000 -8.813940e-001 -3.696388e+000 -5.476729e+000 -2.511165e+000 -1.771527e+000 -2.703941e-001 -1.115613e+000 2.253504e+000 -7.478908e-001 -1.209319e-001 -8.059530e-002 1.615341e-002 2.687326e-002 -7.368162e-002 1.143618e-002 4.625477e-002 -2.209429e-002 -2.001050e-002 -1.484986e-002 3.671337e-002 3.065896e-003 3.930348e-002
<VARIANCE> 25
 8.356946e+001 5.913740e+001 6.672089e+001 6.168443e+001 1.079054e+002 6.274942e+001 6.980867e+001 8.702943e+001 6.698502e+001 5.708043e+001 5.937823e+001 3.211256e+001 3.715347e+000 3.357180e+000 3.097598e+000 3.632692e+000 5.762855e+000 4.606675e+000 4.518424e+000 5.926333e+000 4.105701e+000 3.825823e+000 4.303720e+000 2.516008e+000 4.886372e+000
<GCONST> 1.143430e+002
<TRANSP> 5
 0.000000e+000 1.000000e+000 0.000000e+000 0.000000e+000 0.000000e+000
 0.000000e+000 6.580849e-001 3.419151e-001 0.000000e+000 0.000000e+000
 0.000000e+000 0.000000e+000 7.023843e-001 2.976157e-001 0.000000e+000
 0.000000e+000 0.000000e+000 0.000000e+000 9.449120e-001 5.508807e-002
 0.000000e+000 0.000000e+000 0.000000e+000 0.000000e+000 0.000000e+000
<ENDHMM>
~h "hh"
<BEGINHMM>
<NUMSTATES> 5
<STATE> 2
<MEAN> 25
 -9.597918e+000 2.957684e+000 -3.458690e+000 4.070277e+000 3.037673e+000 -4.986149e-001 2.803132e+000 2.066385e+000 2.117424e+000 2.012552e+000 2.830343e+000 1.745423e+000 4.459492e-001 -3.940796e-001 -1.636294e-001 -3.729326e-001 5.094755e-003 -5.767332e-002 -2.616186e-002 4.773738e-002 -2.561788e-001 1.454587e-001 -4.711258e-002 -9.346153e-002 4.875197e-001
<VARIANCE> 25
 9.408546e+001 2.143856e+001 3.193625e+001 2.843410e+001 4.288040e+001 9.489069e+001 3.161983e+001 3.353598e+001 3.021412e+001 2.235047e+001 2.734275e+001 1.374731e+001 2.366023e+000 1.233220e+000 9.816706e-001 1.412418e+000 1.744471e+000 1.686136e+000 1.934703e+000 2.104595e+000 2.119844e+000 1.613295e+000 1.258549e+000 1.071087e+000 3.115703e+000
<GCONST> 9.463497e+001
<STATE> 3
<MEAN> 25
 -5.613065e+000 4.192086e-001 -2.748360e+000 2.944111e+000 1.816176e+000 1.234413e+000 1.355016e+000 1.012560e+000 6.901421e-002 1.523237e+000 1.769507e+000 1.541244e+000 1.606498e+000 -9.323459e-001 2.662243e-001 -7.383620e-001 1.768278e-001 -5.064131e-001 -1.763298e-001 -2.216463e-001 -6.007190e-001 -2.947142e-001 -3.516837e-001 -2.866957e-001 2.303793e+000
<VARIANCE> 25
 7.805634e+001 2.910434e+001 2.930718e+001 3.188157e+001 3.299176e+001 4.894899e+001 3.215467e+001 2.699305e+001 3.176272e+001 2.877029e+001 2.124372e+001 1.453428e+001 6.951078e+000 2.401729e+000 2.408402e+000 2.761405e+000 2.251258e+000 3.328707e+000 3.053238e+000 2.665812e+000 2.529960e+000 2.129822e+000 2.197865e+000 1.422293e+000 1.177317e+001
<GCONST> 1.013289e+002
<STATE> 4
<MEAN> 25
 4.951882e-001 -5.824816e-001 -6.259402e-003 2.658640e-001 2.927631e-001 9.301155e-002 1.895985e-001 -1.747419e-001 -3.131018e-001 1.448321e-001 -3.497106e-001 7.891517e-002 2.626323e-002 -1.748048e-002 -4.739615e-003 -1.881490e-002 -2.908552e-002 2.118506e-002 3.097259e-003 -6.663304e-003 -7.748324e-003 -3.398407e-002 -1.324569e-002 4.888850e-004 4.587660e-002
<VARIANCE> 25
 1.094403e+002 4.068008e+001 4.694685e+001 6.048755e+001 5.912614e+001 3.802190e+001 3.401559e+001 3.823178e+001 3.412818e+001 3.741895e+001 3.661371e+001 1.898411e+001 1.594755e+000 1.461283e+000 1.572797e+000 2.407195e+000 2.500686e+000 2.517446e+000 2.223846e+000 2.188102e+000 2.220037e+000 2.199963e+000 2.219202e+000 1.693857e+000 1.598715e+000
<GCONST> 9.986290e+001
<TRANSP> 5
 0.000000e+000 1.000000e+000 0.000000e+000 0.000000e+000 0.000000e+000
 0.000000e+000 5.619918e-001 4.380082e-001 0.000000e+000 0.000000e+000
 0.000000e+000 0.000000e+000 5.989780e-001 4.010220e-001 0.000000e+000
 0.000000e+000 0.000000e+000 0.000000e+000 9.793463e-001 2.065365e-002
 0.000000e+000 0.000000e+000 0.000000e+000 0.000000e+000 0.000000e+000
<ENDHMM>
~h "ih"
<BEGINHMM>
<NUMSTATES> 5
<STATE> 2
<MEAN> 25
 3.835282e+000 8.707339e-001 5.291619e+000 -1.122427e+000 -2.559984e-001 -7.722237e-001 -1.370586e+000 -5.023284e-001 -4.131307e+000 1.190749e-001 2.477014e-001 -6.979214e-001 1.878992e-002 3.663097e-002 6.188229e-001 -1.992698e-001 -1.470998e-001 -8.972853e-002 3.592129e-003 4.528193e-002 -4.164210e-001 5.864222e-002 1.872432e-001 -9.706599e-002 4.389395e-001
<VARIANCE> 25
 7.844560e+001 6.650454e+001 6.781672e+001 4.973082e+001 9.009203e+001 6.023944e+001 6.244180e+001 5.200267e+001 6.373550e+001 3.800632e+001 3.534252e+001 2.461659e+001 3.750925e+000 3.713830e+000 3.830058e+000 3.485117e+000 6.169605e+000 3.587981e+000 4.672563e+000 4.139065e+000 4.394892e+000 3.029346e+000 3.044382e+000 2.171914e+000 4.248292e+000
<GCONST> 1.110848e+002
<STATE> 3
<MEAN> 25
 3.387913e+000 6.271945e-001 6.346846e+000 -1.399329e+000 -6.998098e-001 -8.712994e-001 -1.140394e+000 -2.553394e-001 -4.484112e+000 1.443653e-001 6.782992e-001 -6.841087e-001 -1.652404e-001 -1.000080e-001 3.137725e-001 -9.437551e-002 -1.783320e-001 -1.698513e-002 5.270677e-002 7.755647e-003 -7.765105e-002 -1.946316e-002 1.501812e-001 4.190228e-002 2.925175e-001
<VARIANCE> 25
 8.166404e+001 7.360805e+001 7.389428e+001 5.484260e+001 9.911163e+001 5.835108e+001 6.178035e+001 5.530360e+001 6.691100e+001 3.762672e+001 3.382962e+001 2.517071e+001 3.396576e+000 3.417410e+000 3.584552e+000 3.464355e+000 5.788601e+000 3.504742e+000 4.697754e+000 4.168194e+000 4.051412e+000 2.775088e+000 2.862441e+000 2.131378e+000 3.763683e+000
<GCONST> 1.108416e+002
<STATE> 4
<MEAN> 25
 1.668507e+000 1.175607e+000 7.892179e+000 -9.998232e-001 -2.603586e+000 -1.630127e+000 4.250335e-001 -5.201530e-001 -3.824408e+000 -3.343209e-001 1.369934e+000 1.023994e-001 -2.584817e-001 -2.313237e-002 -1.493708e-001 1.239136e-001 1.012938e-001 -3.721824e-002 7.795409e-002 2.631689e-002 7.520878e-002 -8.457170e-002 4.408236e-003 6.012150e-002 -4.944193e-002
<VARIANCE> 25
 8.602638e+001 7.163583e+001 8.256776e+001 7.476926e+001 1.205649e+002 7.021185e+001 6.225122e+001 6.476006e+001 5.936324e+001 4.119524e+001 3.451006e+001 2.916594e+001 3.503034e+000 3.782645e+000 4.021353e+000 4.331128e+000 5.970999e+000 4.393393e+000 4.978937e+000 4.442348e+000 3.906575e+000 2.913731e+000 2.916181e+000 2.308234e+000 3.454643e+000
<GCONST> 1.128465e+002
<TRANSP> 5
 0.000000e+000 1.000000e+000 0.000000e+000 0.000000e+000 0.000000e+000
 0.000000e+000 5.601479e-001 4.398521e-001 0.000000e+000 0.000000e+000
 0.000000e+000 0.000000e+000 5.484090e-001 4.515909e-001 0.000000e+000
 0.000000e+000 0.000000e+000 0.000000e+000 7.684483e-001 2.315517e-001
 0.000000e+000 0.000000e+000 0.000000e+000 0.000000e+000 0.000000e+000
<ENDHMM>
~h "iy"
<BEGINHMM>
<NUMSTATES> 5
<STATE> 2
<MEAN> 25
 5.058755e+000 -1.700968e+000 8.556273e+000 -1.516769e+000 -5.023118e+000 -2.930233e+000 -2.861073e+000 -2.590271e+000 -1.713297e+000 -2.906005e+000 -4.129179e-001 -2.401237e+000 1.377778e-001 4.342184e-002 5.133577e-001 -9.952823e-002 -1.743866e-001 -1.236165e-001 -1.668793e-002 -2.984065e-001 -3.121594e-001 -1.362191e-001 -1.406342e-001 -1.371092e-001 2.167292e-001
<VARIANCE> 25
 6.137538e+001 5.526366e+001 7.927647e+001 4.879797e+001 9.841859e+001 4.386321e+001 5.495568e+001 1.010714e+002 6.873325e+001 5.392123e+001 9.583074e+001 3.364051e+001 2.136656e+000 2.660720e+000 3.307471e+000 2.952602e+000 4.343803e+000 3.259571e+000 3.469646e+000 3.480739e+000 3.530591e+000 3.220998e+000 4.423802e+000 2.294708e+000 2.852011e+000
<GCONST> 1.105806e+002
<STATE> 3
<MEAN> 25
 5.083976e+000 -1.609601e+000 9.124493e+000 -1.648236e+000 -3.954149e+000 -2.727140e+000 -2.470952e+000 -2.787899e+000 -2.920028e+000 -2.797666e+000 -8.297174e-001 -2.516009e+000 5.070275e-002 4.391727e-002 1.450963e-001 -8.065132e-003 -1.452156e-002 5.669377e-002 1.331495e-001 -4.991188e-002 -2.016051e-001 9.476976e-002 -9.904752e-002 -2.611419e-002 -9.745174e-002
<VARIANCE> 25
 6.287906e+001 6.376509e+001 8.276991e+001 4.983640e+001 1.245109e+002 4.150829e+001 7.439249e+001 8.473936e+001 7.916714e+001 5.292058e+001 8.120055e+001 3.539750e+001 1.801649e+000 2.395648e+000 2.835649e+000 2.545918e+000 4.079467e+000 2.834746e+000 3.265303e+000 3.397915e+000 3.243116e+000 3.083879e+000 3.410561e+000 2.204922e+000 2.536943e+000
<GCONST> 1.097161e+002
<STATE> 4
<MEAN> 25
 6.051408e+000 -3.594117e-001 1.191584e+001 -3.909061e+000 -7.394496e+000 -8.145115e-001 -1.446358e+000 -2.069358e+000 -3.874734e+000 -8.771383e-001 -1.001670e-001 -1.903137e+000 6.631497e-002 -5.815696e-002 -3.584214e-001 1.295637e-001 1.888753e-001 1.202483e-001 9.444039e-002 2.086099e-002 1.481890e-001 3.921187e-002 -2.135920e-001 5.052868e-002 -2.420983e-001
<VARIANCE> 25
 6.003924e+001 5.780430e+001 9.812013e+001 7.043384e+001 1.220961e+002 5.055146e+001 5.064968e+001 6.572607e+001 4.918302e+001 3.978233e+001 4.824141e+001 2.906332e+001 1.711623e+000 2.984015e+000 4.271624e+000 3.196623e+000 6.366067e+000 3.711803e+000 3.732957e+000 3.826428e+000 3.422150e+000 3.016638e+000 3.027372e+000 2.221149e+000 2.692116e+000
<GCONST> 1.098996e+002
<TRANSP> 5
 0.000000e+000 1.000000e+000 0.000000e+000 0.000000e+000 0.000000e+000
 0.000000e+000 7.205516e-001 2.794484e-001 0.000000e+000 0.000000e+000
 0.000000e+000 0.000000e+000 6.970716e-001 3.029284e-001 0.000000e+000
 0.000000e+000 0.000000e+000 0.000000e+000 8.654341e-001 1.345659e-001
 0.000000e+000 0.000000e+000 0.000000e+000 0.000000e+000 0.000000e+000
<ENDHMM>
~h "jh"
<BEGINHMM>
<NUMSTATES> 5
<STATE> 2
<MEAN> 25
 3.918191e+000 5.838057e-002 -4.181667e+000 -1.024522e+000 1.122864e+000 -1.595297e+000 4.552776e+000 3.605653e+000 1.047011e+000 3.182688e-001 3.103267e+000 5.228966e-001 5.008083e-001 3.650455e-001 5.304732e-001 -2.183354e-001 -1.945816e-001 -2.741534e-001 3.281072e-001 9.509291e-003 -5.376279e-001 5.886195e-002 2.723131e-001 1.977312e-001 5.974536e-001
<VARIANCE> 25
 3.585139e+002 6.154390e+001 6.381762e+001 2.094434e+002 1.002622e+002 6.306303e+001 3.938601e+001 6.690505e+001 6.418402e+001 6.649738e+001 4.029940e+001 2.675549e+001 1.015837e+001 3.756168e+000 3.899130e+000 9.368507e+000 7.725487e+000 9.778081e+000 5.133852e+000 1.138144e+001 8.393327e+000 8.814551e+000 6.583509e+000 3.425675e+000 1.432876e+000
<GCONST> 1.208314e+002
<STATE> 3
<MEAN> 25
 1.044300e+001 6.399713e-001 2.320488e+000 -7.815343e+000 -4.733550e+000 5.767176e-001 7.684674e-001 3.612984e+000 -3.109482e+000 1.886685e+000 4.351675e+000 -7.919108e-002 -5.498312e-002 1.417644e-001 7.343405e-001 -2.602565e-001 -2.983674e-001 2.140155e-001 -1.143030e-001 -1.614936e-001 -1.659638e-001 -1.213970e-002 6.590885e-002 4.940626e-002 5.093768e-001
<VARIANCE> 25
 2.136125e+002 5.228529e+001 1.019587e+002 1.334504e+002 8.959370e+001 8.525808e+001 7.062538e+001 6.636807e+001 5.540569e+001 1.017622e+002 3.307915e+001 2.428292e+001 5.397199e+000 3.701942e+000 5.624673e+000 8.644539e+000 6.248492e+000 1.110782e+001 5.890674e+000 5.801463e+000 6.962959e+000 1.028816e+001 4.304071e+000 3.096911e+000 1.298946e+000
<GCONST> 1.192791e+002
<STATE> 4
<MEAN> 25
 -7.670664e+000 7.945699e+000 -7.416994e-001 -2.116976e+000 4.922134e+000 -4.690704e+000 4.209297e+000 1.787637e+000 -1.438883e-001 -7.909581e-001 2.827545e+000 2.067129e+000 3.620809e-002 -4.225549e-002 -3.444400e-001 -1.627263e-001 2.794799e-001 1.710653e-001 -6.939716e-002 9.384921e-003 6.095050e-002 2.553309e-002 -9.831030e-003 4.455520e-002 -2.255423e-001
<VARIANCE> 25
 2.928973e+002 8.479762e+001 8.238848e+001 1.097627e+002 1.633875e+002 1.006659e+002 5.466153e+001 5.002854e+001 6.933133e+001 6.274347e+001 5.271299e+001 6.007980e+001 3.410297e+000 5.230574e+000 4.499262e+000 5.569683e+000 4.944776e+000 8.442154e+000 5.514194e+000 5.185080e+000 8.826382e+000 4.599052e+000 9.075009e+000 6.824012e+000 1.671759e+000
<GCONST> 1.207677e+002
<TRANSP> 5
 0.000000e+000 1.000000e+000 0.000000e+000 0.000000e+000 0.000000e+000
 0.000000e+000 8.376607e-001 1.623393e-001 0.000000e+000 0.000000e+000
 0.000000e+000 0.000000e+000 8.770285e-001 1.229715e-001 0.000000e+000
 0.000000e+000 0.000000e+000 0.000000e+000 9.484071e-001 5.159301e-002
 0.000000e+000 0.000000e+000 0.000000e+000 0.000000e+000 0.000000e+000
<ENDHMM>
~h "ng"
<BEGINHMM>
<NUMSTATES> 5
<STATE> 2
<MEAN> 25
 6.283398e+000 -3.046947e+000 7.829823e+000 -3.946172e+000 -6.423858e+000 5.357274e+000 -1.255635e+000 -5.540324e+000 2.369920e-001 -2.166575e+000 -2.914912e+000 -2.030195e+000 -1.339504e-001 -1.016690e-001 7.578639e-002 9.311478e-003 6.231459e-002 1.117744e-002 -2.404118e-001 -4.583254e-002 5.840976e-003 -9.483818e-002 -1.613673e-001 1.358192e-002 -3.418156e-002
<VARIANCE> 25
 7.663532e+001 4.468697e+001 7.124465e+001 5.030153e+001 1.208068e+002 6.567671e+001 7.764967e+001 8.064150e+001 4.216915e+001 4.162610e+001 5.570549e+001 1.814352e+001 2.442324e+000 2.999927e+000 2.445846e+000 2.816652e+000 3.780754e+000 2.863218e+000 4.278563e+000 5.049715e+000 2.698012e+000 3.182225e+000 3.731091e+000 1.945974e+000 1.364899e+000
<GCONST> 1.081997e+002
<STATE> 3
<MEAN> 25
 4.116633e+000 -1.518993e+000 7.879735e+000 -1.599576e+000 -2.970186e+000 1.459846e+000 -3.887424e+000 -2.251013e+000 -9.105875e-001 -1.614581e+000 -2.504777e+000 -1.946942e+000 -1.838496e-001 -6.326918e-002 -3.791638e-002 1.079345e-001 4.075136e-001 -9.885702e-003 8.135830e-003 2.362560e-002 -8.102317e-002 9.923623e-002 -7.033899e-002 -1.654684e-002 -4.287067e-001
<VARIANCE> 25
 8.895494e+001 4.866339e+001 6.469309e+001 4.589723e+001 1.197325e+002 3.027733e+001 8.520221e+001 6.289634e+001 4.079105e+001 2.884688e+001 4.009306e+001 2.011439e+001 1.389146e+000 1.939027e+000 1.633607e+000 1.791623e+000 2.538511e+000 1.797310e+000 3.019719e+000 2.793334e+000 2.188770e+000 1.802092e+000 2.031897e+000 1.619389e+000 7.073069e-001
<GCONST> 1.007934e+002
<STATE> 4
<MEAN> 25
 4.062493e+000 3.175196e-001 9.630037e+000 -1.991600e+000 -3.063319e+000 5.198703e-001 -2.834627e+000 -7.057148e-001 -1.846403e+000 -1.118001e+000 -8.137805e-001 -1.526765e+000 -2.024465e-001 7.384964e-002 -2.455576e-001 2.089376e-001 3.906042e-001 4.301015e-002 2.364083e-001 1.342977e-001 1.178460e-002 7.523548e-002 7.816918e-002 9.964163e-002 -5.706991e-001
<VARIANCE> 25
 8.973955e+001 6.463615e+001 7.968060e+001 6.229983e+001 1.157141e+002 2.535562e+001 5.364907e+001 4.960206e+001 3.157920e+001 2.447017e+001 3.649236e+001 1.978437e+001 1.134131e+000 2.052300e+000 1.727186e+000 1.915090e+000 2.491483e+000 1.733264e+000 2.848835e+000 2.167041e+000 2.127836e+000 1.706119e+000 1.522759e+000 1.579887e+000 6.626351e-001
<GCONST> 9.930508e+001
<TRANSP> 5
 0.000000e+000 1.000000e+000 0.000000e+000 0.000000e+000 0.000000e+000
 0.000000e+000 7.865680e-001 2.134320e-001 0.000000e+000 0.000000e+000
 0.000000e+000 0.000000e+000 6.732360e-001 3.267639e-001 0.000000e+000
 0.000000e+000 0.000000e+000 0.000000e+000 8.220310e-001 1.779690e-001
 0.000000e+000 0.000000e+000 0.000000e+000 0.000000e+000 0.000000e+000
<ENDHMM>
~h "ow"
<BEGINHMM>
<NUMSTATES> 5
<STATE> 2
<MEAN> 25
 6.952615e+000 -1.772423e-001 -7.639725e-001 -2.897870e+000 8.425604e-001 -2.995514e+000 -1.812070e+000 1.721661e+000 1.368533e+000 1.922619e+000 -1.621956e+000 3.292699e-001 -2.002390e-001 -4.146216e-002 -2.198620e-001 8.081344e-002 -3.667372e-002 2.229514e-001 1.349323e-001 1.816956e-001 6.580392e-002 9.334995e-002 2.700372e-002 -9.546579e-002 -3.622996e-001
<VARIANCE> 25
 8.615984e+001 3.544677e+001 2.641665e+001 6.338070e+001 4.661982e+001 6.451624e+001 4.878965e+001 5.804726e+001 4.696586e+001 4.087465e+001 3.769402e+001 3.148689e+001 1.057779e+000 1.373524e+000 1.398371e+000 2.158293e+000 3.034543e+000 3.150155e+000 2.617881e+000 3.107212e+000 2.616201e+000 2.285524e+000 2.222575e+000 1.834345e+000 1.539495e+000
<GCONST> 1.014479e+002
<STATE> 3
<MEAN> 25
 6.333166e+000 -4.880348e-001 -1.270912e+000 -2.711917e+000 7.704400e-001 -2.434230e+000 -1.508273e+000 1.923511e+000 1.678487e+000 1.862036e+000 -1.768874e+000 -6.566803e-003 -2.472804e-001 -1.021587e-002 -8.822460e-002 1.602197e-001 -7.317001e-002 2.857708e-001 2.009718e-001 5.821021e-002 -4.110961e-002 -5.416721e-002 -1.120167e-002 -1.326291e-001 -3.763176e-001
<VARIANCE> 25
 8.521387e+001 3.217286e+001 2.506696e+001 6.061235e+001 3.916047e+001 5.783459e+001 4.085786e+001 4.958811e+001 4.830312e+001 4.208918e+001 3.611707e+001 2.581253e+001 9.640394e-001 1.150377e+000 1.216261e+000 1.701785e+000 2.662639e+000 2.643604e+000 2.207669e+000 2.991802e+000 2.476987e+000 2.106154e+000 1.993224e+000 1.658418e+000 1.051158e+000
<GCONST> 9.855090e+001
<STATE> 4
<MEAN> 25
 7.708462e+000 -1.022537e+000 -2.458924e+000 -4.080977e+000 2.380229e+000 -8.219161e-001 -7.083308e-001 1.403548e+000 7.764286e-001 1.106027e+000 -2.842132e+000 -8.825968e-001 -2.376204e-001 -7.061485e-003 9.414022e-002 2.978697e-001 1.869313e-002 2.571013e-001 2.025441e-001 -7.207371e-002 -2.555835e-001 -2.124233e-001 2.262073e-002 1.912131e-002 -6.391936e-001
<VARIANCE> 25
 6.586350e+001 2.741500e+001 2.659008e+001 6.153998e+001 4.524736e+001 5.190159e+001 3.297748e+001 4.991095e+001 4.319160e+001 4.170055e+001 3.984121e+001 2.799227e+001 1.528496e+000 1.010321e+000 1.263726e+000 1.802054e+000 3.195519e+000 2.624398e+000 1.963402e+000 3.115680e+000 2.612620e+000 2.259514e+000 2.324076e+000 1.803863e+000 1.117231e+000
<GCONST> 9.904126e+001
<TRANSP> 5
 0.000000e+000 1.000000e+000 0.000000e+000 0.000000e+000 0.000000e+000
 0.000000e+000 5.336270e-001 4.663730e-001 0.000000e+000 0.000000e+000
 0.000000e+000 0.000000e+000 5.585313e-001 4.414687e-001 0.000000e+000
 0.000000e+000 0.000000e+000 0.000000e+000 8.150729e-001 1.849270e-001
 0.000000e+000 0.000000e+000 0.000000e+000 0.000000e+000 0.000000e+000
<ENDHMM>
~h "oy"
<BEGINHMM>
<NUMSTATES> 5
<STATE> 2
<MEAN> 25
 1.564614e+001 -2.113978e+000 -4.206581e+000 -8.567860e+000 2.383579e+000 8.438350e+000 -4.807040e-001 9.602498e-001 -3.429975e+000 2.693208e+000 -3.235685e-002 -1.310424e+000 4.354320e-001 -1.010837e-001 -1.023192e-001 -8.099169e-001 -2.204351e-001 4.466167e-001 6.561237e-002 -1.218519e-001 -8.030879e-002 4.657272e-001 2.351324e-001 1.430810e-001 1.776836e-001
<VARIANCE> 25
 6.118308e+001 7.661238e+001 9.907407e+001 1.918698e+002 8.364333e+001 7.636158e+001 3.678593e+001 5.920547e+001 5.534241e+001 5.331561e+001 4.610069e+001 3.563235e+001 1.684838e+000 4.780019e+000 2.080051e+000 7.156357e+000 3.257195e+000 4.234230e+000 2.847809e+000 4.051225e+000 5.725667e+000 5.185780e+000 3.169253e+000 2.754734e+000 3.411846e+000
<GCONST> 1.127354e+002
<STATE> 3
<MEAN> 25
 1.510840e+001 2.137141e-001 -4.424072e+000 -9.203235e+000 6.373499e-001 7.984665e+000 1.336451e+000 -9.852954e-001 -1.504478e+000 2.478220e+000 1.172982e+000 8.485796e-002 -2.832360e-001 2.268325e-001 -2.314314e-001 1.105283e-001 -4.655913e-001 -1.848180e-001 4.192373e-001 -2.405507e-001 4.646933e-001 9.528635e-002 1.320542e-001 2.874207e-001 -6.421033e-001
<VARIANCE> 25
 7.040406e+001 7.805669e+001 1.088495e+002 1.727363e+002 8.301495e+001 8.775981e+001 4.801423e+001 5.301459e+001 3.880317e+001 4.790963e+001 5.776204e+001 4.817654e+001 1.503772e+000 5.353052e+000 2.827682e+000 8.846096e+000 3.993948e+000 4.787011e+000 4.341516e+000 4.727211e+000 3.543192e+000 5.751205e+000 4.618607e+000 3.349904e+000 1.778740e+000
<GCONST> 1.142017e+002
<STATE> 4
<MEAN> 25
 1.472401e+001 2.736072e+000 -7.635778e-001 -7.283400e+000 -3.263126e+000 3.609938e+000 3.465621e+000 -3.504783e+000 -2.865594e-001 2.426063e+000 1.622428e+000 1.842946e+000 -4.178360e-001 8.115766e-003 1.387665e-001 5.975649e-001 -1.943498e-001 -4.841938e-001 -3.602142e-002 2.146398e-002 5.817571e-002 -3.499952e-002 -6.966240e-002 3.050582e-003 -4.237909e-001
<VARIANCE> 25
 5.433261e+001 5.258899e+001 1.475809e+002 1.337437e+002 9.244661e+001 6.255828e+001 3.222684e+001 4.404826e+001 3.920536e+001 5.326426e+001 5.423031e+001 5.147307e+001 1.445482e+000 4.602974e+000 4.362385e+000 9.670372e+000 6.062689e+000 4.853482e+000 3.772373e+000 3.944842e+000 4.120790e+000 5.469979e+000 6.558996e+000 4.985541e+000 1.644329e+000
<GCONST> 1.141133e+002
<TRANSP> 5
 0.000000e+000 1.000000e+000 0.000000e+000 0.000000e+000 0.000000e+000
 0.000000e+000 7.363347e-001 2.636653e-001 0.000000e+000 0.000000e+000
 0.000000e+000 0.000000e+000 7.396256e-001 2.603744e-001 0.000000e+000
 0.000000e+000 0.000000e+000 0.000000e+000 9.188721e-001 8.112795e-002
 0.000000e+000 0.000000e+000 0.000000e+000 0.000000e+000 0.000000e+000
<ENDHMM>
~h "sh"
<BEGINHMM>
<NUMSTATES> 5
<STATE> 2
<MEAN> 25
 -9.915738e-001 8.747888e-001 -4.163274e-001 9.559391e-001 3.338429e+000 2.157237e+000 -4.687175e-001 -8.239931e-001 -2.168331e+000 -4.725324e-001 -2.909001e-001 1.384421e+000 6.903931e-002 1.889963e-001 -1.456220e-001 3.736322e-002 1.088667e-002 1.194836e-001 -7.519450e-002 -1.436273e-001 -3.713404e-003 4.407240e-002 -4.567467e-002 -1.340766e-002 -2.171413e-001
<VARIANCE> 25
 3.625247e+001 2.089591e+001 2.562894e+001 2.073014e+001 1.817272e+001 2.926520e+001 2.396808e+001 2.134659e+001 2.251118e+001 1.645532e+001 1.573768e+001 1.251752e+001 2.679260e-001 9.842873e-001 1.087420e+000 1.183760e+000 1.403367e+000 1.644817e+000 1.695967e+000 2.186895e+000 1.926580e+000 1.414697e+000 1.396278e+000 1.431686e+000 3.267784e-001
<GCONST> 8.420779e+001
<STATE> 3
<MEAN> 25
 -5.931749e-001 1.368287e+000 -1.175113e+000 1.828236e+000 3.000159e+000 3.490852e+000 -1.811786e+000 -1.747170e+000 -2.643636e+000 -9.608529e-001 -2.413237e-001 1.082534e+000 -1.635414e-002 3.316075e-002 -2.250880e-002 4.564676e-003 -1.191165e-002 2.739923e-002 -8.816415e-003 -4.495799e-002 -3.950479e-003 -8.238965e-003 -1.127022e-003 1.514644e-002 -4.825354e-002
<VARIANCE> 25
 1.693097e+001 9.982346e+000 1.644806e+001 9.871317e+000 1.379003e+001 1.353313e+001 1.226374e+001 1.462889e+001 1.656508e+001 1.116379e+001 9.796458e+000 9.621015e+000 1.368996e-001 4.558751e-001 6.236523e-001 6.827800e-001 1.019320e+000 1.009700e+000 1.125584e+000 1.210303e+000 1.245909e+000 9.256507e-001 9.059181e-001 1.000459e+000 1.164909e-001
<GCONST> 7.095589e+001
<STATE> 4
<MEAN> 25
 2.069320e+000 2.728350e+000 4.335597e-001 1.901550e+000 5.701011e+000 3.045125e+000 -2.333431e+000 -2.557760e-001 -3.206820e+000 9.012170e-002 5.536092e-002 7.538093e-001 9.725690e-003 6.663088e-002 9.524823e-004 -3.167709e-003 7.907503e-002 -1.872441e-002 4.246997e-002 2.669231e-002 -7.174451e-003 4.271695e-002 3.385898e-002 -3.021254e-002 2.258572e-002
<VARIANCE> 25
 1.792038e+001 2.686311e+001 3.291237e+001 1.962345e+001 2.551213e+001 2.559966e+001 2.088972e+001 2.022556e+001 2.700085e+001 1.762039e+001 1.187370e+001 1.453490e+001 7.542426e-001 2.181025e+000 2.407808e+000 2.272795e+000 2.033108e+000 3.132564e+000 2.535438e+000 2.023171e+000 2.623398e+000 1.809663e+000 1.470750e+000 1.659106e+000 1.263677e+000
<GCONST> 9.080556e+001
<TRANSP> 5
 0.000000e+000 1.000000e+000 0.000000e+000 0.000000e+000 0.000000e+000
 0.000000e+000 9.266312e-001 7.336883e-002 0.000000e+000 0.000000e+000
 0.000000e+000 0.000000e+000 9.686390e-001 3.136091e-002 0.000000e+000
 0.000000e+000 0.000000e+000 0.000000e+000 9.369732e-001 6.302674e-002
 0.000000e+000 0.000000e+000 0.000000e+000 0.000000e+000 0.000000e+000
<ENDHMM>
~h "th"
<BEGINHMM>
<NUMSTATES> 5
<STATE> 2
<MEAN> 25
 5.539891e+000 -2.573797e+000 5.521873e+000 3.220026e+000 -3.326936e+000 3.751762e-002 -7.722932e-002 -2.928045e+000 -9.893188e-001 -5.301480e+000 -1.244379e-001 -5.701729e+000 -5.820179e-002 -2.281270e-001 5.193898e-002 1.199442e-001 1.588459e-001 3.792734e-001 -1.550281e-001 -3.338922e-001 1.322408e-001 -1.419062e-001 -1.372401e-001 -5.278962e-002 -2.376017e-001
<VARIANCE> 25
 9.057316e+001 8.498179e+001 5.521634e+001 6.101314e+001 1.102705e+002 6.224805e+001 7.833403e+001 1.696750e+002 5.950328e+001 6.672553e+001 7.695135e+001 4.513495e+001 4.679961e+000 2.828623e+000 3.158866e+000 2.963972e+000 4.493992e+000 4.388625e+000 5.210641e+000 5.286789e+000 4.486787e+000 3.196587e+000 5.751441e+000 3.282240e+000 4.107548e+000
<GCONST> 1.159178e+002
<STATE> 3
<MEAN> 25
 1.584356e-001 -6.042986e+000 5.006351e+000 1.248742e+000 -7.141553e-001 4.176545e+000 -2.057059e+000 -2.656172e+000 1.724474e+000 -4.705325e+000 -1.225910e+000 -4.270113e+000 1.288025e-001 -2.583613e-001 -2.045599e-001 2.235084e-002 1.026662e-002 1.633680e-001 -2.091427e-001 3.539831e-001 3.302183e-001 1.287427e-001 1.703837e-001 2.547191e-001 -9.401935e-002
<VARIANCE> 25
 1.272420e+002 9.097249e+001 5.536813e+001 6.376935e+001 1.557027e+002 8.687752e+001 9.037103e+001 1.013970e+002 1.060524e+002 9.311280e+001 6.090644e+001 4.574078e+001 6.581494e+000 4.107290e+000 3.964443e+000 3.126532e+000 4.916856e+000 3.860371e+000 5.830153e+000 5.846615e+000 5.842175e+000 4.041085e+000 3.941104e+000 3.276068e+000 2.685640e+000
<GCONST> 1.182326e+002
<STATE> 4
<MEAN> 25
 1.842385e+000 -9.583069e+000 5.793276e+000 2.496031e-001 -3.164608e+000 4.114192e+000 -6.368622e-001 3.133671e+000 3.246639e+000 -4.353572e+000 -5.080953e-001 -5.803699e-001 -3.474780e-001 3.545678e-001 1.165147e-001 -8.426955e-002 1.132857e-001 -1.775786e-001 5.309865e-001 -7.017760e-002 -7.535832e-002 1.050114e-001 1.735385e-001 3.439147e-001 -1.289714e-001
<VARIANCE> 25
 1.330673e+002 1.196136e+002 7.073289e+001 5.443220e+001 8.080275e+001 1.031098e+002 8.563705e+001 1.317831e+002 7.947648e+001 8.248912e+001 2.748685e+001 3.863182e+001 3.212223e+000 3.608498e+000 3.481654e+000 2.918471e+000 4.364488e+000 3.872032e+000 4.775953e+000 4.983168e+000 4.571206e+000 3.128327e+000 2.425846e+000 2.180624e+000 1.377006e+000
<GCONST> 1.134046e+002
<TRANSP> 5
 0.000000e+000 1.000000e+000 0.000000e+000 0.000000e+000 0.000000e+000
 0.000000e+000 8.899515e-001 1.100484e-001 0.000000e+000 0.000000e+000
 0.000000e+000 0.000000e+000 8.068499e-001 1.931501e-001 0.000000e+000
 0.000000e+000 0.000000e+000 0.000000e+000 7.898095e-001 2.101905e-001
 0.000000e+000 0.000000e+000 0.000000e+000 0.000000e+000 0.000000e+000
<ENDHMM>
~h "uh"
<BEGINHMM>
<NUMSTATES> 5
<STATE> 2
<MEAN> 25
 -4.723976e+000 -8.626124e-001 -3.243095e-001 2.189719e+000 8.615674e-001 1.766902e+000 3.733322e-001 -1.093332e-001 -3.295883e-001 1.418889e-002 7.104527e-001 6.738788e-001 -9.690955e-003 -6.127731e-002 -4.608485e-002 -3.526327e-002 2.609481e-003 -6.692969e-002 -1.503464e-002 -3.644912e-002 -7.693392e-002 -6.923257e-003 1.452173e-002 -4.031824e-003 5.491041e-002
<VARIANCE> 25
 4.040201e+001 1.144290e+001 1.414532e+001 1.372428e+001 1.613985e+001 1.744263e+001 1.438525e+001 1.827154e+001 1.879242e+001 1.909063e+001 1.433766e+001 1.187030e+001 4.515072e-001 5.670822e-001 6.528945e-001 8.997427e-001 9.892246e-001 1.230471e+000 1.211821e+000 1.424166e+000 1.419895e+000 1.287163e+000 1.209701e+000 1.050802e+000 6.949568e-001
<GCONST> 7.890998e+001
<STATE> 3
<MEAN> 25
 -3.971637e+000 -3.478758e-001 -6.006861e-001 2.238996e+000 7.651576e-001 1.986744e+000 8.361080e-001 -1.597311e-001 -9.871191e-001 7.907390e-002 1.257493e+000 7.894669e-001 3.396090e-001 6.470037e-002 5.249592e-002 2.217717e-002 9.114069e-002 -4.809229e-002 -6.865088e-002 -7.905761e-003 -1.774016e-001 -2.499687e-002 -1.198372e-002 -3.783261e-002 2.875653e-001
<VARIANCE> 25
 5.066544e+001 1.274946e+001 1.691492e+001 1.226454e+001 1.884753e+001 1.437076e+001 1.497287e+001 1.883782e+001 2.186092e+001 2.056613e+001 1.421383e+001 1.256333e+001 1.266037e+000 6.041235e-001 9.758208e-001 8.706298e-001 1.188333e+000 1.175055e+000 1.203206e+000 1.462996e+000 1.509666e+000 1.382239e+000 1.180229e+000 1.070280e+000 1.223074e+000
<GCONST> 8.192843e+001
<STATE> 4
<MEAN> 25
