~o
<STREAMINFO> 1 25
<VECSIZE> 25<NULLD><MFCC_D_N_Z_0><DIAGC>
~s "silst"
<MEAN> 25
 -1.240197e+001 4.952151e+000 -7.840766e+000 5.189920e+000 -2.224519e+000 2.968709e+000 4.079169e+000 -1.687171e+000 4.311604e+000 1.747351e+000 3.699143e+000 1.899612e+000 -1.380130e-002 1.802287e-002 -3.199114e-002 1.087895e-003 5.940114e-003 6.876435e-003 1.467441e-002 -2.165824e-002 4.025401e-003 -1.323743e-002 -1.011253e-002 4.812742e-003 -2.794094e-002
<VARIANCE> 25
 8.291031e+001 8.475436e+000 1.039336e+001 7.229842e+000 9.940104e+000 1.658737e+001 2.215738e+001 2.203224e+001 1.520713e+001 1.575230e+001 9.583346e+000 9.712342e+000 7.527363e-002 1.481142e-001 2.747425e-001 4.191000e-001 6.016267e-001 5.777477e-001 7.884982e-001 1.018189e+000 9.389839e-001 7.417799e-001 7.390688e-001 7.273990e-001 4.978273e-002
<GCONST> 6.621262e+001
~h "b"
<BEGINHMM>
<NUMSTATES> 5
<STATE> 2
<MEAN> 25
 1.202398e+001 1.461986e+000 5.919010e-001 -4.896055e+000 1.183536e+000 6.725342e-001 -4.422098e+000 -2.567317e+000 3.704713e+000 1.969293e-001 -1.832022e+000 -2.410171e+000 4.951187e-002 -9.767082e-001 -1.857989e-001 -3.364229e-001 -3.722930e-001 -5.408606e-001 -2.379988e-001 3.135126e-001 7.814557e-001 -1.674506e-002 3.907108e-002 -8.638704e-002 1.090743e+000
<VARIANCE> 25
 4.189939e+001 7.927666e+001 5.184171e+001 3.550324e+001 4.352543e+001 5.585298e+001 4.297128e+001 5.536183e+001 1.114822e+002 5.090314e+001 8.253696e+001 4.106417e+001 4.036178e+000 5.516657e+000 5.205360e+000 4.625552e+000 4.328946e+000 5.100683e+000 6.094597e+000 7.681022e+000 9.350243e+000 5.775167e+000 9.678661e+000 4.365608e+000 7.506662e+000
<GCONST> 1.168893e+002
<STATE> 3
<MEAN> 25
 -7.135819e-001 -3.364230e+000 9.819462e+000 -5.529575e-002 -4.225033e-001 -4.607738e+000 1.159819e+000 2.304997e+000 -1.303330e+000 -1.383817e+000 7.952035e-001 6.082880e-001 -9.385160e-002 1.565372e-002 2.239625e-001 2.343157e-002 -3.337645e-001 -2.149492e-001 6.049594e-002 2.885799e-001 -3.422467e-001 -1.435959e-001 1.015415e-001 -5.789851e-002 -4.204402e-002
<VARIANCE> 25
 9.868147e+001 9.268103e+001 9.047202e+001 7.623507e+001 1.528266e+002 7.470742e+001 1.095224e+002 7.365327e+001 1.486889e+002 5.042517e+001 4.526955e+001 2.990867e+001 5.956241e+000 4.653386e+000 5.733253e+000 4.078181e+000 7.682868e+000 5.389714e+000 8.209448e+000 6.725056e+000 6.564267e+000 5.504474e+000 5.123876e+000 3.086678e+000 1.904310e+000
<GCONST> 1.195793e+002
<STATE> 4
<MEAN> 25
 8.014034e+000 -3.538102e+000 7.177405e+000 -4.566209e+000 -3.058178e+000 -4.186415e+000 -4.313215e+000 3.047575e+000 -1.056790e+000 3.814404e-002 -1.132673e-001 -1.733247e+000 -5.009992e-002 4.554171e-001 8.405570e-002 2.749116e-001 1.977358e-001 7.027137e-002 1.248754e-002 -2.301482e-001 -3.768316e-001 1.746384e-001 1.908531e-001 1.206893e-001 -7.137063e-001
<VARIANCE> 25
 3.838219e+001 3.706390e+001 6.993382e+001 4.969563e+001 1.077023e+002 3.721942e+001 6.119414e+001 5.945931e+001 5.158656e+001 5.679188e+001 5.845438e+001 2.580410e+001 1.298336e+000 1.875745e+000 3.400122e+000 2.423311e+000 3.899506e+000 2.790418e+000 2.816279e+000 3.490564e+000 3.028670e+000 2.937037e+000 2.963186e+000 1.922567e+000 1.526247e+000
<GCONST> 1.051774e+002
<TRANSP> 5
 0.000000e+000 1.000000e+000 0.000000e+000 0.000000e+000 0.000000e+000
 0.000000e+000 8.287219e-001 1.712781e-001 0.000000e+000 0.000000e+000
 0.000000e+000 0.000000e+000 8.261395e-001 1.738605e-001 0.000000e+000
 0.000000e+000 0.000000e+000 0.000000e+000 9.099930e-001 9.000707e-002
 0.000000e+000 0.000000e+000 0.000000e+000 0.000000e+000 0.000000e+000
<ENDHMM>
~h "d"
<BEGINHMM>
<NUMSTATES> 5
<STATE> 2
<MEAN> 25
 -5.882154e+000 -1.683911e+000 -1.817412e+000 2.413687e+000 6.702344e-001 1.416252e+000 -1.009261e+000 -1.810805e+000 -4.810643e-001 -1.416530e+000 9.002585e-002 3.459802e-001 -2.353767e-002 6.916835e-003 -5.294292e-003 1.187523e-002 -1.321200e-002 1.651616e-002 3.459596e-003 -3.881410e-002 -2.510237e-002 -2.856157e-002 4.919222e-003 -2.064280e-003 -2.229489e-002
<VARIANCE> 25
 1.589293e+001 5.926782e+000 9.233040e+000 1.060580e+001 1.013949e+001 1.115860e+001 9.947734e+000 1.219238e+001 1.262787e+001 1.350360e+001 1.042296e+001 9.231889e+000 8.923271e-002 1.693020e-001 2.728511e-001 4.098360e-001 5.199193e-001 6.986092e-001 7.417645e-001 8.118858e-001 8.555484e-001 8.224718e-001 8.111702e-001 7.720484e-001 4.350239e-002
<GCONST> 6.245116e+001
<STATE> 3
<MEAN> 25
 9.322699e-001 1.701019e+000 1.675507e+000 3.535950e+000 3.759935e+000 1.986217e+000 -5.722582e-001 4.412594e-001 -2.680112e+000 -4.306938e-001 9.826462e-001 8.165286e-001 5.372810e-002 6.149392e-002 7.824703e-002 1.889741e-002 6.420793e-002 5.062335e-002 6.072470e-002 1.952693e-002 -4.643886e-002 5.108857e-003 3.028520e-004 -2.752099e-003 5.490945e-002
<VARIANCE> 25
 1.659033e+001 9.735925e+000 1.238995e+001 1.201382e+001 1.822260e+001 1.719332e+001 2.101109e+001 1.812114e+001 2.771037e+001 1.658231e+001 1.363447e+001 1.234528e+001 3.882395e-001 8.845688e-001 9.380125e-001 1.003519e+000 1.375055e+000 1.237723e+000 1.547253e+000 1.500412e+000 1.755668e+000 1.513905e+000 1.267544e+000 1.183736e+000 2.322164e-001
<GCONST> 7.914778e+001
<STATE> 4
<MEAN> 25
 6.178305e+000 6.311554e+000 3.813092e+000 1.619437e+000 3.627163e+000 -1.921741e+000 -2.577283e+000 1.649957e-001 -4.682042e+000 2.940794e-001 2.128448e-001 -4.752128e-001 5.561403e-001 2.610172e-001 2.676026e-001 -3.136003e-001 1.275677e-001 -1.614853e-001 -1.569145e-001 1.923855e-001 -2.168379e-001 3.409818e-002 -1.480627e-001 -9.650633e-002 6.115543e-001
<VARIANCE> 25
 5.042896e+001 3.893608e+001 2.918196e+001 3.098350e+001 3.936298e+001 4.286750e+001 3.839187e+001 4.268890e+001 4.117905e+001 2.040931e+001 2.134665e+001 2.108851e+001 3.771726e+000 4.131798e+000 3.054378e+000 3.478003e+000 3.631903e+000 3.463926e+000 3.477721e+000 4.036114e+000 3.332010e+000 2.433221e+000 2.265528e+000 2.076919e+000 4.204615e+000
<GCONST> 1.033735e+002
<TRANSP> 5
 0.000000e+000 1.000000e+000 0.000000e+000 0.000000e+000 0.000000e+000
 0.000000e+000 9.285647e-001 7.143528e-002 0.000000e+000 0.000000e+000
 0.000000e+000 0.000000e+000 8.651544e-001 1.348456e-001 0.000000e+000
 0.000000e+000 0.000000e+000 0.000000e+000 8.254510e-001 1.745490e-001
 0.000000e+000 0.000000e+000 0.000000e+000 0.000000e+000 0.000000e+000
<ENDHMM>
~h "f"
<BEGINHMM>
<NUMSTATES> 5
<STATE> 2
<MEAN> 25
 3.930648e+000 -2.127308e-001 2.658288e+000 4.302321e-001 3.102696e+000 -1.651086e+000 -2.169320e+000 1.223368e+000 -1.679055e+000 1.670741e+000 5.049970e-001 -7.884163e-001 -6.467957e-001 -6.605560e-001 -4.509312e-001 -4.761465e-001 2.790082e-002 -2.070842e-001 1.991563e-001 -2.965972e-002 1.443069e-001 3.411829e-001 1.964446e-001 8.449698e-002 6.408389e-001
<VARIANCE> 25
 4.757331e+001 5.041666e+001 6.512313e+001 6.064981e+001 4.872944e+001 7.843059e+001 3.154112e+001 4.095232e+001 4.438932e+001 3.062613e+001 2.339202e+001 2.422012e+001 4.429420e+000 5.838896e+000 5.754450e+000 6.510784e+000 5.112656e+000 6.688202e+000 3.120508e+000 4.655540e+000 5.388073e+000 3.547335e+000 3.166505e+000 2.256672e+000 5.395865e+000
<GCONST> 1.106644e+002
<STATE> 3
<MEAN> 25
 -7.785867e-001 -2.280676e+000 -1.867406e+000 3.587634e-002 1.109072e+000 -7.763527e-001 6.834732e-001 8.714374e-001 1.038553e+000 1.994278e+000 5.216748e-001 -9.503841e-002 -2.712705e-001 -2.707216e-001 -9.836598e-002 6.030400e-002 -4.209314e-002 1.188464e-001 2.067440e-001 1.223184e-001 1.223811e-001 5.083472e-002 4.174822e-002 -5.197640e-002 -9.544425e-002
<VARIANCE> 25
 3.440301e+001 3.213004e+001 4.992690e+001 5.427999e+001 3.509465e+001 3.761707e+001 2.708911e+001 2.317579e+001 3.701694e+001 3.223332e+001 2.529549e+001 1.851278e+001 1.527370e+000 1.122883e+000 1.362488e+000 1.335420e+000 1.870835e+000 2.394569e+000 1.702488e+000 1.905517e+000 1.998564e+000 1.760197e+000 1.508453e+000 1.517088e+000 8.178809e-001
<GCONST> 9.341992e+001
<STATE> 4
<MEAN> 25
 4.470906e+000 -5.155273e+000 -3.649412e+000 -2.634393e+000 1.032212e+000 -3.175578e+000 -2.588446e-001 1.743245e+000 3.927916e+000 1.770848e+000 -1.171386e+000 -2.257493e+000 1.558492e+000 1.421294e-001 -2.116202e-001 -2.475227e-001 -5.456568e-001 -4.506291e-001 -3.495375e-001 4.443109e-002 5.141918e-001 -2.879084e-001 -5.843053e-001 -3.608810e-001 1.143034e+000
<VARIANCE> 25
 8.298069e+001 4.121894e+001 4.181186e+001 5.407001e+001 3.782546e+001 4.804306e+001 5.577032e+001 3.268245e+001 5.639524e+001 4.354496e+001 4.401614e+001 2.865136e+001 7.707767e+000 5.339419e+000 3.363636e+000 5.278741e+000 4.385582e+000 5.895891e+000 5.727646e+000 4.311774e+000 5.380950e+000 4.364143e+000 3.648996e+000 2.463729e+000 6.548203e+000
<GCONST> 1.120519e+002
<TRANSP> 5
 0.000000e+000 1.000000e+000 0.000000e+000 0.000000e+000 0.000000e+000
 0.000000e+000 6.971568e-001 3.028432e-001 0.000000e+000 0.000000e+000
 0.000000e+000 0.000000e+000 8.109682e-001 1.890319e-001 0.000000e+000
 0.000000e+000 0.000000e+000 0.000000e+000 8.009714e-001 1.990286e-001
 0.000000e+000 0.000000e+000 0.000000e+000 0.000000e+000 0.000000e+000
<ENDHMM>
~h "g"
<BEGINHMM>
<NUMSTATES> 5
<STATE> 2
<MEAN> 25
 -2.340946e+001 5.113882e+000 -6.941498e+000 4.864092e+000 -1.615948e+000 6.445897e+000 5.322821e-001 3.753204e+000 3.633802e+000 4.778420e+000 5.050427e+000 3.003020e+000 -3.861035e-003 -4.221869e-003 -1.887164e-002 -1.562105e-002 -1.045600e-002 4.833587e-003 4.759288e-003 -1.496644e-002 -2.426132e-002 -4.188902e-002 -1.185625e-002 -2.027299e-003 -2.882804e-003
<VARIANCE> 25
 1.562426e+001 5.832819e+000 9.374107e+000 6.701808e+000 1.254190e+001 1.282187e+001 9.968083e+000 1.589494e+001 1.986069e+001 1.395821e+001 9.968787e+000 7.642871e+000 5.168174e-002 1.483442e-001 2.270496e-001 3.865875e-001 6.262404e-001 6.162943e-001 1.076908e+000 1.315839e+000 1.162402e+000 8.944441e-001 8.355027e-001 7.991002e-001 2.535352e-002
<GCONST> 6.275601e+001
<STATE> 3
<MEAN> 25
 -7.260815e+000 3.626166e+000 -7.643167e+000 3.692239e+000 -3.281371e+000 1.362336e+000 4.961340e+000 -2.380589e+000 4.602353e+000 3.033772e-001 3.324763e+000 1.642635e+000 1.435811e-002 -1.302426e-002 -2.906677e-002 -1.883227e-002 -8.824983e-003 -3.045623e-002 4.683467e-002 -5.829420e-002 -7.272898e-003 -4.547007e-002 4.263700e-003 3.123923e-002 4.152134e-002
<VARIANCE> 25
 2.001873e+001 3.984981e+000 9.375134e+000 9.102118e+000 9.488247e+000 1.251424e+001 1.254217e+001 1.419923e+001 1.332614e+001 1.043585e+001 8.660975e+000 7.463835e+000 1.685527e-001 2.675456e-001 4.327535e-001 6.595222e-001 7.231531e-001 7.368035e-001 8.240109e-001 1.094819e+000 1.174364e+000 8.582838e-001 7.436453e-001 8.207991e-001 3.451562e-001
<GCONST> 6.720090e+001
<STATE> 4
<MEAN> 25
 -7.627563e+000 2.586420e+000 -4.590353e+000 3.968909e+000 -9.346870e-001 1.988997e+000 1.947429e+000 -1.869503e+000 2.175663e+000 1.014689e+000 1.697830e+000 3.086984e-001 -2.036043e-002 4.808676e-003 1.614554e-002 -3.480844e-002 -1.833397e-002 -2.547936e-002 5.349685e-002 3.939759e-002 -4.037718e-002 1.946481e-002 -8.993559e-003 -1.398533e-003 -5.772578e-003
<VARIANCE> 25
 2.717158e+001 4.633168e+000 7.114012e+000 1.059080e+001 8.884581e+000 1.420805e+001 1.665811e+001 1.432085e+001 1.401807e+001 1.058937e+001 1.211285e+001 8.935740e+000 9.691598e-002 1.762568e-001 3.834658e-001 6.111579e-001 5.695417e-001 5.574533e-001 8.598791e-001 8.346328e-001 8.629825e-001 8.263842e-001 7.370512e-001 7.268854e-001 6.241842e-002
<GCONST> 6.436597e+001
<TRANSP> 5
 0.000000e+000 1.000000e+000 0.000000e+000 0.000000e+000 0.000000e+000
 0.000000e+000 9.631484e-001 3.685161e-002 0.000000e+000 0.000000e+000
 0.000000e+000 0.000000e+000 8.710021e-001 1.289979e-001 0.000000e+000
 0.000000e+000 0.000000e+000 0.000000e+000 8.095199e-001 1.904800e-001
 0.000000e+000 0.000000e+000 0.000000e+000 0.000000e+000 0.000000e+000
<ENDHMM>
~h "k"
<BEGINHMM>
<NUMSTATES> 5
<STATE> 2
<MEAN> 25
 4.937359e+000 -5.604246e-001 1.726555e+000 -7.609143e-001 1.437902e+000 -1.279217e+000 1.823906e-001 -2.252299e+000 3.883696e-001 -3.035392e+000 2.593372e-001 -2.006647e+000 4.803625e-001 -7.469853e-001 1.736171e-001 -5.325803e-002 4.115371e-001 2.453362e-001 -8.875579e-001 -5.541536e-001 2.235636e-001 -6.553356e-002 -1.853918e-001 -3.181331e-001 9.155114e-001
<VARIANCE> 25
 6.285674e+001 6.647025e+001 1.028501e+002 7.439987e+001 1.066134e+002 6.388765e+001 8.856984e+001 8.214003e+001 9.804216e+001 5.856936e+001 7.754354e+001 3.288563e+001 2.461939e+000 5.231821e+000 5.189243e+000 4.394650e+000 7.627890e+000 5.099896e+000 7.375071e+000 7.853580e+000 9.112179e+000 6.760614e+000 6.354675e+000 3.514572e+000 4.921145e+000
<GCONST> 1.196685e+002
<STATE> 3
<MEAN> 25
 7.617488e+000 -6.732051e+000 1.259904e+000 -4.021705e-001 4.048707e+000 5.250881e-001 -3.360979e+000 -3.684467e+000 1.410043e+000 -6.881965e+000 -4.615808e+000 -1.969637e+000 -1.802313e-001 2.580235e-002 -2.104632e-001 -3.303280e-002 5.272820e-001 -4.787080e-002 5.407095e-002 2.147979e-001 3.748783e-002 -1.763806e-002 -1.126803e-001 2.813849e-001 1.292561e-001
<VARIANCE> 25
 3.800449e+001 7.085724e+001 6.892483e+001 3.814911e+001 1.069202e+002 6.229757e+001 8.728791e+001 1.006392e+002 1.062067e+002 8.876938e+001 5.573921e+001 4.228293e+001 1.618762e+000 2.797845e+000 2.952906e+000 2.626119e+000 3.163490e+000 3.252789e+000 3.779602e+000 3.634769e+000 2.811503e+000 3.427995e+000 2.903017e+000 2.125370e+000 1.845161e+000
<GCONST> 1.097292e+002
<STATE> 4
<MEAN> 25
 -9.912283e-001 7.578012e-001 -1.735709e+000 -8.548334e-001 7.302343e+000 -2.246187e+000 -8.708271e-001 1.170310e+000 1.739615e+000 -6.024118e-001 -5.167010e-001 1.910797e+000 -3.919135e-001 -6.017807e-002 -1.961460e-001 -1.718736e-001 -1.794738e-001 8.944729e-002 4.347393e-001 3.314741e-001 -4.733800e-002 1.458226e-001 3.182891e-001 1.767229e-001 2.265887e-002
<VARIANCE> 25
 8.311687e+001 6.171775e+001 9.104514e+001 9.106439e+001 7.914158e+001 8.535411e+001 8.735180e+001 6.305092e+001 8.070602e+001 5.909287e+001 5.976730e+001 3.781585e+001 5.583191e+000 6.018476e+000 6.545523e+000 7.955104e+000 7.769510e+000 8.252641e+000 7.462615e+000 6.094354e+000 6.590067e+000 4.526744e+000 4.795842e+000 4.249008e+000 3.366922e+000
<GCONST> 1.202069e+002
<TRANSP> 5
 0.000000e+000 1.000000e+000 0.000000e+000 0.000000e+000 0.000000e+000
 0.000000e+000 7.121055e-001 2.878944e-001 0.000000e+000 0.000000e+000
 0.000000e+000 0.000000e+000 7.467965e-001 2.532035e-001 0.000000e+000
 0.000000e+000 0.000000e+000 0.000000e+000 7.058638e-001 2.941362e-001
 0.000000e+000 0.000000e+000 0.000000e+000 0.000000e+000 0.000000e+000
<ENDHMM>
~h "l"
<BEGINHMM>
<NUMSTATES> 5
<STATE> 2
<MEAN> 25
 9.592800e+000 -1.147739e+000 5.463574e+000 2.994673e-001 -3.415181e+000 -3.515929e+000 -1.248763e+000 2.092731e+000 -8.056256e-001 6.420450e-001 -4.455636e-001 -1.323738e+000 2.141908e-001 -1.043600e-001 -5.772195e-002 -3.639956e-001 -1.730405e-001 -1.927451e-001 -2.430832e-001 5.040977e-002 2.676213e-001 9.373727e-002 -7.068455e-002 6.620796e-002 3.805386e-001
<VARIANCE> 25
 4.193077e+001 6.422681e+001 4.840290e+001 5.860522e+001 1.325774e+002 5.925443e+001 8.671537e+001 4.442399e+001 5.509150e+001 3.146085e+001 3.605864e+001 2.539347e+001 2.114351e+000 4.989215e+000 2.833500e+000 4.874304e+000 6.021890e+000 3.784518e+000 6.101641e+000 3.642801e+000 4.231448e+000 3.098334e+000 3.476241e+000 2.358256e+000 3.516672e+000
<GCONST> 1.104425e+002
<STATE> 3
<MEAN> 25
 9.874439e+000 -9.282506e-001 5.462044e+000 -2.447819e+000 -5.501094e+000 -5.535641e+000 -5.019577e+000 1.511097e+000 1.339717e+000 -3.734658e+000 -7.193754e+000 -8.654290e-001 -9.068270e-002 3.336732e-001 -1.807763e-001 9.436961e-003 2.101102e-001 2.002865e-001 7.636748e-002 -1.071133e-001 3.929111e-001 3.430334e-001 4.493703e-002 -1.534668e-001 -3.461471e-001
<VARIANCE> 25
 2.795579e+001 2.071537e+001 2.887992e+001 2.443280e+001 5.175793e+001 4.234413e+001 3.175043e+001 4.865131e+001 4.910369e+001 4.802195e+001 6.576492e+001 2.149820e+001 3.937584e-001 9.111771e-001 1.214331e+000 1.255545e+000 2.303629e+000 1.833182e+000 1.882051e+000 2.166521e+000 2.375567e+000 2.091737e+000 2.791080e+000 1.566779e+000 5.531177e-001
<GCONST> 9.365139e+001
<STATE> 4
<MEAN> 25
 1.024808e+001 3.388994e+000 -2.479508e+000 -7.558277e+000 1.984815e+000 2.980292e+000 -2.778710e+000 -5.237489e+000 3.789125e+000 3.669916e+000 2.668177e+000 -3.054656e-001 -3.967364e-001 2.418012e-001 -1.893864e-001 2.822917e-001 1.543884e-002 2.915801e-001 2.470754e-001 -1.453957e-001 -2.610340e-001 -1.313181e-001 3.451055e-001 1.147326e-001 -5.985135e-001
<VARIANCE> 25
 6.209602e+001 3.418299e+001 3.200546e+001 9.091863e+001 6.024081e+001 9.150555e+001 7.745869e+001 8.853639e+001 8.685606e+001 5.684355e+001 5.560301e+001 3.912289e+001 1.620628e+000 1.957386e+000 2.330102e+000 4.034070e+000 3.903700e+000 4.530754e+000 4.333894e+000 5.475664e+000 3.634714e+000 3.320699e+000 3.389551e+000 2.533655e+000 1.425701e+000
<GCONST> 1.096511e+002
<TRANSP> 5
 0.000000e+000 1.000000e+000 0.000000e+000 0.000000e+000 0.000000e+000
 0.000000e+000 7.448151e-001 2.551849e-001 0.000000e+000 0.000000e+000
 0.000000e+000 0.000000e+000 8.166398e-001 1.833601e-001 0.000000e+000
 0.000000e+000 0.000000e+000 0.000000e+000 8.461161e-001 1.538839e-001
 0.000000e+000 0.000000e+000 0.000000e+000 0.000000e+000 0.000000e+000
<ENDHMM>
~h "m"
<BEGINHMM>
<NUMSTATES> 5
<STATE> 2
<MEAN> 25
 4.638688e+000 4.552822e-001 4.530218e-001 -3.585338e+000 -6.793797e-002 -1.535673e+000 2.660448e-001 7.256646e-001 -1.599690e+000 -6.267924e-001 6.902277e-003 -6.999167e-001 1.847563e+000 6.423720e-001 7.328450e-001 -6.889521e-001 -2.009355e-001 2.783566e-002 -8.516043e-002 -1.348839e-001 -6.641944e-002 5.426635e-001 -4.909001e-001 -6.354567e-001 9.223067e-001
<VARIANCE> 25
 5.410722e+001 6.356000e+001 7.283945e+001 8.131863e+001 1.049615e+002 6.319715e+001 5.190710e+001 4.992156e+001 5.355104e+001 3.259132e+001 3.080272e+001 1.990863e+001 5.174100e+000 5.579592e+000 4.408666e+000 6.467830e+000 6.568486e+000 6.101281e+000 4.884760e+000 5.899200e+000 4.780396e+000 3.133362e+000 3.462832e+000 2.870986e+000 9.281685e+000
<GCONST> 1.143160e+002
<STATE> 3
<MEAN> 25
 9.164750e+000 2.158004e+000 2.988790e+000 -6.229073e+000 -9.058295e-001 -1.747195e+000 -7.973006e-001 -2.349396e-001 -1.738636e+000 1.870186e+000 -3.051788e+000 -1.655620e+000 1.523134e-001 1.790849e-001 4.640464e-001 3.771079e-001 -3.837847e-001 4.038901e-002 -6.569012e-002 -1.889970e-001 -7.402778e-003 2.435159e-001 -1.445647e-001 -2.081401e-001 -3.440670e-001
<VARIANCE> 25
 3.101249e+001 6.118971e+001 5.299429e+001 5.061294e+001 8.496910e+001 4.745859e+001 4.503458e+001 5.614900e+001 4.395230e+001 3.574839e+001 3.316539e+001 2.421095e+001 1.874457e+000 1.626340e+000 2.105063e+000 2.611114e+000 3.316008e+000 3.277187e+000 2.524900e+000 4.019723e+000 3.043920e+000 2.464182e+000 2.733245e+000 2.427270e+000 2.999080e+000
<GCONST> 1.041027e+002
<STATE> 4
<MEAN> 25
 8.448009e+000 1.558266e-001 3.155385e+000 -2.884557e+000 -2.805624e+000 3.081860e+000 4.473167e-002 -4.352789e+000 1.735633e+000 -5.471584e-001 -2.285142e+000 -2.176621e+000 -3.283502e-001 -3.357835e-001 -1.804262e-001 4.221330e-001 2.155119e-001 -3.816352e-002 -3.779647e-002 1.296180e-001 2.760101e-001 -2.516232e-001 1.596107e-002 1.275701e-001 -7.132710e-002
<VARIANCE> 25
 4.641995e+001 7.398071e+001 8.583752e+001 8.961962e+001 8.796066e+001 9.365395e+001 7.834940e+001 1.252676e+002 9.590936e+001 9.347829e+001 1.018977e+002 3.962054e+001 2.076525e+000 3.985162e+000 3.522431e+000 4.625507e+000 5.675936e+000 6.449436e+000 5.506897e+000 7.411640e+000 5.138030e+000 6.604570e+000 5.800601e+000 3.356743e+000 2.575160e+000
<GCONST> 1.183016e+002
<TRANSP> 5
 0.000000e+000 1.000000e+000 0.000000e+000 0.000000e+000 0.000000e+000
 0.000000e+000 5.793070e-001 4.206930e-001 0.000000e+000 0.000000e+000
 0.000000e+000 0.000000e+000 5.728614e-001 4.271386e-001 0.000000e+000
 0.000000e+000 0.000000e+000 0.000000e+000 8.752258e-001 1.247743e-001
 0.000000e+000 0.000000e+000 0.000000e+000 0.000000e+000 0.000000e+000
<ENDHMM>
~h "n"
<BEGINHMM>
<NUMSTATES> 5
<STATE> 2
<MEAN> 25
 7.927992e+000 -1.252946e+000 5.825449e+000 -2.482795e+000 -5.572048e+000 -1.760630e+000 -1.918797e+000 -1.120967e+000 -1.451685e+000 -1.038174e+000 -5.463892e-001 -2.438304e+000 1.164276e+000 -1.094842e-001 1.959326e-001 2.530806e-001 -4.836685e-001 1.142341e-001 -5.674231e-001 -5.720955e-001 2.066397e-001 -3.995660e-002 -6.212288e-001 -4.581755e-002 1.805630e-001
<VARIANCE> 25
 5.880832e+001 6.797186e+001 8.234948e+001 5.147020e+001 9.386712e+001 7.342606e+001 6.636069e+001 6.539314e+001 6.471574e+001 4.696885e+001 7.352200e+001 3.752850e+001 4.952522e+000 4.057477e+000 4.631630e+000 4.203463e+000 6.344068e+000 5.729636e+000 5.190395e+000 5.821361e+000 5.156037e+000 4.493160e+000 4.982869e+000 3.450741e+000 4.415987e+000
<GCONST> 1.161915e+002
<STATE> 3
<MEAN> 25
 1.265427e+001 -1.809090e+000 3.338354e+000 -4.347392e+000 -2.471753e+000 -2.307113e+000 -6.440904e+000 -8.601767e-001 -4.263509e-001 -1.690516e+000 -6.873208e+000 -6.020979e-001 6.557494e-002 9.512784e-002 -3.472083e-002 8.727877e-002 1.326394e-001 6.403317e-002 2.899051e-002 -4.573440e-002 4.646488e-002 1.777538e-002 -7.940593e-002 8.481939e-002 -1.587507e-001
<VARIANCE> 25
 1.636013e+001 3.905146e+001 4.852169e+001 3.638812e+001 9.264716e+001 4.587959e+001 4.231877e+001 9.111500e+001 6.599925e+001 3.321529e+001 3.938031e+001 3.587653e+001 4.344774e-001 1.431591e+000 1.277092e+000 1.890482e+000 2.486785e+000 2.319730e+000 2.032450e+000 2.695265e+000 2.691250e+000 1.764742e+000 2.261475e+000 2.152002e+000 6.237800e-001
<GCONST> 9.796932e+001
<STATE> 4
<MEAN> 25
 1.157787e+001 -1.695708e+000 4.751525e+000 -5.745545e-002 -4.043971e+000 -1.619987e+000 -1.525594e-001 7.164169e-001 6.890844e-001 -2.311241e+000 -4.681215e+000 -7.564752e-001 -3.799784e-001 5.595611e-001 -3.737537e-001 1.866689e-001 6.591820e-001 -2.402515e-002 1.291701e-001 3.667964e-001 -3.351413e-001 1.441598e-001 4.078660e-001 -1.880780e-001 -6.979241e-001
<VARIANCE> 25
 2.839308e+001 9.194645e+001 4.595221e+001 3.987400e+001 9.737906e+001 5.058192e+001 6.555331e+001 7.489284e+001 5.432263e+001 7.396764e+001 4.576872e+001 3.487847e+001 1.547554e+000 3.324037e+000 2.592002e+000 2.684075e+000 5.472212e+000 3.690024e+000 3.921816e+000 5.141972e+000 3.583308e+000 3.864996e+000 3.278405e+000 2.388390e+000 1.707402e+000
<GCONST> 1.088109e+002
<TRANSP> 5
 0.000000e+000 1.000000e+000 0.000000e+000 0.000000e+000 0.000000e+000
 0.000000e+000 7.913546e-001 2.086454e-001 0.000000e+000 0.000000e+000
 0.000000e+000 0.000000e+000 8.559415e-001 1.440585e-001 0.000000e+000
 0.000000e+000 0.000000e+000 0.000000e+000 7.741440e-001 2.258560e-001
 0.000000e+000 0.000000e+000 0.000000e+000 0.000000e+000 0.000000e+000
<ENDHMM>
~h "p"
<BEGINHMM>
<NUMSTATES> 5
<STATE> 2
<MEAN> 25
 2.640246e+000 -2.648392e+000 5.037134e-001 -1.899564e+000 3.540872e-001 -2.513882e+000 5.213704e-001 7.834970e-001 1.045777e-004 1.512617e+000 3.079836e-001 1.549974e-001 -8.581085e-001 -9.395677e-001 -3.819388e-002 -9.266986e-001 9.932625e-002 -1.085671e-001 6.444148e-001 6.328296e-001 2.989765e-001 -1.321798e-002 -2.944943e-001 -3.006563e-001 2.419721e+000
<VARIANCE> 25
 5.188540e+001 5.950388e+001 5.727514e+001 5.516897e+001 4.745168e+001 5.362082e+001 4.994954e+001 4.057410e+001 5.211353e+001 3.058847e+001 3.952963e+001 3.170921e+001 7.657492e+000 5.762708e+000 6.563866e+000 6.822031e+000 5.652427e+000 5.429579e+000 4.835321e+000 4.074355e+000 6.196114e+000 4.837920e+000 3.766083e+000 3.618354e+000 1.109968e+001
<GCONST> 1.144166e+002
<STATE> 3
<MEAN> 25
 8.707868e-001 -5.213092e+000 8.333588e-001 -2.584386e+000 1.662227e+000 -1.719808e+000 5.897268e+000 3.931127e+000 -7.585296e-001 -1.392696e-002 -2.471086e+000 -5.115597e-001 -1.353383e+000 1.091651e+000 3.377207e-002 2.227499e-001 7.100318e-001 -3.283274e-001 2.089228e-001 2.736948e-001 -2.049234e-001 -8.799675e-002 4.127709e-001 2.022917e-001 -5.084278e-001
<VARIANCE> 25
 7.916325e+001 5.584026e+001 9.912695e+001 5.292402e+001 5.278195e+001 4.151656e+001 4.933536e+001 3.078824e+001 6.138691e+001 5.481929e+001 3.807639e+001 2.622055e+001 5.575512e+000 3.045183e+000 3.488607e+000 3.546412e+000 3.428578e+000 3.352911e+000 2.963910e+000 3.227187e+000 4.745620e+000 2.442793e+000 3.038623e+000 2.276495e+000 1.626413e+000
<GCONST> 1.078699e+002
<STATE> 4
<MEAN> 25
 -1.197314e+001 6.067879e+000 -1.402504e+000 -9.065275e-001 9.195991e+000 -6.258621e+000 6.788085e+000 4.707304e+000 4.628153e-001 -1.388134e+000 8.379359e-001 1.299939e+000 1.836092e-001 -5.219583e-002 -2.647061e-002 1.588356e-001 6.156567e-002 1.532925e-001 -2.831054e-001 -1.843560e-001 -6.487746e-002 8.235778e-002 -1.186658e-001 -8.583106e-002 -8.883967e-001
<VARIANCE> 25
 7.054572e+001 3.420768e+001 4.376060e+001 4.939993e+001 5.065768e+001 5.486693e+001 4.404350e+001 6.328253e+001 4.210632e+001 3.774673e+001 3.863386e+001 3.389350e+001 2.494441e+000 1.967978e+000 2.324429e+000 3.415926e+000 3.455962e+000 3.850186e+000 3.355080e+000 3.961850e+000 3.604005e+000 3.480755e+000 2.788623e+000 2.832320e+000 1.423704e+000
<GCONST> 1.056132e+002
<TRANSP> 5
 0.000000e+000 1.000000e+000 0.000000e+000 0.000000e+000 0.000000e+000
 0.000000e+000 6.512444e-001 3.487556e-001 0.000000e+000 0.000000e+000
 0.000000e+000 0.000000e+000 7.643940e-001 2.356060e-001 0.000000e+000
 0.000000e+000 0.000000e+000 0.000000e+000 8.646704e-001 1.353296e-001
 0.000000e+000 0.000000e+000 0.000000e+000 0.000000e+000 0.000000e+000
<ENDHMM>
~h "r"
<BEGINHMM>
<NUMSTATES> 5
<STATE> 2
<MEAN> 25
 4.696635e+000 -8.169009e+000 -2.586964e+000 -4.037329e+000 -2.661248e-001 -2.964214e+000 1.719598e+000 3.922601e+000 3.514794e+000 -2.208411e+000 -4.952393e+000 -1.293083e+000 -2.344349e-001 -7.204842e-003 7.171934e-001 1.548965e-002 -5.555782e-001 -5.374286e-001 2.986122e-001 3.291377e-001 -4.766866e-001 -2.660562e-001 2.334108e-001 4.996128e-001 6.204282e-002
<VARIANCE> 25
 8.800035e+001 4.905278e+001 4.850006e+001 4.199534e+001 4.439640e+001 5.281685e+001 7.004295e+001 4.022253e+001 6.063504e+001 5.834284e+001 4.191562e+001 2.621071e+001 1.518451e+000 1.657382e+000 2.128360e+000 1.971441e+000 2.841614e+000 2.799876e+000 3.413307e+000 3.529379e+000 3.215331e+000 4.581651e+000 2.987718e+000 2.416819e+000 1.283915e+000
<GCONST> 1.046495e+002
<STATE> 3
<MEAN> 25
 4.771853e+000 -3.882093e+000 5.218408e+000 -3.033493e+000 -2.609258e+000 -4.732065e+000 -1.021467e+000 1.991378e+000 -3.034206e+000 6.973601e-001 -1.150729e+000 -4.117443e-001 1.232121e-002 5.868090e-001 2.221768e-001 5.186721e-001 -9.914161e-002 1.709535e-001 -7.694360e-002 -5.141453e-001 -2.320543e-001 -2.744978e-002 1.813041e-001 4.395281e-002 -8.395845e-001
<VARIANCE> 25
 7.464208e+001 5.174205e+001 7.675166e+001 4.716726e+001 7.548279e+001 4.445486e+001 6.284500e+001 3.957188e+001 5.840053e+001 4.209000e+001 3.566890e+001 2.845587e+001 2.085211e+000 2.144058e+000 2.587700e+000 1.773106e+000 2.838482e+000 2.223382e+000 2.914108e+000 2.581532e+000 2.442830e+000 2.275612e+000 2.669787e+000 2.064071e+000 9.808721e-001
<GCONST> 1.033512e+002
<STATE> 4
<MEAN> 25
 -1.665612e+000 1.289003e+000 2.931292e+000 2.199661e+000 -1.343231e+000 -2.753275e+000 3.464430e+000 -3.482235e-001 2.637590e-002 -2.583207e+000 8.147979e-001 7.860919e-001 -5.249076e-001 8.426882e-002 -1.330423e-001 2.678241e-001 1.893092e-001 8.728720e-002 -1.032806e-002 -1.930501e-001 4.694150e-002 -1.149333e-001 2.524360e-002 -2.966016e-002 -5.081437e-001
<VARIANCE> 25
 9.379332e+001 5.840695e+001 7.056306e+001 8.196352e+001 1.061720e+002 7.057520e+001 8.093842e+001 6.633315e+001 6.595041e+001 5.516118e+001 3.969879e+001 3.694135e+001 4.828341e+000 3.920323e+000 4.485801e+000 4.943559e+000 5.775641e+000 6.365345e+000 6.218894e+000 5.734553e+000 5.657623e+000 6.029899e+000 4.534902e+000 3.382851e+000 2.649632e+000
<GCONST> 1.166711e+002
<TRANSP> 5
 0.000000e+000 1.000000e+000 0.000000e+000 0.000000e+000 0.000000e+000
 0.000000e+000 7.143804e-001 2.856195e-001 0.000000e+000 0.000000e+000
 0.000000e+000 0.000000e+000 6.945677e-001 3.054323e-001 0.000000e+000
 0.000000e+000 0.000000e+000 0.000000e+000 7.649314e-001 2.350686e-001
 0.000000e+000 0.000000e+000 0.000000e+000 0.000000e+000 0.000000e+000
<ENDHMM>
~h "s"
<BEGINHMM>
<NUMSTATES> 5
<STATE> 2
<MEAN> 25
 5.828176e+000 -1.593123e+000 -1.827258e+000 -3.116785e+000 1.304488e+000 -2.778000e+000 -2.593794e+000 3.867228e-001 2.713178e+000 8.267333e-001 -1.127984e+000 -5.387600e-001 3.505211e-001 -3.339504e-001 -1.944668e-001 -2.494022e-002 -2.383039e-001 -1.610867e-001 1.171166e-003 3.121951e-001 3.541924e-001 -2.053067e-001 -2.564333e-001 -1.086808e-001 6.403504e-001
<VARIANCE> 25
 7.810490e+001 6.343703e+001 5.798732e+001 7.390416e+001 7.621959e+001 5.920428e+001 6.318592e+001 5.390876e+001 6.711984e+001 6.215490e+001 5.835105e+001 4.054914e+001 6.865556e+000 4.955867e+000 5.156284e+000 6.832912e+000 6.380406e+000 5.772367e+000 5.845986e+000 5.049547e+000 6.270798e+000 6.099306e+000 4.970912e+000 5.055683e+000 6.817748e+000
<GCONST> 1.183393e+002
<STATE> 3
<MEAN> 25
 6.302250e+000 -7.331276e+000 -1.795880e+000 5.680907e-001 -5.764569e-001 -3.097563e+000 2.949883e+000 5.280265e+000 2.186581e+000 -4.378850e+000 -4.653681e+000 1.433805e-001 -6.397946e-001 6.804115e-001 2.048627e-001 2.874457e-001 4.406917e-001 -1.459953e-001 4.248933e-001 1.396585e-001 -3.962379e-001 1.579314e-001 3.220002e-001 1.757529e-001 -5.765567e-001
<VARIANCE> 25
 6.392207e+001 7.168604e+001 5.623734e+001 4.499282e+001 7.569895e+001 5.441677e+001 5.742934e+001 5.031276e+001 5.916406e+001 5.531393e+001 4.969286e+001 2.608230e+001 3.034109e+000 2.921889e+000 3.128330e+000 2.571468e+000 3.846258e+000 3.598810e+000 2.921133e+000 3.634487e+000 3.420503e+000 3.169649e+000 3.086659e+000 2.120664e+000 1.361467e+000
<GCONST> 1.075937e+002
<STATE> 4
<MEAN> 25
 -1.069368e+001 4.694331e+000 -1.128583e+000 -1.042573e+000 7.639054e+000 -8.809306e+000 5.371293e+000 6.053326e+000 -6.485319e-001 9.441364e-001 8.101153e-001 1.908919e+000 3.380579e-002 -2.167125e-002 -7.201260e-002 8.636268e-002 8.221684e-002 1.493271e-001 -2.241232e-001 -1.543759e-001 4.639421e-003 1.965957e-001 1.702969e-002 -4.017346e-002 -6.579133e-001
<VARIANCE> 25
 8.246117e+001 2.596814e+001 3.723445e+001 4.473071e+001 4.344520e+001 6.433089e+001 5.236756e+001 5.232965e+001 4.730055e+001 3.890063e+001 4.184755e+001 3.042433e+001 3.206652e+000 1.616422e+000 1.840617e+000 2.470819e+000 3.075921e+000 3.678245e+000 3.404508e+000 3.917922e+000 3.337647e+000 2.927992e+000 2.525381e+000 2.458285e+000 9.270222e-001
<GCONST> 1.037587e+002
<TRANSP> 5
 0.000000e+000 1.000000e+000 0.000000e+000 0.000000e+000 0.000000e+000
 0.000000e+000 7.663423e-001 2.336576e-001 0.000000e+000 0.000000e+000
 0.000000e+000 0.000000e+000 7.814575e-001 2.185425e-001 0.000000e+000
 0.000000e+000 0.000000e+000 0.000000e+000 8.339179e-001 1.660821e-001
 0.000000e+000 0.000000e+000 0.000000e+000 0.000000e+000 0.000000e+000
<ENDHMM>
~h "t"
<BEGINHMM>
<NUMSTATES> 5
<STATE> 2
<MEAN> 25
 8.960550e+000 -1.564783e-001 -5.205790e-001 -3.207791e+000 1.914122e+000 -1.659793e+000 -4.220321e+000 5.201074e-001 -8.767261e-001 -9.381382e-001 -3.652579e+000 -3.851047e-001 -5.326819e-001 2.889407e-001 -5.708594e-003 1.424104e-001 1.603967e-001 4.152385e-001 2.859958e-001 -7.981172e-002 -5.085300e-001 -1.077147e-001 5.196470e-001 3.538775e-001 -7.465314e-001
<VARIANCE> 25
 5.722586e+001 3.701215e+001 4.210397e+001 4.393054e+001 6.576184e+001 3.555115e+001 5.861255e+001 5.301279e+001 5.415728e+001 4.637433e+001 4.709069e+001 4.297595e+001 1.514871e+000 1.525823e+000 1.629302e+000 2.732249e+000 2.791928e+000 2.683082e+000 2.757767e+000 2.921042e+000 3.515121e+000 2.182358e+000 2.705985e+000 2.738919e+000 1.182271e+000
<GCONST> 1.030069e+002
<STATE> 3
<MEAN> 25
 5.246670e+000 1.742494e+000 7.939159e-001 -4.419893e-001 2.277981e+000 1.113584e-002 -2.218679e+000 2.560969e-001 -3.050275e+000 1.196786e-001 -1.304407e+000 -1.139792e-001 -3.416874e-001 8.573719e-002 1.839324e-002 1.209702e-001 -6.931280e-002 1.709736e-001 2.621209e-001 -1.278320e-002 -4.389978e-003 6.276825e-002 2.312364e-001 2.093566e-002 -4.196902e-001
<VARIANCE> 25
 4.602166e+001 3.483331e+001 2.910979e+001 4.160946e+001 4.056506e+001 3.017023e+001 3.826999e+001 3.191388e+001 4.702194e+001 2.496564e+001 3.063465e+001 2.275899e+001 6.402765e-001 9.810422e-001 1.024782e+000 1.668812e+000 1.711990e+000 1.752755e+000 1.861057e+000 1.876913e+000 2.037159e+000 1.751622e+000 1.698151e+000 1.719743e+000 5.176578e-001
<GCONST> 9.236528e+001
<STATE> 4
<MEAN> 25
 6.382823e+000 7.010038e-001 -1.484426e+000 -3.068794e+000 2.323459e+000 -1.358011e+000 -1.022085e+000 2.260915e+000 1.695268e-001 5.356918e-001 -1.525136e+000 -1.185323e+000 -6.585664e-002 8.811710e-002 6.520961e-002 9.501621e-002 -1.032046e-001 -1.314642e-002 3.603815e-002 -1.963779e-001 -5.016901e-002 4.501870e-002 2.682877e-001 2.159312e-002 -2.188496e-001
<VARIANCE> 25
 6.447346e+001 5.452072e+001 5.242246e+001 5.739128e+001 6.797404e+001 5.996668e+001 4.980149e+001 4.872961e+001 6.406088e+001 3.612049e+001 4.195788e+001 2.866769e+001 4.035431e+000 4.122128e+000 3.736511e+000 4.154969e+000 4.884892e+000 5.203459e+000 4.273587e+000 4.530319e+000 4.850498e+000 3.434286e+000 3.229540e+000 2.765203e+000 4.390917e+000
<GCONST> 1.113019e+002
<TRANSP> 5
 0.000000e+000 1.000000e+000 0.000000e+000 0.000000e+000 0.000000e+000
 0.000000e+000 4.019313e-001 5.980687e-001 0.000000e+000 0.000000e+000
 0.000000e+000 0.000000e+000 7.533430e-001 2.466570e-001 0.000000e+000
 0.000000e+000 0.000000e+000 0.000000e+000 7.375681e-001 2.624319e-001
 0.000000e+000 0.000000e+000 0.000000e+000 0.000000e+000 0.000000e+000
<ENDHMM>
~h "v"
<BEGINHMM>
<NUMSTATES> 5
<STATE> 2
<MEAN> 25
 4.341759e+000 -6.824415e-001 -3.689453e+000 -3.653411e+000 2.104101e+000 1.418326e+000 6.707315e-001 -4.165521e-001 -8.201435e-001 2.530925e+000 1.224474e+000 -1.157058e+000 1.563590e+000 -1.095800e+000 -1.625688e+000 -2.447097e+000 -8.593616e-001 6.508240e-001 5.544010e-001 -1.019627e+000 4.528942e-001 5.269397e-001 3.293717e-001 -8.735508e-001 3.144408e+000
<VARIANCE> 25
 5.706713e+001 3.303175e+001 5.569407e+001 6.575798e+001 4.295716e+001 6.838957e+001 6.425988e+001 4.858319e+001 5.034567e+001 3.677548e+001 3.845156e+001 2.934090e+001 5.778367e+000 4.244572e+000 5.448764e+000 5.257480e+000 4.972743e+000 9.114545e+000 7.819993e+000 5.623654e+000 6.811114e+000 5.286063e+000 5.250750e+000 4.064055e+000 6.814690e+000
<GCONST> 1.149938e+002
<STATE> 3
<MEAN> 25
 5.535806e+000 -7.480542e+000 -5.269336e+000 -6.283691e+000 -2.282722e+000 1.143046e+000 3.046695e+000 -8.080553e-001 2.685377e+000 1.833835e+000 5.223338e-001 -4.466630e+000 -1.141099e-001 -2.271338e-001 3.669705e-001 1.484624e-001 -7.042748e-002 -1.627862e-001 2.962626e-001 2.408670e-001 2.824448e-001 -2.855669e-001 -1.687703e-001 3.843946e-001 8.288212e-001
<VARIANCE> 25
 5.276247e+001 4.176170e+001 5.030642e+001 5.427393e+001 4.420708e+001 7.895370e+001 7.521057e+001 4.800900e+001 6.542677e+001 4.076498e+001 5.364182e+001 3.344081e+001 4.938622e+000 3.614857e+000 2.635119e+000 3.807604e+000 3.847403e+000 4.419432e+000 5.677093e+000 3.818594e+000 4.488111e+000 3.963104e+000 4.416883e+000 3.046861e+000 5.979113e+000
<GCONST> 1.116512e+002
<STATE> 4
<MEAN> 25
 8.138256e+000 -3.658806e-001 -4.437682e+000 -5.863175e+000 3.271656e+000 4.189543e+000 1.486304e+000 -1.764272e+000 1.450894e-001 2.566175e+000 2.183936e+000 -6.292555e-001 -2.757613e-001 3.783385e-001 4.808671e-001 5.990232e-001 3.013266e-001 -3.368462e-001 -1.643439e-001 2.311958e-001 -2.747672e-001 -1.800798e-001 -1.336924e-001 1.937075e-001 -6.213558e-001
<VARIANCE> 25
 6.429949e+001 4.387370e+001 4.462115e+001 7.938242e+001 5.084349e+001 8.084126e+001 6.354043e+001 4.892278e+001 6.336628e+001 4.461751e+001 3.790432e+001 2.818152e+001 3.090485e+000 2.754761e+000 2.562565e+000 3.795447e+000 3.481469e+000 4.506879e+000 3.593413e+000 4.452735e+000 4.666335e+000 3.004061e+000 3.074239e+000 2.742995e+000 2.601396e+000
<GCONST> 1.090189e+002
<TRANSP> 5
 0.000000e+000 1.000000e+000 0.000000e+000 0.000000e+000 0.000000e+000
 0.000000e+000 6.138949e-001 3.861051e-001 0.000000e+000 0.000000e+000
 0.000000e+000 0.000000e+000 6.353710e-001 3.646289e-001 0.000000e+000
 0.000000e+000 0.000000e+000 0.000000e+000 8.172654e-001 1.827346e-001
 0.000000e+000 0.000000e+000 0.000000e+000 0.000000e+000 0.000000e+000
<ENDHMM>
~h "w"
<BEGINHMM>
<NUMSTATES> 5
<STATE> 2
<MEAN> 25
 -6.200099e+000 -2.437264e+000 -7.962229e-001 2.224950e+000 1.357812e-001 2.352289e+000 -8.832969e-001 -1.816728e+000 -1.964290e-001 -9.897374e-001 1.347847e-001 3.457223e-001 -3.097823e-002 -1.033739e-002 -1.156869e-002 4.788180e-003 8.807959e-003 2.117829e-002 1.261512e-002 -4.321285e-003 2.489648e-003 -9.521925e-004 -6.624282e-003 -1.096342e-002 -2.143067e-002
<VARIANCE> 25
 9.439044e+000 5.175674e+000 1.262290e+001 1.223096e+001 1.164741e+001 1.341594e+001 1.261858e+001 1.415119e+001 1.439644e+001 1.510041e+001 1.172025e+001 1.093009e+001 1.045134e-001 2.080865e-001 3.563797e-001 5.323730e-001 6.748071e-001 7.653795e-001 8.457829e-001 9.746767e-001 1.054033e+000 1.052745e+000 1.013439e+000 8.702526e-001 4.001689e-002
<GCONST> 6.576196e+001
<STATE> 3
<MEAN> 25
 -4.841947e+000 9.918863e-001 -2.426329e+000 3.234703e+000 5.616567e-001 3.154054e+000 7.737427e-001 -2.541555e-001 -1.751958e+000 1.282601e+000 1.656927e+000 7.842266e-001 1.554836e+000 2.052244e-001 7.311320e-001 4.865703e-002 1.847588e-001 -3.243486e-001 -1.224758e-001 -2.161592e-001 -6.659265e-001 -3.608565e-001 -2.938485e-001 -1.441841e-001 1.557972e+000
<VARIANCE> 25
 7.880009e+001 2.192260e+001 2.956211e+001 1.741709e+001 1.681809e+001 2.178262e+001 2.062818e+001 2.441148e+001 4.847838e+001 2.852235e+001 2.023745e+001 1.840544e+001 6.850539e+000 1.093054e+000 1.819753e+000 1.418873e+000 1.632153e+000 1.680852e+000 1.704677e+000 1.758840e+000 1.981035e+000 1.348584e+000 1.653400e+000 1.367019e+000 9.141416e+000
<GCONST> 9.400262e+001
<STATE> 4
<MEAN> 25
 1.376557e+000 1.645845e+000 1.609210e+000 3.319613e+000 3.544801e+000 1.910090e+000 -9.745377e-001 -3.052818e-001 -2.678447e+000 -6.350100e-001 1.014855e+000 9.847673e-001 1.241439e-001 5.121988e-002 -3.588420e-003 -2.423242e-002 2.915809e-002 2.600106e-003 1.330966e-002 6.189686e-002 -2.651035e-002 -2.750823e-002 7.158748e-003 -6.350760e-003 9.092426e-002
<VARIANCE> 25
 1.368182e+001 9.566181e+000 1.395871e+001 1.343525e+001 1.651677e+001 1.557065e+001 1.532511e+001 1.402239e+001 1.862546e+001 1.295128e+001 1.206093e+001 1.194207e+001 3.480124e-001 6.174181e-001 7.307368e-001 8.845825e-001 1.182237e+000 1.046351e+000 1.245500e+000 1.368241e+000 1.412092e+000 1.135419e+000 1.103606e+000 1.083259e+000 2.028904e-001
<GCONST> 7.525814e+001
<TRANSP> 5
 0.000000e+000 1.000000e+000 0.000000e+000 0.000000e+000 0.000000e+000
 0.000000e+000 9.399523e-001 6.004766e-002 0.000000e+000 0.000000e+000
 0.000000e+000 0.000000e+000 4.010906e-001 5.989094e-001 0.000000e+000
 0.000000e+000 0.000000e+000 0.000000e+000 8.719839e-001 1.280161e-001
 0.000000e+000 0.000000e+000 0.000000e+000 0.000000e+000 0.000000e+000
<ENDHMM>
~h "y"
<BEGINHMM>
<NUMSTATES> 5
<STATE> 2
<MEAN> 25
 -1.326303e-001 4.058908e+000 9.625621e+000 1.317704e+000 -4.387883e+000 -1.928300e+000 6.981502e+000 -7.350621e+000 1.288679e+000 -7.450361e-001 1.021963e+000 1.796710e+000 3.785656e-001 -2.143190e-001 1.246232e-001 4.263179e-002 -7.292294e-001 7.385768e-002 5.366258e-002 -5.382385e-001 -1.607029e-001 1.210643e-001 1.282041e-001 2.967811e-002 1.367244e-001
<VARIANCE> 25
 1.476428e+002 4.353233e+001 6.645037e+001 7.242062e+001 5.798763e+001 4.643199e+001 9.901147e+001 6.345026e+001 6.176567e+001 2.579409e+001 3.752747e+001 3.240345e+001 9.539524e+000 6.517376e+000 4.028955e+000 9.611959e+000 5.742305e+000 5.806049e+000 1.256264e+001 9.013714e+000 7.317833e+000 3.205598e+000 4.427822e+000 4.616879e+000 7.518878e+000
<GCONST> 1.185276e+002
<STATE> 3
<MEAN> 25
 1.615492e+001 3.931912e+000 7.726365e+000 -4.740686e+000 -8.733833e+000 1.332043e+000 2.859852e+000 -5.365553e+000 -2.456179e+000 2.495712e+000 2.318404e+000 3.693228e+000 6.605425e-002 5.350075e-002 -2.202593e-001 -8.682413e-002 -3.561722e-002 -5.997257e-002 -2.793232e-001 1.055543e-001 2.881218e-001 -7.288969e-002 -3.491630e-003 -2.529441e-002 -4.124629e-003
<VARIANCE> 25
 2.110963e+001 3.530360e+001 1.286333e+002 1.233012e+002 9.078849e+001 5.270575e+001 6.212334e+001 5.638856e+001 6.730259e+001 5.221364e+001 4.239104e+001 2.756748e+001 1.611759e+000 2.784351e+000 5.991453e+000 1.012893e+001 6.283192e+000 4.308339e+000 5.047985e+000 6.913788e+000 6.625447e+000 5.797235e+000 5.901703e+000 4.366573e+000 6.301127e-001
<GCONST> 1.129887e+002
<STATE> 4
<MEAN> 25
 1.421328e+001 -1.968660e+000 -3.556909e+000 -1.540434e+000 -9.098995e+000 7.599331e-001 3.295709e+000 -2.881407e+000 5.035485e+000 4.966390e+000 8.026625e-001 -3.307006e+000 -4.337187e-001 1.118214e-001 -1.170195e+000 -7.867482e-001 1.498671e+000 3.333103e-001 -7.809775e-001 2.213850e-001 2.257166e-001 5.384223e-001 1.388607e-002 -8.846978e-001 -6.329264e-001
<VARIANCE> 25
 9.897485e+001 6.285604e+001 4.752198e+001 6.261458e+001 1.679835e+001 1.954212e+001 6.083554e+001 2.009297e+002 3.519349e+001 3.677431e+002 4.564671e+001 1.283906e+002 8.449020e-001 5.721327e+000 1.784387e+000 6.197978e+000 3.036122e+000 2.304721e+000 3.413072e+000 5.070850e+000 2.365587e+000 5.856828e+000 4.983272e+000 2.502355e+000 1.994385e+000
<GCONST> 1.106480e+002
<TRANSP> 5
 0.000000e+000 1.000000e+000 0.000000e+000 0.000000e+000 0.000000e+000
 0.000000e+000 9.267375e-001 7.326247e-002 0.000000e+000 0.000000e+000
 0.000000e+000 0.000000e+000 9.393823e-001 6.061777e-002 0.000000e+000
 0.000000e+000 0.000000e+000 0.000000e+000 8.403721e-001 1.596279e-001
 0.000000e+000 0.000000e+000 0.000000e+000 0.000000e+000 0.000000e+000
<ENDHMM>
~h "z"
<BEGINHMM>
<NUMSTATES> 5
<STATE> 2
<MEAN> 25
 -1.129838e+001 3.792899e+000 2.964911e+000 -1.956931e+000 3.511576e+000 -9.978568e+000 3.810586e+000 4.103898e+000 -4.593971e+000 -2.634667e-001 1.419246e+000 2.975980e+000 1.647817e-001 -2.299466e-002 -4.636402e-001 7.769483e-002 2.243794e-001 4.322304e-001 -1.404114e-001 2.049360e-002 2.078285e-001 9.680393e-002 -8.226798e-002 -3.511076e-002 -9.087173e-001
<VARIANCE> 25
 7.155829e+001 6.000989e+001 6.179726e+001 2.668577e+001 3.473866e+001 8.406706e+001 7.020802e+001 5.185559e+001 4.118666e+001 3.885767e+001 3.044905e+001 2.573199e+001 1.912100e+000 1.498220e+000 1.411743e+000 1.597497e+000 2.467811e+000 2.842541e+000 2.626476e+000 2.757264e+000 2.043732e+000 2.195593e+000 1.821109e+000 1.843766e+000 6.921753e-001
<GCONST> 1.000794e+002
<STATE> 3
<MEAN> 25
 -3.248522e+000 1.819281e-001 -1.147825e+000 2.310001e+000 2.420809e-001 3.175375e+000 6.753708e-001 -3.613956e-001 -2.832546e+000 -3.919214e-001 2.124501e-001 4.932709e-001 -1.055006e-002 -1.275480e-002 -2.949603e-002 5.763485e-002 -2.456574e-002 1.903391e-001 -6.043188e-002 -8.052930e-002 2.559118e-002 1.963781e-002 1.538616e-002 -1.254590e-002 -2.270273e-001
<VARIANCE> 25
 2.558643e+001 1.462022e+001 1.764924e+001 1.736904e+001 2.050550e+001 2.648297e+001 2.694490e+001 2.574148e+001 4.079175e+001 2.046869e+001 1.964701e+001 1.501747e+001 3.034114e-001 5.347202e-001 6.493214e-001 9.686048e-001 1.159376e+000 1.314877e+000 1.465172e+000 1.913709e+000 1.898911e+000 1.419211e+000 1.450420e+000 1.285534e+000 2.163027e-001
<GCONST> 8.210396e+001
<STATE> 4
<MEAN> 25
 3.046890e+000 5.849496e+000 4.235997e+000 2.332094e+000 5.826497e+000 1.476654e-001 -2.812094e+000 1.168264e+000 -5.717271e+000 -4.351226e-002 7.543333e-001 -3.329920e-001 1.855529e-001 -6.831492e-002 3.891415e-002 -5.728563e-002 3.047919e-002 -1.348485e-003 -1.629180e-001 3.357773e-002 5.846130e-002 1.153021e-001 -3.781729e-002 -7.654608e-003 -1.526613e-002
<VARIANCE> 25
 3.996086e+001 3.660367e+001 3.038146e+001 2.415669e+001 3.492203e+001 3.291426e+001 4.238051e+001 2.960523e+001 3.664707e+001 1.798958e+001 1.301820e+001 1.662336e+001 1.860881e+000 3.441476e+000 2.990633e+000 2.079148e+000 3.198968e+000 2.386366e+000 2.463947e+000 2.764680e+000 3.197195e+000 1.757253e+000 1.384339e+000 1.666973e+000 1.695202e+000
<GCONST> 9.660906e+001
<TRANSP> 5
 0.000000e+000 1.000000e+000 0.000000e+000 0.000000e+000 0.000000e+000
 0.000000e+000 8.243965e-001 1.756035e-001 0.000000e+000 0.000000e+000
 0.000000e+000 0.000000e+000 8.834307e-001 1.165693e-001 0.000000e+000
 0.000000e+000 0.000000e+000 0.000000e+000 8.171210e-001 1.828790e-001
 0.000000e+000 0.000000e+000 0.000000e+000 0.000000e+000 0.000000e+000
<ENDHMM>
~h "aa"
<BEGINHMM>
<NUMSTATES> 5
<STATE> 2
<MEAN> 25
 3.742004e+000 -1.923855e+000 -1.393906e+000 -9.211216e-001 2.318322e+000 -7.133754e-001 1.298999e-001 2.132765e-001 -5.774229e-001 -4.866332e-001 -1.249646e+000 -8.268556e-001 1.341812e+000 -1.041029e+000 -3.893328e-001 -1.192495e+000 4.392467e-004 -2.508422e-001 -1.831879e-001 2.050333e-001 5.926323e-001 -4.518503e-001 -7.895401e-001 -2.848756e-001 2.926856e+000
<VARIANCE> 25
 4.655525e+001 6.254002e+001 6.647587e+001 6.003471e+001 5.337464e+001 5.263813e+001 4.613878e+001 5.197764e+001 6.358242e+001 4.983673e+001 5.106057e+001 3.242041e+001 5.910061e+000 6.242416e+000 5.576450e+000 4.995966e+000 6.320858e+000 6.178656e+000 5.388774e+000 5.802786e+000 5.772949e+000 5.628885e+000 5.267828e+000 3.648881e+000 7.522309e+000
<GCONST> 1.159091e+002
<STATE> 3
<MEAN> 25
 7.589133e+000 -9.439753e+000 -2.546128e+000 -3.442197e+000 2.697976e+000 7.118465e-001 1.772110e-001 8.356291e-001 2.830554e+000 -7.530078e+000 -5.100404e+000 -1.756327e+000 -4.868323e-002 1.608678e-001 1.501959e-001 -3.285764e-001 -3.688617e-001 -1.427083e-001 2.086810e-001 -4.249547e-002 -1.920619e-001 -1.059500e-001 1.841725e-001 -3.707301e-002 5.922323e-001
<VARIANCE> 25
 3.807574e+001 6.616158e+001 8.395461e+001 4.665472e+001 8.006189e+001 5.005630e+001 5.590467e+001 8.872598e+001 6.229583e+001 7.262656e+001 5.311229e+001 3.652684e+001 2.266592e+000 2.668243e+000 2.644365e+000 2.386995e+000 3.565723e+000 3.339263e+000 3.476362e+000 4.847356e+000 3.179316e+000 3.782004e+000 2.915817e+000 1.999901e+000 2.343914e+000
<GCONST> 1.088902e+002
<STATE> 4
<MEAN> 25
 3.413020e+000 -5.962297e+000 -1.995389e+000 -7.242687e+000 4.197103e-001 -3.003297e+000 2.804722e+000 6.218005e-001 3.075652e+000 1.166557e+000 -4.056664e+000 -1.989092e+000 1.559113e-002 -2.654043e-002 1.277478e-001 1.035782e-001 -1.040023e-001 -1.273661e-001 -1.157979e-001 1.205937e-001 -9.479337e-003 6.437932e-002 3.470400e-002 2.192435e-002 4.588514e-003
<VARIANCE> 25
 7.689265e+001 2.236486e+001 4.049644e+001 2.222989e+001 5.866091e+001 4.169246e+001 3.913096e+001 4.112407e+001 3.476184e+001 5.214338e+001 4.937751e+001 2.870230e+001 9.094945e-001 7.415819e-001 9.652790e-001 9.902578e-001 1.795207e+000 1.645205e+000 2.021159e+000 1.995029e+000 2.097954e+000 2.248543e+000 2.032186e+000 2.085447e+000 6.177045e-001
<GCONST> 9.469601e+001
<TRANSP> 5
 0.000000e+000 1.000000e+000 0.000000e+000 0.000000e+000 0.000000e+000
 0.000000e+000 7.608334e-001 2.391666e-001 0.000000e+000 0.000000e+000
 0.000000e+000 0.000000e+000 6.871513e-001 3.128487e-001 0.000000e+000
 0.000000e+000 0.000000e+000 0.000000e+000 8.670875e-001 1.329125e-001
 0.000000e+000 0.000000e+000 0.000000e+000 0.000000e+000 0.000000e+000
<ENDHMM>
~h "ae"
<BEGINHMM>
<NUMSTATES> 5
<STATE> 2
<MEAN> 25
 1.350320e+000 -2.844149e+000 -8.261298e-001 -5.821595e-001 1.722950e+000 5.163765e-001 -3.896681e-001 3.985765e-001 -6.028304e-001 -1.935784e+000 -2.350289e+000 8.241670e-001 -1.220928e-001 -4.266759e-001 -1.844159e-002 -2.801290e-001 -7.167969e-002 -1.019502e-001 -1.351830e-001 1.791266e-001 -1.830629e-002 -1.441498e-001 -1.885474e-001 2.142342e-001 4.458801e-001
<VARIANCE> 25
 3.509566e+001 3.450964e+001 2.355951e+001 3.920483e+001 2.428277e+001 2.280904e+001 2.915964e+001 2.132056e+001 2.447182e+001 3.760796e+001 4.811440e+001 1.638535e+001 6.495842e-001 8.720981e-001 1.019430e+000 1.554842e+000 1.497711e+000 1.847143e+000 1.587326e+000 1.532299e+000 1.868001e+000 1.808741e+000 2.219878e+000 1.650254e+000 1.420883e+000
<GCONST> 9.078456e+001
<STATE> 3
<MEAN> 25
 7.559373e+000 -2.602027e+000 3.295051e+000 -4.725567e+000 4.081416e+000 2.762812e-001 -1.171945e+001 -4.421163e+000 -4.346423e+000 -1.996916e+000 -3.157026e-001 2.506249e+000 3.981655e-001 -1.152140e-001 -1.088443e-002 -3.208200e-001 -1.265802e-001 -4.452659e-001 -4.673829e-001 -1.682961e-001 -8.972266e-002 5.427894e-002 -5.231847e-002 2.037959e-001 6.810319e-001
<VARIANCE> 25
 3.100953e+001 2.190383e+001 1.844346e+001 3.738585e+001 6.980056e+001 2.838365e+001 7.649602e+001 4.800159e+001 4.643304e+001 3.751382e+001 6.343090e+001 2.389452e+001 2.587688e+000 2.015288e+000 1.680919e+000 2.019437e+000 2.678942e+000 2.430280e+000 3.303540e+000 3.829017e+000 2.603415e+000 3.319802e+000 3.238349e+000 1.983248e+000 3.502346e+000
<GCONST> 1.021448e+002
<STATE> 4
<MEAN> 25
 3.828398e+000 -4.822966e+000 1.732750e+000 -5.241303e+000 -2.821856e+000 -4.883239e+000 -8.918466e-002 2.067897e+000 2.813544e-001 1.185213e+000 -3.234201e+000 -2.037881e-001 6.353854e-002 8.704213e-002 1.195220e-001 -1.823427e-001 -2.259504e-001 -2.616829e-001 1.860402e-001 1.167854e-001 2.990434e-002 5.525525e-002 -2.231875e-002 -1.209668e-001 3.837717e-001
<VARIANCE> 25
 6.642775e+001 3.833545e+001 3.409293e+001 2.718173e+001 3.959906e+001 3.581250e+001 5.433180e+001 6.509675e+001 3.137762e+001 6.411848e+001 5.753637e+001 2.692777e+001 1.937977e+000 2.194470e+000 2.294349e+000 1.670086e+000 2.607504e+000 2.629119e+000 3.518405e+000 2.901790e+000 2.204045e+000 2.903945e+000 2.681770e+000 2.002326e+000 3.602053e+000
<GCONST> 1.028595e+002
<TRANSP> 5
 0.000000e+000 1.000000e+000 0.000000e+000 0.000000e+000 0.000000e+000
 0.000000e+000 5.930824e-001 4.069177e-001 0.000000e+000 0.000000e+000
 0.000000e+000 0.000000e+000 7.542883e-001 2.457117e-001 0.000000e+000
 0.000000e+000 0.000000e+000 0.000000e+000 8.304068e-001 1.695932e-001
 0.000000e+000 0.000000e+000 0.000000e+000 0.000000e+000 0.000000e+000
<ENDHMM>
~h "ah"
<BEGINHMM>
<NUMSTATES> 5
<STATE> 2
<MEAN> 25
 4.043043e+000 9.716814e-001 -1.786981e+000 -4.341230e+000 9.360354e-001 -7.590740e-001 7.412085e-002 8.703627e-001 -8.430286e-002 7.164307e-001 4.552805e-001 -5.296967e-001 1.052589e+000 -3.091202e-002 -2.022614e-001 -1.135667e+000 -1.824620e-001 1.951755e-001 -1.841298e-001 -1.172028e-001 2.590410e-001 3.226300e-001 4.451802e-002 -2.829707e-001 1.511843e+000
<VARIANCE> 25
 1.194201e+002 6.584502e+001 6.031712e+001 7.748820e+001 7.987752e+001 8.499538e+001 5.194755e+001 5.506292e+001 6.685220e+001 4.897631e+001 4.931516e+001 3.014922e+001 8.283515e+000 5.885512e+000 4.661479e+000 6.731687e+000 6.920136e+000 7.102282e+000 5.568958e+000 6.263267e+000 6.325037e+000 5.489288e+000 5.271213e+000 3.510758e+000 7.558672e+000
<GCONST> 1.188144e+002
<STATE> 3
<MEAN> 25
 9.674007e+000 -1.120478e+000 -1.717145e+000 -7.402103e+000 1.097705e+000 2.161929e+000 -1.815051e+000 1.199311e+000 2.346539e+000 3.214072e+000 -1.137378e+000 -1.962228e+000 -4.119377e-001 -1.875270e-001 -9.421164e-003 5.428492e-001 1.418799e-001 -1.524738e-001 8.890339e-002 2.795219e-001 2.632954e-001 -1.836620e-001 -2.798443e-001 8.991598e-003 -3.203717e-001
<VARIANCE> 25
 6.854722e+001 5.007024e+001 4.996321e+001 8.296832e+001 5.872897e+001 8.358715e+001 5.490689e+001 5.397808e+001 6.726120e+001 4.152889e+001 5.679074e+001 3.736127e+001 2.518057e+000 2.628428e+000 2.024278e+000 3.144095e+000 2.848427e+000 4.067063e+000 2.919528e+000 3.364087e+000 3.342786e+000 2.802389e+000 3.721163e+000 2.589003e+000 2.982514e+000
<GCONST> 1.085759e+002
<STATE> 4
<MEAN> 25
 6.672320e-001 -4.848894e-001 -1.270543e+000 1.518567e+000 1.444203e+000 6.431530e-001 1.290850e-001 1.979755e+000 -9.599558e-001 4.830184e-001 -8.178289e-001 2.099978e-001 -2.254726e-001 -4.585605e-003 6.026592e-002 9.462851e-002 -9.486844e-003 8.603200e-002 9.905349e-003 -9.699710e-002 -1.072844e-001 -5.800929e-002 3.160731e-003 5.615447e-002 -3.023131e-001
<VARIANCE> 25
 4.911761e+001 2.248640e+001 2.420215e+001 3.966642e+001 3.004361e+001 3.167779e+001 3.462368e+001 2.982878e+001 5.203293e+001 2.743960e+001 3.111570e+001 2.238060e+001 7.219433e-001 8.766530e-001 1.212624e+000 1.543718e+000 1.818886e+000 2.101355e+000 2.024555e+000 2.110630e+000 2.266219e+000 1.839478e+000 2.011963e+000 1.747516e+000 6.516755e-001
<GCONST> 9.264841e+001
<TRANSP> 5
 0.000000e+000 1.000000e+000 0.000000e+000 0.000000e+000 0.000000e+000
 0.000000e+000 6.987981e-001 3.012019e-001 0.000000e+000 0.000000e+000
 0.000000e+000 0.000000e+000 7.446171e-001 2.553829e-001 0.000000e+000
 0.000000e+000 0.000000e+000 0.000000e+000 8.070847e-001 1.929152e-001
 0.000000e+000 0.000000e+000 0.000000e+000 0.000000e+000 0.000000e+000
<ENDHMM>
~h "ao"
<BEGINHMM>
<NUMSTATES> 5
<STATE> 2
<MEAN> 25
 7.373381e+000 -1.069192e+000 7.925622e-001 -4.897797e+000 -4.724304e+000 -5.352705e+000 -3.952733e+000 -4.724265e+000 1.528735e+000 1.913036e+000 -5.182986e-001 -4.106878e-001 5.108432e-001 4.203997e-001 -1.827412e-001 -2.505420e-001 -1.086093e-001 1.493151e-001 1.167100e-001 1.012137e-001 -3.019049e-001 2.493405e-001 -5.852893e-002 2.231595e-002 -5.201533e-001
<VARIANCE> 25
 4.452445e+001 3.040533e+001 3.558777e+001 2.702099e+001 4.123954e+001 3.436700e+001 4.391764e+001 4.624376e+001 4.035300e+001 2.823983e+001 4.934658e+001 2.135224e+001 2.965239e+000 2.294101e+000 1.499536e+000 1.974535e+000 2.434190e+000 1.946786e+000 2.117927e+000 3.142516e+000 3.101915e+000 2.576964e+000 2.669724e+000 2.326928e+000 3.384553e+000
<GCONST> 1.004758e+002
<STATE> 3
<MEAN> 25
 9.201921e+000 4.149860e+000 5.550451e-001 -2.036260e+000 2.773136e-001 -1.740846e+000 -2.424556e+000 4.460972e-001 -3.575868e+000 1.986284e+000 6.852226e-001 -1.095646e+000 -1.613580e-002 7.442532e-002 6.207264e-002 -2.285103e-001 -1.528525e-001 3.164587e-001 2.627921e-001 -1.049069e-001 -1.739801e-001 2.420290e-001 6.433133e-002 -6.292121e-003 -5.090121e-002
<VARIANCE> 25
 3.455193e+001 3.681631e+001 4.303506e+001 4.370665e+001 3.276089e+001 3.269754e+001 2.506738e+001 2.557749e+001 2.767639e+001 2.602835e+001 2.767981e+001 2.106714e+001 2.151307e+000 1.929440e+000 1.775013e+000 3.298368e+000 2.217284e+000 2.137649e+000 1.808344e+000 2.589066e+000 2.268215e+000 2.054282e+000 1.849992e+000 1.640543e+000 1.357384e+000
<GCONST> 9.626778e+001
<STATE> 4
<MEAN> 25
 1.597060e+001 2.750680e+000 -4.247849e+000 -1.040316e+001 -1.034121e+000 8.715315e+000 1.567689e+000 -5.903859e+000 -2.393627e+000 3.031840e+000 2.307291e+000 3.899096e-002 -2.213472e-001 -2.484064e-001 9.105145e-002 3.138113e-001 3.653063e-001 6.517860e-002 -1.579432e-001 1.255627e-001 2.996551e-001 -2.006766e-001 1.283863e-002 1.361370e-002 -1.928193e-001
<VARIANCE> 25
 2.738877e+001 6.493848e+001 2.255621e+001 7.379979e+001 6.441644e+001 5.902028e+001 5.894027e+001 6.293441e+001 4.618523e+001 4.464837e+001 4.950139e+001 3.333189e+001 1.127172e+000 2.125984e+000 1.480967e+000 3.479490e+000 3.363288e+000 4.163521e+000 3.502416e+000 3.761383e+000 2.346411e+000 2.798980e+000 2.483228e+000 2.598541e+000 1.353891e+000
<GCONST> 1.041304e+002
<TRANSP> 5
 0.000000e+000 1.000000e+000 0.000000e+000 0.000000e+000 0.000000e+000
 0.000000e+000 7.977071e-001 2.022929e-001 0.000000e+000 0.000000e+000
 0.000000e+000 0.000000e+000 8.013991e-001 1.986009e-001 0.000000e+000
 0.000000e+000 0.000000e+000 0.000000e+000 8.780396e-001 1.219604e-001
 0.000000e+000 0.000000e+000 0.000000e+000 0.000000e+000 0.000000e+000
<ENDHMM>
~h "aw"
<BEGINHMM>
<NUMSTATES> 5
<STATE> 2
<MEAN> 25
 3.389096e+000 -5.812759e+000 -3.304889e+000 -5.085405e+000 6.593566e+000 2.188862e+000 1.433058e+000 -2.934898e-001 -1.902054e+000 2.114453e+000 1.091776e+000 -2.349916e+000 3.563930e-002 -2.459329e-001 7.930069e-001 -2.085382e+000 -1.429118e+000 1.015795e+000 1.201316e+000 -4.679914e-001 4.628756e-001 4.482700e-001 3.317894e-001 -7.766880e-001 2.560096e+000
<VARIANCE> 25
 5.715812e+001 4.796826e+001 1.278697e+002 6.454285e+001 1.078630e+002 8.171923e+001 5.911076e+001 6.469284e+001 6.633387e+001 4.070620e+001 4.321616e+001 2.771203e+001 1.017809e+001 8.181437e+000 7.444907e+000 4.682399e+000 8.086246e+000 7.715940e+000 8.501578e+000 6.132902e+000 5.783213e+000 6.073740e+000 5.854499e+000 2.954230e+000 5.464816e+000
<GCONST> 1.193725e+002
<STATE> 3
<MEAN> 25
 -5.188747e+000 -1.265586e+001 1.053956e+001 -7.148863e+000 5.019663e+000 2.020572e+000 2.024686e+000 4.386874e+000 -1.194066e+001 3.233532e+000 3.425118e+000 -1.505802e+000 1.356109e-001 1.373498e-001 -7.063153e-001 -3.316418e-001 -6.584796e-001 2.355883e-001 3.061844e-001 3.762322e-001 1.720456e-001 -3.117434e-001 1.265950e-001 -9.587414e-002 -4.428947e-001
<VARIANCE> 25
 5.693346e+001 5.245104e+001 9.648920e+001 3.918286e+001 3.564602e+001 2.954585e+001 4.416113e+001 3.839939e+001 5.487855e+001 2.735475e+001 3.135469e+001 1.819614e+001 2.763967e+000 2.950092e+000 2.278974e+000 3.118287e+000 2.318413e+000 1.753302e+000 3.395855e+000 2.278905e+000 2.552107e+000 2.138210e+000 2.192367e+000 2.035835e+000 2.050068e+000
<GCONST> 1.016612e+002
<STATE> 4
<MEAN> 25
 6.936932e+000 -3.189717e+000 -6.029673e+000 -1.394013e+001 -2.920687e+000 7.766043e+000 3.192327e+000 -2.111593e+000 5.592583e-001 -1.341012e-001 2.513583e+000 -3.708150e+000 4.003578e-001 5.430344e-001 1.433202e-001 4.130420e-003 -5.135153e-001 -3.585786e-001 -5.060198e-001 -1.366780e-001 2.740782e-001 -1.023448e-001 -3.839099e-001 5.093655e-002 -1.687478e-001
<VARIANCE> 25
 9.657076e+001 4.705961e+001 2.950512e+001 6.244218e+001 5.679704e+001 8.390166e+001 4.467191e+001 3.989812e+001 4.539166e+001 3.712085e+001 5.509059e+001 2.430183e+001 9.916281e-001 1.022728e+000 1.336204e+000 2.216079e+000 2.252205e+000 2.614650e+000 1.889173e+000 1.790914e+000 2.146293e+000 1.959720e+000 2.984559e+000 1.533797e+000 7.773147e-001
<GCONST> 9.926864e+001
<TRANSP> 5
 0.000000e+000 1.000000e+000 0.000000e+000 0.000000e+000 0.000000e+000
 0.000000e+000 7.001261e-001 2.998739e-001 0.000000e+000 0.000000e+000
 0.000000e+000 0.000000e+000 8.245229e-001 1.754771e-001 0.000000e+000
 0.000000e+000 0.000000e+000 0.000000e+000 8.346564e-001 1.653436e-001
 0.000000e+000 0.000000e+000 0.000000e+000 0.000000e+000 0.000000e+000
<ENDHMM>
~h "ay"
<BEGINHMM>
<NUMSTATES> 5
<STATE> 2
<MEAN> 25
 1.621170e+000 1.318853e+000 2.213804e+000 3.323403e+000 2.602983e-001 -5.364689e-001 2.838067e-001 -2.873865e-002 -1.895324e+000 -1.482353e+000 -4.347405e-001 -8.962884e-001 -6.883536e-001 -2.769800e-001 -4.108410e-001 1.034390e-001 1.875269e-001 2.795801e-001 6.682171e-002 -1.167053e-001 6.411964e-002 1.416007e-001 1.690123e-001 1.226793e-001 -6.734642e-001
<VARIANCE> 25
 4.858979e+001 3.064013e+001 3.696380e+001 3.639412e+001 5.682629e+001 4.153935e+001 4.593555e+001 3.070017e+001 3.953753e+001 3.343526e+001 3.111817e+001 2.012096e+001 1.640939e+000 2.102695e+000 2.661406e+000 2.705375e+000 3.486714e+000 3.228659e+000 3.294647e+000 2.798072e+000 3.253637e+000 2.489795e+000 2.123770e+000 1.871707e+000 9.366473e-001
<GCONST> 1.003630e+002
<STATE> 3
<MEAN> 25
 -4.042256e+000 -1.198660e+000 -2.513832e-001 2.045697e+000 -1.042075e+000 9.219871e-001 -7.251267e-001 -1.672262e+000 -1.060465e+000 -7.957639e-001 9.100485e-001 -2.322022e-001 -1.823807e-001 -6.862344e-002 -1.809965e-001 -5.325390e-002 -1.754719e-002 9.210527e-002 4.820710e-002 -2.731433e-002 3.957716e-002 2.631572e-002 4.100523e-002 7.729887e-002 -1.970273e-001
<VARIANCE> 25
 2.859839e+001 9.405339e+000 1.364335e+001 1.993501e+001 1.689676e+001 1.707627e+001 1.722504e+001 1.617156e+001 2.001471e+001 1.874363e+001 1.709719e+001 1.208109e+001 2.372865e-001 3.584921e-001 5.467983e-001 7.208263e-001 9.642959e-001 1.066044e+000 1.069274e+000 1.087194e+000 1.256049e+000 1.139361e+000 9.677511e-001 8.669710e-001 1.318788e-001
<GCONST> 7.463943e+001
<STATE> 4
<MEAN> 25
 1.139189e+000 1.369973e+000 1.406467e+000 2.904485e+000 3.136207e+000 8.586609e-001 -5.795058e-001 5.204161e-001 -2.117437e+000 -3.655724e-001 9.634808e-001 5.447132e-001 9.760155e-004 -1.326762e-002 1.457565e-002 1.438939e-001 1.971724e-001 1.101977e-001 7.637265e-002 1.738866e-001 2.671975e-002 1.976976e-002 3.560924e-002 5.621062e-002 -2.109681e-002
<VARIANCE> 25
 2.188492e+001 1.059446e+001 1.460673e+001 1.655308e+001 1.819967e+001 1.689262e+001 1.678108e+001 1.700640e+001 1.923328e+001 1.949693e+001 1.330026e+001 1.284878e+001 3.723161e-001 6.831405e-001 7.805909e-001 1.059315e+000 1.269379e+000 1.442530e+000 1.355134e+000 1.601598e+000 1.427597e+000 1.412316e+000 1.130995e+000 1.101630e+000 1.844666e-001
<GCONST> 7.838267e+001
<TRANSP> 5
 0.000000e+000 1.000000e+000 0.000000e+000 0.000000e+000 0.000000e+000
 0.000000e+000 7.389702e-001 2.610299e-001 0.000000e+000 0.000000e+000
 0.000000e+000 0.000000e+000 7.788441e-001 2.211559e-001 0.000000e+000
 0.000000e+000 0.000000e+000 0.000000e+000 7.696391e-001 2.303609e-001
 0.000000e+000 0.000000e+000 0.000000e+000 0.000000e+000 0.000000e+000
<ENDHMM>
~h "ch"
<BEGINHMM>
<NUMSTATES> 5
<STATE> 2
<MEAN> 25
 -2.465888e+000 1.412342e-001 3.128038e+000 -2.458982e+000 3.875427e+000 -3.199355e+000 -4.445480e-001 3.056203e+000 -6.602607e-001 -1.780140e+000 -1.376796e+000 8.050814e-001 -1.994449e+000 -1.561495e-001 6.907697e-001 -6.514270e-001 3.573681e-002 -4.347689e-001 -2.685258e-002 6.418112e-001 2.393467e-001 2.003616e-001 3.643469e-001 2.872226e-001 6.283616e-001
<VARIANCE> 25
 7.287338e+001 1.080897e+002 4.722049e+001 5.813915e+001 3.879549e+001 3.420154e+001 4.689029e+001 4.628112e+001 6.359240e+001 3.409180e+001 5.732843e+001 1.902961e+001 5.581035e+000 8.221183e+000 5.947036e+000 5.514525e+000 3.700321e+000 2.692655e+000 4.302540e+000 5.148536e+000 6.378176e+000 2.616177e+000 3.876479e+000 1.805560e+000 3.306086e+000
<GCONST> 1.110551e+002
<STATE> 3
<MEAN> 25
 -7.497571e+000 -1.097965e+001 1.242294e+001 -6.275421e+000 3.294340e+000 -2.099326e+000 -6.151628e-002 6.761404e+000 -7.300734e+000 3.457793e+000 2.454059e+000 -8.282773e-001 -2.084590e-001 -2.663494e-001 1.926653e-002 1.904179e-001 -3.526907e-001 -5.547157e-002 1.708395e-001 3.654290e-001 9.562870e-002 2.068158e-002 3.095881e-001 4.578274e-002 -1.964404e-001
<VARIANCE> 25
 6.396259e+001 8.400769e+001 7.211831e+001 3.772842e+001 2.709595e+001 2.514835e+001 3.990387e+001 3.514996e+001 6.493195e+001 2.399118e+001 2.797030e+001 1.374503e+001 3.255611e+000 3.415951e+000 3.281900e+000 2.423739e+000 1.908181e+000 1.270192e+000 2.385461e+000 1.714523e+000 2.894656e+000 1.527669e+000 2.028303e+000 1.230709e+000 1.580534e+000
<GCONST> 9.915355e+001
<STATE> 4
<MEAN> 25
 -9.785643e+000 -8.674846e-001 5.703194e+000 -1.855385e-001 3.774874e+000 -6.296403e+000 6.415848e-001 8.498800e+000 1.867818e+000 -1.645938e+000 2.672020e+000 1.877049e+000 1.065423e+000 -1.449081e-001 -2.171079e-001 3.448902e-001 9.823453e-002 6.020249e-001 -2.243732e-001 -1.760213e-001 -2.543074e-001 4.070266e-002 -1.541371e-001 -3.562790e-001 -1.173629e+000
<VARIANCE> 25
 5.773850e+001 4.785960e+001 4.118675e+001 4.706511e+001 5.892078e+001 6.928217e+001 4.156248e+001 5.561125e+001 5.392690e+001 3.204694e+001 3.587496e+001 2.640697e+001 1.896909e+000 2.321954e+000 3.357481e+000 2.846113e+000 2.649018e+000 4.616202e+000 3.051466e+000 4.205391e+000 3.841781e+000 2.822935e+000 2.199615e+000 2.418295e+000 2.305820e+000
<GCONST> 1.054953e+002
<TRANSP> 5
 0.000000e+000 1.000000e+000 0.000000e+000 0.000000e+000 0.000000e+000
 0.000000e+000 7.929848e-001 2.070151e-001 0.000000e+000 0.000000e+000
 0.000000e+000 0.000000e+000 8.039486e-001 1.960514e-001 0.000000e+000
 0.000000e+000 0.000000e+000 0.000000e+000 7.772963e-001 2.227036e-001
 0.000000e+000 0.000000e+000 0.000000e+000 0.000000e+000 0.000000e+000
<ENDHMM>
~h "dh"
<BEGINHMM>
<NUMSTATES> 5
<STATE> 2
<MEAN> 25
 2.317497e+000 4.670936e+000 1.555918e+000 3.144652e+000 3.339843e+000 1.213624e+000 -6.057063e-001 -1.628446e+000 -3.208674e+000 -3.968260e-001 -7.723898e-001 -1.323456e+000 1.232333e+000 -7.241635e-001 1.439454e+000 -8.245591e-001 -3.749106e-001 -7.660773e-001 -1.272974e+000 -1.207722e-001 -7.447790e-001 1.089479e-002 -6.875144e-001 -2.435349e-001 2.231875e+000
<VARIANCE> 25
 3.716243e+001 2.895410e+001 4.109273e+001 2.112129e+001 4.770628e+001 2.673303e+001 5.322219e+001 2.416943e+001 4.334019e+001 2.416228e+001 2.502305e+001 2.193688e+001 3.308641e+000 5.121200e+000 5.142395e+000 2.317383e+000 9.879920e+000 3.293583e+000 4.789075e+000 4.108830e+000 7.035985e+000 2.591327e+000 3.173118e+000 2.284480e+000 3.452487e+000
<GCONST> 1.051594e+002
<STATE> 3
<MEAN> 25
 5.521304e+000 2.521997e+000 6.352775e+000 -9.947547e-001 -1.605367e+000 -2.669010e+000 -3.149897e+000 -1.064914e+000 -3.944943e+000 1.579546e+000 -8.016354e-001 -6.326127e-001 6.727282e-001 -1.936929e+000 8.586780e-001 -1.637849e+000 -2.554561e+000 -8.417742e-001 -1.737449e-003 8.966821e-002 1.142428e+000 -2.178881e-001 -1.414828e-001 2.618209e-001 3.948238e+000
<VARIANCE> 25
 3.317826e+001 7.499981e+001 5.269045e+001 2.803092e+001 1.198678e+002 4.295750e+001 4.307372e+001 4.622042e+001 4.916107e+001 3.081925e+001 3.878888e+001 1.725104e+001 5.531210e+000 6.962728e+000 1.208728e+001 3.331146e+000 9.105428e+000 4.658329e+000 9.055785e+000 6.573530e+000 7.678177e+000 5.417205e+000 7.902716e+000 3.389351e+000 4.780121e+000
<GCONST> 1.147969e+002
<STATE> 4
<MEAN> 25
 4.662304e+000 7.265594e-002 -2.035657e-001 -6.750424e+000 -5.243673e+000 5.123752e+000 1.801191e+000 -1.076750e-001 3.611766e+000 -2.369790e+000 -2.244984e+000 -8.710417e-001 -3.684654e-001 -7.942137e-001 -4.975877e-001 -4.061991e-001 5.655346e-001 -4.600833e-003 1.556428e-001 2.585880e-001 3.042884e-001 8.106279e-002 3.761797e-002 1.422982e-002 1.553959e+000
<VARIANCE> 25
 8.527936e+001 1.208454e+002 1.161177e+002 1.028200e+002 6.874551e+001 9.292859e+001 6.186814e+001 4.344114e+001 6.932912e+001 5.102554e+001 9.256660e+001 5.741822e+001 9.329967e+000 4.663844e+000 3.364605e+000 6.640135e+000 4.454846e+000 3.815392e+000 4.507616e+000 4.045162e+000 3.969223e+000 4.814694e+000 4.814759e+000 4.554660e+000 1.773715e+001
<GCONST> 1.195127e+002
<TRANSP> 5
 0.000000e+000 1.000000e+000 0.000000e+000 0.000000e+000 0.000000e+000
 0.000000e+000 4.684429e-001 5.315571e-001 0.000000e+000 0.000000e+000
 0.000000e+000 0.000000e+000 4.544713e-001 5.455286e-001 0.000000e+000
 0.000000e+000 0.000000e+000 0.000000e+000 8.190622e-001 1.809378e-001
 0.000000e+000 0.000000e+000 0.000000e+000 0.000000e+000 0.000000e+000
<ENDHMM>
~h "eh"
<BEGINHMM>
<NUMSTATES> 5
<STATE> 2
<MEAN> 25
 -9.328256e-001 -7.154009e+000 7.944195e+000 -3.835494e+000 4.281502e-001 -2.765924e+000 6.703246e-001 2.509713e+000 -3.048327e+000 2.938275e+000 1.255417e+000 -9.313920e-002 -1.627884e+000 -1.271452e+000 1.160697e+000 -8.618137e-001 -2.846387e-001 -2.163332e-001 1.023205e+000 9.488181e-001 -5.189486e-001 5.728835e-001 1.957172e-001 -2.242429e-001 8.643289e-001
<VARIANCE> 25
 7.833656e+001 6.360632e+001 1.117348e+002 3.475016e+001 6.886198e+001 4.611123e+001 3.478661e+001 3.900669e+001 5.858806e+001 3.518010e+001 2.656156e+001 2.396225e+001 4.076705e+000 4.341011e+000 4.301796e+000 1.868321e+000 2.182845e+000 2.142431e+000 3.811101e+000 3.261869e+000 2.786341e+000 2.529412e+000 2.279033e+000 1.808631e+000 1.847932e+000
<GCONST> 1.050914e+002
<STATE> 3
<MEAN> 25
 -5.695193e+000 -9.635463e+000 6.891449e+000 -6.723508e+000 -9.640911e-001 -4.938139e+000 2.649848e+000 6.633762e+000 -1.161965e+000 2.432644e+000 -2.743264e-001 -3.763936e-001 1.272269e-001 1.871485e-001 -1.663396e-001 1.371557e-001 -2.192938e-001 3.615817e-002 1.844843e-001 1.015849e-001 1.124031e-001 -1.665702e-001 -1.312215e-001 -4.007701e-002 -5.651972e-001
<VARIANCE> 25
 9.957246e+001 6.339651e+001 9.358541e+001 2.583845e+001 4.807409e+001 2.821822e+001 3.036364e+001 3.710442e+001 5.914456e+001 2.588306e+001 2.973675e+001 1.708300e+001 8.441303e-001 1.176810e+000 1.510020e+000 1.144745e+000 1.180076e+000 1.283628e+000 1.629509e+000 1.647559e+000 1.843878e+000 1.358518e+000 1.452994e+000 1.093233e+000 9.260266e-001
<GCONST> 9.353938e+001
<STATE> 4
<MEAN> 25
 -5.536839e+000 -8.562613e+000 9.646368e+000 -4.071929e-001 -8.643404e+000 3.447167e+000 4.828616e+000 -4.008529e-001 5.423475e+000 -4.818034e+000 1.278859e+000 -1.970483e+000 4.539673e-001 2.230206e-001 1.755542e-001 3.904522e-001 1.566906e-001 3.515939e-001 -2.552016e-001 -2.436386e-001 -1.577211e-001 -1.174596e-001 -1.036639e-002 1.596541e-001 -8.107514e-001
<VARIANCE> 25
 9.017079e+001 5.932682e+001 6.281262e+001 5.188043e+001 8.143319e+001 8.799454e+001 4.524483e+001 6.838389e+001 7.051468e+001 6.377839e+001 4.249795e+001 3.958178e+001 5.191503e+000 3.907400e+000 4.208396e+000 2.993078e+000 4.678928e+000 4.678625e+000 3.509928e+000 4.241383e+000 4.379570e+000 3.502629e+000 3.293345e+000 2.571990e+000 2.422776e+000
<GCONST> 1.124559e+002
<TRANSP> 5
 0.000000e+000 1.000000e+000 0.000000e+000 0.000000e+000 0.000000e+000
 0.000000e+000 5.088834e-001 4.911167e-001 0.000000e+000 0.000000e+000
 0.000000e+000 0.000000e+000 8.216599e-001 1.783401e-001 0.000000e+000
 0.000000e+000 0.000000e+000 0.000000e+000 7.990419e-001 2.009581e-001
 0.000000e+000 0.000000e+000 0.000000e+000 0.000000e+000 0.000000e+000
<ENDHMM>
~h "er"
<BEGINHMM>
<NUMSTATES> 5
<STATE> 2
<MEAN> 25
 3.220177e+000 -2.970449e+000 -3.723768e+000 -3.138179e+000 3.171972e+000 -1.485761e+000 1.897860e-001 6.189005e-001 4.856284e+000 -5.153711e-001 -3.405543e+000 -8.294263e-001 -6.112546e-001 -6.505734e-001 -1.404162e-001 -8.016462e-002 -4.766690e-001 -9.260833e-001 -2.268946e-001 8.568119e-001 1.090733e+000 -1.507127e-001 -2.583466e-001 -8.483887e-002 1.349321e+000
<VARIANCE> 25
 5.331838e+001 2.695514e+001 4.544263e+001 5.036460e+001 4.820109e+001 8.370414e+001 7.630527e+001 5.817337e+001 5.479096e+001 6.457052e+001 8.173466e+001 3.308649e+001 3.250287e+000 2.465305e+000 2.184211e+000 3.800125e+000 4.028160e+000 5.619525e+000 5.939027e+000 7.248927e+000 4.494938e+000 4.277161e+000 3.969971e+000 2.725486e+000 5.314926e+000
<GCONST> 1.118153e+002
<STATE> 3
<MEAN> 25
 2.404886e+000 -4.707427e+000 -3.452085e+000 -4.536347e+000 -2.463154e+000 -7.441157e+000 -6.626047e-001 2.791769e+000 6.792375e+000 2.499126e+000 -2.973924e+000 -2.843817e+000 4.108313e-001 -4.701504e-002 7.162967e-002 2.879139e-001 2.016834e-002 -2.289783e-001 -2.370610e-001 9.907226e-002 1.813621e-002 3.081576e-002 -6.419694e-002 -5.266551e-002 -2.093472e-001
<VARIANCE> 25
 5.498104e+001 1.517147e+001 1.636432e+001 3.526599e+001 1.929454e+001 3.422966e+001 4.045211e+001 3.538793e+001 4.018271e+001 2.959330e+001 4.027207e+001 2.024792e+001 3.851919e+000 1.233588e+000 1.209036e+000 2.662238e+000 1.757905e+000 2.480943e+000 2.520275e+000 3.375343e+000 2.908277e+000 2.102487e+000 2.818224e+000 1.978233e+000 3.486887e+000
<GCONST> 9.769457e+001
<STATE> 4
<MEAN> 25
 1.066070e+001 -5.151818e+000 -2.929394e+000 3.573440e+000 -1.132683e+000 -1.087549e+001 -4.937417e+000 7.239963e+000 3.739444e+000 -1.222031e+000 -2.834948e+000 -2.343919e-001 -6.365788e-002 1.810554e-001 9.036128e-002 3.047948e-001 2.401534e-001 1.467558e-001 5.440785e-002 -1.345680e-001 -5.314910e-001 1.338897e-002 2.183646e-001 1.690679e-001 -8.848562e-001
<VARIANCE> 25
 3.770449e+001 4.401195e+001 5.583196e+001 7.134663e+001 5.126316e+001 7.287353e+001 9.080974e+001 4.892038e+001 5.312806e+001 4.720399e+001 4.058023e+001 3.551491e+001 2.948373e+000 2.979308e+000 2.611463e+000 4.025857e+000 4.384255e+000 5.797892e+000 5.727561e+000 4.068304e+000 4.328457e+000 3.323990e+000 3.369026e+000 2.789745e+000 2.686372e+000
<GCONST> 1.101809e+002
<TRANSP> 5
 0.000000e+000 1.000000e+000 0.000000e+000 0.000000e+000 0.000000e+000
 0.000000e+000 6.573031e-001 3.426969e-001 0.000000e+000 0.000000e+000
 0.000000e+000 0.000000e+000 8.495460e-001 1.504540e-001 0.000000e+000
 0.000000e+000 0.000000e+000 0.000000e+000 8.659447e-001 1.340553e-001
 0.000000e+000 0.000000e+000 0.000000e+000 0.000000e+000 0.000000e+000
<ENDHMM>
~h "ey"
<BEGINHMM>
<NUMSTATES> 5
<STATE> 2
<MEAN> 25
 7.104516e+000 2.911268e+000 1.339044e+000 -9.214463e-001 1.702256e+000 1.836459e-001 3.157863e-001 -1.980363e-001 -1.021739e+000 -1.527353e+000 -7.421737e-001 -5.162974e-001 5.169501e-001 -8.644146e-001 -1.326348e-001 -5.543504e-001 -4.921243e-002 -4.893532e-002 -7.421866e-001 -9.253654e-001 -2.244343e-001 -4.508091e-001 6.138312e-002 5.054309e-002 1.804405e+000
<VARIANCE> 25
 6.274316e+001 7.198048e+001 5.100076e+001 4.958485e+001 8.552434e+001 5.233278e+001 6.242308e+001 6.938386e+001 6.842517e+001 3.268161e+001 3.327533e+001 2.196359e+001 6.694553e+000 6.298618e+000 4.059289e+000 5.568792e+000 8.409948e+000 5.183155e+000 7.392478e+000 7.913788e+000 4.563884e+000 6.365530e+000 4.553539e+000 2.554545e+000 7.226056e+000
<GCONST> 1.157889e+002
<STATE> 3
<MEAN> 25
 9.666186e+000 -9.845280e-001 6.703797e-001 -1.260284e+000 4.572763e-001 -1.062485e+000 -7.553146e+000 -1.058728e+000 3.390429e+000 -2.446491e+000 2.256016e+000 -1.883816e+000 -2.100923e-001 -8.513468e-003 3.280482e-001 3.182554e-001 -3.109542e-001 -5.143400e-001 -1.623430e-001 8.667397e-002 1.335182e-001 6.153206e-002 1.461776e-001 -3.686552e-002 -3.159550e-002
<VARIANCE> 25
 3.914346e+001 4.463554e+001 4.702759e+001 7.216067e+001 3.715487e+001 6.445889e+001 9.430424e+001 1.021737e+002 6.576143e+001 5.352940e+001 9.542791e+001 4.028669e+001 3.316059e+000 2.752403e+000 2.068647e+000 2.501616e+000 3.114435e+000 4.416111e+000 4.687073e+000 5.349789e+000 3.969563e+000 3.166998e+000 6.059552e+000 3.799251e+000 4.095225e+000
<GCONST> 1.116933e+002
<STATE> 4
<MEAN> 25
 2.582754e+000 1.180616e+000 7.991495e+000 -1.391197e+000 -5.524854e+000 -5.336181e+000 -3.200563e+000 -2.154478e+000 -1.866380e+000 -1.501915e+000 3.353942e+000 3.695522e-001 -2.718006e-001 8.966964e-002 9.570830e-003 1.460002e-001 2.109720e-001 7.658159e-002 1.624396e-001 2.693612e-002 -1.434507e-001 1.097050e-001 -2.857782e-002 -5.976116e-002 -3.277611e-001
<VARIANCE> 25
 7.930202e+001 5.062106e+001 6.281541e+001 6.105071e+001 1.235700e+002 6.120283e+001 5.222939e+001 9.082433e+001 6.492066e+001 6.179420e+001 4.417490e+001 3.262852e+001 3.269040e+000 2.287113e+000 3.071259e+000 2.988702e+000 6.252247e+000 3.980501e+000 4.071080e+000 5.871586e+000 4.667883e+000 3.645493e+000 3.625321e+000 2.415989e+000 1.936991e+000
<GCONST> 1.117448e+002
<TRANSP> 5
 0.000000e+000 1.000000e+000 0.000000e+000 0.000000e+000 0.000000e+000
 0.000000e+000 6.113501e-001 3.886500e-001 0.000000e+000 0.000000e+000
 0.000000e+000 0.000000e+000 8.141011e-001 1.858989e-001 0.000000e+000
 0.000000e+000 0.000000e+000 0.000000e+000 8.789890e-001 1.210110e-001
 0.000000e+000 0.000000e+000 0.000000e+000 0.000000e+000 0.000000e+000
<ENDHMM>
~h "hh"
<BEGINHMM>
<NUMSTATES> 5
<STATE> 2
<MEAN> 25
 -1.233319e+001 4.668715e+000 -5.167971e-001 7.655091e+000 2.442949e+000 6.969136e+000 4.104364e+000 3.940857e+000 5.749786e+000 1.970546e+000 4.374151e+000 3.068227e+000 2.467496e-001 -2.732014e-001 -6.707495e-002 -1.520035e-001 -1.176565e-001 6.469543e-002 -4.533606e-002 -9.952228e-002 -1.846168e-001 3.027868e-002 6.805873e-002 1.844572e-001 9.445746e-003
<VARIANCE> 25
 5.538444e+001 2.619754e+001 3.538316e+001 6.053460e+001 3.120294e+001 1.525343e+002 2.342356e+001 3.168123e+001 3.934390e+001 3.501112e+001 2.661373e+001 1.290408e+001 9.775520e-001 9.703804e-001 1.119232e+000 1.525542e+000 1.299569e+000 1.857171e+000 1.423623e+000 1.704222e+000 1.642927e+000 1.352259e+000 1.267728e+000 1.065132e+000 8.886776e-001
<GCONST> 9.227087e+001
<STATE> 3
<MEAN> 25
 -4.675280e+000 -1.243807e+000 -2.650341e+000 3.042979e+000 9.877767e-001 2.904565e+000 2.267107e+000 1.942353e+000 -6.366369e-001 2.431865e-001 1.484002e+000 2.645065e+000 2.494071e+000 -1.761404e+000 4.958690e-001 -1.406224e+000 2.946151e-001 -8.554925e-001 -5.158520e-001 -4.260403e-001 -8.036685e-001 -7.120718e-001 -8.669013e-001 -2.903999e-001 4.217044e+000
<VARIANCE> 25
 8.251599e+001 5.108006e+001 3.927009e+001 5.732721e+001 3.853247e+001 6.487681e+001 2.860101e+001 5.649909e+001 5.031910e+001 3.260943e+001 3.472149e+001 1.549207e+001 8.082125e+000 4.248256e+000 4.411071e+000 4.497617e+000 3.236005e+000 7.022674e+000 3.040159e+000 4.336802e+000 4.641265e+000 2.064159e+000 3.087953e+000 2.201826e+000 1.367714e+001
<GCONST> 1.099335e+002
<STATE> 4
<MEAN> 25
 4.974463e+000 -6.701438e+000 -3.821295e-001 -3.967631e+000 1.921710e+000 -1.087065e+000 1.599759e+000 -3.385173e-001 -1.417651e+000 -1.574889e+000 -4.542808e+000 1.742150e+000 3.388566e-001 1.263272e-002 2.759406e-001 -2.768604e-003 -3.501875e-002 3.809006e-002 -1.957208e-001 -2.581775e-001 -3.508714e-001 1.804458e-001 1.881064e-002 -2.751622e-001 2.071726e-001
<VARIANCE> 25
 6.607442e+001 7.314167e+001 8.332389e+001 6.299621e+001 8.446301e+001 5.582982e+001 6.927046e+001 3.983613e+001 5.366471e+001 4.695977e+001 4.839882e+001 2.533799e+001 1.602230e+000 1.898026e+000 2.826057e+000 2.328399e+000 3.222873e+000 3.572437e+000 2.911518e+000 2.480583e+000 3.302397e+000 2.564090e+000 2.484665e+000 1.797765e+000 2.956298e+000
<GCONST> 1.064550e+002
<TRANSP> 5
 0.000000e+000 1.000000e+000 0.000000e+000 0.000000e+000 0.000000e+000
 0.000000e+000 7.864858e-001 2.135142e-001 0.000000e+000 0.000000e+000
 0.000000e+000 0.000000e+000 6.715398e-001 3.284602e-001 0.000000e+000
 0.000000e+000 0.000000e+000 0.000000e+000 7.893883e-001 2.106117e-001
 0.000000e+000 0.000000e+000 0.000000e+000 0.000000e+000 0.000000e+000
<ENDHMM>
~h "ih"
<BEGINHMM>
<NUMSTATES> 5
<STATE> 2
<MEAN> 25
 2.756652e+000 1.435345e+000 6.869351e+000 -1.398245e+000 -3.793682e+000 -2.460832e+000 1.607020e+000 -2.783322e+000 -2.731328e+000 6.598905e-003 4.539758e-001 -5.834376e-001 -8.513224e-002 -8.189514e-001 2.640230e+000 -1.438587e+000 -2.681591e+000 -8.842041e-001 -7.534631e-002 -7.270393e-001 -9.719158e-001 -1.140617e-001 5.237674e-001 6.371499e-002 2.837031e+000
<VARIANCE> 25
 5.469087e+001 5.393325e+001 6.691704e+001 3.904583e+001 9.276608e+001 5.534280e+001 4.735124e+001 6.048896e+001 5.019735e+001 4.100687e+001 3.135418e+001 2.430867e+001 7.870818e+000 5.382829e+000 6.409693e+000 5.429200e+000 1.131208e+001 5.116551e+000 6.553241e+000 8.138268e+000 6.046379e+000 5.792936e+000 5.280976e+000 3.588546e+000 4.753585e+000
<GCONST> 1.159618e+002
<STATE> 3
<MEAN> 25
 4.354988e+000 -2.934446e+000 1.379661e+001 -6.684149e+000 -9.578113e+000 -3.603760e+000 -2.321765e+000 -6.517554e-001 -7.582578e+000 1.493092e+000 1.795193e+000 -4.210095e-001 -7.000268e-003 -4.809335e-002 -2.347390e-001 1.903723e-001 2.432400e-001 -1.905275e-001 -1.297930e-001 -1.709500e-001 -1.142196e-001 -1.015536e-001 -5.142593e-002 3.004903e-001 5.641789e-001
<VARIANCE> 25
 5.325997e+001 4.802436e+001 6.117826e+001 4.251725e+001 8.442491e+001 4.419721e+001 3.720751e+001 7.666237e+001 4.594406e+001 5.204097e+001 3.811702e+001 3.362100e+001 2.550130e+000 2.777997e+000 2.867873e+000 2.339148e+000 4.703398e+000 2.870259e+000 3.961056e+000 3.155288e+000 3.273007e+000 2.574016e+000 2.714233e+000 1.870814e+000 4.393028e+000
<GCONST> 1.069988e+002
<STATE> 4
<MEAN> 25
 -4.042125e+000 4.268435e+000 7.107008e+000 3.990841e+000 -3.443991e+000 -7.160549e+000 4.436525e+000 -3.061085e+000 -2.077222e+000 -3.558151e+000 2.533167e+000 2.668816e+000 -5.241554e-001 4.559323e-001 -5.847960e-001 6.087141e-001 9.352530e-001 -5.253025e-002 1.011637e-001 3.220844e-001 1.783038e-001 -1.258970e-001 -3.726160e-002 3.544261e-002 -9.578210e-001
<VARIANCE> 25
 9.363412e+001 5.877758e+001 5.491191e+001 7.178545e+001 9.743954e+001 9.368530e+001 7.984297e+001 8.430162e+001 6.585064e+001 3.940426e+001 3.811100e+001 2.869523e+001 5.204538e+000 4.677617e+000 3.822639e+000 4.753284e+000 5.760613e+000 5.897360e+000 6.487338e+000 5.155990e+000 5.256094e+000 3.651060e+000 3.657090e+000 2.705176e+000 2.068975e+000
<GCONST> 1.147326e+002
<TRANSP> 5
 0.000000e+000 1.000000e+000 0.000000e+000 0.000000e+000 0.000000e+000
 0.000000e+000 6.143890e-001 3.856111e-001 0.000000e+000 0.000000e+000
 0.000000e+000 0.000000e+000 7.480309e-001 2.519691e-001 0.000000e+000
 0.000000e+000 0.000000e+000 0.000000e+000 8.202671e-001 1.797329e-001
 0.000000e+000 0.000000e+000 0.000000e+000 0.000000e+000 0.000000e+000
<ENDHMM>
~h "iy"
<BEGINHMM>
<NUMSTATES> 5
<STATE> 2
<MEAN> 25
 6.163491e+000 1.545125e+000 7.865678e+000 7.257671e-001 -2.874803e+000 -2.815327e+000 -1.205204e+000 2.833861e-001 -4.634134e+000 -7.015550e-001 3.057816e+000 -1.577440e+000 6.045416e-001 -2.048929e-001 1.473786e+000 -7.744286e-001 -1.330122e+000 -3.041963e-001 -8.846050e-001 -3.393919e-001 -6.357787e-001 -5.794766e-001 5.887299e-001 -4.829482e-001 2.295377e+000
<VARIANCE> 25
 6.045730e+001 5.921333e+001 6.688811e+001 5.901725e+001 8.753848e+001 4.439754e+001 7.561874e+001 6.435296e+001 5.998545e+001 5.356531e+001 5.388716e+001 3.557092e+001 6.608074e+000 5.702413e+000 5.351668e+000 5.913268e+000 7.635313e+000 5.596427e+000 7.666541e+000 5.368411e+000 5.230192e+000 4.412042e+000 5.907774e+000 3.608427e+000 4.093746e+000
<GCONST> 1.169635e+002
<STATE> 3
<MEAN> 25
 4.881293e+000 -2.366413e+000 1.184957e+001 -6.530819e+000 -5.336229e+000 -1.463190e+000 -4.796768e+000 -1.194715e+000 -5.619050e+000 -6.758483e-002 3.364907e+000 -1.443563e+000 2.273611e-002 1.130092e-001 -1.236749e-002 -1.028226e-001 -9.983914e-002 1.477471e-001 -8.604855e-002 -2.641801e-001 -3.307570e-002 5.721917e-002 -1.077029e-002 4.615667e-002 -1.783835e-001
<VARIANCE> 25
 7.138247e+001 6.756361e+001 7.149970e+001 3.833221e+001 1.118028e+002 3.542028e+001 5.827740e+001 9.943889e+001 4.523589e+001 5.267618e+001 4.935475e+001 2.457172e+001 4.526459e-001 8.306651e-001 9.644561e-001 1.123909e+000 1.279803e+000 1.552033e+000 1.678405e+000 1.832670e+000 1.714064e+000 1.907807e+000 1.339437e+000 1.243804e+000 4.113258e-001
<GCONST> 9.588871e+001
<STATE> 4
<MEAN> 25
 6.482344e+000 1.885138e+000 1.213891e+001 -2.146705e+000 -9.379049e+000 -1.253439e+000 -3.662344e-001 -4.002139e+000 -5.019001e+000 9.262305e-001 1.332261e+000 -2.017990e+000 5.514376e-002 1.447153e-001 -8.247739e-001 5.065656e-001 6.912830e-001 -2.547985e-001 3.336716e-001 1.040963e-001 4.657138e-001 1.343690e-001 -6.781222e-001 1.898215e-001 -1.063213e+000
<VARIANCE> 25
 4.195054e+001 3.767355e+001 8.256015e+001 6.025068e+001 8.289318e+001 6.740218e+001 5.160112e+001 6.937067e+001 4.259144e+001 3.695892e+001 4.044114e+001 2.671171e+001 2.318038e+000 2.959782e+000 3.070792e+000 3.498676e+000 6.153212e+000 4.319247e+000 3.925736e+000 3.891756e+000 3.498015e+000 3.569662e+000 3.838776e+000 2.676878e+000 2.177885e+000
<GCONST> 1.089215e+002
<TRANSP> 5
 0.000000e+000 1.000000e+000 0.000000e+000 0.000000e+000 0.000000e+000
 0.000000e+000 7.639416e-001 2.360584e-001 0.000000e+000 0.000000e+000
 0.000000e+000 0.000000e+000 8.421320e-001 1.578680e-001 0.000000e+000
 0.000000e+000 0.000000e+000 0.000000e+000 7.864576e-001 2.135424e-001
 0.000000e+000 0.000000e+000 0.000000e+000 0.000000e+000 0.000000e+000
<ENDHMM>
~h "jh"
<BEGINHMM>
<NUMSTATES> 5
<STATE> 2
<MEAN> 25
 -9.591810e+000 -1.300144e+000 1.940796e+000 1.348068e+001 7.367618e+000 -5.651484e+000 5.527290e+000 2.098426e+000 6.368392e+000 -3.920627e+000 2.062011e+000 1.676717e+000 1.875338e+000 2.132791e-001 -2.502618e-001 -1.490946e+000 -7.020791e-001 3.345983e-001 -3.168603e-001 -8.535401e-002 -9.501419e-001 2.448128e-001 9.866808e-002 -3.939958e-001 3.870701e-001
<VARIANCE> 25
 1.283150e+002 5.607842e+001 8.406742e+001 9.367250e+001 4.600319e+001 3.178047e+001 2.885792e+001 2.622465e+001 5.364837e+001 3.570080e+001 3.877082e+001 3.318831e+001 1.322041e+001 2.703045e+000 2.442410e+000 1.065540e+001 6.635114e+000 4.992177e+000 5.235445e+000 4.654311e+000 1.063771e+001 4.425649e+000 6.089353e+000 3.375457e+000 1.902935e+000
<GCONST> 1.134807e+002
<STATE> 3
<MEAN> 25
 1.532052e+001 1.549917e+000 7.236254e+000 -1.149420e+001 -6.122133e+000 2.951926e+000 -3.411070e+000 3.157855e+000 -5.207092e+000 4.334702e+000 2.863985e+000 -3.381108e-001 -2.475242e-001 1.181994e-001 4.336271e-001 1.688396e-001 -2.481178e-001 4.362527e-002 3.134598e-001 -1.770499e-001 9.636047e-002 -9.207721e-002 -1.025123e-001 3.024815e-002 -3.384754e-002
<VARIANCE> 25
 2.533836e+001 6.683783e+001 1.462173e+002 4.557728e+001 1.315728e+002 4.888646e+001 4.238110e+001 7.452134e+001 4.496270e+001 7.079790e+001 4.722913e+001 2.855956e+001 1.341779e+000 2.589119e+000 2.998750e+000 4.391743e+000 4.021141e+000 4.271236e+000 6.634518e+000 3.454613e+000 5.687772e+000 6.034085e+000 3.356964e+000 3.722270e+000 9.080696e-001
<GCONST> 1.100489e+002
<STATE> 4
<MEAN> 25
 -1.104479e+001 1.096906e+001 8.368497e+000 6.112732e+000 8.437348e-001 -6.829760e+000 7.635772e+000 1.291062e+000 4.125301e+000 -4.733748e+000 2.360432e+000 1.871706e+000 -2.306869e-001 -2.391991e-001 -4.419817e-001 1.485459e-001 4.302002e-001 -1.368373e-002 -3.594756e-001 2.183143e-001 -1.660594e-002 -4.645788e-002 -2.448032e-002 1.056728e-001 -4.260307e-001
<VARIANCE> 25
 1.221057e+002 3.647672e+001 1.708372e+002 4.311191e+001 1.701386e+002 6.040837e+001 3.116321e+001 3.257710e+001 5.968572e+001 3.150681e+001 4.340513e+001 5.864618e+001 5.781547e+000 4.957528e+000 4.284358e+000 3.951186e+000 3.383737e+000 3.936808e+000 3.181395e+000 4.954211e+000 8.007465e+000 3.228288e+000 7.468443e+000 5.401507e+000 7.643737e-001
<GCONST> 1.130075e+002
<TRANSP> 5
 0.000000e+000 1.000000e+000 0.000000e+000 0.000000e+000 0.000000e+000
 0.000000e+000 9.254721e-001 7.452786e-002 0.000000e+000 0.000000e+000
 0.000000e+000 0.000000e+000 9.686813e-001 3.131874e-002 0.000000e+000
 0.000000e+000 0.000000e+000 0.000000e+000 9.491517e-001 5.084834e-002
 0.000000e+000 0.000000e+000 0.000000e+000 0.000000e+000 0.000000e+000
<ENDHMM>
~h "ng"
<BEGINHMM>
<NUMSTATES> 5
<STATE> 2
<MEAN> 25
 9.259157e+000 -1.344003e+000 8.534386e+000 -4.291483e+000 -9.250100e+000 3.651384e+000 8.019740e-001 -1.057315e+001 -6.853546e-001 8.865347e-001 -6.828017e+000 -3.530207e+000 6.478086e-001 4.274173e-001 -6.661001e-001 3.285673e-001 9.102879e-001 9.173210e-002 -2.974071e-001 9.440789e-002 -5.125389e-001 2.115596e-002 -4.971794e-001 1.390601e-002 -1.164071e+000
<VARIANCE> 25
 6.883105e+001 3.898067e+001 3.078340e+001 3.970839e+001 8.901033e+001 3.561081e+001 5.871169e+001 4.669092e+001 3.800395e+001 3.887388e+001 4.913441e+001 2.082618e+001 3.126702e+000 3.358117e+000 2.658834e+000 2.300937e+000 4.952055e+000 3.786632e+000 3.538836e+000 4.921437e+000 3.199768e+000 2.317173e+000 3.790109e+000 1.588421e+000 1.196416e+000
<GCONST> 1.050857e+002
<STATE> 3
<MEAN> 25
 7.731713e+000 -1.793693e-001 6.499135e+000 2.720410e-002 7.664128e+000 3.336845e-001 -1.292001e+001 -1.941900e+000 -2.002642e+000 2.356711e+000 -1.034079e+000 -4.026601e+000 -1.569539e-001 6.996722e-001 -5.361925e-001 1.628257e-001 -2.703009e-001 4.410062e-002 7.625267e-001 6.186852e-001 3.682260e-001 1.631641e-001 5.075951e-002 -7.287360e-001 -7.160932e-001
<VARIANCE> 25
 2.172828e+001 3.077394e+001 2.963607e+001 1.895914e+001 6.542062e+001 2.260922e+001 1.242479e+002 2.170702e+001 3.473846e+001 2.341247e+001 2.393799e+001 2.138748e+001 6.181684e-001 1.202502e+000 1.331861e+000 2.044530e+000 3.121104e+000 1.464718e+000 3.906819e+000 2.476320e+000 2.535961e+000 2.141045e+000 1.791309e+000 1.349711e+000 3.546770e-001
<GCONST> 9.295464e+001
<STATE> 4
<MEAN> 25
 6.612912e+000 5.198300e+000 9.605684e+000 4.162695e-001 -3.265715e+000 -1.047082e-001 -2.881680e+000 -2.364425e+000 -4.350720e+000 -1.149478e+000 -1.560074e+000 -3.375416e+000 -6.522545e-001 -4.479895e-002 -2.084783e-001 3.373120e-001 5.290856e-001 1.103318e-001 1.374633e-001 1.383739e-001 -3.197432e-002 -7.372908e-003 3.002719e-001 3.702418e-001 -6.695228e-001
<VARIANCE> 25
 2.697272e+001 4.878595e+001 6.336326e+001 7.460198e+001 9.151091e+001 2.358872e+001 2.558781e+001 2.352261e+001 4.593003e+001 2.321045e+001 3.914325e+001 2.622711e+001 7.341719e-001 1.042164e+000 1.031588e+000 1.800743e+000 2.467089e+000 1.718413e+000 1.970941e+000 1.993047e+000 1.807775e+000 1.424390e+000 1.602394e+000 1.612257e+000 3.747818e-001
<GCONST> 9.365106e+001
<TRANSP> 5
 0.000000e+000 1.000000e+000 0.000000e+000 0.000000e+000 0.000000e+000
 0.000000e+000 8.068075e-001 1.931925e-001 0.000000e+000 0.000000e+000
 0.000000e+000 0.000000e+000 6.733677e-001 3.266324e-001 0.000000e+000
 0.000000e+000 0.000000e+000 0.000000e+000 8.068855e-001 1.931145e-001
 0.000000e+000 0.000000e+000 0.000000e+000 0.000000e+000 0.000000e+000
<ENDHMM>
~h "ow"
<BEGINHMM>
<NUMSTATES> 5
<STATE> 2
<MEAN> 25
 1.393443e+001 6.929137e+000 -1.514869e+000 -3.638881e+000 -5.438771e-001 -5.759817e-001 -2.348046e+000 -3.773057e+000 -2.609308e+000 2.430329e+000 2.912282e+000 4.554931e-001 -4.016445e-001 -2.167795e-001 2.608387e-001 5.208827e-001 -5.158347e-001 -1.681983e-001 1.952265e-001 6.332219e-001 8.242345e-002 -2.172174e-001 -9.221716e-002 2.233747e-001 -7.389144e-001
<VARIANCE> 25
 5.414057e+001 4.034933e+001 2.207898e+001 4.782526e+001 3.168883e+001 4.054160e+001 3.532696e+001 4.898714e+001 3.372873e+001 4.122515e+001 3.900873e+001 2.952294e+001 1.530087e+000 1.187504e+000 1.336685e+000 2.996473e+000 2.580189e+000 2.768569e+000 2.434478e+000 3.403718e+000 2.780099e+000 2.589424e+000 2.613234e+000 2.191309e+000 6.184135e-001
<GCONST> 9.880312e+001
<STATE> 3
<MEAN> 25
 4.422781e+000 -2.162313e+000 -8.369977e-001 -2.864138e+000 -1.563347e+000 -2.459839e+000 -3.178484e-001 5.118321e+000 1.114111e+000 2.715194e+000 -1.308947e+000 1.582815e-002 -4.423290e-001 -1.945413e-001 -1.842273e-001 2.812073e-001 4.396682e-001 6.442153e-001 3.880242e-001 8.461146e-002 -2.581376e-001 -9.594452e-002 2.943331e-002 -2.535612e-001 -3.821427e-001
<VARIANCE> 25
 4.962587e+001 3.210717e+001 1.935079e+001 4.123239e+001 2.144975e+001 3.347765e+001 2.187756e+001 2.121737e+001 5.819333e+001 3.961540e+001 3.147810e+001 2.912161e+001 4.758756e-001 7.404451e-001 7.543820e-001 1.301682e+000 1.403045e+000 1.873809e+000 1.322561e+000 1.779791e+000 1.904881e+000 2.269114e+000 1.774799e+000 1.616822e+000 3.021827e-001
<GCONST> 8.936573e+001
<STATE> 4
<MEAN> 25
 3.598497e+000 -2.251060e+000 -2.905897e+000 1.046775e+000 4.301569e+000 2.230332e+000 1.307278e+000 2.824939e+000 5.583392e-001 -7.899373e-001 -4.416932e+000 -7.330967e-001 -5.253827e-001 -3.078192e-002 -4.227004e-002 2.273540e-001 1.029563e-001 2.019998e-001 -3.049147e-002 -2.772266e-001 -1.922878e-001 7.273231e-002 1.118944e-001 1.061092e-001 -8.050256e-001
<VARIANCE> 25
 4.144044e+001 3.384640e+001 2.922108e+001 4.217193e+001 4.001357e+001 3.015957e+001 3.599052e+001 3.784350e+001 4.927975e+001 2.892589e+001 3.647304e+001 2.669643e+001 1.321450e+000 1.675610e+000 1.823432e+000 2.411395e+000 3.387115e+000 2.884536e+000 2.786175e+000 2.438022e+000 2.815679e+000 2.270939e+000 2.352097e+000 1.854269e+000 9.647414e-001
<GCONST> 9.852879e+001
<TRANSP> 5
 0.000000e+000 1.000000e+000 0.000000e+000 0.000000e+000 0.000000e+000
 0.000000e+000 8.155932e-001 1.844067e-001 0.000000e+000 0.000000e+000
 0.000000e+000 0.000000e+000 7.752519e-001 2.247481e-001 0.000000e+000
 0.000000e+000 0.000000e+000 0.000000e+000 8.589711e-001 1.410289e-001
 0.000000e+000 0.000000e+000 0.000000e+000 0.000000e+000 0.000000e+000
<ENDHMM>
~h "oy"
<BEGINHMM>
<NUMSTATES> 5
<STATE> 2
<MEAN> 25
 6.696671e+000 8.125180e+000 8.214879e+000 8.398412e-002 -4.090967e+000 -1.097193e+001 6.096889e-001 1.439879e+000 8.158990e+000 -2.889315e+000 -2.997383e+000 1.225562e+000 3.061311e+000 -8.783886e-001 5.576903e-001 -1.687906e+000 -2.976294e+000 -6.235275e-001 2.037194e+000 -7.429964e-002 -2.606789e+000 8.852871e-001 4.377295e-002 -1.262746e-001 1.217169e+000
<VARIANCE> 25
 9.687902e+001 3.136521e+001 1.660301e+002 3.833369e+001 5.804289e+001 8.492063e+001 9.343384e+000 1.976533e+001 3.986188e+001 2.546031e+001 1.956782e+001 1.389791e+001 1.234403e+001 4.427477e+000 2.315320e+000 4.061097e+000 7.015728e+000 7.394270e+000 1.277144e+000 2.255422e+000 9.052568e+000 5.772821e+000 9.859838e+000 3.994061e+000 3.143338e+000
<GCONST> 1.089978e+002
<STATE> 3
<MEAN> 25
 1.410643e+001 4.421832e+000 1.206387e+001 -1.108253e+000 -1.410127e+001 -7.549244e+000 7.846127e+000 3.834030e+000 -4.762233e+000 -1.806240e+000 4.262488e+000 -3.032468e+000 8.908703e-001 -1.550478e+000 -9.245773e-001 4.836806e-001 4.754604e-001 -6.291140e-001 1.768993e+000 1.530801e+000 -1.675575e+000 4.687456e-001 9.886610e-001 5.479977e-001 2.314562e-001
<VARIANCE> 25
 1.908054e+001 5.358149e+001 1.274480e+002 5.328897e+001 1.313729e+002 6.102042e+001 8.724753e+000 3.688232e+001 2.964440e+001 1.202851e+002 3.342566e+001 6.135189e+001 5.168066e-001 9.817042e-001 1.021531e+001 9.945290e+000 5.582116e+000 8.017267e+000 2.649850e+000 3.552936e+000 3.035972e+000 3.907833e+000 5.368752e+000 8.520893e+000 1.206297e+000
<GCONST> 1.087385e+002
<STATE> 4
<MEAN> 25
 1.212516e+001 6.252408e+000 -1.034125e+000 -8.908622e-001 -2.273139e+000 1.401411e+000 -5.964478e-001 -1.762915e+000 2.543335e-001 3.352215e+000 2.271860e+000 -1.489923e+000 -6.013587e-001 -1.192636e-001 -4.734486e-001 -6.667343e-002 8.306431e-001 5.602717e-001 -4.771015e-001 -5.075622e-001 3.799842e-001 7.215057e-002 -3.033305e-001 -8.503021e-002 -4.634773e-001
<VARIANCE> 25
 7.324000e+001 4.702366e+001 3.345158e+001 8.052100e+001 6.906116e+001 5.700320e+001 7.447242e+001 3.793360e+001 3.826126e+001 6.834634e+001 5.746961e+001 6.912546e+001 8.281350e-001 2.316813e+000 3.961924e+000 4.898876e+000 3.626055e+000 3.234615e+000 7.662726e+000 4.557456e+000 7.085400e+000 8.124259e+000 5.755352e+000 8.440076e+000 1.140124e+000
<GCONST> 1.120702e+002
<TRANSP> 5
 0.000000e+000 1.000000e+000 0.000000e+000 0.000000e+000 0.000000e+000
 0.000000e+000 5.914620e-001 4.085380e-001 0.000000e+000 0.000000e+000
 0.000000e+000 0.000000e+000 5.598168e-001 4.401832e-001 0.000000e+000
 0.000000e+000 0.000000e+000 0.000000e+000 9.394670e-001 6.053299e-002
 0.000000e+000 0.000000e+000 0.000000e+000 0.000000e+000 0.000000e+000
<ENDHMM>
~h "sh"
<BEGINHMM>
<NUMSTATES> 5
<STATE> 2
<MEAN> 25
 -1.482740e+000 -3.811017e-001 -2.913899e+000 1.329465e+000 1.713661e+000 4.626598e+000 5.045699e-001 -8.340935e-001 -2.393742e+000 5.898595e-001 -1.056064e+000 1.440114e+000 -3.414313e-003 2.081075e-001 -2.752430e-001 -1.121038e-002 -4.804657e-002 1.263462e-002 -1.218251e-001 -1.536908e-001 1.175284e-002 3.250898e-002 -5.024842e-003 -3.245481e-002 -2.667665e-001
<VARIANCE> 25
 3.624171e+001 1.668164e+001 2.725955e+001 2.575846e+001 2.821590e+001 2.153040e+001 1.962582e+001 2.409537e+001 3.370717e+001 2.333898e+001 1.894944e+001 1.674761e+001 4.525183e-001 1.305152e+000 1.422355e+000 1.323227e+000 2.067225e+000 1.944815e+000 2.163043e+000 2.215887e+000 2.308573e+000 1.714885e+000 1.710715e+000 1.908336e+000 3.365875e-001
<GCONST> 8.843624e+001
<STATE> 3
<MEAN> 25
 -2.258339e+000 1.333703e+000 -2.652430e+000 3.097791e+000 2.033718e+000 2.504874e+000 -2.853068e+000 -3.296727e+000 -2.214566e+000 -1.777269e+000 6.581996e-002 5.047799e-002 1.135652e-002 3.110802e-002 -9.898915e-004 3.723372e-003 4.957499e-002 2.317308e-002 1.135214e-002 4.052129e-003 -4.006097e-002 -5.671731e-004 1.415672e-002 4.273152e-003 -5.075458e-003
<VARIANCE> 25
 1.569616e+001 4.214757e+000 1.386565e+001 6.092446e+000 8.720701e+000 6.591236e+000 6.427757e+000 1.177914e+001 8.653715e+000 7.707360e+000 6.907340e+000 7.259840e+000 4.793166e-002 1.357221e-001 1.896749e-001 3.032500e-001 4.608150e-001 4.611033e-001 4.935061e-001 6.934126e-001 5.657012e-001 5.294095e-001 5.659819e-001 4.774837e-001 2.535352e-002
<GCONST> 5.436796e+001
<STATE> 4
<MEAN> 25
 2.771391e+000 3.344588e+000 1.306659e+000 2.067286e+000 5.815009e+000 2.427529e+000 -2.697606e+000 -3.665282e-001 -3.349695e+000 -1.970783e-001 5.080500e-001 1.005944e+000 7.838266e-003 2.572382e-002 1.159202e-002 3.325372e-004 3.789776e-002 1.838087e-004 2.299837e-002 2.176762e-002 1.544834e-002 3.415822e-002 3.121538e-002 3.576773e-003 1.047265e-002
<VARIANCE> 25
 6.975301e+000 2.028560e+001 1.820443e+001 1.263608e+001 1.491016e+001 1.807395e+001 1.560972e+001 1.721297e+001 1.995724e+001 1.372303e+001 9.465508e+000 1.226417e+001 4.653782e-001 1.721548e+000 1.604476e+000 1.452758e+000 1.575510e+000 2.228812e+000 1.788092e+000 1.812109e+000 2.153353e+000 1.417815e+000 1.108441e+000 1.344451e+000 5.461707e-001
<GCONST> 8.186104e+001
<TRANSP> 5
 0.000000e+000 1.000000e+000 0.000000e+000 0.000000e+000 0.000000e+000
 0.000000e+000 9.436406e-001 5.635935e-002 0.000000e+000 0.000000e+000
 0.000000e+000 0.000000e+000 9.527139e-001 4.728611e-002 0.000000e+000
 0.000000e+000 0.000000e+000 0.000000e+000 9.612938e-001 3.870628e-002
 0.000000e+000 0.000000e+000 0.000000e+000 0.000000e+000 0.000000e+000
<ENDHMM>
~h "sp"
<BEGINHMM>
<NUMSTATES> 3
<STATE> 2
~s "silst"
<TRANSP> 3
 0.000000e+000 4.254703e-002 9.574530e-001
 0.000000e+000 9.477959e-001 5.220411e-002
 0.000000e+000 0.000000e+000 0.000000e+000
<ENDHMM>
~h "th"
<BEGINHMM>
<NUMSTATES> 5
<STATE> 2
<MEAN> 25
 9.231214e+000 -1.395499e+000 5.955778e+000 5.585230e+000 -6.625897e+000 -5.178938e+000 -4.837218e-001 2.217402e+000 -2.376055e+000 -6.393925e+000 4.672855e+000 -4.855620e+000 -7.204384e-002 1.900874e-001 -2.125961e-001 1.542471e-001 2.499725e-001 1.004134e-001 2.523054e-001 -5.094305e-001 7.013069e-002 -9.444733e-002 -1.626256e-001 -1.651697e-001 -2.579573e-001
<VARIANCE> 25
 2.595303e+001 7.309013e+001 6.846300e+001 3.655638e+001 3.854649e+001 2.887943e+001 6.865265e+001 2.247379e+002 2.598850e+001 4.046714e+001 8.199264e+001 4.332330e+001 2.229801e+000 1.594779e+000 2.496243e+000 2.935193e+000 3.572790e+000 2.917653e+000 3.938995e+000 3.961328e+000 1.912053e+000 2.555128e+000 6.005136e+000 2.801816e+000 4.079111e+000
<GCONST> 1.072794e+002
<STATE> 3
<MEAN> 25
 3.268139e+000 3.521079e-001 3.204437e+000 7.681533e+000 8.360779e+000 -8.543524e-001 -5.577907e+000 -8.557780e+000 -6.599454e+000 -2.104904e+000 -4.705767e+000 -2.652487e+000 -3.146227e-001 -8.622300e-001 -7.787644e-001 -1.054386e-001 5.875063e-001 -2.811635e-002 -2.004427e-001 1.114191e+000 2.233339e-001 2.145000e-001 -4.381740e-002 5.717844e-001 -1.113351e-001
<VARIANCE> 25
 7.864309e+001 4.149023e+001 3.310575e+001 3.978403e+001 8.609641e+001 4.015967e+001 3.575644e+001 6.945938e+001 7.818385e+001 4.548865e+001 6.244981e+001 3.161491e+001 7.726771e+000 3.431676e+000 3.287915e+000 2.085000e+000 6.228773e+000 4.581532e+000 3.873146e+000 5.206672e+000 8.084753e+000 3.597042e+000 3.278816e+000 3.967212e+000 4.002326e+000
<GCONST> 1.118313e+002
<STATE> 4
<MEAN> 25
 8.966805e+000 -9.308675e+000 4.638188e-001 5.055219e+000 5.423492e-001 -4.475442e-001 -5.009518e+000 8.612763e+000 3.180700e+000 -1.560802e+000 -2.140884e-001 2.172429e+000 -8.409477e-001 -1.135321e+000 5.925049e-001 -6.727988e-001 -7.984018e-001 4.614984e-001 1.421876e+000 7.097141e-001 6.005510e-002 3.938956e-002 2.151486e-001 1.683166e-001 6.376295e-001
<VARIANCE> 25
 5.099738e+001 1.551253e+002 4.309496e+001 2.221399e+001 2.936867e+001 2.675606e+001 4.761540e+001 1.174221e+002 5.866367e+001 3.190624e+001 2.849548e+001 2.086167e+001 4.244691e-001 2.647035e+000 1.559461e+000 2.146633e+000 3.227532e+000 3.363307e+000 2.077551e+000 4.215995e+000 3.521851e+000 1.318621e+000 1.756801e+000 7.086369e-001 1.100257e+000
<GCONST> 9.873465e+001
<TRANSP> 5
 0.000000e+000 1.000000e+000 0.000000e+000 0.000000e+000 0.000000e+000
 0.000000e+000 8.854361e-001 1.145639e-001 0.000000e+000 0.000000e+000
 0.000000e+000 0.000000e+000 6.877928e-001 3.122072e-001 0.000000e+000
 0.000000e+000 0.000000e+000 0.000000e+000 5.879033e-001 4.120967e-001
 0.000000e+000 0.000000e+000 0.000000e+000 0.000000e+000 0.000000e+000
<ENDHMM>
~h "uh"
<BEGINHMM>
<NUMSTATES> 5
<STATE> 2
<MEAN> 25
 -7.402836e+000 -1.033536e+000 -1.651620e+000 3.571512e+000 -1.380028e-001 2.287029e-001 -7.127598e-001 -2.065374e+000 -8.303469e-001 -2.374288e+000 3.709971e-001 5.960678e-001 -3.908579e-002 -3.592975e-003 -2.103591e-002 8.154771e-003 8.245284e-006 5.827336e-004 6.482430e-003 -3.122987e-003 -1.352879e-002 1.954957e-002 -2.625881e-003 5.061381e-003 -4.303858e-002
<VARIANCE> 25
 1.623438e+001 5.161202e+000 6.581181e+000 6.876668e+000 9.216943e+000 1.144005e+001 8.125395e+000 1.091961e+001 1.003942e+001 1.198063e+001 7.962858e+000 8.327462e+000 5.850879e-002 1.163497e-001 1.791762e-001 2.882302e-001 3.676584e-001 4.650017e-001 5.126239e-001 5.825643e-001 5.783064e-001 6.265361e-001 5.002453e-001 5.709617e-001 2.535352e-002
<GCONST> 5.544437e+001
<STATE> 3
<MEAN> 25
