~h "ae"
<BEGINHMM>
<NUMSTATES> 5
<STATE> 2
<MEAN> 25
 -8.985938e-009 3.814864e-008 -2.076542e-007 3.344766e-008 -1.077827e-008 -6.575821e-008 -2.336621e-008 3.773262e-008 2.003809e-008 1.921992e-008 1.478242e-008 1.798574e-008 3.600805e-002 -2.397730e-003 8.129811e-003 -2.221155e-003 1.039155e-002 -1.424094e-003 -6.316496e-004 -7.066861e-003 -1.585887e-002 -7.098205e-003 -5.471149e-003 -6.991659e-003 3.746431e-002
<VARIANCE> 25
 1.382332e+002 5.403470e+001 6.297409e+001 5.268550e+001 6.156908e+001 6.080389e+001 4.641895e+001 6.133797e+001 6.598586e+001 4.516822e+001 4.696126e+001 2.879235e+001 2.669329e+000 2.463164e+000 2.496033e+000 2.573711e+000 3.419287e+000 3.265243e+000 3.102299e+000 3.687264e+000 3.478769e+000 2.825354e+000 2.873757e+000 2.211569e+000 3.608603e+000
<GCONST> 1.083748e+002
<STATE> 3
<MEAN> 25
 -8.985938e-009 3.814864e-008 -2.076542e-007 3.344766e-008 -1.077827e-008 -6.575821e-008 -2.336621e-008 3.773262e-008 2.003809e-008 1.921992e-008 1.478242e-008 1.798574e-008 3.600805e-002 -2.397730e-003 8.129811e-003 -2.221155e-003 1.039155e-002 -1.424094e-003 -6.316496e-004 -7.066861e-003 -1.585887e-002 -7.098205e-003 -5.471149e-003 -6.991659e-003 3.746431e-002
<VARIANCE> 25
 1.382332e+002 5.403470e+001 6.297409e+001 5.268550e+001 6.156908e+001 6.080389e+001 4.641895e+001 6.133797e+001 6.598586e+001 4.516822e+001 4.696126e+001 2.879235e+001 2.669329e+000 2.463164e+000 2.496033e+000 2.573711e+000 3.419287e+000 3.265243e+000 3.102299e+000 3.687264e+000 3.478769e+000 2.825354e+000 2.873757e+000 2.211569e+000 3.608603e+000
<GCONST> 1.083748e+002
<STATE> 4
<MEAN> 25
 -8.985938e-009 3.814864e-008 -2.076542e-007 3.344766e-008 -1.077827e-008 -6.575821e-008 -2.336621e-008 3.773262e-008 2.003809e-008 1.921992e-008 1.478242e-008 1.798574e-008 3.600805e-002 -2.397730e-003 8.129811e-003 -2.221155e-003 1.039155e-002 -1.424094e-003 -6.316496e-004 -7.066861e-003 -1.585887e-002 -7.098205e-003 -5.471149e-003 -6.991659e-003 3.746431e-002
<VARIANCE> 25
 1.382332e+002 5.403470e+001 6.297409e+001 5.268550e+001 6.156908e+001 6.080389e+001 4.641895e+001 6.133797e+001 6.598586e+001 4.516822e+001 4.696126e+001 2.879235e+001 2.669329e+000 2.463164e+000 2.496033e+000 2.573711e+000 3.419287e+000 3.265243e+000 3.102299e+000 3.687264e+000 3.478769e+000 2.825354e+000 2.873757e+000 2.211569e+000 3.608603e+000
<GCONST> 1.083748e+002
<TRANSP> 5
 0.000000e+000 1.000000e+000 0.000000e+000 0.000000e+000 0.000000e+000
 0.000000e+000 6.000000e-001 4.000000e-001 0.000000e+000 0.000000e+000
 0.000000e+000 0.000000e+000 6.000000e-001 4.000000e-001 0.000000e+000
 0.000000e+000 0.000000e+000 0.000000e+000 7.000000e-001 3.000000e-001
 0.000000e+000 0.000000e+000 0.000000e+000 0.000000e+000 0.000000e+000
<ENDHMM>
~h "b"
<BEGINHMM>
<NUMSTATES> 5
<STATE> 2
<MEAN> 25
 -8.985938e-009 3.814864e-008 -2.076542e-007 3.344766e-008 -1.077827e-008 -6.575821e-008 -2.336621e-008 3.773262e-008 2.003809e-008 1.921992e-008 1.478242e-008 1.798574e-008 3.600805e-002 -2.397730e-003 8.129811e-003 -2.221155e-003 1.039155e-002 -1.424094e-003 -6.316496e-004 -7.066861e-003 -1.585887e-002 -7.098205e-003 -5.471149e-003 -6.991659e-003 3.746431e-002
<VARIANCE> 25
 1.382332e+002 5.403470e+001 6.297409e+001 5.268550e+001 6.156908e+001 6.080389e+001 4.641895e+001 6.133797e+001 6.598586e+001 4.516822e+001 4.696126e+001 2.879235e+001 2.669329e+000 2.463164e+000 2.496033e+000 2.573711e+000 3.419287e+000 3.265243e+000 3.102299e+000 3.687264e+000 3.478769e+000 2.825354e+000 2.873757e+000 2.211569e+000 3.608603e+000
<GCONST> 1.083748e+002
<STATE> 3
<MEAN> 25
 -8.985938e-009 3.814864e-008 -2.076542e-007 3.344766e-008 -1.077827e-008 -6.575821e-008 -2.336621e-008 3.773262e-008 2.003809e-008 1.921992e-008 1.478242e-008 1.798574e-008 3.600805e-002 -2.397730e-003 8.129811e-003 -2.221155e-003 1.039155e-002 -1.424094e-003 -6.316496e-004 -7.066861e-003 -1.585887e-002 -7.098205e-003 -5.471149e-003 -6.991659e-003 3.746431e-002
<VARIANCE> 25
 1.382332e+002 5.403470e+001 6.297409e+001 5.268550e+001 6.156908e+001 6.080389e+001 4.641895e+001 6.133797e+001 6.598586e+001 4.516822e+001 4.696126e+001 2.879235e+001 2.669329e+000 2.463164e+000 2.496033e+000 2.573711e+000 3.419287e+000 3.265243e+000 3.102299e+000 3.687264e+000 3.478769e+000 2.825354e+000 2.873757e+000 2.211569e+000 3.608603e+000
<GCONST> 1.083748e+002
<STATE> 4
<MEAN> 25
 -8.985938e-009 3.814864e-008 -2.076542e-007 3.344766e-008 -1.077827e-008 -6.575821e-008 -2.336621e-008 3.773262e-008 2.003809e-008 1.921992e-008 1.478242e-008 1.798574e-008 3.600805e-002 -2.397730e-003 8.129811e-003 -2.221155e-003 1.039155e-002 -1.424094e-003 -6.316496e-004 -7.066861e-003 -1.585887e-002 -7.098205e-003 -5.471149e-003 -6.991659e-003 3.746431e-002
<VARIANCE> 25
 1.382332e+002 5.403470e+001 6.297409e+001 5.268550e+001 6.156908e+001 6.080389e+001 4.641895e+001 6.133797e+001 6.598586e+001 4.516822e+001 4.696126e+001 2.879235e+001 2.669329e+000 2.463164e+000 2.496033e+000 2.573711e+000 3.419287e+000 3.265243e+000 3.102299e+000 3.687264e+000 3.478769e+000 2.825354e+000 2.873757e+000 2.211569e+000 3.608603e+000
<GCONST> 1.083748e+002
<TRANSP> 5
 0.000000e+000 1.000000e+000 0.000000e+000 0.000000e+000 0.000000e+000
 0.000000e+000 6.000000e-001 4.000000e-001 0.000000e+000 0.000000e+000
 0.000000e+000 0.000000e+000 6.000000e-001 4.000000e-001 0.000000e+000
 0.000000e+000 0.000000e+000 0.000000e+000 7.000000e-001 3.000000e-001
 0.000000e+000 0.000000e+000 0.000000e+000 0.000000e+000 0.000000e+000
<ENDHMM>
~h "ah"
<BEGINHMM>
<NUMSTATES> 5
<STATE> 2
<MEAN> 25
 -8.985938e-009 3.814864e-008 -2.076542e-007 3.344766e-008 -1.077827e-008 -6.575821e-008 -2.336621e-008 3.773262e-008 2.003809e-008 1.921992e-008 1.478242e-008 1.798574e-008 3.600805e-002 -2.397730e-003 8.129811e-003 -2.221155e-003 1.039155e-002 -1.424094e-003 -6.316496e-004 -7.066861e-003 -1.585887e-002 -7.098205e-003 -5.471149e-003 -6.991659e-003 3.746431e-002
<VARIANCE> 25
 1.382332e+002 5.403470e+001 6.297409e+001 5.268550e+001 6.156908e+001 6.080389e+001 4.641895e+001 6.133797e+001 6.598586e+001 4.516822e+001 4.696126e+001 2.879235e+001 2.669329e+000 2.463164e+000 2.496033e+000 2.573711e+000 3.419287e+000 3.265243e+000 3.102299e+000 3.687264e+000 3.478769e+000 2.825354e+000 2.873757e+000 2.211569e+000 3.608603e+000
<GCONST> 1.083748e+002
<STATE> 3
<MEAN> 25
 -8.985938e-009 3.814864e-008 -2.076542e-007 3.344766e-008 -1.077827e-008 -6.575821e-008 -2.336621e-008 3.773262e-008 2.003809e-008 1.921992e-008 1.478242e-008 1.798574e-008 3.600805e-002 -2.397730e-003 8.129811e-003 -2.221155e-003 1.039155e-002 -1.424094e-003 -6.316496e-004 -7.066861e-003 -1.585887e-002 -7.098205e-003 -5.471149e-003 -6.991659e-003 3.746431e-002
<VARIANCE> 25
 1.382332e+002 5.403470e+001 6.297409e+001 5.268550e+001 6.156908e+001 6.080389e+001 4.641895e+001 6.133797e+001 6.598586e+001 4.516822e+001 4.696126e+001 2.879235e+001 2.669329e+000 2.463164e+000 2.496033e+000 2.573711e+000 3.419287e+000 3.265243e+000 3.102299e+000 3.687264e+000 3.478769e+000 2.825354e+000 2.873757e+000 2.211569e+000 3.608603e+000
<GCONST> 1.083748e+002
<STATE> 4
<MEAN> 25
 -8.985938e-009 3.814864e-008 -2.076542e-007 3.344766e-008 -1.077827e-008 -6.575821e-008 -2.336621e-008 3.773262e-008 2.003809e-008 1.921992e-008 1.478242e-008 1.798574e-008 3.600805e-002 -2.397730e-003 8.129811e-003 -2.221155e-003 1.039155e-002 -1.424094e-003 -6.316496e-004 -7.066861e-003 -1.585887e-002 -7.098205e-003 -5.471149e-003 -6.991659e-003 3.746431e-002
<VARIANCE> 25
 1.382332e+002 5.403470e+001 6.297409e+001 5.268550e+001 6.156908e+001 6.080389e+001 4.641895e+001 6.133797e+001 6.598586e+001 4.516822e+001 4.696126e+001 2.879235e+001 2.669329e+000 2.463164e+000 2.496033e+000 2.573711e+000 3.419287e+000 3.265243e+000 3.102299e+000 3.687264e+000 3.478769e+000 2.825354e+000 2.873757e+000 2.211569e+000 3.608603e+000
<GCONST> 1.083748e+002
<TRANSP> 5
 0.000000e+000 1.000000e+000 0.000000e+000 0.000000e+000 0.000000e+000
 0.000000e+000 6.000000e-001 4.000000e-001 0.000000e+000 0.000000e+000
 0.000000e+000 0.000000e+000 6.000000e-001 4.000000e-001 0.000000e+000
 0.000000e+000 0.000000e+000 0.000000e+000 7.000000e-001 3.000000e-001
 0.000000e+000 0.000000e+000 0.000000e+000 0.000000e+000 0.000000e+000
<ENDHMM>
~h "l"
<BEGINHMM>
<NUMSTATES> 5
<STATE> 2
<MEAN> 25
 -8.985938e-009 3.814864e-008 -2.076542e-007 3.344766e-008 -1.077827e-008 -6.575821e-008 -2.336621e-008 3.773262e-008 2.003809e-008 1.921992e-008 1.478242e-008 1.798574e-008 3.600805e-002 -2.397730e-003 8.129811e-003 -2.221155e-003 1.039155e-002 -1.424094e-003 -6.316496e-004 -7.066861e-003 -1.585887e-002 -7.098205e-003 -5.471149e-003 -6.991659e-003 3.746431e-002
<VARIANCE> 25
 1.382332e+002 5.403470e+001 6.297409e+001 5.268550e+001 6.156908e+001 6.080389e+001 4.641895e+001 6.133797e+001 6.598586e+001 4.516822e+001 4.696126e+001 2.879235e+001 2.669329e+000 2.463164e+000 2.496033e+000 2.573711e+000 3.419287e+000 3.265243e+000 3.102299e+000 3.687264e+000 3.478769e+000 2.825354e+000 2.873757e+000 2.211569e+000 3.608603e+000
<GCONST> 1.083748e+002
<STATE> 3
<MEAN> 25
 -8.985938e-009 3.814864e-008 -2.076542e-007 3.344766e-008 -1.077827e-008 -6.575821e-008 -2.336621e-008 3.773262e-008 2.003809e-008 1.921992e-008 1.478242e-008 1.798574e-008 3.600805e-002 -2.397730e-003 8.129811e-003 -2.221155e-003 1.039155e-002 -1.424094e-003 -6.316496e-004 -7.066861e-003 -1.585887e-002 -7.098205e-003 -5.471149e-003 -6.991659e-003 3.746431e-002
<VARIANCE> 25
 1.382332e+002 5.403470e+001 6.297409e+001 5.268550e+001 6.156908e+001 6.080389e+001 4.641895e+001 6.133797e+001 6.598586e+001 4.516822e+001 4.696126e+001 2.879235e+001 2.669329e+000 2.463164e+000 2.496033e+000 2.573711e+000 3.419287e+000 3.265243e+000 3.102299e+000 3.687264e+000 3.478769e+000 2.825354e+000 2.873757e+000 2.211569e+000 3.608603e+000
<GCONST> 1.083748e+002
<STATE> 4
<MEAN> 25
 -8.985938e-009 3.814864e-008 -2.076542e-007 3.344766e-008 -1.077827e-008 -6.575821e-008 -2.336621e-008 3.773262e-008 2.003809e-008 1.921992e-008 1.478242e-008 1.798574e-008 3.600805e-002 -2.397730e-003 8.129811e-003 -2.221155e-003 1.039155e-002 -1.424094e-003 -6.316496e-004 -7.066861e-003 -1.585887e-002 -7.098205e-003 -5.471149e-003 -6.991659e-003 3.746431e-002
<VARIANCE> 25
 1.382332e+002 5.403470e+001 6.297409e+001 5.268550e+001 6.156908e+001 6.080389e+001 4.641895e+001 6.133797e+001 6.598586e+001 4.516822e+001 4.696126e+001 2.879235e+001 2.669329e+000 2.463164e+000 2.496033e+000 2.573711e+000 3.419287e+000 3.265243e+000 3.102299e+000 3.687264e+000 3.478769e+000 2.825354e+000 2.873757e+000 2.211569e+000 3.608603e+000
<GCONST> 1.083748e+002
<TRANSP> 5
 0.000000e+000 1.000000e+000 0.000000e+000 0.000000e+000 0.000000e+000
 0.000000e+000 6.000000e-001 4.000000e-001 0.000000e+000 0.000000e+000
 0.000000e+000 0.000000e+000 6.000000e-001 4.000000e-001 0.000000e+000
 0.000000e+000 0.000000e+000 0.000000e+000 7.000000e-001 3.000000e-001
 0.000000e+000 0.000000e+000 0.000000e+000 0.000000e+000 0.000000e+000
<ENDHMM>
~h "ow"
<BEGINHMM>
<NUMSTATES> 5
<STATE> 2
<MEAN> 25
 -8.985938e-009 3.814864e-008 -2.076542e-007 3.344766e-008 -1.077827e-008 -6.575821e-008 -2.336621e-008 3.773262e-008 2.003809e-008 1.921992e-008 1.478242e-008 1.798574e-008 3.600805e-002 -2.397730e-003 8.129811e-003 -2.221155e-003 1.039155e-002 -1.424094e-003 -6.316496e-004 -7.066861e-003 -1.585887e-002 -7.098205e-003 -5.471149e-003 -6.991659e-003 3.746431e-002
<VARIANCE> 25
 1.382332e+002 5.403470e+001 6.297409e+001 5.268550e+001 6.156908e+001 6.080389e+001 4.641895e+001 6.133797e+001 6.598586e+001 4.516822e+001 4.696126e+001 2.879235e+001 2.669329e+000 2.463164e+000 2.496033e+000 2.573711e+000 3.419287e+000 3.265243e+000 3.102299e+000 3.687264e+000 3.478769e+000 2.825354e+000 2.873757e+000 2.211569e+000 3.608603e+000
<GCONST> 1.083748e+002
<STATE> 3
<MEAN> 25
 -8.985938e-009 3.814864e-008 -2.076542e-007 3.344766e-008 -1.077827e-008 -6.575821e-008 -2.336621e-008 3.773262e-008 2.003809e-008 1.921992e-008 1.478242e-008 1.798574e-008 3.600805e-002 -2.397730e-003 8.129811e-003 -2.221155e-003 1.039155e-002 -1.424094e-003 -6.316496e-004 -7.066861e-003 -1.585887e-002 -7.098205e-003 -5.471149e-003 -6.991659e-003 3.746431e-002
<VARIANCE> 25
 1.382332e+002 5.403470e+001 6.297409e+001 5.268550e+001 6.156908e+001 6.080389e+001 4.641895e+001 6.133797e+001 6.598586e+001 4.516822e+001 4.696126e+001 2.879235e+001 2.669329e+000 2.463164e+000 2.496033e+000 2.573711e+000 3.419287e+000 3.265243e+000 3.102299e+000 3.687264e+000 3.478769e+000 2.825354e+000 2.873757e+000 2.211569e+000 3.608603e+000
<GCONST> 1.083748e+002
<STATE> 4
<MEAN> 25
 -8.985938e-009 3.814864e-008 -2.076542e-007 3.344766e-008 -1.077827e-008 -6.575821e-008 -2.336621e-008 3.773262e-008 2.003809e-008 1.921992e-008 1.478242e-008 1.798574e-008 3.600805e-002 -2.397730e-003 8.129811e-003 -2.221155e-003 1.039155e-002 -1.424094e-003 -6.316496e-004 -7.066861e-003 -1.585887e-002 -7.098205e-003 -5.471149e-003 -6.991659e-003 3.746431e-002
<VARIANCE> 25
 1.382332e+002 5.403470e+001 6.297409e+001 5.268550e+001 6.156908e+001 6.080389e+001 4.641895e+001 6.133797e+001 6.598586e+001 4.516822e+001 4.696126e+001 2.879235e+001 2.669329e+000 2.463164e+000 2.496033e+000 2.573711e+000 3.419287e+000 3.265243e+000 3.102299e+000 3.687264e+000 3.478769e+000 2.825354e+000 2.873757e+000 2.211569e+000 3.608603e+000
<GCONST> 1.083748e+002
<TRANSP> 5
 0.000000e+000 1.000000e+000 0.000000e+000 0.000000e+000 0.000000e+000
 0.000000e+000 6.000000e-001 4.000000e-001 0.000000e+000 0.000000e+000
 0.000000e+000 0.000000e+000 6.000000e-001 4.000000e-001 0.000000e+000
 0.000000e+000 0.000000e+000 0.000000e+000 7.000000e-001 3.000000e-001
 0.000000e+000 0.000000e+000 0.000000e+000 0.000000e+000 0.000000e+000
<ENDHMM>
~h "n"
<BEGINHMM>
<NUMSTATES> 5
<STATE> 2
<MEAN> 25
 -8.985938e-009 3.814864e-008 -2.076542e-007 3.344766e-008 -1.077827e-008 -6.575821e-008 -2.336621e-008 3.773262e-008 2.003809e-008 1.921992e-008 1.478242e-008 1.798574e-008 3.600805e-002 -2.397730e-003 8.129811e-003 -2.221155e-003 1.039155e-002 -1.424094e-003 -6.316496e-004 -7.066861e-003 -1.585887e-002 -7.098205e-003 -5.471149e-003 -6.991659e-003 3.746431e-002
<VARIANCE> 25
 1.382332e+002 5.403470e+001 6.297409e+001 5.268550e+001 6.156908e+001 6.080389e+001 4.641895e+001 6.133797e+001 6.598586e+001 4.516822e+001 4.696126e+001 2.879235e+001 2.669329e+000 2.463164e+000 2.496033e+000 2.573711e+000 3.419287e+000 3.265243e+000 3.102299e+000 3.687264e+000 3.478769e+000 2.825354e+000 2.873757e+000 2.211569e+000 3.608603e+000
<GCONST> 1.083748e+002
<STATE> 3
<MEAN> 25
 -8.985938e-009 3.814864e-008 -2.076542e-007 3.344766e-008 -1.077827e-008 -6.575821e-008 -2.336621e-008 3.773262e-008 2.003809e-008 1.921992e-008 1.478242e-008 1.798574e-008 3.600805e-002 -2.397730e-003 8.129811e-003 -2.221155e-003 1.039155e-002 -1.424094e-003 -6.316496e-004 -7.066861e-003 -1.585887e-002 -7.098205e-003 -5.471149e-003 -6.991659e-003 3.746431e-002
<VARIANCE> 25
 1.382332e+002 5.403470e+001 6.297409e+001 5.268550e+001 6.156908e+001 6.080389e+001 4.641895e+001 6.133797e+001 6.598586e+001 4.516822e+001 4.696126e+001 2.879235e+001 2.669329e+000 2.463164e+000 2.496033e+000 2.573711e+000 3.419287e+000 3.265243e+000 3.102299e+000 3.687264e+000 3.478769e+000 2.825354e+000 2.873757e+000 2.211569e+000 3.608603e+000
<GCONST> 1.083748e+002
<STATE> 4
<MEAN> 25
 -8.985938e-009 3.814864e-008 -2.076542e-007 3.344766e-008 -1.077827e-008 -6.575821e-008 -2.336621e-008 3.773262e-008 2.003809e-008 1.921992e-008 1.478242e-008 1.798574e-008 3.600805e-002 -2.397730e-003 8.129811e-003 -2.221155e-003 1.039155e-002 -1.424094e-003 -6.316496e-004 -7.066861e-003 -1.585887e-002 -7.098205e-003 -5.471149e-003 -6.991659e-003 3.746431e-002
<VARIANCE> 25
 1.382332e+002 5.403470e+001 6.297409e+001 5.268550e+001 6.156908e+001 6.080389e+001 4.641895e+001 6.133797e+001 6.598586e+001 4.516822e+001 4.696126e+001 2.879235e+001 2.669329e+000 2.463164e+000 2.496033e+000 2.573711e+000 3.419287e+000 3.265243e+000 3.102299e+000 3.687264e+000 3.478769e+000 2.825354e+000 2.873757e+000 2.211569e+000 3.608603e+000
<GCONST> 1.083748e+002
<TRANSP> 5
 0.000000e+000 1.000000e+000 0.000000e+000 0.000000e+000 0.000000e+000
 0.000000e+000 6.000000e-001 4.000000e-001 0.000000e+000 0.000000e+000
 0.000000e+000 0.000000e+000 6.000000e-001 4.000000e-001 0.000000e+000
 0.000000e+000 0.000000e+000 0.000000e+000 7.000000e-001 3.000000e-001
 0.000000e+000 0.000000e+000 0.000000e+000 0.000000e+000 0.000000e+000
<ENDHMM>
~h "d"
<BEGINHMM>
<NUMSTATES> 5
<STATE> 2
<MEAN> 25
 -8.985938e-009 3.814864e-008 -2.076542e-007 3.344766e-008 -1.077827e-008 -6.575821e-008 -2.336621e-008 3.773262e-008 2.003809e-008 1.921992e-008 1.478242e-008 1.798574e-008 3.600805e-002 -2.397730e-003 8.129811e-003 -2.221155e-003 1.039155e-002 -1.424094e-003 -6.316496e-004 -7.066861e-003 -1.585887e-002 -7.098205e-003 -5.471149e-003 -6.991659e-003 3.746431e-002
<VARIANCE> 25
 1.382332e+002 5.403470e+001 6.297409e+001 5.268550e+001 6.156908e+001 6.080389e+001 4.641895e+001 6.133797e+001 6.598586e+001 4.516822e+001 4.696126e+001 2.879235e+001 2.669329e+000 2.463164e+000 2.496033e+000 2.573711e+000 3.419287e+000 3.265243e+000 3.102299e+000 3.687264e+000 3.478769e+000 2.825354e+000 2.873757e+000 2.211569e+000 3.608603e+000
<GCONST> 1.083748e+002
<STATE> 3
<MEAN> 25
 -8.985938e-009 3.814864e-008 -2.076542e-007 3.344766e-008 -1.077827e-008 -6.575821e-008 -2.336621e-008 3.773262e-008 2.003809e-008 1.921992e-008 1.478242e-008 1.798574e-008 3.600805e-002 -2.397730e-003 8.129811e-003 -2.221155e-003 1.039155e-002 -1.424094e-003 -6.316496e-004 -7.066861e-003 -1.585887e-002 -7.098205e-003 -5.471149e-003 -6.991659e-003 3.746431e-002
<VARIANCE> 25
 1.382332e+002 5.403470e+001 6.297409e+001 5.268550e+001 6.156908e+001 6.080389e+001 4.641895e+001 6.133797e+001 6.598586e+001 4.516822e+001 4.696126e+001 2.879235e+001 2.669329e+000 2.463164e+000 2.496033e+000 2.573711e+000 3.419287e+000 3.265243e+000 3.102299e+000 3.687264e+000 3.478769e+000 2.825354e+000 2.873757e+000 2.211569e+000 3.608603e+000
<GCONST> 1.083748e+002
<STATE> 4
<MEAN> 25
 -8.985938e-009 3.814864e-008 -2.076542e-007 3.344766e-008 -1.077827e-008 -6.575821e-008 -2.336621e-008 3.773262e-008 2.003809e-008 1.921992e-008 1.478242e-008 1.798574e-008 3.600805e-002 -2.397730e-003 8.129811e-003 -2.221155e-003 1.039155e-002 -1.424094e-003 -6.316496e-004 -7.066861e-003 -1.585887e-002 -7.098205e-003 -5.471149e-003 -6.991659e-003 3.746431e-002
<VARIANCE> 25
 1.382332e+002 5.403470e+001 6.297409e+001 5.268550e+001 6.156908e+001 6.080389e+001 4.641895e+001 6.133797e+001 6.598586e+001 4.516822e+001 4.696126e+001 2.879235e+001 2.669329e+000 2.463164e+000 2.496033e+000 2.573711e+000 3.419287e+000 3.265243e+000 3.102299e+000 3.687264e+000 3.478769e+000 2.825354e+000 2.873757e+000 2.211569e+000 3.608603e+000
<GCONST> 1.083748e+002
<TRANSP> 5
 0.000000e+000 1.000000e+000 0.000000e+000 0.000000e+000 0.000000e+000
 0.000000e+000 6.000000e-001 4.000000e-001 0.000000e+000 0.000000e+000
 0.000000e+000 0.000000e+000 6.000000e-001 4.000000e-001 0.000000e+000
 0.000000e+000 0.000000e+000 0.000000e+000 7.000000e-001 3.000000e-001
 0.000000e+000 0.000000e+000 0.000000e+000 0.000000e+000 0.000000e+000
<ENDHMM>
~h "aa"
<BEGINHMM>
<NUMSTATES> 5
<STATE> 2
<MEAN> 25
 -8.985938e-009 3.814864e-008 -2.076542e-007 3.344766e-008 -1.077827e-008 -6.575821e-008 -2.336621e-008 3.773262e-008 2.003809e-008 1.921992e-008 1.478242e-008 1.798574e-008 3.600805e-002 -2.397730e-003 8.129811e-003 -2.221155e-003 1.039155e-002 -1.424094e-003 -6.316496e-004 -7.066861e-003 -1.585887e-002 -7.098205e-003 -5.471149e-003 -6.991659e-003 3.746431e-002
<VARIANCE> 25
 1.382332e+002 5.403470e+001 6.297409e+001 5.268550e+001 6.156908e+001 6.080389e+001 4.641895e+001 6.133797e+001 6.598586e+001 4.516822e+001 4.696126e+001 2.879235e+001 2.669329e+000 2.463164e+000 2.496033e+000 2.573711e+000 3.419287e+000 3.265243e+000 3.102299e+000 3.687264e+000 3.478769e+000 2.825354e+000 2.873757e+000 2.211569e+000 3.608603e+000
<GCONST> 1.083748e+002
<STATE> 3
<MEAN> 25
 -8.985938e-009 3.814864e-008 -2.076542e-007 3.344766e-008 -1.077827e-008 -6.575821e-008 -2.336621e-008 3.773262e-008 2.003809e-008 1.921992e-008 1.478242e-008 1.798574e-008 3.600805e-002 -2.397730e-003 8.129811e-003 -2.221155e-003 1.039155e-002 -1.424094e-003 -6.316496e-004 -7.066861e-003 -1.585887e-002 -7.098205e-003 -5.471149e-003 -6.991659e-003 3.746431e-002
<VARIANCE> 25
 1.382332e+002 5.403470e+001 6.297409e+001 5.268550e+001 6.156908e+001 6.080389e+001 4.641895e+001 6.133797e+001 6.598586e+001 4.516822e+001 4.696126e+001 2.879235e+001 2.669329e+000 2.463164e+000 2.496033e+000 2.573711e+000 3.419287e+000 3.265243e+000 3.102299e+000 3.687264e+000 3.478769e+000 2.825354e+000 2.873757e+000 2.211569e+000 3.608603e+000
<GCONST> 1.083748e+002
<STATE> 4
<MEAN> 25
 -8.985938e-009 3.814864e-008 -2.076542e-007 3.344766e-008 -1.077827e-008 -6.575821e-008 -2.336621e-008 3.773262e-008 2.003809e-008 1.921992e-008 1.478242e-008 1.798574e-008 3.600805e-002 -2.397730e-003 8.129811e-003 -2.221155e-003 1.039155e-002 -1.424094e-003 -6.316496e-004 -7.066861e-003 -1.585887e-002 -7.098205e-003 -5.471149e-003 -6.991659e-003 3.746431e-002
<VARIANCE> 25
 1.382332e+002 5.403470e+001 6.297409e+001 5.268550e+001 6.156908e+001 6.080389e+001 4.641895e+001 6.133797e+001 6.598586e+001 4.516822e+001 4.696126e+001 2.879235e+001 2.669329e+000 2.463164e+000 2.496033e+000 2.573711e+000 3.419287e+000 3.265243e+000 3.102299e+000 3.687264e+000 3.478769e+000 2.825354e+000 2.873757e+000 2.211569e+000 3.608603e+000
<GCONST> 1.083748e+002
<TRANSP> 5
 0.000000e+000 1.000000e+000 0.000000e+000 0.000000e+000 0.000000e+000
 0.000000e+000 6.000000e-001 4.000000e-001 0.000000e+000 0.000000e+000
 0.000000e+000 0.000000e+000 6.000000e-001 4.000000e-001 0.000000e+000
 0.000000e+000 0.000000e+000 0.000000e+000 7.000000e-001 3.000000e-001
 0.000000e+000 0.000000e+000 0.000000e+000 0.000000e+000 0.000000e+000
<ENDHMM>
~h "m"
<BEGINHMM>
<NUMSTATES> 5
<STATE> 2
<MEAN> 25
 -8.985938e-009 3.814864e-008 -2.076542e-007 3.344766e-008 -1.077827e-008 -6.575821e-008 -2.336621e-008 3.773262e-008 2.003809e-008 1.921992e-008 1.478242e-008 1.798574e-008 3.600805e-002 -2.397730e-003 8.129811e-003 -2.221155e-003 1.039155e-002 -1.424094e-003 -6.316496e-004 -7.066861e-003 -1.585887e-002 -7.098205e-003 -5.471149e-003 -6.991659e-003 3.746431e-002
<VARIANCE> 25
 1.382332e+002 5.403470e+001 6.297409e+001 5.268550e+001 6.156908e+001 6.080389e+001 4.641895e+001 6.133797e+001 6.598586e+001 4.516822e+001 4.696126e+001 2.879235e+001 2.669329e+000 2.463164e+000 2.496033e+000 2.573711e+000 3.419287e+000 3.265243e+000 3.102299e+000 3.687264e+000 3.478769e+000 2.825354e+000 2.873757e+000 2.211569e+000 3.608603e+000
<GCONST> 1.083748e+002
<STATE> 3
<MEAN> 25
 -8.985938e-009 3.814864e-008 -2.076542e-007 3.344766e-008 -1.077827e-008 -6.575821e-008 -2.336621e-008 3.773262e-008 2.003809e-008 1.921992e-008 1.478242e-008 1.798574e-008 3.600805e-002 -2.397730e-003 8.129811e-003 -2.221155e-003 1.039155e-002 -1.424094e-003 -6.316496e-004 -7.066861e-003 -1.585887e-002 -7.098205e-003 -5.471149e-003 -6.991659e-003 3.746431e-002
<VARIANCE> 25
 1.382332e+002 5.403470e+001 6.297409e+001 5.268550e+001 6.156908e+001 6.080389e+001 4.641895e+001 6.133797e+001 6.598586e+001 4.516822e+001 4.696126e+001 2.879235e+001 2.669329e+000 2.463164e+000 2.496033e+000 2.573711e+000 3.419287e+000 3.265243e+000 3.102299e+000 3.687264e+000 3.478769e+000 2.825354e+000 2.873757e+000 2.211569e+000 3.608603e+000
<GCONST> 1.083748e+002
<STATE> 4
<MEAN> 25
 -8.985938e-009 3.814864e-008 -2.076542e-007 3.344766e-008 -1.077827e-008 -6.575821e-008 -2.336621e-008 3.773262e-008 2.003809e-008 1.921992e-008 1.478242e-008 1.798574e-008 3.600805e-002 -2.397730e-003 8.129811e-003 -2.221155e-003 1.039155e-002 -1.424094e-003 -6.316496e-004 -7.066861e-003 -1.585887e-002 -7.098205e-003 -5.471149e-003 -6.991659e-003 3.746431e-002
<VARIANCE> 25
 1.382332e+002 5.403470e+001 6.297409e+001 5.268550e+001 6.156908e+001 6.080389e+001 4.641895e+001 6.133797e+001 6.598586e+001 4.516822e+001 4.696126e+001 2.879235e+001 2.669329e+000 2.463164e+000 2.496033e+000 2.573711e+000 3.419287e+000 3.265243e+000 3.102299e+000 3.687264e+000 3.478769e+000 2.825354e+000 2.873757e+000 2.211569e+000 3.608603e+000
<GCONST> 1.083748e+002
<TRANSP> 5
 0.000000e+000 1.000000e+000 0.000000e+000 0.000000e+000 0.000000e+000
 0.000000e+000 6.000000e-001 4.000000e-001 0.000000e+000 0.000000e+000
 0.000000e+000 0.000000e+000 6.000000e-001 4.000000e-001 0.000000e+000
 0.000000e+000 0.000000e+000 0.000000e+000 7.000000e-001 3.000000e-001
 0.000000e+000 0.000000e+000 0.000000e+000 0.000000e+000 0.000000e+000
<ENDHMM>
~h "z"
<BEGINHMM>
<NUMSTATES> 5
<STATE> 2
<MEAN> 25
 -8.985938e-009 3.814864e-008 -2.076542e-007 3.344766e-008 -1.077827e-008 -6.575821e-008 -2.336621e-008 3.773262e-008 2.003809e-008 1.921992e-008 1.478242e-008 1.798574e-008 3.600805e-002 -2.397730e-003 8.129811e-003 -2.221155e-003 1.039155e-002 -1.424094e-003 -6.316496e-004 -7.066861e-003 -1.585887e-002 -7.098205e-003 -5.471149e-003 -6.991659e-003 3.746431e-002
<VARIANCE> 25
 1.382332e+002 5.403470e+001 6.297409e+001 5.268550e+001 6.156908e+001 6.080389e+001 4.641895e+001 6.133797e+001 6.598586e+001 4.516822e+001 4.696126e+001 2.879235e+001 2.669329e+000 2.463164e+000 2.496033e+000 2.573711e+000 3.419287e+000 3.265243e+000 3.102299e+000 3.687264e+000 3.478769e+000 2.825354e+000 2.873757e+000 2.211569e+000 3.608603e+000
<GCONST> 1.083748e+002
<STATE> 3
<MEAN> 25
 -8.985938e-009 3.814864e-008 -2.076542e-007 3.344766e-008 -1.077827e-008 -6.575821e-008 -2.336621e-008 3.773262e-008 2.003809e-008 1.921992e-008 1.478242e-008 1.798574e-008 3.600805e-002 -2.397730e-003 8.129811e-003 -2.221155e-003 1.039155e-002 -1.424094e-003 -6.316496e-004 -7.066861e-003 -1.585887e-002 -7.098205e-003 -5.471149e-003 -6.991659e-003 3.746431e-002
<VARIANCE> 25
 1.382332e+002 5.403470e+001 6.297409e+001 5.268550e+001 6.156908e+001 6.080389e+001 4.641895e+001 6.133797e+001 6.598586e+001 4.516822e+001 4.696126e+001 2.879235e+001 2.669329e+000 2.463164e+000 2.496033e+000 2.573711e+000 3.419287e+000 3.265243e+000 3.102299e+000 3.687264e+000 3.478769e+000 2.825354e+000 2.873757e+000 2.211569e+000 3.608603e+000
<GCONST> 1.083748e+002
<STATE> 4
<MEAN> 25
 -8.985938e-009 3.814864e-008 -2.076542e-007 3.344766e-008 -1.077827e-008 -6.575821e-008 -2.336621e-008 3.773262e-008 2.003809e-008 1.921992e-008 1.478242e-008 1.798574e-008 3.600805e-002 -2.397730e-003 8.129811e-003 -2.221155e-003 1.039155e-002 -1.424094e-003 -6.316496e-004 -7.066861e-003 -1.585887e-002 -7.098205e-003 -5.471149e-003 -6.991659e-003 3.746431e-002
<VARIANCE> 25
 1.382332e+002 5.403470e+001 6.297409e+001 5.268550e+001 6.156908e+001 6.080389e+001 4.641895e+001 6.133797e+001 6.598586e+001 4.516822e+001 4.696126e+001 2.879235e+001 2.669329e+000 2.463164e+000 2.496033e+000 2.573711e+000 3.419287e+000 3.265243e+000 3.102299e+000 3.687264e+000 3.478769e+000 2.825354e+000 2.873757e+000 2.211569e+000 3.608603e+000
<GCONST> 1.083748e+002
<TRANSP> 5
 0.000000e+000 1.000000e+000 0.000000e+000 0.000000e+000 0.000000e+000
 0.000000e+000 6.000000e-001 4.000000e-001 0.000000e+000 0.000000e+000
 0.000000e+000 0.000000e+000 6.000000e-001 4.000000e-001 0.000000e+000
 0.000000e+000 0.000000e+000 0.000000e+000 7.000000e-001 3.000000e-001
 0.000000e+000 0.000000e+000 0.000000e+000 0.000000e+000 0.000000e+000
<ENDHMM>
~h "ih"
<BEGINHMM>
<NUMSTATES> 5
<STATE> 2
<MEAN> 25
 -8.985938e-009 3.814864e-008 -2.076542e-007 3.344766e-008 -1.077827e-008 -6.575821e-008 -2.336621e-008 3.773262e-008 2.003809e-008 1.921992e-008 1.478242e-008 1.798574e-008 3.600805e-002 -2.397730e-003 8.129811e-003 -2.221155e-003 1.039155e-002 -1.424094e-003 -6.316496e-004 -7.066861e-003 -1.585887e-002 -7.098205e-003 -5.471149e-003 -6.991659e-003 3.746431e-002
<VARIANCE> 25
 1.382332e+002 5.403470e+001 6.297409e+001 5.268550e+001 6.156908e+001 6.080389e+001 4.641895e+001 6.133797e+001 6.598586e+001 4.516822e+001 4.696126e+001 2.879235e+001 2.669329e+000 2.463164e+000 2.496033e+000 2.573711e+000 3.419287e+000 3.265243e+000 3.102299e+000 3.687264e+000 3.478769e+000 2.825354e+000 2.873757e+000 2.211569e+000 3.608603e+000
<GCONST> 1.083748e+002
<STATE> 3
<MEAN> 25
 -8.985938e-009 3.814864e-008 -2.076542e-007 3.344766e-008 -1.077827e-008 -6.575821e-008 -2.336621e-008 3.773262e-008 2.003809e-008 1.921992e-008 1.478242e-008 1.798574e-008 3.600805e-002 -2.397730e-003 8.129811e-003 -2.221155e-003 1.039155e-002 -1.424094e-003 -6.316496e-004 -7.066861e-003 -1.585887e-002 -7.098205e-003 -5.471149e-003 -6.991659e-003 3.746431e-002
<VARIANCE> 25
 1.382332e+002 5.403470e+001 6.297409e+001 5.268550e+001 6.156908e+001 6.080389e+001 4.641895e+001 6.133797e+001 6.598586e+001 4.516822e+001 4.696126e+001 2.879235e+001 2.669329e+000 2.463164e+000 2.496033e+000 2.573711e+000 3.419287e+000 3.265243e+000 3.102299e+000 3.687264e+000 3.478769e+000 2.825354e+000 2.873757e+000 2.211569e+000 3.608603e+000
<GCONST> 1.083748e+002
<STATE> 4
<MEAN> 25
 -8.985938e-009 3.814864e-008 -2.076542e-007 3.344766e-008 -1.077827e-008 -6.575821e-008 -2.336621e-008 3.773262e-008 2.003809e-008 1.921992e-008 1.478242e-008 1.798574e-008 3.600805e-002 -2.397730e-003 8.129811e-003 -2.221155e-003 1.039155e-002 -1.424094e-003 -6.316496e-004 -7.066861e-003 -1.585887e-002 -7.098205e-003 -5.471149e-003 -6.991659e-003 3.746431e-002
<VARIANCE> 25
 1.382332e+002 5.403470e+001 6.297409e+001 5.268550e+001 6.156908e+001 6.080389e+001 4.641895e+001 6.133797e+001 6.598586e+001 4.516822e+001 4.696126e+001 2.879235e+001 2.669329e+000 2.463164e+000 2.496033e+000 2.573711e+000 3.419287e+000 3.265243e+000 3.102299e+000 3.687264e+000 3.478769e+000 2.825354e+000 2.873757e+000 2.211569e+000 3.608603e+000
<GCONST> 1.083748e+002
<TRANSP> 5
 0.000000e+000 1.000000e+000 0.000000e+000 0.000000e+000 0.000000e+000
 0.000000e+000 6.000000e-001 4.000000e-001 0.000000e+000 0.000000e+000
 0.000000e+000 0.000000e+000 6.000000e-001 4.000000e-001 0.000000e+000
 0.000000e+000 0.000000e+000 0.000000e+000 7.000000e-001 3.000000e-001
 0.000000e+000 0.000000e+000 0.000000e+000 0.000000e+000 0.000000e+000
<ENDHMM>
~h "sh"
<BEGINHMM>
<NUMSTATES> 5
<STATE> 2
<MEAN> 25
 -8.985938e-009 3.814864e-008 -2.076542e-007 3.344766e-008 -1.077827e-008 -6.575821e-008 -2.336621e-008 3.773262e-008 2.003809e-008 1.921992e-008 1.478242e-008 1.798574e-008 3.600805e-002 -2.397730e-003 8.129811e-003 -2.221155e-003 1.039155e-002 -1.424094e-003 -6.316496e-004 -7.066861e-003 -1.585887e-002 -7.098205e-003 -5.471149e-003 -6.991659e-003 3.746431e-002
<VARIANCE> 25
 1.382332e+002 5.403470e+001 6.297409e+001 5.268550e+001 6.156908e+001 6.080389e+001 4.641895e+001 6.133797e+001 6.598586e+001 4.516822e+001 4.696126e+001 2.879235e+001 2.669329e+000 2.463164e+000 2.496033e+000 2.573711e+000 3.419287e+000 3.265243e+000 3.102299e+000 3.687264e+000 3.478769e+000 2.825354e+000 2.873757e+000 2.211569e+000 3.608603e+000
<GCONST> 1.083748e+002
<STATE> 3
<MEAN> 25
 -8.985938e-009 3.814864e-008 -2.076542e-007 3.344766e-008 -1.077827e-008 -6.575821e-008 -2.336621e-008 3.773262e-008 2.003809e-008 1.921992e-008 1.478242e-008 1.798574e-008 3.600805e-002 -2.397730e-003 8.129811e-003 -2.221155e-003 1.039155e-002 -1.424094e-003 -6.316496e-004 -7.066861e-003 -1.585887e-002 -7.098205e-003 -5.471149e-003 -6.991659e-003 3.746431e-002
<VARIANCE> 25
 1.382332e+002 5.403470e+001 6.297409e+001 5.268550e+001 6.156908e+001 6.080389e+001 4.641895e+001 6.133797e+001 6.598586e+001 4.516822e+001 4.696126e+001 2.879235e+001 2.669329e+000 2.463164e+000 2.496033e+000 2.573711e+000 3.419287e+000 3.265243e+000 3.102299e+000 3.687264e+000 3.478769e+000 2.825354e+000 2.873757e+000 2.211569e+000 3.608603e+000
<GCONST> 1.083748e+002
<STATE> 4
<MEAN> 25
 -8.985938e-009 3.814864e-008 -2.076542e-007 3.344766e-008 -1.077827e-008 -6.575821e-008 -2.336621e-008 3.773262e-008 2.003809e-008 1.921992e-008 1.478242e-008 1.798574e-008 3.600805e-002 -2.397730e-003 8.129811e-003 -2.221155e-003 1.039155e-002 -1.424094e-003 -6.316496e-004 -7.066861e-003 -1.585887e-002 -7.098205e-003 -5.471149e-003 -6.991659e-003 3.746431e-002
<VARIANCE> 25
 1.382332e+002 5.403470e+001 6.297409e+001 5.268550e+001 6.156908e+001 6.080389e+001 4.641895e+001 6.133797e+001 6.598586e+001 4.516822e+001 4.696126e+001 2.879235e+001 2.669329e+000 2.463164e+000 2.496033e+000 2.573711e+000 3.419287e+000 3.265243e+000 3.102299e+000 3.687264e+000 3.478769e+000 2.825354e+000 2.873757e+000 2.211569e+000 3.608603e+000
<GCONST> 1.083748e+002
<TRANSP> 5
 0.000000e+000 1.000000e+000 0.000000e+000 0.000000e+000 0.000000e+000
 0.000000e+000 6.000000e-001 4.000000e-001 0.000000e+000 0.000000e+000
 0.000000e+000 0.000000e+000 6.000000e-001 4.000000e-001 0.000000e+000
 0.000000e+000 0.000000e+000 0.000000e+000 7.000000e-001 3.000000e-001
 0.000000e+000 0.000000e+000 0.000000e+000 0.000000e+000 0.000000e+000
<ENDHMM>
~h "aw"
<BEGINHMM>
<NUMSTATES> 5
<STATE> 2
<MEAN> 25
 -8.985938e-009 3.814864e-008 -2.076542e-007 3.344766e-008 -1.077827e-008 -6.575821e-008 -2.336621e-008 3.773262e-008 2.003809e-008 1.921992e-008 1.478242e-008 1.798574e-008 3.600805e-002 -2.397730e-003 8.129811e-003 -2.221155e-003 1.039155e-002 -1.424094e-003 -6.316496e-004 -7.066861e-003 -1.585887e-002 -7.098205e-003 -5.471149e-003 -6.991659e-003 3.746431e-002
<VARIANCE> 25
 1.382332e+002 5.403470e+001 6.297409e+001 5.268550e+001 6.156908e+001 6.080389e+001 4.641895e+001 6.133797e+001 6.598586e+001 4.516822e+001 4.696126e+001 2.879235e+001 2.669329e+000 2.463164e+000 2.496033e+000 2.573711e+000 3.419287e+000 3.265243e+000 3.102299e+000 3.687264e+000 3.478769e+000 2.825354e+000 2.873757e+000 2.211569e+000 3.608603e+000
<GCONST> 1.083748e+002
<STATE> 3
<MEAN> 25
 -8.985938e-009 3.814864e-008 -2.076542e-007 3.344766e-008 -1.077827e-008 -6.575821e-008 -2.336621e-008 3.773262e-008 2.003809e-008 1.921992e-008 1.478242e-008 1.798574e-008 3.600805e-002 -2.397730e-003 8.129811e-003 -2.221155e-003 1.039155e-002 -1.424094e-003 -6.316496e-004 -7.066861e-003 -1.585887e-002 -7.098205e-003 -5.471149e-003 -6.991659e-003 3.746431e-002
<VARIANCE> 25
 1.382332e+002 5.403470e+001 6.297409e+001 5.268550e+001 6.156908e+001 6.080389e+001 4.641895e+001 6.133797e+001 6.598586e+001 4.516822e+001 4.696126e+001 2.879235e+001 2.669329e+000 2.463164e+000 2.496033e+000 2.573711e+000 3.419287e+000 3.265243e+000 3.102299e+000 3.687264e+000 3.478769e+000 2.825354e+000 2.873757e+000 2.211569e+000 3.608603e+000
<GCONST> 1.083748e+002
<STATE> 4
<MEAN> 25
 -8.985938e-009 3.814864e-008 -2.076542e-007 3.344766e-008 -1.077827e-008 -6.575821e-008 -2.336621e-008 3.773262e-008 2.003809e-008 1.921992e-008 1.478242e-008 1.798574e-008 3.600805e-002 -2.397730e-003 8.129811e-003 -2.221155e-003 1.039155e-002 -1.424094e-003 -6.316496e-004 -7.066861e-003 -1.585887e-002 -7.098205e-003 -5.471149e-003 -6.991659e-003 3.746431e-002
<VARIANCE> 25
 1.382332e+002 5.403470e+001 6.297409e+001 5.268550e+001 6.156908e+001 6.080389e+001 4.641895e+001 6.133797e+001 6.598586e+001 4.516822e+001 4.696126e+001 2.879235e+001 2.669329e+000 2.463164e+000 2.496033e+000 2.573711e+000 3.419287e+000 3.265243e+000 3.102299e+000 3.687264e+000 3.478769e+000 2.825354e+000 2.873757e+000 2.211569e+000 3.608603e+000
<GCONST> 1.083748e+002
<TRANSP> 5
 0.000000e+000 1.000000e+000 0.000000e+000 0.000000e+000 0.000000e+000
 0.000000e+000 6.000000e-001 4.000000e-001 0.000000e+000 0.000000e+000
 0.000000e+000 0.000000e+000 6.000000e-001 4.000000e-001 0.000000e+000
 0.000000e+000 0.000000e+000 0.000000e+000 7.000000e-001 3.000000e-001
 0.000000e+000 0.000000e+000 0.000000e+000 0.000000e+000 0.000000e+000
<ENDHMM>
~h "ng"
<BEGINHMM>
<NUMSTATES> 5
<STATE> 2
<MEAN> 25
 -8.985938e-009 3.814864e-008 -2.076542e-007 3.344766e-008 -1.077827e-008 -6.575821e-008 -2.336621e-008 3.773262e-008 2.003809e-008 1.921992e-008 1.478242e-008 1.798574e-008 3.600805e-002 -2.397730e-003 8.129811e-003 -2.221155e-003 1.039155e-002 -1.424094e-003 -6.316496e-004 -7.066861e-003 -1.585887e-002 -7.098205e-003 -5.471149e-003 -6.991659e-003 3.746431e-002
<VARIANCE> 25
 1.382332e+002 5.403470e+001 6.297409e+001 5.268550e+001 6.156908e+001 6.080389e+001 4.641895e+001 6.133797e+001 6.598586e+001 4.516822e+001 4.696126e+001 2.879235e+001 2.669329e+000 2.463164e+000 2.496033e+000 2.573711e+000 3.419287e+000 3.265243e+000 3.102299e+000 3.687264e+000 3.478769e+000 2.825354e+000 2.873757e+000 2.211569e+000 3.608603e+000
<GCONST> 1.083748e+002
<STATE> 3
<MEAN> 25
 -8.985938e-009 3.814864e-008 -2.076542e-007 3.344766e-008 -1.077827e-008 -6.575821e-008 -2.336621e-008 3.773262e-008 2.003809e-008 1.921992e-008 1.478242e-008 1.798574e-008 3.600805e-002 -2.397730e-003 8.129811e-003 -2.221155e-003 1.039155e-002 -1.424094e-003 -6.316496e-004 -7.066861e-003 -1.585887e-002 -7.098205e-003 -5.471149e-003 -6.991659e-003 3.746431e-002
<VARIANCE> 25
 1.382332e+002 5.403470e+001 6.297409e+001 5.268550e+001 6.156908e+001 6.080389e+001 4.641895e+001 6.133797e+001 6.598586e+001 4.516822e+001 4.696126e+001 2.879235e+001 2.669329e+000 2.463164e+000 2.496033e+000 2.573711e+000 3.419287e+000 3.265243e+000 3.102299e+000 3.687264e+000 3.478769e+000 2.825354e+000 2.873757e+000 2.211569e+000 3.608603e+000
<GCONST> 1.083748e+002
<STATE> 4
<MEAN> 25
 -8.985938e-009 3.814864e-008 -2.076542e-007 3.344766e-008 -1.077827e-008 -6.575821e-008 -2.336621e-008 3.773262e-008 2.003809e-008 1.921992e-008 1.478242e-008 1.798574e-008 3.600805e-002 -2.397730e-003 8.129811e-003 -2.221155e-003 1.039155e-002 -1.424094e-003 -6.316496e-004 -7.066861e-003 -1.585887e-002 -7.098205e-003 -5.471149e-003 -6.991659e-003 3.746431e-002
<VARIANCE> 25
 1.382332e+002 5.403470e+001 6.297409e+001 5.268550e+001 6.156908e+001 6.080389e+001 4.641895e+001 6.133797e+001 6.598586e+001 4.516822e+001 4.696126e+001 2.879235e+001 2.669329e+000 2.463164e+000 2.496033e+000 2.573711e+000 3.419287e+000 3.265243e+000 3.102299e+000 3.687264e+000 3.478769e+000 2.825354e+000 2.873757e+000 2.211569e+000 3.608603e+000
<GCONST> 1.083748e+002
<TRANSP> 5
 0.000000e+000 1.000000e+000 0.000000e+000 0.000000e+000 0.000000e+000
 0.000000e+000 6.000000e-001 4.000000e-001 0.000000e+000 0.000000e+000
 0.000000e+000 0.000000e+000 6.000000e-001 4.000000e-001 0.000000e+000
 0.000000e+000 0.000000e+000 0.000000e+000 7.000000e-001 3.000000e-001
 0.000000e+000 0.000000e+000 0.000000e+000 0.000000e+000 0.000000e+000
<ENDHMM>
~h "t"
<BEGINHMM>
<NUMSTATES> 5
<STATE> 2
<MEAN> 25
 -8.985938e-009 3.814864e-008 -2.076542e-007 3.344766e-008 -1.077827e-008 -6.575821e-008 -2.336621e-008 3.773262e-008 2.003809e-008 1.921992e-008 1.478242e-008 1.798574e-008 3.600805e-002 -2.397730e-003 8.129811e-003 -2.221155e-003 1.039155e-002 -1.424094e-003 -6.316496e-004 -7.066861e-003 -1.585887e-002 -7.098205e-003 -5.471149e-003 -6.991659e-003 3.746431e-002
<VARIANCE> 25
 1.382332e+002 5.403470e+001 6.297409e+001 5.268550e+001 6.156908e+001 6.080389e+001 4.641895e+001 6.133797e+001 6.598586e+001 4.516822e+001 4.696126e+001 2.879235e+001 2.669329e+000 2.463164e+000 2.496033e+000 2.573711e+000 3.419287e+000 3.265243e+000 3.102299e+000 3.687264e+000 3.478769e+000 2.825354e+000 2.873757e+000 2.211569e+000 3.608603e+000
<GCONST> 1.083748e+002
<STATE> 3
<MEAN> 25
 -8.985938e-009 3.814864e-008 -2.076542e-007 3.344766e-008 -1.077827e-008 -6.575821e-008 -2.336621e-008 3.773262e-008 2.003809e-008 1.921992e-008 1.478242e-008 1.798574e-008 3.600805e-002 -2.397730e-003 8.129811e-003 -2.221155e-003 1.039155e-002 -1.424094e-003 -6.316496e-004 -7.066861e-003 -1.585887e-002 -7.098205e-003 -5.471149e-003 -6.991659e-003 3.746431e-002
<VARIANCE> 25
 1.382332e+002 5.403470e+001 6.297409e+001 5.268550e+001 6.156908e+001 6.080389e+001 4.641895e+001 6.133797e+001 6.598586e+001 4.516822e+001 4.696126e+001 2.879235e+001 2.669329e+000 2.463164e+000 2.496033e+000 2.573711e+000 3.419287e+000 3.265243e+000 3.102299e+000 3.687264e+000 3.478769e+000 2.825354e+000 2.873757e+000 2.211569e+000 3.608603e+000
<GCONST> 1.083748e+002
<STATE> 4
<MEAN> 25
 -8.985938e-009 3.814864e-008 -2.076542e-007 3.344766e-008 -1.077827e-008 -6.575821e-008 -2.336621e-008 3.773262e-008 2.003809e-008 1.921992e-008 1.478242e-008 1.798574e-008 3.600805e-002 -2.397730e-003 8.129811e-003 -2.221155e-003 1.039155e-002 -1.424094e-003 -6.316496e-004 -7.066861e-003 -1.585887e-002 -7.098205e-003 -5.471149e-003 -6.991659e-003 3.746431e-002
<VARIANCE> 25
 1.382332e+002 5.403470e+001 6.297409e+001 5.268550e+001 6.156908e+001 6.080389e+001 4.641895e+001 6.133797e+001 6.598586e+001 4.516822e+001 4.696126e+001 2.879235e+001 2.669329e+000 2.463164e+000 2.496033e+000 2.573711e+000 3.419287e+000 3.265243e+000 3.102299e+000 3.687264e+000 3.478769e+000 2.825354e+000 2.873757e+000 2.211569e+000 3.608603e+000
<GCONST> 1.083748e+002
<TRANSP> 5
 0.000000e+000 1.000000e+000 0.000000e+000 0.000000e+000 0.000000e+000
 0.000000e+000 6.000000e-001 4.000000e-001 0.000000e+000 0.000000e+000
 0.000000e+000 0.000000e+000 6.000000e-001 4.000000e-001 0.000000e+000
 0.000000e+000 0.000000e+000 0.000000e+000 7.000000e-001 3.000000e-001
 0.000000e+000 0.000000e+000 0.000000e+000 0.000000e+000 0.000000e+000
<ENDHMM>
~h "k"
<BEGINHMM>
<NUMSTATES> 5
<STATE> 2
<MEAN> 25
 -8.985938e-009 3.814864e-008 -2.076542e-007 3.344766e-008 -1.077827e-008 -6.575821e-008 -2.336621e-008 3.773262e-008 2.003809e-008 1.921992e-008 1.478242e-008 1.798574e-008 3.600805e-002 -2.397730e-003 8.129811e-003 -2.221155e-003 1.039155e-002 -1.424094e-003 -6.316496e-004 -7.066861e-003 -1.585887e-002 -7.098205e-003 -5.471149e-003 -6.991659e-003 3.746431e-002
<VARIANCE> 25
 1.382332e+002 5.403470e+001 6.297409e+001 5.268550e+001 6.156908e+001 6.080389e+001 4.641895e+001 6.133797e+001 6.598586e+001 4.516822e+001 4.696126e+001 2.879235e+001 2.669329e+000 2.463164e+000 2.496033e+000 2.573711e+000 3.419287e+000 3.265243e+000 3.102299e+000 3.687264e+000 3.478769e+000 2.825354e+000 2.873757e+000 2.211569e+000 3.608603e+000
<GCONST> 1.083748e+002
<STATE> 3
<MEAN> 25
 -8.985938e-009 3.814864e-008 -2.076542e-007 3.344766e-008 -1.077827e-008 -6.575821e-008 -2.336621e-008 3.773262e-008 2.003809e-008 1.921992e-008 1.478242e-008 1.798574e-008 3.600805e-002 -2.397730e-003 8.129811e-003 -2.221155e-003 1.039155e-002 -1.424094e-003 -6.316496e-004 -7.066861e-003 -1.585887e-002 -7.098205e-003 -5.471149e-003 -6.991659e-003 3.746431e-002
<VARIANCE> 25
 1.382332e+002 5.403470e+001 6.297409e+001 5.268550e+001 6.156908e+001 6.080389e+001 4.641895e+001 6.133797e+001 6.598586e+001 4.516822e+001 4.696126e+001 2.879235e+001 2.669329e+000 2.463164e+000 2.496033e+000 2.573711e+000 3.419287e+000 3.265243e+000 3.102299e+000 3.687264e+000 3.478769e+000 2.825354e+000 2.873757e+000 2.211569e+000 3.608603e+000
<GCONST> 1.083748e+002
<STATE> 4
<MEAN> 25
 -8.985938e-009 3.814864e-008 -2.076542e-007 3.344766e-008 -1.077827e-008 -6.575821e-008 -2.336621e-008 3.773262e-008 2.003809e-008 1.921992e-008 1.478242e-008 1.798574e-008 3.600805e-002 -2.397730e-003 8.129811e-003 -2.221155e-003 1.039155e-002 -1.424094e-003 -6.316496e-004 -7.066861e-003 -1.585887e-002 -7.098205e-003 -5.471149e-003 -6.991659e-003 3.746431e-002
<VARIANCE> 25
 1.382332e+002 5.403470e+001 6.297409e+001 5.268550e+001 6.156908e+001 6.080389e+001 4.641895e+001 6.133797e+001 6.598586e+001 4.516822e+001 4.696126e+001 2.879235e+001 2.669329e+000 2.463164e+000 2.496033e+000 2.573711e+000 3.419287e+000 3.265243e+000 3.102299e+000 3.687264e+000 3.478769e+000 2.825354e+000 2.873757e+000 2.211569e+000 3.608603e+000
<GCONST> 1.083748e+002
<TRANSP> 5
 0.000000e+000 1.000000e+000 0.000000e+000 0.000000e+000 0.000000e+000
 0.000000e+000 6.000000e-001 4.000000e-001 0.000000e+000 0.000000e+000
 0.000000e+000 0.000000e+000 6.000000e-001 4.000000e-001 0.000000e+000
 0.000000e+000 0.000000e+000 0.000000e+000 7.000000e-001 3.000000e-001
 0.000000e+000 0.000000e+000 0.000000e+000 0.000000e+000 0.000000e+000
<ENDHMM>
~h "ch"
<BEGINHMM>
<NUMSTATES> 5
<STATE> 2
<MEAN> 25
 -8.985938e-009 3.814864e-008 -2.076542e-007 3.344766e-008 -1.077827e-008 -6.575821e-008 -2.336621e-008 3.773262e-008 2.003809e-008 1.921992e-008 1.478242e-008 1.798574e-008 3.600805e-002 -2.397730e-003 8.129811e-003 -2.221155e-003 1.039155e-002 -1.424094e-003 -6.316496e-004 -7.066861e-003 -1.585887e-002 -7.098205e-003 -5.471149e-003 -6.991659e-003 3.746431e-002
<VARIANCE> 25
 1.382332e+002 5.403470e+001 6.297409e+001 5.268550e+001 6.156908e+001 6.080389e+001 4.641895e+001 6.133797e+001 6.598586e+001 4.516822e+001 4.696126e+001 2.879235e+001 2.669329e+000 2.463164e+000 2.496033e+000 2.573711e+000 3.419287e+000 3.265243e+000 3.102299e+000 3.687264e+000 3.478769e+000 2.825354e+000 2.873757e+000 2.211569e+000 3.608603e+000
<GCONST> 1.083748e+002
<STATE> 3
<MEAN> 25
 -8.985938e-009 3.814864e-008 -2.076542e-007 3.344766e-008 -1.077827e-008 -6.575821e-008 -2.336621e-008 3.773262e-008 2.003809e-008 1.921992e-008 1.478242e-008 1.798574e-008 3.600805e-002 -2.397730e-003 8.129811e-003 -2.221155e-003 1.039155e-002 -1.424094e-003 -6.316496e-004 -7.066861e-003 -1.585887e-002 -7.098205e-003 -5.471149e-003 -6.991659e-003 3.746431e-002
<VARIANCE> 25
 1.382332e+002 5.403470e+001 6.297409e+001 5.268550e+001 6.156908e+001 6.080389e+001 4.641895e+001 6.133797e+001 6.598586e+001 4.516822e+001 4.696126e+001 2.879235e+001 2.669329e+000 2.463164e+000 2.496033e+000 2.573711e+000 3.419287e+000 3.265243e+000 3.102299e+000 3.687264e+000 3.478769e+000 2.825354e+000 2.873757e+000 2.211569e+000 3.608603e+000
<GCONST> 1.083748e+002
<STATE> 4
<MEAN> 25
 -8.985938e-009 3.814864e-008 -2.076542e-007 3.344766e-008 -1.077827e-008 -6.575821e-008 -2.336621e-008 3.773262e-008 2.003809e-008 1.921992e-008 1.478242e-008 1.798574e-008 3.600805e-002 -2.397730e-003 8.129811e-003 -2.221155e-003 1.039155e-002 -1.424094e-003 -6.316496e-004 -7.066861e-003 -1.585887e-002 -7.098205e-003 -5.471149e-003 -6.991659e-003 3.746431e-002
<VARIANCE> 25
 1.382332e+002 5.403470e+001 6.297409e+001 5.268550e+001 6.156908e+001 6.080389e+001 4.641895e+001 6.133797e+001 6.598586e+001 4.516822e+001 4.696126e+001 2.879235e+001 2.669329e+000 2.463164e+000 2.496033e+000 2.573711e+000 3.419287e+000 3.265243e+000 3.102299e+000 3.687264e+000 3.478769e+000 2.825354e+000 2.873757e+000 2.211569e+000 3.608603e+000
<GCONST> 1.083748e+002
<TRANSP> 5
 0.000000e+000 1.000000e+000 0.000000e+000 0.000000e+000 0.000000e+000
 0.000000e+000 6.000000e-001 4.000000e-001 0.000000e+000 0.000000e+000
 0.000000e+000 0.000000e+000 6.000000e-001 4.000000e-001 0.000000e+000
 0.000000e+000 0.000000e+000 0.000000e+000 7.000000e-001 3.000000e-001
 0.000000e+000 0.000000e+000 0.000000e+000 0.000000e+000 0.000000e+000
<ENDHMM>
~h "iy"
<BEGINHMM>
<NUMSTATES> 5
<STATE> 2
<MEAN> 25
 -8.985938e-009 3.814864e-008 -2.076542e-007 3.344766e-008 -1.077827e-008 -6.575821e-008 -2.336621e-008 3.773262e-008 2.003809e-008 1.921992e-008 1.478242e-008 1.798574e-008 3.600805e-002 -2.397730e-003 8.129811e-003 -2.221155e-003 1.039155e-002 -1.424094e-003 -6.316496e-004 -7.066861e-003 -1.585887e-002 -7.098205e-003 -5.471149e-003 -6.991659e-003 3.746431e-002
<VARIANCE> 25
 1.382332e+002 5.403470e+001 6.297409e+001 5.268550e+001 6.156908e+001 6.080389e+001 4.641895e+001 6.133797e+001 6.598586e+001 4.516822e+001 4.696126e+001 2.879235e+001 2.669329e+000 2.463164e+000 2.496033e+000 2.573711e+000 3.419287e+000 3.265243e+000 3.102299e+000 3.687264e+000 3.478769e+000 2.825354e+000 2.873757e+000 2.211569e+000 3.608603e+000
<GCONST> 1.083748e+002
<STATE> 3
<MEAN> 25
 -8.985938e-009 3.814864e-008 -2.076542e-007 3.344766e-008 -1.077827e-008 -6.575821e-008 -2.336621e-008 3.773262e-008 2.003809e-008 1.921992e-008 1.478242e-008 1.798574e-008 3.600805e-002 -2.397730e-003 8.129811e-003 -2.221155e-003 1.039155e-002 -1.424094e-003 -6.316496e-004 -7.066861e-003 -1.585887e-002 -7.098205e-003 -5.471149e-003 -6.991659e-003 3.746431e-002
<VARIANCE> 25
 1.382332e+002 5.403470e+001 6.297409e+001 5.268550e+001 6.156908e+001 6.080389e+001 4.641895e+001 6.133797e+001 6.598586e+001 4.516822e+001 4.696126e+001 2.879235e+001 2.669329e+000 2.463164e+000 2.496033e+000 2.573711e+000 3.419287e+000 3.265243e+000 3.102299e+000 3.687264e+000 3.478769e+000 2.825354e+000 2.873757e+000 2.211569e+000 3.608603e+000
<GCONST> 1.083748e+002
<STATE> 4
<MEAN> 25
 -8.985938e-009 3.814864e-008 -2.076542e-007 3.344766e-008 -1.077827e-008 -6.575821e-008 -2.336621e-008 3.773262e-008 2.003809e-008 1.921992e-008 1.478242e-008 1.798574e-008 3.600805e-002 -2.397730e-003 8.129811e-003 -2.221155e-003 1.039155e-002 -1.424094e-003 -6.316496e-004 -7.066861e-003 -1.585887e-002 -7.098205e-003 -5.471149e-003 -6.991659e-003 3.746431e-002
<VARIANCE> 25
 1.382332e+002 5.403470e+001 6.297409e+001 5.268550e+001 6.156908e+001 6.080389e+001 4.641895e+001 6.133797e+001 6.598586e+001 4.516822e+001 4.696126e+001 2.879235e+001 2.669329e+000 2.463164e+000 2.496033e+000 2.573711e+000 3.419287e+000 3.265243e+000 3.102299e+000 3.687264e+000 3.478769e+000 2.825354e+000 2.873757e+000 2.211569e+000 3.608603e+000
<GCONST> 1.083748e+002
<TRANSP> 5
 0.000000e+000 1.000000e+000 0.000000e+000 0.000000e+000 0.000000e+000
 0.000000e+000 6.000000e-001 4.000000e-001 0.000000e+000 0.000000e+000
 0.000000e+000 0.000000e+000 6.000000e-001 4.000000e-001 0.000000e+000
 0.000000e+000 0.000000e+000 0.000000e+000 7.000000e-001 3.000000e-001
 0.000000e+000 0.000000e+000 0.000000e+000 0.000000e+000 0.000000e+000
<ENDHMM>
~h "v"
<BEGINHMM>
<NUMSTATES> 5
<STATE> 2
<MEAN> 25
 -8.985938e-009 3.814864e-008 -2.076542e-007 3.344766e-008 -1.077827e-008 -6.575821e-008 -2.336621e-008 3.773262e-008 2.003809e-008 1.921992e-008 1.478242e-008 1.798574e-008 3.600805e-002 -2.397730e-003 8.129811e-003 -2.221155e-003 1.039155e-002 -1.424094e-003 -6.316496e-004 -7.066861e-003 -1.585887e-002 -7.098205e-003 -5.471149e-003 -6.991659e-003 3.746431e-002
<VARIANCE> 25
 1.382332e+002 5.403470e+001 6.297409e+001 5.268550e+001 6.156908e+001 6.080389e+001 4.641895e+001 6.133797e+001 6.598586e+001 4.516822e+001 4.696126e+001 2.879235e+001 2.669329e+000 2.463164e+000 2.496033e+000 2.573711e+000 3.419287e+000 3.265243e+000 3.102299e+000 3.687264e+000 3.478769e+000 2.825354e+000 2.873757e+000 2.211569e+000 3.608603e+000
<GCONST> 1.083748e+002
<STATE> 3
<MEAN> 25
 -8.985938e-009 3.814864e-008 -2.076542e-007 3.344766e-008 -1.077827e-008 -6.575821e-008 -2.336621e-008 3.773262e-008 2.003809e-008 1.921992e-008 1.478242e-008 1.798574e-008 3.600805e-002 -2.397730e-003 8.129811e-003 -2.221155e-003 1.039155e-002 -1.424094e-003 -6.316496e-004 -7.066861e-003 -1.585887e-002 -7.098205e-003 -5.471149e-003 -6.991659e-003 3.746431e-002
<VARIANCE> 25
 1.382332e+002 5.403470e+001 6.297409e+001 5.268550e+001 6.156908e+001 6.080389e+001 4.641895e+001 6.133797e+001 6.598586e+001 4.516822e+001 4.696126e+001 2.879235e+001 2.669329e+000 2.463164e+000 2.496033e+000 2.573711e+000 3.419287e+000 3.265243e+000 3.102299e+000 3.687264e+000 3.478769e+000 2.825354e+000 2.873757e+000 2.211569e+000 3.608603e+000
<GCONST> 1.083748e+002
<STATE> 4
<MEAN> 25
 -8.985938e-009 3.814864e-008 -2.076542e-007 3.344766e-008 -1.077827e-008 -6.575821e-008 -2.336621e-008 3.773262e-008 2.003809e-008 1.921992e-008 1.478242e-008 1.798574e-008 3.600805e-002 -2.397730e-003 8.129811e-003 -2.221155e-003 1.039155e-002 -1.424094e-003 -6.316496e-004 -7.066861e-003 -1.585887e-002 -7.098205e-003 -5.471149e-003 -6.991659e-003 3.746431e-002
<VARIANCE> 25
 1.382332e+002 5.403470e+001 6.297409e+001 5.268550e+001 6.156908e+001 6.080389e+001 4.641895e+001 6.133797e+001 6.598586e+001 4.516822e+001 4.696126e+001 2.879235e+001 2.669329e+000 2.463164e+000 2.496033e+000 2.573711e+000 3.419287e+000 3.265243e+000 3.102299e+000 3.687264e+000 3.478769e+000 2.825354e+000 2.873757e+000 2.211569e+000 3.608603e+000
<GCONST> 1.083748e+002
<TRANSP> 5
 0.000000e+000 1.000000e+000 0.000000e+000 0.000000e+000 0.000000e+000
 0.000000e+000 6.000000e-001 4.000000e-001 0.000000e+000 0.000000e+000
 0.000000e+000 0.000000e+000 6.000000e-001 4.000000e-001 0.000000e+000
 0.000000e+000 0.000000e+000 0.000000e+000 7.000000e-001 3.000000e-001
 0.000000e+000 0.000000e+000 0.000000e+000 0.000000e+000 0.000000e+000
<ENDHMM>
~h "w"
<BEGINHMM>
<NUMSTATES> 5
<STATE> 2
<MEAN> 25
 -8.985938e-009 3.814864e-008 -2.076542e-007 3.344766e-008 -1.077827e-008 -6.575821e-008 -2.336621e-008 3.773262e-008 2.003809e-008 1.921992e-008 1.478242e-008 1.798574e-008 3.600805e-002 -2.397730e-003 8.129811e-003 -2.221155e-003 1.039155e-002 -1.424094e-003 -6.316496e-004 -7.066861e-003 -1.585887e-002 -7.098205e-003 -5.471149e-003 -6.991659e-003 3.746431e-002
<VARIANCE> 25
 1.382332e+002 5.403470e+001 6.297409e+001 5.268550e+001 6.156908e+001 6.080389e+001 4.641895e+001 6.133797e+001 6.598586e+001 4.516822e+001 4.696126e+001 2.879235e+001 2.669329e+000 2.463164e+000 2.496033e+000 2.573711e+000 3.419287e+000 3.265243e+000 3.102299e+000 3.687264e+000 3.478769e+000 2.825354e+000 2.873757e+000 2.211569e+000 3.608603e+000
<GCONST> 1.083748e+002
<STATE> 3
<MEAN> 25
 -8.985938e-009 3.814864e-008 -2.076542e-007 3.344766e-008 -1.077827e-008 -6.575821e-008 -2.336621e-008 3.773262e-008 2.003809e-008 1.921992e-008 1.478242e-008 1.798574e-008 3.600805e-002 -2.397730e-003 8.129811e-003 -2.221155e-003 1.039155e-002 -1.424094e-003 -6.316496e-004 -7.066861e-003 -1.585887e-002 -7.098205e-003 -5.471149e-003 -6.991659e-003 3.746431e-002
<VARIANCE> 25
 1.382332e+002 5.403470e+001 6.297409e+001 5.268550e+001 6.156908e+001 6.080389e+001 4.641895e+001 6.133797e+001 6.598586e+001 4.516822e+001 4.696126e+001 2.879235e+001 2.669329e+000 2.463164e+000 2.496033e+000 2.573711e+000 3.419287e+000 3.265243e+000 3.102299e+000 3.687264e+000 3.478769e+000 2.825354e+000 2.873757e+000 2.211569e+000 3.608603e+000
<GCONST> 1.083748e+002
<STATE> 4
<MEAN> 25
 -8.985938e-009 3.814864e-008 -2.076542e-007 3.344766e-008 -1.077827e-008 -6.575821e-008 -2.336621e-008 3.773262e-008 2.003809e-008 1.921992e-008 1.478242e-008 1.798574e-008 3.600805e-002 -2.397730e-003 8.129811e-003 -2.221155e-003 1.039155e-002 -1.424094e-003 -6.316496e-004 -7.066861e-003 -1.585887e-002 -7.098205e-003 -5.471149e-003 -6.991659e-003 3.746431e-002
<VARIANCE> 25
 1.382332e+002 5.403470e+001 6.297409e+001 5.268550e+001 6.156908e+001 6.080389e+001 4.641895e+001 6.133797e+001 6.598586e+001 4.516822e+001 4.696126e+001 2.879235e+001 2.669329e+000 2.463164e+000 2.496033e+000 2.573711e+000 3.419287e+000 3.265243e+000 3.102299e+000 3.687264e+000 3.478769e+000 2.825354e+000 2.873757e+000 2.211569e+000 3.608603e+000
<GCONST> 1.083748e+002
<TRANSP> 5
 0.000000e+000 1.000000e+000 0.000000e+000 0.000000e+000 0.000000e+000
 0.000000e+000 6.000000e-001 4.000000e-001 0.000000e+000 0.000000e+000
 0.000000e+000 0.000000e+000 6.000000e-001 4.000000e-001 0.000000e+000
 0.000000e+000 0.000000e+000 0.000000e+000 7.000000e-001 3.000000e-001
 0.000000e+000 0.000000e+000 0.000000e+000 0.000000e+000 0.000000e+000
<ENDHMM>
~h "y"
<BEGINHMM>
<NUMSTATES> 5
<STATE> 2
<MEAN> 25
 -8.985938e-009 3.814864e-008 -2.076542e-007 3.344766e-008 -1.077827e-008 -6.575821e-008 -2.336621e-008 3.773262e-008 2.003809e-008 1.921992e-008 1.478242e-008 1.798574e-008 3.600805e-002 -2.397730e-003 8.129811e-003 -2.221155e-003 1.039155e-002 -1.424094e-003 -6.316496e-004 -7.066861e-003 -1.585887e-002 -7.098205e-003 -5.471149e-003 -6.991659e-003 3.746431e-002
<VARIANCE> 25
 1.382332e+002 5.403470e+001 6.297409e+001 5.268550e+001 6.156908e+001 6.080389e+001 4.641895e+001 6.133797e+001 6.598586e+001 4.516822e+001 4.696126e+001 2.879235e+001 2.669329e+000 2.463164e+000 2.496033e+000 2.573711e+000 3.419287e+000 3.265243e+000 3.102299e+000 3.687264e+000 3.478769e+000 2.825354e+000 2.873757e+000 2.211569e+000 3.608603e+000
<GCONST> 1.083748e+002
<STATE> 3
<MEAN> 25
 -8.985938e-009 3.814864e-008 -2.076542e-007 3.344766e-008 -1.077827e-008 -6.575821e-008 -2.336621e-008 3.773262e-008 2.003809e-008 1.921992e-008 1.478242e-008 1.798574e-008 3.600805e-002 -2.397730e-003 8.129811e-003 -2.221155e-003 1.039155e-002 -1.424094e-003 -6.316496e-004 -7.066861e-003 -1.585887e-002 -7.098205e-003 -5.471149e-003 -6.991659e-003 3.746431e-002
<VARIANCE> 25
 1.382332e+002 5.403470e+001 6.297409e+001 5.268550e+001 6.156908e+001 6.080389e+001 4.641895e+001 6.133797e+001 6.598586e+001 4.516822e+001 4.696126e+001 2.879235e+001 2.669329e+000 2.463164e+000 2.496033e+000 2.573711e+000 3.419287e+000 3.265243e+000 3.102299e+000 3.687264e+000 3.478769e+000 2.825354e+000 2.873757e+000 2.211569e+000 3.608603e+000
<GCONST> 1.083748e+002
<STATE> 4
<MEAN> 25
 -8.985938e-009 3.814864e-008 -2.076542e-007 3.344766e-008 -1.077827e-008 -6.575821e-008 -2.336621e-008 3.773262e-008 2.003809e-008 1.921992e-008 1.478242e-008 1.798574e-008 3.600805e-002 -2.397730e-003 8.129811e-003 -2.221155e-003 1.039155e-002 -1.424094e-003 -6.316496e-004 -7.066861e-003 -1.585887e-002 -7.098205e-003 -5.471149e-003 -6.991659e-003 3.746431e-002
<VARIANCE> 25
 1.382332e+002 5.403470e+001 6.297409e+001 5.268550e+001 6.156908e+001 6.080389e+001 4.641895e+001 6.133797e+001 6.598586e+001 4.516822e+001 4.696126e+001 2.879235e+001 2.669329e+000 2.463164e+000 2.496033e+000 2.573711e+000 3.419287e+000 3.265243e+000 3.102299e+000 3.687264e+000 3.478769e+000 2.825354e+000 2.873757e+000 2.211569e+000 3.608603e+000
<GCONST> 1.083748e+002
<TRANSP> 5
 0.000000e+000 1.000000e+000 0.000000e+000 0.000000e+000 0.000000e+000
 0.000000e+000 6.000000e-001 4.000000e-001 0.000000e+000 0.000000e+000
 0.000000e+000 0.000000e+000 6.000000e-001 4.000000e-001 0.000000e+000
 0.000000e+000 0.000000e+000 0.000000e+000 7.000000e-001 3.000000e-001
 0.000000e+000 0.000000e+000 0.000000e+000 0.000000e+000 0.000000e+000
<ENDHMM>
~h "uw"
<BEGINHMM>
<NUMSTATES> 5
<STATE> 2
<MEAN> 25
 -8.985938e-009 3.814864e-008 -2.076542e-007 3.344766e-008 -1.077827e-008 -6.575821e-008 -2.336621e-008 3.773262e-008 2.003809e-008 1.921992e-008 1.478242e-008 1.798574e-008 3.600805e-002 -2.397730e-003 8.129811e-003 -2.221155e-003 1.039155e-002 -1.424094e-003 -6.316496e-004 -7.066861e-003 -1.585887e-002 -7.098205e-003 -5.471149e-003 -6.991659e-003 3.746431e-002
<VARIANCE> 25
 1.382332e+002 5.403470e+001 6.297409e+001 5.268550e+001 6.156908e+001 6.080389e+001 4.641895e+001 6.133797e+001 6.598586e+001 4.516822e+001 4.696126e+001 2.879235e+001 2.669329e+000 2.463164e+000 2.496033e+000 2.573711e+000 3.419287e+000 3.265243e+000 3.102299e+000 3.687264e+000 3.478769e+000 2.825354e+000 2.873757e+000 2.211569e+000 3.608603e+000
<GCONST> 1.083748e+002
<STATE> 3
<MEAN> 25
 -8.985938e-009 3.814864e-008 -2.076542e-007 3.344766e-008 -1.077827e-008 -6.575821e-008 -2.336621e-008 3.773262e-008 2.003809e-008 1.921992e-008 1.478242e-008 1.798574e-008 3.600805e-002 -2.397730e-003 8.129811e-003 -2.221155e-003 1.039155e-002 -1.424094e-003 -6.316496e-004 -7.066861e-003 -1.585887e-002 -7.098205e-003 -5.471149e-003 -6.991659e-003 3.746431e-002
<VARIANCE> 25
 1.382332e+002 5.403470e+001 6.297409e+001 5.268550e+001 6.156908e+001 6.080389e+001 4.641895e+001 6.133797e+001 6.598586e+001 4.516822e+001 4.696126e+001 2.879235e+001 2.669329e+000 2.463164e+000 2.496033e+000 2.573711e+000 3.419287e+000 3.265243e+000 3.102299e+000 3.687264e+000 3.478769e+000 2.825354e+000 2.873757e+000 2.211569e+000 3.608603e+000
<GCONST> 1.083748e+002
<STATE> 4
<MEAN> 25
 -8.985938e-009 3.814864e-008 -2.076542e-007 3.344766e-008 -1.077827e-008 -6.575821e-008 -2.336621e-008 3.773262e-008 2.003809e-008 1.921992e-008 1.478242e-008 1.798574e-008 3.600805e-002 -2.397730e-003 8.129811e-003 -2.221155e-003 1.039155e-002 -1.424094e-003 -6.316496e-004 -7.066861e-003 -1.585887e-002 -7.098205e-003 -5.471149e-003 -6.991659e-003 3.746431e-002
<VARIANCE> 25
 1.382332e+002 5.403470e+001 6.297409e+001 5.268550e+001 6.156908e+001 6.080389e+001 4.641895e+001 6.133797e+001 6.598586e+001 4.516822e+001 4.696126e+001 2.879235e+001 2.669329e+000 2.463164e+000 2.496033e+000 2.573711e+000 3.419287e+000 3.265243e+000 3.102299e+000 3.687264e+000 3.478769e+000 2.825354e+000 2.873757e+000 2.211569e+000 3.608603e+000
<GCONST> 1.083748e+002
<TRANSP> 5
 0.000000e+000 1.000000e+000 0.000000e+000 0.000000e+000 0.000000e+000
 0.000000e+000 6.000000e-001 4.000000e-001 0.000000e+000 0.000000e+000
 0.000000e+000 0.000000e+000 6.000000e-001 4.000000e-001 0.000000e+000
 0.000000e+000 0.000000e+000 0.000000e+000 7.000000e-001 3.000000e-001
 0.000000e+000 0.000000e+000 0.000000e+000 0.000000e+000 0.000000e+000
<ENDHMM>
~h "p"
<BEGINHMM>
<NUMSTATES> 5
<STATE> 2
<MEAN> 25
 -8.985938e-009 3.814864e-008 -2.076542e-007 3.344766e-008 -1.077827e-008 -6.575821e-008 -2.336621e-008 3.773262e-008 2.003809e-008 1.921992e-008 1.478242e-008 1.798574e-008 3.600805e-002 -2.397730e-003 8.129811e-003 -2.221155e-003 1.039155e-002 -1.424094e-003 -6.316496e-004 -7.066861e-003 -1.585887e-002 -7.098205e-003 -5.471149e-003 -6.991659e-003 3.746431e-002
<VARIANCE> 25
 1.382332e+002 5.403470e+001 6.297409e+001 5.268550e+001 6.156908e+001 6.080389e+001 4.641895e+001 6.133797e+001 6.598586e+001 4.516822e+001 4.696126e+001 2.879235e+001 2.669329e+000 2.463164e+000 2.496033e+000 2.573711e+000 3.419287e+000 3.265243e+000 3.102299e+000 3.687264e+000 3.478769e+000 2.825354e+000 2.873757e+000 2.211569e+000 3.608603e+000
<GCONST> 1.083748e+002
<STATE> 3
<MEAN> 25
 -8.985938e-009 3.814864e-008 -2.076542e-007 3.344766e-008 -1.077827e-008 -6.575821e-008 -2.336621e-008 3.773262e-008 2.003809e-008 1.921992e-008 1.478242e-008 1.798574e-008 3.600805e-002 -2.397730e-003 8.129811e-003 -2.221155e-003 1.039155e-002 -1.424094e-003 -6.316496e-004 -7.066861e-003 -1.585887e-002 -7.098205e-003 -5.471149e-003 -6.991659e-003 3.746431e-002
<VARIANCE> 25
 1.382332e+002 5.403470e+001 6.297409e+001 5.268550e+001 6.156908e+001 6.080389e+001 4.641895e+001 6.133797e+001 6.598586e+001 4.516822e+001 4.696126e+001 2.879235e+001 2.669329e+000 2.463164e+000 2.496033e+000 2.573711e+000 3.419287e+000 3.265243e+000 3.102299e+000 3.687264e+000 3.478769e+000 2.825354e+000 2.873757e+000 2.211569e+000 3.608603e+000
<GCONST> 1.083748e+002
<STATE> 4
<MEAN> 25
 -8.985938e-009 3.814864e-008 -2.076542e-007 3.344766e-008 -1.077827e-008 -6.575821e-008 -2.336621e-008 3.773262e-008 2.003809e-008 1.921992e-008 1.478242e-008 1.798574e-008 3.600805e-002 -2.397730e-003 8.129811e-003 -2.221155e-003 1.039155e-002 -1.424094e-003 -6.316496e-004 -7.066861e-003 -1.585887e-002 -7.098205e-003 -5.471149e-003 -6.991659e-003 3.746431e-002
<VARIANCE> 25
 1.382332e+002 5.403470e+001 6.297409e+001 5.268550e+001 6.156908e+001 6.080389e+001 4.641895e+001 6.133797e+001 6.598586e+001 4.516822e+001 4.696126e+001 2.879235e+001 2.669329e+000 2.463164e+000 2.496033e+000 2.573711e+000 3.419287e+000 3.265243e+000 3.102299e+000 3.687264e+000 3.478769e+000 2.825354e+000 2.873757e+000 2.211569e+000 3.608603e+000
<GCONST> 1.083748e+002
<TRANSP> 5
 0.000000e+000 1.000000e+000 0.000000e+000 0.000000e+000 0.000000e+000
 0.000000e+000 6.000000e-001 4.000000e-001 0.000000e+000 0.000000e+000
 0.000000e+000 0.000000e+000 6.000000e-001 4.000000e-001 0.000000e+000
 0.000000e+000 0.000000e+000 0.000000e+000 7.000000e-001 3.000000e-001
 0.000000e+000 0.000000e+000 0.000000e+000 0.000000e+000 0.000000e+000
<ENDHMM>
~h "er"
<BEGINHMM>
<NUMSTATES> 5
<STATE> 2
<MEAN> 25
 -8.985938e-009 3.814864e-008 -2.076542e-007 3.344766e-008 -1.077827e-008 -6.575821e-008 -2.336621e-008 3.773262e-008 2.003809e-008 1.921992e-008 1.478242e-008 1.798574e-008 3.600805e-002 -2.397730e-003 8.129811e-003 -2.221155e-003 1.039155e-002 -1.424094e-003 -6.316496e-004 -7.066861e-003 -1.585887e-002 -7.098205e-003 -5.471149e-003 -6.991659e-003 3.746431e-002
<VARIANCE> 25
 1.382332e+002 5.403470e+001 6.297409e+001 5.268550e+001 6.156908e+001 6.080389e+001 4.641895e+001 6.133797e+001 6.598586e+001 4.516822e+001 4.696126e+001 2.879235e+001 2.669329e+000 2.463164e+000 2.496033e+000 2.573711e+000 3.419287e+000 3.265243e+000 3.102299e+000 3.687264e+000 3.478769e+000 2.825354e+000 2.873757e+000 2.211569e+000 3.608603e+000
<GCONST> 1.083748e+002
<STATE> 3
<MEAN> 25
 -8.985938e-009 3.814864e-008 -2.076542e-007 3.344766e-008 -1.077827e-008 -6.575821e-008 -2.336621e-008 3.773262e-008 2.003809e-008 1.921992e-008 1.478242e-008 1.798574e-008 3.600805e-002 -2.397730e-003 8.129811e-003 -2.221155e-003 1.039155e-002 -1.424094e-003 -6.316496e-004 -7.066861e-003 -1.585887e-002 -7.098205e-003 -5.471149e-003 -6.991659e-003 3.746431e-002
<VARIANCE> 25
 1.382332e+002 5.403470e+001 6.297409e+001 5.268550e+001 6.156908e+001 6.080389e+001 4.641895e+001 6.133797e+001 6.598586e+001 4.516822e+001 4.696126e+001 2.879235e+001 2.669329e+000 2.463164e+000 2.496033e+000 2.573711e+000 3.419287e+000 3.265243e+000 3.102299e+000 3.687264e+000 3.478769e+000 2.825354e+000 2.873757e+000 2.211569e+000 3.608603e+000
<GCONST> 1.083748e+002
<STATE> 4
<MEAN> 25
 -8.985938e-009 3.814864e-008 -2.076542e-007 3.344766e-008 -1.077827e-008 -6.575821e-008 -2.336621e-008 3.773262e-008 2.003809e-008 1.921992e-008 1.478242e-008 1.798574e-008 3.600805e-002 -2.397730e-003 8.129811e-003 -2.221155e-003 1.039155e-002 -1.424094e-003 -6.316496e-004 -7.066861e-003 -1.585887e-002 -7.098205e-003 -5.471149e-003 -6.991659e-003 3.746431e-002
<VARIANCE> 25
 1.382332e+002 5.403470e+001 6.297409e+001 5.268550e+001 6.156908e+001 6.080389e+001 4.641895e+001 6.133797e+001 6.598586e+001 4.516822e+001 4.696126e+001 2.879235e+001 2.669329e+000 2.463164e+000 2.496033e+000 2.573711e+000 3.419287e+000 3.265243e+000 3.102299e+000 3.687264e+000 3.478769e+000 2.825354e+000 2.873757e+000 2.211569e+000 3.608603e+000
<GCONST> 1.083748e+002
<TRANSP> 5
 0.000000e+000 1.000000e+000 0.000000e+000 0.000000e+000 0.000000e+000
 0.000000e+000 6.000000e-001 4.000000e-001 0.000000e+000 0.000000e+000
 0.000000e+000 0.000000e+000 6.000000e-001 4.000000e-001 0.000000e+000
 0.000000e+000 0.000000e+000 0.000000e+000 7.000000e-001 3.000000e-001
 0.000000e+000 0.000000e+000 0.000000e+000 0.000000e+000 0.000000e+000
<ENDHMM>
~h "eh"
<BEGINHMM>
<NUMSTATES> 5
<STATE> 2
<MEAN> 25
 -8.985938e-009 3.814864e-008 -2.076542e-007 3.344766e-008 -1.077827e-008 -6.575821e-008 -2.336621e-008 3.773262e-008 2.003809e-008 1.921992e-008 1.478242e-008 1.798574e-008 3.600805e-002 -2.397730e-003 8.129811e-003 -2.221155e-003 1.039155e-002 -1.424094e-003 -6.316496e-004 -7.066861e-003 -1.585887e-002 -7.098205e-003 -5.471149e-003 -6.991659e-003 3.746431e-002
<VARIANCE> 25
 1.382332e+002 5.403470e+001 6.297409e+001 5.268550e+001 6.156908e+001 6.080389e+001 4.641895e+001 6.133797e+001 6.598586e+001 4.516822e+001 4.696126e+001 2.879235e+001 2.669329e+000 2.463164e+000 2.496033e+000 2.573711e+000 3.419287e+000 3.265243e+000 3.102299e+000 3.687264e+000 3.478769e+000 2.825354e+000 2.873757e+000 2.211569e+000 3.608603e+000
<GCONST> 1.083748e+002
<STATE> 3
<MEAN> 25
 -8.985938e-009 3.814864e-008 -2.076542e-007 3.344766e-008 -1.077827e-008 -6.575821e-008 -2.336621e-008 3.773262e-008 2.003809e-008 1.921992e-008 1.478242e-008 1.798574e-008 3.600805e-002 -2.397730e-003 8.129811e-003 -2.221155e-003 1.039155e-002 -1.424094e-003 -6.316496e-004 -7.066861e-003 -1.585887e-002 -7.098205e-003 -5.471149e-003 -6.991659e-003 3.746431e-002
<VARIANCE> 25
 1.382332e+002 5.403470e+001 6.297409e+001 5.268550e+001 6.156908e+001 6.080389e+001 4.641895e+001 6.133797e+001 6.598586e+001 4.516822e+001 4.696126e+001 2.879235e+001 2.669329e+000 2.463164e+000 2.496033e+000 2.573711e+000 3.419287e+000 3.265243e+000 3.102299e+000 3.687264e+000 3.478769e+000 2.825354e+000 2.873757e+000 2.211569e+000 3.608603e+000
<GCONST> 1.083748e+002
<STATE> 4
<MEAN> 25
 -8.985938e-009 3.814864e-008 -2.076542e-007 3.344766e-008 -1.077827e-008 -6.575821e-008 -2.336621e-008 3.773262e-008 2.003809e-008 1.921992e-008 1.478242e-008 1.798574e-008 3.600805e-002 -2.397730e-003 8.129811e-003 -2.221155e-003 1.039155e-002 -1.424094e-003 -6.316496e-004 -7.066861e-003 -1.585887e-002 -7.098205e-003 -5.471149e-003 -6.991659e-003 3.746431e-002
<VARIANCE> 25
 1.382332e+002 5.403470e+001 6.297409e+001 5.268550e+001 6.156908e+001 6.080389e+001 4.641895e+001 6.133797e+001 6.598586e+001 4.516822e+001 4.696126e+001 2.879235e+001 2.669329e+000 2.463164e+000 2.496033e+000 2.573711e+000 3.419287e+000 3.265243e+000 3.102299e+000 3.687264e+000 3.478769e+000 2.825354e+000 2.873757e+000 2.211569e+000 3.608603e+000
<GCONST> 1.083748e+002
<TRANSP> 5
 0.000000e+000 1.000000e+000 0.000000e+000 0.000000e+000 0.000000e+000
 0.000000e+000 6.000000e-001 4.000000e-001 0.000000e+000 0.000000e+000
 0.000000e+000 0.000000e+000 6.000000e-001 4.000000e-001 0.000000e+000
 0.000000e+000 0.000000e+000 0.000000e+000 7.000000e-001 3.000000e-001
 0.000000e+000 0.000000e+000 0.000000e+000 0.000000e+000 0.000000e+000
<ENDHMM>
~h "r"
<BEGINHMM>
<NUMSTATES> 5
<STATE> 2
<MEAN> 25
 -8.985938e-009 3.814864e-008 -2.076542e-007 3.344766e-008 -1.077827e-008 -6.575821e-008 -2.336621e-008 3.773262e-008 2.003809e-008 1.921992e-008 1.478242e-008 1.798574e-008 3.600805e-002 -2.397730e-003 8.129811e-003 -2.221155e-003 1.039155e-002 -1.424094e-003 -6.316496e-004 -7.066861e-003 -1.585887e-002 -7.098205e-003 -5.471149e-003 -6.991659e-003 3.746431e-002
<VARIANCE> 25
 1.382332e+002 5.403470e+001 6.297409e+001 5.268550e+001 6.156908e+001 6.080389e+001 4.641895e+001 6.133797e+001 6.598586e+001 4.516822e+001 4.696126e+001 2.879235e+001 2.669329e+000 2.463164e+000 2.496033e+000 2.573711e+000 3.419287e+000 3.265243e+000 3.102299e+000 3.687264e+000 3.478769e+000 2.825354e+000 2.873757e+000 2.211569e+000 3.608603e+000
<GCONST> 1.083748e+002
<STATE> 3
<MEAN> 25
 -8.985938e-009 3.814864e-008 -2.076542e-007 3.344766e-008 -1.077827e-008 -6.575821e-008 -2.336621e-008 3.773262e-008 2.003809e-008 1.921992e-008 1.478242e-008 1.798574e-008 3.600805e-002 -2.397730e-003 8.129811e-003 -2.221155e-003 1.039155e-002 -1.424094e-003 -6.316496e-004 -7.066861e-003 -1.585887e-002 -7.098205e-003 -5.471149e-003 -6.991659e-003 3.746431e-002
<VARIANCE> 25
 1.382332e+002 5.403470e+001 6.297409e+001 5.268550e+001 6.156908e+001 6.080389e+001 4.641895e+001 6.133797e+001 6.598586e+001 4.516822e+001 4.696126e+001 2.879235e+001 2.669329e+000 2.463164e+000 2.496033e+000 2.573711e+000 3.419287e+000 3.265243e+000 3.102299e+000 3.687264e+000 3.478769e+000 2.825354e+000 2.873757e+000 2.211569e+000 3.608603e+000
<GCONST> 1.083748e+002
<STATE> 4
<MEAN> 25
 -8.985938e-009 3.814864e-008 -2.076542e-007 3.344766e-008 -1.077827e-008 -6.575821e-008 -2.336621e-008 3.773262e-008 2.003809e-008 1.921992e-008 1.478242e-008 1.798574e-008 3.600805e-002 -2.397730e-003 8.129811e-003 -2.221155e-003 1.039155e-002 -1.424094e-003 -6.316496e-004 -7.066861e-003 -1.585887e-002 -7.098205e-003 -5.471149e-003 -6.991659e-003 3.746431e-002
<VARIANCE> 25
 1.382332e+002 5.403470e+001 6.297409e+001 5.268550e+001 6.156908e+001 6.080389e+001 4.641895e+001 6.133797e+001 6.598586e+001 4.516822e+001 4.696126e+001 2.879235e+001 2.669329e+000 2.463164e+000 2.496033e+000 2.573711e+000 3.419287e+000 3.265243e+000 3.102299e+000 3.687264e+000 3.478769e+000 2.825354e+000 2.873757e+000 2.211569e+000 3.608603e+000
<GCONST> 1.083748e+002
<TRANSP> 5
 0.000000e+000 1.000000e+000 0.000000e+000 0.000000e+000 0.000000e+000
 0.000000e+000 6.000000e-001 4.000000e-001 0.000000e+000 0.000000e+000
 0.000000e+000 0.000000e+000 6.000000e-001 4.000000e-001 0.000000e+000
 0.000000e+000 0.000000e+000 0.000000e+000 7.000000e-001 3.000000e-001
 0.000000e+000 0.000000e+000 0.000000e+000 0.000000e+000 0.000000e+000
<ENDHMM>
~h "f"
<BEGINHMM>
<NUMSTATES> 5
<STATE> 2
<MEAN> 25
 -8.985938e-009 3.814864e-008 -2.076542e-007 3.344766e-008 -1.077827e-008 -6.575821e-008 -2.336621e-008 3.773262e-008 2.003809e-008 1.921992e-008 1.478242e-008 1.798574e-008 3.600805e-002 -2.397730e-003 8.129811e-003 -2.221155e-003 1.039155e-002 -1.424094e-003 -6.316496e-004 -7.066861e-003 -1.585887e-002 -7.098205e-003 -5.471149e-003 -6.991659e-003 3.746431e-002
<VARIANCE> 25
 1.382332e+002 5.403470e+001 6.297409e+001 5.268550e+001 6.156908e+001 6.080389e+001 4.641895e+001 6.133797e+001 6.598586e+001 4.516822e+001 4.696126e+001 2.879235e+001 2.669329e+000 2.463164e+000 2.496033e+000 2.573711e+000 3.419287e+000 3.265243e+000 3.102299e+000 3.687264e+000 3.478769e+000 2.825354e+000 2.873757e+000 2.211569e+000 3.608603e+000
<GCONST> 1.083748e+002
<STATE> 3
<MEAN> 25
 -8.985938e-009 3.814864e-008 -2.076542e-007 3.344766e-008 -1.077827e-008 -6.575821e-008 -2.336621e-008 3.773262e-008 2.003809e-008 1.921992e-008 1.478242e-008 1.798574e-008 3.600805e-002 -2.397730e-003 8.129811e-003 -2.221155e-003 1.039155e-002 -1.424094e-003 -6.316496e-004 -7.066861e-003 -1.585887e-002 -7.098205e-003 -5.471149e-003 -6.991659e-003 3.746431e-002
<VARIANCE> 25
 1.382332e+002 5.403470e+001 6.297409e+001 5.268550e+001 6.156908e+001 6.080389e+001 4.641895e+001 6.133797e+001 6.598586e+001 4.516822e+001 4.696126e+001 2.879235e+001 2.669329e+000 2.463164e+000 2.496033e+000 2.573711e+000 3.419287e+000 3.265243e+000 3.102299e+000 3.687264e+000 3.478769e+000 2.825354e+000 2.873757e+000 2.211569e+000 3.608603e+000
<GCONST> 1.083748e+002
<STATE> 4
<MEAN> 25
 -8.985938e-009 3.814864e-008 -2.076542e-007 3.344766e-008 -1.077827e-008 -6.575821e-008 -2.336621e-008 3.773262e-008 2.003809e-008 1.921992e-008 1.478242e-008 1.798574e-008 3.600805e-002 -2.397730e-003 8.129811e-003 -2.221155e-003 1.039155e-002 -1.424094e-003 -6.316496e-004 -7.066861e-003 -1.585887e-002 -7.098205e-003 -5.471149e-003 -6.991659e-003 3.746431e-002
<VARIANCE> 25
 1.382332e+002 5.403470e+001 6.297409e+001 5.268550e+001 6.156908e+001 6.080389e+001 4.641895e+001 6.133797e+001 6.598586e+001 4.516822e+001 4.696126e+001 2.879235e+001 2.669329e+000 2.463164e+000 2.496033e+000 2.573711e+000 3.419287e+000 3.265243e+000 3.102299e+000 3.687264e+000 3.478769e+000 2.825354e+000 2.873757e+000 2.211569e+000 3.608603e+000
<GCONST> 1.083748e+002
<TRANSP> 5
 0.000000e+000 1.000000e+000 0.000000e+000 0.000000e+000 0.000000e+000
 0.000000e+000 6.000000e-001 4.000000e-001 0.000000e+000 0.000000e+000
 0.000000e+000 0.000000e+000 6.000000e-001 4.000000e-001 0.000000e+000
 0.000000e+000 0.000000e+000 0.000000e+000 7.000000e-001 3.000000e-001
 0.000000e+000 0.000000e+000 0.000000e+000 0.000000e+000 0.000000e+000
<ENDHMM>
~h "g"
<BEGINHMM>
<NUMSTATES> 5
<STATE> 2
<MEAN> 25
 -8.985938e-009 3.814864e-008 -2.076542e-007 3.344766e-008 -1.077827e-008 -6.575821e-008 -2.336621e-008 3.773262e-008 2.003809e-008 1.921992e-008 1.478242e-008 1.798574e-008 3.600805e-002 -2.397730e-003 8.129811e-003 -2.221155e-003 1.039155e-002 -1.424094e-003 -6.316496e-004 -7.066861e-003 -1.585887e-002 -7.098205e-003 -5.471149e-003 -6.991659e-003 3.746431e-002
<VARIANCE> 25
 1.382332e+002 5.403470e+001 6.297409e+001 5.268550e+001 6.156908e+001 6.080389e+001 4.641895e+001 6.133797e+001 6.598586e+001 4.516822e+001 4.696126e+001 2.879235e+001 2.669329e+000 2.463164e+000 2.496033e+000 2.573711e+000 3.419287e+000 3.265243e+000 3.102299e+000 3.687264e+000 3.478769e+000 2.825354e+000 2.873757e+000 2.211569e+000 3.608603e+000
<GCONST> 1.083748e+002
<STATE> 3
<MEAN> 25
 -8.985938e-009 3.814864e-008 -2.076542e-007 3.344766e-008 -1.077827e-008 -6.575821e-008 -2.336621e-008 3.773262e-008 2.003809e-008 1.921992e-008 1.478242e-008 1.798574e-008 3.600805e-002 -2.397730e-003 8.129811e-003 -2.221155e-003 1.039155e-002 -1.424094e-003 -6.316496e-004 -7.066861e-003 -1.585887e-002 -7.098205e-003 -5.471149e-003 -6.991659e-003 3.746431e-002
<VARIANCE> 25
 1.382332e+002 5.403470e+001 6.297409e+001 5.268550e+001 6.156908e+001 6.080389e+001 4.641895e+001 6.133797e+001 6.598586e+001 4.516822e+001 4.696126e+001 2.879235e+001 2.669329e+000 2.463164e+000 2.496033e+000 2.573711e+000 3.419287e+000 3.265243e+000 3.102299e+000 3.687264e+000 3.478769e+000 2.825354e+000 2.873757e+000 2.211569e+000 3.608603e+000
<GCONST> 1.083748e+002
<STATE> 4
<MEAN> 25
 -8.985938e-009 3.814864e-008 -2.076542e-007 3.344766e-008 -1.077827e-008 -6.575821e-008 -2.336621e-008 3.773262e-008 2.003809e-008 1.921992e-008 1.478242e-008 1.798574e-008 3.600805e-002 -2.397730e-003 8.129811e-003 -2.221155e-003 1.039155e-002 -1.424094e-003 -6.316496e-004 -7.066861e-003 -1.585887e-002 -7.098205e-003 -5.471149e-003 -6.991659e-003 3.746431e-002
<VARIANCE> 25
 1.382332e+002 5.403470e+001 6.297409e+001 5.268550e+001 6.156908e+001 6.080389e+001 4.641895e+001 6.133797e+001 6.598586e+001 4.516822e+001 4.696126e+001 2.879235e+001 2.669329e+000 2.463164e+000 2.496033e+000 2.573711e+000 3.419287e+000 3.265243e+000 3.102299e+000 3.687264e+000 3.478769e+000 2.825354e+000 2.873757e+000 2.211569e+000 3.608603e+000
<GCONST> 1.083748e+002
<TRANSP> 5
 0.000000e+000 1.000000e+000 0.000000e+000 0.000000e+000 0.000000e+000
 0.000000e+000 6.000000e-001 4.000000e-001 0.000000e+000 0.000000e+000
 0.000000e+000 0.000000e+000 6.000000e-001 4.000000e-001 0.000000e+000
 0.000000e+000 0.000000e+000 0.000000e+000 7.000000e-001 3.000000e-001
 0.000000e+000 0.000000e+000 0.000000e+000 0.000000e+000 0.000000e+000
<ENDHMM>
~h "s"
<BEGINHMM>
<NUMSTATES> 5
<STATE> 2
<MEAN> 25
 -8.985938e-009 3.814864e-008 -2.076542e-007 3.344766e-008 -1.077827e-008 -6.575821e-008 -2.336621e-008 3.773262e-008 2.003809e-008 1.921992e-008 1.478242e-008 1.798574e-008 3.600805e-002 -2.397730e-003 8.129811e-003 -2.221155e-003 1.039155e-002 -1.424094e-003 -6.316496e-004 -7.066861e-003 -1.585887e-002 -7.098205e-003 -5.471149e-003 -6.991659e-003 3.746431e-002
<VARIANCE> 25
 1.382332e+002 5.403470e+001 6.297409e+001 5.268550e+001 6.156908e+001 6.080389e+001 4.641895e+001 6.133797e+001 6.598586e+001 4.516822e+001 4.696126e+001 2.879235e+001 2.669329e+000 2.463164e+000 2.496033e+000 2.573711e+000 3.419287e+000 3.265243e+000 3.102299e+000 3.687264e+000 3.478769e+000 2.825354e+000 2.873757e+000 2.211569e+000 3.608603e+000
<GCONST> 1.083748e+002
<STATE> 3
<MEAN> 25
 -8.985938e-009 3.814864e-008 -2.076542e-007 3.344766e-008 -1.077827e-008 -6.575821e-008 -2.336621e-008 3.773262e-008 2.003809e-008 1.921992e-008 1.478242e-008 1.798574e-008 3.600805e-002 -2.397730e-003 8.129811e-003 -2.221155e-003 1.039155e-002 -1.424094e-003 -6.316496e-004 -7.066861e-003 -1.585887e-002 -7.098205e-003 -5.471149e-003 -6.991659e-003 3.746431e-002
<VARIANCE> 25
 1.382332e+002 5.403470e+001 6.297409e+001 5.268550e+001 6.156908e+001 6.080389e+001 4.641895e+001 6.133797e+001 6.598586e+001 4.516822e+001 4.696126e+001 2.879235e+001 2.669329e+000 2.463164e+000 2.496033e+000 2.573711e+000 3.419287e+000 3.265243e+000 3.102299e+000 3.687264e+000 3.478769e+000 2.825354e+000 2.873757e+000 2.211569e+000 3.608603e+000
<GCONST> 1.083748e+002
<STATE> 4
<MEAN> 25
 -8.985938e-009 3.814864e-008 -2.076542e-007 3.344766e-008 -1.077827e-008 -6.575821e-008 -2.336621e-008 3.773262e-008 2.003809e-008 1.921992e-008 1.478242e-008 1.798574e-008 3.600805e-002 -2.397730e-003 8.129811e-003 -2.221155e-003 1.039155e-002 -1.424094e-003 -6.316496e-004 -7.066861e-003 -1.585887e-002 -7.098205e-003 -5.471149e-003 -6.991659e-003 3.746431e-002
<VARIANCE> 25
 1.382332e+002 5.403470e+001 6.297409e+001 5.268550e+001 6.156908e+001 6.080389e+001 4.641895e+001 6.133797e+001 6.598586e+001 4.516822e+001 4.696126e+001 2.879235e+001 2.669329e+000 2.463164e+000 2.496033e+000 2.573711e+000 3.419287e+000 3.265243e+000 3.102299e+000 3.687264e+000 3.478769e+000 2.825354e+000 2.873757e+000 2.211569e+000 3.608603e+000
<GCONST> 1.083748e+002
<TRANSP> 5
 0.000000e+000 1.000000e+000 0.000000e+000 0.000000e+000 0.000000e+000
 0.000000e+000 6.000000e-001 4.000000e-001 0.000000e+000 0.000000e+000
 0.000000e+000 0.000000e+000 6.000000e-001 4.000000e-001 0.000000e+000
 0.000000e+000 0.000000e+000 0.000000e+000 7.000000e-001 3.000000e-001
 0.000000e+000 0.000000e+000 0.000000e+000 0.000000e+000 0.000000e+000
<ENDHMM>
~h "th"
<BEGINHMM>
<NUMSTATES> 5
<STATE> 2
<MEAN> 25
 -8.985938e-009 3.814864e-008 -2.076542e-007 3.344766e-008 -1.077827e-008 -6.575821e-008 -2.336621e-008 3.773262e-008 2.003809e-008 1.921992e-008 1.478242e-008 1.798574e-008 3.600805e-002 -2.397730e-003 8.129811e-003 -2.221155e-003 1.039155e-002 -1.424094e-003 -6.316496e-004 -7.066861e-003 -1.585887e-002 -7.098205e-003 -5.471149e-003 -6.991659e-003 3.746431e-002
<VARIANCE> 25
 1.382332e+002 5.403470e+001 6.297409e+001 5.268550e+001 6.156908e+001 6.080389e+001 4.641895e+001 6.133797e+001 6.598586e+001 4.516822e+001 4.696126e+001 2.879235e+001 2.669329e+000 2.463164e+000 2.496033e+000 2.573711e+000 3.419287e+000 3.265243e+000 3.102299e+000 3.687264e+000 3.478769e+000 2.825354e+000 2.873757e+000 2.211569e+000 3.608603e+000
<GCONST> 1.083748e+002
<STATE> 3
<MEAN> 25
 -8.985938e-009 3.814864e-008 -2.076542e-007 3.344766e-008 -1.077827e-008 -6.575821e-008 -2.336621e-008 3.773262e-008 2.003809e-008 1.921992e-008 1.478242e-008 1.798574e-008 3.600805e-002 -2.397730e-003 8.129811e-003 -2.221155e-003 1.039155e-002 -1.424094e-003 -6.316496e-004 -7.066861e-003 -1.585887e-002 -7.098205e-003 -5.471149e-003 -6.991659e-003 3.746431e-002
<VARIANCE> 25
 1.382332e+002 5.403470e+001 6.297409e+001 5.268550e+001 6.156908e+001 6.080389e+001 4.641895e+001 6.133797e+001 6.598586e+001 4.516822e+001 4.696126e+001 2.879235e+001 2.669329e+000 2.463164e+000 2.496033e+000 2.573711e+000 3.419287e+000 3.265243e+000 3.102299e+000 3.687264e+000 3.478769e+000 2.825354e+000 2.873757e+000 2.211569e+000 3.608603e+000
<GCONST> 1.083748e+002
<STATE> 4
<MEAN> 25
 -8.985938e-009 3.814864e-008 -2.076542e-007 3.344766e-008 -1.077827e-008 -6.575821e-008 -2.336621e-008 3.773262e-008 2.003809e-008 1.921992e-008 1.478242e-008 1.798574e-008 3.600805e-002 -2.397730e-003 8.129811e-003 -2.221155e-003 1.039155e-002 -1.424094e-003 -6.316496e-004 -7.066861e-003 -1.585887e-002 -7.098205e-003 -5.471149e-003 -6.991659e-003 3.746431e-002
<VARIANCE> 25
 1.382332e+002 5.403470e+001 6.297409e+001 5.268550e+001 6.156908e+001 6.080389e+001 4.641895e+001 6.133797e+001 6.598586e+001 4.516822e+001 4.696126e+001 2.879235e+001 2.669329e+000 2.463164e+000 2.496033e+000 2.573711e+000 3.419287e+000 3.265243e+000 3.102299e+000 3.687264e+000 3.478769e+000 2.825354e+000 2.873757e+000 2.211569e+000 3.608603e+000
<GCONST> 1.083748e+002
<TRANSP> 5
 0.000000e+000 1.000000e+000 0.000000e+000 0.000000e+000 0.000000e+000
 0.000000e+000 6.000000e-001 4.000000e-001 0.000000e+000 0.000000e+000
 0.000000e+000 0.000000e+000 6.000000e-001 4.000000e-001 0.000000e+000
 0.000000e+000 0.000000e+000 0.000000e+000 7.000000e-001 3.000000e-001
 0.000000e+000 0.000000e+000 0.000000e+000 0.000000e+000 0.000000e+000
<ENDHMM>
~h "hh"
<BEGINHMM>
<NUMSTATES> 5
<STATE> 2
<MEAN> 25
 -8.985938e-009 3.814864e-008 -2.076542e-007 3.344766e-008 -1.077827e-008 -6.575821e-008 -2.336621e-008 3.773262e-008 2.003809e-008 1.921992e-008 1.478242e-008 1.798574e-008 3.600805e-002 -2.397730e-003 8.129811e-003 -2.221155e-003 1.039155e-002 -1.424094e-003 -6.316496e-004 -7.066861e-003 -1.585887e-002 -7.098205e-003 -5.471149e-003 -6.991659e-003 3.746431e-002
<VARIANCE> 25
 1.382332e+002 5.403470e+001 6.297409e+001 5.268550e+001 6.156908e+001 6.080389e+001 4.641895e+001 6.133797e+001 6.598586e+001 4.516822e+001 4.696126e+001 2.879235e+001 2.669329e+000 2.463164e+000 2.496033e+000 2.573711e+000 3.419287e+000 3.265243e+000 3.102299e+000 3.687264e+000 3.478769e+000 2.825354e+000 2.873757e+000 2.211569e+000 3.608603e+000
<GCONST> 1.083748e+002
<STATE> 3
<MEAN> 25
 -8.985938e-009 3.814864e-008 -2.076542e-007 3.344766e-008 -1.077827e-008 -6.575821e-008 -2.336621e-008 3.773262e-008 2.003809e-008 1.921992e-008 1.478242e-008 1.798574e-008 3.600805e-002 -2.397730e-003 8.129811e-003 -2.221155e-003 1.039155e-002 -1.424094e-003 -6.316496e-004 -7.066861e-003 -1.585887e-002 -7.098205e-003 -5.471149e-003 -6.991659e-003 3.746431e-002
<VARIANCE> 25
 1.382332e+002 5.403470e+001 6.297409e+001 5.268550e+001 6.156908e+001 6.080389e+001 4.641895e+001 6.133797e+001 6.598586e+001 4.516822e+001 4.696126e+001 2.879235e+001 2.669329e+000 2.463164e+000 2.496033e+000 2.573711e+000 3.419287e+000 3.265243e+000 3.102299e+000 3.687264e+000 3.478769e+000 2.825354e+000 2.873757e+000 2.211569e+000 3.608603e+000
<GCONST> 1.083748e+002
<STATE> 4
<MEAN> 25
 -8.985938e-009 3.814864e-008 -2.076542e-007 3.344766e-008 -1.077827e-008 -6.575821e-008 -2.336621e-008 3.773262e-008 2.003809e-008 1.921992e-008 1.478242e-008 1.798574e-008 3.600805e-002 -2.397730e-003 8.129811e-003 -2.221155e-003 1.039155e-002 -1.424094e-003 -6.316496e-004 -7.066861e-003 -1.585887e-002 -7.098205e-003 -5.471149e-003 -6.991659e-003 3.746431e-002
<VARIANCE> 25
 1.382332e+002 5.403470e+001 6.297409e+001 5.268550e+001 6.156908e+001 6.080389e+001 4.641895e+001 6.133797e+001 6.598586e+001 4.516822e+001 4.696126e+001 2.879235e+001 2.669329e+000 2.463164e+000 2.496033e+000 2.573711e+000 3.419287e+000 3.265243e+000 3.102299e+000 3.687264e+000 3.478769e+000 2.825354e+000 2.873757e+000 2.211569e+000 3.608603e+000
<GCONST> 1.083748e+002
<TRANSP> 5
 0.000000e+000 1.000000e+000 0.000000e+000 0.000000e+000 0.000000e+000
 0.000000e+000 6.000000e-001 4.000000e-001 0.000000e+000 0.000000e+000
 0.000000e+000 0.000000e+000 6.000000e-001 4.000000e-001 0.000000e+000
 0.000000e+000 0.000000e+000 0.000000e+000 7.000000e-001 3.000000e-001
 0.000000e+000 0.000000e+000 0.000000e+000 0.000000e+000 0.000000e+000
<ENDHMM>
~h "ey"
<BEGINHMM>
<NUMSTATES> 5
<STATE> 2
<MEAN> 25
 -8.985938e-009 3.814864e-008 -2.076542e-007 3.344766e-008 -1.077827e-008 -6.575821e-008 -2.336621e-008 3.773262e-008 2.003809e-008 1.921992e-008 1.478242e-008 1.798574e-008 3.600805e-002 -2.397730e-003 8.129811e-003 -2.221155e-003 1.039155e-002 -1.424094e-003 -6.316496e-004 -7.066861e-003 -1.585887e-002 -7.098205e-003 -5.471149e-003 -6.991659e-003 3.746431e-002
<VARIANCE> 25
 1.382332e+002 5.403470e+001 6.297409e+001 5.268550e+001 6.156908e+001 6.080389e+001 4.641895e+001 6.133797e+001 6.598586e+001 4.516822e+001 4.696126e+001 2.879235e+001 2.669329e+000 2.463164e+000 2.496033e+000 2.573711e+000 3.419287e+000 3.265243e+000 3.102299e+000 3.687264e+000 3.478769e+000 2.825354e+000 2.873757e+000 2.211569e+000 3.608603e+000
<GCONST> 1.083748e+002
<STATE> 3
<MEAN> 25
 -8.985938e-009 3.814864e-008 -2.076542e-007 3.344766e-008 -1.077827e-008 -6.575821e-008 -2.336621e-008 3.773262e-008 2.003809e-008 1.921992e-008 1.478242e-008 1.798574e-008 3.600805e-002 -2.397730e-003 8.129811e-003 -2.221155e-003 1.039155e-002 -1.424094e-003 -6.316496e-004 -7.066861e-003 -1.585887e-002 -7.098205e-003 -5.471149e-003 -6.991659e-003 3.746431e-002
<VARIANCE> 25
 1.382332e+002 5.403470e+001 6.297409e+001 5.268550e+001 6.156908e+001 6.080389e+001 4.641895e+001 6.133797e+001 6.598586e+001 4.516822e+001 4.696126e+001 2.879235e+001 2.669329e+000 2.463164e+000 2.496033e+000 2.573711e+000 3.419287e+000 3.265243e+000 3.102299e+000 3.687264e+000 3.478769e+000 2.825354e+000 2.873757e+000 2.211569e+000 3.608603e+000
<GCONST> 1.083748e+002
<STATE> 4
<MEAN> 25
 -8.985938e-009 3.814864e-008 -2.076542e-007 3.344766e-008 -1.077827e-008 -6.575821e-008 -2.336621e-008 3.773262e-008 2.003809e-008 1.921992e-008 1.478242e-008 1.798574e-008 3.600805e-002 -2.397730e-003 8.129811e-003 -2.221155e-003 1.039155e-002 -1.424094e-003 -6.316496e-004 -7.066861e-003 -1.585887e-002 -7.098205e-003 -5.471149e-003 -6.991659e-003 3.746431e-002
<VARIANCE> 25
 1.382332e+002 5.403470e+001 6.297409e+001 5.268550e+001 6.156908e+001 6.080389e+001 4.641895e+001 6.133797e+001 6.598586e+001 4.516822e+001 4.696126e+001 2.879235e+001 2.669329e+000 2.463164e+000 2.496033e+000 2.573711e+000 3.419287e+000 3.265243e+000 3.102299e+000 3.687264e+000 3.478769e+000 2.825354e+000 2.873757e+000 2.211569e+000 3.608603e+000
<GCONST> 1.083748e+002
<TRANSP> 5
 0.000000e+000 1.000000e+000 0.000000e+000 0.000000e+000 0.000000e+000
 0.000000e+000 6.000000e-001 4.000000e-001 0.000000e+000 0.000000e+000
 0.000000e+000 0.000000e+000 6.000000e-001 4.000000e-001 0.000000e+000
 0.000000e+000 0.000000e+000 0.000000e+000 7.000000e-001 3.000000e-001
 0.000000e+000 0.000000e+000 0.000000e+000 0.000000e+000 0.000000e+000
<ENDHMM>
~h "dh"
<BEGINHMM>
<NUMSTATES> 5
<STATE> 2
<MEAN> 25
 -8.985938e-009 3.814864e-008 -2.076542e-007 3.344766e-008 -1.077827e-008 -6.575821e-008 -2.336621e-008 3.773262e-008 2.003809e-008 1.921992e-008 1.478242e-008 1.798574e-008 3.600805e-002 -2.397730e-003 8.129811e-003 -2.221155e-003 1.039155e-002 -1.424094e-003 -6.316496e-004 -7.066861e-003 -1.585887e-002 -7.098205e-003 -5.471149e-003 -6.991659e-003 3.746431e-002
<VARIANCE> 25
 1.382332e+002 5.403470e+001 6.297409e+001 5.268550e+001 6.156908e+001 6.080389e+001 4.641895e+001 6.133797e+001 6.598586e+001 4.516822e+001 4.696126e+001 2.879235e+001 2.669329e+000 2.463164e+000 2.496033e+000 2.573711e+000 3.419287e+000 3.265243e+000 3.102299e+000 3.687264e+000 3.478769e+000 2.825354e+000 2.873757e+000 2.211569e+000 3.608603e+000
<GCONST> 1.083748e+002
<STATE> 3
<MEAN> 25
 -8.985938e-009 3.814864e-008 -2.076542e-007 3.344766e-008 -1.077827e-008 -6.575821e-008 -2.336621e-008 3.773262e-008 2.003809e-008 1.921992e-008 1.478242e-008 1.798574e-008 3.600805e-002 -2.397730e-003 8.129811e-003 -2.221155e-003 1.039155e-002 -1.424094e-003 -6.316496e-004 -7.066861e-003 -1.585887e-002 -7.098205e-003 -5.471149e-003 -6.991659e-003 3.746431e-002
<VARIANCE> 25
 1.382332e+002 5.403470e+001 6.297409e+001 5.268550e+001 6.156908e+001 6.080389e+001 4.641895e+001 6.133797e+001 6.598586e+001 4.516822e+001 4.696126e+001 2.879235e+001 2.669329e+000 2.463164e+000 2.496033e+000 2.573711e+000 3.419287e+000 3.265243e+000 3.102299e+000 3.687264e+000 3.478769e+000 2.825354e+000 2.873757e+000 2.211569e+000 3.608603e+000
<GCONST> 1.083748e+002
<STATE> 4
<MEAN> 25
 -8.985938e-009 3.814864e-008 -2.076542e-007 3.344766e-008 -1.077827e-008 -6.575821e-008 -2.336621e-008 3.773262e-008 2.003809e-008 1.921992e-008 1.478242e-008 1.798574e-008 3.600805e-002 -2.397730e-003 8.129811e-003 -2.221155e-003 1.039155e-002 -1.424094e-003 -6.316496e-004 -7.066861e-003 -1.585887e-002 -7.098205e-003 -5.471149e-003 -6.991659e-003 3.746431e-002
<VARIANCE> 25
 1.382332e+002 5.403470e+001 6.297409e+001 5.268550e+001 6.156908e+001 6.080389e+001 4.641895e+001 6.133797e+001 6.598586e+001 4.516822e+001 4.696126e+001 2.879235e+001 2.669329e+000 2.463164e+000 2.496033e+000 2.573711e+000 3.419287e+000 3.265243e+000 3.102299e+000 3.687264e+000 3.478769e+000 2.825354e+000 2.873757e+000 2.211569e+000 3.608603e+000
<GCONST> 1.083748e+002
<TRANSP> 5
 0.000000e+000 1.000000e+000 0.000000e+000 0.000000e+000 0.000000e+000
 0.000000e+000 6.000000e-001 4.000000e-001 0.000000e+000 0.000000e+000
 0.000000e+000 0.000000e+000 6.000000e-001 4.000000e-001 0.000000e+000
 0.000000e+000 0.000000e+000 0.000000e+000 7.000000e-001 3.000000e-001
 0.000000e+000 0.000000e+000 0.000000e+000 0.000000e+000 0.000000e+000
<ENDHMM>
~h "ao"
<BEGINHMM>
<NUMSTATES> 5
<STATE> 2
<MEAN> 25
 -8.985938e-009 3.814864e-008 -2.076542e-007 3.344766e-008 -1.077827e-008 -6.575821e-008 -2.336621e-008 3.773262e-008 2.003809e-008 1.921992e-008 1.478242e-008 1.798574e-008 3.600805e-002 -2.397730e-003 8.129811e-003 -2.221155e-003 1.039155e-002 -1.424094e-003 -6.316496e-004 -7.066861e-003 -1.585887e-002 -7.098205e-003 -5.471149e-003 -6.991659e-003 3.746431e-002
<VARIANCE> 25
 1.382332e+002 5.403470e+001 6.297409e+001 5.268550e+001 6.156908e+001 6.080389e+001 4.641895e+001 6.133797e+001 6.598586e+001 4.516822e+001 4.696126e+001 2.879235e+001 2.669329e+000 2.463164e+000 2.496033e+000 2.573711e+000 3.419287e+000 3.265243e+000 3.102299e+000 3.687264e+000 3.478769e+000 2.825354e+000 2.873757e+000 2.211569e+000 3.608603e+000
<GCONST> 1.083748e+002
<STATE> 3
<MEAN> 25
 -8.985938e-009 3.814864e-008 -2.076542e-007 3.344766e-008 -1.077827e-008 -6.575821e-008 -2.336621e-008 3.773262e-008 2.003809e-008 1.921992e-008 1.478242e-008 1.798574e-008 3.600805e-002 -2.397730e-003 8.129811e-003 -2.221155e-003 1.039155e-002 -1.424094e-003 -6.316496e-004 -7.066861e-003 -1.585887e-002 -7.098205e-003 -5.471149e-003 -6.991659e-003 3.746431e-002
<VARIANCE> 25
 1.382332e+002 5.403470e+001 6.297409e+001 5.268550e+001 6.156908e+001 6.080389e+001 4.641895e+001 6.133797e+001 6.598586e+001 4.516822e+001 4.696126e+001 2.879235e+001 2.669329e+000 2.463164e+000 2.496033e+000 2.573711e+000 3.419287e+000 3.265243e+000 3.102299e+000 3.687264e+000 3.478769e+000 2.825354e+000 2.873757e+000 2.211569e+000 3.608603e+000
<GCONST> 1.083748e+002
<STATE> 4
<MEAN> 25
 -8.985938e-009 3.814864e-008 -2.076542e-007 3.344766e-008 -1.077827e-008 -6.575821e-008 -2.336621e-008 3.773262e-008 2.003809e-008 1.921992e-008 1.478242e-008 1.798574e-008 3.600805e-002 -2.397730e-003 8.129811e-003 -2.221155e-003 1.039155e-002 -1.424094e-003 -6.316496e-004 -7.066861e-003 -1.585887e-002 -7.098205e-003 -5.471149e-003 -6.991659e-003 3.746431e-002
<VARIANCE> 25
 1.382332e+002 5.403470e+001 6.297409e+001 5.268550e+001 6.156908e+001 6.080389e+001 4.641895e+001 6.133797e+001 6.598586e+001 4.516822e+001 4.696126e+001 2.879235e+001 2.669329e+000 2.463164e+000 2.496033e+000 2.573711e+000 3.419287e+000 3.265243e+000 3.102299e+000 3.687264e+000 3.478769e+000 2.825354e+000 2.873757e+000 2.211569e+000 3.608603e+000
<GCONST> 1.083748e+002
<TRANSP> 5
 0.000000e+000 1.000000e+000 0.000000e+000 0.000000e+000 0.000000e+000
 0.000000e+000 6.000000e-001 4.000000e-001 0.000000e+000 0.000000e+000
 0.000000e+000 0.000000e+000 6.000000e-001 4.000000e-001 0.000000e+000
 0.000000e+000 0.000000e+000 0.000000e+000 7.000000e-001 3.000000e-001
 0.000000e+000 0.000000e+000 0.000000e+000 0.000000e+000 0.000000e+000
<ENDHMM>
~h "ay"
<BEGINHMM>
<NUMSTATES> 5
<STATE> 2
<MEAN> 25
 -8.985938e-009 3.814864e-008 -2.076542e-007 3.344766e-008 -1.077827e-008 -6.575821e-008 -2.336621e-008 3.773262e-008 2.003809e-008 1.921992e-008 1.478242e-008 1.798574e-008 3.600805e-002 -2.397730e-003 8.129811e-003 -2.221155e-003 1.039155e-002 -1.424094e-003 -6.316496e-004 -7.066861e-003 -1.585887e-002 -7.098205e-003 -5.471149e-003 -6.991659e-003 3.746431e-002
<VARIANCE> 25
 1.382332e+002 5.403470e+001 6.297409e+001 5.268550e+001 6.156908e+001 6.080389e+001 4.641895e+001 6.133797e+001 6.598586e+001 4.516822e+001 4.696126e+001 2.879235e+001 2.669329e+000 2.463164e+000 2.496033e+000 2.573711e+000 3.419287e+000 3.265243e+000 3.102299e+000 3.687264e+000 3.478769e+000 2.825354e+000 2.873757e+000 2.211569e+000 3.608603e+000
<GCONST> 1.083748e+002
<STATE> 3
<MEAN> 25
 -8.985938e-009 3.814864e-008 -2.076542e-007 3.344766e-008 -1.077827e-008 -6.575821e-008 -2.336621e-008 3.773262e-008 2.003809e-008 1.921992e-008 1.478242e-008 1.798574e-008 3.600805e-002 -2.397730e-003 8.129811e-003 -2.221155e-003 1.039155e-002 -1.424094e-003 -6.316496e-004 -7.066861e-003 -1.585887e-002 -7.098205e-003 -5.471149e-003 -6.991659e-003 3.746431e-002
<VARIANCE> 25
 1.382332e+002 5.403470e+001 6.297409e+001 5.268550e+001 6.156908e+001 6.080389e+001 4.641895e+001 6.133797e+001 6.598586e+001 4.516822e+001 4.696126e+001 2.879235e+001 2.669329e+000 2.463164e+000 2.496033e+000 2.573711e+000 3.419287e+000 3.265243e+000 3.102299e+000 3.687264e+000 3.478769e+000 2.825354e+000 2.873757e+000 2.211569e+000 3.608603e+000
<GCONST> 1.083748e+002
<STATE> 4
<MEAN> 25
 -8.985938e-009 3.814864e-008 -2.076542e-007 3.344766e-008 -1.077827e-008 -6.575821e-008 -2.336621e-008 3.773262e-008 2.003809e-008 1.921992e-008 1.478242e-008 1.798574e-008 3.600805e-002 -2.397730e-003 8.129811e-003 -2.221155e-003 1.039155e-002 -1.424094e-003 -6.316496e-004 -7.066861e-003 -1.585887e-002 -7.098205e-003 -5.471149e-003 -6.991659e-003 3.746431e-002
<VARIANCE> 25
 1.382332e+002 5.403470e+001 6.297409e+001 5.268550e+001 6.156908e+001 6.080389e+001 4.641895e+001 6.133797e+001 6.598586e+001 4.516822e+001 4.696126e+001 2.879235e+001 2.669329e+000 2.463164e+000 2.496033e+000 2.573711e+000 3.419287e+000 3.265243e+000 3.102299e+000 3.687264e+000 3.478769e+000 2.825354e+000 2.873757e+000 2.211569e+000 3.608603e+000
<GCONST> 1.083748e+002
<TRANSP> 5
 0.000000e+000 1.000000e+000 0.000000e+000 0.000000e+000 0.000000e+000
 0.000000e+000 6.000000e-001 4.000000e-001 0.000000e+000 0.000000e+000
 0.000000e+000 0.000000e+000 6.000000e-001 4.000000e-001 0.000000e+000
 0.000000e+000 0.000000e+000 0.000000e+000 7.000000e-001 3.000000e-001
 0.000000e+000 0.000000e+000 0.000000e+000 0.000000e+000 0.000000e+000
<ENDHMM>
~h "zh"
<BEGINHMM>
<NUMSTATES> 5
<STATE> 2
<MEAN> 25
 -8.985938e-009 3.814864e-008 -2.076542e-007 3.344766e-008 -1.077827e-008 -6.575821e-008 -2.336621e-008 3.773262e-008 2.003809e-008 1.921992e-008 1.478242e-008 1.798574e-008 3.600805e-002 -2.397730e-003 8.129811e-003 -2.221155e-003 1.039155e-002 -1.424094e-003 -6.316496e-004 -7.066861e-003 -1.585887e-002 -7.098205e-003 -5.471149e-003 -6.991659e-003 3.746431e-002
<VARIANCE> 25
 1.382332e+002 5.403470e+001 6.297409e+001 5.268550e+001 6.156908e+001 6.080389e+001 4.641895e+001 6.133797e+001 6.598586e+001 4.516822e+001 4.696126e+001 2.879235e+001 2.669329e+000 2.463164e+000 2.496033e+000 2.573711e+000 3.419287e+000 3.265243e+000 3.102299e+000 3.687264e+000 3.478769e+000 2.825354e+000 2.873757e+000 2.211569e+000 3.608603e+000
<GCONST> 1.083748e+002
<STATE> 3
<MEAN> 25
 -8.985938e-009 3.814864e-008 -2.076542e-007 3.344766e-008 -1.077827e-008 -6.575821e-008 -2.336621e-008 3.773262e-008 2.003809e-008 1.921992e-008 1.478242e-008 1.798574e-008 3.600805e-002 -2.397730e-003 8.129811e-003 -2.221155e-003 1.039155e-002 -1.424094e-003 -6.316496e-004 -7.066861e-003 -1.585887e-002 -7.098205e-003 -5.471149e-003 -6.991659e-003 3.746431e-002
<VARIANCE> 25
 1.382332e+002 5.403470e+001 6.297409e+001 5.268550e+001 6.156908e+001 6.080389e+001 4.641895e+001 6.133797e+001 6.598586e+001 4.516822e+001 4.696126e+001 2.879235e+001 2.669329e+000 2.463164e+000 2.496033e+000 2.573711e+000 3.419287e+000 3.265243e+000 3.102299e+000 3.687264e+000 3.478769e+000 2.825354e+000 2.873757e+000 2.211569e+000 3.608603e+000
<GCONST> 1.083748e+002
<STATE> 4
<MEAN> 25
 -8.985938e-009 3.814864e-008 -2.076542e-007 3.344766e-008 -1.077827e-008 -6.575821e-008 -2.336621e-008 3.773262e-008 2.003809e-008 1.921992e-008 1.478242e-008 1.798574e-008 3.600805e-002 -2.397730e-003 8.129811e-003 -2.221155e-003 1.039155e-002 -1.424094e-003 -6.316496e-004 -7.066861e-003 -1.585887e-002 -7.098205e-003 -5.471149e-003 -6.991659e-003 3.746431e-002
<VARIANCE> 25
 1.382332e+002 5.403470e+001 6.297409e+001 5.268550e+001 6.156908e+001 6.080389e+001 4.641895e+001 6.133797e+001 6.598586e+001 4.516822e+001 4.696126e+001 2.879235e+001 2.669329e+000 2.463164e+000 2.496033e+000 2.573711e+000 3.419287e+000 3.265243e+000 3.102299e+000 3.687264e+000 3.478769e+000 2.825354e+000 2.873757e+000 2.211569e+000 3.608603e+000
<GCONST> 1.083748e+002
<TRANSP> 5
 0.000000e+000 1.000000e+000 0.000000e+000 0.000000e+000 0.000000e+000
 0.000000e+000 6.000000e-001 4.000000e-001 0.000000e+000 0.000000e+000
 0.000000e+000 0.000000e+000 6.000000e-001 4.000000e-001 0.000000e+000
 0.000000e+000 0.000000e+000 0.000000e+000 7.000000e-001 3.000000e-001
 0.000000e+000 0.000000e+000 0.000000e+000 0.000000e+000 0.000000e+000
<ENDHMM>
~h "uh"
<BEGINHMM>
<NUMSTATES> 5
<STATE> 2
<MEAN> 25
 -8.985938e-009 3.814864e-008 -2.076542e-007 3.344766e-008 -1.077827e-008 -6.575821e-008 -2.336621e-008 3.773262e-008 2.003809e-008 1.921992e-008 1.478242e-008 1.798574e-008 3.600805e-002 -2.397730e-003 8.129811e-003 -2.221155e-003 1.039155e-002 -1.424094e-003 -6.316496e-004 -7.066861e-003 -1.585887e-002 -7.098205e-003 -5.471149e-003 -6.991659e-003 3.746431e-002
<VARIANCE> 25
 1.382332e+002 5.403470e+001 6.297409e+001 5.268550e+001 6.156908e+001 6.080389e+001 4.641895e+001 6.133797e+001 6.598586e+001 4.516822e+001 4.696126e+001 2.879235e+001 2.669329e+000 2.463164e+000 2.496033e+000 2.573711e+000 3.419287e+000 3.265243e+000 3.102299e+000 3.687264e+000 3.478769e+000 2.825354e+000 2.873757e+000 2.211569e+000 3.608603e+000
<GCONST> 1.083748e+002
<STATE> 3
<MEAN> 25
 -8.985938e-009 3.814864e-008 -2.076542e-007 3.344766e-008 -1.077827e-008 -6.575821e-008 -2.336621e-008 3.773262e-008 2.003809e-008 1.921992e-008 1.478242e-008 1.798574e-008 3.600805e-002 -2.397730e-003 8.129811e-003 -2.221155e-003 1.039155e-002 -1.424094e-003 -6.316496e-004 -7.066861e-003 -1.585887e-002 -7.098205e-003 -5.471149e-003 -6.991659e-003 3.746431e-002
<VARIANCE> 25
 1.382332e+002 5.403470e+001 6.297409e+001 5.268550e+001 6.156908e+001 6.080389e+001 4.641895e+001 6.133797e+001 6.598586e+001 4.516822e+001 4.696126e+001 2.879235e+001 2.669329e+000 2.463164e+000 2.496033e+000 2.573711e+000 3.419287e+000 3.265243e+000 3.102299e+000 3.687264e+000 3.478769e+000 2.825354e+000 2.873757e+000 2.211569e+000 3.608603e+000
<GCONST> 1.083748e+002
<STATE> 4
<MEAN> 25
