~h"ah"
<BEGINHMM>
<NUMSTATES> 5
<STATE> 2
<MEAN> 25
 2.560693e-008 1.018583e-008 -3.255515e-008 1.242919e-008 1.208706e-008 -3.246789e-008 -1.408014e-008 -4.188220e-009 1.710190e-008 5.639402e-009 -8.633612e-010 9.129586e-009 1.534304e-002 -1.120783e-002 2.320645e-003 -1.150569e-002 2.473176e-003 -4.967018e-003 -2.336439e-003 -2.296854e-003 -1.040801e-002 -2.567648e-003 -2.705150e-003 -5.378890e-003 4.135148e-002
<VARIANCE> 25
 1.190384e+002 4.812227e+001 5.910410e+001 5.522232e+001 5.865632e+001 5.289359e+001 4.840873e+001 4.869481e+001 4.995018e+001 3.788008e+001 3.959899e+001 2.469882e+001 2.273300e+000 2.097238e+000 2.094632e+000 2.517218e+000 2.951317e+000 2.821718e+000 2.829959e+000 3.000150e+000 2.901228e+000 2.495291e+000 2.465382e+000 1.941044e+000 2.535352e+000
<GCONST> 1.048854e+002
<STATE> 3
<MEAN> 25
 2.560693e-008 1.018583e-008 -3.255515e-008 1.242919e-008 1.208706e-008 -3.246789e-008 -1.408014e-008 -4.188220e-009 1.710190e-008 5.639402e-009 -8.633612e-010 9.129586e-009 1.534304e-002 -1.120783e-002 2.320645e-003 -1.150569e-002 2.473176e-003 -4.967018e-003 -2.336439e-003 -2.296854e-003 -1.040801e-002 -2.567648e-003 -2.705150e-003 -5.378890e-003 4.135148e-002
<VARIANCE> 25
 1.190384e+002 4.812227e+001 5.910410e+001 5.522232e+001 5.865632e+001 5.289359e+001 4.840873e+001 4.869481e+001 4.995018e+001 3.788008e+001 3.959899e+001 2.469882e+001 2.273300e+000 2.097238e+000 2.094632e+000 2.517218e+000 2.951317e+000 2.821718e+000 2.829959e+000 3.000150e+000 2.901228e+000 2.495291e+000 2.465382e+000 1.941044e+000 2.535352e+000
<GCONST> 1.048854e+002
<STATE> 4
<MEAN> 25
 2.560693e-008 1.018583e-008 -3.255515e-008 1.242919e-008 1.208706e-008 -3.246789e-008 -1.408014e-008 -4.188220e-009 1.710190e-008 5.639402e-009 -8.633612e-010 9.129586e-009 1.534304e-002 -1.120783e-002 2.320645e-003 -1.150569e-002 2.473176e-003 -4.967018e-003 -2.336439e-003 -2.296854e-003 -1.040801e-002 -2.567648e-003 -2.705150e-003 -5.378890e-003 4.135148e-002
<VARIANCE> 25
 1.190384e+002 4.812227e+001 5.910410e+001 5.522232e+001 5.865632e+001 5.289359e+001 4.840873e+001 4.869481e+001 4.995018e+001 3.788008e+001 3.959899e+001 2.469882e+001 2.273300e+000 2.097238e+000 2.094632e+000 2.517218e+000 2.951317e+000 2.821718e+000 2.829959e+000 3.000150e+000 2.901228e+000 2.495291e+000 2.465382e+000 1.941044e+000 2.535352e+000
<GCONST> 1.048854e+002
<TRANSP> 5
 0.000000e+000 1.000000e+000 0.000000e+000 0.000000e+000 0.000000e+000
 0.000000e+000 6.000000e-001 4.000000e-001 0.000000e+000 0.000000e+000
 0.000000e+000 0.000000e+000 6.000000e-001 4.000000e-001 0.000000e+000
 0.000000e+000 0.000000e+000 0.000000e+000 7.000000e-001 3.000000e-001
 0.000000e+000 0.000000e+000 0.000000e+000 0.000000e+000 0.000000e+000
<ENDHMM>
~h"f"
<BEGINHMM>
<NUMSTATES> 5
<STATE> 2
<MEAN> 25
 2.560693e-008 1.018583e-008 -3.255515e-008 1.242919e-008 1.208706e-008 -3.246789e-008 -1.408014e-008 -4.188220e-009 1.710190e-008 5.639402e-009 -8.633612e-010 9.129586e-009 1.534304e-002 -1.120783e-002 2.320645e-003 -1.150569e-002 2.473176e-003 -4.967018e-003 -2.336439e-003 -2.296854e-003 -1.040801e-002 -2.567648e-003 -2.705150e-003 -5.378890e-003 4.135148e-002
<VARIANCE> 25
 1.190384e+002 4.812227e+001 5.910410e+001 5.522232e+001 5.865632e+001 5.289359e+001 4.840873e+001 4.869481e+001 4.995018e+001 3.788008e+001 3.959899e+001 2.469882e+001 2.273300e+000 2.097238e+000 2.094632e+000 2.517218e+000 2.951317e+000 2.821718e+000 2.829959e+000 3.000150e+000 2.901228e+000 2.495291e+000 2.465382e+000 1.941044e+000 2.535352e+000
<GCONST> 1.048854e+002
<STATE> 3
<MEAN> 25
 2.560693e-008 1.018583e-008 -3.255515e-008 1.242919e-008 1.208706e-008 -3.246789e-008 -1.408014e-008 -4.188220e-009 1.710190e-008 5.639402e-009 -8.633612e-010 9.129586e-009 1.534304e-002 -1.120783e-002 2.320645e-003 -1.150569e-002 2.473176e-003 -4.967018e-003 -2.336439e-003 -2.296854e-003 -1.040801e-002 -2.567648e-003 -2.705150e-003 -5.378890e-003 4.135148e-002
<VARIANCE> 25
 1.190384e+002 4.812227e+001 5.910410e+001 5.522232e+001 5.865632e+001 5.289359e+001 4.840873e+001 4.869481e+001 4.995018e+001 3.788008e+001 3.959899e+001 2.469882e+001 2.273300e+000 2.097238e+000 2.094632e+000 2.517218e+000 2.951317e+000 2.821718e+000 2.829959e+000 3.000150e+000 2.901228e+000 2.495291e+000 2.465382e+000 1.941044e+000 2.535352e+000
<GCONST> 1.048854e+002
<STATE> 4
<MEAN> 25
 2.560693e-008 1.018583e-008 -3.255515e-008 1.242919e-008 1.208706e-008 -3.246789e-008 -1.408014e-008 -4.188220e-009 1.710190e-008 5.639402e-009 -8.633612e-010 9.129586e-009 1.534304e-002 -1.120783e-002 2.320645e-003 -1.150569e-002 2.473176e-003 -4.967018e-003 -2.336439e-003 -2.296854e-003 -1.040801e-002 -2.567648e-003 -2.705150e-003 -5.378890e-003 4.135148e-002
<VARIANCE> 25
 1.190384e+002 4.812227e+001 5.910410e+001 5.522232e+001 5.865632e+001 5.289359e+001 4.840873e+001 4.869481e+001 4.995018e+001 3.788008e+001 3.959899e+001 2.469882e+001 2.273300e+000 2.097238e+000 2.094632e+000 2.517218e+000 2.951317e+000 2.821718e+000 2.829959e+000 3.000150e+000 2.901228e+000 2.495291e+000 2.465382e+000 1.941044e+000 2.535352e+000
<GCONST> 1.048854e+002
<TRANSP> 5
 0.000000e+000 1.000000e+000 0.000000e+000 0.000000e+000 0.000000e+000
 0.000000e+000 6.000000e-001 4.000000e-001 0.000000e+000 0.000000e+000
 0.000000e+000 0.000000e+000 6.000000e-001 4.000000e-001 0.000000e+000
 0.000000e+000 0.000000e+000 0.000000e+000 7.000000e-001 3.000000e-001
 0.000000e+000 0.000000e+000 0.000000e+000 0.000000e+000 0.000000e+000
<ENDHMM>
~h"uh"
<BEGINHMM>
<NUMSTATES> 5
<STATE> 2
<MEAN> 25
 2.560693e-008 1.018583e-008 -3.255515e-008 1.242919e-008 1.208706e-008 -3.246789e-008 -1.408014e-008 -4.188220e-009 1.710190e-008 5.639402e-009 -8.633612e-010 9.129586e-009 1.534304e-002 -1.120783e-002 2.320645e-003 -1.150569e-002 2.473176e-003 -4.967018e-003 -2.336439e-003 -2.296854e-003 -1.040801e-002 -2.567648e-003 -2.705150e-003 -5.378890e-003 4.135148e-002
<VARIANCE> 25
 1.190384e+002 4.812227e+001 5.910410e+001 5.522232e+001 5.865632e+001 5.289359e+001 4.840873e+001 4.869481e+001 4.995018e+001 3.788008e+001 3.959899e+001 2.469882e+001 2.273300e+000 2.097238e+000 2.094632e+000 2.517218e+000 2.951317e+000 2.821718e+000 2.829959e+000 3.000150e+000 2.901228e+000 2.495291e+000 2.465382e+000 1.941044e+000 2.535352e+000
<GCONST> 1.048854e+002
<STATE> 3
<MEAN> 25
 2.560693e-008 1.018583e-008 -3.255515e-008 1.242919e-008 1.208706e-008 -3.246789e-008 -1.408014e-008 -4.188220e-009 1.710190e-008 5.639402e-009 -8.633612e-010 9.129586e-009 1.534304e-002 -1.120783e-002 2.320645e-003 -1.150569e-002 2.473176e-003 -4.967018e-003 -2.336439e-003 -2.296854e-003 -1.040801e-002 -2.567648e-003 -2.705150e-003 -5.378890e-003 4.135148e-002
<VARIANCE> 25
 1.190384e+002 4.812227e+001 5.910410e+001 5.522232e+001 5.865632e+001 5.289359e+001 4.840873e+001 4.869481e+001 4.995018e+001 3.788008e+001 3.959899e+001 2.469882e+001 2.273300e+000 2.097238e+000 2.094632e+000 2.517218e+000 2.951317e+000 2.821718e+000 2.829959e+000 3.000150e+000 2.901228e+000 2.495291e+000 2.465382e+000 1.941044e+000 2.535352e+000
<GCONST> 1.048854e+002
<STATE> 4
<MEAN> 25
 2.560693e-008 1.018583e-008 -3.255515e-008 1.242919e-008 1.208706e-008 -3.246789e-008 -1.408014e-008 -4.188220e-009 1.710190e-008 5.639402e-009 -8.633612e-010 9.129586e-009 1.534304e-002 -1.120783e-002 2.320645e-003 -1.150569e-002 2.473176e-003 -4.967018e-003 -2.336439e-003 -2.296854e-003 -1.040801e-002 -2.567648e-003 -2.705150e-003 -5.378890e-003 4.135148e-002
<VARIANCE> 25
 1.190384e+002 4.812227e+001 5.910410e+001 5.522232e+001 5.865632e+001 5.289359e+001 4.840873e+001 4.869481e+001 4.995018e+001 3.788008e+001 3.959899e+001 2.469882e+001 2.273300e+000 2.097238e+000 2.094632e+000 2.517218e+000 2.951317e+000 2.821718e+000 2.829959e+000 3.000150e+000 2.901228e+000 2.495291e+000 2.465382e+000 1.941044e+000 2.535352e+000
<GCONST> 1.048854e+002
<TRANSP> 5
 0.000000e+000 1.000000e+000 0.000000e+000 0.000000e+000 0.000000e+000
 0.000000e+000 6.000000e-001 4.000000e-001 0.000000e+000 0.000000e+000
 0.000000e+000 0.000000e+000 6.000000e-001 4.000000e-001 0.000000e+000
 0.000000e+000 0.000000e+000 0.000000e+000 7.000000e-001 3.000000e-001
 0.000000e+000 0.000000e+000 0.000000e+000 0.000000e+000 0.000000e+000
<ENDHMM>
~h"t"
<BEGINHMM>
<NUMSTATES> 5
<STATE> 2
<MEAN> 25
 2.560693e-008 1.018583e-008 -3.255515e-008 1.242919e-008 1.208706e-008 -3.246789e-008 -1.408014e-008 -4.188220e-009 1.710190e-008 5.639402e-009 -8.633612e-010 9.129586e-009 1.534304e-002 -1.120783e-002 2.320645e-003 -1.150569e-002 2.473176e-003 -4.967018e-003 -2.336439e-003 -2.296854e-003 -1.040801e-002 -2.567648e-003 -2.705150e-003 -5.378890e-003 4.135148e-002
<VARIANCE> 25
 1.190384e+002 4.812227e+001 5.910410e+001 5.522232e+001 5.865632e+001 5.289359e+001 4.840873e+001 4.869481e+001 4.995018e+001 3.788008e+001 3.959899e+001 2.469882e+001 2.273300e+000 2.097238e+000 2.094632e+000 2.517218e+000 2.951317e+000 2.821718e+000 2.829959e+000 3.000150e+000 2.901228e+000 2.495291e+000 2.465382e+000 1.941044e+000 2.535352e+000
<GCONST> 1.048854e+002
<STATE> 3
<MEAN> 25
 2.560693e-008 1.018583e-008 -3.255515e-008 1.242919e-008 1.208706e-008 -3.246789e-008 -1.408014e-008 -4.188220e-009 1.710190e-008 5.639402e-009 -8.633612e-010 9.129586e-009 1.534304e-002 -1.120783e-002 2.320645e-003 -1.150569e-002 2.473176e-003 -4.967018e-003 -2.336439e-003 -2.296854e-003 -1.040801e-002 -2.567648e-003 -2.705150e-003 -5.378890e-003 4.135148e-002
<VARIANCE> 25
 1.190384e+002 4.812227e+001 5.910410e+001 5.522232e+001 5.865632e+001 5.289359e+001 4.840873e+001 4.869481e+001 4.995018e+001 3.788008e+001 3.959899e+001 2.469882e+001 2.273300e+000 2.097238e+000 2.094632e+000 2.517218e+000 2.951317e+000 2.821718e+000 2.829959e+000 3.000150e+000 2.901228e+000 2.495291e+000 2.465382e+000 1.941044e+000 2.535352e+000
<GCONST> 1.048854e+002
<STATE> 4
<MEAN> 25
 2.560693e-008 1.018583e-008 -3.255515e-008 1.242919e-008 1.208706e-008 -3.246789e-008 -1.408014e-008 -4.188220e-009 1.710190e-008 5.639402e-009 -8.633612e-010 9.129586e-009 1.534304e-002 -1.120783e-002 2.320645e-003 -1.150569e-002 2.473176e-003 -4.967018e-003 -2.336439e-003 -2.296854e-003 -1.040801e-002 -2.567648e-003 -2.705150e-003 -5.378890e-003 4.135148e-002
<VARIANCE> 25
 1.190384e+002 4.812227e+001 5.910410e+001 5.522232e+001 5.865632e+001 5.289359e+001 4.840873e+001 4.869481e+001 4.995018e+001 3.788008e+001 3.959899e+001 2.469882e+001 2.273300e+000 2.097238e+000 2.094632e+000 2.517218e+000 2.951317e+000 2.821718e+000 2.829959e+000 3.000150e+000 2.901228e+000 2.495291e+000 2.465382e+000 1.941044e+000 2.535352e+000
<GCONST> 1.048854e+002
<TRANSP> 5
 0.000000e+000 1.000000e+000 0.000000e+000 0.000000e+000 0.000000e+000
 0.000000e+000 6.000000e-001 4.000000e-001 0.000000e+000 0.000000e+000
 0.000000e+000 0.000000e+000 6.000000e-001 4.000000e-001 0.000000e+000
 0.000000e+000 0.000000e+000 0.000000e+000 7.000000e-001 3.000000e-001
 0.000000e+000 0.000000e+000 0.000000e+000 0.000000e+000 0.000000e+000
<ENDHMM>
~h"ae"
<BEGINHMM>
<NUMSTATES> 5
<STATE> 2
<MEAN> 25
 2.560693e-008 1.018583e-008 -3.255515e-008 1.242919e-008 1.208706e-008 -3.246789e-008 -1.408014e-008 -4.188220e-009 1.710190e-008 5.639402e-009 -8.633612e-010 9.129586e-009 1.534304e-002 -1.120783e-002 2.320645e-003 -1.150569e-002 2.473176e-003 -4.967018e-003 -2.336439e-003 -2.296854e-003 -1.040801e-002 -2.567648e-003 -2.705150e-003 -5.378890e-003 4.135148e-002
<VARIANCE> 25
 1.190384e+002 4.812227e+001 5.910410e+001 5.522232e+001 5.865632e+001 5.289359e+001 4.840873e+001 4.869481e+001 4.995018e+001 3.788008e+001 3.959899e+001 2.469882e+001 2.273300e+000 2.097238e+000 2.094632e+000 2.517218e+000 2.951317e+000 2.821718e+000 2.829959e+000 3.000150e+000 2.901228e+000 2.495291e+000 2.465382e+000 1.941044e+000 2.535352e+000
<GCONST> 1.048854e+002
<STATE> 3
<MEAN> 25
 2.560693e-008 1.018583e-008 -3.255515e-008 1.242919e-008 1.208706e-008 -3.246789e-008 -1.408014e-008 -4.188220e-009 1.710190e-008 5.639402e-009 -8.633612e-010 9.129586e-009 1.534304e-002 -1.120783e-002 2.320645e-003 -1.150569e-002 2.473176e-003 -4.967018e-003 -2.336439e-003 -2.296854e-003 -1.040801e-002 -2.567648e-003 -2.705150e-003 -5.378890e-003 4.135148e-002
<VARIANCE> 25
 1.190384e+002 4.812227e+001 5.910410e+001 5.522232e+001 5.865632e+001 5.289359e+001 4.840873e+001 4.869481e+001 4.995018e+001 3.788008e+001 3.959899e+001 2.469882e+001 2.273300e+000 2.097238e+000 2.094632e+000 2.517218e+000 2.951317e+000 2.821718e+000 2.829959e+000 3.000150e+000 2.901228e+000 2.495291e+000 2.465382e+000 1.941044e+000 2.535352e+000
<GCONST> 1.048854e+002
<STATE> 4
<MEAN> 25
 2.560693e-008 1.018583e-008 -3.255515e-008 1.242919e-008 1.208706e-008 -3.246789e-008 -1.408014e-008 -4.188220e-009 1.710190e-008 5.639402e-009 -8.633612e-010 9.129586e-009 1.534304e-002 -1.120783e-002 2.320645e-003 -1.150569e-002 2.473176e-003 -4.967018e-003 -2.336439e-003 -2.296854e-003 -1.040801e-002 -2.567648e-003 -2.705150e-003 -5.378890e-003 4.135148e-002
<VARIANCE> 25
 1.190384e+002 4.812227e+001 5.910410e+001 5.522232e+001 5.865632e+001 5.289359e+001 4.840873e+001 4.869481e+001 4.995018e+001 3.788008e+001 3.959899e+001 2.469882e+001 2.273300e+000 2.097238e+000 2.094632e+000 2.517218e+000 2.951317e+000 2.821718e+000 2.829959e+000 3.000150e+000 2.901228e+000 2.495291e+000 2.465382e+000 1.941044e+000 2.535352e+000
<GCONST> 1.048854e+002
<TRANSP> 5
 0.000000e+000 1.000000e+000 0.000000e+000 0.000000e+000 0.000000e+000
 0.000000e+000 6.000000e-001 4.000000e-001 0.000000e+000 0.000000e+000
 0.000000e+000 0.000000e+000 6.000000e-001 4.000000e-001 0.000000e+000
 0.000000e+000 0.000000e+000 0.000000e+000 7.000000e-001 3.000000e-001
 0.000000e+000 0.000000e+000 0.000000e+000 0.000000e+000 0.000000e+000
<ENDHMM>
~h"er"
<BEGINHMM>
<NUMSTATES> 5
<STATE> 2
<MEAN> 25
 2.560693e-008 1.018583e-008 -3.255515e-008 1.242919e-008 1.208706e-008 -3.246789e-008 -1.408014e-008 -4.188220e-009 1.710190e-008 5.639402e-009 -8.633612e-010 9.129586e-009 1.534304e-002 -1.120783e-002 2.320645e-003 -1.150569e-002 2.473176e-003 -4.967018e-003 -2.336439e-003 -2.296854e-003 -1.040801e-002 -2.567648e-003 -2.705150e-003 -5.378890e-003 4.135148e-002
<VARIANCE> 25
 1.190384e+002 4.812227e+001 5.910410e+001 5.522232e+001 5.865632e+001 5.289359e+001 4.840873e+001 4.869481e+001 4.995018e+001 3.788008e+001 3.959899e+001 2.469882e+001 2.273300e+000 2.097238e+000 2.094632e+000 2.517218e+000 2.951317e+000 2.821718e+000 2.829959e+000 3.000150e+000 2.901228e+000 2.495291e+000 2.465382e+000 1.941044e+000 2.535352e+000
<GCONST> 1.048854e+002
<STATE> 3
<MEAN> 25
 2.560693e-008 1.018583e-008 -3.255515e-008 1.242919e-008 1.208706e-008 -3.246789e-008 -1.408014e-008 -4.188220e-009 1.710190e-008 5.639402e-009 -8.633612e-010 9.129586e-009 1.534304e-002 -1.120783e-002 2.320645e-003 -1.150569e-002 2.473176e-003 -4.967018e-003 -2.336439e-003 -2.296854e-003 -1.040801e-002 -2.567648e-003 -2.705150e-003 -5.378890e-003 4.135148e-002
<VARIANCE> 25
 1.190384e+002 4.812227e+001 5.910410e+001 5.522232e+001 5.865632e+001 5.289359e+001 4.840873e+001 4.869481e+001 4.995018e+001 3.788008e+001 3.959899e+001 2.469882e+001 2.273300e+000 2.097238e+000 2.094632e+000 2.517218e+000 2.951317e+000 2.821718e+000 2.829959e+000 3.000150e+000 2.901228e+000 2.495291e+000 2.465382e+000 1.941044e+000 2.535352e+000
<GCONST> 1.048854e+002
<STATE> 4
<MEAN> 25
 2.560693e-008 1.018583e-008 -3.255515e-008 1.242919e-008 1.208706e-008 -3.246789e-008 -1.408014e-008 -4.188220e-009 1.710190e-008 5.639402e-009 -8.633612e-010 9.129586e-009 1.534304e-002 -1.120783e-002 2.320645e-003 -1.150569e-002 2.473176e-003 -4.967018e-003 -2.336439e-003 -2.296854e-003 -1.040801e-002 -2.567648e-003 -2.705150e-003 -5.378890e-003 4.135148e-002
<VARIANCE> 25
 1.190384e+002 4.812227e+001 5.910410e+001 5.522232e+001 5.865632e+001 5.289359e+001 4.840873e+001 4.869481e+001 4.995018e+001 3.788008e+001 3.959899e+001 2.469882e+001 2.273300e+000 2.097238e+000 2.094632e+000 2.517218e+000 2.951317e+000 2.821718e+000 2.829959e+000 3.000150e+000 2.901228e+000 2.495291e+000 2.465382e+000 1.941044e+000 2.535352e+000
<GCONST> 1.048854e+002
<TRANSP> 5
 0.000000e+000 1.000000e+000 0.000000e+000 0.000000e+000 0.000000e+000
 0.000000e+000 6.000000e-001 4.000000e-001 0.000000e+000 0.000000e+000
 0.000000e+000 0.000000e+000 6.000000e-001 4.000000e-001 0.000000e+000
 0.000000e+000 0.000000e+000 0.000000e+000 7.000000e-001 3.000000e-001
 0.000000e+000 0.000000e+000 0.000000e+000 0.000000e+000 0.000000e+000
<ENDHMM>
~h"n"
<BEGINHMM>
<NUMSTATES> 5
<STATE> 2
<MEAN> 25
 2.560693e-008 1.018583e-008 -3.255515e-008 1.242919e-008 1.208706e-008 -3.246789e-008 -1.408014e-008 -4.188220e-009 1.710190e-008 5.639402e-009 -8.633612e-010 9.129586e-009 1.534304e-002 -1.120783e-002 2.320645e-003 -1.150569e-002 2.473176e-003 -4.967018e-003 -2.336439e-003 -2.296854e-003 -1.040801e-002 -2.567648e-003 -2.705150e-003 -5.378890e-003 4.135148e-002
<VARIANCE> 25
 1.190384e+002 4.812227e+001 5.910410e+001 5.522232e+001 5.865632e+001 5.289359e+001 4.840873e+001 4.869481e+001 4.995018e+001 3.788008e+001 3.959899e+001 2.469882e+001 2.273300e+000 2.097238e+000 2.094632e+000 2.517218e+000 2.951317e+000 2.821718e+000 2.829959e+000 3.000150e+000 2.901228e+000 2.495291e+000 2.465382e+000 1.941044e+000 2.535352e+000
<GCONST> 1.048854e+002
<STATE> 3
<MEAN> 25
 2.560693e-008 1.018583e-008 -3.255515e-008 1.242919e-008 1.208706e-008 -3.246789e-008 -1.408014e-008 -4.188220e-009 1.710190e-008 5.639402e-009 -8.633612e-010 9.129586e-009 1.534304e-002 -1.120783e-002 2.320645e-003 -1.150569e-002 2.473176e-003 -4.967018e-003 -2.336439e-003 -2.296854e-003 -1.040801e-002 -2.567648e-003 -2.705150e-003 -5.378890e-003 4.135148e-002
<VARIANCE> 25
 1.190384e+002 4.812227e+001 5.910410e+001 5.522232e+001 5.865632e+001 5.289359e+001 4.840873e+001 4.869481e+001 4.995018e+001 3.788008e+001 3.959899e+001 2.469882e+001 2.273300e+000 2.097238e+000 2.094632e+000 2.517218e+000 2.951317e+000 2.821718e+000 2.829959e+000 3.000150e+000 2.901228e+000 2.495291e+000 2.465382e+000 1.941044e+000 2.535352e+000
<GCONST> 1.048854e+002
<STATE> 4
<MEAN> 25
 2.560693e-008 1.018583e-008 -3.255515e-008 1.242919e-008 1.208706e-008 -3.246789e-008 -1.408014e-008 -4.188220e-009 1.710190e-008 5.639402e-009 -8.633612e-010 9.129586e-009 1.534304e-002 -1.120783e-002 2.320645e-003 -1.150569e-002 2.473176e-003 -4.967018e-003 -2.336439e-003 -2.296854e-003 -1.040801e-002 -2.567648e-003 -2.705150e-003 -5.378890e-003 4.135148e-002
<VARIANCE> 25
 1.190384e+002 4.812227e+001 5.910410e+001 5.522232e+001 5.865632e+001 5.289359e+001 4.840873e+001 4.869481e+001 4.995018e+001 3.788008e+001 3.959899e+001 2.469882e+001 2.273300e+000 2.097238e+000 2.094632e+000 2.517218e+000 2.951317e+000 2.821718e+000 2.829959e+000 3.000150e+000 2.901228e+000 2.495291e+000 2.465382e+000 1.941044e+000 2.535352e+000
<GCONST> 1.048854e+002
<TRANSP> 5
 0.000000e+000 1.000000e+000 0.000000e+000 0.000000e+000 0.000000e+000
 0.000000e+000 6.000000e-001 4.000000e-001 0.000000e+000 0.000000e+000
 0.000000e+000 0.000000e+000 6.000000e-001 4.000000e-001 0.000000e+000
 0.000000e+000 0.000000e+000 0.000000e+000 7.000000e-001 3.000000e-001
 0.000000e+000 0.000000e+000 0.000000e+000 0.000000e+000 0.000000e+000
<ENDHMM>
~h"uw"
<BEGINHMM>
<NUMSTATES> 5
<STATE> 2
<MEAN> 25
 2.560693e-008 1.018583e-008 -3.255515e-008 1.242919e-008 1.208706e-008 -3.246789e-008 -1.408014e-008 -4.188220e-009 1.710190e-008 5.639402e-009 -8.633612e-010 9.129586e-009 1.534304e-002 -1.120783e-002 2.320645e-003 -1.150569e-002 2.473176e-003 -4.967018e-003 -2.336439e-003 -2.296854e-003 -1.040801e-002 -2.567648e-003 -2.705150e-003 -5.378890e-003 4.135148e-002
<VARIANCE> 25
 1.190384e+002 4.812227e+001 5.910410e+001 5.522232e+001 5.865632e+001 5.289359e+001 4.840873e+001 4.869481e+001 4.995018e+001 3.788008e+001 3.959899e+001 2.469882e+001 2.273300e+000 2.097238e+000 2.094632e+000 2.517218e+000 2.951317e+000 2.821718e+000 2.829959e+000 3.000150e+000 2.901228e+000 2.495291e+000 2.465382e+000 1.941044e+000 2.535352e+000
<GCONST> 1.048854e+002
<STATE> 3
<MEAN> 25
 2.560693e-008 1.018583e-008 -3.255515e-008 1.242919e-008 1.208706e-008 -3.246789e-008 -1.408014e-008 -4.188220e-009 1.710190e-008 5.639402e-009 -8.633612e-010 9.129586e-009 1.534304e-002 -1.120783e-002 2.320645e-003 -1.150569e-002 2.473176e-003 -4.967018e-003 -2.336439e-003 -2.296854e-003 -1.040801e-002 -2.567648e-003 -2.705150e-003 -5.378890e-003 4.135148e-002
<VARIANCE> 25
 1.190384e+002 4.812227e+001 5.910410e+001 5.522232e+001 5.865632e+001 5.289359e+001 4.840873e+001 4.869481e+001 4.995018e+001 3.788008e+001 3.959899e+001 2.469882e+001 2.273300e+000 2.097238e+000 2.094632e+000 2.517218e+000 2.951317e+000 2.821718e+000 2.829959e+000 3.000150e+000 2.901228e+000 2.495291e+000 2.465382e+000 1.941044e+000 2.535352e+000
<GCONST> 1.048854e+002
<STATE> 4
<MEAN> 25
 2.560693e-008 1.018583e-008 -3.255515e-008 1.242919e-008 1.208706e-008 -3.246789e-008 -1.408014e-008 -4.188220e-009 1.710190e-008 5.639402e-009 -8.633612e-010 9.129586e-009 1.534304e-002 -1.120783e-002 2.320645e-003 -1.150569e-002 2.473176e-003 -4.967018e-003 -2.336439e-003 -2.296854e-003 -1.040801e-002 -2.567648e-003 -2.705150e-003 -5.378890e-003 4.135148e-002
<VARIANCE> 25
 1.190384e+002 4.812227e+001 5.910410e+001 5.522232e+001 5.865632e+001 5.289359e+001 4.840873e+001 4.869481e+001 4.995018e+001 3.788008e+001 3.959899e+001 2.469882e+001 2.273300e+000 2.097238e+000 2.094632e+000 2.517218e+000 2.951317e+000 2.821718e+000 2.829959e+000 3.000150e+000 2.901228e+000 2.495291e+000 2.465382e+000 1.941044e+000 2.535352e+000
<GCONST> 1.048854e+002
<TRANSP> 5
 0.000000e+000 1.000000e+000 0.000000e+000 0.000000e+000 0.000000e+000
 0.000000e+000 6.000000e-001 4.000000e-001 0.000000e+000 0.000000e+000
 0.000000e+000 0.000000e+000 6.000000e-001 4.000000e-001 0.000000e+000
 0.000000e+000 0.000000e+000 0.000000e+000 7.000000e-001 3.000000e-001
 0.000000e+000 0.000000e+000 0.000000e+000 0.000000e+000 0.000000e+000
<ENDHMM>
~h"m"
<BEGINHMM>
<NUMSTATES> 5
<STATE> 2
<MEAN> 25
 2.560693e-008 1.018583e-008 -3.255515e-008 1.242919e-008 1.208706e-008 -3.246789e-008 -1.408014e-008 -4.188220e-009 1.710190e-008 5.639402e-009 -8.633612e-010 9.129586e-009 1.534304e-002 -1.120783e-002 2.320645e-003 -1.150569e-002 2.473176e-003 -4.967018e-003 -2.336439e-003 -2.296854e-003 -1.040801e-002 -2.567648e-003 -2.705150e-003 -5.378890e-003 4.135148e-002
<VARIANCE> 25
 1.190384e+002 4.812227e+001 5.910410e+001 5.522232e+001 5.865632e+001 5.289359e+001 4.840873e+001 4.869481e+001 4.995018e+001 3.788008e+001 3.959899e+001 2.469882e+001 2.273300e+000 2.097238e+000 2.094632e+000 2.517218e+000 2.951317e+000 2.821718e+000 2.829959e+000 3.000150e+000 2.901228e+000 2.495291e+000 2.465382e+000 1.941044e+000 2.535352e+000
<GCONST> 1.048854e+002
<STATE> 3
<MEAN> 25
 2.560693e-008 1.018583e-008 -3.255515e-008 1.242919e-008 1.208706e-008 -3.246789e-008 -1.408014e-008 -4.188220e-009 1.710190e-008 5.639402e-009 -8.633612e-010 9.129586e-009 1.534304e-002 -1.120783e-002 2.320645e-003 -1.150569e-002 2.473176e-003 -4.967018e-003 -2.336439e-003 -2.296854e-003 -1.040801e-002 -2.567648e-003 -2.705150e-003 -5.378890e-003 4.135148e-002
<VARIANCE> 25
 1.190384e+002 4.812227e+001 5.910410e+001 5.522232e+001 5.865632e+001 5.289359e+001 4.840873e+001 4.869481e+001 4.995018e+001 3.788008e+001 3.959899e+001 2.469882e+001 2.273300e+000 2.097238e+000 2.094632e+000 2.517218e+000 2.951317e+000 2.821718e+000 2.829959e+000 3.000150e+000 2.901228e+000 2.495291e+000 2.465382e+000 1.941044e+000 2.535352e+000
<GCONST> 1.048854e+002
<STATE> 4
<MEAN> 25
 2.560693e-008 1.018583e-008 -3.255515e-008 1.242919e-008 1.208706e-008 -3.246789e-008 -1.408014e-008 -4.188220e-009 1.710190e-008 5.639402e-009 -8.633612e-010 9.129586e-009 1.534304e-002 -1.120783e-002 2.320645e-003 -1.150569e-002 2.473176e-003 -4.967018e-003 -2.336439e-003 -2.296854e-003 -1.040801e-002 -2.567648e-003 -2.705150e-003 -5.378890e-003 4.135148e-002
<VARIANCE> 25
 1.190384e+002 4.812227e+001 5.910410e+001 5.522232e+001 5.865632e+001 5.289359e+001 4.840873e+001 4.869481e+001 4.995018e+001 3.788008e+001 3.959899e+001 2.469882e+001 2.273300e+000 2.097238e+000 2.094632e+000 2.517218e+000 2.951317e+000 2.821718e+000 2.829959e+000 3.000150e+000 2.901228e+000 2.495291e+000 2.465382e+000 1.941044e+000 2.535352e+000
<GCONST> 1.048854e+002
<TRANSP> 5
 0.000000e+000 1.000000e+000 0.000000e+000 0.000000e+000 0.000000e+000
 0.000000e+000 6.000000e-001 4.000000e-001 0.000000e+000 0.000000e+000
 0.000000e+000 0.000000e+000 6.000000e-001 4.000000e-001 0.000000e+000
 0.000000e+000 0.000000e+000 0.000000e+000 7.000000e-001 3.000000e-001
 0.000000e+000 0.000000e+000 0.000000e+000 0.000000e+000 0.000000e+000
<ENDHMM>
~h"eh"
<BEGINHMM>
<NUMSTATES> 5
<STATE> 2
<MEAN> 25
 2.560693e-008 1.018583e-008 -3.255515e-008 1.242919e-008 1.208706e-008 -3.246789e-008 -1.408014e-008 -4.188220e-009 1.710190e-008 5.639402e-009 -8.633612e-010 9.129586e-009 1.534304e-002 -1.120783e-002 2.320645e-003 -1.150569e-002 2.473176e-003 -4.967018e-003 -2.336439e-003 -2.296854e-003 -1.040801e-002 -2.567648e-003 -2.705150e-003 -5.378890e-003 4.135148e-002
<VARIANCE> 25
 1.190384e+002 4.812227e+001 5.910410e+001 5.522232e+001 5.865632e+001 5.289359e+001 4.840873e+001 4.869481e+001 4.995018e+001 3.788008e+001 3.959899e+001 2.469882e+001 2.273300e+000 2.097238e+000 2.094632e+000 2.517218e+000 2.951317e+000 2.821718e+000 2.829959e+000 3.000150e+000 2.901228e+000 2.495291e+000 2.465382e+000 1.941044e+000 2.535352e+000
<GCONST> 1.048854e+002
<STATE> 3
<MEAN> 25
 2.560693e-008 1.018583e-008 -3.255515e-008 1.242919e-008 1.208706e-008 -3.246789e-008 -1.408014e-008 -4.188220e-009 1.710190e-008 5.639402e-009 -8.633612e-010 9.129586e-009 1.534304e-002 -1.120783e-002 2.320645e-003 -1.150569e-002 2.473176e-003 -4.967018e-003 -2.336439e-003 -2.296854e-003 -1.040801e-002 -2.567648e-003 -2.705150e-003 -5.378890e-003 4.135148e-002
<VARIANCE> 25
 1.190384e+002 4.812227e+001 5.910410e+001 5.522232e+001 5.865632e+001 5.289359e+001 4.840873e+001 4.869481e+001 4.995018e+001 3.788008e+001 3.959899e+001 2.469882e+001 2.273300e+000 2.097238e+000 2.094632e+000 2.517218e+000 2.951317e+000 2.821718e+000 2.829959e+000 3.000150e+000 2.901228e+000 2.495291e+000 2.465382e+000 1.941044e+000 2.535352e+000
<GCONST> 1.048854e+002
<STATE> 4
<MEAN> 25
 2.560693e-008 1.018583e-008 -3.255515e-008 1.242919e-008 1.208706e-008 -3.246789e-008 -1.408014e-008 -4.188220e-009 1.710190e-008 5.639402e-009 -8.633612e-010 9.129586e-009 1.534304e-002 -1.120783e-002 2.320645e-003 -1.150569e-002 2.473176e-003 -4.967018e-003 -2.336439e-003 -2.296854e-003 -1.040801e-002 -2.567648e-003 -2.705150e-003 -5.378890e-003 4.135148e-002
<VARIANCE> 25
 1.190384e+002 4.812227e+001 5.910410e+001 5.522232e+001 5.865632e+001 5.289359e+001 4.840873e+001 4.869481e+001 4.995018e+001 3.788008e+001 3.959899e+001 2.469882e+001 2.273300e+000 2.097238e+000 2.094632e+000 2.517218e+000 2.951317e+000 2.821718e+000 2.829959e+000 3.000150e+000 2.901228e+000 2.495291e+000 2.465382e+000 1.941044e+000 2.535352e+000
<GCONST> 1.048854e+002
<TRANSP> 5
 0.000000e+000 1.000000e+000 0.000000e+000 0.000000e+000 0.000000e+000
 0.000000e+000 6.000000e-001 4.000000e-001 0.000000e+000 0.000000e+000
 0.000000e+000 0.000000e+000 6.000000e-001 4.000000e-001 0.000000e+000
 0.000000e+000 0.000000e+000 0.000000e+000 7.000000e-001 3.000000e-001
 0.000000e+000 0.000000e+000 0.000000e+000 0.000000e+000 0.000000e+000
<ENDHMM>
~h"iy"
<BEGINHMM>
<NUMSTATES> 5
<STATE> 2
<MEAN> 25
 2.560693e-008 1.018583e-008 -3.255515e-008 1.242919e-008 1.208706e-008 -3.246789e-008 -1.408014e-008 -4.188220e-009 1.710190e-008 5.639402e-009 -8.633612e-010 9.129586e-009 1.534304e-002 -1.120783e-002 2.320645e-003 -1.150569e-002 2.473176e-003 -4.967018e-003 -2.336439e-003 -2.296854e-003 -1.040801e-002 -2.567648e-003 -2.705150e-003 -5.378890e-003 4.135148e-002
<VARIANCE> 25
 1.190384e+002 4.812227e+001 5.910410e+001 5.522232e+001 5.865632e+001 5.289359e+001 4.840873e+001 4.869481e+001 4.995018e+001 3.788008e+001 3.959899e+001 2.469882e+001 2.273300e+000 2.097238e+000 2.094632e+000 2.517218e+000 2.951317e+000 2.821718e+000 2.829959e+000 3.000150e+000 2.901228e+000 2.495291e+000 2.465382e+000 1.941044e+000 2.535352e+000
<GCONST> 1.048854e+002
<STATE> 3
<MEAN> 25
 2.560693e-008 1.018583e-008 -3.255515e-008 1.242919e-008 1.208706e-008 -3.246789e-008 -1.408014e-008 -4.188220e-009 1.710190e-008 5.639402e-009 -8.633612e-010 9.129586e-009 1.534304e-002 -1.120783e-002 2.320645e-003 -1.150569e-002 2.473176e-003 -4.967018e-003 -2.336439e-003 -2.296854e-003 -1.040801e-002 -2.567648e-003 -2.705150e-003 -5.378890e-003 4.135148e-002
<VARIANCE> 25
 1.190384e+002 4.812227e+001 5.910410e+001 5.522232e+001 5.865632e+001 5.289359e+001 4.840873e+001 4.869481e+001 4.995018e+001 3.788008e+001 3.959899e+001 2.469882e+001 2.273300e+000 2.097238e+000 2.094632e+000 2.517218e+000 2.951317e+000 2.821718e+000 2.829959e+000 3.000150e+000 2.901228e+000 2.495291e+000 2.465382e+000 1.941044e+000 2.535352e+000
<GCONST> 1.048854e+002
<STATE> 4
<MEAN> 25
 2.560693e-008 1.018583e-008 -3.255515e-008 1.242919e-008 1.208706e-008 -3.246789e-008 -1.408014e-008 -4.188220e-009 1.710190e-008 5.639402e-009 -8.633612e-010 9.129586e-009 1.534304e-002 -1.120783e-002 2.320645e-003 -1.150569e-002 2.473176e-003 -4.967018e-003 -2.336439e-003 -2.296854e-003 -1.040801e-002 -2.567648e-003 -2.705150e-003 -5.378890e-003 4.135148e-002
<VARIANCE> 25
 1.190384e+002 4.812227e+001 5.910410e+001 5.522232e+001 5.865632e+001 5.289359e+001 4.840873e+001 4.869481e+001 4.995018e+001 3.788008e+001 3.959899e+001 2.469882e+001 2.273300e+000 2.097238e+000 2.094632e+000 2.517218e+000 2.951317e+000 2.821718e+000 2.829959e+000 3.000150e+000 2.901228e+000 2.495291e+000 2.465382e+000 1.941044e+000 2.535352e+000
<GCONST> 1.048854e+002
<TRANSP> 5
 0.000000e+000 1.000000e+000 0.000000e+000 0.000000e+000 0.000000e+000
 0.000000e+000 6.000000e-001 4.000000e-001 0.000000e+000 0.000000e+000
 0.000000e+000 0.000000e+000 6.000000e-001 4.000000e-001 0.000000e+000
 0.000000e+000 0.000000e+000 0.000000e+000 7.000000e-001 3.000000e-001
 0.000000e+000 0.000000e+000 0.000000e+000 0.000000e+000 0.000000e+000
<ENDHMM>
~h"th"
<BEGINHMM>
<NUMSTATES> 5
<STATE> 2
<MEAN> 25
 2.560693e-008 1.018583e-008 -3.255515e-008 1.242919e-008 1.208706e-008 -3.246789e-008 -1.408014e-008 -4.188220e-009 1.710190e-008 5.639402e-009 -8.633612e-010 9.129586e-009 1.534304e-002 -1.120783e-002 2.320645e-003 -1.150569e-002 2.473176e-003 -4.967018e-003 -2.336439e-003 -2.296854e-003 -1.040801e-002 -2.567648e-003 -2.705150e-003 -5.378890e-003 4.135148e-002
<VARIANCE> 25
 1.190384e+002 4.812227e+001 5.910410e+001 5.522232e+001 5.865632e+001 5.289359e+001 4.840873e+001 4.869481e+001 4.995018e+001 3.788008e+001 3.959899e+001 2.469882e+001 2.273300e+000 2.097238e+000 2.094632e+000 2.517218e+000 2.951317e+000 2.821718e+000 2.829959e+000 3.000150e+000 2.901228e+000 2.495291e+000 2.465382e+000 1.941044e+000 2.535352e+000
<GCONST> 1.048854e+002
<STATE> 3
<MEAN> 25
 2.560693e-008 1.018583e-008 -3.255515e-008 1.242919e-008 1.208706e-008 -3.246789e-008 -1.408014e-008 -4.188220e-009 1.710190e-008 5.639402e-009 -8.633612e-010 9.129586e-009 1.534304e-002 -1.120783e-002 2.320645e-003 -1.150569e-002 2.473176e-003 -4.967018e-003 -2.336439e-003 -2.296854e-003 -1.040801e-002 -2.567648e-003 -2.705150e-003 -5.378890e-003 4.135148e-002
<VARIANCE> 25
 1.190384e+002 4.812227e+001 5.910410e+001 5.522232e+001 5.865632e+001 5.289359e+001 4.840873e+001 4.869481e+001 4.995018e+001 3.788008e+001 3.959899e+001 2.469882e+001 2.273300e+000 2.097238e+000 2.094632e+000 2.517218e+000 2.951317e+000 2.821718e+000 2.829959e+000 3.000150e+000 2.901228e+000 2.495291e+000 2.465382e+000 1.941044e+000 2.535352e+000
<GCONST> 1.048854e+002
<STATE> 4
<MEAN> 25
 2.560693e-008 1.018583e-008 -3.255515e-008 1.242919e-008 1.208706e-008 -3.246789e-008 -1.408014e-008 -4.188220e-009 1.710190e-008 5.639402e-009 -8.633612e-010 9.129586e-009 1.534304e-002 -1.120783e-002 2.320645e-003 -1.150569e-002 2.473176e-003 -4.967018e-003 -2.336439e-003 -2.296854e-003 -1.040801e-002 -2.567648e-003 -2.705150e-003 -5.378890e-003 4.135148e-002
<VARIANCE> 25
 1.190384e+002 4.812227e+001 5.910410e+001 5.522232e+001 5.865632e+001 5.289359e+001 4.840873e+001 4.869481e+001 4.995018e+001 3.788008e+001 3.959899e+001 2.469882e+001 2.273300e+000 2.097238e+000 2.094632e+000 2.517218e+000 2.951317e+000 2.821718e+000 2.829959e+000 3.000150e+000 2.901228e+000 2.495291e+000 2.465382e+000 1.941044e+000 2.535352e+000
<GCONST> 1.048854e+002
<TRANSP> 5
 0.000000e+000 1.000000e+000 0.000000e+000 0.000000e+000 0.000000e+000
 0.000000e+000 6.000000e-001 4.000000e-001 0.000000e+000 0.000000e+000
 0.000000e+000 0.000000e+000 6.000000e-001 4.000000e-001 0.000000e+000
 0.000000e+000 0.000000e+000 0.000000e+000 7.000000e-001 3.000000e-001
 0.000000e+000 0.000000e+000 0.000000e+000 0.000000e+000 0.000000e+000
<ENDHMM>
~h"ih"
<BEGINHMM>
<NUMSTATES> 5
<STATE> 2
<MEAN> 25
 2.560693e-008 1.018583e-008 -3.255515e-008 1.242919e-008 1.208706e-008 -3.246789e-008 -1.408014e-008 -4.188220e-009 1.710190e-008 5.639402e-009 -8.633612e-010 9.129586e-009 1.534304e-002 -1.120783e-002 2.320645e-003 -1.150569e-002 2.473176e-003 -4.967018e-003 -2.336439e-003 -2.296854e-003 -1.040801e-002 -2.567648e-003 -2.705150e-003 -5.378890e-003 4.135148e-002
<VARIANCE> 25
 1.190384e+002 4.812227e+001 5.910410e+001 5.522232e+001 5.865632e+001 5.289359e+001 4.840873e+001 4.869481e+001 4.995018e+001 3.788008e+001 3.959899e+001 2.469882e+001 2.273300e+000 2.097238e+000 2.094632e+000 2.517218e+000 2.951317e+000 2.821718e+000 2.829959e+000 3.000150e+000 2.901228e+000 2.495291e+000 2.465382e+000 1.941044e+000 2.535352e+000
<GCONST> 1.048854e+002
<STATE> 3
<MEAN> 25
 2.560693e-008 1.018583e-008 -3.255515e-008 1.242919e-008 1.208706e-008 -3.246789e-008 -1.408014e-008 -4.188220e-009 1.710190e-008 5.639402e-009 -8.633612e-010 9.129586e-009 1.534304e-002 -1.120783e-002 2.320645e-003 -1.150569e-002 2.473176e-003 -4.967018e-003 -2.336439e-003 -2.296854e-003 -1.040801e-002 -2.567648e-003 -2.705150e-003 -5.378890e-003 4.135148e-002
<VARIANCE> 25
 1.190384e+002 4.812227e+001 5.910410e+001 5.522232e+001 5.865632e+001 5.289359e+001 4.840873e+001 4.869481e+001 4.995018e+001 3.788008e+001 3.959899e+001 2.469882e+001 2.273300e+000 2.097238e+000 2.094632e+000 2.517218e+000 2.951317e+000 2.821718e+000 2.829959e+000 3.000150e+000 2.901228e+000 2.495291e+000 2.465382e+000 1.941044e+000 2.535352e+000
<GCONST> 1.048854e+002
<STATE> 4
<MEAN> 25
 2.560693e-008 1.018583e-008 -3.255515e-008 1.242919e-008 1.208706e-008 -3.246789e-008 -1.408014e-008 -4.188220e-009 1.710190e-008 5.639402e-009 -8.633612e-010 9.129586e-009 1.534304e-002 -1.120783e-002 2.320645e-003 -1.150569e-002 2.473176e-003 -4.967018e-003 -2.336439e-003 -2.296854e-003 -1.040801e-002 -2.567648e-003 -2.705150e-003 -5.378890e-003 4.135148e-002
<VARIANCE> 25
 1.190384e+002 4.812227e+001 5.910410e+001 5.522232e+001 5.865632e+001 5.289359e+001 4.840873e+001 4.869481e+001 4.995018e+001 3.788008e+001 3.959899e+001 2.469882e+001 2.273300e+000 2.097238e+000 2.094632e+000 2.517218e+000 2.951317e+000 2.821718e+000 2.829959e+000 3.000150e+000 2.901228e+000 2.495291e+000 2.465382e+000 1.941044e+000 2.535352e+000
<GCONST> 1.048854e+002
<TRANSP> 5
 0.000000e+000 1.000000e+000 0.000000e+000 0.000000e+000 0.000000e+000
 0.000000e+000 6.000000e-001 4.000000e-001 0.000000e+000 0.000000e+000
 0.000000e+000 0.000000e+000 6.000000e-001 4.000000e-001 0.000000e+000
 0.000000e+000 0.000000e+000 0.000000e+000 7.000000e-001 3.000000e-001
 0.000000e+000 0.000000e+000 0.000000e+000 0.000000e+000 0.000000e+000
<ENDHMM>
~h"ng"
<BEGINHMM>
<NUMSTATES> 5
<STATE> 2
<MEAN> 25
 2.560693e-008 1.018583e-008 -3.255515e-008 1.242919e-008 1.208706e-008 -3.246789e-008 -1.408014e-008 -4.188220e-009 1.710190e-008 5.639402e-009 -8.633612e-010 9.129586e-009 1.534304e-002 -1.120783e-002 2.320645e-003 -1.150569e-002 2.473176e-003 -4.967018e-003 -2.336439e-003 -2.296854e-003 -1.040801e-002 -2.567648e-003 -2.705150e-003 -5.378890e-003 4.135148e-002
<VARIANCE> 25
 1.190384e+002 4.812227e+001 5.910410e+001 5.522232e+001 5.865632e+001 5.289359e+001 4.840873e+001 4.869481e+001 4.995018e+001 3.788008e+001 3.959899e+001 2.469882e+001 2.273300e+000 2.097238e+000 2.094632e+000 2.517218e+000 2.951317e+000 2.821718e+000 2.829959e+000 3.000150e+000 2.901228e+000 2.495291e+000 2.465382e+000 1.941044e+000 2.535352e+000
<GCONST> 1.048854e+002
<STATE> 3
<MEAN> 25
 2.560693e-008 1.018583e-008 -3.255515e-008 1.242919e-008 1.208706e-008 -3.246789e-008 -1.408014e-008 -4.188220e-009 1.710190e-008 5.639402e-009 -8.633612e-010 9.129586e-009 1.534304e-002 -1.120783e-002 2.320645e-003 -1.150569e-002 2.473176e-003 -4.967018e-003 -2.336439e-003 -2.296854e-003 -1.040801e-002 -2.567648e-003 -2.705150e-003 -5.378890e-003 4.135148e-002
<VARIANCE> 25
 1.190384e+002 4.812227e+001 5.910410e+001 5.522232e+001 5.865632e+001 5.289359e+001 4.840873e+001 4.869481e+001 4.995018e+001 3.788008e+001 3.959899e+001 2.469882e+001 2.273300e+000 2.097238e+000 2.094632e+000 2.517218e+000 2.951317e+000 2.821718e+000 2.829959e+000 3.000150e+000 2.901228e+000 2.495291e+000 2.465382e+000 1.941044e+000 2.535352e+000
<GCONST> 1.048854e+002
<STATE> 4
<MEAN> 25
 2.560693e-008 1.018583e-008 -3.255515e-008 1.242919e-008 1.208706e-008 -3.246789e-008 -1.408014e-008 -4.188220e-009 1.710190e-008 5.639402e-009 -8.633612e-010 9.129586e-009 1.534304e-002 -1.120783e-002 2.320645e-003 -1.150569e-002 2.473176e-003 -4.967018e-003 -2.336439e-003 -2.296854e-003 -1.040801e-002 -2.567648e-003 -2.705150e-003 -5.378890e-003 4.135148e-002
<VARIANCE> 25
 1.190384e+002 4.812227e+001 5.910410e+001 5.522232e+001 5.865632e+001 5.289359e+001 4.840873e+001 4.869481e+001 4.995018e+001 3.788008e+001 3.959899e+001 2.469882e+001 2.273300e+000 2.097238e+000 2.094632e+000 2.517218e+000 2.951317e+000 2.821718e+000 2.829959e+000 3.000150e+000 2.901228e+000 2.495291e+000 2.465382e+000 1.941044e+000 2.535352e+000
<GCONST> 1.048854e+002
<TRANSP> 5
 0.000000e+000 1.000000e+000 0.000000e+000 0.000000e+000 0.000000e+000
 0.000000e+000 6.000000e-001 4.000000e-001 0.000000e+000 0.000000e+000
 0.000000e+000 0.000000e+000 6.000000e-001 4.000000e-001 0.000000e+000
 0.000000e+000 0.000000e+000 0.000000e+000 7.000000e-001 3.000000e-001
 0.000000e+000 0.000000e+000 0.000000e+000 0.000000e+000 0.000000e+000
<ENDHMM>
~h"aa"
<BEGINHMM>
<NUMSTATES> 5
<STATE> 2
<MEAN> 25
 2.560693e-008 1.018583e-008 -3.255515e-008 1.242919e-008 1.208706e-008 -3.246789e-008 -1.408014e-008 -4.188220e-009 1.710190e-008 5.639402e-009 -8.633612e-010 9.129586e-009 1.534304e-002 -1.120783e-002 2.320645e-003 -1.150569e-002 2.473176e-003 -4.967018e-003 -2.336439e-003 -2.296854e-003 -1.040801e-002 -2.567648e-003 -2.705150e-003 -5.378890e-003 4.135148e-002
<VARIANCE> 25
 1.190384e+002 4.812227e+001 5.910410e+001 5.522232e+001 5.865632e+001 5.289359e+001 4.840873e+001 4.869481e+001 4.995018e+001 3.788008e+001 3.959899e+001 2.469882e+001 2.273300e+000 2.097238e+000 2.094632e+000 2.517218e+000 2.951317e+000 2.821718e+000 2.829959e+000 3.000150e+000 2.901228e+000 2.495291e+000 2.465382e+000 1.941044e+000 2.535352e+000
<GCONST> 1.048854e+002
<STATE> 3
<MEAN> 25
 2.560693e-008 1.018583e-008 -3.255515e-008 1.242919e-008 1.208706e-008 -3.246789e-008 -1.408014e-008 -4.188220e-009 1.710190e-008 5.639402e-009 -8.633612e-010 9.129586e-009 1.534304e-002 -1.120783e-002 2.320645e-003 -1.150569e-002 2.473176e-003 -4.967018e-003 -2.336439e-003 -2.296854e-003 -1.040801e-002 -2.567648e-003 -2.705150e-003 -5.378890e-003 4.135148e-002
<VARIANCE> 25
 1.190384e+002 4.812227e+001 5.910410e+001 5.522232e+001 5.865632e+001 5.289359e+001 4.840873e+001 4.869481e+001 4.995018e+001 3.788008e+001 3.959899e+001 2.469882e+001 2.273300e+000 2.097238e+000 2.094632e+000 2.517218e+000 2.951317e+000 2.821718e+000 2.829959e+000 3.000150e+000 2.901228e+000 2.495291e+000 2.465382e+000 1.941044e+000 2.535352e+000
<GCONST> 1.048854e+002
<STATE> 4
<MEAN> 25
 2.560693e-008 1.018583e-008 -3.255515e-008 1.242919e-008 1.208706e-008 -3.246789e-008 -1.408014e-008 -4.188220e-009 1.710190e-008 5.639402e-009 -8.633612e-010 9.129586e-009 1.534304e-002 -1.120783e-002 2.320645e-003 -1.150569e-002 2.473176e-003 -4.967018e-003 -2.336439e-003 -2.296854e-003 -1.040801e-002 -2.567648e-003 -2.705150e-003 -5.378890e-003 4.135148e-002
<VARIANCE> 25
 1.190384e+002 4.812227e+001 5.910410e+001 5.522232e+001 5.865632e+001 5.289359e+001 4.840873e+001 4.869481e+001 4.995018e+001 3.788008e+001 3.959899e+001 2.469882e+001 2.273300e+000 2.097238e+000 2.094632e+000 2.517218e+000 2.951317e+000 2.821718e+000 2.829959e+000 3.000150e+000 2.901228e+000 2.495291e+000 2.465382e+000 1.941044e+000 2.535352e+000
<GCONST> 1.048854e+002
<TRANSP> 5
 0.000000e+000 1.000000e+000 0.000000e+000 0.000000e+000 0.000000e+000
 0.000000e+000 6.000000e-001 4.000000e-001 0.000000e+000 0.000000e+000
 0.000000e+000 0.000000e+000 6.000000e-001 4.000000e-001 0.000000e+000
 0.000000e+000 0.000000e+000 0.000000e+000 7.000000e-001 3.000000e-001
 0.000000e+000 0.000000e+000 0.000000e+000 0.000000e+000 0.000000e+000
<ENDHMM>
~h"r"
<BEGINHMM>
<NUMSTATES> 5
<STATE> 2
<MEAN> 25
 2.560693e-008 1.018583e-008 -3.255515e-008 1.242919e-008 1.208706e-008 -3.246789e-008 -1.408014e-008 -4.188220e-009 1.710190e-008 5.639402e-009 -8.633612e-010 9.129586e-009 1.534304e-002 -1.120783e-002 2.320645e-003 -1.150569e-002 2.473176e-003 -4.967018e-003 -2.336439e-003 -2.296854e-003 -1.040801e-002 -2.567648e-003 -2.705150e-003 -5.378890e-003 4.135148e-002
<VARIANCE> 25
 1.190384e+002 4.812227e+001 5.910410e+001 5.522232e+001 5.865632e+001 5.289359e+001 4.840873e+001 4.869481e+001 4.995018e+001 3.788008e+001 3.959899e+001 2.469882e+001 2.273300e+000 2.097238e+000 2.094632e+000 2.517218e+000 2.951317e+000 2.821718e+000 2.829959e+000 3.000150e+000 2.901228e+000 2.495291e+000 2.465382e+000 1.941044e+000 2.535352e+000
<GCONST> 1.048854e+002
<STATE> 3
<MEAN> 25
 2.560693e-008 1.018583e-008 -3.255515e-008 1.242919e-008 1.208706e-008 -3.246789e-008 -1.408014e-008 -4.188220e-009 1.710190e-008 5.639402e-009 -8.633612e-010 9.129586e-009 1.534304e-002 -1.120783e-002 2.320645e-003 -1.150569e-002 2.473176e-003 -4.967018e-003 -2.336439e-003 -2.296854e-003 -1.040801e-002 -2.567648e-003 -2.705150e-003 -5.378890e-003 4.135148e-002
<VARIANCE> 25
 1.190384e+002 4.812227e+001 5.910410e+001 5.522232e+001 5.865632e+001 5.289359e+001 4.840873e+001 4.869481e+001 4.995018e+001 3.788008e+001 3.959899e+001 2.469882e+001 2.273300e+000 2.097238e+000 2.094632e+000 2.517218e+000 2.951317e+000 2.821718e+000 2.829959e+000 3.000150e+000 2.901228e+000 2.495291e+000 2.465382e+000 1.941044e+000 2.535352e+000
<GCONST> 1.048854e+002
<STATE> 4
<MEAN> 25
 2.560693e-008 1.018583e-008 -3.255515e-008 1.242919e-008 1.208706e-008 -3.246789e-008 -1.408014e-008 -4.188220e-009 1.710190e-008 5.639402e-009 -8.633612e-010 9.129586e-009 1.534304e-002 -1.120783e-002 2.320645e-003 -1.150569e-002 2.473176e-003 -4.967018e-003 -2.336439e-003 -2.296854e-003 -1.040801e-002 -2.567648e-003 -2.705150e-003 -5.378890e-003 4.135148e-002
<VARIANCE> 25
 1.190384e+002 4.812227e+001 5.910410e+001 5.522232e+001 5.865632e+001 5.289359e+001 4.840873e+001 4.869481e+001 4.995018e+001 3.788008e+001 3.959899e+001 2.469882e+001 2.273300e+000 2.097238e+000 2.094632e+000 2.517218e+000 2.951317e+000 2.821718e+000 2.829959e+000 3.000150e+000 2.901228e+000 2.495291e+000 2.465382e+000 1.941044e+000 2.535352e+000
<GCONST> 1.048854e+002
<TRANSP> 5
 0.000000e+000 1.000000e+000 0.000000e+000 0.000000e+000 0.000000e+000
 0.000000e+000 6.000000e-001 4.000000e-001 0.000000e+000 0.000000e+000
 0.000000e+000 0.000000e+000 6.000000e-001 4.000000e-001 0.000000e+000
 0.000000e+000 0.000000e+000 0.000000e+000 7.000000e-001 3.000000e-001
 0.000000e+000 0.000000e+000 0.000000e+000 0.000000e+000 0.000000e+000
<ENDHMM>
~h"s"
<BEGINHMM>
<NUMSTATES> 5
<STATE> 2
<MEAN> 25
 2.560693e-008 1.018583e-008 -3.255515e-008 1.242919e-008 1.208706e-008 -3.246789e-008 -1.408014e-008 -4.188220e-009 1.710190e-008 5.639402e-009 -8.633612e-010 9.129586e-009 1.534304e-002 -1.120783e-002 2.320645e-003 -1.150569e-002 2.473176e-003 -4.967018e-003 -2.336439e-003 -2.296854e-003 -1.040801e-002 -2.567648e-003 -2.705150e-003 -5.378890e-003 4.135148e-002
<VARIANCE> 25
 1.190384e+002 4.812227e+001 5.910410e+001 5.522232e+001 5.865632e+001 5.289359e+001 4.840873e+001 4.869481e+001 4.995018e+001 3.788008e+001 3.959899e+001 2.469882e+001 2.273300e+000 2.097238e+000 2.094632e+000 2.517218e+000 2.951317e+000 2.821718e+000 2.829959e+000 3.000150e+000 2.901228e+000 2.495291e+000 2.465382e+000 1.941044e+000 2.535352e+000
<GCONST> 1.048854e+002
<STATE> 3
<MEAN> 25
 2.560693e-008 1.018583e-008 -3.255515e-008 1.242919e-008 1.208706e-008 -3.246789e-008 -1.408014e-008 -4.188220e-009 1.710190e-008 5.639402e-009 -8.633612e-010 9.129586e-009 1.534304e-002 -1.120783e-002 2.320645e-003 -1.150569e-002 2.473176e-003 -4.967018e-003 -2.336439e-003 -2.296854e-003 -1.040801e-002 -2.567648e-003 -2.705150e-003 -5.378890e-003 4.135148e-002
<VARIANCE> 25
 1.190384e+002 4.812227e+001 5.910410e+001 5.522232e+001 5.865632e+001 5.289359e+001 4.840873e+001 4.869481e+001 4.995018e+001 3.788008e+001 3.959899e+001 2.469882e+001 2.273300e+000 2.097238e+000 2.094632e+000 2.517218e+000 2.951317e+000 2.821718e+000 2.829959e+000 3.000150e+000 2.901228e+000 2.495291e+000 2.465382e+000 1.941044e+000 2.535352e+000
<GCONST> 1.048854e+002
<STATE> 4
<MEAN> 25
 2.560693e-008 1.018583e-008 -3.255515e-008 1.242919e-008 1.208706e-008 -3.246789e-008 -1.408014e-008 -4.188220e-009 1.710190e-008 5.639402e-009 -8.633612e-010 9.129586e-009 1.534304e-002 -1.120783e-002 2.320645e-003 -1.150569e-002 2.473176e-003 -4.967018e-003 -2.336439e-003 -2.296854e-003 -1.040801e-002 -2.567648e-003 -2.705150e-003 -5.378890e-003 4.135148e-002
<VARIANCE> 25
 1.190384e+002 4.812227e+001 5.910410e+001 5.522232e+001 5.865632e+001 5.289359e+001 4.840873e+001 4.869481e+001 4.995018e+001 3.788008e+001 3.959899e+001 2.469882e+001 2.273300e+000 2.097238e+000 2.094632e+000 2.517218e+000 2.951317e+000 2.821718e+000 2.829959e+000 3.000150e+000 2.901228e+000 2.495291e+000 2.465382e+000 1.941044e+000 2.535352e+000
<GCONST> 1.048854e+002
<TRANSP> 5
 0.000000e+000 1.000000e+000 0.000000e+000 0.000000e+000 0.000000e+000
 0.000000e+000 6.000000e-001 4.000000e-001 0.000000e+000 0.000000e+000
 0.000000e+000 0.000000e+000 6.000000e-001 4.000000e-001 0.000000e+000
 0.000000e+000 0.000000e+000 0.000000e+000 7.000000e-001 3.000000e-001
 0.000000e+000 0.000000e+000 0.000000e+000 0.000000e+000 0.000000e+000
<ENDHMM>
~h"k"
<BEGINHMM>
<NUMSTATES> 5
<STATE> 2
<MEAN> 25
 2.560693e-008 1.018583e-008 -3.255515e-008 1.242919e-008 1.208706e-008 -3.246789e-008 -1.408014e-008 -4.188220e-009 1.710190e-008 5.639402e-009 -8.633612e-010 9.129586e-009 1.534304e-002 -1.120783e-002 2.320645e-003 -1.150569e-002 2.473176e-003 -4.967018e-003 -2.336439e-003 -2.296854e-003 -1.040801e-002 -2.567648e-003 -2.705150e-003 -5.378890e-003 4.135148e-002
<VARIANCE> 25
 1.190384e+002 4.812227e+001 5.910410e+001 5.522232e+001 5.865632e+001 5.289359e+001 4.840873e+001 4.869481e+001 4.995018e+001 3.788008e+001 3.959899e+001 2.469882e+001 2.273300e+000 2.097238e+000 2.094632e+000 2.517218e+000 2.951317e+000 2.821718e+000 2.829959e+000 3.000150e+000 2.901228e+000 2.495291e+000 2.465382e+000 1.941044e+000 2.535352e+000
<GCONST> 1.048854e+002
<STATE> 3
<MEAN> 25
 2.560693e-008 1.018583e-008 -3.255515e-008 1.242919e-008 1.208706e-008 -3.246789e-008 -1.408014e-008 -4.188220e-009 1.710190e-008 5.639402e-009 -8.633612e-010 9.129586e-009 1.534304e-002 -1.120783e-002 2.320645e-003 -1.150569e-002 2.473176e-003 -4.967018e-003 -2.336439e-003 -2.296854e-003 -1.040801e-002 -2.567648e-003 -2.705150e-003 -5.378890e-003 4.135148e-002
<VARIANCE> 25
 1.190384e+002 4.812227e+001 5.910410e+001 5.522232e+001 5.865632e+001 5.289359e+001 4.840873e+001 4.869481e+001 4.995018e+001 3.788008e+001 3.959899e+001 2.469882e+001 2.273300e+000 2.097238e+000 2.094632e+000 2.517218e+000 2.951317e+000 2.821718e+000 2.829959e+000 3.000150e+000 2.901228e+000 2.495291e+000 2.465382e+000 1.941044e+000 2.535352e+000
<GCONST> 1.048854e+002
<STATE> 4
<MEAN> 25
 2.560693e-008 1.018583e-008 -3.255515e-008 1.242919e-008 1.208706e-008 -3.246789e-008 -1.408014e-008 -4.188220e-009 1.710190e-008 5.639402e-009 -8.633612e-010 9.129586e-009 1.534304e-002 -1.120783e-002 2.320645e-003 -1.150569e-002 2.473176e-003 -4.967018e-003 -2.336439e-003 -2.296854e-003 -1.040801e-002 -2.567648e-003 -2.705150e-003 -5.378890e-003 4.135148e-002
<VARIANCE> 25
 1.190384e+002 4.812227e+001 5.910410e+001 5.522232e+001 5.865632e+001 5.289359e+001 4.840873e+001 4.869481e+001 4.995018e+001 3.788008e+001 3.959899e+001 2.469882e+001 2.273300e+000 2.097238e+000 2.094632e+000 2.517218e+000 2.951317e+000 2.821718e+000 2.829959e+000 3.000150e+000 2.901228e+000 2.495291e+000 2.465382e+000 1.941044e+000 2.535352e+000
<GCONST> 1.048854e+002
<TRANSP> 5
 0.000000e+000 1.000000e+000 0.000000e+000 0.000000e+000 0.000000e+000
 0.000000e+000 6.000000e-001 4.000000e-001 0.000000e+000 0.000000e+000
 0.000000e+000 0.000000e+000 6.000000e-001 4.000000e-001 0.000000e+000
 0.000000e+000 0.000000e+000 0.000000e+000 7.000000e-001 3.000000e-001
 0.000000e+000 0.000000e+000 0.000000e+000 0.000000e+000 0.000000e+000
<ENDHMM>
~h"v"
<BEGINHMM>
<NUMSTATES> 5
<STATE> 2
<MEAN> 25
 2.560693e-008 1.018583e-008 -3.255515e-008 1.242919e-008 1.208706e-008 -3.246789e-008 -1.408014e-008 -4.188220e-009 1.710190e-008 5.639402e-009 -8.633612e-010 9.129586e-009 1.534304e-002 -1.120783e-002 2.320645e-003 -1.150569e-002 2.473176e-003 -4.967018e-003 -2.336439e-003 -2.296854e-003 -1.040801e-002 -2.567648e-003 -2.705150e-003 -5.378890e-003 4.135148e-002
<VARIANCE> 25
 1.190384e+002 4.812227e+001 5.910410e+001 5.522232e+001 5.865632e+001 5.289359e+001 4.840873e+001 4.869481e+001 4.995018e+001 3.788008e+001 3.959899e+001 2.469882e+001 2.273300e+000 2.097238e+000 2.094632e+000 2.517218e+000 2.951317e+000 2.821718e+000 2.829959e+000 3.000150e+000 2.901228e+000 2.495291e+000 2.465382e+000 1.941044e+000 2.535352e+000
<GCONST> 1.048854e+002
<STATE> 3
<MEAN> 25
 2.560693e-008 1.018583e-008 -3.255515e-008 1.242919e-008 1.208706e-008 -3.246789e-008 -1.408014e-008 -4.188220e-009 1.710190e-008 5.639402e-009 -8.633612e-010 9.129586e-009 1.534304e-002 -1.120783e-002 2.320645e-003 -1.150569e-002 2.473176e-003 -4.967018e-003 -2.336439e-003 -2.296854e-003 -1.040801e-002 -2.567648e-003 -2.705150e-003 -5.378890e-003 4.135148e-002
<VARIANCE> 25
 1.190384e+002 4.812227e+001 5.910410e+001 5.522232e+001 5.865632e+001 5.289359e+001 4.840873e+001 4.869481e+001 4.995018e+001 3.788008e+001 3.959899e+001 2.469882e+001 2.273300e+000 2.097238e+000 2.094632e+000 2.517218e+000 2.951317e+000 2.821718e+000 2.829959e+000 3.000150e+000 2.901228e+000 2.495291e+000 2.465382e+000 1.941044e+000 2.535352e+000
<GCONST> 1.048854e+002
<STATE> 4
<MEAN> 25
 2.560693e-008 1.018583e-008 -3.255515e-008 1.242919e-008 1.208706e-008 -3.246789e-008 -1.408014e-008 -4.188220e-009 1.710190e-008 5.639402e-009 -8.633612e-010 9.129586e-009 1.534304e-002 -1.120783e-002 2.320645e-003 -1.150569e-002 2.473176e-003 -4.967018e-003 -2.336439e-003 -2.296854e-003 -1.040801e-002 -2.567648e-003 -2.705150e-003 -5.378890e-003 4.135148e-002
<VARIANCE> 25
 1.190384e+002 4.812227e+001 5.910410e+001 5.522232e+001 5.865632e+001 5.289359e+001 4.840873e+001 4.869481e+001 4.995018e+001 3.788008e+001 3.959899e+001 2.469882e+001 2.273300e+000 2.097238e+000 2.094632e+000 2.517218e+000 2.951317e+000 2.821718e+000 2.829959e+000 3.000150e+000 2.901228e+000 2.495291e+000 2.465382e+000 1.941044e+000 2.535352e+000
<GCONST> 1.048854e+002
<TRANSP> 5
 0.000000e+000 1.000000e+000 0.000000e+000 0.000000e+000 0.000000e+000
 0.000000e+000 6.000000e-001 4.000000e-001 0.000000e+000 0.000000e+000
 0.000000e+000 0.000000e+000 6.000000e-001 4.000000e-001 0.000000e+000
 0.000000e+000 0.000000e+000 0.000000e+000 7.000000e-001 3.000000e-001
 0.000000e+000 0.000000e+000 0.000000e+000 0.000000e+000 0.000000e+000
<ENDHMM>
~h"ey"
<BEGINHMM>
<NUMSTATES> 5
<STATE> 2
<MEAN> 25
 2.560693e-008 1.018583e-008 -3.255515e-008 1.242919e-008 1.208706e-008 -3.246789e-008 -1.408014e-008 -4.188220e-009 1.710190e-008 5.639402e-009 -8.633612e-010 9.129586e-009 1.534304e-002 -1.120783e-002 2.320645e-003 -1.150569e-002 2.473176e-003 -4.967018e-003 -2.336439e-003 -2.296854e-003 -1.040801e-002 -2.567648e-003 -2.705150e-003 -5.378890e-003 4.135148e-002
<VARIANCE> 25
 1.190384e+002 4.812227e+001 5.910410e+001 5.522232e+001 5.865632e+001 5.289359e+001 4.840873e+001 4.869481e+001 4.995018e+001 3.788008e+001 3.959899e+001 2.469882e+001 2.273300e+000 2.097238e+000 2.094632e+000 2.517218e+000 2.951317e+000 2.821718e+000 2.829959e+000 3.000150e+000 2.901228e+000 2.495291e+000 2.465382e+000 1.941044e+000 2.535352e+000
<GCONST> 1.048854e+002
<STATE> 3
<MEAN> 25
 2.560693e-008 1.018583e-008 -3.255515e-008 1.242919e-008 1.208706e-008 -3.246789e-008 -1.408014e-008 -4.188220e-009 1.710190e-008 5.639402e-009 -8.633612e-010 9.129586e-009 1.534304e-002 -1.120783e-002 2.320645e-003 -1.150569e-002 2.473176e-003 -4.967018e-003 -2.336439e-003 -2.296854e-003 -1.040801e-002 -2.567648e-003 -2.705150e-003 -5.378890e-003 4.135148e-002
<VARIANCE> 25
 1.190384e+002 4.812227e+001 5.910410e+001 5.522232e+001 5.865632e+001 5.289359e+001 4.840873e+001 4.869481e+001 4.995018e+001 3.788008e+001 3.959899e+001 2.469882e+001 2.273300e+000 2.097238e+000 2.094632e+000 2.517218e+000 2.951317e+000 2.821718e+000 2.829959e+000 3.000150e+000 2.901228e+000 2.495291e+000 2.465382e+000 1.941044e+000 2.535352e+000
<GCONST> 1.048854e+002
<STATE> 4
<MEAN> 25
 2.560693e-008 1.018583e-008 -3.255515e-008 1.242919e-008 1.208706e-008 -3.246789e-008 -1.408014e-008 -4.188220e-009 1.710190e-008 5.639402e-009 -8.633612e-010 9.129586e-009 1.534304e-002 -1.120783e-002 2.320645e-003 -1.150569e-002 2.473176e-003 -4.967018e-003 -2.336439e-003 -2.296854e-003 -1.040801e-002 -2.567648e-003 -2.705150e-003 -5.378890e-003 4.135148e-002
<VARIANCE> 25
 1.190384e+002 4.812227e+001 5.910410e+001 5.522232e+001 5.865632e+001 5.289359e+001 4.840873e+001 4.869481e+001 4.995018e+001 3.788008e+001 3.959899e+001 2.469882e+001 2.273300e+000 2.097238e+000 2.094632e+000 2.517218e+000 2.951317e+000 2.821718e+000 2.829959e+000 3.000150e+000 2.901228e+000 2.495291e+000 2.465382e+000 1.941044e+000 2.535352e+000
<GCONST> 1.048854e+002
<TRANSP> 5
 0.000000e+000 1.000000e+000 0.000000e+000 0.000000e+000 0.000000e+000
 0.000000e+000 6.000000e-001 4.000000e-001 0.000000e+000 0.000000e+000
 0.000000e+000 0.000000e+000 6.000000e-001 4.000000e-001 0.000000e+000
 0.000000e+000 0.000000e+000 0.000000e+000 7.000000e-001 3.000000e-001
 0.000000e+000 0.000000e+000 0.000000e+000 0.000000e+000 0.000000e+000
<ENDHMM>
~h"l"
<BEGINHMM>
<NUMSTATES> 5
<STATE> 2
<MEAN> 25
 2.560693e-008 1.018583e-008 -3.255515e-008 1.242919e-008 1.208706e-008 -3.246789e-008 -1.408014e-008 -4.188220e-009 1.710190e-008 5.639402e-009 -8.633612e-010 9.129586e-009 1.534304e-002 -1.120783e-002 2.320645e-003 -1.150569e-002 2.473176e-003 -4.967018e-003 -2.336439e-003 -2.296854e-003 -1.040801e-002 -2.567648e-003 -2.705150e-003 -5.378890e-003 4.135148e-002
<VARIANCE> 25
 1.190384e+002 4.812227e+001 5.910410e+001 5.522232e+001 5.865632e+001 5.289359e+001 4.840873e+001 4.869481e+001 4.995018e+001 3.788008e+001 3.959899e+001 2.469882e+001 2.273300e+000 2.097238e+000 2.094632e+000 2.517218e+000 2.951317e+000 2.821718e+000 2.829959e+000 3.000150e+000 2.901228e+000 2.495291e+000 2.465382e+000 1.941044e+000 2.535352e+000
<GCONST> 1.048854e+002
<STATE> 3
<MEAN> 25
 2.560693e-008 1.018583e-008 -3.255515e-008 1.242919e-008 1.208706e-008 -3.246789e-008 -1.408014e-008 -4.188220e-009 1.710190e-008 5.639402e-009 -8.633612e-010 9.129586e-009 1.534304e-002 -1.120783e-002 2.320645e-003 -1.150569e-002 2.473176e-003 -4.967018e-003 -2.336439e-003 -2.296854e-003 -1.040801e-002 -2.567648e-003 -2.705150e-003 -5.378890e-003 4.135148e-002
<VARIANCE> 25
 1.190384e+002 4.812227e+001 5.910410e+001 5.522232e+001 5.865632e+001 5.289359e+001 4.840873e+001 4.869481e+001 4.995018e+001 3.788008e+001 3.959899e+001 2.469882e+001 2.273300e+000 2.097238e+000 2.094632e+000 2.517218e+000 2.951317e+000 2.821718e+000 2.829959e+000 3.000150e+000 2.901228e+000 2.495291e+000 2.465382e+000 1.941044e+000 2.535352e+000
<GCONST> 1.048854e+002
<STATE> 4
<MEAN> 25
 2.560693e-008 1.018583e-008 -3.255515e-008 1.242919e-008 1.208706e-008 -3.246789e-008 -1.408014e-008 -4.188220e-009 1.710190e-008 5.639402e-009 -8.633612e-010 9.129586e-009 1.534304e-002 -1.120783e-002 2.320645e-003 -1.150569e-002 2.473176e-003 -4.967018e-003 -2.336439e-003 -2.296854e-003 -1.040801e-002 -2.567648e-003 -2.705150e-003 -5.378890e-003 4.135148e-002
<VARIANCE> 25
 1.190384e+002 4.812227e+001 5.910410e+001 5.522232e+001 5.865632e+001 5.289359e+001 4.840873e+001 4.869481e+001 4.995018e+001 3.788008e+001 3.959899e+001 2.469882e+001 2.273300e+000 2.097238e+000 2.094632e+000 2.517218e+000 2.951317e+000 2.821718e+000 2.829959e+000 3.000150e+000 2.901228e+000 2.495291e+000 2.465382e+000 1.941044e+000 2.535352e+000
<GCONST> 1.048854e+002
<TRANSP> 5
 0.000000e+000 1.000000e+000 0.000000e+000 0.000000e+000 0.000000e+000
 0.000000e+000 6.000000e-001 4.000000e-001 0.000000e+000 0.000000e+000
 0.000000e+000 0.000000e+000 6.000000e-001 4.000000e-001 0.000000e+000
 0.000000e+000 0.000000e+000 0.000000e+000 7.000000e-001 3.000000e-001
 0.000000e+000 0.000000e+000 0.000000e+000 0.000000e+000 0.000000e+000
<ENDHMM>
~h"b"
<BEGINHMM>
<NUMSTATES> 5
<STATE> 2
<MEAN> 25
 2.560693e-008 1.018583e-008 -3.255515e-008 1.242919e-008 1.208706e-008 -3.246789e-008 -1.408014e-008 -4.188220e-009 1.710190e-008 5.639402e-009 -8.633612e-010 9.129586e-009 1.534304e-002 -1.120783e-002 2.320645e-003 -1.150569e-002 2.473176e-003 -4.967018e-003 -2.336439e-003 -2.296854e-003 -1.040801e-002 -2.567648e-003 -2.705150e-003 -5.378890e-003 4.135148e-002
<VARIANCE> 25
 1.190384e+002 4.812227e+001 5.910410e+001 5.522232e+001 5.865632e+001 5.289359e+001 4.840873e+001 4.869481e+001 4.995018e+001 3.788008e+001 3.959899e+001 2.469882e+001 2.273300e+000 2.097238e+000 2.094632e+000 2.517218e+000 2.951317e+000 2.821718e+000 2.829959e+000 3.000150e+000 2.901228e+000 2.495291e+000 2.465382e+000 1.941044e+000 2.535352e+000
<GCONST> 1.048854e+002
<STATE> 3
<MEAN> 25
 2.560693e-008 1.018583e-008 -3.255515e-008 1.242919e-008 1.208706e-008 -3.246789e-008 -1.408014e-008 -4.188220e-009 1.710190e-008 5.639402e-009 -8.633612e-010 9.129586e-009 1.534304e-002 -1.120783e-002 2.320645e-003 -1.150569e-002 2.473176e-003 -4.967018e-003 -2.336439e-003 -2.296854e-003 -1.040801e-002 -2.567648e-003 -2.705150e-003 -5.378890e-003 4.135148e-002
<VARIANCE> 25
 1.190384e+002 4.812227e+001 5.910410e+001 5.522232e+001 5.865632e+001 5.289359e+001 4.840873e+001 4.869481e+001 4.995018e+001 3.788008e+001 3.959899e+001 2.469882e+001 2.273300e+000 2.097238e+000 2.094632e+000 2.517218e+000 2.951317e+000 2.821718e+000 2.829959e+000 3.000150e+000 2.901228e+000 2.495291e+000 2.465382e+000 1.941044e+000 2.535352e+000
<GCONST> 1.048854e+002
<STATE> 4
<MEAN> 25
 2.560693e-008 1.018583e-008 -3.255515e-008 1.242919e-008 1.208706e-008 -3.246789e-008 -1.408014e-008 -4.188220e-009 1.710190e-008 5.639402e-009 -8.633612e-010 9.129586e-009 1.534304e-002 -1.120783e-002 2.320645e-003 -1.150569e-002 2.473176e-003 -4.967018e-003 -2.336439e-003 -2.296854e-003 -1.040801e-002 -2.567648e-003 -2.705150e-003 -5.378890e-003 4.135148e-002
<VARIANCE> 25
 1.190384e+002 4.812227e+001 5.910410e+001 5.522232e+001 5.865632e+001 5.289359e+001 4.840873e+001 4.869481e+001 4.995018e+001 3.788008e+001 3.959899e+001 2.469882e+001 2.273300e+000 2.097238e+000 2.094632e+000 2.517218e+000 2.951317e+000 2.821718e+000 2.829959e+000 3.000150e+000 2.901228e+000 2.495291e+000 2.465382e+000 1.941044e+000 2.535352e+000
<GCONST> 1.048854e+002
<TRANSP> 5
 0.000000e+000 1.000000e+000 0.000000e+000 0.000000e+000 0.000000e+000
 0.000000e+000 6.000000e-001 4.000000e-001 0.000000e+000 0.000000e+000
 0.000000e+000 0.000000e+000 6.000000e-001 4.000000e-001 0.000000e+000
 0.000000e+000 0.000000e+000 0.000000e+000 7.000000e-001 3.000000e-001
 0.000000e+000 0.000000e+000 0.000000e+000 0.000000e+000 0.000000e+000
<ENDHMM>
~h"ay"
<BEGINHMM>
<NUMSTATES> 5
<STATE> 2
<MEAN> 25
 2.560693e-008 1.018583e-008 -3.255515e-008 1.242919e-008 1.208706e-008 -3.246789e-008 -1.408014e-008 -4.188220e-009 1.710190e-008 5.639402e-009 -8.633612e-010 9.129586e-009 1.534304e-002 -1.120783e-002 2.320645e-003 -1.150569e-002 2.473176e-003 -4.967018e-003 -2.336439e-003 -2.296854e-003 -1.040801e-002 -2.567648e-003 -2.705150e-003 -5.378890e-003 4.135148e-002
<VARIANCE> 25
 1.190384e+002 4.812227e+001 5.910410e+001 5.522232e+001 5.865632e+001 5.289359e+001 4.840873e+001 4.869481e+001 4.995018e+001 3.788008e+001 3.959899e+001 2.469882e+001 2.273300e+000 2.097238e+000 2.094632e+000 2.517218e+000 2.951317e+000 2.821718e+000 2.829959e+000 3.000150e+000 2.901228e+000 2.495291e+000 2.465382e+000 1.941044e+000 2.535352e+000
<GCONST> 1.048854e+002
<STATE> 3
<MEAN> 25
 2.560693e-008 1.018583e-008 -3.255515e-008 1.242919e-008 1.208706e-008 -3.246789e-008 -1.408014e-008 -4.188220e-009 1.710190e-008 5.639402e-009 -8.633612e-010 9.129586e-009 1.534304e-002 -1.120783e-002 2.320645e-003 -1.150569e-002 2.473176e-003 -4.967018e-003 -2.336439e-003 -2.296854e-003 -1.040801e-002 -2.567648e-003 -2.705150e-003 -5.378890e-003 4.135148e-002
<VARIANCE> 25
 1.190384e+002 4.812227e+001 5.910410e+001 5.522232e+001 5.865632e+001 5.289359e+001 4.840873e+001 4.869481e+001 4.995018e+001 3.788008e+001 3.959899e+001 2.469882e+001 2.273300e+000 2.097238e+000 2.094632e+000 2.517218e+000 2.951317e+000 2.821718e+000 2.829959e+000 3.000150e+000 2.901228e+000 2.495291e+000 2.465382e+000 1.941044e+000 2.535352e+000
<GCONST> 1.048854e+002
<STATE> 4
<MEAN> 25
 2.560693e-008 1.018583e-008 -3.255515e-008 1.242919e-008 1.208706e-008 -3.246789e-008 -1.408014e-008 -4.188220e-009 1.710190e-008 5.639402e-009 -8.633612e-010 9.129586e-009 1.534304e-002 -1.120783e-002 2.320645e-003 -1.150569e-002 2.473176e-003 -4.967018e-003 -2.336439e-003 -2.296854e-003 -1.040801e-002 -2.567648e-003 -2.705150e-003 -5.378890e-003 4.135148e-002
<VARIANCE> 25
 1.190384e+002 4.812227e+001 5.910410e+001 5.522232e+001 5.865632e+001 5.289359e+001 4.840873e+001 4.869481e+001 4.995018e+001 3.788008e+001 3.959899e+001 2.469882e+001 2.273300e+000 2.097238e+000 2.094632e+000 2.517218e+000 2.951317e+000 2.821718e+000 2.829959e+000 3.000150e+000 2.901228e+000 2.495291e+000 2.465382e+000 1.941044e+000 2.535352e+000
<GCONST> 1.048854e+002
<TRANSP> 5
 0.000000e+000 1.000000e+000 0.000000e+000 0.000000e+000 0.000000e+000
 0.000000e+000 6.000000e-001 4.000000e-001 0.000000e+000 0.000000e+000
 0.000000e+000 0.000000e+000 6.000000e-001 4.000000e-001 0.000000e+000
 0.000000e+000 0.000000e+000 0.000000e+000 7.000000e-001 3.000000e-001
 0.000000e+000 0.000000e+000 0.000000e+000 0.000000e+000 0.000000e+000
<ENDHMM>
~h"ch"
<BEGINHMM>
<NUMSTATES> 5
<STATE> 2
<MEAN> 25
 2.560693e-008 1.018583e-008 -3.255515e-008 1.242919e-008 1.208706e-008 -3.246789e-008 -1.408014e-008 -4.188220e-009 1.710190e-008 5.639402e-009 -8.633612e-010 9.129586e-009 1.534304e-002 -1.120783e-002 2.320645e-003 -1.150569e-002 2.473176e-003 -4.967018e-003 -2.336439e-003 -2.296854e-003 -1.040801e-002 -2.567648e-003 -2.705150e-003 -5.378890e-003 4.135148e-002
<VARIANCE> 25
 1.190384e+002 4.812227e+001 5.910410e+001 5.522232e+001 5.865632e+001 5.289359e+001 4.840873e+001 4.869481e+001 4.995018e+001 3.788008e+001 3.959899e+001 2.469882e+001 2.273300e+000 2.097238e+000 2.094632e+000 2.517218e+000 2.951317e+000 2.821718e+000 2.829959e+000 3.000150e+000 2.901228e+000 2.495291e+000 2.465382e+000 1.941044e+000 2.535352e+000
<GCONST> 1.048854e+002
<STATE> 3
<MEAN> 25
 2.560693e-008 1.018583e-008 -3.255515e-008 1.242919e-008 1.208706e-008 -3.246789e-008 -1.408014e-008 -4.188220e-009 1.710190e-008 5.639402e-009 -8.633612e-010 9.129586e-009 1.534304e-002 -1.120783e-002 2.320645e-003 -1.150569e-002 2.473176e-003 -4.967018e-003 -2.336439e-003 -2.296854e-003 -1.040801e-002 -2.567648e-003 -2.705150e-003 -5.378890e-003 4.135148e-002
<VARIANCE> 25
 1.190384e+002 4.812227e+001 5.910410e+001 5.522232e+001 5.865632e+001 5.289359e+001 4.840873e+001 4.869481e+001 4.995018e+001 3.788008e+001 3.959899e+001 2.469882e+001 2.273300e+000 2.097238e+000 2.094632e+000 2.517218e+000 2.951317e+000 2.821718e+000 2.829959e+000 3.000150e+000 2.901228e+000 2.495291e+000 2.465382e+000 1.941044e+000 2.535352e+000
<GCONST> 1.048854e+002
<STATE> 4
<MEAN> 25
 2.560693e-008 1.018583e-008 -3.255515e-008 1.242919e-008 1.208706e-008 -3.246789e-008 -1.408014e-008 -4.188220e-009 1.710190e-008 5.639402e-009 -8.633612e-010 9.129586e-009 1.534304e-002 -1.120783e-002 2.320645e-003 -1.150569e-002 2.473176e-003 -4.967018e-003 -2.336439e-003 -2.296854e-003 -1.040801e-002 -2.567648e-003 -2.705150e-003 -5.378890e-003 4.135148e-002
<VARIANCE> 25
 1.190384e+002 4.812227e+001 5.910410e+001 5.522232e+001 5.865632e+001 5.289359e+001 4.840873e+001 4.869481e+001 4.995018e+001 3.788008e+001 3.959899e+001 2.469882e+001 2.273300e+000 2.097238e+000 2.094632e+000 2.517218e+000 2.951317e+000 2.821718e+000 2.829959e+000 3.000150e+000 2.901228e+000 2.495291e+000 2.465382e+000 1.941044e+000 2.535352e+000
<GCONST> 1.048854e+002
<TRANSP> 5
 0.000000e+000 1.000000e+000 0.000000e+000 0.000000e+000 0.000000e+000
 0.000000e+000 6.000000e-001 4.000000e-001 0.000000e+000 0.000000e+000
 0.000000e+000 0.000000e+000 6.000000e-001 4.000000e-001 0.000000e+000
 0.000000e+000 0.000000e+000 0.000000e+000 7.000000e-001 3.000000e-001
 0.000000e+000 0.000000e+000 0.000000e+000 0.000000e+000 0.000000e+000
<ENDHMM>
~h"p"
<BEGINHMM>
<NUMSTATES> 5
<STATE> 2
<MEAN> 25
 2.560693e-008 1.018583e-008 -3.255515e-008 1.242919e-008 1.208706e-008 -3.246789e-008 -1.408014e-008 -4.188220e-009 1.710190e-008 5.639402e-009 -8.633612e-010 9.129586e-009 1.534304e-002 -1.120783e-002 2.320645e-003 -1.150569e-002 2.473176e-003 -4.967018e-003 -2.336439e-003 -2.296854e-003 -1.040801e-002 -2.567648e-003 -2.705150e-003 -5.378890e-003 4.135148e-002
<VARIANCE> 25
 1.190384e+002 4.812227e+001 5.910410e+001 5.522232e+001 5.865632e+001 5.289359e+001 4.840873e+001 4.869481e+001 4.995018e+001 3.788008e+001 3.959899e+001 2.469882e+001 2.273300e+000 2.097238e+000 2.094632e+000 2.517218e+000 2.951317e+000 2.821718e+000 2.829959e+000 3.000150e+000 2.901228e+000 2.495291e+000 2.465382e+000 1.941044e+000 2.535352e+000
<GCONST> 1.048854e+002
<STATE> 3
<MEAN> 25
 2.560693e-008 1.018583e-008 -3.255515e-008 1.242919e-008 1.208706e-008 -3.246789e-008 -1.408014e-008 -4.188220e-009 1.710190e-008 5.639402e-009 -8.633612e-010 9.129586e-009 1.534304e-002 -1.120783e-002 2.320645e-003 -1.150569e-002 2.473176e-003 -4.967018e-003 -2.336439e-003 -2.296854e-003 -1.040801e-002 -2.567648e-003 -2.705150e-003 -5.378890e-003 4.135148e-002
<VARIANCE> 25
 1.190384e+002 4.812227e+001 5.910410e+001 5.522232e+001 5.865632e+001 5.289359e+001 4.840873e+001 4.869481e+001 4.995018e+001 3.788008e+001 3.959899e+001 2.469882e+001 2.273300e+000 2.097238e+000 2.094632e+000 2.517218e+000 2.951317e+000 2.821718e+000 2.829959e+000 3.000150e+000 2.901228e+000 2.495291e+000 2.465382e+000 1.941044e+000 2.535352e+000
<GCONST> 1.048854e+002
<STATE> 4
<MEAN> 25
 2.560693e-008 1.018583e-008 -3.255515e-008 1.242919e-008 1.208706e-008 -3.246789e-008 -1.408014e-008 -4.188220e-009 1.710190e-008 5.639402e-009 -8.633612e-010 9.129586e-009 1.534304e-002 -1.120783e-002 2.320645e-003 -1.150569e-002 2.473176e-003 -4.967018e-003 -2.336439e-003 -2.296854e-003 -1.040801e-002 -2.567648e-003 -2.705150e-003 -5.378890e-003 4.135148e-002
<VARIANCE> 25
 1.190384e+002 4.812227e+001 5.910410e+001 5.522232e+001 5.865632e+001 5.289359e+001 4.840873e+001 4.869481e+001 4.995018e+001 3.788008e+001 3.959899e+001 2.469882e+001 2.273300e+000 2.097238e+000 2.094632e+000 2.517218e+000 2.951317e+000 2.821718e+000 2.829959e+000 3.000150e+000 2.901228e+000 2.495291e+000 2.465382e+000 1.941044e+000 2.535352e+000
<GCONST> 1.048854e+002
<TRANSP> 5
 0.000000e+000 1.000000e+000 0.000000e+000 0.000000e+000 0.000000e+000
 0.000000e+000 6.000000e-001 4.000000e-001 0.000000e+000 0.000000e+000
 0.000000e+000 0.000000e+000 6.000000e-001 4.000000e-001 0.000000e+000
 0.000000e+000 0.000000e+000 0.000000e+000 7.000000e-001 3.000000e-001
 0.000000e+000 0.000000e+000 0.000000e+000 0.000000e+000 0.000000e+000
<ENDHMM>
~h"d"
<BEGINHMM>
<NUMSTATES> 5
<STATE> 2
<MEAN> 25
 2.560693e-008 1.018583e-008 -3.255515e-008 1.242919e-008 1.208706e-008 -3.246789e-008 -1.408014e-008 -4.188220e-009 1.710190e-008 5.639402e-009 -8.633612e-010 9.129586e-009 1.534304e-002 -1.120783e-002 2.320645e-003 -1.150569e-002 2.473176e-003 -4.967018e-003 -2.336439e-003 -2.296854e-003 -1.040801e-002 -2.567648e-003 -2.705150e-003 -5.378890e-003 4.135148e-002
<VARIANCE> 25
 1.190384e+002 4.812227e+001 5.910410e+001 5.522232e+001 5.865632e+001 5.289359e+001 4.840873e+001 4.869481e+001 4.995018e+001 3.788008e+001 3.959899e+001 2.469882e+001 2.273300e+000 2.097238e+000 2.094632e+000 2.517218e+000 2.951317e+000 2.821718e+000 2.829959e+000 3.000150e+000 2.901228e+000 2.495291e+000 2.465382e+000 1.941044e+000 2.535352e+000
<GCONST> 1.048854e+002
<STATE> 3
<MEAN> 25
 2.560693e-008 1.018583e-008 -3.255515e-008 1.242919e-008 1.208706e-008 -3.246789e-008 -1.408014e-008 -4.188220e-009 1.710190e-008 5.639402e-009 -8.633612e-010 9.129586e-009 1.534304e-002 -1.120783e-002 2.320645e-003 -1.150569e-002 2.473176e-003 -4.967018e-003 -2.336439e-003 -2.296854e-003 -1.040801e-002 -2.567648e-003 -2.705150e-003 -5.378890e-003 4.135148e-002
<VARIANCE> 25
 1.190384e+002 4.812227e+001 5.910410e+001 5.522232e+001 5.865632e+001 5.289359e+001 4.840873e+001 4.869481e+001 4.995018e+001 3.788008e+001 3.959899e+001 2.469882e+001 2.273300e+000 2.097238e+000 2.094632e+000 2.517218e+000 2.951317e+000 2.821718e+000 2.829959e+000 3.000150e+000 2.901228e+000 2.495291e+000 2.465382e+000 1.941044e+000 2.535352e+000
<GCONST> 1.048854e+002
<STATE> 4
<MEAN> 25
 2.560693e-008 1.018583e-008 -3.255515e-008 1.242919e-008 1.208706e-008 -3.246789e-008 -1.408014e-008 -4.188220e-009 1.710190e-008 5.639402e-009 -8.633612e-010 9.129586e-009 1.534304e-002 -1.120783e-002 2.320645e-003 -1.150569e-002 2.473176e-003 -4.967018e-003 -2.336439e-003 -2.296854e-003 -1.040801e-002 -2.567648e-003 -2.705150e-003 -5.378890e-003 4.135148e-002
<VARIANCE> 25
 1.190384e+002 4.812227e+001 5.910410e+001 5.522232e+001 5.865632e+001 5.289359e+001 4.840873e+001 4.869481e+001 4.995018e+001 3.788008e+001 3.959899e+001 2.469882e+001 2.273300e+000 2.097238e+000 2.094632e+000 2.517218e+000 2.951317e+000 2.821718e+000 2.829959e+000 3.000150e+000 2.901228e+000 2.495291e+000 2.465382e+000 1.941044e+000 2.535352e+000
<GCONST> 1.048854e+002
<TRANSP> 5
 0.000000e+000 1.000000e+000 0.000000e+000 0.000000e+000 0.000000e+000
 0.000000e+000 6.000000e-001 4.000000e-001 0.000000e+000 0.000000e+000
 0.000000e+000 0.000000e+000 6.000000e-001 4.000000e-001 0.000000e+000
 0.000000e+000 0.000000e+000 0.000000e+000 7.000000e-001 3.000000e-001
 0.000000e+000 0.000000e+000 0.000000e+000 0.000000e+000 0.000000e+000
<ENDHMM>
~h"aw"
<BEGINHMM>
<NUMSTATES> 5
<STATE> 2
<MEAN> 25
 2.560693e-008 1.018583e-008 -3.255515e-008 1.242919e-008 1.208706e-008 -3.246789e-008 -1.408014e-008 -4.188220e-009 1.710190e-008 5.639402e-009 -8.633612e-010 9.129586e-009 1.534304e-002 -1.120783e-002 2.320645e-003 -1.150569e-002 2.473176e-003 -4.967018e-003 -2.336439e-003 -2.296854e-003 -1.040801e-002 -2.567648e-003 -2.705150e-003 -5.378890e-003 4.135148e-002
<VARIANCE> 25
 1.190384e+002 4.812227e+001 5.910410e+001 5.522232e+001 5.865632e+001 5.289359e+001 4.840873e+001 4.869481e+001 4.995018e+001 3.788008e+001 3.959899e+001 2.469882e+001 2.273300e+000 2.097238e+000 2.094632e+000 2.517218e+000 2.951317e+000 2.821718e+000 2.829959e+000 3.000150e+000 2.901228e+000 2.495291e+000 2.465382e+000 1.941044e+000 2.535352e+000
<GCONST> 1.048854e+002
<STATE> 3
<MEAN> 25
 2.560693e-008 1.018583e-008 -3.255515e-008 1.242919e-008 1.208706e-008 -3.246789e-008 -1.408014e-008 -4.188220e-009 1.710190e-008 5.639402e-009 -8.633612e-010 9.129586e-009 1.534304e-002 -1.120783e-002 2.320645e-003 -1.150569e-002 2.473176e-003 -4.967018e-003 -2.336439e-003 -2.296854e-003 -1.040801e-002 -2.567648e-003 -2.705150e-003 -5.378890e-003 4.135148e-002
<VARIANCE> 25
 1.190384e+002 4.812227e+001 5.910410e+001 5.522232e+001 5.865632e+001 5.289359e+001 4.840873e+001 4.869481e+001 4.995018e+001 3.788008e+001 3.959899e+001 2.469882e+001 2.273300e+000 2.097238e+000 2.094632e+000 2.517218e+000 2.951317e+000 2.821718e+000 2.829959e+000 3.000150e+000 2.901228e+000 2.495291e+000 2.465382e+000 1.941044e+000 2.535352e+000
<GCONST> 1.048854e+002
<STATE> 4
<MEAN> 25
 2.560693e-008 1.018583e-008 -3.255515e-008 1.242919e-008 1.208706e-008 -3.246789e-008 -1.408014e-008 -4.188220e-009 1.710190e-008 5.639402e-009 -8.633612e-010 9.129586e-009 1.534304e-002 -1.120783e-002 2.320645e-003 -1.150569e-002 2.473176e-003 -4.967018e-003 -2.336439e-003 -2.296854e-003 -1.040801e-002 -2.567648e-003 -2.705150e-003 -5.378890e-003 4.135148e-002
<VARIANCE> 25
 1.190384e+002 4.812227e+001 5.910410e+001 5.522232e+001 5.865632e+001 5.289359e+001 4.840873e+001 4.869481e+001 4.995018e+001 3.788008e+001 3.959899e+001 2.469882e+001 2.273300e+000 2.097238e+000 2.094632e+000 2.517218e+000 2.951317e+000 2.821718e+000 2.829959e+000 3.000150e+000 2.901228e+000 2.495291e+000 2.465382e+000 1.941044e+000 2.535352e+000
<GCONST> 1.048854e+002
<TRANSP> 5
 0.000000e+000 1.000000e+000 0.000000e+000 0.000000e+000 0.000000e+000
 0.000000e+000 6.000000e-001 4.000000e-001 0.000000e+000 0.000000e+000
 0.000000e+000 0.000000e+000 6.000000e-001 4.000000e-001 0.000000e+000
 0.000000e+000 0.000000e+000 0.000000e+000 7.000000e-001 3.000000e-001
 0.000000e+000 0.000000e+000 0.000000e+000 0.000000e+000 0.000000e+000
<ENDHMM>
~h"sh"
<BEGINHMM>
<NUMSTATES> 5
<STATE> 2
<MEAN> 25
 2.560693e-008 1.018583e-008 -3.255515e-008 1.242919e-008 1.208706e-008 -3.246789e-008 -1.408014e-008 -4.188220e-009 1.710190e-008 5.639402e-009 -8.633612e-010 9.129586e-009 1.534304e-002 -1.120783e-002 2.320645e-003 -1.150569e-002 2.473176e-003 -4.967018e-003 -2.336439e-003 -2.296854e-003 -1.040801e-002 -2.567648e-003 -2.705150e-003 -5.378890e-003 4.135148e-002
<VARIANCE> 25
 1.190384e+002 4.812227e+001 5.910410e+001 5.522232e+001 5.865632e+001 5.289359e+001 4.840873e+001 4.869481e+001 4.995018e+001 3.788008e+001 3.959899e+001 2.469882e+001 2.273300e+000 2.097238e+000 2.094632e+000 2.517218e+000 2.951317e+000 2.821718e+000 2.829959e+000 3.000150e+000 2.901228e+000 2.495291e+000 2.465382e+000 1.941044e+000 2.535352e+000
<GCONST> 1.048854e+002
<STATE> 3
<MEAN> 25
 2.560693e-008 1.018583e-008 -3.255515e-008 1.242919e-008 1.208706e-008 -3.246789e-008 -1.408014e-008 -4.188220e-009 1.710190e-008 5.639402e-009 -8.633612e-010 9.129586e-009 1.534304e-002 -1.120783e-002 2.320645e-003 -1.150569e-002 2.473176e-003 -4.967018e-003 -2.336439e-003 -2.296854e-003 -1.040801e-002 -2.567648e-003 -2.705150e-003 -5.378890e-003 4.135148e-002
<VARIANCE> 25
 1.190384e+002 4.812227e+001 5.910410e+001 5.522232e+001 5.865632e+001 5.289359e+001 4.840873e+001 4.869481e+001 4.995018e+001 3.788008e+001 3.959899e+001 2.469882e+001 2.273300e+000 2.097238e+000 2.094632e+000 2.517218e+000 2.951317e+000 2.821718e+000 2.829959e+000 3.000150e+000 2.901228e+000 2.495291e+000 2.465382e+000 1.941044e+000 2.535352e+000
<GCONST> 1.048854e+002
<STATE> 4
<MEAN> 25
 2.560693e-008 1.018583e-008 -3.255515e-008 1.242919e-008 1.208706e-008 -3.246789e-008 -1.408014e-008 -4.188220e-009 1.710190e-008 5.639402e-009 -8.633612e-010 9.129586e-009 1.534304e-002 -1.120783e-002 2.320645e-003 -1.150569e-002 2.473176e-003 -4.967018e-003 -2.336439e-003 -2.296854e-003 -1.040801e-002 -2.567648e-003 -2.705150e-003 -5.378890e-003 4.135148e-002
<VARIANCE> 25
 1.190384e+002 4.812227e+001 5.910410e+001 5.522232e+001 5.865632e+001 5.289359e+001 4.840873e+001 4.869481e+001 4.995018e+001 3.788008e+001 3.959899e+001 2.469882e+001 2.273300e+000 2.097238e+000 2.094632e+000 2.517218e+000 2.951317e+000 2.821718e+000 2.829959e+000 3.000150e+000 2.901228e+000 2.495291e+000 2.465382e+000 1.941044e+000 2.535352e+000
<GCONST> 1.048854e+002
<TRANSP> 5
 0.000000e+000 1.000000e+000 0.000000e+000 0.000000e+000 0.000000e+000
 0.000000e+000 6.000000e-001 4.000000e-001 0.000000e+000 0.000000e+000
 0.000000e+000 0.000000e+000 6.000000e-001 4.000000e-001 0.000000e+000
 0.000000e+000 0.000000e+000 0.000000e+000 7.000000e-001 3.000000e-001
 0.000000e+000 0.000000e+000 0.000000e+000 0.000000e+000 0.000000e+000
<ENDHMM>
~h"dh"
<BEGINHMM>
<NUMSTATES> 5
<STATE> 2
<MEAN> 25
 2.560693e-008 1.018583e-008 -3.255515e-008 1.242919e-008 1.208706e-008 -3.246789e-008 -1.408014e-008 -4.188220e-009 1.710190e-008 5.639402e-009 -8.633612e-010 9.129586e-009 1.534304e-002 -1.120783e-002 2.320645e-003 -1.150569e-002 2.473176e-003 -4.967018e-003 -2.336439e-003 -2.296854e-003 -1.040801e-002 -2.567648e-003 -2.705150e-003 -5.378890e-003 4.135148e-002
<VARIANCE> 25
 1.190384e+002 4.812227e+001 5.910410e+001 5.522232e+001 5.865632e+001 5.289359e+001 4.840873e+001 4.869481e+001 4.995018e+001 3.788008e+001 3.959899e+001 2.469882e+001 2.273300e+000 2.097238e+000 2.094632e+000 2.517218e+000 2.951317e+000 2.821718e+000 2.829959e+000 3.000150e+000 2.901228e+000 2.495291e+000 2.465382e+000 1.941044e+000 2.535352e+000
<GCONST> 1.048854e+002
<STATE> 3
<MEAN> 25
 2.560693e-008 1.018583e-008 -3.255515e-008 1.242919e-008 1.208706e-008 -3.246789e-008 -1.408014e-008 -4.188220e-009 1.710190e-008 5.639402e-009 -8.633612e-010 9.129586e-009 1.534304e-002 -1.120783e-002 2.320645e-003 -1.150569e-002 2.473176e-003 -4.967018e-003 -2.336439e-003 -2.296854e-003 -1.040801e-002 -2.567648e-003 -2.705150e-003 -5.378890e-003 4.135148e-002
<VARIANCE> 25
 1.190384e+002 4.812227e+001 5.910410e+001 5.522232e+001 5.865632e+001 5.289359e+001 4.840873e+001 4.869481e+001 4.995018e+001 3.788008e+001 3.959899e+001 2.469882e+001 2.273300e+000 2.097238e+000 2.094632e+000 2.517218e+000 2.951317e+000 2.821718e+000 2.829959e+000 3.000150e+000 2.901228e+000 2.495291e+000 2.465382e+000 1.941044e+000 2.535352e+000
<GCONST> 1.048854e+002
<STATE> 4
<MEAN> 25
 2.560693e-008 1.018583e-008 -3.255515e-008 1.242919e-008 1.208706e-008 -3.246789e-008 -1.408014e-008 -4.188220e-009 1.710190e-008 5.639402e-009 -8.633612e-010 9.129586e-009 1.534304e-002 -1.120783e-002 2.320645e-003 -1.150569e-002 2.473176e-003 -4.967018e-003 -2.336439e-003 -2.296854e-003 -1.040801e-002 -2.567648e-003 -2.705150e-003 -5.378890e-003 4.135148e-002
<VARIANCE> 25
 1.190384e+002 4.812227e+001 5.910410e+001 5.522232e+001 5.865632e+001 5.289359e+001 4.840873e+001 4.869481e+001 4.995018e+001 3.788008e+001 3.959899e+001 2.469882e+001 2.273300e+000 2.097238e+000 2.094632e+000 2.517218e+000 2.951317e+000 2.821718e+000 2.829959e+000 3.000150e+000 2.901228e+000 2.495291e+000 2.465382e+000 1.941044e+000 2.535352e+000
<GCONST> 1.048854e+002
<TRANSP> 5
 0.000000e+000 1.000000e+000 0.000000e+000 0.000000e+000 0.000000e+000
 0.000000e+000 6.000000e-001 4.000000e-001 0.000000e+000 0.000000e+000
 0.000000e+000 0.000000e+000 6.000000e-001 4.000000e-001 0.000000e+000
 0.000000e+000 0.000000e+000 0.000000e+000 7.000000e-001 3.000000e-001
 0.000000e+000 0.000000e+000 0.000000e+000 0.000000e+000 0.000000e+000
<ENDHMM>
~h"ow"
<BEGINHMM>
<NUMSTATES> 5
<STATE> 2
<MEAN> 25
 2.560693e-008 1.018583e-008 -3.255515e-008 1.242919e-008 1.208706e-008 -3.246789e-008 -1.408014e-008 -4.188220e-009 1.710190e-008 5.639402e-009 -8.633612e-010 9.129586e-009 1.534304e-002 -1.120783e-002 2.320645e-003 -1.150569e-002 2.473176e-003 -4.967018e-003 -2.336439e-003 -2.296854e-003 -1.040801e-002 -2.567648e-003 -2.705150e-003 -5.378890e-003 4.135148e-002
<VARIANCE> 25
 1.190384e+002 4.812227e+001 5.910410e+001 5.522232e+001 5.865632e+001 5.289359e+001 4.840873e+001 4.869481e+001 4.995018e+001 3.788008e+001 3.959899e+001 2.469882e+001 2.273300e+000 2.097238e+000 2.094632e+000 2.517218e+000 2.951317e+000 2.821718e+000 2.829959e+000 3.000150e+000 2.901228e+000 2.495291e+000 2.465382e+000 1.941044e+000 2.535352e+000
<GCONST> 1.048854e+002
<STATE> 3
<MEAN> 25
 2.560693e-008 1.018583e-008 -3.255515e-008 1.242919e-008 1.208706e-008 -3.246789e-008 -1.408014e-008 -4.188220e-009 1.710190e-008 5.639402e-009 -8.633612e-010 9.129586e-009 1.534304e-002 -1.120783e-002 2.320645e-003 -1.150569e-002 2.473176e-003 -4.967018e-003 -2.336439e-003 -2.296854e-003 -1.040801e-002 -2.567648e-003 -2.705150e-003 -5.378890e-003 4.135148e-002
<VARIANCE> 25
 1.190384e+002 4.812227e+001 5.910410e+001 5.522232e+001 5.865632e+001 5.289359e+001 4.840873e+001 4.869481e+001 4.995018e+001 3.788008e+001 3.959899e+001 2.469882e+001 2.273300e+000 2.097238e+000 2.094632e+000 2.517218e+000 2.951317e+000 2.821718e+000 2.829959e+000 3.000150e+000 2.901228e+000 2.495291e+000 2.465382e+000 1.941044e+000 2.535352e+000
<GCONST> 1.048854e+002
<STATE> 4
<MEAN> 25
 2.560693e-008 1.018583e-008 -3.255515e-008 1.242919e-008 1.208706e-008 -3.246789e-008 -1.408014e-008 -4.188220e-009 1.710190e-008 5.639402e-009 -8.633612e-010 9.129586e-009 1.534304e-002 -1.120783e-002 2.320645e-003 -1.150569e-002 2.473176e-003 -4.967018e-003 -2.336439e-003 -2.296854e-003 -1.040801e-002 -2.567648e-003 -2.705150e-003 -5.378890e-003 4.135148e-002
<VARIANCE> 25
 1.190384e+002 4.812227e+001 5.910410e+001 5.522232e+001 5.865632e+001 5.289359e+001 4.840873e+001 4.869481e+001 4.995018e+001 3.788008e+001 3.959899e+001 2.469882e+001 2.273300e+000 2.097238e+000 2.094632e+000 2.517218e+000 2.951317e+000 2.821718e+000 2.829959e+000 3.000150e+000 2.901228e+000 2.495291e+000 2.465382e+000 1.941044e+000 2.535352e+000
<GCONST> 1.048854e+002
<TRANSP> 5
 0.000000e+000 1.000000e+000 0.000000e+000 0.000000e+000 0.000000e+000
 0.000000e+000 6.000000e-001 4.000000e-001 0.000000e+000 0.000000e+000
 0.000000e+000 0.000000e+000 6.000000e-001 4.000000e-001 0.000000e+000
 0.000000e+000 0.000000e+000 0.000000e+000 7.000000e-001 3.000000e-001
 0.000000e+000 0.000000e+000 0.000000e+000 0.000000e+000 0.000000e+000
<ENDHMM>
~h"ao"
<BEGINHMM>
<NUMSTATES> 5
<STATE> 2
<MEAN> 25
 2.560693e-008 1.018583e-008 -3.255515e-008 1.242919e-008 1.208706e-008 -3.246789e-008 -1.408014e-008 -4.188220e-009 1.710190e-008 5.639402e-009 -8.633612e-010 9.129586e-009 1.534304e-002 -1.120783e-002 2.320645e-003 -1.150569e-002 2.473176e-003 -4.967018e-003 -2.336439e-003 -2.296854e-003 -1.040801e-002 -2.567648e-003 -2.705150e-003 -5.378890e-003 4.135148e-002
<VARIANCE> 25
 1.190384e+002 4.812227e+001 5.910410e+001 5.522232e+001 5.865632e+001 5.289359e+001 4.840873e+001 4.869481e+001 4.995018e+001 3.788008e+001 3.959899e+001 2.469882e+001 2.273300e+000 2.097238e+000 2.094632e+000 2.517218e+000 2.951317e+000 2.821718e+000 2.829959e+000 3.000150e+000 2.901228e+000 2.495291e+000 2.465382e+000 1.941044e+000 2.535352e+000
<GCONST> 1.048854e+002
<STATE> 3
<MEAN> 25
 2.560693e-008 1.018583e-008 -3.255515e-008 1.242919e-008 1.208706e-008 -3.246789e-008 -1.408014e-008 -4.188220e-009 1.710190e-008 5.639402e-009 -8.633612e-010 9.129586e-009 1.534304e-002 -1.120783e-002 2.320645e-003 -1.150569e-002 2.473176e-003 -4.967018e-003 -2.336439e-003 -2.296854e-003 -1.040801e-002 -2.567648e-003 -2.705150e-003 -5.378890e-003 4.135148e-002
<VARIANCE> 25
 1.190384e+002 4.812227e+001 5.910410e+001 5.522232e+001 5.865632e+001 5.289359e+001 4.840873e+001 4.869481e+001 4.995018e+001 3.788008e+001 3.959899e+001 2.469882e+001 2.273300e+000 2.097238e+000 2.094632e+000 2.517218e+000 2.951317e+000 2.821718e+000 2.829959e+000 3.000150e+000 2.901228e+000 2.495291e+000 2.465382e+000 1.941044e+000 2.535352e+000
<GCONST> 1.048854e+002
<STATE> 4
<MEAN> 25
 2.560693e-008 1.018583e-008 -3.255515e-008 1.242919e-008 1.208706e-008 -3.246789e-008 -1.408014e-008 -4.188220e-009 1.710190e-008 5.639402e-009 -8.633612e-010 9.129586e-009 1.534304e-002 -1.120783e-002 2.320645e-003 -1.150569e-002 2.473176e-003 -4.967018e-003 -2.336439e-003 -2.296854e-003 -1.040801e-002 -2.567648e-003 -2.705150e-003 -5.378890e-003 4.135148e-002
<VARIANCE> 25
 1.190384e+002 4.812227e+001 5.910410e+001 5.522232e+001 5.865632e+001 5.289359e+001 4.840873e+001 4.869481e+001 4.995018e+001 3.788008e+001 3.959899e+001 2.469882e+001 2.273300e+000 2.097238e+000 2.094632e+000 2.517218e+000 2.951317e+000 2.821718e+000 2.829959e+000 3.000150e+000 2.901228e+000 2.495291e+000 2.465382e+000 1.941044e+000 2.535352e+000
<GCONST> 1.048854e+002
<TRANSP> 5
 0.000000e+000 1.000000e+000 0.000000e+000 0.000000e+000 0.000000e+000
 0.000000e+000 6.000000e-001 4.000000e-001 0.000000e+000 0.000000e+000
 0.000000e+000 0.000000e+000 6.000000e-001 4.000000e-001 0.000000e+000
 0.000000e+000 0.000000e+000 0.000000e+000 7.000000e-001 3.000000e-001
 0.000000e+000 0.000000e+000 0.000000e+000 0.000000e+000 0.000000e+000
<ENDHMM>
~h"z"
<BEGINHMM>
<NUMSTATES> 5
<STATE> 2
<MEAN> 25
 2.560693e-008 1.018583e-008 -3.255515e-008 1.242919e-008 1.208706e-008 -3.246789e-008 -1.408014e-008 -4.188220e-009 1.710190e-008 5.639402e-009 -8.633612e-010 9.129586e-009 1.534304e-002 -1.120783e-002 2.320645e-003 -1.150569e-002 2.473176e-003 -4.967018e-003 -2.336439e-003 -2.296854e-003 -1.040801e-002 -2.567648e-003 -2.705150e-003 -5.378890e-003 4.135148e-002
<VARIANCE> 25
 1.190384e+002 4.812227e+001 5.910410e+001 5.522232e+001 5.865632e+001 5.289359e+001 4.840873e+001 4.869481e+001 4.995018e+001 3.788008e+001 3.959899e+001 2.469882e+001 2.273300e+000 2.097238e+000 2.094632e+000 2.517218e+000 2.951317e+000 2.821718e+000 2.829959e+000 3.000150e+000 2.901228e+000 2.495291e+000 2.465382e+000 1.941044e+000 2.535352e+000
<GCONST> 1.048854e+002
<STATE> 3
<MEAN> 25
 2.560693e-008 1.018583e-008 -3.255515e-008 1.242919e-008 1.208706e-008 -3.246789e-008 -1.408014e-008 -4.188220e-009 1.710190e-008 5.639402e-009 -8.633612e-010 9.129586e-009 1.534304e-002 -1.120783e-002 2.320645e-003 -1.150569e-002 2.473176e-003 -4.967018e-003 -2.336439e-003 -2.296854e-003 -1.040801e-002 -2.567648e-003 -2.705150e-003 -5.378890e-003 4.135148e-002
<VARIANCE> 25
 1.190384e+002 4.812227e+001 5.910410e+001 5.522232e+001 5.865632e+001 5.289359e+001 4.840873e+001 4.869481e+001 4.995018e+001 3.788008e+001 3.959899e+001 2.469882e+001 2.273300e+000 2.097238e+000 2.094632e+000 2.517218e+000 2.951317e+000 2.821718e+000 2.829959e+000 3.000150e+000 2.901228e+000 2.495291e+000 2.465382e+000 1.941044e+000 2.535352e+000
<GCONST> 1.048854e+002
<STATE> 4
<MEAN> 25
 2.560693e-008 1.018583e-008 -3.255515e-008 1.242919e-008 1.208706e-008 -3.246789e-008 -1.408014e-008 -4.188220e-009 1.710190e-008 5.639402e-009 -8.633612e-010 9.129586e-009 1.534304e-002 -1.120783e-002 2.320645e-003 -1.150569e-002 2.473176e-003 -4.967018e-003 -2.336439e-003 -2.296854e-003 -1.040801e-002 -2.567648e-003 -2.705150e-003 -5.378890e-003 4.135148e-002
<VARIANCE> 25
 1.190384e+002 4.812227e+001 5.910410e+001 5.522232e+001 5.865632e+001 5.289359e+001 4.840873e+001 4.869481e+001 4.995018e+001 3.788008e+001 3.959899e+001 2.469882e+001 2.273300e+000 2.097238e+000 2.094632e+000 2.517218e+000 2.951317e+000 2.821718e+000 2.829959e+000 3.000150e+000 2.901228e+000 2.495291e+000 2.465382e+000 1.941044e+000 2.535352e+000
<GCONST> 1.048854e+002
<TRANSP> 5
 0.000000e+000 1.000000e+000 0.000000e+000 0.000000e+000 0.000000e+000
 0.000000e+000 6.000000e-001 4.000000e-001 0.000000e+000 0.000000e+000
 0.000000e+000 0.000000e+000 6.000000e-001 4.000000e-001 0.000000e+000
 0.000000e+000 0.000000e+000 0.000000e+000 7.000000e-001 3.000000e-001
 0.000000e+000 0.000000e+000 0.000000e+000 0.000000e+000 0.000000e+000
<ENDHMM>
~h"g"
<BEGINHMM>
<NUMSTATES> 5
<STATE> 2
<MEAN> 25
 2.560693e-008 1.018583e-008 -3.255515e-008 1.242919e-008 1.208706e-008 -3.246789e-008 -1.408014e-008 -4.188220e-009 1.710190e-008 5.639402e-009 -8.633612e-010 9.129586e-009 1.534304e-002 -1.120783e-002 2.320645e-003 -1.150569e-002 2.473176e-003 -4.967018e-003 -2.336439e-003 -2.296854e-003 -1.040801e-002 -2.567648e-003 -2.705150e-003 -5.378890e-003 4.135148e-002
<VARIANCE> 25
 1.190384e+002 4.812227e+001 5.910410e+001 5.522232e+001 5.865632e+001 5.289359e+001 4.840873e+001 4.869481e+001 4.995018e+001 3.788008e+001 3.959899e+001 2.469882e+001 2.273300e+000 2.097238e+000 2.094632e+000 2.517218e+000 2.951317e+000 2.821718e+000 2.829959e+000 3.000150e+000 2.901228e+000 2.495291e+000 2.465382e+000 1.941044e+000 2.535352e+000
<GCONST> 1.048854e+002
<STATE> 3
<MEAN> 25
 2.560693e-008 1.018583e-008 -3.255515e-008 1.242919e-008 1.208706e-008 -3.246789e-008 -1.408014e-008 -4.188220e-009 1.710190e-008 5.639402e-009 -8.633612e-010 9.129586e-009 1.534304e-002 -1.120783e-002 2.320645e-003 -1.150569e-002 2.473176e-003 -4.967018e-003 -2.336439e-003 -2.296854e-003 -1.040801e-002 -2.567648e-003 -2.705150e-003 -5.378890e-003 4.135148e-002
<VARIANCE> 25
 1.190384e+002 4.812227e+001 5.910410e+001 5.522232e+001 5.865632e+001 5.289359e+001 4.840873e+001 4.869481e+001 4.995018e+001 3.788008e+001 3.959899e+001 2.469882e+001 2.273300e+000 2.097238e+000 2.094632e+000 2.517218e+000 2.951317e+000 2.821718e+000 2.829959e+000 3.000150e+000 2.901228e+000 2.495291e+000 2.465382e+000 1.941044e+000 2.535352e+000
<GCONST> 1.048854e+002
<STATE> 4
<MEAN> 25
 2.560693e-008 1.018583e-008 -3.255515e-008 1.242919e-008 1.208706e-008 -3.246789e-008 -1.408014e-008 -4.188220e-009 1.710190e-008 5.639402e-009 -8.633612e-010 9.129586e-009 1.534304e-002 -1.120783e-002 2.320645e-003 -1.150569e-002 2.473176e-003 -4.967018e-003 -2.336439e-003 -2.296854e-003 -1.040801e-002 -2.567648e-003 -2.705150e-003 -5.378890e-003 4.135148e-002
<VARIANCE> 25
 1.190384e+002 4.812227e+001 5.910410e+001 5.522232e+001 5.865632e+001 5.289359e+001 4.840873e+001 4.869481e+001 4.995018e+001 3.788008e+001 3.959899e+001 2.469882e+001 2.273300e+000 2.097238e+000 2.094632e+000 2.517218e+000 2.951317e+000 2.821718e+000 2.829959e+000 3.000150e+000 2.901228e+000 2.495291e+000 2.465382e+000 1.941044e+000 2.535352e+000
<GCONST> 1.048854e+002
<TRANSP> 5
 0.000000e+000 1.000000e+000 0.000000e+000 0.000000e+000 0.000000e+000
 0.000000e+000 6.000000e-001 4.000000e-001 0.000000e+000 0.000000e+000
 0.000000e+000 0.000000e+000 6.000000e-001 4.000000e-001 0.000000e+000
 0.000000e+000 0.000000e+000 0.000000e+000 7.000000e-001 3.000000e-001
 0.000000e+000 0.000000e+000 0.000000e+000 0.000000e+000 0.000000e+000
<ENDHMM>
~h"hh"
<BEGINHMM>
<NUMSTATES> 5
<STATE> 2
<MEAN> 25
 2.560693e-008 1.018583e-008 -3.255515e-008 1.242919e-008 1.208706e-008 -3.246789e-008 -1.408014e-008 -4.188220e-009 1.710190e-008 5.639402e-009 -8.633612e-010 9.129586e-009 1.534304e-002 -1.120783e-002 2.320645e-003 -1.150569e-002 2.473176e-003 -4.967018e-003 -2.336439e-003 -2.296854e-003 -1.040801e-002 -2.567648e-003 -2.705150e-003 -5.378890e-003 4.135148e-002
<VARIANCE> 25
 1.190384e+002 4.812227e+001 5.910410e+001 5.522232e+001 5.865632e+001 5.289359e+001 4.840873e+001 4.869481e+001 4.995018e+001 3.788008e+001 3.959899e+001 2.469882e+001 2.273300e+000 2.097238e+000 2.094632e+000 2.517218e+000 2.951317e+000 2.821718e+000 2.829959e+000 3.000150e+000 2.901228e+000 2.495291e+000 2.465382e+000 1.941044e+000 2.535352e+000
<GCONST> 1.048854e+002
<STATE> 3
<MEAN> 25
 2.560693e-008 1.018583e-008 -3.255515e-008 1.242919e-008 1.208706e-008 -3.246789e-008 -1.408014e-008 -4.188220e-009 1.710190e-008 5.639402e-009 -8.633612e-010 9.129586e-009 1.534304e-002 -1.120783e-002 2.320645e-003 -1.150569e-002 2.473176e-003 -4.967018e-003 -2.336439e-003 -2.296854e-003 -1.040801e-002 -2.567648e-003 -2.705150e-003 -5.378890e-003 4.135148e-002
<VARIANCE> 25
 1.190384e+002 4.812227e+001 5.910410e+001 5.522232e+001 5.865632e+001 5.289359e+001 4.840873e+001 4.869481e+001 4.995018e+001 3.788008e+001 3.959899e+001 2.469882e+001 2.273300e+000 2.097238e+000 2.094632e+000 2.517218e+000 2.951317e+000 2.821718e+000 2.829959e+000 3.000150e+000 2.901228e+000 2.495291e+000 2.465382e+000 1.941044e+000 2.535352e+000
<GCONST> 1.048854e+002
<STATE> 4
<MEAN> 25
 2.560693e-008 1.018583e-008 -3.255515e-008 1.242919e-008 1.208706e-008 -3.246789e-008 -1.408014e-008 -4.188220e-009 1.710190e-008 5.639402e-009 -8.633612e-010 9.129586e-009 1.534304e-002 -1.120783e-002 2.320645e-003 -1.150569e-002 2.473176e-003 -4.967018e-003 -2.336439e-003 -2.296854e-003 -1.040801e-002 -2.567648e-003 -2.705150e-003 -5.378890e-003 4.135148e-002
<VARIANCE> 25
 1.190384e+002 4.812227e+001 5.910410e+001 5.522232e+001 5.865632e+001 5.289359e+001 4.840873e+001 4.869481e+001 4.995018e+001 3.788008e+001 3.959899e+001 2.469882e+001 2.273300e+000 2.097238e+000 2.094632e+000 2.517218e+000 2.951317e+000 2.821718e+000 2.829959e+000 3.000150e+000 2.901228e+000 2.495291e+000 2.465382e+000 1.941044e+000 2.535352e+000
<GCONST> 1.048854e+002
<TRANSP> 5
 0.000000e+000 1.000000e+000 0.000000e+000 0.000000e+000 0.000000e+000
 0.000000e+000 6.000000e-001 4.000000e-001 0.000000e+000 0.000000e+000
 0.000000e+000 0.000000e+000 6.000000e-001 4.000000e-001 0.000000e+000
 0.000000e+000 0.000000e+000 0.000000e+000 7.000000e-001 3.000000e-001
 0.000000e+000 0.000000e+000 0.000000e+000 0.000000e+000 0.000000e+000
<ENDHMM>
~h"oy"
<BEGINHMM>
<NUMSTATES> 5
<STATE> 2
<MEAN> 25
 2.560693e-008 1.018583e-008 -3.255515e-008 1.242919e-008 1.208706e-008 -3.246789e-008 -1.408014e-008 -4.188220e-009 1.710190e-008 5.639402e-009 -8.633612e-010 9.129586e-009 1.534304e-002 -1.120783e-002 2.320645e-003 -1.150569e-002 2.473176e-003 -4.967018e-003 -2.336439e-003 -2.296854e-003 -1.040801e-002 -2.567648e-003 -2.705150e-003 -5.378890e-003 4.135148e-002
<VARIANCE> 25
 1.190384e+002 4.812227e+001 5.910410e+001 5.522232e+001 5.865632e+001 5.289359e+001 4.840873e+001 4.869481e+001 4.995018e+001 3.788008e+001 3.959899e+001 2.469882e+001 2.273300e+000 2.097238e+000 2.094632e+000 2.517218e+000 2.951317e+000 2.821718e+000 2.829959e+000 3.000150e+000 2.901228e+000 2.495291e+000 2.465382e+000 1.941044e+000 2.535352e+000
<GCONST> 1.048854e+002
<STATE> 3
<MEAN> 25
 2.560693e-008 1.018583e-008 -3.255515e-008 1.242919e-008 1.208706e-008 -3.246789e-008 -1.408014e-008 -4.188220e-009 1.710190e-008 5.639402e-009 -8.633612e-010 9.129586e-009 1.534304e-002 -1.120783e-002 2.320645e-003 -1.150569e-002 2.473176e-003 -4.967018e-003 -2.336439e-003 -2.296854e-003 -1.040801e-002 -2.567648e-003 -2.705150e-003 -5.378890e-003 4.135148e-002
<VARIANCE> 25
 1.190384e+002 4.812227e+001 5.910410e+001 5.522232e+001 5.865632e+001 5.289359e+001 4.840873e+001 4.869481e+001 4.995018e+001 3.788008e+001 3.959899e+001 2.469882e+001 2.273300e+000 2.097238e+000 2.094632e+000 2.517218e+000 2.951317e+000 2.821718e+000 2.829959e+000 3.000150e+000 2.901228e+000 2.495291e+000 2.465382e+000 1.941044e+000 2.535352e+000
<GCONST> 1.048854e+002
<STATE> 4
<MEAN> 25
 2.560693e-008 1.018583e-008 -3.255515e-008 1.242919e-008 1.208706e-008 -3.246789e-008 -1.408014e-008 -4.188220e-009 1.710190e-008 5.639402e-009 -8.633612e-010 9.129586e-009 1.534304e-002 -1.120783e-002 2.320645e-003 -1.150569e-002 2.473176e-003 -4.967018e-003 -2.336439e-003 -2.296854e-003 -1.040801e-002 -2.567648e-003 -2.705150e-003 -5.378890e-003 4.135148e-002
<VARIANCE> 25
 1.190384e+002 4.812227e+001 5.910410e+001 5.522232e+001 5.865632e+001 5.289359e+001 4.840873e+001 4.869481e+001 4.995018e+001 3.788008e+001 3.959899e+001 2.469882e+001 2.273300e+000 2.097238e+000 2.094632e+000 2.517218e+000 2.951317e+000 2.821718e+000 2.829959e+000 3.000150e+000 2.901228e+000 2.495291e+000 2.465382e+000 1.941044e+000 2.535352e+000
<GCONST> 1.048854e+002
<TRANSP> 5
 0.000000e+000 1.000000e+000 0.000000e+000 0.000000e+000 0.000000e+000
 0.000000e+000 6.000000e-001 4.000000e-001 0.000000e+000 0.000000e+000
 0.000000e+000 0.000000e+000 6.000000e-001 4.000000e-001 0.000000e+000
 0.000000e+000 0.000000e+000 0.000000e+000 7.000000e-001 3.000000e-001
 0.000000e+000 0.000000e+000 0.000000e+000 0.000000e+000 0.000000e+000
<ENDHMM>
~h"y"
<BEGINHMM>
<NUMSTATES> 5
<STATE> 2
<MEAN> 25
 2.560693e-008 1.018583e-008 -3.255515e-008 1.242919e-008 1.208706e-008 -3.246789e-008 -1.408014e-008 -4.188220e-009 1.710190e-008 5.639402e-009 -8.633612e-010 9.129586e-009 1.534304e-002 -1.120783e-002 2.320645e-003 -1.150569e-002 2.473176e-003 -4.967018e-003 -2.336439e-003 -2.296854e-003 -1.040801e-002 -2.567648e-003 -2.705150e-003 -5.378890e-003 4.135148e-002
<VARIANCE> 25
 1.190384e+002 4.812227e+001 5.910410e+001 5.522232e+001 5.865632e+001 5.289359e+001 4.840873e+001 4.869481e+001 4.995018e+001 3.788008e+001 3.959899e+001 2.469882e+001 2.273300e+000 2.097238e+000 2.094632e+000 2.517218e+000 2.951317e+000 2.821718e+000 2.829959e+000 3.000150e+000 2.901228e+000 2.495291e+000 2.465382e+000 1.941044e+000 2.535352e+000
<GCONST> 1.048854e+002
<STATE> 3
<MEAN> 25
 2.560693e-008 1.018583e-008 -3.255515e-008 1.242919e-008 1.208706e-008 -3.246789e-008 -1.408014e-008 -4.188220e-009 1.710190e-008 5.639402e-009 -8.633612e-010 9.129586e-009 1.534304e-002 -1.120783e-002 2.320645e-003 -1.150569e-002 2.473176e-003 -4.967018e-003 -2.336439e-003 -2.296854e-003 -1.040801e-002 -2.567648e-003 -2.705150e-003 -5.378890e-003 4.135148e-002
<VARIANCE> 25
 1.190384e+002 4.812227e+001 5.910410e+001 5.522232e+001 5.865632e+001 5.289359e+001 4.840873e+001 4.869481e+001 4.995018e+001 3.788008e+001 3.959899e+001 2.469882e+001 2.273300e+000 2.097238e+000 2.094632e+000 2.517218e+000 2.951317e+000 2.821718e+000 2.829959e+000 3.000150e+000 2.901228e+000 2.495291e+000 2.465382e+000 1.941044e+000 2.535352e+000
<GCONST> 1.048854e+002
<STATE> 4
<MEAN> 25
 2.560693e-008 1.018583e-008 -3.255515e-008 1.242919e-008 1.208706e-008 -3.246789e-008 -1.408014e-008 -4.188220e-009 1.710190e-008 5.639402e-009 -8.633612e-010 9.129586e-009 1.534304e-002 -1.120783e-002 2.320645e-003 -1.150569e-002 2.473176e-003 -4.967018e-003 -2.336439e-003 -2.296854e-003 -1.040801e-002 -2.567648e-003 -2.705150e-003 -5.378890e-003 4.135148e-002
<VARIANCE> 25
 1.190384e+002 4.812227e+001 5.910410e+001 5.522232e+001 5.865632e+001 5.289359e+001 4.840873e+001 4.869481e+001 4.995018e+001 3.788008e+001 3.959899e+001 2.469882e+001 2.273300e+000 2.097238e+000 2.094632e+000 2.517218e+000 2.951317e+000 2.821718e+000 2.829959e+000 3.000150e+000 2.901228e+000 2.495291e+000 2.465382e+000 1.941044e+000 2.535352e+000
<GCONST> 1.048854e+002
<TRANSP> 5
 0.000000e+000 1.000000e+000 0.000000e+000 0.000000e+000 0.000000e+000
 0.000000e+000 6.000000e-001 4.000000e-001 0.000000e+000 0.000000e+000
 0.000000e+000 0.000000e+000 6.000000e-001 4.000000e-001 0.000000e+000
 0.000000e+000 0.000000e+000 0.000000e+000 7.000000e-001 3.000000e-001
 0.000000e+000 0.000000e+000 0.000000e+000 0.000000e+000 0.000000e+000
<ENDHMM>
~h"sil"
<BEGINHMM>
<NUMSTATES> 5
<STATE> 2
<MEAN> 25
 2.560693e-008 1.018583e-008 -3.255515e-008 1.242919e-008 1.208706e-008 -3.246789e-008 -1.408014e-008 -4.188220e-009 1.710190e-008 5.639402e-009 -8.633612e-010 9.129586e-009 1.534304e-002 -1.120783e-002 2.320645e-003 -1.150569e-002 2.473176e-003 -4.967018e-003 -2.336439e-003 -2.296854e-003 -1.040801e-002 -2.567648e-003 -2.705150e-003 -5.378890e-003 4.135148e-002
<VARIANCE> 25
 1.190384e+002 4.812227e+001 5.910410e+001 5.522232e+001 5.865632e+001 5.289359e+001 4.840873e+001 4.869481e+001 4.995018e+001 3.788008e+001 3.959899e+001 2.469882e+001 2.273300e+000 2.097238e+000 2.094632e+000 2.517218e+000 2.951317e+000 2.821718e+000 2.829959e+000 3.000150e+000 2.901228e+000 2.495291e+000 2.465382e+000 1.941044e+000 2.535352e+000
<GCONST> 1.048854e+002
<STATE> 3
<MEAN> 25
 2.560693e-008 1.018583e-008 -3.255515e-008 1.242919e-008 1.208706e-008 -3.246789e-008 -1.408014e-008 -4.188220e-009 1.710190e-008 5.639402e-009 -8.633612e-010 9.129586e-009 1.534304e-002 -1.120783e-002 2.320645e-003 -1.150569e-002 2.473176e-003 -4.967018e-003 -2.336439e-003 -2.296854e-003 -1.040801e-002 -2.567648e-003 -2.705150e-003 -5.378890e-003 4.135148e-002
<VARIANCE> 25
 1.190384e+002 4.812227e+001 5.910410e+001 5.522232e+001 5.865632e+001 5.289359e+001 4.840873e+001 4.869481e+001 4.995018e+001 3.788008e+001 3.959899e+001 2.469882e+001 2.273300e+000 2.097238e+000 2.094632e+000 2.517218e+000 2.951317e+000 2.821718e+000 2.829959e+000 3.000150e+000 2.901228e+000 2.495291e+000 2.465382e+000 1.941044e+000 2.535352e+000
<GCONST> 1.048854e+002
<STATE> 4
<MEAN> 25
