~o
<STREAMINFO> 1 25
<VECSIZE> 25<NULLD><MFCC_D_N_Z_0><DIAGC>
~h "b"
<BEGINHMM>
<NUMSTATES> 5
<STATE> 2
<MEAN> 25
 5.732962e+000 -3.675582e-001 2.388840e+000 -2.215199e+000 4.151484e-003 -1.947311e+000 -2.259258e+000 2.275931e-001 -4.041912e-001 -1.775976e-001 -8.639153e-001 -6.937729e-001 -2.131649e-002 -1.064855e-002 2.150693e-002 6.834173e-003 6.497970e-003 -1.580463e-002 -1.903282e-003 1.357138e-002 -1.400046e-002 5.945987e-003 1.294696e-002 -6.576651e-003 3.213279e-003
<VARIANCE> 25
 8.568117e+001 5.753057e+001 6.154373e+001 5.299415e+001 6.702172e+001 5.245922e+001 5.644560e+001 5.616583e+001 6.618602e+001 4.389519e+001 5.115123e+001 2.925968e+001 2.690391e+000 2.763600e+000 2.682159e+000 2.913569e+000 3.649671e+000 3.432248e+000 3.536766e+000 3.757073e+000 4.034340e+000 3.071142e+000 3.697412e+000 2.507236e+000 3.142877e+000
<GCONST> 1.091175e+002
<STATE> 3
<MEAN> 25
 5.624249e+000 -4.142298e-001 2.473479e+000 -2.184566e+000 2.410544e-002 -2.023855e+000 -2.259850e+000 2.847770e-001 -4.544044e-001 -1.523818e-001 -8.078192e-001 -7.194331e-001 -2.898952e-002 -1.236635e-002 1.558903e-002 8.335895e-003 8.873031e-003 -1.412092e-002 3.030831e-003 1.152943e-002 -1.311876e-002 4.822891e-003 1.016163e-002 -5.576553e-003 -3.895936e-003
<VARIANCE> 25
 8.552064e+001 5.745249e+001 6.231508e+001 5.308340e+001 6.822632e+001 5.222754e+001 5.661512e+001 5.596721e+001 6.608942e+001 4.415467e+001 5.098299e+001 2.928299e+001 2.691378e+000 2.765049e+000 2.722371e+000 2.919203e+000 3.704800e+000 3.424806e+000 3.529071e+000 3.734431e+000 4.007370e+000 3.094404e+000 3.676019e+000 2.503396e+000 3.127271e+000
<GCONST> 1.091540e+002
<STATE> 4
<MEAN> 25
 5.074789e+000 -5.211945e-001 2.222013e+000 -2.025787e+000 -5.139473e-002 -1.898827e+000 -1.944963e+000 4.276980e-001 -3.493073e-001 8.028521e-002 -7.689583e-001 -6.852800e-001 -3.768514e-002 -1.104103e-002 6.531958e-003 9.131690e-003 5.951884e-003 -1.387923e-002 9.281527e-003 9.295923e-003 -5.427116e-003 2.719501e-003 7.336158e-003 -1.358544e-003 -1.237732e-002
<VARIANCE> 25
 8.981841e+001 5.573077e+001 6.025172e+001 5.633642e+001 6.872256e+001 4.990043e+001 5.429253e+001 5.571590e+001 6.043594e+001 4.471738e+001 4.762955e+001 2.883616e+001 2.522945e+000 2.654569e+000 2.585581e+000 2.888415e+000 3.666001e+000 3.321898e+000 3.372490e+000 3.607035e+000 3.726030e+000 3.039314e+000 3.364330e+000 2.414931e+000 3.041357e+000
<GCONST> 1.084216e+002
<TRANSP> 5
 0.000000e+000 1.000000e+000 0.000000e+000 0.000000e+000 0.000000e+000
 0.000000e+000 7.780423e-001 2.219577e-001 0.000000e+000 0.000000e+000
 0.000000e+000 0.000000e+000 7.780420e-001 2.219580e-001 0.000000e+000
 0.000000e+000 0.000000e+000 0.000000e+000 9.184548e-001 8.154523e-002
 0.000000e+000 0.000000e+000 0.000000e+000 0.000000e+000 0.000000e+000
<ENDHMM>
~h "d"
<BEGINHMM>
<NUMSTATES> 5
<STATE> 2
<MEAN> 25
 -2.367607e+000 1.068312e+000 -8.305610e-001 1.087731e+000 2.693186e-001 7.200771e-001 -1.056294e-001 1.140824e-001 3.339132e-001 7.554150e-001 9.370328e-001 4.356233e-001 7.925486e-002 1.137715e-002 4.214422e-002 9.263419e-003 9.788424e-003 -6.856438e-004 -5.597006e-003 -1.908917e-002 -2.959023e-002 -1.701795e-002 1.534440e-003 -1.591081e-002 9.082451e-002
<VARIANCE> 25
 1.357564e+002 3.763898e+001 4.912862e+001 4.243159e+001 4.560244e+001 4.093830e+001 4.330069e+001 4.078169e+001 4.649299e+001 3.176664e+001 3.505856e+001 2.172479e+001 2.105495e+000 1.780775e+000 1.666529e+000 2.087031e+000 2.644364e+000 2.389437e+000 2.541195e+000 2.632552e+000 2.453042e+000 2.119470e+000 2.218221e+000 1.681134e+000 2.365813e+000
<GCONST> 1.012077e+002
<STATE> 3
<MEAN> 25
 -1.978435e+000 1.123072e+000 -6.221785e-001 1.123120e+000 3.081245e-001 7.012508e-001 -1.398513e-001 2.620606e-002 2.062129e-001 6.783296e-001 9.399595e-001 3.648691e-001 8.633831e-002 1.270112e-002 4.535747e-002 8.231248e-003 7.295815e-003 -3.386861e-003 -7.768409e-003 -2.116892e-002 -2.813433e-002 -2.044531e-002 1.086416e-003 -1.868407e-002 1.002214e-001
<VARIANCE> 25
 1.311804e+002 3.786238e+001 4.966384e+001 4.252267e+001 4.648075e+001 4.071421e+001 4.425063e+001 4.098764e+001 4.724294e+001 3.151151e+001 3.549299e+001 2.191040e+001 2.164594e+000 1.823682e+000 1.707998e+000 2.115210e+000 2.683534e+000 2.425823e+000 2.590548e+000 2.664534e+000 2.477279e+000 2.132739e+000 2.249507e+000 1.690260e+000 2.437851e+000
<GCONST> 1.014775e+002
<STATE> 4
<MEAN> 25
 -5.942436e-001 1.105707e+000 -6.455544e-003 1.052829e+000 3.330294e-001 4.493563e-001 -4.051646e-001 -1.232766e-001 2.444147e-001 4.892153e-001 7.028549e-001 1.742253e-001 7.658097e-002 7.691679e-003 4.214830e-002 4.915659e-003 -1.760523e-004 -7.551240e-003 -5.724592e-003 -1.969557e-002 -2.460495e-002 -2.139122e-002 -2.151783e-003 -1.506681e-002 9.226654e-002
<VARIANCE> 25
 1.236154e+002 3.871243e+001 4.952719e+001 4.621928e+001 5.116019e+001 4.105625e+001 4.630832e+001 4.317358e+001 4.713501e+001 3.248580e+001 3.636238e+001 2.259376e+001 2.279521e+000 2.021816e+000 1.819800e+000 2.330789e+000 2.930037e+000 2.603057e+000 2.757096e+000 2.870944e+000 2.585550e+000 2.269937e+000 2.360466e+000 1.757660e+000 2.585814e+000
<GCONST> 1.026677e+002
<TRANSP> 5
 0.000000e+000 1.000000e+000 0.000000e+000 0.000000e+000 0.000000e+000
 0.000000e+000 7.770962e-001 2.229038e-001 0.000000e+000 0.000000e+000
 0.000000e+000 0.000000e+000 7.770959e-001 2.229041e-001 0.000000e+000
 0.000000e+000 0.000000e+000 0.000000e+000 9.173713e-001 8.262870e-002
 0.000000e+000 0.000000e+000 0.000000e+000 0.000000e+000 0.000000e+000
<ENDHMM>
~h "f"
<BEGINHMM>
<NUMSTATES> 5
<STATE> 2
<MEAN> 25
 1.674850e+000 -7.415354e-001 5.354682e-002 -7.671077e-001 2.379460e-001 -1.228000e+000 -2.898898e-001 1.083928e-001 1.626283e-001 -1.498928e-001 -1.772692e-001 -2.540931e-001 2.797234e-003 -8.396123e-003 1.530002e-002 4.702479e-003 1.503979e-002 -1.840836e-002 1.811670e-003 1.646165e-002 -1.466523e-002 8.743715e-003 4.599534e-003 7.014040e-003 2.206264e-002
<VARIANCE> 25
 1.006125e+002 5.276462e+001 6.539856e+001 5.610397e+001 5.647488e+001 5.723893e+001 5.471572e+001 4.885411e+001 5.421011e+001 3.818786e+001 3.972553e+001 2.695782e+001 3.170229e+000 2.367088e+000 2.547219e+000 2.802635e+000 3.117742e+000 3.222958e+000 3.110486e+000 3.239994e+000 3.296448e+000 2.762450e+000 2.568043e+000 2.161431e+000 2.826027e+000
<GCONST> 1.068760e+002
<STATE> 3
<MEAN> 25
 1.667271e+000 -7.674391e-001 1.011761e-001 -7.403859e-001 2.991480e-001 -1.300656e+000 -2.747167e-001 1.780787e-001 1.091966e-001 -1.055168e-001 -1.525641e-001 -2.190416e-001 -3.014240e-003 -9.520580e-003 1.250478e-002 9.385451e-003 1.430137e-002 -1.521029e-002 2.512550e-003 1.831644e-002 -1.072563e-002 1.036952e-002 5.471039e-003 8.086420e-003 8.988953e-003
<VARIANCE> 25
 9.921018e+001 5.267840e+001 6.544549e+001 5.572475e+001 5.603696e+001 5.717215e+001 5.451278e+001 4.900833e+001 5.373319e+001 3.750739e+001 3.956704e+001 2.662914e+001 3.173580e+000 2.379648e+000 2.550499e+000 2.807778e+000 3.117179e+000 3.212868e+000 3.098664e+000 3.243679e+000 3.273693e+000 2.747932e+000 2.561970e+000 2.157517e+000 2.802667e+000
<GCONST> 1.067804e+002
<STATE> 4
<MEAN> 25
 1.639112e+000 -7.799746e-001 4.937317e-003 -6.699684e-001 3.224837e-001 -1.318658e+000 -1.529842e-001 2.170787e-001 1.653961e-001 6.189957e-002 -1.049664e-002 -1.874081e-001 -8.778038e-003 -5.358605e-003 5.837675e-003 1.138206e-002 1.065094e-002 -1.152025e-002 5.826578e-003 1.673752e-002 -4.827588e-003 1.061804e-002 5.463188e-003 7.993824e-003 -7.684601e-003
<VARIANCE> 25
 9.921430e+001 5.074218e+001 6.224707e+001 5.833070e+001 5.616865e+001 5.835552e+001 5.360443e+001 4.907193e+001 5.143499e+001 3.785560e+001 3.885669e+001 2.627647e+001 3.145974e+000 2.395983e+000 2.522166e+000 2.985604e+000 3.189677e+000 3.331371e+000 3.187519e+000 3.325342e+000 3.321580e+000 2.867154e+000 2.585943e+000 2.158171e+000 2.801128e+000
<GCONST> 1.069068e+002
<TRANSP> 5
 0.000000e+000 1.000000e+000 0.000000e+000 0.000000e+000 0.000000e+000
 0.000000e+000 7.652677e-001 2.347323e-001 0.000000e+000 0.000000e+000
 0.000000e+000 0.000000e+000 7.652687e-001 2.347313e-001 0.000000e+000
 0.000000e+000 0.000000e+000 0.000000e+000 9.028329e-001 9.716713e-002
 0.000000e+000 0.000000e+000 0.000000e+000 0.000000e+000 0.000000e+000
<ENDHMM>
~h "g"
<BEGINHMM>
<NUMSTATES> 5
<STATE> 2
<MEAN> 25
 -1.319982e+001 3.417654e+000 -4.290497e+000 4.771802e+000 -6.724516e-001 4.069622e+000 1.582832e+000 1.059084e-001 2.686076e+000 1.752906e+000 2.884749e+000 2.230049e+000 1.929494e-002 -9.580957e-002 -2.168860e-002 -1.263399e-001 -4.585107e-002 -9.511241e-002 -5.054607e-002 -9.392045e-003 -9.164727e-002 -5.103880e-002 -3.417952e-002 -1.968816e-002 4.325818e-001
<VARIANCE> 25
 9.614643e+001 2.314928e+001 2.063155e+001 1.855246e+001 1.514782e+001 3.725669e+001 2.557155e+001 3.586221e+001 2.401377e+001 2.082656e+001 1.588268e+001 1.047030e+001 6.124497e-001 5.465235e-001 3.988626e-001 7.793900e-001 7.251064e-001 1.089572e+000 1.132826e+000 1.319744e+000 1.256250e+000 8.796355e-001 9.174860e-001 8.227140e-001 3.321821e+000
<GCONST> 8.301045e+001
<STATE> 3
<MEAN> 25
 -1.304224e+001 2.989563e+000 -4.370563e+000 4.260454e+000 -8.353606e-001 3.662811e+000 1.354904e+000 1.385766e-001 2.393373e+000 1.633944e+000 2.765477e+000 2.082275e+000 4.401831e-002 -1.057565e-001 -1.795966e-002 -1.241490e-001 -3.654492e-002 -1.003915e-001 -5.070567e-002 8.303761e-003 -6.843337e-002 -2.872636e-002 -3.027400e-002 -3.637138e-002 4.825274e-001
<VARIANCE> 25
 9.436458e+001 2.303076e+001 2.157601e+001 1.812977e+001 1.556492e+001 3.304689e+001 2.466683e+001 3.314704e+001 2.327786e+001 2.145977e+001 1.641615e+001 1.102550e+001 6.690296e-001 6.056347e-001 4.338116e-001 8.327609e-001 7.639049e-001 1.179426e+000 1.163831e+000 1.380091e+000 1.305782e+000 9.035465e-001 9.895757e-001 8.638259e-001 3.549058e+000
<GCONST> 8.368480e+001
<STATE> 4
<MEAN> 25
 -1.079603e+001 2.003340e+000 -3.775477e+000 3.390293e+000 -7.490679e-001 2.495435e+000 3.037032e-001 -1.839716e-001 1.606177e+000 1.046062e+000 2.148455e+000 1.258381e+000 8.782451e-002 -4.441754e-002 1.332149e-002 -6.477430e-002 -8.497871e-003 -5.693630e-002 -4.380026e-002 3.234946e-003 -3.247935e-002 -3.690219e-003 -1.692691e-002 -3.467711e-002 3.069897e-001
<VARIANCE> 25
 1.164676e+002 2.387491e+001 2.844394e+001 2.020402e+001 1.978847e+001 2.733358e+001 2.831736e+001 2.826282e+001 2.481318e+001 2.470868e+001 1.817715e+001 1.362146e+001 8.643398e-001 7.430587e-001 7.061434e-001 9.544924e-001 1.112912e+000 1.269726e+000 1.383896e+000 1.509607e+000 1.373423e+000 1.150606e+000 1.130352e+000 9.891759e-001 2.415352e+000
<GCONST> 8.683610e+001
<TRANSP> 5
 0.000000e+000 1.000000e+000 0.000000e+000 0.000000e+000 0.000000e+000
 0.000000e+000 7.818226e-001 2.181774e-001 0.000000e+000 0.000000e+000
 0.000000e+000 0.000000e+000 7.818224e-001 2.181775e-001 0.000000e+000
 0.000000e+000 0.000000e+000 0.000000e+000 9.224993e-001 7.750069e-002
 0.000000e+000 0.000000e+000 0.000000e+000 0.000000e+000 0.000000e+000
<ENDHMM>
~h "k"
<BEGINHMM>
<NUMSTATES> 5
<STATE> 2
<MEAN> 25
 2.696384e+000 -1.204518e+000 4.607347e-001 -1.536258e+000 6.321338e-001 -8.031160e-001 -4.605083e-001 -2.605715e-002 -5.081264e-001 -8.070402e-001 -9.394475e-001 -2.250352e-001 -1.464396e-002 4.311955e-003 -1.458887e-002 -1.650689e-003 5.836314e-003 -6.833050e-003 2.858083e-003 1.246070e-002 4.847997e-003 4.349998e-003 1.461382e-002 8.504825e-003 -4.883841e-003
<VARIANCE> 25
 9.714815e+001 5.593077e+001 5.635729e+001 6.175560e+001 6.537321e+001 5.623962e+001 5.717580e+001 6.483389e+001 5.926912e+001 4.631800e+001 4.926868e+001 2.786515e+001 2.769343e+000 2.611032e+000 2.683064e+000 3.167475e+000 3.565304e+000 3.395183e+000 3.422568e+000 3.623358e+000 3.566041e+000 3.042571e+000 2.915834e+000 2.158243e+000 2.661596e+000
<GCONST> 1.086043e+002
<STATE> 3
<MEAN> 25
 2.622646e+000 -1.188593e+000 3.963976e-001 -1.542428e+000 6.579494e-001 -8.266145e-001 -4.481347e-001 2.522022e-002 -4.897426e-001 -7.871628e-001 -8.746136e-001 -1.892358e-001 -1.927911e-002 5.825078e-003 -1.521464e-002 -2.036969e-003 5.910725e-003 -6.963885e-003 5.390331e-003 1.167554e-002 4.002155e-003 7.035491e-003 1.668399e-002 9.989453e-003 -7.485066e-003
<VARIANCE> 25
 9.729745e+001 5.599651e+001 5.645552e+001 6.165236e+001 6.480842e+001 5.643917e+001 5.706950e+001 6.492501e+001 5.892747e+001 4.624590e+001 4.871844e+001 2.776658e+001 2.806546e+000 2.609141e+000 2.691801e+000 3.179850e+000 3.556829e+000 3.419271e+000 3.422014e+000 3.613381e+000 3.564918e+000 3.037639e+000 2.904241e+000 2.159217e+000 2.653896e+000
<GCONST> 1.085926e+002
<STATE> 4
<MEAN> 25
 2.056999e+000 -9.235224e-001 1.360605e-001 -1.361562e+000 6.678994e-001 -8.625128e-001 -2.628577e-001 1.271666e-001 -3.871961e-001 -4.781853e-001 -5.636849e-001 1.698434e-003 -2.362075e-002 4.598472e-003 -1.494342e-002 -1.408470e-003 5.483708e-003 -9.384107e-004 6.610650e-003 8.616846e-003 1.634166e-003 7.339614e-003 1.641004e-002 7.422204e-003 -1.386294e-002
<VARIANCE> 25
 1.064112e+002 5.497736e+001 5.483279e+001 6.497440e+001 6.333754e+001 5.783062e+001 5.489734e+001 6.317190e+001 5.399594e+001 4.618093e+001 4.630089e+001 2.725194e+001 2.813162e+000 2.542435e+000 2.638844e+000 3.339182e+000 3.575607e+000 3.543880e+000 3.441608e+000 3.626045e+000 3.511151e+000 3.104369e+000 2.863212e+000 2.166140e+000 2.621104e+000
<GCONST> 1.085027e+002
<TRANSP> 5
 0.000000e+000 1.000000e+000 0.000000e+000 0.000000e+000 0.000000e+000
 0.000000e+000 7.717227e-001 2.282773e-001 0.000000e+000 0.000000e+000
 0.000000e+000 0.000000e+000 7.717239e-001 2.282761e-001 0.000000e+000
 0.000000e+000 0.000000e+000 0.000000e+000 9.135646e-001 8.643532e-002
 0.000000e+000 0.000000e+000 0.000000e+000 0.000000e+000 0.000000e+000
<ENDHMM>
~h "l"
<BEGINHMM>
<NUMSTATES> 5
<STATE> 2
<MEAN> 25
 1.130918e+000 7.269697e-002 -4.479872e-001 -1.208840e-002 -4.191847e-001 -7.926391e-001 -4.347567e-001 -1.677361e-001 6.524959e-001 1.560203e-001 3.437291e-001 -2.546644e-001 2.939279e-002 -8.456747e-003 1.079500e-002 3.355994e-003 7.139907e-003 -2.620133e-002 -1.733174e-002 1.795170e-003 -1.583266e-002 -1.091765e-002 -3.653594e-003 3.609142e-003 4.799963e-002
<VARIANCE> 25
 1.143680e+002 4.356705e+001 5.735548e+001 5.858675e+001 5.905401e+001 5.638748e+001 5.502398e+001 4.909022e+001 5.646487e+001 3.701025e+001 4.196588e+001 2.345624e+001 2.395646e+000 2.001309e+000 1.990825e+000 2.503063e+000 3.030020e+000 2.753989e+000 3.091430e+000 3.081562e+000 3.109734e+000 2.467314e+000 2.650008e+000 1.974706e+000 2.734864e+000
<GCONST> 1.053773e+002
<STATE> 3
<MEAN> 25
 1.279242e+000 4.721696e-002 -3.976199e-001 -1.248329e-002 -3.975023e-001 -9.111410e-001 -5.128737e-001 -1.725588e-001 5.772110e-001 1.109743e-001 3.319556e-001 -2.399894e-001 3.402653e-002 -7.418530e-003 1.427846e-002 -2.472552e-004 4.735546e-003 -2.556577e-002 -1.715542e-002 -8.580139e-004 -1.785830e-002 -9.883279e-003 -3.751803e-003 3.255400e-003 5.173704e-002
<VARIANCE> 25
 1.113320e+002 4.333327e+001 5.711607e+001 5.844028e+001 5.929771e+001 5.692763e+001 5.519316e+001 4.938427e+001 5.676171e+001 3.715497e+001 4.215858e+001 2.358318e+001 2.405739e+000 2.012226e+000 2.010873e+000 2.504987e+000 3.060149e+000 2.781861e+000 3.099547e+000 3.085128e+000 3.137706e+000 2.471290e+000 2.651371e+000 1.978966e+000 2.779894e+000
<GCONST> 1.054539e+002
<STATE> 4
<MEAN> 25
 1.829297e+000 1.986151e-001 -3.492473e-001 -2.774440e-001 -3.048728e-001 -8.509585e-001 -5.987956e-001 -3.973579e-001 3.865967e-001 1.811348e-001 4.205880e-001 -2.076016e-001 2.985985e-002 -5.143165e-003 1.207291e-002 -5.213920e-003 -2.831108e-003 -2.016532e-002 -1.697480e-002 -5.187436e-003 -1.944420e-002 -8.991825e-003 -2.538193e-003 1.272930e-003 4.545015e-002
<VARIANCE> 25
 1.113492e+002 4.357658e+001 5.636055e+001 6.272606e+001 6.118233e+001 5.477130e+001 5.308968e+001 4.929415e+001 5.419027e+001 3.783467e+001 4.038412e+001 2.352384e+001 2.265591e+000 1.994809e+000 1.979796e+000 2.559179e+000 3.080264e+000 2.777526e+000 3.035220e+000 3.068622e+000 3.126208e+000 2.461616e+000 2.563475e+000 1.967590e+000 2.673331e+000
<GCONST> 1.052249e+002
<TRANSP> 5
 0.000000e+000 1.000000e+000 0.000000e+000 0.000000e+000 0.000000e+000
 0.000000e+000 7.701891e-001 2.298108e-001 0.000000e+000 0.000000e+000
 0.000000e+000 0.000000e+000 7.701895e-001 2.298105e-001 0.000000e+000
 0.000000e+000 0.000000e+000 0.000000e+000 9.105529e-001 8.944702e-002
 0.000000e+000 0.000000e+000 0.000000e+000 0.000000e+000 0.000000e+000
<ENDHMM>
~h "m"
<BEGINHMM>
<NUMSTATES> 5
<STATE> 2
<MEAN> 25
 8.459522e-001 -3.428150e-001 -2.419539e-002 -3.769068e-001 -7.890337e-002 7.406077e-002 5.493066e-001 -5.053974e-001 -5.480532e-002 -2.361608e-001 -5.164391e-001 -1.500160e-001 8.304186e-002 -1.112551e-002 4.280033e-002 -2.022379e-002 -4.849850e-003 -4.424621e-003 -1.690539e-002 -5.799031e-003 -2.064054e-002 4.493961e-004 -1.483464e-002 -1.293611e-002 1.075803e-001
<VARIANCE> 25
 1.114008e+002 5.161740e+001 6.239817e+001 5.612000e+001 6.115292e+001 4.888047e+001 5.258671e+001 5.375357e+001 4.653142e+001 4.505899e+001 4.419270e+001 2.573448e+001 2.247247e+000 2.248605e+000 2.235242e+000 2.464496e+000 2.934267e+000 2.752049e+000 2.777415e+000 3.171673e+000 2.866570e+000 2.647666e+000 2.469962e+000 1.939117e+000 2.522440e+000
<GCONST> 1.055085e+002
<STATE> 3
<MEAN> 25
 1.229103e+000 -3.849244e-001 1.623511e-001 -4.720815e-001 -1.097814e-001 5.396843e-002 4.728447e-001 -5.253229e-001 -1.395372e-001 -2.324671e-001 -5.809556e-001 -2.067835e-001 8.689764e-002 -1.037509e-002 4.069525e-002 -2.339781e-002 -7.201781e-003 -4.455678e-003 -2.108244e-002 -6.232710e-003 -1.812165e-002 -9.455613e-005 -1.401172e-002 -1.383991e-002 1.099826e-001
<VARIANCE> 25
 1.075096e+002 5.245315e+001 6.317314e+001 5.670060e+001 6.172169e+001 4.909575e+001 5.361918e+001 5.414107e+001 4.706779e+001 4.541459e+001 4.464236e+001 2.603630e+001 2.272154e+000 2.302396e+000 2.288469e+000 2.496401e+000 2.960879e+000 2.779876e+000 2.822313e+000 3.201717e+000 2.891631e+000 2.683629e+000 2.509875e+000 1.959530e+000 2.540287e+000
<GCONST> 1.057644e+002
<STATE> 4
<MEAN> 25
 2.223124e+000 -5.165025e-001 4.792655e-001 -6.147697e-001 -3.411116e-001 1.136293e-001 3.151399e-001 -4.203919e-001 -3.182260e-001 -3.853551e-002 -6.261629e-001 -2.666385e-001 7.613631e-002 -6.672623e-003 3.119916e-002 -2.536300e-002 -1.635209e-002 -1.467358e-003 -1.851759e-002 -2.401368e-003 -1.140617e-002 1.199920e-003 -9.523676e-003 -1.121237e-002 9.470631e-002
<VARIANCE> 25
 1.041774e+002 5.500323e+001 6.177632e+001 5.942483e+001 6.756217e+001 4.865755e+001 5.464117e+001 5.360387e+001 4.489718e+001 4.669541e+001 4.363269e+001 2.709009e+001 2.244070e+000 2.463868e+000 2.381824e+000 2.627538e+000 3.139132e+000 2.841882e+000 2.999081e+000 3.298601e+000 2.907534e+000 2.778579e+000 2.548730e+000 2.003367e+000 2.529263e+000
<GCONST> 1.062837e+002
<TRANSP> 5
 0.000000e+000 1.000000e+000 0.000000e+000 0.000000e+000 0.000000e+000
 0.000000e+000 7.760066e-001 2.239934e-001 0.000000e+000 0.000000e+000
 0.000000e+000 0.000000e+000 7.760070e-001 2.239930e-001 0.000000e+000
 0.000000e+000 0.000000e+000 0.000000e+000 9.168465e-001 8.315352e-002
 0.000000e+000 0.000000e+000 0.000000e+000 0.000000e+000 0.000000e+000
<ENDHMM>
~h "n"
<BEGINHMM>
<NUMSTATES> 5
<STATE> 2
<MEAN> 25
 2.787458e+000 -5.583510e-001 1.262886e+000 -5.615267e-001 -7.314429e-001 -5.707090e-001 -5.863031e-001 -3.935159e-001 -2.244648e-001 -4.326914e-001 -7.162314e-001 -5.215555e-001 4.958615e-003 -4.270919e-003 -3.683419e-003 -1.399424e-002 6.643992e-003 3.113112e-003 -7.296895e-003 -1.093836e-002 8.585299e-003 -9.861668e-003 -8.799837e-003 1.995235e-003 1.694010e-002
<VARIANCE> 25
 9.056974e+001 4.876118e+001 6.249074e+001 5.107254e+001 6.747281e+001 5.099490e+001 5.436507e+001 5.259249e+001 5.437235e+001 3.909483e+001 4.345861e+001 2.604882e+001 2.265821e+000 2.366723e+000 2.321524e+000 2.515811e+000 3.328820e+000 3.018312e+000 3.121378e+000 3.256753e+000 3.063912e+000 2.662851e+000 2.698145e+000 2.053159e+000 2.417065e+000
<GCONST> 1.059678e+002
<STATE> 3
<MEAN> 25
 2.791415e+000 -5.782813e-001 1.248123e+000 -6.145373e-001 -7.043344e-001 -5.531899e-001 -6.039778e-001 -4.332674e-001 -1.893303e-001 -4.763728e-001 -7.526941e-001 -5.093764e-001 2.533123e-004 -3.875206e-003 -2.390485e-003 -1.194038e-002 6.381957e-003 5.411388e-003 -5.070428e-003 -9.720535e-003 8.265507e-003 -9.905176e-003 -7.816223e-003 2.363270e-003 1.053567e-002
<VARIANCE> 25
 9.035765e+001 4.867642e+001 6.195223e+001 5.130355e+001 6.746077e+001 5.106842e+001 5.455609e+001 5.286454e+001 5.436608e+001 3.920839e+001 4.357730e+001 2.618136e+001 2.242745e+000 2.352780e+000 2.306734e+000 2.513691e+000 3.321698e+000 3.024579e+000 3.111175e+000 3.258027e+000 3.061236e+000 2.666075e+000 2.699183e+000 2.054668e+000 2.377154e+000
<GCONST> 1.059386e+002
<STATE> 4
<MEAN> 25
 2.743966e+000 -5.835623e-001 1.228158e+000 -6.773552e-001 -8.335481e-001 -4.559315e-001 -5.071806e-001 -3.490957e-001 -1.198696e-001 -4.829355e-001 -8.160761e-001 -4.090507e-001 -9.540609e-003 -3.346693e-003 -4.841506e-004 -6.025967e-003 6.863626e-003 5.739667e-003 6.483385e-004 -5.077410e-003 5.222079e-003 -8.597394e-003 -5.111017e-003 3.055931e-003 -9.470165e-004
<VARIANCE> 25
 9.512898e+001 4.845715e+001 6.012953e+001 5.399736e+001 6.914890e+001 5.019136e+001 5.195832e+001 5.200370e+001 5.041227e+001 3.990508e+001 4.231142e+001 2.590872e+001 2.193872e+000 2.339006e+000 2.246696e+000 2.578864e+000 3.377107e+000 3.028242e+000 3.084065e+000 3.238604e+000 2.988135e+000 2.708188e+000 2.630791e+000 2.033539e+000 2.316878e+000
<GCONST> 1.057553e+002
<TRANSP> 5
 0.000000e+000 1.000000e+000 0.000000e+000 0.000000e+000 0.000000e+000
 0.000000e+000 7.713829e-001 2.286171e-001 0.000000e+000 0.000000e+000
 0.000000e+000 0.000000e+000 7.713822e-001 2.286178e-001 0.000000e+000
 0.000000e+000 0.000000e+000 0.000000e+000 9.116171e-001 8.838292e-002
 0.000000e+000 0.000000e+000 0.000000e+000 0.000000e+000 0.000000e+000
<ENDHMM>
~h "p"
<BEGINHMM>
<NUMSTATES> 5
<STATE> 2
<MEAN> 25
 1.373381e+000 -9.827648e-001 -3.195028e-001 -1.289369e+000 1.371001e+000 -1.554412e+000 5.111246e-001 8.765711e-001 -2.517124e-001 -2.585944e-001 -6.115463e-001 -1.251135e-001 -1.954309e-002 -7.008182e-003 -1.782635e-002 3.828180e-003 1.178368e-002 9.927764e-003 2.118638e-002 1.105104e-002 1.810238e-003 -1.962138e-003 -1.563861e-002 1.523530e-004 -3.541632e-002
<VARIANCE> 25
 1.042773e+002 5.410218e+001 6.257560e+001 5.647332e+001 6.124564e+001 5.621047e+001 5.584130e+001 5.499665e+001 5.184166e+001 3.862704e+001 4.435437e+001 2.548058e+001 2.854192e+000 2.464796e+000 2.590973e+000 3.090626e+000 3.269821e+000 3.390786e+000 3.208282e+000 3.373586e+000 3.283156e+000 2.836043e+000 2.880674e+000 2.217517e+000 2.965533e+000
<GCONST> 1.075526e+002
<STATE> 3
<MEAN> 25
 1.278064e+000 -1.007562e+000 -3.982249e-001 -1.255877e+000 1.429756e+000 -1.509651e+000 5.996001e-001 9.198334e-001 -2.435886e-001 -2.725110e-001 -6.795329e-001 -1.242132e-001 -2.344120e-002 -3.899758e-003 -1.713900e-002 6.420068e-003 1.076505e-002 1.180085e-002 1.944973e-002 8.890251e-003 1.099925e-003 -7.529256e-004 -1.480553e-002 4.152622e-004 -4.005561e-002
<VARIANCE> 25
 1.031450e+002 5.422160e+001 6.224319e+001 5.623168e+001 6.075919e+001 5.574299e+001 5.496009e+001 5.424804e+001 5.137656e+001 3.863694e+001 4.421902e+001 2.539584e+001 2.843107e+000 2.449597e+000 2.580402e+000 3.070880e+000 3.243663e+000 3.374902e+000 3.182333e+000 3.357839e+000 3.254308e+000 2.822488e+000 2.865823e+000 2.213134e+000 2.928824e+000
<GCONST> 1.073938e+002
<STATE> 4
<MEAN> 25
 5.363107e-001 -7.487246e-001 -4.813398e-001 -1.001776e+000 1.514368e+000 -1.336431e+000 8.530093e-001 8.582749e-001 -2.042709e-001 -3.059225e-001 -4.704148e-001 -1.144383e-001 -2.298915e-002 -1.722921e-003 -1.440400e-002 1.310460e-002 1.056919e-002 1.254949e-002 1.203193e-002 4.607433e-003 1.587590e-003 -2.279067e-003 -1.390151e-002 8.365751e-004 -4.374231e-002
<VARIANCE> 25
 1.107996e+002 5.333749e+001 5.890765e+001 6.006681e+001 6.367030e+001 5.618459e+001 5.239281e+001 5.220085e+001 4.749913e+001 3.846266e+001 4.273010e+001 2.567149e+001 2.711088e+000 2.361752e+000 2.488057e+000 3.143038e+000 3.288525e+000 3.400964e+000 3.147814e+000 3.367515e+000 3.221748e+000 2.844346e+000 2.819111e+000 2.257144e+000 2.830608e+000
<GCONST> 1.072047e+002
<TRANSP> 5
 0.000000e+000 1.000000e+000 0.000000e+000 0.000000e+000 0.000000e+000
 0.000000e+000 7.759944e-001 2.240055e-001 0.000000e+000 0.000000e+000
 0.000000e+000 0.000000e+000 7.759934e-001 2.240066e-001 0.000000e+000
 0.000000e+000 0.000000e+000 0.000000e+000 9.165496e-001 8.345038e-002
 0.000000e+000 0.000000e+000 0.000000e+000 0.000000e+000 0.000000e+000
<ENDHMM>
~h "r"
<BEGINHMM>
<NUMSTATES> 5
<STATE> 2
<MEAN> 25
 1.649830e+000 -8.047324e-001 1.278742e+000 -7.346153e-001 -6.504480e-002 -1.344472e+000 9.442154e-002 4.579656e-001 -6.334697e-001 -1.101680e-002 -5.274217e-002 -1.655886e-001 3.031800e-003 -2.176338e-003 3.336298e-003 8.892722e-003 -1.985251e-004 5.178807e-004 4.250051e-003 7.414999e-003 -6.335746e-003 5.553520e-003 -1.825220e-004 4.613065e-004 -1.688049e-002
<VARIANCE> 25
 9.693582e+001 5.723896e+001 6.911907e+001 5.183379e+001 6.486946e+001 5.491066e+001 5.408525e+001 5.339174e+001 5.509246e+001 3.811124e+001 3.873756e+001 2.539651e+001 2.885833e+000 2.516155e+000 2.651737e+000 2.692892e+000 3.276765e+000 3.129979e+000 3.149970e+000 3.274741e+000 3.253600e+000 2.746531e+000 2.663109e+000 2.075091e+000 2.566094e+000
<GCONST> 1.068912e+002
<STATE> 3
<MEAN> 25
 1.657405e+000 -8.113472e-001 1.285108e+000 -6.979555e-001 -6.560948e-002 -1.333447e+000 1.146487e-001 4.830792e-001 -6.498734e-001 4.074999e-003 -6.073249e-002 -1.664817e-001 3.320009e-003 -6.037274e-004 -2.846144e-003 1.019069e-002 -1.218595e-003 4.953249e-003 4.479756e-003 4.415003e-003 -1.389206e-003 3.074510e-003 -2.657888e-003 -9.564730e-004 -2.118733e-002
<VARIANCE> 25
 9.629271e+001 5.700995e+001 6.879394e+001 5.156253e+001 6.524053e+001 5.502385e+001 5.357660e+001 5.361320e+001 5.501646e+001 3.790318e+001 3.878722e+001 2.534879e+001 2.852865e+000 2.518505e+000 2.644426e+000 2.692192e+000 3.280844e+000 3.133603e+000 3.142908e+000 3.295239e+000 3.251787e+000 2.753169e+000 2.670913e+000 2.077160e+000 2.536281e+000
<GCONST> 1.068525e+002
<STATE> 4
<MEAN> 25
 1.760746e+000 -7.071505e-001 1.295639e+000 -6.874256e-001 -2.263466e-001 -1.147497e+000 2.223763e-001 4.715399e-001 -5.896474e-001 8.148406e-002 -9.083735e-002 -2.129499e-001 -2.101382e-003 1.357149e-003 -7.389740e-003 8.906119e-003 1.760462e-004 8.864924e-003 3.353664e-003 -7.888124e-005 3.838581e-003 -3.787802e-003 -6.283870e-003 -2.083083e-003 -2.528939e-002
<VARIANCE> 25
 1.004706e+002 5.503330e+001 6.608464e+001 5.495035e+001 6.996954e+001 5.618867e+001 5.209572e+001 5.314381e+001 5.209863e+001 3.942203e+001 3.875235e+001 2.597313e+001 2.775942e+000 2.513051e+000 2.607261e+000 2.812896e+000 3.393511e+000 3.203379e+000 3.218342e+000 3.375970e+000 3.286355e+000 2.888995e+000 2.715590e+000 2.115257e+000 2.533710e+000
<GCONST> 1.071419e+002
<TRANSP> 5
 0.000000e+000 1.000000e+000 0.000000e+000 0.000000e+000 0.000000e+000
 0.000000e+000 7.666348e-001 2.333652e-001 0.000000e+000 0.000000e+000
 0.000000e+000 0.000000e+000 7.666353e-001 2.333647e-001 0.000000e+000
 0.000000e+000 0.000000e+000 0.000000e+000 9.052565e-001 9.474359e-002
 0.000000e+000 0.000000e+000 0.000000e+000 0.000000e+000 0.000000e+000
<ENDHMM>
~h "s"
<BEGINHMM>
<NUMSTATES> 5
<STATE> 2
<MEAN> 25
 1.076313e+000 -7.128818e-001 -1.860378e-001 -1.171733e+000 1.403862e+000 -6.714253e-001 2.968264e-001 8.113855e-001 -3.140056e-001 -2.485385e-001 -7.055237e-001 -4.807115e-002 -1.178447e-002 2.337518e-003 -8.490852e-003 1.569019e-002 3.664091e-003 1.680898e-002 1.731745e-003 3.739800e-003 2.367069e-003 3.196818e-003 2.129184e-003 4.693698e-003 -5.114468e-002
<VARIANCE> 25
 9.744086e+001 5.298935e+001 5.521977e+001 6.087524e+001 6.064020e+001 5.547564e+001 5.202136e+001 5.509694e+001 5.314008e+001 4.099353e+001 4.547878e+001 2.685397e+001 2.801118e+000 2.418269e+000 2.484784e+000 3.057818e+000 3.320148e+000 3.335331e+000 3.181285e+000 3.406322e+000 3.315837e+000 2.860885e+000 2.890898e+000 2.235284e+000 2.592352e+000
<GCONST> 1.072889e+002
<STATE> 3
<MEAN> 25
 1.022635e+000 -7.039724e-001 -2.259238e-001 -1.103417e+000 1.420390e+000 -5.997120e-001 2.997125e-001 8.220595e-001 -3.037111e-001 -2.399035e-001 -6.976340e-001 -2.796071e-002 -1.673195e-002 3.594291e-003 -6.287835e-003 1.515194e-002 2.425411e-003 1.574543e-002 1.845168e-003 2.026317e-003 1.896951e-003 4.995586e-003 5.253338e-003 5.648026e-003 -5.290822e-002
<VARIANCE> 25
 9.632188e+001 5.249837e+001 5.420082e+001 6.044865e+001 5.974044e+001 5.508885e+001 5.133899e+001 5.430314e+001 5.291742e+001 4.065655e+001 4.496544e+001 2.659892e+001 2.776954e+000 2.385459e+000 2.456941e+000 3.024346e+000 3.286039e+000 3.305707e+000 3.151595e+000 3.354749e+000 3.296818e+000 2.837867e+000 2.855733e+000 2.220458e+000 2.569508e+000
<GCONST> 1.070293e+002
<STATE> 4
<MEAN> 25
 4.020727e-001 -4.778514e-001 -3.194972e-001 -8.840550e-001 1.531354e+000 -5.511199e-001 3.676178e-001 8.468568e-001 -1.963291e-001 -2.289222e-001 -4.942051e-001 3.386056e-002 -1.654603e-002 1.121011e-003 -5.816019e-003 1.321944e-002 3.697357e-004 1.434624e-002 3.054516e-005 -1.170029e-003 1.869107e-003 3.949709e-003 5.608723e-003 4.664842e-003 -5.032544e-002
<VARIANCE> 25
 1.028988e+002 5.052244e+001 4.934607e+001 6.387521e+001 5.942621e+001 5.605881e+001 4.865546e+001 5.305334e+001 4.890827e+001 4.027465e+001 4.278434e+001 2.632630e+001 2.676103e+000 2.294633e+000 2.341779e+000 3.051077e+000 3.300436e+000 3.340597e+000 3.096608e+000 3.339333e+000 3.207576e+000 2.831368e+000 2.782448e+000 2.228303e+000 2.493929e+000
<GCONST> 1.066008e+002
<TRANSP> 5
 0.000000e+000 1.000000e+000 0.000000e+000 0.000000e+000 0.000000e+000
 0.000000e+000 7.739267e-001 2.260733e-001 0.000000e+000 0.000000e+000
 0.000000e+000 0.000000e+000 7.739239e-001 2.260761e-001 0.000000e+000
 0.000000e+000 0.000000e+000 0.000000e+000 9.148321e-001 8.516796e-002
 0.000000e+000 0.000000e+000 0.000000e+000 0.000000e+000 0.000000e+000
<ENDHMM>
~h "t"
<BEGINHMM>
<NUMSTATES> 5
<STATE> 2
<MEAN> 25
 6.861068e-001 8.139417e-002 -9.437012e-002 -7.646538e-001 9.639007e-002 4.220765e-001 -3.256330e-001 -3.418713e-001 -1.309543e-001 -2.336821e-001 -2.806107e-001 -1.612961e-001 2.635766e-002 6.997414e-003 5.471115e-003 -5.467020e-003 -3.279973e-003 1.505180e-003 5.838854e-003 -5.412021e-003 -3.795455e-003 -4.814464e-003 -4.321166e-003 -3.445404e-003 3.449179e-002
<VARIANCE> 25
 1.179056e+002 4.773728e+001 5.812090e+001 5.447672e+001 5.717708e+001 5.223895e+001 4.796054e+001 4.830032e+001 5.317331e+001 3.694966e+001 4.172432e+001 2.686162e+001 2.311362e+000 2.113957e+000 2.144443e+000 2.595678e+000 3.054256e+000 2.976947e+000 2.807222e+000 3.112326e+000 2.995541e+000 2.539884e+000 2.606562e+000 2.057919e+000 2.596153e+000
<GCONST> 1.053386e+002
<STATE> 3
<MEAN> 25
 8.041253e-001 1.147063e-001 -6.585687e-002 -7.829940e-001 8.541133e-002 4.230210e-001 -3.067853e-001 -3.630212e-001 -1.508316e-001 -2.500077e-001 -2.962447e-001 -1.759272e-001 2.646501e-002 6.760899e-003 5.247843e-003 -3.493503e-003 -2.416430e-003 -1.620335e-003 5.347110e-003 -2.843970e-003 -4.049343e-003 -3.751850e-003 -4.358151e-003 -3.058062e-003 3.097376e-002
<VARIANCE> 25
 1.159475e+002 4.761432e+001 5.785551e+001 5.458571e+001 5.713027e+001 5.218345e+001 4.800024e+001 4.833440e+001 5.331146e+001 3.678504e+001 4.163355e+001 2.683825e+001 2.332891e+000 2.118033e+000 2.137474e+000 2.595510e+000 3.052089e+000 2.985333e+000 2.811719e+000 3.119348e+000 3.018055e+000 2.551403e+000 2.622880e+000 2.066689e+000 2.572958e+000
<GCONST> 1.053388e+002
<STATE> 4
<MEAN> 25
 1.157552e+000 1.445249e-001 -4.506413e-002 -7.941947e-001 1.496873e-001 2.959631e-001 -2.782929e-001 -2.927180e-001 -2.215209e-001 -2.331246e-001 -3.039628e-001 -2.243054e-001 2.343913e-002 4.733678e-003 7.045103e-003 -4.133340e-004 -1.057538e-003 -6.374157e-003 -1.911559e-004 -5.062476e-004 -7.659464e-003 -6.449067e-004 -1.494842e-003 -3.516810e-003 2.417903e-002
<VARIANCE> 25
 1.151057e+002 4.761454e+001 5.523347e+001 5.769521e+001 5.939358e+001 5.302566e+001 4.638414e+001 4.717787e+001 5.012513e+001 3.744400e+001 4.075079e+001 2.647801e+001 2.372995e+000 2.151689e+000 2.129943e+000 2.744756e+000 3.162206e+000 3.117778e+000 2.855268e+000 3.147909e+000 3.020782e+000 2.617229e+000 2.630630e+000 2.081939e+000 2.620805e+000
<GCONST> 1.055018e+002
<TRANSP> 5
 0.000000e+000 1.000000e+000 0.000000e+000 0.000000e+000 0.000000e+000
 0.000000e+000 7.687862e-001 2.312138e-001 0.000000e+000 0.000000e+000
 0.000000e+000 0.000000e+000 7.687845e-001 2.312156e-001 0.000000e+000
 0.000000e+000 0.000000e+000 0.000000e+000 9.081997e-001 9.180027e-002
 0.000000e+000 0.000000e+000 0.000000e+000 0.000000e+000 0.000000e+000
<ENDHMM>
~h "v"
<BEGINHMM>
<NUMSTATES> 5
<STATE> 2
<MEAN> 25
 1.628512e+000 -5.954733e-001 -7.652475e-001 -8.690675e-001 -2.099118e-002 -1.563626e+000 1.233766e-003 5.474929e-001 8.551093e-001 1.385826e-001 2.058030e-001 -2.629196e-001 3.041387e-002 -3.711617e-003 2.392232e-002 7.617653e-004 7.430234e-004 -1.199089e-002 -9.509213e-003 -1.037210e-002 -1.980864e-002 -7.261252e-003 -1.298903e-002 2.367456e-003 1.981644e-002
<VARIANCE> 25
 9.761308e+001 5.116906e+001 6.776451e+001 6.186893e+001 6.285692e+001 7.215885e+001 5.567763e+001 5.202573e+001 5.519829e+001 3.928727e+001 4.341917e+001 2.671990e+001 3.492146e+000 2.500095e+000 2.664186e+000 3.260737e+000 3.546447e+000 3.652779e+000 3.483210e+000 3.706945e+000 3.672942e+000 2.918971e+000 2.911658e+000 2.339966e+000 3.513651e+000
<GCONST> 1.089294e+002
<STATE> 3
<MEAN> 25
 1.733578e+000 -6.062136e-001 -6.815550e-001 -8.555592e-001 -1.779552e-002 -1.603259e+000 -2.207761e-002 5.013906e-001 7.792910e-001 1.137282e-001 1.596670e-001 -2.539732e-001 2.634495e-002 -3.841816e-003 2.226351e-002 9.459382e-004 3.310167e-003 -9.892086e-003 -7.532993e-003 -8.042483e-003 -2.083252e-002 -6.619913e-003 -1.432934e-002 2.559867e-003 1.183292e-002
<VARIANCE> 25
 9.624441e+001 5.109964e+001 6.743918e+001 6.131695e+001 6.264190e+001 7.195956e+001 5.548729e+001 5.193738e+001 5.534793e+001 3.944180e+001 4.335470e+001 2.654015e+001 3.429802e+000 2.513819e+000 2.656744e+000 3.246428e+000 3.551833e+000 3.642438e+000 3.478314e+000 3.712210e+000 3.695120e+000 2.925790e+000 2.912351e+000 2.332251e+000 3.472126e+000
<GCONST> 1.088595e+002
<STATE> 4
<MEAN> 25
 1.517652e+000 -7.050562e-001 -5.710775e-001 -9.944625e-001 1.650864e-001 -1.315732e+000 2.143108e-002 4.769102e-001 5.931766e-001 7.229681e-002 2.442068e-001 -2.919688e-001 1.512920e-002 -2.616596e-003 1.452633e-002 4.893947e-003 4.457021e-003 -4.512553e-003 -1.098255e-003 -6.080632e-003 -1.558926e-002 -4.542082e-003 -1.207813e-002 2.050781e-003 -5.195252e-003
<VARIANCE> 25
 9.878774e+001 4.954652e+001 6.456324e+001 6.804707e+001 6.342629e+001 7.484377e+001 5.240354e+001 5.121255e+001 5.306753e+001 3.974137e+001 4.140799e+001 2.661716e+001 3.244697e+000 2.495915e+000 2.593098e+000 3.387443e+000 3.597152e+000 3.676136e+000 3.487702e+000 3.706728e+000 3.694493e+000 2.987372e+000 2.877042e+000 2.357421e+000 3.288271e+000
<GCONST> 1.087618e+002
<TRANSP> 5
 0.000000e+000 1.000000e+000 0.000000e+000 0.000000e+000 0.000000e+000
 0.000000e+000 7.610373e-001 2.389627e-001 0.000000e+000 0.000000e+000
 0.000000e+000 0.000000e+000 7.610390e-001 2.389611e-001 0.000000e+000
 0.000000e+000 0.000000e+000 0.000000e+000 8.993371e-001 1.006630e-001
 0.000000e+000 0.000000e+000 0.000000e+000 0.000000e+000 0.000000e+000
<ENDHMM>
~h "w"
<BEGINHMM>
<NUMSTATES> 5
<STATE> 2
<MEAN> 25
 -1.112857e+000 4.844861e-001 3.611027e-001 7.382419e-001 -7.941567e-001 7.080210e-001 -2.029408e-001 -4.819015e-001 2.828174e-002 -3.930208e-002 9.348340e-002 1.647331e-001 2.889416e-002 -2.701458e-002 4.402907e-003 -3.000605e-002 -4.383416e-003 -1.310636e-002 -1.229804e-002 -2.277089e-003 -2.666913e-002 -1.196117e-002 -1.561001e-002 -9.905146e-003 1.156453e-001
<VARIANCE> 25
 1.365129e+002 4.659573e+001 6.480255e+001 4.971278e+001 5.794510e+001 5.364130e+001 4.731392e+001 4.721675e+001 4.888208e+001 3.914811e+001 4.155118e+001 2.582479e+001 1.763521e+000 1.749381e+000 1.744756e+000 1.973197e+000 2.625200e+000 2.441125e+000 2.450629e+000 2.576520e+000 2.450023e+000 2.176012e+000 2.293501e+000 1.777285e+000 2.519692e+000
<GCONST> 1.031370e+002
<STATE> 3
<MEAN> 25
 -9.805740e-001 3.780642e-001 3.890371e-001 6.113958e-001 -8.111662e-001 6.494420e-001 -2.597488e-001 -4.799147e-001 -7.743882e-002 -8.214455e-002 2.758766e-002 1.126190e-001 2.875109e-002 -2.769981e-002 2.878187e-003 -3.231427e-002 -4.652598e-003 -1.282896e-002 -1.383239e-002 5.990615e-004 -2.597644e-002 -1.106104e-002 -1.420270e-002 -1.412647e-002 1.368282e-001
<VARIANCE> 25
 1.352776e+002 4.617484e+001 6.565405e+001 4.877489e+001 5.841087e+001 5.227197e+001 4.692138e+001 4.676004e+001 4.914974e+001 3.924773e+001 4.156526e+001 2.599804e+001 1.782858e+000 1.761680e+000 1.755679e+000 1.993410e+000 2.646680e+000 2.465567e+000 2.462900e+000 2.599552e+000 2.469515e+000 2.186930e+000 2.306242e+000 1.787337e+000 2.702814e+000
<GCONST> 1.032526e+002
<STATE> 4
<MEAN> 25
 -2.549640e-001 9.087281e-002 5.785537e-001 1.620371e-001 -8.741606e-001 4.334948e-001 -3.036884e-001 -3.040982e-001 -3.365643e-001 -1.297515e-001 -2.372687e-001 2.397254e-002 3.177541e-002 -1.430137e-002 4.972094e-003 -2.453366e-002 -1.584913e-003 -6.899429e-003 -1.089494e-002 1.761928e-003 -1.867211e-002 -6.798811e-003 -1.126489e-002 -1.139778e-002 1.032383e-001
<VARIANCE> 25
 1.329062e+002 4.570139e+001 6.789547e+001 5.078501e+001 6.329549e+001 4.790582e+001 4.412204e+001 4.504890e+001 4.672332e+001 3.959715e+001 4.031009e+001 2.547793e+001 1.865470e+000 1.885463e+000 1.859512e+000 2.124025e+000 2.851992e+000 2.529112e+000 2.556115e+000 2.684140e+000 2.521224e+000 2.278669e+000 2.295711e+000 1.835787e+000 2.486813e+000
<GCONST> 1.035043e+002
<TRANSP> 5
 0.000000e+000 1.000000e+000 0.000000e+000 0.000000e+000 0.000000e+000
 0.000000e+000 7.709913e-001 2.290087e-001 0.000000e+000 0.000000e+000
 0.000000e+000 0.000000e+000 7.709919e-001 2.290080e-001 0.000000e+000
 0.000000e+000 0.000000e+000 0.000000e+000 9.109279e-001 8.907206e-002
 0.000000e+000 0.000000e+000 0.000000e+000 0.000000e+000 0.000000e+000
<ENDHMM>
~h "y"
<BEGINHMM>
<NUMSTATES> 5
<STATE> 2
<MEAN> 25
 2.814877e+000 -3.263603e-001 2.078428e-001 4.292042e-001 -1.153070e+000 -3.253646e-001 6.273564e-001 -1.071011e+000 1.036627e+000 4.930349e-001 -8.597422e-001 6.896146e-002 -1.937828e-002 -6.001108e-003 -1.689010e-002 1.794017e-002 4.087455e-003 5.798053e-003 7.908741e-004 7.032000e-003 1.129152e-003 -8.508507e-003 -9.356947e-004 1.029026e-003 -3.544111e-002
<VARIANCE> 25
 1.435357e+002 5.059479e+001 8.750742e+001 7.375929e+001 6.972704e+001 4.907613e+001 6.078329e+001 5.919587e+001 4.615786e+001 5.999971e+001 3.679315e+001 3.316917e+001 2.567682e+000 2.830069e+000 2.593649e+000 4.589264e+000 3.709437e+000 3.273455e+000 4.390155e+000 4.166545e+000 4.109484e+000 3.473760e+000 3.097727e+000 2.696131e+000 2.308028e+000
<GCONST> 1.104500e+002
<STATE> 3
<MEAN> 25
 2.706531e+000 -3.585245e-001 1.140369e-001 5.275224e-001 -1.129311e+000 -2.919590e-001 6.292772e-001 -1.035099e+000 1.041016e+000 4.465467e-001 -8.633400e-001 7.350178e-002 -2.269773e-002 -5.673847e-003 -1.852139e-002 1.914197e-002 6.186065e-003 7.320681e-003 -1.761472e-003 4.117329e-003 -4.385882e-004 -8.289296e-003 3.090450e-004 -1.044423e-004 -3.910614e-002
<VARIANCE> 25
 1.426632e+002 5.007097e+001 8.690704e+001 7.290056e+001 6.986418e+001 4.900152e+001 6.046882e+001 5.869861e+001 4.577302e+001 6.024999e+001 3.650781e+001 3.312730e+001 2.523257e+000 2.790389e+000 2.566532e+000 4.495080e+000 3.693267e+000 3.242785e+000 4.314538e+000 4.120223e+000 4.064282e+000 3.454235e+000 3.075292e+000 2.682929e+000 2.258218e+000
<GCONST> 1.102327e+002
<STATE> 4
<MEAN> 25
 2.577901e+000 -3.598934e-001 -9.196877e-003 6.391005e-001 -1.106138e+000 -2.414039e-001 6.161569e-001 -1.020665e+000 1.030372e+000 3.870682e-001 -8.352087e-001 8.077396e-002 -2.599837e-002 -5.081435e-003 -2.022924e-002 1.972112e-002 8.485336e-003 8.792513e-003 -4.501937e-003 1.055863e-003 -2.048787e-003 -8.164722e-003 1.906585e-003 -1.215814e-003 -4.261860e-002
<VARIANCE> 25
 1.416085e+002 4.938683e+001 8.604851e+001 7.185139e+001 7.041716e+001 4.907316e+001 5.996840e+001 5.789309e+001 4.544764e+001 6.034806e+001 3.628867e+001 3.300341e+001 2.473724e+000 2.736800e+000 2.545369e+000 4.377715e+000 3.685065e+000 3.207514e+000 4.225209e+000 4.071858e+000 4.022189e+000 3.424744e+000 3.056409e+000 2.669089e+000 2.200662e+000
<GCONST> 1.099830e+002
<TRANSP> 5
 0.000000e+000 1.000000e+000 0.000000e+000 0.000000e+000 0.000000e+000
 0.000000e+000 8.159133e-001 1.840867e-001 0.000000e+000 0.000000e+000
 0.000000e+000 0.000000e+000 8.159134e-001 1.840866e-001 0.000000e+000
 0.000000e+000 0.000000e+000 0.000000e+000 9.514381e-001 4.856183e-002
 0.000000e+000 0.000000e+000 0.000000e+000 0.000000e+000 0.000000e+000
<ENDHMM>
~h "z"
<BEGINHMM>
<NUMSTATES> 5
<STATE> 2
<MEAN> 25
 -1.016426e+000 7.377350e-001 7.596172e-001 2.993183e-001 2.662159e-001 2.413384e-001 5.453721e-001 2.118808e-001 -1.338074e+000 2.126581e-001 3.208478e-001 -3.010501e-002 9.303389e-003 -5.216131e-003 -2.071078e-002 1.637947e-002 -1.185407e-002 -2.199372e-003 6.175512e-003 -6.694883e-003 2.631973e-003 2.230468e-003 7.906326e-003 3.088872e-004 -2.404586e-003
<VARIANCE> 25
 9.467320e+001 5.177558e+001 6.430320e+001 4.931172e+001 6.409399e+001 5.244631e+001 4.782658e+001 4.545913e+001 5.831839e+001 3.284293e+001 3.470819e+001 2.426683e+001 2.420252e+000 2.142734e+000 2.163379e+000 2.396768e+000 3.188503e+000 2.690764e+000 2.713566e+000 2.850690e+000 3.002290e+000 2.392577e+000 2.367522e+000 1.945708e+000 2.600883e+000
<GCONST> 1.045463e+002
<STATE> 3
<MEAN> 25
 -9.734002e-001 7.041539e-001 6.850925e-001 3.654164e-001 2.161440e-001 2.266293e-001 5.572869e-001 1.820135e-001 -1.331031e+000 2.220219e-001 3.434390e-001 -2.511446e-002 8.738631e-003 -8.305241e-003 -1.526816e-002 1.465237e-002 -1.390480e-002 -7.613203e-003 4.281575e-003 -7.632764e-003 6.655849e-005 -6.772368e-004 5.736445e-003 1.712299e-003 6.810067e-003
<VARIANCE> 25
 9.091135e+001 5.139838e+001 6.440422e+001 4.926379e+001 6.395306e+001 5.194190e+001 4.769736e+001 4.512398e+001 5.815565e+001 3.261757e+001 3.414671e+001 2.407344e+001 2.413312e+000 2.164881e+000 2.178825e+000 2.407881e+000 3.212583e+000 2.675972e+000 2.727504e+000 2.836980e+000 2.994323e+000 2.385192e+000 2.360739e+000 1.947870e+000 2.642239e+000
<GCONST> 1.044728e+002
<STATE> 4
<MEAN> 25
 -9.514247e-001 8.726243e-001 9.275236e-001 4.152933e-001 2.839761e-001 -3.853681e-002 4.477904e-001 1.494822e-001 -1.394655e+000 9.218977e-002 3.659001e-001 1.686245e-002 6.540261e-003 -1.643983e-002 -8.826874e-003 1.306312e-002 -1.702796e-002 -9.162171e-003 -9.564328e-004 -9.943773e-003 -1.986150e-003 -2.605028e-003 2.315022e-003 2.756716e-003 5.591139e-003
<VARIANCE> 25
 9.173522e+001 5.182419e+001 6.327812e+001 5.113240e+001 6.984410e+001 5.373148e+001 4.754774e+001 4.656259e+001 5.548368e+001 3.425742e+001 3.295590e+001 2.477746e+001 2.424750e+000 2.227954e+000 2.225885e+000 2.550111e+000 3.396723e+000 2.829864e+000 2.817856e+000 2.931727e+000 3.052110e+000 2.520496e+000 2.392972e+000 1.999006e+000 2.657449e+000
<GCONST> 1.050641e+002
<TRANSP> 5
 0.000000e+000 1.000000e+000 0.000000e+000 0.000000e+000 0.000000e+000
 0.000000e+000 7.579956e-001 2.420043e-001 0.000000e+000 0.000000e+000
 0.000000e+000 0.000000e+000 7.579950e-001 2.420050e-001 0.000000e+000
 0.000000e+000 0.000000e+000 0.000000e+000 8.942333e-001 1.057667e-001
 0.000000e+000 0.000000e+000 0.000000e+000 0.000000e+000 0.000000e+000
<ENDHMM>
~h "aa"
<BEGINHMM>
<NUMSTATES> 5
<STATE> 2
<MEAN> 25
 2.615819e+000 -1.316973e+000 9.145985e-001 -1.148226e+000 2.015786e-002 -2.019458e-001 -6.061826e-001 -2.295749e-001 -9.535954e-001 -8.821795e-001 -9.669266e-001 -5.642284e-001 1.375184e-002 -6.083862e-003 -4.428233e-003 -1.318107e-002 7.015775e-003 4.310760e-003 -1.470895e-002 2.802662e-003 -2.131554e-003 1.083274e-003 1.230843e-003 1.848009e-003 1.461952e-002
<VARIANCE> 25
 8.254276e+001 4.751071e+001 6.523155e+001 5.544586e+001 6.678741e+001 4.459859e+001 4.883987e+001 4.928443e+001 5.182889e+001 4.227366e+001 4.745004e+001 2.701075e+001 2.112430e+000 2.222776e+000 2.332839e+000 2.655407e+000 3.013922e+000 2.842868e+000 2.876702e+000 3.150990e+000 2.927725e+000 2.646110e+000 2.803237e+000 2.135877e+000 2.643523e+000
<GCONST> 1.055797e+002
<STATE> 3
<MEAN> 25
 2.672667e+000 -1.335794e+000 8.844576e-001 -1.202844e+000 5.883770e-002 -1.793287e-001 -6.676296e-001 -2.181641e-001 -9.490470e-001 -8.744358e-001 -9.689498e-001 -5.580477e-001 1.293662e-002 -3.611165e-003 -6.264253e-003 -1.394803e-002 6.254566e-003 6.501008e-003 -1.470728e-002 1.577764e-003 1.040195e-003 3.653974e-003 3.101695e-003 2.352456e-003 1.082755e-002
<VARIANCE> 25
 8.210670e+001 4.712080e+001 6.463861e+001 5.566558e+001 6.680335e+001 4.457332e+001 4.887484e+001 4.914215e+001 5.228620e+001 4.202612e+001 4.739345e+001 2.719568e+001 2.114334e+000 2.220062e+000 2.338030e+000 2.665612e+000 3.033248e+000 2.856703e+000 2.888793e+000 3.164947e+000 2.951939e+000 2.657359e+000 2.818799e+000 2.146918e+000 2.618564e+000
<GCONST> 1.056063e+002
<STATE> 4
<MEAN> 25
 2.646477e+000 -1.153736e+000 6.610723e-001 -1.292458e+000 1.481487e-001 -3.250650e-002 -5.463280e-001 -6.289940e-002 -6.869287e-001 -6.223006e-001 -9.779249e-001 -4.907248e-001 1.163707e-002 2.173010e-004 -1.100079e-002 -1.207191e-002 9.043657e-003 6.332086e-003 -1.144162e-002 9.744666e-004 6.610726e-003 4.375753e-003 -1.046661e-004 1.199472e-003 8.045626e-003
<VARIANCE> 25
 8.889159e+001 4.663108e+001 6.269237e+001 6.034295e+001 6.846662e+001 4.497736e+001 4.748941e+001 4.776583e+001 4.955314e+001 4.165534e+001 4.572446e+001 2.682962e+001 2.130813e+000 2.253707e+000 2.337885e+000 2.797672e+000 3.179176e+000 2.920455e+000 2.926193e+000 3.158707e+000 2.934565e+000 2.667799e+000 2.761258e+000 2.147584e+000 2.559797e+000
<GCONST> 1.056959e+002
<TRANSP> 5
 0.000000e+000 1.000000e+000 0.000000e+000 0.000000e+000 0.000000e+000
 0.000000e+000 7.761766e-001 2.238234e-001 0.000000e+000 0.000000e+000
 0.000000e+000 0.000000e+000 7.761778e-001 2.238221e-001 0.000000e+000
 0.000000e+000 0.000000e+000 0.000000e+000 9.172578e-001 8.274217e-002
 0.000000e+000 0.000000e+000 0.000000e+000 0.000000e+000 0.000000e+000
<ENDHMM>
~h "ae"
<BEGINHMM>
<NUMSTATES> 5
<STATE> 2
<MEAN> 25
 1.147008e+000 -4.876490e-001 -9.671132e-002 -5.967077e-001 -3.048725e-001 -1.067431e-001 -9.528191e-002 -4.483032e-001 8.162308e-002 -5.381083e-001 -7.440276e-001 -1.468474e-001 4.919261e-002 -1.528416e-002 1.622822e-002 -1.256767e-002 3.578658e-002 -3.033275e-002 3.263935e-003 2.291681e-002 -1.529618e-002 -4.810854e-003 -2.238415e-002 -1.611733e-003 1.075588e-001
<VARIANCE> 25
 1.120341e+002 4.762877e+001 5.463042e+001 5.062837e+001 6.331281e+001 4.592554e+001 5.495292e+001 5.830160e+001 4.736656e+001 4.051455e+001 4.883237e+001 2.692656e+001 2.125208e+000 2.024489e+000 2.037926e+000 2.283515e+000 2.889415e+000 2.803151e+000 2.849651e+000 3.245808e+000 2.744159e+000 2.543729e+000 2.590234e+000 1.920418e+000 2.632653e+000
<GCONST> 1.050712e+002
<STATE> 3
<MEAN> 25
 1.355230e+000 -5.556322e-001 -2.127866e-002 -6.533488e-001 -1.553975e-001 -2.452635e-001 -7.975878e-002 -3.545706e-001 1.222787e-002 -5.600323e-001 -8.376905e-001 -1.527904e-001 5.149155e-002 -1.530851e-002 1.764132e-002 -1.232130e-002 3.503351e-002 -3.176691e-002 1.485425e-003 2.248849e-002 -1.412668e-002 -5.041241e-003 -2.106161e-002 -1.897012e-003 1.085294e-001
<VARIANCE> 25
 1.084564e+002 4.839632e+001 5.441257e+001 5.050966e+001 6.393011e+001 4.647769e+001 5.603094e+001 5.891132e+001 4.740319e+001 4.105643e+001 4.932137e+001 2.693558e+001 2.183450e+000 2.065956e+000 2.089001e+000 2.321967e+000 2.928753e+000 2.836275e+000 2.902413e+000 3.266453e+000 2.780235e+000 2.574296e+000 2.619959e+000 1.932809e+000 2.708785e+000
<GCONST> 1.053343e+002
<STATE> 4
<MEAN> 25
 1.674801e+000 -7.806025e-001 2.539080e-001 -7.837263e-001 3.964489e-002 -6.842510e-001 1.288893e-001 1.033320e-001 -1.587428e-001 -3.761030e-001 -1.007957e+000 -2.524025e-002 3.786973e-002 -1.443890e-002 1.472913e-002 -9.917272e-003 2.645708e-002 -2.868348e-002 3.528798e-003 2.061585e-002 -1.074356e-002 -3.950686e-003 -1.664499e-002 -1.197070e-003 8.601505e-002
<VARIANCE> 25
 1.059279e+002 5.156115e+001 5.206084e+001 5.269349e+001 6.618373e+001 4.755490e+001 5.646074e+001 5.976691e+001 4.489373e+001 4.250694e+001 4.932407e+001 2.727680e+001 2.223797e+000 2.170130e+000 2.113975e+000 2.460007e+000 3.072866e+000 2.993837e+000 2.998626e+000 3.265485e+000 2.795045e+000 2.645851e+000 2.630169e+000 1.998229e+000 2.753870e+000
<GCONST> 1.058027e+002
<TRANSP> 5
 0.000000e+000 1.000000e+000 0.000000e+000 0.000000e+000 0.000000e+000
 0.000000e+000 7.765365e-001 2.234635e-001 0.000000e+000 0.000000e+000
 0.000000e+000 0.000000e+000 7.765367e-001 2.234633e-001 0.000000e+000
 0.000000e+000 0.000000e+000 0.000000e+000 9.175767e-001 8.242322e-002
 0.000000e+000 0.000000e+000 0.000000e+000 0.000000e+000 0.000000e+000
<ENDHMM>
~h "ah"
<BEGINHMM>
<NUMSTATES> 5
<STATE> 2
<MEAN> 25
 -8.283702e-001 6.328296e-002 -5.302598e-001 -2.046276e-001 3.067454e-001 2.380081e-001 2.114172e-001 2.816567e-001 4.358661e-001 3.441699e-001 2.698447e-002 2.005411e-001 2.112230e-002 -7.845392e-003 7.347797e-003 -6.589963e-003 -1.134742e-003 -1.738022e-003 -1.065725e-002 -4.214897e-003 -1.590152e-002 -9.224420e-003 -1.336499e-003 -9.230534e-003 5.882628e-002
<VARIANCE> 25
 1.303648e+002 4.896226e+001 6.037707e+001 5.701182e+001 5.519005e+001 5.774517e+001 4.778635e+001 4.724727e+001 5.415493e+001 3.810422e+001 4.093325e+001 2.451845e+001 2.479816e+000 2.074859e+000 2.154857e+000 2.636889e+000 2.959512e+000 2.866754e+000 2.838259e+000 3.052789e+000 3.078550e+000 2.554039e+000 2.534681e+000 1.960343e+000 2.823459e+000
<GCONST> 1.055608e+002
<STATE> 3
<MEAN> 25
 -7.255946e-001 4.993515e-002 -4.986892e-001 -2.161817e-001 3.095313e-001 2.365668e-001 1.783458e-001 2.522909e-001 3.690363e-001 3.065431e-001 2.425097e-002 1.663591e-001 2.578810e-002 -5.342531e-003 7.581860e-003 -3.457782e-003 3.946440e-004 -5.979029e-004 -9.180606e-003 -5.234209e-003 -1.581801e-002 -1.030284e-002 -2.935285e-003 -8.841236e-003 4.812358e-002
<VARIANCE> 25
 1.282742e+002 4.854631e+001 6.038048e+001 5.682585e+001 5.525286e+001 5.729007e+001 4.773348e+001 4.699384e+001 5.429855e+001 3.798505e+001 4.084007e+001 2.448582e+001 2.467271e+000 2.061541e+000 2.152630e+000 2.627820e+000 2.965986e+000 2.857564e+000 2.843720e+000 3.049440e+000 3.081121e+000 2.557839e+000 2.537626e+000 1.963641e+000 2.719059e+000
<GCONST> 1.054669e+002
<STATE> 4
<MEAN> 25
 -2.862093e-001 3.671354e-002 -4.428123e-001 -2.844422e-001 4.905710e-001 2.309617e-001 1.282768e-001 2.304759e-001 3.363232e-001 2.107377e-001 -2.918327e-002 1.068011e-001 2.634135e-002 4.157101e-005 6.190383e-003 8.577339e-004 4.785408e-004 -1.208621e-003 -5.655664e-003 -8.797869e-003 -1.531749e-002 -1.017204e-002 -1.779049e-003 -6.416907e-003 2.465031e-002
<VARIANCE> 25
 1.272435e+002 4.724024e+001 5.739433e+001 6.110492e+001 5.714476e+001 5.664765e+001 4.645845e+001 4.725020e+001 5.233136e+001 3.808147e+001 3.985644e+001 2.456668e+001 2.413919e+000 2.050623e+000 2.108107e+000 2.721914e+000 3.024516e+000 2.907218e+000 2.865917e+000 3.097043e+000 3.065185e+000 2.582287e+000 2.512068e+000 1.992495e+000 2.530845e+000
<GCONST> 1.053829e+002
<TRANSP> 5
 0.000000e+000 1.000000e+000 0.000000e+000 0.000000e+000 0.000000e+000
 0.000000e+000 7.675358e-001 2.324641e-001 0.000000e+000 0.000000e+000
 0.000000e+000 0.000000e+000 7.675326e-001 2.324674e-001 0.000000e+000
 0.000000e+000 0.000000e+000 0.000000e+000 9.076433e-001 9.235669e-002
 0.000000e+000 0.000000e+000 0.000000e+000 0.000000e+000 0.000000e+000
<ENDHMM>
~h "ao"
<BEGINHMM>
<NUMSTATES> 5
<STATE> 2
<MEAN> 25
 2.495875e+000 5.654502e-001 -3.787026e-001 -3.802434e-001 -4.218415e-001 -3.247104e-001 -1.179948e+000 -7.182605e-001 -5.036976e-001 3.342689e-001 4.474073e-001 -1.147591e-002 5.463937e-002 5.799976e-003 2.499755e-002 -1.637204e-002 1.446766e-003 -1.238559e-003 1.769077e-002 -1.183574e-003 -2.447055e-002 7.547707e-003 -1.452803e-003 -3.996922e-003 5.571704e-002
<VARIANCE> 25
 1.023161e+002 4.098096e+001 5.521799e+001 5.756339e+001 5.336469e+001 5.548145e+001 5.264189e+001 5.286372e+001 5.306311e+001 3.676469e+001 3.627365e+001 2.751323e+001 2.772527e+000 2.268489e+000 2.197831e+000 2.908328e+000 3.129364e+000 3.016799e+000 3.054574e+000 3.091117e+000 3.044587e+000 2.697069e+000 2.516476e+000 2.133854e+000 2.605354e+000
<GCONST> 1.056865e+002
<STATE> 3
<MEAN> 25
 2.726057e+000 5.764375e-001 -2.691408e-001 -4.581387e-001 -4.351573e-001 -3.303897e-001 -1.093304e+000 -7.020780e-001 -5.940105e-001 3.723061e-001 4.406423e-001 -2.734105e-002 4.774110e-002 4.385105e-003 2.657216e-002 -1.331592e-002 -3.059899e-003 -3.478061e-003 2.009135e-002 9.299746e-004 -1.856385e-002 5.114298e-003 -3.000380e-003 -4.941810e-003 5.255773e-002
<VARIANCE> 25
 9.958976e+001 4.180996e+001 5.625401e+001 5.788518e+001 5.426728e+001 5.531219e+001 5.220794e+001 5.309651e+001 5.325674e+001 3.632227e+001 3.644369e+001 2.736791e+001 2.768401e+000 2.312480e+000 2.223618e+000 2.937085e+000 3.128448e+000 3.025267e+000 3.049116e+000 3.146412e+000 3.036019e+000 2.689601e+000 2.529771e+000 2.146953e+000 2.589070e+000
<GCONST> 1.057616e+002
<STATE> 4
<MEAN> 25
 3.446272e+000 4.971756e-001 -9.980510e-002 -7.753965e-001 -8.819143e-001 2.453740e-003 -8.339628e-001 -6.712615e-001 -6.712769e-001 6.064359e-001 5.140374e-001 -1.912703e-001 2.915627e-002 -1.923844e-003 2.579829e-002 -1.141931e-002 -1.209536e-002 -3.829745e-003 2.273607e-002 7.011655e-003 -7.994793e-003 1.534721e-003 -6.782197e-003 -4.981005e-003 3.961283e-002
<VARIANCE> 25
 1.006744e+002 4.338912e+001 5.728652e+001 6.334877e+001 6.286316e+001 5.652673e+001 5.160178e+001 5.223144e+001 5.007796e+001 3.846212e+001 3.653478e+001 2.735079e+001 2.705307e+000 2.464429e+000 2.296093e+000 3.106491e+000 3.212433e+000 3.044202e+000 3.203680e+000 3.310604e+000 3.105926e+000 2.889035e+000 2.622650e+000 2.163400e+000 2.618735e+000
<GCONST> 1.064673e+002
<TRANSP> 5
 0.000000e+000 1.000000e+000 0.000000e+000 0.000000e+000 0.000000e+000
 0.000000e+000 7.761223e-001 2.238777e-001 0.000000e+000 0.000000e+000
 0.000000e+000 0.000000e+000 7.761216e-001 2.238784e-001 0.000000e+000
 0.000000e+000 0.000000e+000 0.000000e+000 9.158086e-001 8.419139e-002
 0.000000e+000 0.000000e+000 0.000000e+000 0.000000e+000 0.000000e+000
<ENDHMM>
~h "aw"
<BEGINHMM>
<NUMSTATES> 5
<STATE> 2
<MEAN> 25
 1.991299e+000 -1.249922e+000 5.943972e-001 -1.041604e+000 1.038874e+000 -3.687617e-001 -5.796123e-002 7.703216e-002 -8.295181e-001 -8.402623e-001 -9.943081e-001 -1.284050e-001 -3.110101e-002 8.190378e-003 -5.511290e-003 -1.087112e-002 -1.404630e-002 3.216776e-003 1.679293e-002 -1.084253e-002 -1.470942e-002 9.530938e-003 1.809541e-002 9.564740e-003 -3.803091e-002
<VARIANCE> 25
 8.996705e+001 5.969961e+001 5.476745e+001 6.097998e+001 6.851841e+001 5.804560e+001 4.878582e+001 5.493765e+001 5.875655e+001 4.341434e+001 4.269765e+001 2.445724e+001 2.474478e+000 2.757277e+000 2.506980e+000 2.865029e+000 3.590514e+000 3.182209e+000 3.112517e+000 3.275710e+000 3.313733e+000 2.740456e+000 2.682477e+000 2.000206e+000 2.494914e+000
<GCONST> 1.070768e+002
<STATE> 3
<MEAN> 25
 1.873433e+000 -1.211602e+000 5.735610e-001 -1.082226e+000 9.807057e-001 -3.369603e-001 8.160596e-003 2.745187e-002 -8.896396e-001 -8.003337e-001 -9.163702e-001 -9.297537e-002 -3.152676e-002 1.027055e-002 -4.014139e-003 -1.109533e-002 -1.518083e-002 4.474000e-003 1.640201e-002 -1.346555e-002 -1.464148e-002 1.082746e-002 1.988057e-002 9.887441e-003 -3.781868e-002
<VARIANCE> 25
 8.970583e+001 5.965353e+001 5.525674e+001 6.068786e+001 6.755090e+001 5.783127e+001 4.836202e+001 5.481001e+001 5.838468e+001 4.342144e+001 4.179319e+001 2.437292e+001 2.465924e+000 2.745806e+000 2.507444e+000 2.830724e+000 3.547044e+000 3.147115e+000 3.080492e+000 3.250346e+000 3.285022e+000 2.738154e+000 2.656296e+000 1.994991e+000 2.472404e+000
<GCONST> 1.069253e+002
<STATE> 4
<MEAN> 25
 1.632394e+000 -1.052596e+000 1.430013e-001 -1.047769e+000 9.627087e-001 -2.011093e-001 1.410130e-001 -7.589422e-002 -8.405806e-001 -5.473543e-001 -6.583157e-001 6.082533e-003 -2.213771e-002 1.156382e-002 -4.055641e-004 -8.757408e-003 -1.516549e-002 1.217737e-002 1.211045e-002 -1.488240e-002 -1.121799e-002 9.756326e-003 1.840661e-002 7.273820e-003 -3.235994e-002
<VARIANCE> 25
 9.780013e+001 6.014894e+001 5.420301e+001 6.459375e+001 6.662678e+001 5.652751e+001 4.625304e+001 5.347409e+001 5.295909e+001 4.385681e+001 3.937612e+001 2.400917e+001 2.383078e+000 2.646789e+000 2.448591e+000 2.867195e+000 3.488800e+000 3.137471e+000 2.957498e+000 3.233903e+000 3.111416e+000 2.724613e+000 2.574032e+000 1.962088e+000 2.372854e+000
<GCONST> 1.064993e+002
<TRANSP> 5
 0.000000e+000 1.000000e+000 0.000000e+000 0.000000e+000 0.000000e+000
 0.000000e+000 7.612001e-001 2.387999e-001 0.000000e+000 0.000000e+000
 0.000000e+000 0.000000e+000 7.611986e-001 2.388013e-001 0.000000e+000
 0.000000e+000 0.000000e+000 0.000000e+000 9.013258e-001 9.867426e-002
 0.000000e+000 0.000000e+000 0.000000e+000 0.000000e+000 0.000000e+000
<ENDHMM>
~h "ay"
<BEGINHMM>
<NUMSTATES> 5
<STATE> 2
<MEAN> 25
 -1.498549e-001 -1.160484e-002 4.977179e-001 -1.097209e-002 -7.866332e-002 -3.959808e-001 -5.300086e-002 2.823558e-001 -1.605549e-001 -7.873693e-002 -4.592342e-002 -2.618264e-002 3.773601e-002 -3.087955e-002 2.561250e-003 -1.345602e-002 5.152115e-003 -7.784914e-003 6.354844e-003 1.997332e-003 -1.092234e-002 -1.382932e-002 -1.566845e-002 -1.246856e-002 8.318172e-002
<VARIANCE> 25
 1.226791e+002 4.877625e+001 5.720182e+001 4.574602e+001 5.819374e+001 4.471145e+001 4.925896e+001 4.774055e+001 4.612904e+001 3.738758e+001 3.890282e+001 2.386351e+001 2.185834e+000 1.973518e+000 1.980060e+000 2.174582e+000 2.789367e+000 2.635574e+000 2.575821e+000 2.912528e+000 2.772260e+000 2.408260e+000 2.416724e+000 1.824157e+000 2.572175e+000
<GCONST> 1.036852e+002
<STATE> 3
<MEAN> 25
 9.483593e-003 -1.449374e-001 5.134986e-001 -6.698583e-002 -4.586148e-002 -4.192324e-001 -1.243798e-002 2.991163e-001 -1.986704e-001 -1.394832e-001 -1.149860e-001 -7.370494e-002 3.586395e-002 -2.864099e-002 -5.154552e-004 -1.008603e-002 7.773531e-003 -3.186805e-003 9.961226e-003 2.835944e-003 -6.712559e-003 -1.319463e-002 -1.695749e-002 -1.161242e-002 7.256170e-002
<VARIANCE> 25
 1.179130e+002 4.872766e+001 5.749443e+001 4.557232e+001 5.907727e+001 4.431297e+001 4.902055e+001 4.759917e+001 4.621804e+001 3.770759e+001 3.896053e+001 2.402354e+001 2.175363e+000 1.981101e+000 1.998960e+000 2.186908e+000 2.810783e+000 2.628909e+000 2.580121e+000 2.916947e+000 2.770528e+000 2.425528e+000 2.416289e+000 1.835371e+000 2.538198e+000
<GCONST> 1.036845e+002
<STATE> 4
<MEAN> 25
 4.296673e-001 -5.011094e-001 6.646605e-001 -3.164599e-001 -3.983135e-002 -5.667756e-001 1.021785e-001 3.585209e-001 -2.737340e-001 -2.364551e-001 -3.570963e-001 -1.058247e-001 2.694819e-002 -2.112425e-002 3.482971e-003 -9.394804e-003 7.547507e-003 -2.068077e-004 1.137909e-002 3.425446e-003 -3.304870e-003 -1.024195e-002 -1.384257e-002 -7.381125e-003 5.577327e-002
<VARIANCE> 25
 1.099612e+002 4.903614e+001 5.756157e+001 4.797204e+001 6.465496e+001 4.348435e+001 4.670451e+001 4.674717e+001 4.282603e+001 3.916501e+001 3.862751e+001 2.461927e+001 2.102417e+000 1.989133e+000 2.013251e+000 2.245125e+000 2.960412e+000 2.668770e+000 2.640136e+000 2.919087e+000 2.723352e+000 2.459085e+000 2.381215e+000 1.880098e+000 2.531434e+000
<GCONST> 1.037533e+002
<TRANSP> 5
 0.000000e+000 1.000000e+000 0.000000e+000 0.000000e+000 0.000000e+000
 0.000000e+000 7.820298e-001 2.179702e-001 0.000000e+000 0.000000e+000
 0.000000e+000 0.000000e+000 7.820306e-001 2.179694e-001 0.000000e+000
 0.000000e+000 0.000000e+000 0.000000e+000 9.218711e-001 7.812889e-002
 0.000000e+000 0.000000e+000 0.000000e+000 0.000000e+000 0.000000e+000
<ENDHMM>
~h "ch"
<BEGINHMM>
<NUMSTATES> 5
<STATE> 2
<MEAN> 25
 2.142953e-001 -1.812705e+000 1.369291e+000 -1.480370e+000 7.716754e-001 -1.594537e+000 7.607287e-001 8.413759e-001 -3.524179e-001 -4.106277e-001 -4.614013e-001 1.301549e-001 -5.344666e-002 2.461979e-002 -3.612087e-003 -4.952890e-003 1.277477e-002 7.217387e-003 1.839621e-002 8.866036e-003 -1.885364e-002 4.283465e-003 5.023819e-003 4.641092e-003 -5.813234e-002
<VARIANCE> 25
 1.112576e+002 6.380839e+001 7.155916e+001 6.444232e+001 6.111243e+001 5.992797e+001 5.594098e+001 5.297208e+001 5.450687e+001 4.503966e+001 4.142692e+001 2.470594e+001 3.257617e+000 2.943269e+000 3.053607e+000 3.097120e+000 3.286821e+000 3.073900e+000 3.187586e+000 3.296257e+000 3.388612e+000 3.054417e+000 2.701990e+000 2.037363e+000 2.540821e+000
<GCONST> 1.083351e+002
<STATE> 3
<MEAN> 25
 -2.124585e-002 -1.695391e+000 1.361912e+000 -1.495676e+000 8.289776e-001 -1.569719e+000 8.388205e-001 8.795607e-001 -4.322633e-001 -3.991685e-001 -4.335286e-001 1.499441e-001 -5.194616e-002 2.750375e-002 -5.667096e-003 -3.970385e-003 1.335359e-002 1.006409e-002 1.649044e-002 1.033887e-002 -1.984427e-002 5.842692e-003 7.495852e-003 3.929128e-003 -6.815219e-002
<VARIANCE> 25
 1.121419e+002 6.373639e+001 7.121533e+001 6.464732e+001 6.038529e+001 5.954065e+001 5.576517e+001 5.310685e+001 5.425975e+001 4.451098e+001 4.155056e+001 2.457313e+001 3.174550e+000 2.881473e+000 3.020438e+000 3.091877e+000 3.231565e+000 3.048498e+000 3.144064e+000 3.289473e+000 3.330332e+000 3.016163e+000 2.682703e+000 2.024493e+000 2.469496e+000
<GCONST> 1.081298e+002
<STATE> 4
<MEAN> 25
 -5.124714e-001 -1.279808e+000 1.179085e+000 -1.244578e+000 6.213335e-001 -1.232258e+000 9.679912e-001 7.146629e-001 -2.713876e-001 -3.593228e-001 -5.202889e-002 1.990496e-001 -4.909441e-002 3.104372e-002 -2.895127e-003 -1.059440e-003 1.595839e-002 7.647683e-003 1.250481e-002 1.093923e-002 -1.739094e-002 4.232107e-003 1.263670e-002 3.805254e-003 -6.255171e-002
<VARIANCE> 25
 1.161710e+002 5.981891e+001 6.826590e+001 6.768585e+001 6.026311e+001 5.787229e+001 5.254176e+001 5.120898e+001 4.952907e+001 4.215245e+001 4.064262e+001 2.388548e+001 3.030183e+000 2.691578e+000 2.946989e+000 3.274229e+000 3.203255e+000 3.084790e+000 3.092971e+000 3.335192e+000 3.198445e+000 2.936270e+000 2.645922e+000 1.987245e+000 2.455997e+000
<GCONST> 1.075961e+002
<TRANSP> 5
 0.000000e+000 1.000000e+000 0.000000e+000 0.000000e+000 0.000000e+000
 0.000000e+000 7.692261e-001 2.307739e-001 0.000000e+000 0.000000e+000
 0.000000e+000 0.000000e+000 7.692258e-001 2.307741e-001 0.000000e+000
 0.000000e+000 0.000000e+000 0.000000e+000 9.100817e-001 8.991832e-002
 0.000000e+000 0.000000e+000 0.000000e+000 0.000000e+000 0.000000e+000
<ENDHMM>
~h "dh"
<BEGINHMM>
<NUMSTATES> 5
<STATE> 2
<MEAN> 25
 -1.261095e+000 7.738624e-001 -2.999598e-001 -6.346125e-001 -1.116912e+000 5.272335e-001 8.887544e-001 -2.680379e-001 6.180640e-001 5.024596e-001 5.838035e-001 3.706758e-002 1.444894e-001 -5.184271e-002 9.493410e-003 -8.483803e-003 -1.080915e-002 -8.018380e-002 -5.183106e-003 1.435697e-002 -1.350757e-002 -9.125980e-003 -2.045850e-002 -4.734740e-002 2.445918e-001
<VARIANCE> 25
 1.153586e+002 5.306080e+001 7.417004e+001 5.981443e+001 5.952357e+001 5.251396e+001 4.677315e+001 4.249052e+001 5.386418e+001 3.440484e+001 3.673655e+001 2.586779e+001 3.072876e+000 1.909725e+000 2.163096e+000 2.533095e+000 2.988905e+000 2.328902e+000 2.852666e+000 2.733701e+000 2.688444e+000 2.231616e+000 2.235545e+000 1.790298e+000 3.954345e+000
<GCONST> 1.051056e+002
<STATE> 3
<MEAN> 25
 -6.770535e-001 5.421534e-001 -2.698838e-001 -6.448940e-001 -1.182535e+000 1.900110e-001 8.808764e-001 -1.942577e-001 5.759441e-001 4.594603e-001 4.823567e-001 -1.516403e-001 1.392290e-001 -5.397892e-002 9.468227e-003 3.134629e-004 -1.439269e-002 -8.051493e-002 -4.505523e-003 1.636216e-002 -1.360440e-002 -1.161487e-002 -2.406325e-002 -4.523805e-002 2.318942e-001
<VARIANCE> 25
 1.088856e+002 5.404050e+001 7.537431e+001 6.028881e+001 6.146347e+001 5.274014e+001 4.809615e+001 4.407816e+001 5.419444e+001 3.501872e+001 3.754766e+001 2.628988e+001 3.142027e+000 1.969034e+000 2.209649e+000 2.609836e+000 3.062618e+000 2.410867e+000 2.941239e+000 2.825278e+000 2.712174e+000 2.259636e+000 2.299281e+000 1.838409e+000 4.013767e+000
<GCONST> 1.055702e+002
<STATE> 4
<MEAN> 25
 6.357573e-001 5.682651e-002 1.999244e-001 -8.593405e-001 -1.193363e+000 -5.188170e-001 8.537225e-001 2.480361e-001 4.045927e-001 3.685005e-001 1.260920e-001 -3.384385e-001 1.101860e-001 -5.496555e-002 -1.818368e-003 1.565925e-002 -2.389984e-002 -6.712557e-002 -1.528469e-003 1.982566e-002 -3.311881e-003 -1.519877e-002 -2.426189e-002 -3.522142e-002 1.841477e-001
<VARIANCE> 25
 9.745796e+001 5.470816e+001 7.738011e+001 6.313935e+001 6.550793e+001 5.444837e+001 5.003110e+001 4.814349e+001 5.385718e+001 3.721093e+001 3.873096e+001 2.695614e+001 3.211156e+000 2.095315e+000 2.303218e+000 2.781289e+000 3.202252e+000 2.647788e+000 3.244624e+000 3.016006e+000 2.834784e+000 2.336362e+000 2.416797e+000 1.972198e+000 4.096580e+000
<GCONST> 1.065869e+002
<TRANSP> 5
 0.000000e+000 1.000000e+000 0.000000e+000 0.000000e+000 0.000000e+000
 0.000000e+000 7.562174e-001 2.437826e-001 0.000000e+000 0.000000e+000
 0.000000e+000 0.000000e+000 7.562169e-001 2.437831e-001 0.000000e+000
 0.000000e+000 0.000000e+000 0.000000e+000 8.905721e-001 1.094279e-001
 0.000000e+000 0.000000e+000 0.000000e+000 0.000000e+000 0.000000e+000
<ENDHMM>
~h "eh"
<BEGINHMM>
<NUMSTATES> 5
<STATE> 2
<MEAN> 25
 7.961650e-001 -1.208177e+000 1.733812e+000 -2.162799e-001 -1.060982e+000 -1.404059e+000 4.983977e-001 6.977420e-001 -3.699891e-001 -9.690943e-002 1.982297e-001 -1.131417e-001 1.274104e-002 3.116017e-003 -3.814551e-003 1.140428e-002 -5.466091e-003 -8.601787e-004 2.778983e-003 -8.843011e-003 3.024860e-003 -1.216396e-002 -1.147955e-002 -1.407903e-003 8.965815e-003
<VARIANCE> 25
 8.657929e+001 6.208085e+001 7.699829e+001 4.812376e+001 7.025867e+001 5.397277e+001 5.199913e+001 5.146039e+001 5.542602e+001 3.637005e+001 3.436736e+001 2.358494e+001 2.833264e+000 2.739379e+000 2.812422e+000 2.504755e+000 3.449109e+000 2.877055e+000 3.212280e+000 3.047768e+000 3.258194e+000 2.529755e+000 2.475374e+000 1.959866e+000 2.862110e+000
<GCONST> 1.065110e+002
<STATE> 3
<MEAN> 25
 8.438832e-001 -1.203205e+000 1.723584e+000 -1.777827e-001 -1.090968e+000 -1.395184e+000 5.141914e-001 6.620967e-001 -3.522860e-001 -1.461710e-001 1.494026e-001 -1.220656e-001 1.214797e-002 5.831013e-003 -7.950906e-003 8.833967e-003 -4.837782e-003 4.057568e-003 2.833341e-003 -1.243816e-002 6.494466e-003 -1.312595e-002 -1.168197e-002 -1.713730e-003 5.600227e-003
<VARIANCE> 25
 8.611932e+001 6.194101e+001 7.670316e+001 4.802314e+001 7.102431e+001 5.390150e+001 5.244878e+001 5.202456e+001 5.534469e+001 3.672098e+001 3.443898e+001 2.361964e+001 2.809255e+000 2.750658e+000 2.795662e+000 2.525728e+000 3.458689e+000 2.893820e+000 3.223837e+000 3.059942e+000 3.269562e+000 2.537141e+000 2.486117e+000 1.964845e+000 2.821847e+000
<GCONST> 1.065514e+002
<STATE> 4
<MEAN> 25
 9.606088e-001 -1.201228e+000 1.935548e+000 -1.934346e-001 -1.296674e+000 -1.351834e+000 5.577275e-001 5.978963e-001 -3.056006e-001 -2.351640e-001 6.101910e-002 -1.202770e-001 7.004196e-003 1.908287e-003 -5.899664e-003 3.868723e-003 -4.837062e-003 1.163796e-002 3.774533e-003 -1.259668e-002 9.397695e-003 -1.242105e-002 -1.117189e-002 -2.966549e-003 4.187013e-003
<VARIANCE> 25
 8.981187e+001 6.149922e+001 7.375301e+001 5.089294e+001 7.319112e+001 5.523529e+001 5.214563e+001 5.365409e+001 5.346194e+001 3.912215e+001 3.424947e+001 2.443560e+001 2.840424e+000 2.782034e+000 2.797188e+000 2.699249e+000 3.542645e+000 3.081257e+000 3.374513e+000 3.178081e+000 3.380761e+000 2.724138e+000 2.596563e+000 2.039532e+000 2.825759e+000
<GCONST> 1.071882e+002
<TRANSP> 5
 0.000000e+000 1.000000e+000 0.000000e+000 0.000000e+000 0.000000e+000
 0.000000e+000 7.568972e-001 2.431028e-001 0.000000e+000 0.000000e+000
 0.000000e+000 0.000000e+000 7.568969e-001 2.431032e-001 0.000000e+000
 0.000000e+000 0.000000e+000 0.000000e+000 8.922557e-001 1.077443e-001
 0.000000e+000 0.000000e+000 0.000000e+000 0.000000e+000 0.000000e+000
<ENDHMM>
~h "er"
<BEGINHMM>
<NUMSTATES> 5
<STATE> 2
<MEAN> 25
 2.455379e+000 -1.435747e-002 -1.662001e+000 2.494968e-001 -6.871771e-001 -1.493775e+000 -6.967707e-002 1.179354e-001 1.487082e+000 4.768976e-001 -3.499494e-001 -4.903905e-001 4.892270e-002 -2.007066e-002 1.891383e-003 -3.702816e-004 -5.709432e-003 -3.067062e-002 -1.199047e-002 1.315741e-002 9.284557e-003 -1.813935e-002 -1.436468e-002 -6.585639e-003 8.931442e-002
<VARIANCE> 25
 8.852908e+001 4.344355e+001 5.708144e+001 5.705537e+001 5.541232e+001 6.366603e+001 5.269333e+001 4.662117e+001 5.193501e+001 3.648968e+001 4.224471e+001 2.606821e+001 2.933794e+000 2.148099e+000 2.087597e+000 2.958074e+000 3.094195e+000 3.276011e+000 3.190598e+000 3.467218e+000 3.134417e+000 2.631606e+000 2.696115e+000 2.131593e+000 3.435291e+000
<GCONST> 1.062904e+002
<STATE> 3
<MEAN> 25
 2.621718e+000 -9.368246e-002 -1.658652e+000 2.570472e-001 -7.142417e-001 -1.607165e+000 -1.216358e-001 1.709468e-001 1.523407e+000 4.034055e-001 -3.999605e-001 -5.120381e-001 3.962577e-002 -2.100033e-002 4.833584e-003 2.236472e-003 -3.656256e-003 -2.627535e-002 -1.363451e-002 1.831440e-002 9.489531e-003 -1.806081e-002 -1.112783e-002 -2.626382e-003 7.908751e-002
<VARIANCE> 25
 8.610052e+001 4.365972e+001 5.661856e+001 5.697511e+001 5.571681e+001 6.388270e+001 5.356068e+001 4.689675e+001 5.228247e+001 3.647534e+001 4.263428e+001 2.594245e+001 2.927680e+000 2.170276e+000 2.086639e+000 2.983914e+000 3.116649e+000 3.316732e+000 3.235383e+000 3.474385e+000 3.163179e+000 2.632047e+000 2.715852e+000 2.144196e+000 3.393721e+000
<GCONST> 1.063620e+002
<STATE> 4
<MEAN> 25
 2.836738e+000 -3.722178e-001 -1.443646e+000 2.531458e-001 -6.351096e-001 -1.723535e+000 -1.740856e-001 2.773629e-001 1.393020e+000 4.151922e-001 -5.509035e-001 -5.507944e-001 1.790156e-002 -1.724919e-002 4.801020e-003 7.718098e-003 -8.059506e-005 -1.604146e-002 -1.538051e-002 1.579132e-002 6.329138e-003 -1.648385e-002 -6.255503e-003 1.032322e-003 4.636033e-002
<VARIANCE> 25
 8.630555e+001 4.411894e+001 5.812480e+001 5.830671e+001 5.756461e+001 6.317817e+001 5.384817e+001 4.746691e+001 5.167530e+001 3.760158e+001 4.173647e+001 2.589282e+001 2.892302e+000 2.259488e+000 2.111110e+000 3.163234e+000 3.193264e+000 3.326491e+000 3.386845e+000 3.491838e+000 3.240471e+000 2.670476e+000 2.720921e+000 2.176034e+000 3.310978e+000
<GCONST> 1.066654e+002
<TRANSP> 5
 0.000000e+000 1.000000e+000 0.000000e+000 0.000000e+000 0.000000e+000
 0.000000e+000 7.603990e-001 2.396010e-001 0.000000e+000 0.000000e+000
 0.000000e+000 0.000000e+000 7.603987e-001 2.396013e-001 0.000000e+000
 0.000000e+000 0.000000e+000 0.000000e+000 8.968912e-001 1.031088e-001
 0.000000e+000 0.000000e+000 0.000000e+000 0.000000e+000 0.000000e+000
<ENDHMM>
~h "ey"
<BEGINHMM>
<NUMSTATES> 5
<STATE> 2
<MEAN> 25
 2.080866e+000 1.575220e-001 -6.341827e-002 1.877064e-001 -1.060088e+000 -1.736415e+000 -7.162341e-001 -1.963797e-001 7.894053e-001 -1.631854e-001 6.316200e-001 -4.433274e-001 5.775144e-002 -2.983207e-003 5.363026e-002 -1.270348e-002 -3.416366e-002 -4.147041e-002 -2.676427e-002 -1.922665e-002 -1.352154e-002 -1.368825e-002 5.100879e-003 -1.023737e-002 1.144187e-001
<VARIANCE> 25
 9.490327e+001 4.888297e+001 7.210591e+001 5.117524e+001 6.847763e+001 5.758385e+001 5.890742e+001 5.316549e+001 5.646321e+001 3.690376e+001 4.969644e+001 2.661139e+001 3.362087e+000 2.329504e+000 2.204832e+000 2.843920e+000 3.361345e+000 3.191701e+000 3.374853e+000 3.633195e+000 3.247730e+000 2.621518e+000 3.021879e+000 2.131298e+000 3.795527e+000
<GCONST> 1.078725e+002
<STATE> 3
<MEAN> 25
 2.290276e+000 1.428723e-001 1.560935e-001 1.282956e-001 -1.217782e+000 -1.907527e+000 -8.154930e-001 -2.841577e-001 7.290392e-001 -2.074176e-001 6.535083e-001 -4.820094e-001 5.036827e-002 -3.213780e-003 5.179537e-002 -1.485944e-002 -3.402433e-002 -4.111682e-002 -2.446408e-002 -1.777868e-002 -1.429780e-002 -1.184152e-002 2.575645e-003 -9.212771e-003 1.036785e-001
<VARIANCE> 25
 9.233038e+001 4.886961e+001 7.324626e+001 5.078042e+001 6.961294e+001 5.798177e+001 5.893180e+001 5.396032e+001 5.682939e+001 3.800845e+001 5.021774e+001 2.650599e+001 3.331989e+000 2.348277e+000 2.232100e+000 2.858696e+000 3.387767e+000 3.212187e+000 3.394686e+000 3.686478e+000 3.291533e+000 2.674356e+000 3.058475e+000 2.120434e+000 3.795270e+000
<GCONST> 1.080250e+002
<STATE> 4
<MEAN> 25
 2.288742e+000 -7.759365e-003 8.334225e-001 -1.862953e-001 -1.373922e+000 -2.102611e+000 -8.554580e-001 -2.601936e-001 5.168042e-001 -1.128462e-001 5.636105e-001 -4.407864e-001 3.122920e-002 -4.023723e-003 4.171295e-002 -1.481582e-002 -2.914749e-002 -3.275966e-002 -1.572730e-002 -1.647970e-002 -1.341448e-002 -5.072369e-003 -4.477946e-004 -5.057549e-003 7.146750e-002
<VARIANCE> 25
 9.170960e+001 4.946223e+001 7.722682e+001 5.287434e+001 7.456124e+001 5.779955e+001 5.711965e+001 5.583102e+001 5.607171e+001 3.965268e+001 4.847084e+001 2.671337e+001 3.188996e+000 2.404809e+000 2.238123e+000 2.984231e+000 3.503808e+000 3.237014e+000 3.405582e+000 3.761116e+000 3.366697e+000 2.784426e+000 3.013635e+000 2.146435e+000 3.708134e+000
<GCONST> 1.083207e+002
<TRANSP> 5
 0.000000e+000 1.000000e+000 0.000000e+000 0.000000e+000 0.000000e+000
 0.000000e+000 7.604815e-001 2.395185e-001 0.000000e+000 0.000000e+000
 0.000000e+000 0.000000e+000 7.604818e-001 2.395182e-001 0.000000e+000
 0.000000e+000 0.000000e+000 0.000000e+000 8.965980e-001 1.034021e-001
 0.000000e+000 0.000000e+000 0.000000e+000 0.000000e+000 0.000000e+000
<ENDHMM>
~h "hh"
<BEGINHMM>
<NUMSTATES> 5
<STATE> 2
<MEAN> 25
 -7.970100e+000 1.867139e+000 -2.657448e+000 3.054696e+000 -1.095093e-001 2.561383e+000 1.045652e+000 2.595931e-002 1.644114e+000 9.357290e-001 1.222721e+000 1.337598e+000 1.762213e-002 -7.513314e-002 -1.948812e-002 -9.908868e-002 -2.400798e-002 -7.259908e-002 -1.690893e-002 -5.334634e-003 -6.103628e-002 -4.270287e-002 -2.959128e-002 -1.702832e-002 3.194093e-001
<VARIANCE> 25
 1.579461e+002 4.348540e+001 3.284333e+001 5.012976e+001 3.894775e+001 5.357441e+001 3.596813e+001 4.493644e+001 3.756717e+001 3.699950e+001 3.384629e+001 1.676993e+001 1.311640e+000 1.306573e+000 1.109576e+000 1.552761e+000 1.700695e+000 1.946724e+000 1.730066e+000 2.146095e+000 1.963535e+000 1.615592e+000 1.602636e+000 1.175915e+000 3.142199e+000
<GCONST> 9.732236e+001
<STATE> 3
<MEAN> 25
 -7.825432e+000 1.512599e+000 -2.740349e+000 2.627259e+000 -1.912953e-001 2.240936e+000 9.687918e-001 3.362329e-002 1.427161e+000 7.973034e-001 1.113342e+000 1.229918e+000 3.799522e-002 -8.446138e-002 -1.702127e-002 -1.018190e-001 -1.961106e-002 -8.076059e-002 -1.915695e-002 5.036893e-004 -5.169168e-002 -3.160683e-002 -2.721602e-002 -2.582182e-002 3.440027e-001
<VARIANCE> 25
 1.551259e+002 4.328713e+001 3.360219e+001 4.864572e+001 3.908164e+001 4.948696e+001 3.504550e+001 4.302750e+001 3.703250e+001 3.725372e+001 3.356502e+001 1.688682e+001 1.373298e+000 1.368733e+000 1.154265e+000 1.626596e+000 1.739638e+000 2.027982e+000 1.778622e+000 2.194783e+000 2.025198e+000 1.669643e+000 1.643907e+000 1.213964e+000 3.238859e+000
<GCONST> 9.758175e+001
<STATE> 4
<MEAN> 25
 -6.582582e+000 5.908291e-001 -2.932204e+000 1.633368e+000 7.553821e-002 1.502641e+000 8.883427e-001 -1.899713e-001 1.032347e+000 5.775063e-001 9.033853e-001 8.284472e-001 8.040758e-002 -5.872284e-002 -1.677713e-003 -7.336832e-002 2.686937e-003 -4.776430e-002 -5.673666e-003 -2.366024e-003 -2.483151e-002 -1.098731e-002 -1.681678e-002 -2.281038e-002 2.478314e-001
<VARIANCE> 25
 1.616607e+002 4.475254e+001 3.366677e+001 5.212424e+001 4.103727e+001 4.131028e+001 3.577730e+001 3.899312e+001 3.525074e+001 3.621158e+001 3.180591e+001 1.726888e+001 1.354076e+000 1.357338e+000 1.170609e+000 1.682776e+000 1.839944e+000 1.975513e+000 1.911932e+000 2.213548e+000 1.950019e+000 1.717608e+000 1.669584e+000 1.272424e+000 2.379871e+000
<GCONST> 9.728963e+001
<TRANSP> 5
 0.000000e+000 1.000000e+000 0.000000e+000 0.000000e+000 0.000000e+000
 0.000000e+000 7.794586e-001 2.205413e-001 0.000000e+000 0.000000e+000
 0.000000e+000 0.000000e+000 7.794593e-001 2.205407e-001 0.000000e+000
 0.000000e+000 0.000000e+000 0.000000e+000 9.208161e-001 7.918389e-002
 0.000000e+000 0.000000e+000 0.000000e+000 0.000000e+000 0.000000e+000
<ENDHMM>
~h "ih"
<BEGINHMM>
<NUMSTATES> 5
<STATE> 2
<MEAN> 25
 8.500428e-001 2.965062e-001 1.368751e+000 -1.759788e-001 -3.146982e-001 -1.820404e-001 -6.502983e-002 -3.710846e-001 -7.815734e-001 -1.048253e-001 -3.826183e-002 -2.957509e-001 -2.153272e-003 -1.277088e-002 -9.254888e-003 -1.540857e-003 -1.946590e-003 7.363261e-003 1.813626e-002 7.684584e-003 7.185314e-003 -7.347235e-004 -1.024769e-003 1.541838e-003 -2.982330e-003
<VARIANCE> 25
 1.053615e+002 5.308403e+001 7.005438e+001 5.518516e+001 6.955089e+001 5.848207e+001 5.129161e+001 5.089667e+001 5.745052e+001 3.691073e+001 4.158459e+001 2.568219e+001 2.535377e+000 2.365902e+000 2.382084e+000 2.771904e+000 3.402936e+000 2.928662e+000 3.195623e+000 3.195721e+000 3.192880e+000 2.571022e+000 2.656551e+000 1.977800e+000 2.515733e+000
<GCONST> 1.066358e+002
<STATE> 3
<MEAN> 25
 8.432768e-001 2.429055e-001 1.341893e+000 -1.867995e-001 -3.154549e-001 -1.622907e-001 4.175670e-003 -3.353577e-001 -7.579520e-001 -1.098727e-001 -4.444342e-002 -2.875013e-001 -1.205285e-003 -1.331879e-002 -8.604820e-003 -2.638094e-003 -2.219086e-003 6.281806e-003 1.659643e-002 7.712739e-003 5.322895e-003 -8.609804e-004 3.288321e-004 3.078918e-003 -2.089451e-003
<VARIANCE> 25
 1.036038e+002 5.314772e+001 6.975938e+001 5.536859e+001 6.931421e+001 5.778675e+001 5.099150e+001 5.065277e+001 5.770140e+001 3.658857e+001 4.142917e+001 2.554576e+001 2.515917e+000 2.360907e+000 2.373352e+000 2.763745e+000 3.382360e+000 2.917812e+000 3.182302e+000 3.171544e+000 3.179021e+000 2.560832e+000 2.647371e+000 1.972320e+000 2.512464e+000
<GCONST> 1.065259e+002
<STATE> 4
<MEAN> 25
 7.232712e-001 2.879330e-001 1.488982e+000 -1.922772e-001 -4.768198e-001 -2.906034e-001 1.939767e-001 -2.771522e-001 -6.916440e-001 -1.546552e-001 4.947686e-002 -2.238739e-001 -1.302446e-003 -1.044215e-002 -2.935710e-003 -2.270536e-003 2.177117e-003 -5.875501e-004 1.300861e-002 9.954040e-003 1.723441e-003 -9.002434e-004 3.928272e-004 4.910204e-003 3.843123e-003
<VARIANCE> 25
 1.068066e+002 5.263549e+001 6.917947e+001 5.767863e+001 7.375842e+001 5.710286e+001 5.088361e+001 5.092750e+001 5.443549e+001 3.695002e+001 3.934407e+001 2.532259e+001 2.509389e+000 2.343997e+000 2.375430e+000 2.890519e+000 3.429212e+000 2.989451e+000 3.202259e+000 3.208438e+000 3.141327e+000 2.617909e+000 2.613703e+000 1.978342e+000 2.548757e+000
<GCONST> 1.066304e+002
<TRANSP> 5
 0.000000e+000 1.000000e+000 0.000000e+000 0.000000e+000 0.000000e+000
 0.000000e+000 7.636140e-001 2.363860e-001 0.000000e+000 0.000000e+000
 0.000000e+000 0.000000e+000 7.636141e-001 2.363858e-001 0.000000e+000
 0.000000e+000 0.000000e+000 0.000000e+000 9.033731e-001 9.662686e-002
 0.000000e+000 0.000000e+000 0.000000e+000 0.000000e+000 0.000000e+000
<ENDHMM>
~h "iy"
<BEGINHMM>
<NUMSTATES> 5
<STATE> 2
<MEAN> 25
 2.067001e+000 -4.911375e-001 2.327282e+000 -6.016067e-001 -1.117914e+000 -7.021136e-001 -1.908500e-001 -5.554517e-001 -3.189640e-001 -7.416450e-001 -3.246133e-001 -8.675990e-001 -1.067816e-002 -1.038810e-002 5.581325e-003 3.546722e-003 3.394806e-002 1.122308e-002 -3.522564e-004 5.050871e-003 -2.076517e-002 2.223357e-003 -7.841984e-003 -2.628537e-003 6.604930e-004
<VARIANCE> 25
 8.912556e+001 5.034365e+001 8.025653e+001 4.943118e+001 7.607161e+001 4.995484e+001 5.121949e+001 5.764180e+001 5.700413e+001 4.159682e+001 4.538034e+001 2.624877e+001 2.178973e+000 2.285835e+000 2.508389e+000 2.432790e+000 3.416537e+000 2.942049e+000 2.987262e+000 3.233121e+000 3.106362e+000 2.552202e+000 2.615262e+000 1.974695e+000 2.483885e+000
<GCONST> 1.063405e+002
<STATE> 3
<MEAN> 25
 2.017940e+000 -5.300243e-001 2.348783e+000 -5.826709e-001 -9.806709e-001 -6.575278e-001 -1.884755e-001 -5.215881e-001 -4.046122e-001 -7.274200e-001 -3.555455e-001 -8.658535e-001 -1.474004e-002 -1.152900e-002 5.594078e-003 5.336463e-003 3.150262e-002 1.131862e-002 -8.330526e-004 7.563786e-003 -2.296723e-002 4.195454e-003 -3.847882e-003 1.306860e-003 -6.413954e-003
<VARIANCE> 25
 8.876004e+001 5.042020e+001 8.021906e+001 4.961385e+001 7.630882e+001 4.976741e+001 5.134932e+001 5.700627e+001 5.735396e+001 4.154266e+001 4.468697e+001 2.620534e+001 2.179793e+000 2.292755e+000 2.516816e+000 2.443832e+000 3.413630e+000 2.943989e+000 3.011791e+000 3.230458e+000 3.121892e+000 2.557909e+000 2.602070e+000 1.987858e+000 2.443957e+000
<GCONST> 1.063307e+002
<STATE> 4
<MEAN> 25
 2.109934e+000 -5.458095e-001 2.586645e+000 -7.757081e-001 -1.038340e+000 -5.600469e-001 -1.599427e-001 -2.175006e-001 -6.717930e-001 -5.789766e-001 -3.692378e-001 -7.022250e-001 -1.244402e-002 -7.554085e-003 1.784956e-003 6.583368e-003 2.529577e-002 7.931426e-003 -1.244645e-004 9.679848e-003 -1.504025e-002 6.100262e-003 -2.404783e-003 6.603293e-003 -9.862764e-003
<VARIANCE> 25
 9.146600e+001 5.025529e+001 8.432977e+001 5.431053e+001 7.780791e+001 5.029352e+001 4.931279e+001 5.494529e+001 5.470979e+001 4.076375e+001 4.147623e+001 2.572041e+001 2.171288e+000 2.345765e+000 2.595945e+000 2.578152e+000 3.494925e+000 3.039680e+000 3.118244e+000 3.252598e+000 3.111487e+000 2.598776e+000 2.551236e+000 2.006798e+000 2.316356e+000
<GCONST> 1.064403e+002
<TRANSP> 5
 0.000000e+000 1.000000e+000 0.000000e+000 0.000000e+000 0.000000e+000
 0.000000e+000 7.698418e-001 2.301582e-001 0.000000e+000 0.000000e+000
 0.000000e+000 0.000000e+000 7.698423e-001 2.301577e-001 0.000000e+000
 0.000000e+000 0.000000e+000 0.000000e+000 9.097143e-001 9.028565e-002
 0.000000e+000 0.000000e+000 0.000000e+000 0.000000e+000 0.000000e+000
<ENDHMM>
~h "jh"
<BEGINHMM>
<NUMSTATES> 5
<STATE> 2
<MEAN> 25
 -1.108503e+000 8.216537e-001 4.019677e+000 -1.688721e+000 3.644676e-001 -1.374742e+000 1.054105e+000 3.417010e+000 -3.901686e-001 1.126071e+000 -5.174478e-001 1.264067e+000 -1.174027e-002 1.085389e-002 3.478974e-002 -2.168261e-002 6.881118e-003 -1.029510e-002 2.053080e-002 2.173542e-002 1.070392e-002 6.617764e-003 5.034165e-003 1.193098e-002 6.491908e-002
<VARIANCE> 25
 1.719351e+002 6.146355e+001 9.643954e+001 6.586997e+001 9.882688e+001 6.333219e+001 5.121489e+001 5.036911e+001 4.946895e+001 4.686377e+001 3.188529e+001 3.461406e+001 4.578560e+000 3.364796e+000 2.274676e+000 4.244309e+000 4.895124e+000 4.217057e+000 4.277692e+000 3.557751e+000 4.522582e+000 4.404618e+000 3.331352e+000 2.972702e+000 2.352940e+000
<GCONST> 1.122136e+002
<STATE> 3
<MEAN> 25
 -1.257250e+000 8.725677e-001 4.176730e+000 -1.786778e+000 4.430634e-001 -1.427678e+000 1.164043e+000 3.508459e+000 -3.282174e-001 1.145127e+000 -4.898864e-001 1.331037e+000 -2.941287e-002 9.180942e-003 2.788219e-002 -1.744879e-002 1.550159e-002 -9.690142e-003 2.013636e-002 1.613625e-002 1.151037e-002 3.027052e-003 5.107614e-003 1.233481e-002 5.119301e-002
<VARIANCE> 25
 1.732961e+002 6.158065e+001 9.633865e+001 6.603991e+001 9.997473e+001 6.437813e+001 5.184251e+001 5.055710e+001 5.004642e+001 4.742476e+001 3.249812e+001 3.492138e+001 4.615090e+000 3.365484e+000 2.305722e+000 4.283707e+000 4.918566e+000 4.243320e+000 4.355582e+000 3.571987e+000 4.523898e+000 4.457236e+000 3.385088e+000 2.994489e+000 2.368332e+000
<GCONST> 1.124261e+002
<STATE> 4
<MEAN> 25
 -2.328363e+000 9.816867e-001 4.233891e+000 -1.883687e+000 9.875875e-001 -1.531111e+000 1.419833e+000 3.482025e+000 -1.338625e-001 1.029718e+000 -3.867359e-001 1.470290e+000 -5.472493e-002 4.943066e-003 9.304807e-004 -3.583605e-003 2.720151e-002 -4.159394e-003 1.205590e-002 -2.612999e-003 1.002369e-002 -6.594070e-003 5.691716e-003 6.052059e-003 3.950775e-004
<VARIANCE> 25
 1.755947e+002 6.090877e+001 9.640709e+001 6.495736e+001 1.044291e+002 6.663046e+001 5.329425e+001 4.997639e+001 5.116180e+001 4.756108e+001 3.387578e+001 3.554544e+001 4.559011e+000 3.270588e+000 2.309072e+000 4.223281e+000 4.848919e+000 4.279301e+000 4.405796e+000 3.550635e+000 4.456954e+000 4.397062e+000 3.453126e+000 3.032771e+000 2.257385e+000
<GCONST> 1.124929e+002
<TRANSP> 5
 0.000000e+000 1.000000e+000 0.000000e+000 0.000000e+000 0.000000e+000
 0.000000e+000 8.161206e-001 1.838795e-001 0.000000e+000 0.000000e+000
 0.000000e+000 0.000000e+000 8.161206e-001 1.838794e-001 0.000000e+000
 0.000000e+000 0.000000e+000 0.000000e+000 9.517817e-001 4.821833e-002
 0.000000e+000 0.000000e+000 0.000000e+000 0.000000e+000 0.000000e+000
<ENDHMM>
~h "ng"
<BEGINHMM>
<NUMSTATES> 5
<STATE> 2
<MEAN> 25
 2.272299e+000 -6.808945e-001 2.874921e+000 -2.871530e-001 -1.030726e+000 1.008482e+000 -2.833053e-001 -8.562409e-001 -4.668574e-001 -1.124400e+000 -7.703146e-001 -6.223685e-001 -5.062035e-002 -2.671904e-002 2.015143e-002 -1.016391e-002 4.095763e-002 -1.141933e-002 8.462587e-003 3.067472e-002 -3.569012e-002 -8.788644e-005 -1.525830e-002 1.759181e-002 -4.249465e-002
<VARIANCE> 25
 9.635496e+001 5.563599e+001 7.175781e+001 4.756067e+001 8.266483e+001 4.960309e+001 5.223384e+001 5.711263e+001 4.698320e+001 3.847589e+001 4.123668e+001 2.578096e+001 2.081145e+000 2.299404e+000 2.351169e+000 2.400091e+000 2.982199e+000 2.659798e+000 3.174186e+000 3.184896e+000 2.877608e+000 2.588393e+000 2.512004e+000 1.946038e+000 1.562910e+000
<GCONST> 1.051793e+002
<STATE> 3
<MEAN> 25
 2.061450e+000 -7.791150e-001 2.937843e+000 -3.065540e-001 -8.367301e-001 9.531799e-001 -2.487362e-001 -7.293304e-001 -6.105677e-001 -1.114492e+000 -8.237233e-001 -5.478329e-001 -5.281604e-002 -2.588579e-002 1.781608e-002 -5.429120e-003 4.142602e-002 -1.321434e-002 6.255297e-003 3.199004e-002 -3.689060e-002 3.161850e-003 -1.214186e-002 1.725969e-002 -5.194619e-002
<VARIANCE> 25
 9.607571e+001 5.551754e+001 7.126428e+001 4.683076e+001 8.085068e+001 4.825665e+001 5.143801e+001 5.630293e+001 4.571991e+001 3.728492e+001 4.031521e+001 2.547539e+001 2.018743e+000 2.244939e+000 2.291222e+000 2.342185e+000 2.900469e+000 2.602483e+000 3.095231e+000 3.108629e+000 2.809478e+000 2.540650e+000 2.463093e+000 1.923447e+000 1.508165e+000
<GCONST> 1.046661e+002
<STATE> 4
<MEAN> 25
 1.915882e+000 -8.190905e-001 2.939600e+000 -1.566996e-001 -1.009414e+000 8.074730e-001 1.567371e-001 -3.930200e-001 -8.636345e-001 -9.262561e-001 -8.273695e-001 -4.232588e-001 -4.124353e-002 -1.687214e-002 4.324460e-003 4.885839e-003 4.224367e-002 -1.350632e-002 4.664810e-003 2.652778e-002 -2.531570e-002 7.269552e-003 -6.473461e-003 1.568311e-002 -4.828862e-002
<VARIANCE> 25
 9.762738e+001 5.426147e+001 7.242056e+001 4.778022e+001 8.546217e+001 4.530600e+001 5.097014e+001 5.434654e+001 4.224461e+001 3.791677e+001 3.806543e+001 2.537430e+001 1.884200e+000 2.137582e+000 2.238858e+000 2.338159e+000 2.937910e+000 2.608940e+000 3.099294e+000 3.052197e+000 2.691785e+000 2.579021e+000 2.349956e+000 1.941163e+000 1.575814e+000
<GCONST> 1.043533e+002
<TRANSP> 5
 0.000000e+000 1.000000e+000 0.000000e+000 0.000000e+000 0.000000e+000
 0.000000e+000 7.725833e-001 2.274167e-001 0.000000e+000 0.000000e+000
 0.000000e+000 0.000000e+000 7.725832e-001 2.274168e-001 0.000000e+000
 0.000000e+000 0.000000e+000 0.000000e+000 9.138309e-001 8.616909e-002
 0.000000e+000 0.000000e+000 0.000000e+000 0.000000e+000 0.000000e+000
<ENDHMM>
~h "ow"
<BEGINHMM>
<NUMSTATES> 5
<STATE> 2
<MEAN> 25
 6.684920e-001 -1.610636e-001 -6.362422e-001 -6.405714e-001 1.741572e-001 -4.913159e-001 1.846509e-001 9.428645e-001 1.205857e+000 8.348725e-001 1.349975e-001 2.148889e-001 6.640064e-002 -1.099309e-002 1.647674e-002 -1.383996e-003 4.377577e-003 6.466245e-004 9.230280e-003 -9.201906e-003 -9.316561e-003 -5.310481e-003 -1.174648e-002 -4.331298e-004 4.960084e-002
<VARIANCE> 25
 1.321148e+002 4.055997e+001 4.078811e+001 5.954138e+001 5.517309e+001 5.044555e+001 4.629182e+001 5.159163e+001 4.980384e+001 3.663287e+001 4.052921e+001 2.376579e+001 2.273525e+000 1.854278e+000 1.650344e+000 2.292269e+000 2.975085e+000 2.795023e+000 2.618370e+000 2.979492e+000 2.674566e+000 2.452681e+000 2.399694e+000 1.985288e+000 2.712438e+000
<GCONST> 1.037991e+002
<STATE> 3
<MEAN> 25
 9.482667e-001 -2.011768e-001 -5.710738e-001 -6.405642e-001 1.868567e-001 -4.852351e-001 2.126640e-001 9.058144e-001 1.176721e+000 8.120757e-001 7.402475e-002 2.134041e-001 5.467013e-002 -5.914188e-003 1.358330e-002 -1.786419e-003 3.908314e-003 7.121568e-003 5.838221e-003 -1.454451e-002 -1.253632e-002 -2.272706e-003 -6.998631e-003 -8.777044e-004 3.883495e-002
<VARIANCE> 25
 1.246921e+002 3.984800e+001 4.024505e+001 5.929005e+001 5.549706e+001 5.008133e+001 4.624974e+001 5.148494e+001 5.076793e+001 3.626341e+001 4.067322e+001 2.355179e+001 2.199144e+000 1.835671e+000 1.628075e+000 2.250667e+000 2.954814e+000 2.766280e+000 2.596084e+000 2.981622e+000 2.649974e+000 2.439561e+000 2.382961e+000 1.952910e+000 2.667491e+000
<GCONST> 1.035501e+002
<STATE> 4
<MEAN> 25
 1.493991e+000 -1.443566e-001 -4.955631e-001 -8.108054e-001 2.468945e-001 -4.554997e-001 7.914729e-002 7.244880e-001 1.187274e+000 6.455428e-001 -1.573801e-001 1.988991e-001 1.967815e-002 -2.012589e-003 7.932011e-003 1.120979e-002 7.075970e-003 1.413825e-002 1.136074e-003 -1.152625e-002 -8.342196e-003 -4.271904e-003 -1.112141e-002 -6.784557e-004 1.671211e-003
<VARIANCE> 25
 1.187297e+002 3.985307e+001 4.015688e+001 6.259150e+001 6.066455e+001 4.794813e+001 4.523061e+001 5.032110e+001 4.928255e+001 3.663168e+001 4.133553e+001 2.358207e+001 2.136419e+000 1.852404e+000 1.632376e+000 2.314517e+000 3.073895e+000 2.825995e+000 2.579001e+000 3.080113e+000 2.611310e+000 2.429107e+000 2.429956e+000 1.973854e+000 2.362878e+000
<GCONST> 1.035389e+002
<TRANSP> 5
 0.000000e+000 1.000000e+000 0.000000e+000 0.000000e+000 0.000000e+000
 0.000000e+000 7.900077e-001 2.099924e-001 0.000000e+000 0.000000e+000
 0.000000e+000 0.000000e+000 7.900072e-001 2.099928e-001 0.000000e+000
 0.000000e+000 0.000000e+000 0.000000e+000 9.302306e-001 6.976940e-002
 0.000000e+000 0.000000e+000 0.000000e+000 0.000000e+000 0.000000e+000
<ENDHMM>
~h "oy"
<BEGINHMM>
<NUMSTATES> 5
<STATE> 2
<MEAN> 25
 -5.144383e-001 4.724619e-001 -3.351474e+000 -1.324280e+000 1.032430e+000 8.484173e-001 -5.264605e-001 -3.188430e-001 -7.338313e-001 -4.838227e-001 1.493771e+000 -5.852148e-001 9.090001e-003 -4.154270e-003 -4.295432e-003 -4.032819e-003 2.530322e-003 4.134795e-003 1.891077e-003 -1.140707e-003 1.940423e-003 3.316287e-003 -2.107906e-003 -1.759280e-003 -3.058017e-003
<VARIANCE> 25
 1.925268e+002 5.290334e+001 6.162499e+001 1.117735e+002 6.970769e+001 4.768175e+001 4.063309e+001 4.834747e+001 3.829738e+001 3.513372e+001 3.908596e+001 2.942437e+001 2.162958e+000 2.297220e+000 2.504869e+000 3.650015e+000 3.419319e+000 4.084794e+000 3.203656e+000 3.395732e+000 4.002535e+000 3.063959e+000 3.869996e+000 3.008154e+000 1.350169e+000
<GCONST> 1.080583e+002
<STATE> 3
<MEAN> 25
 -4.639889e-001 4.500219e-001 -3.374175e+000 -1.346485e+000 1.045507e+000 8.713169e-001 -5.165794e-001 -3.256365e-001 -7.230439e-001 -4.657020e-001 1.482412e+000 -5.951710e-001 9.508882e-003 -4.102293e-003 -3.981819e-003 -4.154654e-003 2.154399e-003 4.224709e-003 1.647037e-003 -1.341848e-003 1.968544e-003 3.281649e-003 -2.090137e-003 -1.864195e-003 -2.882267e-003
<VARIANCE> 25
 1.923433e+002 5.268744e+001 6.144495e+001 1.116539e+002 6.906695e+001 4.748813e+001 4.050574e+001 4.829958e+001 3.801901e+001 3.505487e+001 3.910374e+001 2.939322e+001 2.146722e+000 2.295612e+000 2.498821e+000 3.650567e+000 3.412707e+000 4.084020e+000 3.194551e+000 3.388080e+000 3.967229e+000 3.059695e+000 3.861204e+000 3.002145e+000 1.356675e+000
<GCONST> 1.079942e+002
<STATE> 4
<MEAN> 25
 -3.471278e-001 4.000029e-001 -3.427649e+000 -1.406586e+000 1.077170e+000 9.234254e-001 -4.968104e-001 -3.371353e-001 -6.976638e-001 -4.242321e-001 1.463101e+000 -6.195005e-001 1.084126e-002 -4.216800e-003 -3.365960e-003 -4.462458e-003 1.290496e-003 4.446532e-003 1.113436e-003 -1.669013e-003 1.778659e-003 3.291526e-003 -2.018334e-003 -1.893811e-003 -2.732956e-003
<VARIANCE> 25
 1.919204e+002 5.212402e+001 6.100183e+001 1.114011e+002 6.754957e+001 4.702703e+001 4.020731e+001 4.823218e+001 3.737052e+001 3.484259e+001 3.916688e+001 2.932191e+001 2.107831e+000 2.288715e+000 2.482760e+000 3.648077e+000 3.398116e+000 4.082116e+000 3.176299e+000 3.370769e+000 3.885378e+000 3.046372e+000 3.841288e+000 2.990450e+000 1.370914e+000
<GCONST> 1.078390e+002
<TRANSP> 5
 0.000000e+000 1.000000e+000 0.000000e+000 0.000000e+000 0.000000e+000
 0.000000e+000 8.160217e-001 1.839783e-001 0.000000e+000 0.000000e+000
 0.000000e+000 0.000000e+000 8.160214e-001 1.839786e-001 0.000000e+000
 0.000000e+000 0.000000e+000 0.000000e+000 9.516391e-001 4.836095e-002
 0.000000e+000 0.000000e+000 0.000000e+000 0.000000e+000 0.000000e+000
<ENDHMM>
~h "sh"
<BEGINHMM>
<NUMSTATES> 5
<STATE> 2
<MEAN> 25
 -2.318399e+000 2.491630e-001 -1.461920e+000 1.942720e+000 7.576118e-001 1.865999e+000 -3.727744e-001 -7.058847e-001 -7.599856e-001 -7.753065e-001 4.024563e-001 8.288184e-001 -7.596643e-003 9.085163e-002 -9.819215e-002 3.238773e-002 -5.281047e-002 5.491892e-002 3.839519e-002 -5.188539e-002 4.586111e-002 -1.639589e-002 2.247546e-002 8.884974e-003 -1.267457e-001
<VARIANCE> 25
 4.454595e+001 3.935569e+001 4.739223e+001 2.588910e+001 3.066093e+001 3.072624e+001 2.972099e+001 3.236659e+001 3.804750e+001 1.720327e+001 1.713647e+001 1.267474e+001 6.315167e-001 1.047202e+000 1.135176e+000 1.296980e+000 1.350986e+000 1.698460e+000 1.800630e+000 1.642050e+000 1.759258e+000 1.271478e+000 1.277944e+000 1.221118e+000 5.468603e-001
<GCONST> 8.864469e+001
<STATE> 3
<MEAN> 25
 -2.331725e+000 5.550572e-001 -1.783776e+000 2.030688e+000 5.754657e-001 2.072558e+000 -2.678532e-001 -8.719897e-001 -6.026676e-001 -8.303201e-001 4.628110e-001 8.654044e-001 -4.845813e-003 9.686419e-002 -7.655226e-002 1.905644e-002 -3.583663e-002 5.895841e-002 3.522936e-002 -3.746303e-002 4.478989e-002 -1.947700e-003 2.367023e-002 6.939269e-003 -1.025881e-001
<VARIANCE> 25
 4.382785e+001 3.622857e+001 4.602219e+001 2.549984e+001 3.120752e+001 2.974662e+001 3.045922e+001 3.060911e+001 3.727391e+001 1.698075e+001 1.707139e+001 1.233846e+001 5.925974e-001 1.012257e+000 1.152095e+000 1.313216e+000 1.364488e+000 1.676420e+000 1.810863e+000 1.616817e+000 1.725229e+000 1.251479e+000 1.307873e+000 1.211368e+000 5.680000e-001
<GCONST> 8.832531e+001
<STATE> 4
<MEAN> 25
 -1.583872e+000 7.040126e-001 -1.252894e+000 1.494565e+000 3.414750e-001 1.853438e+000 -5.074105e-001 -9.480413e-001 -4.979683e-001 -9.394674e-001 2.243039e-001 7.074410e-001 8.656316e-003 6.426143e-002 -2.165735e-002 -7.745038e-003 -7.349321e-004 5.250073e-002 1.450212e-002 -1.769669e-003 1.774662e-002 1.161967e-002 1.197621e-002 1.836114e-003 -4.032843e-002
<VARIANCE> 25
 5.693924e+001 3.101278e+001 5.211381e+001 3.603495e+001 3.506214e+001 3.429252e+001 3.265445e+001 3.100204e+001 3.585543e+001 1.944429e+001 1.892206e+001 1.377177e+001 8.130604e-001 1.136678e+000 1.308403e+000 1.635209e+000 1.651135e+000 2.000915e+000 2.108512e+000 1.812070e+000 1.865387e+000 1.419347e+000 1.453099e+000 1.274852e+000 7.966339e-001
<GCONST> 9.166340e+001
<TRANSP> 5
 0.000000e+000 1.000000e+000 0.000000e+000 0.000000e+000 0.000000e+000
 0.000000e+000 7.646457e-001 2.353543e-001 0.000000e+000 0.000000e+000
 0.000000e+000 0.000000e+000 7.646452e-001 2.353549e-001 0.000000e+000
 0.000000e+000 0.000000e+000 0.000000e+000 9.083870e-001 9.161304e-002
 0.000000e+000 0.000000e+000 0.000000e+000 0.000000e+000 0.000000e+000
<ENDHMM>
~h "th"
<BEGINHMM>
<NUMSTATES> 5
<STATE> 2
<MEAN> 25
 1.917142e+000 -1.834801e+000 2.805614e+000 3.519649e-001 -1.065323e+000 7.237913e-001 -2.103283e-001 -5.827792e-001 4.121291e-001 -1.380306e+000 -6.916439e-001 -1.479323e+000 -5.856730e-002 -1.741874e-002 -2.012815e-002 2.341928e-003 6.283434e-002 2.843839e-002 -3.876072e-003 8.816668e-003 2.249694e-002 -5.253072e-003 3.608623e-003 1.558240e-002 -5.181964e-002
<VARIANCE> 25
 8.907813e+001 6.126259e+001 7.091860e+001 4.646445e+001 9.048627e+001 5.194072e+001 6.392059e+001 6.242325e+001 6.199076e+001 4.509510e+001 3.966271e+001 2.922162e+001 2.724846e+000 2.731100e+000 2.929398e+000 2.443659e+000 3.681393e+000 2.938747e+000 3.782203e+000 3.326777e+000 3.374541e+000 2.427800e+000 2.727854e+000 2.181162e+000 2.279740e+000
<GCONST> 1.079895e+002
<STATE> 3
<MEAN> 25
 1.687485e+000 -1.912440e+000 2.726058e+000 3.578331e-001 -8.029011e-001 8.256023e-001 -2.356515e-001 -5.357714e-001 5.048245e-001 -1.403764e+000 -6.778135e-001 -1.396612e+000 -5.829107e-002 -1.850887e-002 -1.754651e-002 -6.890540e-003 6.201057e-002 2.083261e-002 7.155004e-004 1.669312e-002 9.906502e-003 -8.359375e-004 2.945139e-003 2.315543e-002 -5.391779e-002
<VARIANCE> 25
 8.967233e+001 6.233286e+001 7.158078e+001 4.652064e+001 8.818882e+001 5.249192e+001 6.275334e+001 6.185346e+001 6.172248e+001 4.462044e+001 3.854934e+001 2.944098e+001 2.768352e+000 2.759900e+000 2.921497e+000 2.416480e+000 3.577294e+000 2.919560e+000 3.748526e+000 3.285577e+000 3.380660e+000 2.425645e+000 2.667293e+000 2.165371e+000 2.169512e+000
<GCONST> 1.078227e+002
<STATE> 4
<MEAN> 25
 1.342870e+000 -2.073633e+000 2.403454e+000 3.692755e-001 -8.876637e-001 8.029491e-001 3.568922e-001 -1.412346e-001 4.746867e-001 -1.406795e+000 -6.828813e-001 -1.126348e+000 -3.879148e-002 -1.499478e-002 -6.754936e-003 -1.347734e-002 4.596111e-002 5.007974e-003 4.505360e-003 2.499359e-002 -4.843622e-003 4.825508e-003 6.278476e-003 2.420827e-002 -3.148768e-002
<VARIANCE> 25
 9.100229e+001 6.333643e+001 7.178499e+001 4.628495e+001 8.423150e+001 5.282974e+001 6.070243e+001 6.063784e+001 5.891386e+001 4.239812e+001 3.632785e+001 2.858924e+001 2.547509e+000 2.562090e+000 2.811113e+000 2.369090e+000 3.337919e+000 2.920112e+000 3.730481e+000 3.195613e+000 3.225536e+000 2.456261e+000 2.490902e+000 2.110518e+000 2.146815e+000
<GCONST> 1.071157e+002
<TRANSP> 5
 0.000000e+000 1.000000e+000 0.000000e+000 0.000000e+000 0.000000e+000
 0.000000e+000 7.635174e-001 2.364826e-001 0.000000e+000 0.000000e+000
 0.000000e+000 0.000000e+000 7.635178e-001 2.364822e-001 0.000000e+000
 0.000000e+000 0.000000e+000 0.000000e+000 9.040690e-001 9.593094e-002
 0.000000e+000 0.000000e+000 0.000000e+000 0.000000e+000 0.000000e+000
<ENDHMM>
~h "uh"
<BEGINHMM>
<NUMSTATES> 5
<STATE> 2
<MEAN> 25
 -7.492415e+000 1.545164e+000 -2.667259e+000 1.949573e+000 -7.771935e-001 1.857663e+000 1.156522e-001 -2.872728e-001 1.048007e+000 8.931347e-001 1.736753e+000 9.437920e-001 1.022530e-001 -2.828310e-002 1.179156e-002 -5.153608e-002 -4.123683e-003 -4.682073e-002 -4.209420e-002 -1.684933e-002 -2.862326e-002 -1.291121e-002 -1.644455e-002 -2.930415e-002 2.628286e-001
<VARIANCE> 25
 1.510587e+002 2.766053e+001 3.835203e+001 3.265485e+001 3.062862e+001 3.307702e+001 3.543996e+001 3.688680e+001 3.550370e+001 3.161924e+001 2.741177e+001 1.865898e+001 1.203329e+000 1.073000e+000 1.051302e+000 1.368058e+000 1.658493e+000 1.750650e+000 1.822361e+000 2.038498e+000 1.956797e+000 1.629426e+000 1.537509e+000 1.289843e+000 2.317759e+000
<GCONST> 9.445661e+001
<STATE> 3
<MEAN> 25
 -6.969521e+000 1.506856e+000 -2.574142e+000 1.789375e+000 -7.664251e-001 1.711261e+000 -5.270234e-002 -3.735912e-001 9.373994e-001 8.562688e-001 1.682605e+000 8.310822e-001 1.183747e-001 -9.409057e-003 2.156858e-002 -3.572884e-002 4.371199e-003 -3.272552e-002 -3.671490e-002 -2.155494e-002 -2.648314e-002 -1.176357e-002 -1.402184e-002 -2.555622e-002 2.215439e-001
<VARIANCE> 25
 1.542933e+002 2.766358e+001 3.935362e+001 3.312023e+001 3.162923e+001 3.226760e+001 3.639568e+001 3.674424e+001 3.623322e+001 3.217495e+001 2.791636e+001 1.922409e+001 1.314180e+000 1.096470e+000 1.125223e+000 1.411286e+000 1.754836e+000 1.780480e+000 1.885183e+000 2.070603e+000 1.988616e+000 1.688782e+000 1.580188e+000 1.326969e+000 2.034627e+000
<GCONST> 9.494286e+001
<STATE> 4
<MEAN> 25
