~o
<STREAMINFO> 1 25
<VECSIZE> 25<NULLD><MFCC_D_N_Z_0><DIAGC>
~s "silst"
<MEAN> 25
 -1.149677e+001 4.803511e+000 -8.014037e+000 5.209670e+000 -2.048560e+000 2.580656e+000 4.235727e+000 -2.231989e+000 4.490481e+000 8.057981e-001 3.508134e+000 1.546768e+000 -1.754052e-002 1.907927e-002 -3.378569e-002 9.530090e-003 4.810929e-003 2.765729e-003 1.224427e-002 -3.054045e-002 6.699000e-003 -1.620013e-002 -9.113391e-003 7.933108e-003 -3.288373e-002
<VARIANCE> 25
 8.282079e+001 9.431130e+000 1.081328e+001 6.831974e+000 9.554376e+000 1.578555e+001 2.119468e+001 1.718969e+001 1.429249e+001 1.157731e+001 9.601838e+000 9.164783e+000 8.805317e-002 1.641723e-001 3.080528e-001 4.461947e-001 6.133133e-001 5.944226e-001 7.871152e-001 1.018822e+000 9.098751e-001 7.139888e-001 7.430634e-001 7.176184e-001 7.000580e-002
<GCONST> 6.624005e+001
~h "b"
<BEGINHMM>
<NUMSTATES> 5
<STATE> 2
<MEAN> 25
 1.199178e+001 3.316734e-001 5.855803e-003 -4.323472e+000 1.359466e+000 3.848433e-001 -3.958433e+000 -2.536629e+000 4.812658e+000 -1.039604e+000 -2.217542e+000 -1.527582e+000 1.246345e-001 -5.356205e-001 -1.870034e-002 -2.215402e-001 -2.482362e-001 -3.033778e-001 -1.460396e-001 1.594492e-001 3.875445e-001 -3.196398e-002 -2.409668e-002 -2.525353e-002 7.068532e-001
<VARIANCE> 25
 4.131078e+001 8.360477e+001 6.536759e+001 4.946540e+001 4.925369e+001 7.052954e+001 5.713732e+001 7.518007e+001 1.165731e+002 4.716070e+001 7.344865e+001 4.985803e+001 3.471823e+000 4.464148e+000 4.535794e+000 4.232313e+000 4.706400e+000 6.255951e+000 5.955987e+000 7.264303e+000 7.991848e+000 5.357958e+000 8.231965e+000 4.457529e+000 6.198373e+000
<GCONST> 1.175409e+002
<STATE> 3
<MEAN> 25
 -6.227334e-001 -2.967147e+000 9.099982e+000 -2.733416e-002 -1.114272e+000 -5.672444e+000 7.708820e-001 1.864233e+000 -2.041651e+000 -2.012449e+000 1.071246e+000 4.556533e-001 3.188624e-002 8.233548e-002 2.001569e-001 -4.959358e-002 -1.901954e-001 -1.375250e-001 2.817374e-002 1.675526e-001 -1.992550e-001 -4.373151e-002 -1.165481e-001 -2.865323e-002 4.667569e-002
<VARIANCE> 25
 1.277734e+002 8.717997e+001 1.203598e+002 7.641740e+001 1.454007e+002 9.606517e+001 1.049458e+002 7.109221e+001 1.172841e+002 4.964890e+001 6.512533e+001 3.736325e+001 6.827949e+000 4.790856e+000 6.305156e+000 4.299693e+000 7.555476e+000 5.349696e+000 7.699302e+000 5.622104e+000 6.127055e+000 5.000701e+000 6.226644e+000 3.644266e+000 2.776214e+000
<GCONST> 1.211405e+002
<STATE> 4
<MEAN> 25
 8.111699e+000 -2.815455e+000 6.016314e+000 -3.937956e+000 -1.977183e+000 -4.236580e+000 -3.792255e+000 2.773521e+000 -8.123372e-001 6.239590e-001 -7.094769e-001 -1.649140e+000 -1.538756e-001 2.858573e-001 -3.332601e-002 2.421740e-001 1.589306e-001 6.967141e-002 1.597374e-002 -1.596982e-001 -1.977362e-001 1.524522e-001 2.168198e-001 9.989585e-002 -6.763303e-001
<VARIANCE> 25
 3.478510e+001 4.458900e+001 6.509278e+001 5.339323e+001 1.042142e+002 3.712718e+001 6.704865e+001 6.097590e+001 5.262880e+001 5.761612e+001 5.381631e+001 2.576454e+001 1.654488e+000 1.990974e+000 3.363876e+000 2.874941e+000 4.470079e+000 3.001010e+000 3.215816e+000 3.646597e+000 3.273618e+000 3.167518e+000 2.921125e+000 1.956970e+000 1.728715e+000
<GCONST> 1.064245e+002
<TRANSP> 5
 0.000000e+000 1.000000e+000 0.000000e+000 0.000000e+000 0.000000e+000
 0.000000e+000 9.118587e-001 8.814123e-002 0.000000e+000 0.000000e+000
 0.000000e+000 0.000000e+000 8.679003e-001 1.320997e-001 0.000000e+000
 0.000000e+000 0.000000e+000 0.000000e+000 9.305691e-001 6.943092e-002
 0.000000e+000 0.000000e+000 0.000000e+000 0.000000e+000 0.000000e+000
<ENDHMM>
~h "d"
<BEGINHMM>
<NUMSTATES> 5
<STATE> 2
<MEAN> 25
 -4.867188e+000 -8.680466e-001 -1.668794e+000 2.999565e+000 9.389254e-001 1.241373e+000 -8.665938e-001 -1.568967e+000 -7.442344e-001 -1.551389e+000 4.657161e-001 4.028212e-001 -3.873370e-002 4.457683e-003 -2.671150e-002 2.889555e-003 -2.854130e-002 7.262818e-004 -2.381572e-004 -4.229251e-002 -2.578622e-002 -1.966146e-002 1.456607e-002 5.046473e-003 -5.167215e-002
<VARIANCE> 25
 2.297153e+001 7.198206e+000 1.029269e+001 8.704226e+000 1.252649e+001 1.099132e+001 1.166866e+001 1.276473e+001 1.335109e+001 1.230956e+001 9.893813e+000 8.368630e+000 1.104886e-001 1.950721e-001 3.130893e-001 4.506953e-001 5.732020e-001 6.828709e-001 7.415615e-001 8.292971e-001 8.705975e-001 7.898160e-001 7.582970e-001 6.709642e-001 5.307705e-002
<GCONST> 6.379131e+001
<STATE> 3
<MEAN> 25
 7.151805e-001 1.849526e+000 1.547027e+000 4.141601e+000 3.417239e+000 1.814509e+000 -2.537988e-002 5.065847e-001 -3.533866e+000 -3.450967e-001 1.049730e+000 5.609328e-001 1.186116e-001 1.264518e-001 1.341553e-001 2.428545e-002 1.287246e-001 6.002198e-002 6.676786e-002 5.394348e-002 -9.583364e-002 2.145696e-004 -3.391670e-002 -8.425649e-002 1.267605e-001
<VARIANCE> 25
 2.078968e+001 1.225655e+001 1.644985e+001 1.185469e+001 2.289312e+001 1.656852e+001 2.165374e+001 1.945181e+001 3.290466e+001 1.696742e+001 1.390021e+001 1.314883e+001 5.820017e-001 1.334912e+000 1.335563e+000 1.166706e+000 1.767702e+000 1.395690e+000 1.898043e+000 1.768906e+000 2.043735e+000 1.754970e+000 1.451839e+000 1.394520e+000 4.500102e-001
<GCONST> 8.376460e+001
<STATE> 4
<MEAN> 25
 5.650736e+000 5.867802e+000 3.889091e+000 1.763132e+000 4.152303e+000 -1.414581e+000 -2.548731e+000 8.275167e-001 -4.587150e+000 5.709304e-001 4.730150e-001 -6.173592e-001 6.481703e-001 2.309986e-001 2.266929e-001 -3.715426e-001 1.399301e-001 -1.773790e-001 -2.102930e-001 1.258237e-001 -1.849704e-001 8.159025e-002 -1.115518e-001 -3.095753e-002 8.196017e-001
<VARIANCE> 25
 4.519934e+001 4.223663e+001 3.010317e+001 3.146841e+001 4.677775e+001 4.120344e+001 4.160133e+001 3.411713e+001 4.073561e+001 1.995477e+001 2.047447e+001 2.034999e+001 4.005357e+000 4.502686e+000 3.206506e+000 3.776534e+000 3.838460e+000 3.610635e+000 3.782187e+000 3.695251e+000 3.432554e+000 2.385144e+000 2.242932e+000 2.078644e+000 3.905231e+000
<GCONST> 1.035666e+002
<TRANSP> 5
 0.000000e+000 1.000000e+000 0.000000e+000 0.000000e+000 0.000000e+000
 0.000000e+000 9.462854e-001 5.371456e-002 0.000000e+000 0.000000e+000
 0.000000e+000 0.000000e+000 7.908957e-001 2.091043e-001 0.000000e+000
 0.000000e+000 0.000000e+000 0.000000e+000 8.083424e-001 1.916577e-001
 0.000000e+000 0.000000e+000 0.000000e+000 0.000000e+000 0.000000e+000
<ENDHMM>
~h "f"
<BEGINHMM>
<NUMSTATES> 5
<STATE> 2
<MEAN> 25
 2.575812e+000 -9.930788e-001 1.034830e+000 2.669779e-001 2.208970e+000 -2.110527e+000 -1.157974e+000 9.459413e-001 -2.287761e-001 1.302770e+000 -9.492811e-002 -1.108934e+000 -4.219523e-001 -4.551528e-001 -4.931601e-001 -4.905356e-001 4.351742e-002 -2.688710e-001 4.667470e-003 2.363313e-002 1.766376e-001 3.870368e-001 1.018021e-001 -9.828188e-002 6.104924e-001
<VARIANCE> 25
 5.830641e+001 4.649230e+001 5.192231e+001 5.977382e+001 3.725700e+001 6.324385e+001 3.298262e+001 3.617478e+001 4.261477e+001 3.030251e+001 2.390441e+001 2.274516e+001 4.640484e+000 5.220676e+000 4.196270e+000 5.677903e+000 4.246824e+000 5.638646e+000 2.877814e+000 4.145913e+000 5.066989e+000 3.109532e+000 2.693597e+000 2.372129e+000 5.926194e+000
<GCONST> 1.086077e+002
<STATE> 3
<MEAN> 25
 6.090111e-001 -2.086332e+000 -1.868637e+000 -8.060213e-001 1.287685e+000 -1.417723e+000 -3.260684e-001 1.129289e+000 6.722501e-001 1.941940e+000 1.605243e-001 -2.190652e-001 -1.232840e-001 -2.457171e-001 -9.515287e-002 2.560592e-002 1.039935e-002 1.149472e-001 1.299598e-001 5.476779e-002 5.595827e-003 -4.818700e-003 4.811984e-002 5.261944e-002 -4.446027e-002
<VARIANCE> 25
 4.869599e+001 3.437498e+001 4.931533e+001 5.255470e+001 3.803224e+001 3.554132e+001 2.738365e+001 2.766885e+001 4.041650e+001 2.683010e+001 2.500238e+001 2.050430e+001 2.155378e+000 1.577390e+000 1.587490e+000 1.589226e+000 1.972169e+000 2.190711e+000 1.756779e+000 1.902158e+000 2.129080e+000 1.780305e+000 1.570503e+000 1.727305e+000 1.014732e+000
<GCONST> 9.546172e+001
<STATE> 4
<MEAN> 25
 4.822845e+000 -5.777183e+000 -3.927409e+000 -2.520446e+000 3.912397e-001 -3.713085e+000 5.162891e-001 2.069349e+000 3.665351e+000 1.488363e+000 -2.524372e+000 -2.427175e+000 9.626998e-001 3.550880e-003 -1.054643e-001 -2.016328e-001 -3.506790e-001 -2.034063e-001 -1.040390e-001 2.324642e-002 1.655562e-001 -3.265953e-001 -5.537661e-001 -1.413153e-001 7.470310e-001
<VARIANCE> 25
 8.594141e+001 3.747525e+001 3.661716e+001 5.228827e+001 3.955050e+001 4.633260e+001 5.466148e+001 3.483828e+001 5.169921e+001 4.281235e+001 4.438666e+001 2.744040e+001 6.967726e+000 4.124259e+000 2.872180e+000 5.016133e+000 4.173928e+000 5.073483e+000 5.268129e+000 4.014796e+000 4.946795e+000 4.475426e+000 3.423819e+000 2.594201e+000 5.925732e+000
<GCONST> 1.106452e+002
<TRANSP> 5
 0.000000e+000 1.000000e+000 0.000000e+000 0.000000e+000 0.000000e+000
 0.000000e+000 6.746107e-001 3.253893e-001 0.000000e+000 0.000000e+000
 0.000000e+000 0.000000e+000 8.053756e-001 1.946245e-001 0.000000e+000
 0.000000e+000 0.000000e+000 0.000000e+000 8.505514e-001 1.494486e-001
 0.000000e+000 0.000000e+000 0.000000e+000 0.000000e+000 0.000000e+000
<ENDHMM>
~h "g"
<BEGINHMM>
<NUMSTATES> 5
<STATE> 2
<MEAN> 25
 -2.236601e+001 5.241474e+000 -7.251727e+000 4.851683e+000 -1.256967e+000 5.880324e+000 1.208368e+000 2.841191e+000 3.791443e+000 4.502680e+000 4.605274e+000 3.057105e+000 -1.722997e-003 6.463167e-004 -9.086812e-003 -5.656721e-003 1.422555e-002 1.670889e-002 1.516083e-002 1.083436e-002 -8.473877e-003 -2.589697e-002 -1.315402e-002 -8.691528e-003 1.349481e-003
<VARIANCE> 25
 4.389388e+001 6.551893e+000 7.548273e+000 5.790126e+000 1.147134e+001 1.309134e+001 1.503226e+001 2.478059e+001 1.658621e+001 1.217026e+001 1.046592e+001 7.591688e+000 4.702336e-002 1.368084e-001 2.144820e-001 3.556356e-001 6.000988e-001 5.861197e-001 1.027762e+000 1.245185e+000 1.091441e+000 8.244064e-001 8.053046e-001 7.724419e-001 2.535352e-002
<GCONST> 6.332768e+001
<STATE> 3
<MEAN> 25
 -7.191723e+000 3.734458e+000 -7.559682e+000 3.593839e+000 -3.147673e+000 1.156165e+000 5.691881e+000 -2.774922e+000 4.840825e+000 5.822614e-001 2.841417e+000 1.597508e+000 -7.730389e-002 -4.933806e-002 -2.049995e-002 -5.773582e-002 -5.709151e-002 2.006470e-002 -4.177085e-002 5.475756e-002 -3.384000e-002 -5.994570e-002 8.938576e-003 -4.858339e-002 4.757342e-001
<VARIANCE> 25
 1.572078e+001 4.830276e+000 8.341803e+000 8.226007e+000 9.010823e+000 7.940765e+000 1.337855e+001 1.355992e+001 1.148371e+001 9.106239e+000 9.088080e+000 8.394251e+000 4.958178e-001 2.408271e-001 4.355425e-001 6.720341e-001 7.049920e-001 6.428041e-001 8.935343e-001 1.019091e+000 1.049903e+000 8.555053e-001 7.713049e-001 8.678828e-001 4.236732e+000
<GCONST> 6.965708e+001
<STATE> 4
<MEAN> 25
 -7.889904e+000 1.898143e+000 -4.341197e+000 3.707780e+000 -5.015506e-001 1.711120e+000 9.276614e-001 -1.989816e+000 1.001779e+000 7.839722e-001 1.129447e+000 1.257947e-001 3.145478e-003 -2.878928e-002 4.179832e-002 -7.617310e-002 -3.758307e-002 -4.163427e-002 3.597197e-002 -1.333807e-002 -6.626952e-002 1.681165e-002 -1.962480e-004 -9.812422e-003 7.230777e-002
<VARIANCE> 25
 2.960595e+001 6.430219e+000 7.899333e+000 1.132554e+001 9.332262e+000 1.055626e+001 1.704878e+001 1.576826e+001 1.395991e+001 1.358393e+001 1.307851e+001 9.176043e+000 1.295932e-001 2.323268e-001 4.158165e-001 5.535395e-001 5.573783e-001 6.402127e-001 9.699813e-001 9.091065e-001 8.549704e-001 8.345525e-001 6.732200e-001 6.704234e-001 2.257105e-001
<GCONST> 6.715695e+001
<TRANSP> 5
 0.000000e+000 1.000000e+000 0.000000e+000 0.000000e+000 0.000000e+000
 0.000000e+000 9.625729e-001 3.742713e-002 0.000000e+000 0.000000e+000
 0.000000e+000 0.000000e+000 8.961329e-001 1.038671e-001 0.000000e+000
 0.000000e+000 0.000000e+000 0.000000e+000 7.487326e-001 2.512674e-001
 0.000000e+000 0.000000e+000 0.000000e+000 0.000000e+000 0.000000e+000
<ENDHMM>
~h "k"
<BEGINHMM>
<NUMSTATES> 5
<STATE> 2
<MEAN> 25
 6.748381e+000 -1.248674e+000 3.285634e+000 -1.832506e+000 -3.381163e-001 2.267234e-001 -7.859308e-001 -3.855195e+000 2.821403e-001 -3.949113e+000 3.483711e-001 -3.629018e+000 3.057314e-001 -4.855667e-001 1.990730e-001 -1.979405e-002 5.425934e-002 7.457947e-002 -5.469632e-001 -6.295862e-001 3.176338e-001 -6.397227e-002 -1.568989e-001 -1.892540e-001 6.845864e-001
<VARIANCE> 25
 4.786740e+001 5.852447e+001 8.374422e+001 6.551984e+001 9.597933e+001 6.171540e+001 8.082580e+001 8.179269e+001 1.039897e+002 6.224500e+001 1.163981e+002 4.303549e+001 2.520951e+000 4.429164e+000 4.531945e+000 3.996878e+000 7.196349e+000 4.683675e+000 6.412045e+000 7.457520e+000 6.217104e+000 6.057305e+000 6.905338e+000 3.427775e+000 4.807725e+000
<GCONST> 1.183301e+002
<STATE> 3
<MEAN> 25
 8.333158e+000 -6.270411e+000 1.338318e+000 -1.218719e+000 3.272255e+000 1.417369e+000 -3.858115e+000 -4.424716e+000 1.480347e+000 -5.835525e+000 -4.544826e+000 -1.851864e+000 -2.188178e-001 2.471722e-001 -2.829240e-001 -5.499620e-002 4.176275e-001 -4.661160e-002 1.701867e-001 2.247275e-001 -1.067641e-001 1.005854e-001 6.782591e-002 2.270295e-001 -6.836647e-002
<VARIANCE> 25
 3.605291e+001 7.595001e+001 6.792457e+001 4.612884e+001 9.563795e+001 6.017577e+001 8.163194e+001 1.211896e+002 9.818616e+001 9.317026e+001 6.285178e+001 3.816277e+001 1.926559e+000 3.177783e+000 3.243412e+000 3.053597e+000 3.888623e+000 3.514905e+000 4.115558e+000 3.988343e+000 3.301349e+000 3.457404e+000 2.875969e+000 2.165948e+000 2.094656e+000
<GCONST> 1.111947e+002
<STATE> 4
<MEAN> 25
 1.371815e+000 1.931496e+000 -2.691288e+000 -3.027232e+000 4.058912e+000 -9.397054e-001 1.772357e+000 -1.479164e+000 1.101980e+000 -7.681436e-001 1.235780e+000 2.159146e+000 -3.431788e-001 -1.000741e-001 -1.053516e-001 4.892275e-002 -1.687146e-001 -1.118604e-001 3.604417e-001 2.037662e-001 2.146640e-001 4.611152e-002 1.805705e-001 -8.960168e-003 8.382504e-002
<VARIANCE> 25
 1.349003e+002 6.771191e+001 1.005198e+002 1.030669e+002 8.151125e+001 9.690736e+001 8.418234e+001 8.392409e+001 6.938386e+001 5.446263e+001 5.109574e+001 4.181756e+001 5.701793e+000 5.045583e+000 5.386594e+000 6.250716e+000 6.523005e+000 8.268945e+000 6.516703e+000 6.565687e+000 4.917213e+000 4.168489e+000 3.842903e+000 4.006567e+000 3.456824e+000
<GCONST> 1.196688e+002
<TRANSP> 5
 0.000000e+000 1.000000e+000 0.000000e+000 0.000000e+000 0.000000e+000
 0.000000e+000 7.881396e-001 2.118603e-001 0.000000e+000 0.000000e+000
 0.000000e+000 0.000000e+000 7.743408e-001 2.256591e-001 0.000000e+000
 0.000000e+000 0.000000e+000 0.000000e+000 8.039982e-001 1.960018e-001
 0.000000e+000 0.000000e+000 0.000000e+000 0.000000e+000 0.000000e+000
<ENDHMM>
~h "l"
<BEGINHMM>
<NUMSTATES> 5
<STATE> 2
<MEAN> 25
 8.025256e+000 -1.179591e+000 4.388682e+000 7.001527e-001 -3.012140e+000 -3.023880e+000 -1.503407e+000 1.344315e+000 -1.283352e+000 -9.055157e-002 4.333888e-002 -1.098123e+000 1.444811e-001 -9.215848e-002 -6.645037e-002 -2.836489e-001 -1.102827e-001 -2.117335e-001 -3.517950e-001 1.327033e-002 1.773123e-001 2.264680e-002 7.217909e-002 -5.096683e-002 3.092521e-001
<VARIANCE> 25
 6.912286e+001 5.555609e+001 5.467120e+001 5.046043e+001 1.297319e+002 5.196362e+001 9.127859e+001 4.460407e+001 5.229495e+001 3.451184e+001 4.055331e+001 2.682638e+001 2.309154e+000 4.610088e+000 3.153478e+000 4.408286e+000 6.072169e+000 3.631635e+000 6.735196e+000 3.409140e+000 4.206218e+000 3.015343e+000 3.829953e+000 3.020286e+000 3.157629e+000
<GCONST> 1.111033e+002
<STATE> 3
<MEAN> 25
 8.913460e+000 -6.605929e-001 4.507894e+000 -2.258296e+000 -4.591958e+000 -6.027210e+000 -4.792643e+000 1.525442e+000 2.089418e+000 -3.145418e+000 -6.691236e+000 -3.956363e-001 -6.160700e-002 3.375588e-001 -1.883936e-001 -7.827267e-002 2.534833e-001 2.200324e-001 -3.655314e-002 -1.319115e-001 4.276451e-001 3.135652e-001 8.969368e-003 -1.475636e-001 -3.137439e-001
<VARIANCE> 25
 3.936444e+001 2.544399e+001 3.374368e+001 3.086383e+001 5.557048e+001 5.033603e+001 3.500582e+001 3.670804e+001 4.993271e+001 4.911248e+001 7.427303e+001 1.810324e+001 5.859507e-001 1.172183e+000 1.254306e+000 1.533797e+000 2.414333e+000 2.328070e+000 2.184945e+000 2.544778e+000 2.442683e+000 1.935810e+000 2.832471e+000 1.445689e+000 7.157233e-001
<GCONST> 9.625783e+001
<STATE> 4
<MEAN> 25
 1.095623e+001 3.260389e+000 -2.200298e+000 -6.861152e+000 1.608132e+000 3.649714e+000 -2.595685e+000 -4.545706e+000 3.748155e+000 4.175120e+000 2.833567e+000 -8.597848e-001 -3.784591e-001 1.511897e-001 -8.381442e-002 3.400672e-001 1.049106e-002 2.257552e-001 2.422331e-001 -1.421598e-001 -1.807658e-001 -1.110792e-001 2.169891e-001 7.386924e-002 -6.242542e-001
<VARIANCE> 25
 7.119231e+001 3.724374e+001 3.609157e+001 1.005556e+002 5.663665e+001 8.982426e+001 7.190026e+001 8.452805e+001 7.796514e+001 5.706002e+001 5.414384e+001 3.793801e+001 1.563769e+000 2.368312e+000 2.340611e+000 4.137327e+000 3.735485e+000 4.616667e+000 4.460164e+000 5.444990e+000 3.680054e+000 3.763613e+000 3.972058e+000 2.659957e+000 1.473721e+000
<GCONST> 1.102923e+002
<TRANSP> 5
 0.000000e+000 1.000000e+000 0.000000e+000 0.000000e+000 0.000000e+000
 0.000000e+000 6.688694e-001 3.311307e-001 0.000000e+000 0.000000e+000
 0.000000e+000 0.000000e+000 7.689610e-001 2.310390e-001 0.000000e+000
 0.000000e+000 0.000000e+000 0.000000e+000 8.527581e-001 1.472419e-001
 0.000000e+000 0.000000e+000 0.000000e+000 0.000000e+000 0.000000e+000
<ENDHMM>
~h "m"
<BEGINHMM>
<NUMSTATES> 5
<STATE> 2
<MEAN> 25
 4.852080e+000 2.537304e-001 -1.356201e+000 -3.804682e+000 1.000972e+000 -2.918250e-001 7.961464e-001 9.590144e-001 -1.296552e+000 6.018722e-001 5.819768e-002 -4.122847e-001 1.488559e+000 5.421497e-001 5.436873e-001 -7.404956e-001 -2.046307e-001 -1.189576e-001 7.202184e-002 5.153795e-003 -5.324429e-002 2.305376e-001 -5.926617e-001 -5.656295e-001 8.534638e-001
<VARIANCE> 25
 6.151429e+001 6.182822e+001 5.627601e+001 9.213406e+001 8.743844e+001 6.522208e+001 5.741291e+001 4.869240e+001 4.205342e+001 3.112954e+001 2.920098e+001 1.870206e+001 4.844191e+000 4.559280e+000 3.820949e+000 5.876203e+000 5.627403e+000 4.389717e+000 4.189502e+000 4.737438e+000 4.761141e+000 3.104436e+000 3.225193e+000 2.682384e+000 8.059878e+000
<GCONST> 1.121478e+002
<STATE> 3
<MEAN> 25
 7.505957e+000 1.158408e+000 1.128833e+000 -6.627366e+000 -3.080609e-001 -1.123799e+000 -4.171813e-001 -3.779597e-001 -1.560311e+000 1.155620e+000 -2.291636e+000 -1.169414e+000 4.907261e-001 2.324052e-001 4.796900e-001 6.670167e-002 -4.647892e-001 -3.358070e-002 -1.183358e-001 -2.319429e-001 6.715616e-002 4.001446e-002 -4.649173e-001 -3.012614e-001 -2.210482e-001
<VARIANCE> 25
 5.517050e+001 5.711097e+001 5.079548e+001 6.186159e+001 8.754662e+001 6.099490e+001 5.453878e+001 5.977203e+001 4.759731e+001 3.438222e+001 4.370356e+001 2.153945e+001 2.567998e+000 1.955542e+000 2.120383e+000 3.240184e+000 3.346985e+000 3.874237e+000 3.081143e+000 3.882024e+000 3.209944e+000 2.834833e+000 2.908960e+000 2.590989e+000 3.803332e+000
<GCONST> 1.071241e+002
<STATE> 4
<MEAN> 25
 8.605474e+000 -3.782098e-001 3.570950e+000 -3.357216e+000 -3.241532e+000 3.611451e+000 6.619960e-002 -3.226357e+000 1.111790e+000 -9.111031e-001 -3.485095e+000 -2.109766e+000 -2.601166e-001 -2.420379e-001 -3.725919e-002 5.637181e-001 3.465989e-001 -8.422559e-002 -6.407701e-002 1.198417e-001 1.313196e-001 -1.236461e-001 2.112747e-002 9.903233e-002 -2.523730e-001
<VARIANCE> 25
 4.846490e+001 7.410835e+001 8.539137e+001 8.953871e+001 8.441704e+001 9.649145e+001 7.359162e+001 1.298700e+002 8.233745e+001 8.983607e+001 7.105551e+001 3.988049e+001 2.506079e+000 4.224892e+000 3.797416e+000 4.515714e+000 5.534569e+000 6.595722e+000 5.314925e+000 8.035532e+000 4.422304e+000 6.106493e+000 5.169043e+000 3.458429e+000 2.827158e+000
<GCONST> 1.178759e+002
<TRANSP> 5
 0.000000e+000 1.000000e+000 0.000000e+000 0.000000e+000 0.000000e+000
 0.000000e+000 4.207698e-001 5.792302e-001 0.000000e+000 0.000000e+000
 0.000000e+000 0.000000e+000 4.559857e-001 5.440143e-001 0.000000e+000
 0.000000e+000 0.000000e+000 0.000000e+000 8.600649e-001 1.399350e-001
 0.000000e+000 0.000000e+000 0.000000e+000 0.000000e+000 0.000000e+000
<ENDHMM>
~h "n"
<BEGINHMM>
<NUMSTATES> 5
<STATE> 2
<MEAN> 25
 7.926286e+000 -7.596922e-001 6.278491e+000 -2.883511e+000 -5.611128e+000 -1.924543e+000 -2.223173e+000 -9.786434e-001 -1.913627e+000 -1.129756e+000 2.983897e-001 -2.303522e+000 1.000092e+000 -1.667548e-001 1.712745e-001 1.786661e-001 -5.521988e-001 8.004946e-002 -5.492612e-001 -6.459970e-001 2.682634e-001 -2.760633e-002 -6.002674e-001 -8.573178e-002 2.247846e-001
<VARIANCE> 25
 5.891454e+001 6.395011e+001 8.945408e+001 5.945716e+001 1.018166e+002 7.847775e+001 6.475764e+001 6.642984e+001 6.365761e+001 4.536836e+001 6.873785e+001 3.343995e+001 5.175298e+000 4.135944e+000 4.961493e+000 4.574839e+000 6.701951e+000 6.152086e+000 5.314762e+000 6.017270e+000 5.593356e+000 4.587342e+000 5.089280e+000 3.454026e+000 4.655759e+000
<GCONST> 1.168411e+002
<STATE> 3
<MEAN> 25
 1.209486e+001 -1.769500e+000 4.560557e+000 -3.287247e+000 -3.375721e+000 -2.149675e+000 -6.117758e+000 -2.469307e+000 -5.883381e-001 -1.678024e+000 -6.373027e+000 -1.183137e+000 1.498823e-001 -5.268648e-002 -2.110737e-001 6.740697e-002 1.203659e-001 6.719185e-002 6.163864e-002 5.919487e-003 2.209821e-001 -1.539565e-002 -2.685650e-001 1.680788e-001 -9.172627e-002
<VARIANCE> 25
 2.213633e+001 3.750462e+001 5.271454e+001 4.006274e+001 9.287930e+001 5.305198e+001 4.741262e+001 9.149530e+001 8.158962e+001 3.918154e+001 5.024726e+001 3.852816e+001 6.755193e-001 1.597512e+000 1.661796e+000 2.144506e+000 2.804010e+000 2.677534e+000 2.333139e+000 3.610729e+000 3.183763e+000 2.363481e+000 2.908627e+000 2.338257e+000 8.621133e-001
<GCONST> 1.021209e+002
<STATE> 4
<MEAN> 25
 1.158706e+001 -1.715239e+000 3.962037e+000 -1.322794e+000 -3.259662e+000 -1.787516e+000 -5.690306e-001 1.491362e+000 3.601424e-001 -1.939733e+000 -4.859993e+000 -4.102626e-001 -3.293044e-001 4.753614e-001 -1.541442e-001 2.013831e-001 5.663762e-001 -1.968077e-002 1.063615e-001 2.848568e-001 -2.838827e-001 8.581374e-002 3.786186e-001 -1.519696e-001 -5.616296e-001
<VARIANCE> 25
 3.301557e+001 8.314179e+001 3.957675e+001 4.614659e+001 9.393777e+001 5.022385e+001 6.755459e+001 7.288272e+001 4.914244e+001 6.784180e+001 3.961129e+001 3.194278e+001 1.300148e+000 2.780428e+000 2.041791e+000 2.346571e+000 4.431783e+000 3.236144e+000 3.262206e+000 3.934359e+000 2.982463e+000 3.309303e+000 2.502251e+000 2.202890e+000 1.330331e+000
<GCONST> 1.059395e+002
<TRANSP> 5
 0.000000e+000 1.000000e+000 0.000000e+000 0.000000e+000 0.000000e+000
 0.000000e+000 7.632515e-001 2.367485e-001 0.000000e+000 0.000000e+000
 0.000000e+000 0.000000e+000 8.222923e-001 1.777077e-001 0.000000e+000
 0.000000e+000 0.000000e+000 0.000000e+000 8.320471e-001 1.679530e-001
 0.000000e+000 0.000000e+000 0.000000e+000 0.000000e+000 0.000000e+000
<ENDHMM>
~h "p"
<BEGINHMM>
<NUMSTATES> 5
<STATE> 2
<MEAN> 25
 4.168027e+000 -2.946010e+000 7.719150e-001 -1.641259e+000 2.278381e-001 -2.813173e+000 7.804256e-001 1.204900e+000 -3.274791e-001 1.860341e+000 -2.657192e-001 3.136877e-001 -4.945298e-001 -7.993930e-001 3.483077e-002 -6.041635e-001 -2.501130e-002 -2.528487e-001 5.003260e-001 5.483987e-001 3.183306e-001 -7.594345e-002 -3.348829e-001 -1.010807e-001 2.028982e+000
<VARIANCE> 25
 4.176098e+001 7.169490e+001 6.696203e+001 6.040424e+001 4.816690e+001 4.878994e+001 4.329861e+001 3.284569e+001 4.626066e+001 2.837349e+001 4.407299e+001 2.890117e+001 6.501999e+000 6.301633e+000 5.954531e+000 6.733264e+000 4.762042e+000 5.146717e+000 4.494880e+000 3.756717e+000 5.634101e+000 3.849294e+000 3.672448e+000 3.388596e+000 1.063633e+001
<GCONST> 1.130000e+002
<STATE> 3
<MEAN> 25
 1.249915e+000 -5.516664e+000 5.553157e-001 -3.230047e+000 1.638140e+000 -1.613686e+000 5.996950e+000 3.897333e+000 -7.590386e-002 -6.706600e-001 -2.964614e+000 -4.782099e-002 -1.460609e+000 1.141151e+000 1.624114e-001 1.674690e-001 6.839024e-001 -2.808739e-001 3.099982e-001 2.510528e-001 -2.703191e-001 -2.234175e-001 4.490207e-001 2.194693e-001 -2.703356e-001
<VARIANCE> 25
 7.167587e+001 5.657428e+001 9.291624e+001 4.585001e+001 5.567257e+001 4.562322e+001 5.364885e+001 3.488428e+001 6.165024e+001 5.211848e+001 4.249436e+001 2.636654e+001 6.061272e+000 3.572803e+000 3.572889e+000 3.401918e+000 3.193209e+000 3.671433e+000 3.340715e+000 3.673791e+000 5.224490e+000 3.028106e+000 3.733395e+000 2.415490e+000 2.283588e+000
<GCONST> 1.094108e+002
<STATE> 4
<MEAN> 25
 -1.132761e+001 5.416047e+000 -1.022956e+000 -7.283097e-001 8.152522e+000 -5.806450e+000 6.978797e+000 4.489985e+000 1.009255e+000 -1.033243e+000 7.633973e-001 1.460142e+000 1.699684e-001 -1.408568e-003 -3.089810e-002 1.046270e-001 -2.529677e-003 1.195770e-002 -3.236942e-001 -1.332072e-001 -1.345935e-002 5.819266e-002 -1.086385e-001 -1.439455e-001 -7.940290e-001
<VARIANCE> 25
 7.407835e+001 3.404831e+001 5.120839e+001 4.886122e+001 4.501748e+001 5.555863e+001 4.460820e+001 6.418504e+001 4.171904e+001 3.410419e+001 3.965729e+001 3.594705e+001 2.767137e+000 2.304323e+000 2.740155e+000 3.199089e+000 3.228560e+000 3.542830e+000 3.584606e+000 4.192455e+000 3.646163e+000 3.012971e+000 2.720520e+000 2.901384e+000 2.033498e+000
<GCONST> 1.062543e+002
<TRANSP> 5
 0.000000e+000 1.000000e+000 0.000000e+000 0.000000e+000 0.000000e+000
 0.000000e+000 7.083022e-001 2.916978e-001 0.000000e+000 0.000000e+000
 0.000000e+000 0.000000e+000 7.526788e-001 2.473212e-001 0.000000e+000
 0.000000e+000 0.000000e+000 0.000000e+000 8.640099e-001 1.359901e-001
 0.000000e+000 0.000000e+000 0.000000e+000 0.000000e+000 0.000000e+000
<ENDHMM>
~h "r"
<BEGINHMM>
<NUMSTATES> 5
<STATE> 2
<MEAN> 25
 3.918597e+000 -6.919316e+000 9.233080e-001 -4.648208e+000 1.218844e+000 -2.818906e+000 -4.937620e-001 2.984281e+000 -5.949101e-001 -3.122211e-001 -3.405272e+000 -5.446750e-001 -3.116969e-001 -5.151394e-002 7.635585e-001 -3.155208e-002 -3.768298e-001 -5.228850e-001 1.075407e-001 2.013680e-001 -6.148599e-001 -8.956528e-002 2.827122e-001 3.170513e-001 1.591356e-001
<VARIANCE> 25
 8.303948e+001 6.556818e+001 6.934576e+001 4.606223e+001 6.488999e+001 4.748319e+001 8.077570e+001 4.475782e+001 8.372746e+001 5.254342e+001 4.530283e+001 2.708108e+001 2.621928e+000 2.764265e+000 2.817801e+000 2.357859e+000 3.527600e+000 2.583134e+000 3.921147e+000 3.256094e+000 3.693690e+000 3.795305e+000 3.013436e+000 2.434597e+000 1.959630e+000
<GCONST> 1.082828e+002
<STATE> 3
<MEAN> 25
 3.199981e+000 -4.867250e+000 5.153862e+000 -3.952774e+000 -1.757274e+000 -4.787012e+000 -7.295530e-001 2.901664e+000 -3.339352e+000 5.304548e-001 -1.139642e+000 -4.131018e-001 8.050106e-002 6.017940e-001 2.059725e-001 4.452212e-001 -2.508099e-001 -1.867531e-003 -1.850723e-002 -2.965250e-001 -8.429264e-002 -1.172856e-001 8.443541e-003 5.939880e-002 -7.670539e-001
<VARIANCE> 25
 8.535828e+001 6.594004e+001 8.698921e+001 4.433957e+001 7.595295e+001 5.073709e+001 5.807777e+001 4.018873e+001 6.634280e+001 3.940274e+001 3.428690e+001 2.670834e+001 2.716813e+000 2.376061e+000 2.466447e+000 1.879310e+000 2.892438e+000 2.758768e+000 2.712127e+000 2.838501e+000 2.713240e+000 2.590027e+000 2.638084e+000 2.221162e+000 1.345127e+000
<GCONST> 1.050716e+002
<STATE> 4
<MEAN> 25
 -1.514517e+000 2.304703e+000 2.559005e+000 1.351265e+000 -6.797787e-001 -3.978254e+000 3.094997e+000 2.500229e-002 1.038216e-001 -2.564066e+000 7.323037e-001 8.979390e-001 -3.162449e-001 1.450352e-001 -6.538040e-002 3.176914e-001 6.637149e-002 1.252162e-001 7.235155e-002 -2.063519e-001 1.581999e-001 -1.148661e-001 1.046203e-001 2.957403e-002 -5.013868e-001
<VARIANCE> 25
 1.083741e+002 6.145932e+001 6.903648e+001 8.449697e+001 1.022903e+002 8.303601e+001 8.244147e+001 6.956035e+001 6.204762e+001 6.501060e+001 4.626715e+001 3.683177e+001 5.090100e+000 3.915250e+000 4.543199e+000 5.090215e+000 5.993248e+000 6.909698e+000 5.693547e+000 5.671481e+000 5.175415e+000 6.213117e+000 4.840685e+000 3.188760e+000 3.210622e+000
<GCONST> 1.175721e+002
<TRANSP> 5
 0.000000e+000 1.000000e+000 0.000000e+000 0.000000e+000 0.000000e+000
 0.000000e+000 5.963386e-001 4.036613e-001 0.000000e+000 0.000000e+000
 0.000000e+000 0.000000e+000 6.345330e-001 3.654670e-001 0.000000e+000
 0.000000e+000 0.000000e+000 0.000000e+000 7.827368e-001 2.172632e-001
 0.000000e+000 0.000000e+000 0.000000e+000 0.000000e+000 0.000000e+000
<ENDHMM>
~h "s"
<BEGINHMM>
<NUMSTATES> 5
<STATE> 2
<MEAN> 25
 7.163854e+000 -2.061489e+000 -2.201371e+000 -3.760682e+000 1.671967e+000 -2.032485e+000 -1.481012e+000 1.079469e+000 4.361274e+000 9.724336e-001 -2.077439e+000 -8.704984e-001 1.755289e-001 -2.467915e-001 -2.486264e-001 -7.852779e-002 3.499892e-002 -6.265552e-004 8.141217e-002 2.914777e-001 2.510823e-001 -1.901556e-001 -7.068118e-002 -8.969927e-003 4.492843e-001
<VARIANCE> 25
 7.238122e+001 5.615471e+001 5.466567e+001 7.688560e+001 8.268385e+001 8.011100e+001 5.603543e+001 5.793521e+001 7.535960e+001 5.795795e+001 6.933023e+001 3.555428e+001 6.978021e+000 4.445693e+000 4.536705e+000 7.160251e+000 6.310170e+000 6.401930e+000 4.961760e+000 5.630846e+000 5.982812e+000 5.417779e+000 5.846179e+000 4.037532e+000 6.394011e+000
<GCONST> 1.181158e+002
<STATE> 3
<MEAN> 25
 6.113423e+000 -5.941739e+000 -2.092731e+000 5.548775e-001 1.093124e+000 -2.906323e+000 2.797929e+000 5.825427e+000 1.556270e+000 -3.714561e+000 -3.423764e+000 2.139977e-001 -8.863758e-001 7.519457e-001 2.741329e-001 2.189499e-001 4.702367e-001 -1.527719e-001 3.713212e-001 2.006768e-001 -4.833028e-001 1.092032e-001 5.359073e-001 2.266485e-001 -5.454407e-001
<VARIANCE> 25
 6.667776e+001 8.788481e+001 5.717895e+001 5.052636e+001 7.030698e+001 5.610588e+001 6.084298e+001 5.185321e+001 6.396712e+001 5.812298e+001 4.824945e+001 2.536848e+001 3.292900e+000 3.010747e+000 3.145822e+000 2.672236e+000 4.056153e+000 3.811038e+000 3.058579e+000 3.977978e+000 3.678437e+000 3.072386e+000 3.230235e+000 2.164886e+000 1.374383e+000
<GCONST> 1.086068e+002
<STATE> 4
<MEAN> 25
 -9.921659e+000 4.846750e+000 -4.728177e-001 -6.312352e-001 7.798434e+000 -7.431710e+000 5.197189e+000 5.295048e+000 -8.096394e-001 9.641301e-001 1.085567e+000 1.764819e+000 9.107452e-002 -2.168544e-002 -5.522528e-002 5.692642e-002 4.061231e-002 2.293810e-001 -2.438643e-001 -2.166027e-001 -6.392332e-002 1.404431e-001 -1.353567e-002 -6.796636e-002 -6.553376e-001
<VARIANCE> 25
 9.057986e+001 2.787595e+001 3.687487e+001 4.976509e+001 4.571456e+001 7.342852e+001 5.230099e+001 5.221754e+001 4.655568e+001 3.678149e+001 4.189442e+001 2.925317e+001 2.944318e+000 1.703802e+000 1.836182e+000 2.510917e+000 3.223937e+000 3.688851e+000 3.468830e+000 4.041166e+000 3.378203e+000 2.868249e+000 2.677792e+000 2.378316e+000 1.044399e+000
<GCONST> 1.043069e+002
<TRANSP> 5
 0.000000e+000 1.000000e+000 0.000000e+000 0.000000e+000 0.000000e+000
 0.000000e+000 7.694672e-001 2.305329e-001 0.000000e+000 0.000000e+000
 0.000000e+000 0.000000e+000 7.324970e-001 2.675030e-001 0.000000e+000
 0.000000e+000 0.000000e+000 0.000000e+000 8.368064e-001 1.631936e-001
 0.000000e+000 0.000000e+000 0.000000e+000 0.000000e+000 0.000000e+000
<ENDHMM>
~h "t"
<BEGINHMM>
<NUMSTATES> 5
<STATE> 2
<MEAN> 25
 8.178351e+000 -6.420354e-001 -8.293549e-001 -3.825803e+000 1.459680e+000 -1.220637e+000 -3.617739e+000 6.232542e-001 -7.937983e-001 -4.201646e-001 -3.312745e+000 -1.107447e+000 -4.734753e-001 9.542177e-002 -8.813505e-002 1.061805e-001 2.062092e-001 1.802534e-001 8.901131e-002 -1.412673e-001 -3.064910e-001 -3.464386e-002 3.336583e-001 2.451330e-001 -4.786255e-001
<VARIANCE> 25
 6.284751e+001 4.588542e+001 4.329370e+001 5.614371e+001 6.323040e+001 3.213412e+001 6.514922e+001 4.958108e+001 5.921638e+001 4.321262e+001 4.401141e+001 4.248308e+001 1.485927e+000 1.582206e+000 1.421158e+000 2.402212e+000 2.483465e+000 2.516062e+000 2.642523e+000 2.789623e+000 3.081087e+000 2.037726e+000 2.634977e+000 2.640754e+000 1.217907e+000
<GCONST> 1.026745e+002
<STATE> 3
<MEAN> 25
 6.184267e+000 8.389897e-001 -1.524511e-001 -2.652751e+000 1.933657e+000 -6.177959e-001 -2.809814e+000 -3.885435e-002 -2.437480e+000 8.521974e-002 -1.659772e+000 -9.321510e-001 -3.673998e-001 1.259486e-001 6.677547e-002 2.079699e-001 1.877442e-003 1.094605e-001 2.572525e-001 -1.377902e-002 -1.022992e-002 1.317912e-001 2.122183e-001 -1.613358e-002 -4.773211e-001
<VARIANCE> 25
 5.373577e+001 4.650735e+001 3.079810e+001 4.102474e+001 4.305449e+001 3.020423e+001 5.079169e+001 3.526524e+001 5.372882e+001 2.799059e+001 3.462622e+001 2.796011e+001 9.026603e-001 1.051377e+000 1.031249e+000 1.652940e+000 1.825711e+000 1.765366e+000 1.895242e+000 1.989040e+000 2.217242e+000 1.796486e+000 1.994100e+000 1.920385e+000 6.978563e-001
<GCONST> 9.510795e+001
<STATE> 4
<MEAN> 25
 5.916882e+000 1.276639e+000 -1.420087e+000 -3.403523e+000 2.537159e+000 -1.853524e+000 -5.630611e-001 2.525639e+000 5.919657e-001 1.524686e+000 -9.956388e-001 -1.150308e+000 -2.164650e-001 7.002742e-003 3.905677e-002 2.557774e-001 -1.288289e-002 3.896178e-002 1.368208e-001 -9.085456e-003 -7.769866e-003 -3.032286e-002 1.131108e-001 6.139299e-002 -4.037902e-001
<VARIANCE> 25
 8.804091e+001 5.622849e+001 4.710823e+001 5.968731e+001 6.582155e+001 6.731120e+001 4.940649e+001 5.301604e+001 6.574513e+001 4.021482e+001 4.242181e+001 3.258750e+001 3.711171e+000 3.474126e+000 3.245499e+000 4.526140e+000 4.664914e+000 5.020238e+000 3.970401e+000 4.522306e+000 4.922627e+000 3.883170e+000 3.533241e+000 2.994772e+000 4.025491e+000
<GCONST> 1.117618e+002
<TRANSP> 5
 0.000000e+000 1.000000e+000 0.000000e+000 0.000000e+000 0.000000e+000
 0.000000e+000 4.124752e-001 5.875247e-001 0.000000e+000 0.000000e+000
 0.000000e+000 0.000000e+000 6.684215e-001 3.315785e-001 0.000000e+000
 0.000000e+000 0.000000e+000 0.000000e+000 7.693714e-001 2.306286e-001
 0.000000e+000 0.000000e+000 0.000000e+000 0.000000e+000 0.000000e+000
<ENDHMM>
~h "v"
<BEGINHMM>
<NUMSTATES> 5
<STATE> 2
<MEAN> 25
 4.596303e+000 -6.296384e-001 -3.709712e+000 -4.585315e+000 1.183309e+000 8.067920e-001 7.189220e-001 -3.186510e-001 -4.795758e-001 2.212225e+000 1.066739e+000 -1.557108e+000 1.432738e+000 -1.345968e+000 -1.232127e+000 -2.437448e+000 -9.934883e-001 5.518599e-001 5.825706e-001 -7.656019e-001 7.849705e-001 3.223692e-001 2.853533e-001 -8.777961e-001 3.468744e+000
<VARIANCE> 25
 6.155301e+001 4.570357e+001 4.807644e+001 6.336623e+001 4.888889e+001 6.911172e+001 6.284621e+001 4.476022e+001 5.586254e+001 3.660865e+001 4.080394e+001 3.143883e+001 7.204709e+000 5.207336e+000 5.624072e+000 5.586425e+000 5.623763e+000 9.149329e+000 6.796392e+000 6.831345e+000 7.384517e+000 6.317342e+000 6.131187e+000 4.561298e+000 6.565497e+000
<GCONST> 1.166643e+002
<STATE> 3
<MEAN> 25
 5.189029e+000 -8.397267e+000 -2.340285e+000 -5.596710e+000 -2.865378e+000 2.143567e-001 1.974800e+000 8.131854e-001 4.261833e+000 4.219866e-001 3.117057e-001 -3.823129e+000 -8.126642e-002 -2.705915e-002 3.447333e-001 9.163285e-002 8.194721e-002 -2.587835e-001 1.422693e-001 2.825639e-001 2.301413e-001 -9.604543e-002 -1.944507e-001 2.639459e-001 5.257005e-001
<VARIANCE> 25
 4.751170e+001 4.888105e+001 8.144183e+001 5.811548e+001 4.829617e+001 8.194963e+001 7.526302e+001 5.354477e+001 7.859588e+001 5.782239e+001 5.941317e+001 3.815371e+001 4.538931e+000 3.842631e+000 3.830155e+000 4.066088e+000 3.847676e+000 5.224976e+000 5.158248e+000 4.480876e+000 5.069266e+000 5.099570e+000 4.840947e+000 3.193106e+000 5.079600e+000
<GCONST> 1.142539e+002
<STATE> 4
<MEAN> 25
 7.276313e+000 -1.112274e-001 -3.856162e+000 -7.182526e+000 2.402395e+000 3.390626e+000 7.719865e-001 -9.953915e-001 2.124385e+000 2.435535e+000 2.980368e+000 -1.078117e+000 -2.007018e-001 2.405150e-001 3.425892e-001 4.562966e-001 1.201451e-001 -1.767936e-001 -8.851034e-002 9.860763e-002 -2.434015e-001 -5.310898e-004 -1.343562e-001 1.758182e-001 -4.775632e-001
<VARIANCE> 25
 9.030083e+001 4.241740e+001 5.260102e+001 7.944459e+001 5.161030e+001 1.100405e+002 6.887498e+001 5.840933e+001 6.723151e+001 4.962355e+001 4.335216e+001 3.484713e+001 3.788565e+000 2.821274e+000 3.595795e+000 4.696800e+000 3.658607e+000 5.715148e+000 4.818286e+000 5.269989e+000 4.674015e+000 3.963353e+000 3.617300e+000 3.412637e+000 3.012555e+000
<GCONST> 1.129183e+002
<TRANSP> 5
 0.000000e+000 1.000000e+000 0.000000e+000 0.000000e+000 0.000000e+000
 0.000000e+000 6.211912e-001 3.788088e-001 0.000000e+000 0.000000e+000
 0.000000e+000 0.000000e+000 7.125334e-001 2.874666e-001 0.000000e+000
 0.000000e+000 0.000000e+000 0.000000e+000 8.586503e-001 1.413497e-001
 0.000000e+000 0.000000e+000 0.000000e+000 0.000000e+000 0.000000e+000
<ENDHMM>
~h "w"
<BEGINHMM>
<NUMSTATES> 5
<STATE> 2
<MEAN> 25
 -5.804996e+000 -2.156478e+000 -7.713097e-001 2.420228e+000 2.584068e-001 2.191084e+000 -8.852816e-001 -1.789064e+000 -3.441160e-001 -1.065242e+000 3.221216e-001 3.209817e-001 -4.753138e-002 -2.122156e-002 -2.966260e-002 -5.856662e-003 1.846229e-003 1.940275e-002 -3.660046e-003 -9.867631e-003 7.616322e-003 -4.487759e-003 -7.971511e-003 -6.042697e-003 -3.515188e-002
<VARIANCE> 25
 1.316043e+001 5.736076e+000 1.266714e+001 1.242510e+001 1.193325e+001 1.378015e+001 1.268591e+001 1.465785e+001 1.424132e+001 1.508942e+001 1.166358e+001 1.049818e+001 1.129426e-001 2.148142e-001 3.564153e-001 5.239513e-001 6.900015e-001 7.736673e-001 8.405977e-001 9.411065e-001 1.008737e+000 9.939275e-001 9.698457e-001 8.527968e-001 4.838690e-002
<GCONST> 6.636082e+001
<STATE> 3
<MEAN> 25
 -4.815871e+000 7.244491e-001 -1.890256e+000 2.701014e+000 5.071459e-001 2.951770e+000 9.063129e-002 -7.037895e-001 -4.550122e-001 9.326734e-001 1.564022e+000 6.978036e-001 1.360044e+000 6.218259e-002 5.654814e-001 4.819556e-002 2.415309e-001 -2.121410e-001 -1.093704e-001 -1.262619e-001 -4.784526e-001 -2.561011e-001 -2.053698e-001 -5.376938e-003 1.396216e+000
<VARIANCE> 25
 8.849687e+001 2.283426e+001 2.822316e+001 1.865024e+001 1.930451e+001 2.418254e+001 1.965596e+001 2.200887e+001 3.310385e+001 2.422963e+001 2.100883e+001 1.781662e+001 6.414063e+000 8.319347e-001 1.687946e+000 1.010137e+000 1.267783e+000 1.504257e+000 1.478426e+000 1.318996e+000 1.800661e+000 1.172555e+000 1.158326e+000 1.049974e+000 7.903114e+000
<GCONST> 9.118410e+001
<STATE> 4
<MEAN> 25
 1.659021e+000 1.638883e+000 1.435618e+000 3.121778e+000 3.324469e+000 1.839875e+000 -1.249110e+000 -4.484335e-001 -2.672447e+000 -4.418623e-001 1.094435e+000 9.420115e-001 1.612600e-001 6.707191e-002 1.684460e-002 -2.900441e-002 4.320815e-002 -2.151855e-002 1.843712e-002 6.726591e-002 -7.239289e-002 -5.085061e-002 -2.503876e-004 -2.683944e-003 1.345602e-001
<VARIANCE> 25
 1.669200e+001 1.101795e+001 1.417466e+001 1.395352e+001 1.835602e+001 1.400273e+001 1.411274e+001 1.424320e+001 1.910997e+001 1.358605e+001 1.257209e+001 1.315474e+001 3.950465e-001 7.459299e-001 8.405912e-001 9.711551e-001 1.270509e+000 1.086420e+000 1.280602e+000 1.385783e+000 1.500156e+000 1.199525e+000 1.101389e+000 1.156689e+000 2.667278e-001
<GCONST> 7.694786e+001
<TRANSP> 5
 0.000000e+000 1.000000e+000 0.000000e+000 0.000000e+000 0.000000e+000
 0.000000e+000 9.505749e-001 4.942516e-002 0.000000e+000 0.000000e+000
 0.000000e+000 0.000000e+000 2.450510e-001 7.549490e-001 0.000000e+000
 0.000000e+000 0.000000e+000 0.000000e+000 8.483840e-001 1.516161e-001
 0.000000e+000 0.000000e+000 0.000000e+000 0.000000e+000 0.000000e+000
<ENDHMM>
~h "y"
<BEGINHMM>
<NUMSTATES> 5
<STATE> 2
<MEAN> 25
 3.366468e-001 4.607581e+000 9.013847e+000 1.072712e+000 -3.576885e+000 -1.920409e+000 6.030351e+000 -6.733771e+000 9.119246e-001 -1.125846e-001 1.003463e+000 1.997684e+000 1.295640e-001 -3.195973e-001 3.136238e-001 -1.330301e-001 -6.838634e-001 4.639431e-002 4.887188e-001 -5.434454e-001 -3.502286e-001 2.967308e-001 2.269460e-002 1.194953e-001 3.163459e-001
<VARIANCE> 25
 1.637346e+002 4.892335e+001 5.988293e+001 7.505466e+001 5.311841e+001 4.986054e+001 8.593745e+001 6.188972e+001 6.367389e+001 3.672850e+001 3.684682e+001 3.166199e+001 8.890891e+000 7.146625e+000 3.845702e+000 9.733506e+000 5.957150e+000 6.084428e+000 1.288745e+001 8.075295e+000 6.028129e+000 3.525593e+000 4.289473e+000 4.375637e+000 7.480487e+000
<GCONST> 1.186366e+002
<STATE> 3
<MEAN> 25
 1.530132e+001 3.723370e+000 8.450641e+000 -4.371910e+000 -8.899025e+000 7.218704e-001 4.748070e+000 -4.553509e+000 -2.350085e+000 1.932870e+000 1.883172e+000 3.998751e+000 1.031239e-001 -6.515406e-002 -2.522383e-001 2.718953e-002 -1.147170e-001 -8.598109e-003 -2.591978e-001 2.052283e-001 3.084569e-001 -3.407744e-001 4.963704e-002 1.080982e-001 -1.158446e-001
<VARIANCE> 25
 2.632859e+001 3.390669e+001 1.268959e+002 1.151466e+002 8.585578e+001 5.294452e+001 9.258849e+001 7.111662e+001 6.876900e+001 5.641427e+001 4.399134e+001 3.227919e+001 2.089679e+000 2.924244e+000 5.818741e+000 9.846427e+000 5.666487e+000 4.240454e+000 5.575111e+000 7.149785e+000 7.855806e+000 6.029990e+000 5.600677e+000 4.219306e+000 6.934916e-001
<GCONST> 1.144445e+002
<STATE> 4
<MEAN> 25
 1.438131e+001 -1.346789e+000 -2.970478e+000 -1.569408e+000 -8.812149e+000 7.664660e-001 2.405415e+000 -3.379146e+000 4.743497e+000 5.448970e+000 6.559215e-001 -3.630000e+000 -3.541663e-001 2.412790e-001 -1.126305e+000 -4.572302e-001 1.559538e+000 2.619838e-001 -6.654645e-001 6.927704e-002 3.477465e-001 6.791442e-001 1.017457e-001 -1.002252e+000 -6.477903e-001
<VARIANCE> 25
 9.662228e+001 7.073736e+001 5.903998e+001 6.604562e+001 1.955244e+001 2.041191e+001 4.742742e+001 1.918918e+002 3.743895e+001 3.361898e+002 4.737980e+001 1.174632e+002 9.278736e-001 5.234685e+000 1.717971e+000 7.066256e+000 3.570520e+000 2.208584e+000 3.462653e+000 5.012732e+000 2.702967e+000 5.422476e+000 5.306147e+000 3.053237e+000 2.237909e+000
<GCONST> 1.114868e+002
<TRANSP> 5
 0.000000e+000 1.000000e+000 0.000000e+000 0.000000e+000 0.000000e+000
 0.000000e+000 9.289312e-001 7.106877e-002 0.000000e+000 0.000000e+000
 0.000000e+000 0.000000e+000 9.434535e-001 5.654653e-002 0.000000e+000
 0.000000e+000 0.000000e+000 0.000000e+000 8.474675e-001 1.525324e-001
 0.000000e+000 0.000000e+000 0.000000e+000 0.000000e+000 0.000000e+000
<ENDHMM>
~h "z"
<BEGINHMM>
<NUMSTATES> 5
<STATE> 2
<MEAN> 25
 -1.047529e+001 1.917033e+000 3.622339e+000 -2.044191e+000 3.610212e+000 -8.798683e+000 4.144182e+000 3.505473e+000 -5.107411e+000 6.507031e-001 1.690127e+000 2.782613e+000 -1.122446e-001 5.017641e-003 -4.436572e-001 3.394226e-002 2.391098e-001 3.061354e-001 -1.541437e-002 1.436918e-001 2.951974e-001 2.441462e-002 5.840194e-002 3.514101e-002 -7.787372e-001
<VARIANCE> 25
 7.930350e+001 8.374149e+001 7.279448e+001 3.292916e+001 3.597060e+001 7.082370e+001 7.116627e+001 4.421113e+001 3.883357e+001 3.879657e+001 3.018742e+001 2.499756e+001 1.891791e+000 1.416952e+000 1.587119e+000 1.638648e+000 2.481138e+000 2.207389e+000 2.264092e+000 2.312461e+000 1.951059e+000 1.947563e+000 1.607641e+000 1.734963e+000 6.426560e-001
<GCONST> 9.958705e+001
<STATE> 3
<MEAN> 25
 -2.867411e+000 7.196846e-001 -1.205140e+000 2.897449e+000 5.151940e-001 2.711912e+000 6.571107e-001 -4.396019e-001 -3.523745e+000 -5.431692e-001 2.094739e-001 6.257766e-001 -5.404522e-003 6.623839e-003 -4.305487e-002 5.902268e-002 -2.542753e-004 2.185649e-001 1.862903e-002 1.743486e-003 7.968522e-002 3.263833e-002 5.205424e-002 1.941495e-002 -2.391746e-001
<VARIANCE> 25
 2.905972e+001 1.516160e+001 2.155475e+001 1.965545e+001 2.166219e+001 2.696923e+001 2.771416e+001 2.727099e+001 4.281022e+001 2.065684e+001 2.040273e+001 1.465558e+001 3.555343e-001 6.362118e-001 8.035493e-001 1.088765e+000 1.241790e+000 1.444893e+000 1.618850e+000 1.993346e+000 2.064082e+000 1.597540e+000 1.584818e+000 1.278657e+000 2.531335e-001
<GCONST> 8.422903e+001
<STATE> 4
<MEAN> 25
 2.797443e+000 5.866104e+000 4.627703e+000 1.758438e+000 5.756010e+000 -3.652569e-001 -2.613899e+000 1.729824e+000 -5.451365e+000 -1.651726e-001 7.210389e-001 -2.454927e-001 2.838742e-001 -8.367533e-003 2.707019e-002 -4.608969e-002 -4.081598e-002 2.682472e-002 -1.639368e-001 1.296828e-002 1.167934e-001 1.014893e-001 -1.108711e-001 -7.549923e-002 -7.243790e-002
<VARIANCE> 25
 4.717441e+001 4.313888e+001 3.239959e+001 2.245881e+001 3.730503e+001 3.309925e+001 4.148678e+001 2.805099e+001 3.582113e+001 1.944627e+001 1.378183e+001 1.770699e+001 2.216155e+000 3.788412e+000 3.134158e+000 2.128418e+000 3.433649e+000 2.619267e+000 2.627514e+000 2.868532e+000 3.438060e+000 1.912690e+000 1.615442e+000 1.731558e+000 1.886393e+000
<GCONST> 9.816511e+001
<TRANSP> 5
 0.000000e+000 1.000000e+000 0.000000e+000 0.000000e+000 0.000000e+000
 0.000000e+000 8.154875e-001 1.845125e-001 0.000000e+000 0.000000e+000
 0.000000e+000 0.000000e+000 8.911387e-001 1.088613e-001 0.000000e+000
 0.000000e+000 0.000000e+000 0.000000e+000 8.134001e-001 1.865999e-001
 0.000000e+000 0.000000e+000 0.000000e+000 0.000000e+000 0.000000e+000
<ENDHMM>
~h "aa"
<BEGINHMM>
<NUMSTATES> 5
<STATE> 2
<MEAN> 25
 3.907303e+000 -3.178315e+000 -1.812448e+000 -1.156307e+000 2.800165e+000 4.494705e-001 7.276694e-001 7.522910e-001 -2.194281e-001 -2.122813e+000 -2.358849e+000 -1.621992e-001 1.276024e+000 -8.998007e-001 -3.267269e-001 -1.089397e+000 2.242637e-002 -1.903427e-001 -1.961272e-001 2.607489e-001 4.129074e-001 -3.670953e-001 -8.842791e-001 -1.653944e-001 2.762168e+000
<VARIANCE> 25
 4.554343e+001 8.218055e+001 5.498132e+001 5.608410e+001 4.763186e+001 4.543150e+001 4.007912e+001 4.425882e+001 5.124647e+001 5.433278e+001 4.351221e+001 2.735365e+001 5.862984e+000 6.919337e+000 4.887301e+000 4.951718e+000 4.928465e+000 5.408844e+000 4.905884e+000 5.242514e+000 5.329600e+000 5.295597e+000 4.299848e+000 3.060204e+000 7.355885e+000
<GCONST> 1.137150e+002
<STATE> 3
<MEAN> 25
 8.121610e+000 -7.905313e+000 -1.998508e+000 -4.040229e+000 2.478230e+000 7.982998e-001 -9.673749e-001 2.165286e-001 4.137626e-001 -6.640077e+000 -5.513477e+000 -7.197819e-001 2.229444e-002 1.522423e-001 1.774483e-001 -2.911029e-001 -1.815594e-001 -3.379865e-001 1.727513e-001 1.419945e-001 -4.822688e-001 -2.386718e-002 5.170126e-003 4.699238e-002 5.388534e-001
<VARIANCE> 25
 4.841580e+001 6.782000e+001 6.697749e+001 4.508928e+001 7.092833e+001 4.514634e+001 5.375452e+001 5.809505e+001 6.385047e+001 7.612575e+001 4.365198e+001 4.045902e+001 2.005108e+000 1.844155e+000 2.185468e+000 2.182716e+000 3.231849e+000 2.705601e+000 2.450653e+000 3.931115e+000 2.733141e+000 2.874279e+000 2.390826e+000 1.807096e+000 1.838469e+000
<GCONST> 1.055775e+002
<STATE> 4
<MEAN> 25
 4.549326e+000 -5.253957e+000 -1.724942e+000 -7.002743e+000 6.013691e-001 -2.499278e+000 1.878419e+000 1.383585e+000 1.927651e+000 9.026911e-001 -4.785957e+000 -1.914500e+000 2.668087e-002 1.376319e-001 2.189229e-001 1.792842e-001 -1.586983e-001 -1.004283e-001 -3.521316e-002 8.224311e-002 8.269193e-003 9.482545e-002 1.506108e-001 -6.535836e-002 -1.617220e-001
<VARIANCE> 25
 8.132178e+001 2.691760e+001 3.842973e+001 3.099036e+001 5.190015e+001 4.158841e+001 4.706446e+001 4.726547e+001 4.062050e+001 5.623483e+001 4.742486e+001 3.125844e+001 9.329547e-001 8.719389e-001 1.068907e+000 1.240283e+000 1.919308e+000 1.800893e+000 2.274006e+000 2.313601e+000 2.377140e+000 2.330248e+000 2.232332e+000 2.263321e+000 7.795600e-001
<GCONST> 9.719918e+001
<TRANSP> 5
 0.000000e+000 1.000000e+000 0.000000e+000 0.000000e+000 0.000000e+000
 0.000000e+000 7.571764e-001 2.428236e-001 0.000000e+000 0.000000e+000
 0.000000e+000 0.000000e+000 6.076851e-001 3.923149e-001 0.000000e+000
 0.000000e+000 0.000000e+000 0.000000e+000 8.615474e-001 1.384526e-001
 0.000000e+000 0.000000e+000 0.000000e+000 0.000000e+000 0.000000e+000
<ENDHMM>
~h "ae"
<BEGINHMM>
<NUMSTATES> 5
<STATE> 2
<MEAN> 25
 1.099798e-001 -1.803230e+000 -4.710207e-001 1.033912e+000 2.601096e-001 7.646708e-001 -2.104088e+000 -1.470892e+000 -1.136372e+000 -1.574157e+000 -1.688855e+000 2.762311e-001 -1.076013e-001 -2.280423e-001 1.582620e-002 -1.778834e-001 -1.531889e-003 1.176730e-001 2.296780e-002 1.303159e-002 -4.366127e-002 -1.016307e-001 -1.036337e-001 1.826724e-001 2.477209e-001
<VARIANCE> 25
 4.954611e+001 2.108114e+001 2.089536e+001 4.086599e+001 2.535532e+001 2.269657e+001 2.470796e+001 2.416582e+001 1.995910e+001 3.269625e+001 3.329765e+001 1.323474e+001 4.828898e-001 5.709237e-001 8.397283e-001 1.178349e+000 1.329792e+000 1.488303e+000 1.320753e+000 1.513698e+000 1.484969e+000 1.611985e+000 1.651769e+000 1.385808e+000 1.014339e+000
<GCONST> 8.675620e+001
<STATE> 3
<MEAN> 25
 7.002092e+000 -2.348395e+000 3.498478e+000 -2.936550e+000 4.526937e+000 1.066374e+000 -1.055175e+001 -4.636638e+000 -4.101098e+000 -1.883025e+000 -5.024227e-001 2.222321e+000 3.649144e-001 -2.088351e-001 -2.705926e-002 -3.034101e-001 -1.114322e-001 -4.172077e-001 -3.356870e-001 -4.193018e-002 3.162900e-002 1.690452e-001 2.676156e-002 1.800997e-001 6.100225e-001
<VARIANCE> 25
 3.212333e+001 2.031081e+001 2.086539e+001 3.701590e+001 7.606971e+001 2.882661e+001 8.588219e+001 5.162012e+001 4.603771e+001 3.840320e+001 6.698132e+001 2.362328e+001 1.924333e+000 1.868206e+000 1.587030e+000 1.874466e+000 3.027156e+000 2.349996e+000 3.073573e+000 3.985183e+000 2.502707e+000 3.154838e+000 2.860490e+000 1.960276e+000 3.557624e+000
<GCONST> 1.019079e+002
<STATE> 4
<MEAN> 25
 3.137144e+000 -5.842845e+000 1.471079e+000 -5.401370e+000 -8.803869e-001 -4.409434e+000 -6.416711e-001 2.759189e+000 -1.302482e-001 1.222509e+000 -3.195152e+000 7.214986e-001 3.929162e-003 1.007522e-001 5.715968e-003 -2.249803e-001 -2.880870e-001 -3.609100e-001 2.084745e-001 2.228263e-001 9.185910e-002 2.849507e-002 3.784401e-002 -6.783673e-002 5.730314e-001
<VARIANCE> 25
 5.865225e+001 4.672882e+001 3.599749e+001 3.275312e+001 6.357397e+001 4.727534e+001 5.593032e+001 7.227268e+001 3.587798e+001 8.209296e+001 5.508779e+001 2.448356e+001 2.056714e+000 2.585101e+000 2.483850e+000 2.057134e+000 2.953220e+000 2.846856e+000 3.662091e+000 2.867930e+000 2.054240e+000 3.278672e+000 2.326928e+000 1.994350e+000 3.648561e+000
<GCONST> 1.049623e+002
<TRANSP> 5
 0.000000e+000 1.000000e+000 0.000000e+000 0.000000e+000 0.000000e+000
 0.000000e+000 6.867082e-001 3.132919e-001 0.000000e+000 0.000000e+000
 0.000000e+000 0.000000e+000 7.020589e-001 2.979411e-001 0.000000e+000
 0.000000e+000 0.000000e+000 0.000000e+000 7.859687e-001 2.140313e-001
 0.000000e+000 0.000000e+000 0.000000e+000 0.000000e+000 0.000000e+000
<ENDHMM>
~h "ah"
<BEGINHMM>
<NUMSTATES> 5
<STATE> 2
<MEAN> 25
 3.106980e+000 1.047979e+000 -1.307937e+000 -3.694607e+000 1.815092e+000 -1.863535e-001 7.158712e-001 1.455684e+000 -1.754057e-001 8.465902e-001 6.649162e-001 -1.257307e-001 7.659182e-001 -4.676508e-002 -3.364780e-002 -7.342764e-001 -1.614077e-001 -1.752535e-002 -7.979742e-002 -1.599550e-002 1.303182e-001 1.512994e-001 1.736861e-002 -1.834577e-001 1.367841e+000
<VARIANCE> 25
 1.189913e+002 6.763573e+001 5.962951e+001 6.993725e+001 7.952096e+001 6.691840e+001 4.839289e+001 4.969650e+001 6.484885e+001 4.172530e+001 4.133803e+001 2.816734e+001 8.082024e+000 5.468927e+000 4.474093e+000 5.993829e+000 6.322163e+000 6.012878e+000 4.746796e+000 5.159324e+000 5.970148e+000 4.548243e+000 4.088974e+000 3.176512e+000 8.790005e+000
<GCONST> 1.165570e+002
<STATE> 3
<MEAN> 25
 6.338513e+000 -7.296353e-001 -2.173859e-001 -4.564721e+000 5.179214e-001 2.100857e-001 -1.610696e+000 1.768472e+000 1.014046e+000 1.460431e+000 -1.263626e+000 -7.164119e-001 -1.320923e-001 -2.213084e-001 -1.773421e-001 1.141176e-001 -3.651816e-002 1.085653e-001 -7.980093e-002 8.815105e-002 2.947107e-001 -1.092877e-001 -3.162120e-001 -7.540942e-002 -9.411197e-002
<VARIANCE> 25
 8.281322e+001 5.175669e+001 5.732861e+001 7.347552e+001 5.181313e+001 6.224360e+001 4.875233e+001 4.700427e+001 5.599267e+001 4.032191e+001 4.192084e+001 2.877961e+001 2.929881e+000 2.437856e+000 2.147245e+000 2.821853e+000 3.056501e+000 3.772623e+000 2.729312e+000 2.933240e+000 3.294418e+000 2.866030e+000 2.937218e+000 2.410685e+000 3.347684e+000
<GCONST> 1.069927e+002
<STATE> 4
<MEAN> 25
 2.689231e+000 -8.966669e-001 -1.093427e+000 -3.071555e-001 1.788868e+000 3.688641e-001 -2.515272e-001 1.865128e+000 9.213310e-001 1.525336e-001 -1.727300e+000 -2.386914e-001 -2.432330e-001 -3.817666e-002 3.825434e-002 1.844031e-001 1.784322e-002 5.339738e-002 1.203179e-002 -8.695062e-002 -7.606515e-002 -7.136773e-002 -4.469327e-002 1.694347e-002 -3.125515e-001
<VARIANCE> 25
 5.911554e+001 2.853320e+001 2.726927e+001 5.424732e+001 3.624719e+001 4.134528e+001 3.845745e+001 3.556641e+001 4.812924e+001 2.831964e+001 3.920164e+001 2.447363e+001 1.052711e+000 1.152585e+000 1.379232e+000 1.951726e+000 2.029000e+000 2.441662e+000 2.182895e+000 2.419166e+000 2.498026e+000 1.972633e+000 2.388707e+000 1.991953e+000 9.734837e-001
<GCONST> 9.686961e+001
<TRANSP> 5
 0.000000e+000 1.000000e+000 0.000000e+000 0.000000e+000 0.000000e+000
 0.000000e+000 7.153094e-001 2.846905e-001 0.000000e+000 0.000000e+000
 0.000000e+000 0.000000e+000 4.288866e-001 5.711133e-001 0.000000e+000
 0.000000e+000 0.000000e+000 0.000000e+000 7.868000e-001 2.132000e-001
 0.000000e+000 0.000000e+000 0.000000e+000 0.000000e+000 0.000000e+000
<ENDHMM>
~h "ao"
<BEGINHMM>
<NUMSTATES> 5
<STATE> 2
<MEAN> 25
 6.901555e+000 -6.791473e-002 5.364478e-001 -5.188109e+000 -4.384892e+000 -5.142722e+000 -4.621912e+000 -5.895292e+000 -3.071738e-001 6.450310e-001 -9.148974e-001 -9.661481e-001 3.630198e-001 3.471642e-001 -1.134596e-001 -2.411970e-001 -9.393249e-002 1.277886e-001 -1.714743e-002 -3.246610e-002 -1.333438e-001 3.452877e-001 1.005141e-001 4.198938e-002 -4.076615e-001
<VARIANCE> 25
 4.200101e+001 2.190751e+001 3.466196e+001 2.432908e+001 3.285882e+001 2.857954e+001 3.627641e+001 5.176102e+001 4.091904e+001 3.033128e+001 4.281734e+001 2.600812e+001 2.649640e+000 1.769111e+000 1.496810e+000 1.741020e+000 2.221024e+000 1.778403e+000 1.901643e+000 3.095690e+000 3.092041e+000 2.546230e+000 2.536970e+000 2.134959e+000 3.078559e+000
<GCONST> 9.855705e+001
<STATE> 3
<MEAN> 25
 8.596867e+000 3.448152e+000 -6.307609e-002 -2.199334e+000 -3.962673e-002 -1.386596e+000 -2.397792e+000 -1.383163e-001 -2.899442e+000 1.984610e+000 9.076087e-001 -7.665133e-001 -3.595344e-002 9.839695e-002 1.349023e-001 -1.214347e-001 -2.263776e-002 3.304169e-001 3.128052e-001 1.204369e-001 -4.358048e-002 1.349933e-001 1.182665e-001 8.076308e-002 -1.152859e-001
<VARIANCE> 25
 3.875131e+001 2.735083e+001 4.113866e+001 4.383665e+001 3.327943e+001 3.194470e+001 2.333704e+001 2.556555e+001 2.389458e+001 2.382833e+001 2.662003e+001 1.806264e+001 2.021599e+000 1.724849e+000 1.830720e+000 2.499926e+000 1.953835e+000 1.731045e+000 1.753901e+000 2.453200e+000 2.352689e+000 1.841061e+000 1.751295e+000 1.479721e+000 1.486168e+000
<GCONST> 9.455259e+001
<STATE> 4
<MEAN> 25
 1.493070e+001 2.666525e+000 -4.288776e+000 -1.076927e+001 -1.564220e+000 7.476974e+000 9.166172e-001 -5.456172e+000 -4.800969e-001 4.339283e+000 2.638315e+000 -3.492933e-001 -2.480332e-001 -3.495886e-001 2.338417e-001 3.241875e-001 4.758456e-001 -1.192913e-001 -3.569922e-001 9.622654e-002 3.471181e-001 2.639535e-002 -9.341042e-002 -1.190151e-001 2.402596e-002
<VARIANCE> 25
 2.939314e+001 5.631046e+001 2.359858e+001 7.517298e+001 6.723055e+001 5.472245e+001 5.737579e+001 5.453367e+001 5.386954e+001 4.484622e+001 4.674098e+001 2.843768e+001 1.329621e+000 1.999026e+000 1.414574e+000 3.431102e+000 2.908154e+000 4.576246e+000 3.591458e+000 4.050189e+000 2.296632e+000 2.942439e+000 2.882756e+000 2.227381e+000 1.625337e+000
<GCONST> 1.041595e+002
<TRANSP> 5
 0.000000e+000 1.000000e+000 0.000000e+000 0.000000e+000 0.000000e+000
 0.000000e+000 8.271813e-001 1.728187e-001 0.000000e+000 0.000000e+000
 0.000000e+000 0.000000e+000 8.321722e-001 1.678279e-001 0.000000e+000
 0.000000e+000 0.000000e+000 0.000000e+000 8.749412e-001 1.250588e-001
 0.000000e+000 0.000000e+000 0.000000e+000 0.000000e+000 0.000000e+000
<ENDHMM>
~h "aw"
<BEGINHMM>
<NUMSTATES> 5
<STATE> 2
<MEAN> 25
 3.061065e+000 -5.143253e+000 -3.032737e+000 -1.795170e+000 5.214901e+000 2.772006e+000 8.284527e-001 2.369579e-001 -2.606350e+000 2.346517e-001 2.832892e-001 -3.127944e-001 3.434795e-001 -7.379301e-001 7.042552e-001 -2.061116e+000 -8.270475e-001 1.377020e+000 6.880911e-001 -2.446197e-002 -3.402810e-002 8.265767e-001 3.584341e-001 -5.395027e-001 2.032440e+000
<VARIANCE> 25
 5.531414e+001 6.137864e+001 1.256096e+002 7.417131e+001 9.007546e+001 8.875025e+001 6.206894e+001 4.557811e+001 6.202813e+001 4.968540e+001 4.592226e+001 2.774155e+001 9.370340e+000 6.170537e+000 8.681990e+000 7.968824e+000 6.482608e+000 8.146379e+000 8.683828e+000 5.809319e+000 5.074289e+000 5.129258e+000 3.995618e+000 2.497173e+000 5.608558e+000
<GCONST> 1.187994e+002
<STATE> 3
<MEAN> 25
 -2.866473e+000 -1.183525e+001 8.125583e+000 -6.940226e+000 5.287659e+000 3.321476e+000 1.596359e+000 2.258035e+000 -1.045351e+001 2.752602e+000 2.258209e+000 -1.526757e+000 2.127340e-001 2.092406e-001 -4.364080e-001 -5.784225e-001 -7.272804e-001 1.621863e-001 3.371946e-001 8.766267e-002 9.917605e-002 -3.387463e-001 1.874583e-001 -1.784617e-001 1.717998e-001
<VARIANCE> 25
 7.100945e+001 7.295040e+001 1.435534e+002 6.480496e+001 4.253330e+001 5.220548e+001 5.549943e+001 5.153887e+001 7.183985e+001 3.515435e+001 3.531719e+001 2.120152e+001 3.869634e+000 3.951558e+000 3.055903e+000 3.905632e+000 3.148170e+000 2.160924e+000 3.983963e+000 3.315953e+000 3.423813e+000 2.781369e+000 2.464290e+000 2.222399e+000 4.698256e+000
<GCONST> 1.089609e+002
<STATE> 4
<MEAN> 25
 8.657069e+000 -2.590889e+000 -4.674158e+000 -1.588154e+001 -2.965772e+000 1.055179e+001 1.583440e+000 -9.790894e-001 -1.460087e+000 2.826615e-001 3.341356e+000 -3.589353e+000 3.864982e-001 4.454121e-001 1.231725e-001 -1.320843e-002 -5.103826e-001 -4.021982e-001 -3.754996e-001 5.089728e-003 2.526484e-001 -3.277274e-002 -3.161994e-001 -3.786847e-002 1.034826e-002
<VARIANCE> 25
 9.243166e+001 4.688995e+001 5.345040e+001 6.626560e+001 4.981623e+001 1.102399e+002 5.255147e+001 4.614504e+001 5.031871e+001 4.040769e+001 4.944335e+001 2.093184e+001 1.136115e+000 1.193460e+000 1.543397e+000 2.435305e+000 2.180619e+000 2.455462e+000 2.251111e+000 2.028135e+000 2.125202e+000 2.133905e+000 3.087039e+000 1.583874e+000 1.232058e+000
<GCONST> 1.015903e+002
<TRANSP> 5
 0.000000e+000 1.000000e+000 0.000000e+000 0.000000e+000 0.000000e+000
 0.000000e+000 6.579564e-001 3.420436e-001 0.000000e+000 0.000000e+000
 0.000000e+000 0.000000e+000 8.018543e-001 1.981457e-001 0.000000e+000
 0.000000e+000 0.000000e+000 0.000000e+000 8.507323e-001 1.492678e-001
 0.000000e+000 0.000000e+000 0.000000e+000 0.000000e+000 0.000000e+000
<ENDHMM>
~h "ay"
<BEGINHMM>
<NUMSTATES> 5
<STATE> 2
<MEAN> 25
 2.455316e-001 2.033012e+000 2.382063e+000 2.337378e+000 1.354647e+000 -7.896366e-001 6.284465e-001 5.206413e-001 -1.835947e+000 -2.975143e-001 -3.509881e-001 -3.447402e-001 -5.801573e-001 -1.979389e-001 -3.621945e-001 3.047931e-001 1.605179e-001 4.864334e-001 1.304035e-001 -2.658565e-001 4.813620e-002 -4.038456e-004 1.473597e-001 8.116055e-002 -6.474313e-001
<VARIANCE> 25
 5.609736e+001 2.352167e+001 3.286251e+001 4.001961e+001 4.698238e+001 4.376601e+001 4.891983e+001 3.522725e+001 4.337127e+001 2.845597e+001 2.878060e+001 2.033262e+001 1.515745e+000 1.934628e+000 2.326363e+000 2.338606e+000 3.151067e+000 3.533130e+000 3.376960e+000 2.991168e+000 3.160236e+000 2.382080e+000 2.157615e+000 1.546177e+000 9.742413e-001
<GCONST> 9.957392e+001
<STATE> 3
<MEAN> 25
 -2.771686e+000 -2.921729e-001 -7.099203e-002 3.357619e+000 3.242481e-001 9.630955e-001 -4.666075e-001 -1.363348e+000 -1.527870e+000 -1.302590e+000 2.709918e-001 -3.520947e-002 -1.812138e-001 -1.123130e-001 -1.844787e-001 3.140594e-002 -2.798660e-002 1.674449e-001 5.571601e-002 -8.544806e-002 -2.026441e-002 -2.058308e-002 1.726492e-002 7.310494e-002 -2.394031e-001
<VARIANCE> 25
 3.985183e+001 1.246757e+001 1.875620e+001 2.592669e+001 2.137736e+001 2.363072e+001 2.406909e+001 1.875628e+001 2.860511e+001 2.078876e+001 2.017625e+001 1.313538e+001 3.226663e-001 5.114083e-001 6.581256e-001 8.906152e-001 1.213642e+000 1.308886e+000 1.370810e+000 1.306661e+000 1.415895e+000 1.281333e+000 1.081532e+000 9.045727e-001 2.065031e-001
<GCONST> 8.035323e+001
<STATE> 4
<MEAN> 25
 1.303717e-001 3.218068e-001 1.032971e+000 3.002576e+000 1.153135e+000 6.551394e-001 -8.241178e-001 -1.474950e-001 -1.970425e+000 -1.344622e+000 -8.961691e-002 -3.750031e-002 -4.184287e-002 -2.056607e-003 1.795535e-002 3.492486e-002 8.965126e-002 2.174776e-002 5.397931e-002 8.451724e-002 3.780461e-002 8.886722e-002 5.909833e-002 7.918233e-002 -5.234917e-002
<VARIANCE> 25
 3.721468e+001 1.467558e+001 1.990876e+001 2.025430e+001 3.067660e+001 1.665011e+001 2.023565e+001 1.811191e+001 1.902846e+001 2.213900e+001 1.958294e+001 1.402669e+001 4.112353e-001 7.474076e-001 8.123421e-001 1.120430e+000 1.324229e+000 1.283875e+000 1.333569e+000 1.409079e+000 1.407777e+000 1.460515e+000 1.224276e+000 1.092209e+000 3.135946e-001
<GCONST> 8.178752e+001
<TRANSP> 5
 0.000000e+000 1.000000e+000 0.000000e+000 0.000000e+000 0.000000e+000
 0.000000e+000 5.827728e-001 4.172272e-001 0.000000e+000 0.000000e+000
 0.000000e+000 0.000000e+000 7.421819e-001 2.578181e-001 0.000000e+000
 0.000000e+000 0.000000e+000 0.000000e+000 7.984809e-001 2.015191e-001
 0.000000e+000 0.000000e+000 0.000000e+000 0.000000e+000 0.000000e+000
<ENDHMM>
~h "ch"
<BEGINHMM>
<NUMSTATES> 5
<STATE> 2
<MEAN> 25
 -1.745835e+000 -9.660961e-001 3.916356e+000 -1.588457e+000 3.529082e+000 -2.909933e+000 -4.631507e-001 3.832554e+000 9.260826e-001 -1.578120e+000 -1.274868e+000 6.800740e-001 -1.748849e+000 -2.395696e-001 6.745369e-001 -6.462870e-001 -5.651795e-002 -2.868190e-001 -2.779633e-002 5.644862e-001 2.164036e-001 1.357021e-001 4.329357e-001 3.262047e-001 5.275524e-001
<VARIANCE> 25
 8.351145e+001 1.162279e+002 5.994839e+001 6.123706e+001 4.358821e+001 3.877591e+001 4.723933e+001 5.002400e+001 9.057823e+001 3.963758e+001 5.523118e+001 2.452586e+001 6.946899e+000 8.289077e+000 6.444748e+000 5.372386e+000 4.534634e+000 3.575568e+000 4.649677e+000 5.496062e+000 6.563515e+000 3.093033e+000 3.756283e+000 2.113892e+000 3.376658e+000
<GCONST> 1.138573e+002
<STATE> 3
<MEAN> 25
 -6.591828e+000 -1.034298e+001 1.180765e+001 -6.897304e+000 2.710572e+000 -1.790394e+000 -7.887760e-003 6.422193e+000 -6.912942e+000 3.375797e+000 1.878031e+000 -8.326417e-001 -3.004000e-001 -3.127035e-001 7.946979e-003 7.276756e-002 -2.130906e-001 -6.131878e-002 1.718449e-001 3.060706e-001 -3.877094e-002 -1.863956e-003 2.423244e-001 7.344092e-002 -8.198629e-002
<VARIANCE> 25
 6.949164e+001 8.378403e+001 8.202312e+001 3.540619e+001 2.940840e+001 3.057345e+001 4.227346e+001 3.252925e+001 6.759127e+001 2.660904e+001 3.053608e+001 1.401681e+001 3.676400e+000 3.756342e+000 3.474113e+000 2.574713e+000 2.086881e+000 1.524668e+000 2.615756e+000 2.085665e+000 3.384292e+000 2.104034e+000 2.290312e+000 1.231758e+000 1.718451e+000
<GCONST> 1.013840e+002
<STATE> 4
<MEAN> 25
 -1.014721e+001 9.961821e-001 5.850145e+000 -1.031250e+000 4.956503e+000 -5.356285e+000 1.185833e+000 8.592319e+000 4.339305e-002 -2.269470e+000 4.037134e+000 2.146017e+000 8.220182e-001 -1.808363e-002 -3.115435e-001 2.873344e-001 1.915461e-001 3.941483e-001 -3.393193e-001 -1.986651e-001 -1.240005e-001 1.442888e-001 -9.525117e-002 -3.113353e-001 -9.008864e-001
<VARIANCE> 25
 7.626981e+001 7.512163e+001 4.490105e+001 4.923474e+001 5.916458e+001 5.880740e+001 3.724974e+001 6.192967e+001 4.272284e+001 3.177096e+001 3.031694e+001 2.150261e+001 2.544845e+000 2.741201e+000 3.904211e+000 3.330655e+000 2.708977e+000 4.519958e+000 2.695091e+000 4.800709e+000 3.499223e+000 3.387534e+000 2.323582e+000 2.297734e+000 1.927141e+000
<GCONST> 1.062694e+002
<TRANSP> 5
 0.000000e+000 1.000000e+000 0.000000e+000 0.000000e+000 0.000000e+000
 0.000000e+000 7.975593e-001 2.024407e-001 0.000000e+000 0.000000e+000
 0.000000e+000 0.000000e+000 8.287935e-001 1.712065e-001 0.000000e+000
 0.000000e+000 0.000000e+000 0.000000e+000 8.127608e-001 1.872392e-001
 0.000000e+000 0.000000e+000 0.000000e+000 0.000000e+000 0.000000e+000
<ENDHMM>
~h "dh"
<BEGINHMM>
<NUMSTATES> 5
<STATE> 2
<MEAN> 25
 2.815248e+000 4.539884e+000 1.718108e+000 1.120193e+000 2.251020e+000 5.636272e-001 -9.269832e-001 -1.215996e+000 -2.453990e+000 1.151143e-001 -9.186689e-001 -5.433801e-001 8.672740e-001 -6.013368e-001 8.293599e-001 -9.511620e-001 -8.921531e-001 -1.040743e+000 -1.070634e+000 -2.007073e-001 -7.925087e-002 4.280265e-002 -3.803428e-001 3.826834e-002 1.991621e+000
<VARIANCE> 25
 3.709114e+001 3.144571e+001 3.756360e+001 3.875985e+001 5.701526e+001 3.395445e+001 4.657485e+001 2.544912e+001 5.907720e+001 2.225144e+001 2.925834e+001 1.770770e+001 3.876457e+000 4.795239e+000 4.986268e+000 3.242114e+000 9.281821e+000 3.378967e+000 4.294941e+000 4.518229e+000 7.997007e+000 2.273481e+000 3.108476e+000 1.661985e+000 4.272438e+000
<GCONST> 1.064808e+002
<STATE> 3
<MEAN> 25
 3.834093e+000 1.709712e+000 3.480432e+000 -1.128701e+000 -1.252077e+000 -2.634643e+000 -2.969131e+000 -2.026748e+000 -2.652583e+000 1.271391e+000 -2.012976e-001 -4.392040e-001 8.002321e-001 -1.420723e+000 1.386531e+000 -1.184629e+000 -1.673332e+000 -6.708602e-001 -5.883901e-001 -1.244935e-002 4.742002e-001 -7.354034e-002 -2.096413e-001 -5.614297e-003 3.237723e+000
<VARIANCE> 25
 3.517490e+001 4.888778e+001 4.902793e+001 4.185319e+001 9.650731e+001 3.720546e+001 4.452028e+001 2.810012e+001 5.233723e+001 2.832281e+001 3.200165e+001 1.805459e+001 5.963277e+000 7.163289e+000 1.061795e+001 5.089064e+000 1.299334e+001 3.660646e+000 7.182698e+000 4.352139e+000 9.244554e+000 3.290673e+000 6.423668e+000 3.065892e+000 7.816023e+000
<GCONST> 1.135020e+002
<STATE> 4
<MEAN> 25
 4.739849e+000 2.334882e+000 6.739544e-001 -8.065681e+000 -5.017000e+000 6.923729e+000 5.209477e-001 -6.535451e-001 3.879996e+000 -2.744732e+000 -1.515640e+000 -5.804842e-001 -4.821641e-002 -9.696936e-001 -2.285226e-001 -4.953579e-001 2.235081e-001 1.033700e-001 4.800307e-002 2.747733e-001 2.757395e-001 2.263694e-002 1.380077e-001 -1.836205e-001 1.700654e+000
<VARIANCE> 25
 8.675908e+001 1.028778e+002 1.199378e+002 1.073534e+002 6.404604e+001 7.452550e+001 5.419529e+001 4.478885e+001 6.825189e+001 5.660890e+001 8.117346e+001 5.214344e+001 9.834094e+000 4.684637e+000 4.542420e+000 7.281263e+000 4.689291e+000 3.412404e+000 4.732847e+000 4.078380e+000 4.567265e+000 5.912437e+000 5.499175e+000 4.607309e+000 2.034738e+001
<GCONST> 1.199850e+002
<TRANSP> 5
 0.000000e+000 1.000000e+000 0.000000e+000 0.000000e+000 0.000000e+000
 0.000000e+000 2.970699e-001 7.029300e-001 0.000000e+000 0.000000e+000
 0.000000e+000 0.000000e+000 4.145186e-001 5.854813e-001 0.000000e+000
 0.000000e+000 0.000000e+000 0.000000e+000 8.017868e-001 1.982132e-001
 0.000000e+000 0.000000e+000 0.000000e+000 0.000000e+000 0.000000e+000
<ENDHMM>
~h "eh"
<BEGINHMM>
<NUMSTATES> 5
<STATE> 2
<MEAN> 25
 -2.703807e+000 -8.005452e+000 1.021084e+001 -5.670015e+000 -2.277075e-001 -2.421901e+000 4.834400e-001 3.300459e+000 -3.815904e+000 3.038120e+000 1.758015e+000 4.986272e-002 -1.397835e+000 -9.773238e-001 9.626320e-001 -6.825132e-001 -4.581100e-001 -1.511911e-001 6.892421e-001 7.939517e-001 -3.839185e-001 2.786435e-001 1.936535e-001 -6.964086e-002 6.733075e-001
<VARIANCE> 25
 6.919262e+001 5.993504e+001 1.203687e+002 3.760757e+001 7.121693e+001 4.432645e+001 3.471835e+001 3.733219e+001 6.814969e+001 4.063421e+001 2.505811e+001 1.908599e+001 3.693409e+000 3.444119e+000 4.053365e+000 1.698113e+000 1.868910e+000 1.919378e+000 3.078874e+000 2.589201e+000 2.743723e+000 2.278111e+000 2.118587e+000 1.610265e+000 2.160968e+000
<GCONST> 1.036717e+002
<STATE> 3
<MEAN> 25
 -5.621934e+000 -8.825830e+000 7.879504e+000 -6.559412e+000 -2.188355e+000 -4.593540e+000 2.023233e+000 5.950181e+000 -1.726632e+000 2.287599e+000 2.952564e-001 -2.586921e-001 3.030263e-001 2.884938e-001 -3.210597e-001 2.644484e-001 -2.204491e-001 5.332272e-002 1.697457e-001 -1.709577e-002 1.534078e-001 -1.746064e-001 -8.765063e-002 -4.536431e-002 -6.243914e-001
<VARIANCE> 25
 8.220396e+001 6.301810e+001 8.947071e+001 2.865196e+001 5.545987e+001 3.206362e+001 3.132677e+001 4.533439e+001 6.488632e+001 2.603756e+001 3.019124e+001 1.766452e+001 1.038664e+000 1.364345e+000 1.809711e+000 1.352190e+000 1.430646e+000 1.505608e+000 1.911197e+000 1.604873e+000 1.977316e+000 1.493626e+000 1.532079e+000 1.180563e+000 1.170952e+000
<GCONST> 9.576688e+001
<STATE> 4
<MEAN> 25
 -5.099308e+000 -7.201892e+000 9.298018e+000 4.753838e-001 -8.223097e+000 2.001935e+000 5.400571e+000 -2.077529e-001 4.618546e+000 -4.301178e+000 1.103048e+000 -8.944199e-001 5.380395e-001 2.189554e-001 1.703138e-004 4.055574e-001 2.504956e-001 1.809985e-001 -2.780212e-001 -2.773257e-001 -2.161480e-001 -1.274137e-001 -1.037992e-001 8.963222e-002 -7.015607e-001
<VARIANCE> 25
 8.946935e+001 6.124254e+001 6.586729e+001 5.718763e+001 9.411034e+001 7.656002e+001 5.037738e+001 6.242762e+001 6.913547e+001 5.735109e+001 3.972875e+001 4.122368e+001 5.449538e+000 4.429269e+000 4.309632e+000 3.329760e+000 5.883897e+000 5.010487e+000 4.398791e+000 4.752029e+000 4.958709e+000 3.351563e+000 3.170612e+000 2.870809e+000 2.831254e+000
<GCONST> 1.137431e+002
<TRANSP> 5
 0.000000e+000 1.000000e+000 0.000000e+000 0.000000e+000 0.000000e+000
 0.000000e+000 5.771018e-001 4.228983e-001 0.000000e+000 0.000000e+000
 0.000000e+000 0.000000e+000 8.229650e-001 1.770350e-001 0.000000e+000
 0.000000e+000 0.000000e+000 0.000000e+000 8.174326e-001 1.825674e-001
 0.000000e+000 0.000000e+000 0.000000e+000 0.000000e+000 0.000000e+000
<ENDHMM>
~h "er"
<BEGINHMM>
<NUMSTATES> 5
<STATE> 2
<MEAN> 25
 2.691823e+000 -3.127797e+000 -1.985932e+000 -3.576831e+000 6.387535e-001 -1.435983e+000 2.593801e-001 3.950148e-001 3.907199e+000 1.225759e+000 -2.697852e+000 -1.161301e+000 -4.199212e-001 -6.739164e-001 -2.877470e-001 -1.426702e-001 -3.146374e-001 -6.569467e-001 -1.282710e-001 7.510827e-001 8.883659e-001 -1.767732e-002 -3.157885e-001 -4.180234e-001 1.065351e+000
<VARIANCE> 25
 5.484874e+001 2.545053e+001 5.443859e+001 4.677538e+001 3.475307e+001 6.138086e+001 4.644868e+001 4.404637e+001 5.007651e+001 4.531641e+001 7.025118e+001 2.666088e+001 3.628176e+000 2.186100e+000 2.917291e+000 3.034380e+000 3.307268e+000 4.502910e+000 3.931687e+000 4.484914e+000 3.942718e+000 3.668916e+000 3.865032e+000 2.177976e+000 5.169320e+000
<GCONST> 1.078491e+002
<STATE> 3
<MEAN> 25
 3.947323e+000 -4.458285e+000 -3.446649e+000 -3.716843e+000 -2.130582e+000 -7.878829e+000 -1.884302e+000 2.566074e+000 6.455311e+000 2.375495e+000 -3.386329e+000 -3.410440e+000 4.566635e-001 -9.736723e-002 2.162464e-002 2.903033e-001 -4.702688e-003 -3.669234e-001 -3.247289e-001 1.936497e-001 3.784883e-002 -3.647137e-002 -9.045555e-002 2.544117e-002 -2.005133e-001
<VARIANCE> 25
 6.463030e+001 1.917105e+001 1.908133e+001 3.546574e+001 1.959229e+001 3.714244e+001 3.808898e+001 3.374755e+001 4.406709e+001 3.263860e+001 4.159993e+001 2.075691e+001 3.696052e+000 1.355992e+000 1.354859e+000 2.458641e+000 1.869860e+000 2.753005e+000 2.604371e+000 3.595421e+000 2.912259e+000 2.208064e+000 2.762311e+000 2.048666e+000 3.177925e+000
<GCONST> 9.880825e+001
<STATE> 4
<MEAN> 25
 9.437500e+000 -5.078805e+000 -3.868039e+000 2.618156e+000 -3.790607e-001 -9.121100e+000 -3.658301e+000 6.520729e+000 4.565310e+000 -1.299845e+000 -3.214755e+000 -6.390303e-001 -1.319163e-001 1.294532e-001 3.031821e-002 2.639278e-001 1.682659e-001 1.964452e-001 1.403561e-001 -1.054430e-001 -4.065464e-001 6.083598e-002 2.454343e-001 1.639189e-001 -6.702843e-001
<VARIANCE> 25
 4.039151e+001 4.438800e+001 5.224296e+001 6.896042e+001 6.554157e+001 9.005215e+001 1.081661e+002 5.409692e+001 5.509446e+001 4.944724e+001 4.668783e+001 3.780167e+001 3.075069e+000 2.996588e+000 2.536349e+000 4.140371e+000 4.596379e+000 6.207859e+000 5.890439e+000 4.494552e+000 4.544061e+000 3.285697e+000 3.410302e+000 3.036075e+000 3.399706e+000
<GCONST> 1.118353e+002
<TRANSP> 5
 0.000000e+000 1.000000e+000 0.000000e+000 0.000000e+000 0.000000e+000
 0.000000e+000 6.639662e-001 3.360338e-001 0.000000e+000 0.000000e+000
 0.000000e+000 0.000000e+000 8.425787e-001 1.574213e-001 0.000000e+000
 0.000000e+000 0.000000e+000 0.000000e+000 8.896331e-001 1.103669e-001
 0.000000e+000 0.000000e+000 0.000000e+000 0.000000e+000 0.000000e+000
<ENDHMM>
~h "ey"
<BEGINHMM>
<NUMSTATES> 5
<STATE> 2
<MEAN> 25
 6.937582e+000 1.487039e+000 1.107240e+000 1.228506e+000 2.809647e+000 -5.494156e-001 -5.058792e-001 -4.911505e-003 -5.224622e-001 -6.713564e-001 -1.518541e+000 -1.066256e+000 8.032945e-001 -4.527422e-001 1.182956e-001 -5.087795e-001 -3.994569e-002 -7.523034e-001 -1.017679e+000 -5.690074e-001 -3.177871e-001 -4.960144e-001 -3.299909e-001 6.632567e-002 1.618805e+000
<VARIANCE> 25
 5.153843e+001 5.794825e+001 3.992954e+001 5.649664e+001 7.103386e+001 4.819617e+001 5.879327e+001 5.337712e+001 4.979240e+001 4.093141e+001 3.411407e+001 2.077877e+001 6.472393e+000 6.590338e+000 3.912208e+000 7.178454e+000 6.284574e+000 5.261356e+000 7.293042e+000 7.047064e+000 3.595716e+000 6.826902e+000 4.507742e+000 2.355058e+000 7.550147e+000
<GCONST> 1.141543e+002
<STATE> 3
<MEAN> 25
 1.026568e+001 -4.850258e-001 3.202127e-001 -1.659759e+000 6.894144e-001 -1.287787e+000 -8.180755e+000 -6.196451e-001 3.425203e+000 -2.785339e+000 1.439727e+000 -1.376779e+000 -2.484436e-001 -1.701476e-002 3.078901e-001 1.409240e-001 -4.294911e-001 -4.313580e-001 -9.625709e-002 2.707679e-002 1.161918e-001 -4.950332e-002 2.880171e-001 -2.367631e-003 1.429399e-001
<VARIANCE> 25
 3.761673e+001 4.545370e+001 4.644676e+001 6.830451e+001 4.630756e+001 6.911684e+001 9.164481e+001 9.559126e+001 6.434593e+001 5.334377e+001 9.957496e+001 4.159343e+001 3.252077e+000 2.655606e+000 1.971195e+000 2.722061e+000 3.584064e+000 4.795568e+000 5.010780e+000 5.264684e+000 4.248092e+000 3.325878e+000 6.289822e+000 3.637137e+000 4.074355e+000
<GCONST> 1.122082e+002
<STATE> 4
<MEAN> 25
 2.886206e+000 1.823160e+000 7.034419e+000 -8.137580e-001 -5.258746e+000 -6.976266e+000 -2.572766e+000 -2.266410e+000 -1.993802e+000 -1.655693e+000 3.206075e+000 3.721929e-002 -2.541733e-001 -3.080423e-003 -2.670702e-002 1.696705e-001 1.573121e-001 9.371187e-002 1.369392e-001 -1.365837e-002 -1.744042e-001 1.034825e-001 -4.607937e-002 -4.505708e-002 -3.400442e-001
<VARIANCE> 25
 8.518590e+001 5.729926e+001 5.233436e+001 5.665930e+001 1.257748e+002 6.326164e+001 5.814349e+001 8.754403e+001 6.861671e+001 5.976065e+001 4.404989e+001 3.205867e+001 3.511449e+000 2.910382e+000 3.020962e+000 3.316431e+000 6.388507e+000 3.879235e+000 4.344047e+000 6.539041e+000 4.627011e+000 3.872050e+000 3.646359e+000 2.246475e+000 2.978861e+000
<GCONST> 1.127892e+002
<TRANSP> 5
 0.000000e+000 1.000000e+000 0.000000e+000 0.000000e+000 0.000000e+000
 0.000000e+000 5.990314e-001 4.009686e-001 0.000000e+000 0.000000e+000
 0.000000e+000 0.000000e+000 8.247536e-001 1.752464e-001 0.000000e+000
 0.000000e+000 0.000000e+000 0.000000e+000 9.069012e-001 9.309886e-002
 0.000000e+000 0.000000e+000 0.000000e+000 0.000000e+000 0.000000e+000
<ENDHMM>
~h "hh"
<BEGINHMM>
<NUMSTATES> 5
<STATE> 2
<MEAN> 25
 -1.114431e+001 3.313651e+000 -2.941757e+000 4.807661e+000 3.943623e+000 4.988263e-001 4.732126e+000 2.515443e+000 3.997614e+000 1.975871e+000 2.821493e+000 2.180693e+000 3.637562e-001 -2.876327e-001 6.349633e-002 -1.866366e-001 7.063466e-002 2.581330e-001 -8.801862e-002 1.532289e-002 -1.629241e-001 1.371839e-001 9.099527e-003 5.836383e-002 4.914248e-002
<VARIANCE> 25
 5.371566e+001 2.303788e+001 3.566933e+001 4.818191e+001 4.051500e+001 1.468748e+002 2.872766e+001 3.734373e+001 2.966850e+001 3.988498e+001 2.664434e+001 1.488274e+001 1.523800e+000 9.640782e-001 1.140460e+000 1.283971e+000 1.435680e+000 1.848881e+000 1.382862e+000 1.970137e+000 1.959078e+000 1.531558e+000 1.326803e+000 9.634301e-001 1.456474e+000
<GCONST> 9.370998e+001
<STATE> 3
<MEAN> 25
 -3.226888e+000 -1.036652e+000 -2.664946e+000 2.117703e+000 1.573027e+000 2.726227e+000 1.672842e+000 1.019410e+000 -3.353480e-001 5.556267e-001 1.705236e+000 1.675496e+000 2.522796e+000 -1.313847e+000 6.320414e-001 -1.159439e+000 3.247440e-001 -1.038640e+000 -5.172571e-001 -4.210485e-001 -6.816809e-001 -5.087501e-001 -7.943246e-001 -5.933264e-001 4.428165e+000
<VARIANCE> 25
 8.767772e+001 6.381255e+001 4.183600e+001 5.250103e+001 3.967284e+001 5.377209e+001 2.883568e+001 5.218809e+001 5.496493e+001 3.239250e+001 3.046797e+001 1.928525e+001 8.469200e+000 5.245310e+000 4.750865e+000 4.686496e+000 3.953060e+000 6.229436e+000 3.193613e+000 4.497425e+000 5.226694e+000 2.796464e+000 3.301939e+000 2.171658e+000 1.121128e+001
<GCONST> 1.109479e+002
<STATE> 4
<MEAN> 25
 4.754702e+000 -2.037778e+000 4.340937e-001 -2.537620e+000 8.829423e-001 -2.423123e+000 1.332800e+000 1.321058e+000 -8.231203e-001 5.501511e-001 -2.919641e+000 8.373288e-001 2.816609e-002 1.567159e-002 4.771242e-002 -7.686069e-003 -5.821408e-002 2.254500e-002 -5.123377e-002 -2.749610e-002 -6.815469e-002 -1.834151e-002 -1.368110e-002 8.026592e-003 -4.904015e-002
<VARIANCE> 25
 1.040399e+002 7.166389e+001 7.127453e+001 6.135525e+001 8.274637e+001 6.379330e+001 6.005259e+001 5.635510e+001 5.322585e+001 5.458157e+001 6.415441e+001 3.757892e+001 1.884902e+000 1.998787e+000 2.484914e+000 2.988173e+000 3.875229e+000 4.200667e+000 3.859345e+000 2.951041e+000 3.805300e+000 3.387758e+000 3.234555e+000 2.799176e+000 2.512424e+000
<GCONST> 1.099421e+002
<TRANSP> 5
 0.000000e+000 1.000000e+000 0.000000e+000 0.000000e+000 0.000000e+000
 0.000000e+000 7.607360e-001 2.392639e-001 0.000000e+000 0.000000e+000
 0.000000e+000 0.000000e+000 7.019932e-001 2.980068e-001 0.000000e+000
 0.000000e+000 0.000000e+000 0.000000e+000 8.967359e-001 1.032640e-001
 0.000000e+000 0.000000e+000 0.000000e+000 0.000000e+000 0.000000e+000
<ENDHMM>
~h "ih"
<BEGINHMM>
<NUMSTATES> 5
<STATE> 2
<MEAN> 25
 4.156390e+000 1.904929e+000 5.146952e+000 -1.008768e+000 -4.393446e-001 -1.954238e+000 -6.856468e-001 -1.685014e+000 -3.733154e+000 7.675649e-001 -5.508218e-002 -1.048828e+000 3.196907e-001 -3.447319e-001 2.053759e+000 -1.171912e+000 -1.885738e+000 -7.129984e-001 -1.529911e-001 -7.266784e-001 -1.050634e+000 1.472870e-001 1.057048e-001 -1.508290e-001 2.215116e+000
<VARIANCE> 25
 4.118191e+001 5.486210e+001 5.509966e+001 3.921806e+001 8.566782e+001 4.501085e+001 5.355534e+001 4.925129e+001 5.580138e+001 3.069871e+001 2.636132e+001 2.204547e+001 6.887809e+000 5.808336e+000 6.366350e+000 5.430611e+000 1.317823e+001 3.877499e+000 6.066259e+000 6.986317e+000 5.949531e+000 4.325716e+000 4.243776e+000 3.061572e+000 5.454056e+000
<GCONST> 1.137153e+002
<STATE> 3
<MEAN> 25
 5.168209e+000 -2.223900e+000 1.185595e+001 -5.532348e+000 -5.708619e+000 -2.353770e+000 -2.394141e+000 -5.531260e-001 -7.452246e+000 1.444126e+000 5.626108e-001 -1.154484e+000 -1.282170e-001 -5.084734e-001 4.061396e-001 -2.315952e-001 -5.518168e-001 3.288536e-002 2.543275e-006 -2.579715e-001 -1.196044e-001 -1.416308e-001 2.164818e-001 2.525908e-001 1.074398e+000
<VARIANCE> 25
 5.488792e+001 7.504784e+001 6.492156e+001 5.344018e+001 1.407512e+002 3.899363e+001 5.124054e+001 8.332933e+001 5.254934e+001 4.413452e+001 3.744308e+001 2.697217e+001 3.527779e+000 3.375328e+000 4.010572e+000 2.974271e+000 6.426281e+000 3.050213e+000 4.486695e+000 4.638893e+000 3.530966e+000 3.233196e+000 2.884748e+000 1.921333e+000 4.505332e+000
<GCONST> 1.106785e+002
<STATE> 4
<MEAN> 25
 -9.527650e-001 2.465955e+000 8.720719e+000 1.017311e+000 -5.564054e+000 -5.572565e+000 2.620020e+000 -3.078284e+000 -3.021109e+000 -2.028875e+000 2.485020e+000 2.063889e+000 -3.338246e-001 3.426740e-001 -5.455375e-001 5.747352e-001 7.061582e-001 -7.679888e-002 6.737777e-002 2.472471e-001 1.690776e-001 -1.911556e-001 -4.070016e-002 1.200033e-001 -7.072639e-001
<VARIANCE> 25
 9.500526e+001 6.086771e+001 7.366544e+001 9.622170e+001 9.962587e+001 8.240109e+001 7.140993e+001 8.821371e+001 6.650397e+001 5.127112e+001 3.458483e+001 3.108440e+001 4.404271e+000 4.307952e+000 3.771926e+000 4.695658e+000 5.824414e+000 5.561173e+000 5.848946e+000 4.644036e+000 4.940380e+000 3.505504e+000 3.191588e+000 2.530499e+000 3.080107e+000
<GCONST> 1.150141e+002
<TRANSP> 5
 0.000000e+000 1.000000e+000 0.000000e+000 0.000000e+000 0.000000e+000
 0.000000e+000 5.822268e-001 4.177733e-001 0.000000e+000 0.000000e+000
 0.000000e+000 0.000000e+000 6.321039e-001 3.678961e-001 0.000000e+000
 0.000000e+000 0.000000e+000 0.000000e+000 8.456876e-001 1.543124e-001
 0.000000e+000 0.000000e+000 0.000000e+000 0.000000e+000 0.000000e+000
<ENDHMM>
~h "iy"
<BEGINHMM>
<NUMSTATES> 5
<STATE> 2
<MEAN> 25
 6.701824e+000 -5.728557e-001 7.638963e+000 -4.616745e-001 -4.539093e+000 -3.625120e+000 -2.086920e+000 4.383704e-001 -1.680771e+000 -1.056416e+000 2.627858e+000 -1.230486e+000 6.811446e-001 -1.643668e-001 1.033109e+000 -6.735285e-001 -9.086079e-001 -3.118373e-001 -6.019798e-001 -9.294557e-002 -5.834309e-001 -2.703238e-001 3.435555e-001 -3.856825e-001 1.825773e+000
<VARIANCE> 25
 6.478828e+001 6.016973e+001 8.927557e+001 6.863654e+001 1.019425e+002 4.305959e+001 6.171420e+001 7.077491e+001 7.264973e+001 5.538580e+001 9.333418e+001 2.975483e+001 6.389071e+000 5.211728e+000 5.052956e+000 5.508925e+000 7.299298e+000 5.404940e+000 6.076640e+000 4.854054e+000 5.530568e+000 4.194841e+000 6.684275e+000 3.062165e+000 5.029685e+000
<GCONST> 1.176035e+002
<STATE> 3
<MEAN> 25
 5.538169e+000 -3.681556e+000 9.608195e+000 -5.435560e+000 -3.155239e+000 -2.802605e+000 -3.800169e+000 -1.334514e-001 -5.179372e+000 9.203549e-001 1.104115e+000 -1.649230e+000 5.627889e-002 9.912935e-002 -6.432779e-003 -1.282032e-001 -1.363466e-001 1.044943e-001 -5.409952e-002 -5.521396e-002 -8.460252e-002 6.389401e-002 2.762520e-002 2.256838e-002 -1.194441e-001
<VARIANCE> 25
 7.461663e+001 7.260973e+001 8.387469e+001 3.721974e+001 1.296370e+002 3.585005e+001 8.319156e+001 9.983940e+001 6.105277e+001 5.717178e+001 5.785434e+001 2.420711e+001 5.902528e-001 1.063188e+000 1.102523e+000 1.266601e+000 1.578734e+000 1.468424e+000 2.287721e+000 1.852275e+000 1.688507e+000 1.874463e+000 1.692768e+000 1.257102e+000 6.682024e-001
<GCONST> 9.911868e+001
<STATE> 4
<MEAN> 25
 7.285452e+000 2.143889e+000 1.038854e+001 -3.613669e+000 -8.378628e+000 -3.720607e-001 -2.845892e-001 -1.523554e+000 -4.105702e+000 9.929655e-001 1.311823e+000 -1.793642e+000 -2.600036e-002 5.394007e-002 -5.979660e-001 2.988888e-001 2.461385e-001 7.469884e-002 3.248098e-001 -9.654559e-002 3.378915e-001 -8.134569e-003 -3.177140e-001 1.412671e-001 -7.026836e-001
<VARIANCE> 25
 6.779259e+001 4.495612e+001 1.002647e+002 6.779450e+001 1.171253e+002 6.900303e+001 4.656693e+001 7.965295e+001 3.821873e+001 3.710656e+001 3.539911e+001 2.848803e+001 1.962425e+000 3.064923e+000 3.726778e+000 3.518307e+000 7.272896e+000 4.519278e+000 4.260646e+000 4.636443e+000 2.883651e+000 3.324159e+000 3.081028e+000 2.749137e+000 2.403016e+000
<GCONST> 1.102998e+002
<TRANSP> 5
 0.000000e+000 1.000000e+000 0.000000e+000 0.000000e+000 0.000000e+000
 0.000000e+000 7.888728e-001 2.111273e-001 0.000000e+000 0.000000e+000
 0.000000e+000 0.000000e+000 8.290545e-001 1.709455e-001 0.000000e+000
 0.000000e+000 0.000000e+000 0.000000e+000 8.435366e-001 1.564634e-001
 0.000000e+000 0.000000e+000 0.000000e+000 0.000000e+000 0.000000e+000
<ENDHMM>
~h "jh"
<BEGINHMM>
<NUMSTATES> 5
<STATE> 2
<MEAN> 25
 -9.082327e+000 -3.130460e+000 -2.597260e+000 1.200037e+001 7.049381e+000 -4.460108e+000 5.084312e+000 1.354465e+000 7.313331e+000 -2.214945e+000 1.500099e+000 7.206114e-001 2.494885e+000 4.391901e-001 -2.829283e-001 -2.004003e+000 -1.007185e+000 2.788013e-001 -3.031835e-001 -7.481591e-002 -9.811351e-001 3.135479e-001 3.240530e-001 -4.354838e-001 5.159523e-001
<VARIANCE> 25
 1.701542e+002 5.887186e+001 3.563719e+001 1.141596e+002 4.422586e+001 3.189299e+001 3.287323e+001 3.110361e+001 5.341066e+001 3.115498e+001 5.071143e+001 3.476855e+001 1.394102e+001 3.092619e+000 2.769886e+000 1.100082e+001 7.030410e+000 5.568524e+000 5.642423e+000 5.467027e+000 1.345076e+001 5.148220e+000 7.111227e+000 3.901906e+000 2.357938e+000
<GCONST> 1.152392e+002
<STATE> 3
<MEAN> 25
 1.519407e+001 1.434583e+000 7.357169e+000 -1.129664e+001 -6.106870e+000 2.701752e+000 -3.271647e+000 3.080529e+000 -5.087069e+000 4.165537e+000 2.997993e+000 -2.387439e-001 -2.675695e-001 7.072776e-002 5.163683e-001 1.395341e-001 -2.805181e-001 1.317203e-002 2.700842e-001 -1.856744e-001 9.330135e-002 -6.420355e-002 -1.036187e-001 4.960905e-002 2.791250e-002
<VARIANCE> 25
 2.583074e+001 6.641869e+001 1.437968e+002 4.730861e+001 1.299532e+002 5.013940e+001 4.505304e+001 7.555459e+001 4.567468e+001 7.227532e+001 4.400908e+001 2.733765e+001 1.533879e+000 2.593683e+000 2.763776e+000 4.334252e+000 3.860328e+000 4.277926e+000 6.975340e+000 3.499233e+000 5.674461e+000 6.075284e+000 3.263286e+000 3.489591e+000 7.686836e-001
<GCONST> 1.099017e+002
<STATE> 4
<MEAN> 25
 -1.093501e+001 1.083093e+001 8.291979e+000 5.819651e+000 7.886167e-001 -6.473270e+000 7.279393e+000 1.333273e+000 3.757339e+000 -4.396080e+000 1.920754e+000 1.772494e+000 -2.153384e-001 -2.975644e-001 -5.495034e-001 1.624371e-001 5.067738e-001 5.787497e-002 -4.464671e-001 2.019428e-001 -7.906115e-002 2.982261e-002 -9.295611e-002 5.557847e-002 -4.952357e-001
<VARIANCE> 25
 1.258142e+002 3.887330e+001 1.734613e+002 4.908526e+001 1.742108e+002 6.491911e+001 3.241688e+001 3.611143e+001 6.309308e+001 3.379899e+001 4.398893e+001 6.183651e+001 5.516610e+000 5.313218e+000 4.510837e+000 4.096677e+000 3.675456e+000 3.909085e+000 3.105744e+000 5.171138e+000 8.254340e+000 3.459550e+000 7.612311e+000 5.929175e+000 9.210179e-001
<GCONST> 1.142789e+002
<TRANSP> 5
 0.000000e+000 1.000000e+000 0.000000e+000 0.000000e+000 0.000000e+000
 0.000000e+000 9.044614e-001 9.553856e-002 0.000000e+000 0.000000e+000
 0.000000e+000 0.000000e+000 9.688046e-001 3.119539e-002 0.000000e+000
 0.000000e+000 0.000000e+000 0.000000e+000 9.494361e-001 5.056398e-002
 0.000000e+000 0.000000e+000 0.000000e+000 0.000000e+000 0.000000e+000
<ENDHMM>
~h "ng"
<BEGINHMM>
<NUMSTATES> 5
<STATE> 2
<MEAN> 25
 8.932921e+000 -2.909605e+000 7.294202e+000 -6.081631e+000 -9.427876e+000 6.915905e+000 7.666281e-001 -1.008507e+001 -4.374410e-001 -3.397284e-001 -5.027457e+000 -2.239162e+000 2.039457e-001 1.471806e-001 -2.686982e-001 1.521158e-001 3.050797e-001 -4.502227e-002 -2.569067e-001 1.068919e-001 -2.194729e-001 -1.227344e-001 -2.103929e-001 -3.210470e-002 -4.664561e-001
<VARIANCE> 25
 6.859451e+001 3.153402e+001 4.716489e+001 3.686073e+001 8.354597e+001 6.446880e+001 5.358863e+001 6.398890e+001 3.057350e+001 4.361966e+001 5.362289e+001 1.310916e+001 3.583446e+000 3.671506e+000 2.616674e+000 3.183977e+000 5.021728e+000 4.520273e+000 4.281868e+000 6.156273e+000 2.960994e+000 3.293376e+000 4.328457e+000 1.495387e+000 2.137231e+000
<GCONST> 1.075653e+002
<STATE> 3
<MEAN> 25
 7.325964e+000 -1.602386e+000 6.753880e+000 -1.153556e-001 6.828830e+000 -1.686507e-001 -1.271261e+001 -9.747475e-001 -1.692475e+000 1.865639e+000 -1.318821e+000 -3.116096e+000 -2.377033e-001 4.492505e-001 -3.033132e-001 -1.018834e-001 -3.987119e-002 -7.359087e-002 1.726003e-001 2.352439e-001 7.231410e-002 3.049332e-001 1.004494e-001 -5.143739e-001 -4.992240e-001
<VARIANCE> 25
 2.818857e+001 3.032575e+001 3.437656e+001 2.027184e+001 7.546216e+001 2.259946e+001 1.354955e+002 3.354962e+001 3.406086e+001 2.032362e+001 2.362309e+001 1.990736e+001 5.253512e-001 1.527567e+000 1.296580e+000 1.704080e+000 3.000511e+000 1.693946e+000 4.406197e+000 2.606195e+000 1.819150e+000 2.130943e+000 1.680695e+000 1.740875e+000 4.006270e-001
<GCONST> 9.395451e+001
<STATE> 4
<MEAN> 25
 7.280001e+000 3.672671e+000 9.247931e+000 -1.243673e+000 -4.023320e+000 -4.340974e-001 -3.811166e+000 -8.891334e-001 -2.120180e+000 -1.706687e-001 -4.036600e-001 -3.030299e+000 -5.121408e-001 6.998138e-002 -3.414011e-001 4.513769e-001 5.238484e-001 1.500226e-001 3.765574e-001 1.313421e-001 1.323364e-001 -5.102265e-002 1.647345e-001 2.357529e-001 -6.109515e-001
<VARIANCE> 25
 2.434086e+001 6.350903e+001 7.248337e+001 6.319820e+001 9.949217e+001 2.035331e+001 2.660889e+001 2.848531e+001 2.659702e+001 1.824648e+001 2.660580e+001 2.136612e+001 8.919967e-001 1.044977e+000 1.313391e+000 1.915435e+000 2.522960e+000 1.190817e+000 2.244488e+000 1.955377e+000 1.786720e+000 1.059868e+000 1.361317e+000 1.714142e+000 4.039989e-001
<GCONST> 9.250250e+001
<TRANSP> 5
 0.000000e+000 1.000000e+000 0.000000e+000 0.000000e+000 0.000000e+000
 0.000000e+000 8.493279e-001 1.506721e-001 0.000000e+000 0.000000e+000
 0.000000e+000 0.000000e+000 6.652368e-001 3.347632e-001 0.000000e+000
 0.000000e+000 0.000000e+000 0.000000e+000 7.907357e-001 2.092642e-001
 0.000000e+000 0.000000e+000 0.000000e+000 0.000000e+000 0.000000e+000
<ENDHMM>
~h "ow"
<BEGINHMM>
<NUMSTATES> 5
<STATE> 2
<MEAN> 25
 1.194787e+001 5.008510e+000 -1.161690e-001 -2.827140e+000 1.831075e-001 -3.128170e+000 -3.462277e+000 -2.826262e+000 -1.625664e+000 7.031640e-001 5.991374e-001 9.061023e-001 -1.577294e-001 -3.573063e-001 2.081113e-001 4.129893e-001 -5.212538e-001 -1.246812e-001 3.083414e-001 7.097633e-001 -5.324245e-002 -6.509290e-002 -1.973716e-001 1.908761e-001 -6.008252e-001
<VARIANCE> 25
 4.001357e+001 4.054535e+001 2.384827e+001 5.547049e+001 3.143794e+001 3.543188e+001 3.120573e+001 5.036667e+001 3.523975e+001 2.878638e+001 3.651112e+001 3.229510e+001 1.034050e+000 1.071077e+000 1.352623e+000 3.258261e+000 2.939949e+000 2.834587e+000 2.771761e+000 3.215172e+000 3.000684e+000 2.521124e+000 2.393916e+000 2.179845e+000 6.855149e-001
<GCONST> 9.808748e+001
<STATE> 3
<MEAN> 25
 5.330373e+000 -1.986678e+000 3.007939e-001 -3.148418e+000 -1.748214e+000 -3.029244e+000 -1.343230e+000 5.090635e+000 2.299177e+000 1.833379e+000 -1.992989e+000 2.175155e-001 -4.254954e-001 -1.349330e-001 -1.986124e-001 2.819501e-001 3.784814e-001 5.127817e-001 4.457046e-001 2.561615e-001 -3.375791e-002 1.365390e-001 2.350413e-001 -3.233477e-001 -4.030791e-001
<VARIANCE> 25
 4.681026e+001 3.247578e+001 2.480739e+001 4.391902e+001 2.424816e+001 3.227484e+001 2.182362e+001 2.434125e+001 4.997957e+001 3.485111e+001 2.930462e+001 2.953063e+001 5.065680e-001 8.411644e-001 8.879520e-001 1.405888e+000 1.584466e+000 1.784639e+000 1.359280e+000 1.828232e+000 1.970402e+000 2.065476e+000 1.765883e+000 1.568573e+000 3.835803e-001
<GCONST> 9.021342e+001
<STATE> 4
<MEAN> 25
 5.058793e+000 -2.817719e+000 -3.396892e+000 -3.377252e-001 3.983149e+000 9.290495e-001 1.070076e+000 3.145348e+000 9.102073e-001 -4.410752e-001 -5.290213e+000 -1.451688e+000 -5.662382e-001 4.821204e-002 -9.691478e-003 2.926533e-001 1.877160e-001 3.631363e-001 8.494405e-002 -2.680133e-001 -3.392276e-001 4.442103e-002 2.014731e-001 9.034122e-002 -9.804972e-001
<VARIANCE> 25
 3.963741e+001 3.451321e+001 2.796244e+001 4.872983e+001 4.108545e+001 3.843388e+001 3.761996e+001 4.533598e+001 5.161504e+001 3.674649e+001 4.359438e+001 2.674268e+001 1.347241e+000 1.403486e+000 1.728236e+000 2.766613e+000 3.257558e+000 2.734003e+000 2.112531e+000 2.255748e+000 2.617537e+000 2.483915e+000 2.660880e+000 1.934860e+000 8.773789e-001
<GCONST> 9.913027e+001
<TRANSP> 5
 0.000000e+000 1.000000e+000 0.000000e+000 0.000000e+000 0.000000e+000
 0.000000e+000 7.219550e-001 2.780451e-001 0.000000e+000 0.000000e+000
 0.000000e+000 0.000000e+000 7.376593e-001 2.623406e-001 0.000000e+000
 0.000000e+000 0.000000e+000 0.000000e+000 8.435254e-001 1.564747e-001
 0.000000e+000 0.000000e+000 0.000000e+000 0.000000e+000 0.000000e+000
<ENDHMM>
~h "oy"
<BEGINHMM>
<NUMSTATES> 5
<STATE> 2
<MEAN> 25
 1.005430e+001 7.529392e+000 5.911774e+000 -9.030330e-001 -6.196588e+000 -1.244501e+001 1.232689e+000 1.577729e+000 5.007101e+000 -2.272613e+000 -2.357817e+000 7.526573e-001 2.596210e+000 -1.539902e+000 5.564144e-001 -1.936011e+000 -3.029201e+000 5.780575e-001 2.557189e+000 1.099968e-001 -3.874427e+000 1.604783e+000 1.552158e+000 1.150234e-001 1.249403e+000
<VARIANCE> 25
 2.911047e+001 4.113022e+001 1.770172e+002 5.043372e+001 6.202665e+001 9.647740e+001 8.500129e+000 2.460999e+001 1.369751e+001 3.462086e+001 1.576980e+001 8.477885e+000 7.325560e+000 3.653614e+000 3.086724e+000 4.158702e+000 8.970974e+000 5.005297e+000 6.405884e-001 3.011474e+000 6.067545e+000 6.283656e+000 2.314912e+000 4.157514e+000 4.188339e+000
<GCONST> 1.048675e+002
<STATE> 3
<MEAN> 25
 1.282973e+001 4.126754e+000 8.140278e+000 -3.945958e+000 -1.032953e+001 -6.473096e+000 6.382042e+000 1.484108e+000 -2.514096e+000 1.310070e+000 1.698782e+000 -5.278599e-001 7.911583e-001 -1.666360e+000 3.361403e-001 -8.073497e-001 -4.993531e-001 8.829259e-001 2.391154e+000 5.063750e-001 -2.247345e+000 1.474059e+000 1.277237e+000 -3.787868e-001 3.209002e-001
<VARIANCE> 25
 2.339152e+001 7.728189e+001 1.639106e+002 2.687151e+001 1.428074e+002 7.886960e+001 8.454655e+000 2.223407e+001 3.562687e+001 9.681384e+001 1.596924e+001 4.695546e+001 6.371602e-001 1.504144e+000 7.330764e+000 9.790850e+000 5.648219e+000 3.875533e+000 3.035229e+000 1.684110e+000 3.973022e+000 3.291474e+000 6.624712e+000 9.236395e+000 1.810598e+000
<GCONST> 1.073956e+002
<STATE> 4
<MEAN> 25
 1.352241e+001 6.993677e+000 3.268254e-001 -1.484645e+000 -3.569523e+000 1.018344e+000 2.803906e-001 -1.447418e+000 1.626872e-002 3.557337e+000 2.974406e+000 -1.962586e+000 -5.436834e-001 -2.566989e-001 -7.126454e-001 -1.543676e-002 8.876290e-001 2.443384e-001 -4.475294e-001 -3.855867e-001 3.520096e-001 -2.012927e-002 -3.895679e-001 3.379244e-002 -4.313008e-001
<VARIANCE> 25
 5.302765e+001 3.927523e+001 4.942197e+001 8.038735e+001 8.620567e+001 6.324321e+001 7.641448e+001 3.921550e+001 4.077940e+001 7.439014e+001 5.736648e+001 7.198466e+001 9.251128e-001 2.370241e+000 4.530674e+000 5.311942e+000 3.736020e+000 3.881520e+000 7.761466e+000 5.158326e+000 7.698118e+000 7.942900e+000 5.779392e+000 8.875584e+000 1.208713e+000
<GCONST> 1.133984e+002
<TRANSP> 5
 0.000000e+000 1.000000e+000 0.000000e+000 0.000000e+000 0.000000e+000
 0.000000e+000 3.702695e-001 6.297306e-001 0.000000e+000 0.000000e+000
 0.000000e+000 0.000000e+000 2.834077e-001 7.165923e-001 0.000000e+000
 0.000000e+000 0.000000e+000 0.000000e+000 9.395342e-001 6.046576e-002
 0.000000e+000 0.000000e+000 0.000000e+000 0.000000e+000 0.000000e+000
<ENDHMM>
~h "sh"
<BEGINHMM>
<NUMSTATES> 5
<STATE> 2
<MEAN> 25
 -1.302908e+000 1.610178e-001 -1.730312e+000 1.489380e+000 2.856352e+000 3.639795e+000 2.048968e-001 -6.218793e-001 -2.214583e+000 7.065070e-002 -7.367193e-001 1.303514e+000 3.244049e-002 9.828321e-002 -2.402754e-001 -2.652102e-002 -4.960997e-002 2.988591e-002 -1.589920e-001 -1.396335e-001 2.953266e-003 3.814748e-002 -4.587286e-002 -1.967629e-002 -2.199600e-001
<VARIANCE> 25
 3.457985e+001 1.550643e+001 2.716458e+001 2.511047e+001 2.433389e+001 2.682644e+001 2.161645e+001 2.096570e+001 2.750225e+001 2.140010e+001 1.717204e+001 1.560029e+001 3.040871e-001 1.021176e+000 1.380268e+000 1.307485e+000 2.035136e+000 1.865413e+000 1.968663e+000 2.491870e+000 2.177739e+000 1.821905e+000 1.537063e+000 1.830976e+000 2.479213e-001
<GCONST> 8.668607e+001
<STATE> 3
<MEAN> 25
 -2.585640e+000 4.204887e-001 -1.942072e+000 2.737934e+000 1.636114e+000 2.895394e+000 -2.737559e+000 -2.960432e+000 -1.889199e+000 -2.099319e+000 -1.326689e-001 2.893766e-001 7.871415e-003 3.361609e-002 8.655786e-003 1.075210e-003 4.884946e-002 2.192790e-002 2.308061e-002 1.138942e-002 -1.323015e-002 -1.792093e-002 1.718513e-002 1.524544e-002 -4.931348e-003
<VARIANCE> 25
 1.739103e+001 7.146189e+000 1.282719e+001 8.284957e+000 1.202821e+001 8.603608e+000 7.351820e+000 1.169087e+001 9.162955e+000 8.977912e+000 7.264048e+000 7.939486e+000 6.766374e-002 1.832383e-001 2.759403e-001 3.708855e-001 5.708147e-001 5.896915e-001 6.636508e-001 7.830813e-001 6.717758e-001 6.133692e-001 6.464985e-001 6.220585e-001 3.239955e-002
<GCONST> 5.935328e+001
<STATE> 4
<MEAN> 25
 2.851269e+000 3.678557e+000 1.627195e+000 1.821665e+000 6.178138e+000 2.073351e+000 -2.881160e+000 -2.743093e-001 -3.604149e+000 -9.544722e-002 5.383475e-001 1.031435e+000 1.934786e-002 6.248267e-002 3.920773e-002 -1.564893e-002 4.034845e-002 -3.959964e-003 6.085005e-002 4.200484e-002 4.584759e-003 9.527189e-002 2.738532e-002 -2.459593e-002 3.079336e-002
<VARIANCE> 25
 8.033799e+000 2.369847e+001 1.982378e+001 1.425807e+001 1.546246e+001 2.038794e+001 1.641109e+001 1.735159e+001 2.163189e+001 1.335745e+001 9.530136e+000 1.276671e+001 5.765557e-001 2.051525e+000 1.791721e+000 1.659423e+000 1.542112e+000 2.597723e+000 1.996822e+000 1.687535e+000 2.300745e+000 1.301853e+000 1.164212e+000 1.403671e+000 7.237052e-001
<GCONST> 8.383769e+001
<TRANSP> 5
 0.000000e+000 1.000000e+000 0.000000e+000 0.000000e+000 0.000000e+000
 0.000000e+000 9.466844e-001 5.331562e-002 0.000000e+000 0.000000e+000
 0.000000e+000 0.000000e+000 9.691244e-001 3.087559e-002 0.000000e+000
 0.000000e+000 0.000000e+000 0.000000e+000 9.469858e-001 5.301412e-002
 0.000000e+000 0.000000e+000 0.000000e+000 0.000000e+000 0.000000e+000
<ENDHMM>
~h "sp"
<BEGINHMM>
<NUMSTATES> 3
<STATE> 2
~s "silst"
<TRANSP> 3
 0.000000e+000 6.773104e-002 9.322690e-001
 0.000000e+000 9.506456e-001 4.935434e-002
 0.000000e+000 0.000000e+000 0.000000e+000
<ENDHMM>
~h "th"
<BEGINHMM>
<NUMSTATES> 5
<STATE> 2
<MEAN> 25
 9.747950e+000 5.408262e-001 5.653071e+000 5.254448e+000 -6.335329e+000 -2.944398e+000 1.697717e+000 3.700648e-001 -2.278582e+000 -5.981620e+000 2.698122e+000 -5.002214e+000 -1.425313e-001 1.401194e-001 -7.911668e-002 1.914315e-001 3.129772e-001 2.514530e-001 1.110693e-001 -3.659628e-001 -1.260154e-002 -2.822778e-001 -1.577556e-001 9.617720e-002 -3.443370e-001
<VARIANCE> 25
 3.389260e+001 8.382842e+001 6.439301e+001 3.721820e+001 4.111223e+001 5.698936e+001 6.543983e+001 2.053734e+002 2.697618e+001 4.827621e+001 8.410636e+001 4.861468e+001 2.389179e+000 1.667676e+000 2.463286e+000 2.692071e+000 3.304705e+000 3.163217e+000 4.015190e+000 4.620571e+000 2.180826e+000 3.019282e+000 5.988108e+000 2.915451e+000 4.301674e+000
<GCONST> 1.091790e+002
<STATE> 3
<MEAN> 25
 -2.411304e+000 -4.975463e+000 4.290465e+000 4.226613e+000 2.546259e+000 3.319293e+000 -3.302790e+000 -4.897763e+000 -1.045405e-001 -5.758669e+000 -9.165646e-001 -3.790588e+000 6.374556e-002 -5.906431e-001 -4.400901e-001 -1.473325e-001 9.467953e-002 -2.087172e-001 -3.398881e-001 5.604730e-001 4.196693e-001 3.197604e-001 3.352374e-001 2.560356e-001 -3.288035e-002
<VARIANCE> 25
 9.447807e+001 7.110030e+001 4.621666e+001 4.899812e+001 1.480397e+002 7.671732e+001 5.882291e+001 9.584354e+001 1.241074e+002 7.468676e+001 8.682643e+001 4.387814e+001 8.128848e+000 4.134624e+000 4.080542e+000 3.140420e+000 5.314460e+000 4.499614e+000 6.978418e+000 6.383513e+000 7.384949e+000 4.813141e+000 4.651228e+000 4.436669e+000 3.044314e+000
<GCONST> 1.185866e+002
<STATE> 4
<MEAN> 25
 7.750249e+000 -1.201277e+001 2.775753e+000 3.048520e+000 -1.980210e+000 2.907992e+000 -3.917304e+000 6.726811e+000 3.563486e+000 -1.756740e+000 2.706636e-001 2.116683e+000 -5.347306e-001 -3.683818e-001 6.016318e-001 -5.779713e-001 -2.215901e-001 -1.313656e-002 1.109835e+000 6.161698e-001 -4.428438e-001 4.728337e-001 1.851180e-001 1.817584e-001 1.674320e-001
<VARIANCE> 25
 7.018002e+001 1.327049e+002 8.039700e+001 3.904018e+001 4.854196e+001 1.079358e+002 4.881827e+001 1.606799e+002 4.795531e+001 3.437599e+001 2.023812e+001 2.522238e+001 1.268353e+000 3.624487e+000 1.911420e+000 2.394520e+000 3.539082e+000 3.732805e+000 2.133322e+000 3.937135e+000 3.689806e+000 2.145821e+000 1.721339e+000 9.952716e-001 1.325882e+000
<GCONST> 1.049573e+002
<TRANSP> 5
 0.000000e+000 1.000000e+000 0.000000e+000 0.000000e+000 0.000000e+000
 0.000000e+000 8.972152e-001 1.027848e-001 0.000000e+000 0.000000e+000
 0.000000e+000 0.000000e+000 7.997791e-001 2.002209e-001 0.000000e+000
 0.000000e+000 0.000000e+000 0.000000e+000 5.951455e-001 4.048545e-001
 0.000000e+000 0.000000e+000 0.000000e+000 0.000000e+000 0.000000e+000
<ENDHMM>
~h "uh"
<BEGINHMM>
<NUMSTATES> 5
<STATE> 2
<MEAN> 25
 -6.569653e+000 -1.649734e+000 -1.131966e+000 2.272546e+000 5.331321e-001 9.666598e-001 -4.607676e-001 -1.487742e+000 -6.643246e-001 -1.564151e+000 3.472674e-001 7.350464e-001 -1.784081e-002 -2.752264e-003 -1.573361e-002 1.925241e-002 1.877216e-002 1.713646e-002 1.494495e-002 -5.206231e-003 -2.515411e-002 1.052690e-002 -2.626260e-004 5.329620e-003 -1.405193e-002
<VARIANCE> 25
 1.849039e+001 4.618942e+000 7.605226e+000 1.029150e+001 1.038842e+001 1.082571e+001 8.937638e+000 1.168716e+001 1.123914e+001 1.403212e+001 1.014580e+001 9.441838e+000 7.662297e-002 1.658840e-001 2.633923e-001 4.096437e-001 5.059287e-001 6.901981e-001 7.055458e-001 8.477168e-001 7.653975e-001 8.300521e-001 7.916133e-001 7.545624e-001 3.241949e-002
<GCONST> 6.119289e+001
<STATE> 3
<MEAN> 25
