~o
<STREAMINFO> 1 25
<VECSIZE> 25<NULLD><MFCC_D_N_Z_0><DIAGC>
~s "silst"
<MEAN> 25
 -1.260542e+001 5.055133e+000 -7.847778e+000 5.174063e+000 -2.193083e+000 3.009795e+000 4.049209e+000 -1.630949e+000 4.316811e+000 1.863322e+000 3.742384e+000 1.965635e+000 -1.456462e-002 2.007160e-002 -3.218063e-002 2.069751e-003 7.552936e-003 8.324452e-003 1.771269e-002 -1.941838e-002 7.443930e-003 -1.021567e-002 -1.015465e-002 4.174198e-003 -2.932606e-002
<VARIANCE> 25
 8.489915e+001 7.761909e+000 1.018919e+001 7.241562e+000 9.986512e+000 1.680588e+001 2.232405e+001 2.247750e+001 1.512770e+001 1.570820e+001 9.577584e+000 9.636201e+000 7.428937e-002 1.482782e-001 2.746208e-001 4.146241e-001 6.038260e-001 5.792965e-001 7.900136e-001 1.026930e+000 9.472133e-001 7.459497e-001 7.461483e-001 7.272030e-001 4.897465e-002
<GCONST> 6.615968e+001
~h "b"
<BEGINHMM>
<NUMSTATES> 5
<STATE> 2
<MEAN> 25
 1.196449e+001 1.985116e+000 4.215792e-001 -5.056231e+000 9.215550e-001 -1.494316e-001 -4.773846e+000 -2.345902e+000 3.256714e+000 1.133667e+000 -1.243032e+000 -2.971959e+000 -7.348280e-002 -1.173553e+000 -3.645467e-001 -4.045422e-001 -4.250420e-001 -5.541325e-001 -2.307311e-001 3.415928e-001 1.021509e+000 -1.543598e-002 8.360460e-002 -7.407624e-002 1.314284e+000
<VARIANCE> 25
 3.974311e+001 7.505006e+001 5.015575e+001 3.464436e+001 4.136565e+001 5.819926e+001 3.950948e+001 5.134162e+001 1.101356e+002 5.464577e+001 7.646448e+001 3.866611e+001 4.154237e+000 5.750197e+000 5.017295e+000 4.614508e+000 4.291630e+000 4.816109e+000 6.167396e+000 7.295036e+000 1.001575e+001 6.098741e+000 9.736744e+000 4.409966e+000 7.640980e+000
<GCONST> 1.165596e+002
<STATE> 3
<MEAN> 25
 -7.500099e-001 -2.861869e+000 9.403234e+000 -1.071707e-001 -7.562882e-001 -4.565061e+000 1.335687e+000 1.872616e+000 -1.018720e+000 -1.330050e+000 5.973769e-001 8.091390e-001 -1.528194e-001 -2.133073e-002 2.269876e-001 8.370594e-002 -3.341722e-001 -1.657104e-001 6.362565e-002 2.696686e-001 -3.279343e-001 -2.029543e-001 1.120160e-001 -1.901351e-002 -5.465218e-002
<VARIANCE> 25
 1.010086e+002 1.005058e+002 9.521258e+001 7.495782e+001 1.533136e+002 7.382275e+001 1.104468e+002 8.097533e+001 1.501060e+002 4.784451e+001 4.361435e+001 3.110698e+001 6.075125e+000 4.720747e+000 5.815189e+000 4.064109e+000 7.923026e+000 5.477655e+000 8.067995e+000 6.567639e+000 6.609802e+000 5.518938e+000 5.046587e+000 3.047498e+000 1.835537e+000
<GCONST> 1.197668e+002
<STATE> 4
<MEAN> 25
 7.670652e+000 -3.454589e+000 7.141637e+000 -4.349441e+000 -3.374539e+000 -3.847440e+000 -4.306294e+000 2.826907e+000 -1.101337e+000 -5.236782e-001 2.737541e-001 -1.677870e+000 -1.476411e-002 4.769272e-001 9.447496e-002 2.765899e-001 2.140224e-001 8.375570e-002 3.242688e-002 -2.640060e-001 -4.038229e-001 2.050521e-001 2.086082e-001 1.259918e-001 -7.256718e-001
<VARIANCE> 25
 4.325525e+001 3.457378e+001 7.316048e+001 4.885122e+001 1.066474e+002 3.762758e+001 6.087992e+001 5.881039e+001 5.310746e+001 5.452541e+001 5.760405e+001 2.529434e+001 1.318939e+000 1.810889e+000 3.384444e+000 2.343805e+000 3.707185e+000 2.770632e+000 2.760678e+000 3.528936e+000 3.076082e+000 3.028591e+000 3.103315e+000 1.740799e+000 1.491716e+000
<GCONST> 1.050401e+002
<TRANSP> 5
 0.000000e+000 1.000000e+000 0.000000e+000 0.000000e+000 0.000000e+000
 0.000000e+000 8.137741e-001 1.862258e-001 0.000000e+000 0.000000e+000
 0.000000e+000 0.000000e+000 8.357828e-001 1.642172e-001 0.000000e+000
 0.000000e+000 0.000000e+000 0.000000e+000 9.047474e-001 9.525261e-002
 0.000000e+000 0.000000e+000 0.000000e+000 0.000000e+000 0.000000e+000
<ENDHMM>
~h "d"
<BEGINHMM>
<NUMSTATES> 5
<STATE> 2
<MEAN> 25
 -5.906807e+000 -1.937404e+000 -1.720191e+000 2.164021e+000 7.148471e-001 1.606573e+000 -9.371769e-001 -1.748762e+000 -3.500869e-001 -1.130050e+000 7.139206e-002 3.551121e-001 -2.475050e-002 5.735971e-003 -6.062648e-003 1.690680e-002 -1.244602e-002 1.709591e-002 2.101526e-003 -4.221806e-002 -1.982149e-002 -2.256012e-002 1.080543e-002 -6.308258e-003 -1.873788e-002
<VARIANCE> 25
 1.433068e+001 5.864509e+000 9.331670e+000 1.152624e+001 1.006107e+001 1.162325e+001 1.052797e+001 1.277177e+001 1.306700e+001 1.451770e+001 1.085159e+001 9.788060e+000 9.501850e-002 1.790808e-001 2.921867e-001 4.563271e-001 5.420134e-001 7.199779e-001 7.907767e-001 8.828615e-001 9.141052e-001 8.749194e-001 8.879613e-001 8.415355e-001 4.664187e-002
<GCONST> 6.366130e+001
<STATE> 3
<MEAN> 25
 7.768216e-001 1.601744e+000 1.704874e+000 3.404147e+000 3.950823e+000 2.261353e+000 -5.934796e-001 4.474037e-001 -2.242537e+000 -3.435149e-001 1.126658e+000 9.032480e-001 4.466484e-002 5.480348e-002 5.872384e-002 1.902224e-002 5.663901e-002 4.968033e-002 6.197378e-002 8.350567e-003 -4.223153e-002 2.964267e-003 -2.708278e-003 -4.634195e-003 3.808809e-002
<VARIANCE> 25
 1.633798e+001 9.177660e+000 1.233332e+001 1.125962e+001 1.669447e+001 1.890394e+001 2.026480e+001 1.798388e+001 2.773034e+001 1.562919e+001 1.338399e+001 1.238443e+001 3.649159e-001 7.886955e-001 8.748625e-001 9.314055e-001 1.256758e+000 1.159668e+000 1.397312e+000 1.422015e+000 1.650453e+000 1.446712e+000 1.208262e+000 1.141795e+000 2.052953e-001
<GCONST> 7.794760e+001
<STATE> 4
<MEAN> 25
 6.217995e+000 6.281367e+000 3.628189e+000 1.570614e+000 3.907867e+000 -1.680041e+000 -2.766151e+000 -7.478003e-003 -4.560455e+000 4.197207e-001 1.782371e-001 -4.288218e-001 5.692358e-001 2.539819e-001 2.856506e-001 -3.033117e-001 1.241985e-001 -1.705289e-001 -1.613012e-001 1.817142e-001 -2.256408e-001 5.908700e-002 -1.340025e-001 -1.073004e-001 6.182563e-001
<VARIANCE> 25
 5.169592e+001 3.882958e+001 2.902197e+001 2.956256e+001 3.654203e+001 4.224720e+001 3.817297e+001 4.287234e+001 4.082147e+001 2.020843e+001 2.069064e+001 2.138186e+001 3.795333e+000 3.989786e+000 3.087465e+000 3.285739e+000 3.477904e+000 3.492755e+000 3.348220e+000 3.995499e+000 3.246554e+000 2.384704e+000 2.235357e+000 2.081300e+000 4.143458e+000
<GCONST> 1.029867e+002
<TRANSP> 5
 0.000000e+000 1.000000e+000 0.000000e+000 0.000000e+000 0.000000e+000
 0.000000e+000 9.220887e-001 7.791124e-002 0.000000e+000 0.000000e+000
 0.000000e+000 0.000000e+000 8.757108e-001 1.242892e-001 0.000000e+000
 0.000000e+000 0.000000e+000 0.000000e+000 8.265679e-001 1.734320e-001
 0.000000e+000 0.000000e+000 0.000000e+000 0.000000e+000 0.000000e+000
<ENDHMM>
~h "f"
<BEGINHMM>
<NUMSTATES> 5
<STATE> 2
<MEAN> 25
 3.960224e+000 1.952102e-001 3.106798e+000 7.230676e-001 2.653790e+000 -1.971878e+000 -1.856091e+000 1.409696e+000 -2.138134e+000 1.636677e+000 9.316348e-001 -5.980182e-001 -7.057517e-001 -6.388029e-001 -3.750298e-001 -4.069298e-001 -3.975676e-002 -1.879538e-001 2.294587e-001 -3.200648e-002 1.898477e-001 3.843756e-001 2.430330e-001 7.655130e-002 5.738100e-001
<VARIANCE> 25
 4.403675e+001 5.183492e+001 6.501082e+001 5.983432e+001 5.147991e+001 7.683319e+001 3.454234e+001 4.113280e+001 4.650128e+001 3.025829e+001 2.419489e+001 2.313932e+001 4.267525e+000 5.878714e+000 6.050731e+000 6.413270e+000 5.056433e+000 6.499012e+000 3.461414e+000 4.701366e+000 5.116959e+000 3.610447e+000 2.812215e+000 2.249334e+000 5.142759e+000
<GCONST> 1.106262e+002
<STATE> 3
<MEAN> 25
 -1.516358e+000 -2.583633e+000 -1.655066e+000 -2.590380e-001 7.713549e-001 -9.297466e-001 1.187094e+000 1.099350e+000 1.245179e+000 1.897324e+000 4.733300e-001 1.928066e-002 -2.572336e-001 -2.971411e-001 -1.090835e-001 4.136054e-002 -2.742233e-002 1.033713e-001 2.440525e-001 1.295107e-001 7.608806e-002 4.585433e-002 3.179882e-002 -8.866493e-002 -8.653792e-002
<VARIANCE> 25
 3.073231e+001 3.244902e+001 5.194317e+001 5.674632e+001 3.510229e+001 3.812410e+001 3.085921e+001 2.283943e+001 3.607894e+001 3.412529e+001 2.543254e+001 1.906149e+001 1.392570e+000 1.121228e+000 1.285524e+000 1.226408e+000 1.816317e+000 2.336957e+000 1.820678e+000 1.938067e+000 2.134226e+000 1.789563e+000 1.490276e+000 1.513929e+000 7.981517e-001
<GCONST> 9.343282e+001
<STATE> 4
<MEAN> 25
 4.409566e+000 -4.899469e+000 -3.060374e+000 -2.242516e+000 1.257948e+000 -3.230930e+000 -7.209908e-001 1.499721e+000 3.557361e+000 1.942929e+000 -8.040715e-001 -2.176402e+000 1.792754e+000 2.145339e-001 -1.471010e-001 -2.721784e-001 -6.083598e-001 -5.908452e-001 -5.500118e-001 -1.500031e-002 5.874098e-001 -2.522632e-001 -5.667911e-001 -4.189983e-001 1.247067e+000
<VARIANCE> 25
 7.796658e+001 4.238129e+001 4.529140e+001 5.501583e+001 3.609600e+001 4.911477e+001 5.336058e+001 3.269152e+001 5.674460e+001 4.285822e+001 4.216637e+001 2.748559e+001 7.953373e+000 5.616715e+000 3.524535e+000 5.724978e+000 4.420131e+000 5.919773e+000 5.740194e+000 4.403961e+000 5.546359e+000 4.355424e+000 3.698189e+000 2.428079e+000 6.811752e+000
<GCONST> 1.122635e+002
<TRANSP> 5
 0.000000e+000 1.000000e+000 0.000000e+000 0.000000e+000 0.000000e+000
 0.000000e+000 7.217051e-001 2.782949e-001 0.000000e+000 0.000000e+000
 0.000000e+000 0.000000e+000 8.091801e-001 1.908199e-001 0.000000e+000
 0.000000e+000 0.000000e+000 0.000000e+000 7.800357e-001 2.199642e-001
 0.000000e+000 0.000000e+000 0.000000e+000 0.000000e+000 0.000000e+000
<ENDHMM>
~h "g"
<BEGINHMM>
<NUMSTATES> 5
<STATE> 2
<MEAN> 25
 -2.342982e+001 5.136038e+000 -6.962103e+000 4.877202e+000 -1.611012e+000 6.443597e+000 5.537874e-001 3.760661e+000 3.643939e+000 4.790300e+000 5.047571e+000 3.001731e+000 -5.954635e-003 -5.811328e-003 -1.996340e-002 -2.188964e-002 -1.011541e-002 -1.323904e-003 -1.017252e-002 -2.077660e-002 -1.970444e-002 -4.155823e-002 -1.759247e-002 -4.317973e-003 -3.775680e-003
<VARIANCE> 25
 1.546856e+001 5.755592e+000 9.459113e+000 6.725236e+000 1.261521e+001 1.290901e+001 1.007282e+001 1.622429e+001 1.991426e+001 1.399632e+001 9.925179e+000 7.619510e+000 5.208161e-002 1.495030e-001 2.266214e-001 3.883729e-001 6.207663e-001 6.111797e-001 1.075748e+000 1.321349e+000 1.155713e+000 9.028366e-001 8.378804e-001 8.054885e-001 2.535352e-002
<GCONST> 6.280529e+001
<STATE> 3
<MEAN> 25
 -7.384391e+000 4.199744e+000 -8.445343e+000 4.318599e+000 -3.552446e+000 1.566222e+000 5.634680e+000 -2.753018e+000 5.271445e+000 -5.150742e-003 3.450729e+000 1.424746e+000 -2.234625e-003 -2.180004e-002 -1.062503e-002 -2.216805e-002 -1.761962e-002 -1.600135e-002 2.870899e-002 -3.701150e-002 -3.064170e-002 -1.027323e-002 -1.398276e-003 4.716826e-003 1.147858e-002
<VARIANCE> 25
 1.542992e+001 4.765893e+000 9.334230e+000 9.591055e+000 8.462176e+000 1.156490e+001 1.269300e+001 1.350163e+001 1.256825e+001 9.838199e+000 8.002623e+000 7.700834e+000 1.186341e-001 2.252358e-001 4.182456e-001 6.389558e-001 6.881959e-001 6.692634e-001 8.640599e-001 9.932802e-001 1.089067e+000 8.062091e-001 7.063789e-001 8.064566e-001 1.168173e-001
<GCONST> 6.469524e+001
<STATE> 4
<MEAN> 25
 -7.769149e+000 2.621903e+000 -4.681551e+000 4.107175e+000 -9.966985e-001 2.152698e+000 1.998206e+000 -1.986337e+000 2.232644e+000 1.046565e+000 1.731466e+000 1.654578e-001 -2.663650e-002 3.617612e-003 -2.789079e-003 -5.606451e-002 -4.196523e-002 -1.133764e-002 7.262186e-002 2.521598e-002 -8.418883e-002 2.698855e-002 -1.476192e-002 -1.036388e-003 -1.436450e-002
<VARIANCE> 25
 2.796078e+001 4.665572e+000 6.733244e+000 1.021009e+001 8.839699e+000 1.416567e+001 1.691306e+001 1.463820e+001 1.493187e+001 1.046134e+001 1.232005e+001 9.494376e+000 9.363013e-002 1.641795e-001 3.572205e-001 5.847386e-001 5.587714e-001 5.685316e-001 8.873867e-001 8.554390e-001 8.868680e-001 8.405741e-001 7.268658e-001 7.251054e-001 5.435395e-002
<GCONST> 6.419334e+001
<TRANSP> 5
 0.000000e+000 1.000000e+000 0.000000e+000 0.000000e+000 0.000000e+000
 0.000000e+000 9.630229e-001 3.697709e-002 0.000000e+000 0.000000e+000
 0.000000e+000 0.000000e+000 9.003319e-001 9.966811e-002 0.000000e+000
 0.000000e+000 0.000000e+000 0.000000e+000 8.077530e-001 1.922470e-001
 0.000000e+000 0.000000e+000 0.000000e+000 0.000000e+000 0.000000e+000
<ENDHMM>
~h "k"
<BEGINHMM>
<NUMSTATES> 5
<STATE> 2
<MEAN> 25
 4.827879e+000 -4.184979e-001 1.170305e+000 -1.134724e+000 2.295969e+000 -9.249818e-001 6.424189e-001 -1.822450e+000 5.005713e-001 -2.486155e+000 4.618051e-001 -2.015515e+000 5.438557e-001 -8.872439e-001 1.667106e-001 -9.145379e-002 4.853384e-001 3.084696e-001 -9.384846e-001 -5.918481e-001 2.455037e-001 4.914463e-003 -2.323788e-001 -3.989924e-001 1.083657e+000
<VARIANCE> 25
 6.938197e+001 7.217513e+001 1.074826e+002 7.558121e+001 1.086048e+002 6.248309e+001 9.038338e+001 8.282959e+001 9.549684e+001 6.354768e+001 7.532644e+001 3.288148e+001 2.536614e+000 5.882363e+000 5.372279e+000 4.544872e+000 8.090551e+000 5.046586e+000 8.094231e+000 7.994274e+000 9.355646e+000 6.978590e+000 6.240871e+000 3.498087e+000 5.175900e+000
<GCONST> 1.204208e+002
<STATE> 3
<MEAN> 25
 7.438439e+000 -7.460879e+000 1.210086e+000 -3.505856e-001 5.033097e+000 1.467176e+000 -2.953848e+000 -3.393449e+000 2.407835e+000 -6.321301e+000 -4.494919e+000 -1.841331e+000 -1.387387e-001 -2.692969e-002 -9.750394e-002 -4.406967e-005 4.451357e-001 -1.123198e-001 -4.666825e-002 3.162053e-001 7.834832e-002 -3.616986e-002 -1.607119e-001 3.168441e-001 2.026700e-001
<VARIANCE> 25
 3.836213e+001 6.986532e+001 7.314279e+001 3.845704e+001 9.262424e+001 5.507041e+001 8.684718e+001 1.017897e+002 1.068792e+002 9.565060e+001 5.699500e+001 4.009287e+001 1.429188e+000 2.803670e+000 3.009729e+000 2.658925e+000 3.124452e+000 3.216382e+000 3.984005e+000 3.832997e+000 2.690945e+000 3.446271e+000 2.942266e+000 2.124990e+000 1.866462e+000
<GCONST> 1.095587e+002
<STATE> 4
<MEAN> 25
 -1.173848e+000 5.307720e-001 -1.112650e+000 -1.377250e-001 7.423985e+000 -2.396491e+000 -1.373122e+000 1.331644e+000 1.600609e+000 -5.634254e-001 -9.544906e-001 1.455434e+000 -3.581165e-001 -6.021652e-002 -2.305780e-001 -2.031894e-001 -1.639951e-001 1.480479e-001 4.546541e-001 2.879322e-001 -1.567296e-001 1.732952e-001 3.511006e-001 1.514551e-001 -5.028291e-002
<VARIANCE> 25
 8.114742e+001 5.895967e+001 8.305453e+001 8.819663e+001 7.580144e+001 7.773748e+001 8.348134e+001 6.261862e+001 8.258216e+001 6.229085e+001 6.051330e+001 3.853664e+001 5.290480e+000 5.945563e+000 6.197073e+000 7.572273e+000 7.494268e+000 7.860152e+000 7.383435e+000 6.140910e+000 7.024987e+000 4.711679e+000 4.797024e+000 4.075627e+000 3.513592e+000
<GCONST> 1.197788e+002
<TRANSP> 5
 0.000000e+000 1.000000e+000 0.000000e+000 0.000000e+000 0.000000e+000
 0.000000e+000 7.040023e-001 2.959977e-001 0.000000e+000 0.000000e+000
 0.000000e+000 0.000000e+000 7.310162e-001 2.689839e-001 0.000000e+000
 0.000000e+000 0.000000e+000 0.000000e+000 7.099511e-001 2.900489e-001
 0.000000e+000 0.000000e+000 0.000000e+000 0.000000e+000 0.000000e+000
<ENDHMM>
~h "l"
<BEGINHMM>
<NUMSTATES> 5
<STATE> 2
<MEAN> 25
 8.994396e+000 -1.413144e+000 5.093412e+000 3.106869e-001 -3.390152e+000 -3.619102e+000 -5.975111e-001 2.133944e+000 -1.009381e+000 8.803396e-001 -9.380717e-001 -1.141644e+000 2.215102e-001 -2.033572e-002 -1.642281e-002 -3.063511e-001 -2.361378e-001 -2.643978e-001 -1.381693e-001 4.967993e-002 1.791693e-001 3.911830e-002 -6.073627e-002 8.081935e-002 3.262768e-001
<VARIANCE> 25
 4.402255e+001 6.921211e+001 4.774804e+001 5.375239e+001 1.359481e+002 5.866619e+001 7.838670e+001 5.254367e+001 5.424156e+001 3.460109e+001 3.595733e+001 2.478769e+001 2.261021e+000 4.928035e+000 2.841662e+000 4.370520e+000 6.375515e+000 3.802728e+000 5.604307e+000 4.090170e+000 4.366375e+000 2.972569e+000 3.014421e+000 2.246227e+000 4.352896e+000
<GCONST> 1.106538e+002
<STATE> 3
<MEAN> 25
 9.867278e+000 -6.823527e-001 5.573243e+000 -2.203963e+000 -5.928319e+000 -5.930015e+000 -5.266359e+000 1.490639e+000 1.248935e+000 -4.127032e+000 -7.231941e+000 -8.603741e-001 -1.000889e-001 3.166000e-001 -1.775333e-001 2.576989e-002 2.075194e-001 1.643316e-001 4.538190e-002 -1.442453e-001 3.608792e-001 2.854340e-001 2.869672e-002 -1.561465e-001 -3.396071e-001
<VARIANCE> 25
 2.727469e+001 2.068449e+001 2.718211e+001 2.309237e+001 5.404621e+001 4.224677e+001 3.109023e+001 4.967751e+001 5.056712e+001 4.844177e+001 6.653435e+001 2.518126e+001 3.808809e-001 9.113473e-001 1.200922e+000 1.280904e+000 2.345582e+000 1.850586e+000 1.875823e+000 2.192976e+000 2.381728e+000 2.029190e+000 2.898205e+000 1.667673e+000 5.533624e-001
<GCONST> 9.384177e+001
<STATE> 4
<MEAN> 25
 9.825751e+000 2.937156e+000 -2.317558e+000 -7.186974e+000 1.642541e+000 1.641719e+000 -3.335032e+000 -5.038384e+000 4.216056e+000 2.978447e+000 2.138817e+000 -2.656344e-001 -4.143011e-001 1.534860e-001 -1.825006e-001 2.333153e-001 7.815330e-002 3.351128e-001 2.174788e-001 -1.041886e-001 -2.522244e-001 -7.595939e-002 3.619893e-001 1.034214e-001 -5.859009e-001
<VARIANCE> 25
 5.695500e+001 3.536030e+001 2.993321e+001 8.860472e+001 6.271126e+001 8.915993e+001 7.740629e+001 9.358000e+001 8.666927e+001 5.845255e+001 5.435590e+001 3.894704e+001 1.808401e+000 2.007102e+000 2.476296e+000 3.938388e+000 4.002169e+000 4.464454e+000 4.357069e+000 5.437934e+000 3.661451e+000 3.135106e+000 3.343717e+000 2.490637e+000 1.514035e+000
<GCONST> 1.097326e+002
<TRANSP> 5
 0.000000e+000 1.000000e+000 0.000000e+000 0.000000e+000 0.000000e+000
 0.000000e+000 7.614025e-001 2.385975e-001 0.000000e+000 0.000000e+000
 0.000000e+000 0.000000e+000 8.178612e-001 1.821388e-001 0.000000e+000
 0.000000e+000 0.000000e+000 0.000000e+000 8.292798e-001 1.707202e-001
 0.000000e+000 0.000000e+000 0.000000e+000 0.000000e+000 0.000000e+000
<ENDHMM>
~h "m"
<BEGINHMM>
<NUMSTATES> 5
<STATE> 2
<MEAN> 25
 5.040895e+000 8.214242e-001 8.622759e-001 -3.490945e+000 -4.749266e-001 -1.674447e+000 1.817731e-001 3.869532e-001 -1.981430e+000 -5.021213e-001 -1.633332e-001 -9.232174e-001 1.897448e+000 7.551613e-001 8.461710e-001 -4.726061e-001 -4.241367e-001 1.024925e-001 -9.901064e-002 -2.054430e-001 -5.382253e-002 5.497575e-001 -4.598310e-001 -7.358592e-001 6.549987e-001
<VARIANCE> 25
 5.555268e+001 5.874854e+001 6.866884e+001 8.174660e+001 9.315412e+001 7.018423e+001 4.969964e+001 4.872216e+001 5.114906e+001 3.182310e+001 3.071193e+001 1.942517e+001 5.055809e+000 5.517373e+000 4.142755e+000 6.263134e+000 6.037506e+000 7.353817e+000 5.167663e+000 6.334117e+000 5.025083e+000 3.085534e+000 3.824385e+000 2.632357e+000 9.728728e+000
<GCONST> 1.142257e+002
<STATE> 3
<MEAN> 25
 9.966563e+000 3.311313e+000 3.499666e+000 -4.960910e+000 -1.059565e+000 -1.976932e+000 -2.406973e+000 1.449889e+000 -1.446740e-001 2.122813e+000 -3.478550e+000 -2.688965e+000 1.693787e-002 2.878352e-002 2.612976e-001 3.834156e-001 -1.294365e-001 1.297721e-001 -4.502475e-002 -5.906315e-002 -4.698255e-003 7.635178e-002 -1.079183e-001 -1.571860e-001 -2.920292e-001
<VARIANCE> 25
 2.485328e+001 5.045390e+001 4.406824e+001 4.386414e+001 6.684480e+001 4.337975e+001 4.505303e+001 5.352877e+001 5.325840e+001 3.091598e+001 2.906937e+001 2.335287e+001 1.252703e+000 1.373779e+000 1.683867e+000 2.352696e+000 3.316779e+000 3.123205e+000 2.242809e+000 3.435287e+000 2.825290e+000 2.308952e+000 2.518947e+000 2.190987e+000 2.190220e+000
<GCONST> 1.010019e+002
<STATE> 4
<MEAN> 25
 9.074670e+000 6.379588e-001 3.145734e+000 -2.142879e+000 -2.917771e+000 3.353758e+000 -1.076246e-001 -5.227502e+000 1.948689e+000 -3.630922e-001 -1.754706e+000 -2.424753e+000 -2.730471e-001 -3.430795e-001 -2.181643e-001 3.301767e-001 1.932864e-001 -3.502484e-002 -8.736796e-002 3.658826e-002 2.823039e-001 -2.923961e-001 -1.464430e-002 1.867369e-001 2.736963e-002
<VARIANCE> 25
 3.814206e+001 7.480966e+001 8.119165e+001 8.780164e+001 7.710420e+001 8.210149e+001 7.864652e+001 1.116379e+002 9.939448e+001 9.519487e+001 1.029676e+002 3.940256e+001 2.029877e+000 3.917679e+000 3.252916e+000 4.259297e+000 5.592397e+000 5.836917e+000 5.686378e+000 7.283098e+000 5.444133e+000 6.398979e+000 5.836460e+000 3.426349e+000 2.522483e+000
<GCONST> 1.174546e+002
<TRANSP> 5
 0.000000e+000 1.000000e+000 0.000000e+000 0.000000e+000 0.000000e+000
 0.000000e+000 5.923223e-001 4.076777e-001 0.000000e+000 0.000000e+000
 0.000000e+000 0.000000e+000 6.710776e-001 3.289223e-001 0.000000e+000
 0.000000e+000 0.000000e+000 0.000000e+000 8.709415e-001 1.290585e-001
 0.000000e+000 0.000000e+000 0.000000e+000 0.000000e+000 0.000000e+000
<ENDHMM>
~h "n"
<BEGINHMM>
<NUMSTATES> 5
<STATE> 2
<MEAN> 25
 7.689292e+000 -1.465434e+000 5.677595e+000 -2.562945e+000 -5.170533e+000 -2.145350e+000 -1.818367e+000 -9.913318e-001 -1.237830e+000 -8.036014e-001 -9.294662e-001 -2.312527e+000 1.137747e+000 -6.275804e-002 1.629564e-001 2.714952e-001 -4.706719e-001 1.075693e-001 -5.008841e-001 -5.776799e-001 1.776942e-001 -7.289941e-002 -6.667932e-001 -2.067946e-002 9.788473e-002
<VARIANCE> 25
 5.861535e+001 6.648648e+001 8.228719e+001 5.276761e+001 9.641196e+001 7.436452e+001 6.991912e+001 6.609720e+001 6.630826e+001 4.596577e+001 7.373949e+001 3.890733e+001 4.748725e+000 3.939385e+000 4.795434e+000 4.195094e+000 6.144804e+000 5.731409e+000 5.122323e+000 5.635051e+000 5.166317e+000 4.245252e+000 4.883734e+000 3.498844e+000 4.317805e+000
<GCONST> 1.161348e+002
<STATE> 3
<MEAN> 25
 1.269050e+001 -1.540965e+000 3.200944e+000 -4.512175e+000 -2.246724e+000 -2.342948e+000 -6.412354e+000 -3.568138e-001 -7.613163e-001 -1.610477e+000 -6.846192e+000 -4.504337e-001 3.395640e-002 1.343287e-001 3.619127e-003 8.017750e-002 1.140943e-001 9.557894e-002 2.329187e-002 -3.092058e-002 1.800117e-002 3.347616e-002 -2.882426e-002 5.582624e-002 -1.768516e-001
<VARIANCE> 25
 1.617521e+001 3.992767e+001 4.505700e+001 3.541276e+001 8.966129e+001 4.180868e+001 4.264591e+001 8.707845e+001 5.922358e+001 3.132403e+001 3.696006e+001 3.421637e+001 3.807621e-001 1.346839e+000 1.158811e+000 1.909225e+000 2.446843e+000 2.153913e+000 2.009351e+000 2.463863e+000 2.567952e+000 1.642376e+000 2.178910e+000 2.042559e+000 5.737145e-001
<GCONST> 9.667416e+001
<STATE> 4
<MEAN> 25
 1.151210e+001 -2.271799e+000 4.747281e+000 1.127469e-001 -4.473758e+000 -1.511366e+000 -4.234528e-001 2.549773e-001 1.038365e+000 -2.820122e+000 -5.046842e+000 -8.973451e-001 -3.895006e-001 4.879906e-001 -3.958181e-001 1.918105e-001 6.987246e-001 -2.024978e-002 1.247025e-001 4.225582e-001 -3.560008e-001 1.213770e-001 4.470310e-001 -1.691995e-001 -6.423714e-001
<VARIANCE> 25
 2.918168e+001 8.774632e+001 5.013686e+001 3.474794e+001 9.530473e+001 5.242633e+001 6.726028e+001 7.912540e+001 5.662780e+001 7.599589e+001 4.885281e+001 3.609298e+001 1.641373e+000 3.588070e+000 2.761849e+000 2.812245e+000 5.614915e+000 4.000090e+000 4.150409e+000 5.681610e+000 3.812713e+000 4.074976e+000 3.468096e+000 2.450505e+000 1.847188e+000
<GCONST> 1.097880e+002
<TRANSP> 5
 0.000000e+000 1.000000e+000 0.000000e+000 0.000000e+000 0.000000e+000
 0.000000e+000 7.977457e-001 2.022543e-001 0.000000e+000 0.000000e+000
 0.000000e+000 0.000000e+000 8.593549e-001 1.406452e-001 0.000000e+000
 0.000000e+000 0.000000e+000 0.000000e+000 7.619974e-001 2.380026e-001
 0.000000e+000 0.000000e+000 0.000000e+000 0.000000e+000 0.000000e+000
<ENDHMM>
~h "p"
<BEGINHMM>
<NUMSTATES> 5
<STATE> 2
<MEAN> 25
 2.665544e+000 -2.472066e+000 7.589083e-001 -2.000092e+000 4.769105e-001 -2.500195e+000 5.860964e-001 1.031042e+000 -1.008303e-001 1.549623e+000 9.340319e-002 2.891302e-001 -9.888017e-001 -9.350139e-001 -7.176886e-002 -9.273937e-001 1.298474e-001 -1.354185e-001 6.022928e-001 6.480317e-001 2.563023e-001 3.528188e-002 -1.814256e-001 -2.548894e-001 2.391321e+000
<VARIANCE> 25
 5.227480e+001 5.951790e+001 5.511386e+001 5.732482e+001 4.720434e+001 5.428936e+001 5.078589e+001 4.189025e+001 5.328488e+001 3.119171e+001 3.843800e+001 2.975404e+001 7.772175e+000 5.891895e+000 6.548460e+000 6.827043e+000 5.795154e+000 5.394451e+000 4.700419e+000 4.260598e+000 6.418991e+000 4.671434e+000 3.668710e+000 3.493767e+000 1.114231e+001
<GCONST> 1.144432e+002
<STATE> 3
<MEAN> 25
 -2.662399e-002 -5.364341e+000 1.979561e+000 -2.740760e+000 1.450000e+000 -2.013393e+000 5.753180e+000 4.157756e+000 -1.699875e+000 4.327066e-001 -2.006761e+000 -5.027961e-001 -1.336797e+000 9.994023e-001 -7.124264e-002 2.118511e-001 6.768578e-001 -3.555801e-001 1.663213e-001 2.298180e-001 -1.343177e-001 -9.043874e-002 4.420044e-001 1.891305e-001 -5.509190e-001
<VARIANCE> 25
 8.431026e+001 5.996355e+001 1.082055e+002 5.421873e+001 5.091614e+001 4.151958e+001 4.928639e+001 3.053616e+001 6.213856e+001 5.399210e+001 3.589536e+001 2.569524e+001 5.578747e+000 3.096963e+000 3.569662e+000 3.582502e+000 3.422409e+000 3.147534e+000 2.705121e+000 3.077996e+000 4.479643e+000 2.333949e+000 2.876053e+000 2.257018e+000 1.581562e+000
<GCONST> 1.076405e+002
<STATE> 4
<MEAN> 25
 -1.189319e+001 5.934596e+000 -1.458562e+000 -8.131670e-001 9.031547e+000 -6.357016e+000 6.677251e+000 4.732256e+000 3.899822e-001 -1.284282e+000 8.348629e-001 1.400673e+000 2.173184e-001 -5.864040e-002 -3.255323e-002 1.558701e-001 4.411106e-002 1.856348e-001 -2.759398e-001 -2.007836e-001 -4.424245e-002 8.020487e-002 -1.171016e-001 -9.586026e-002 -8.985511e-001
<VARIANCE> 25
 7.039241e+001 3.434660e+001 4.268587e+001 4.885013e+001 4.999286e+001 5.453296e+001 4.345298e+001 6.374958e+001 4.147021e+001 3.731675e+001 3.856682e+001 3.245668e+001 2.459090e+000 1.974007e+000 2.292276e+000 3.424125e+000 3.443040e+000 3.699505e+000 3.326520e+000 3.940387e+000 3.526235e+000 3.434998e+000 2.760660e+000 2.691058e+000 1.438304e+000
<GCONST> 1.053153e+002
<TRANSP> 5
 0.000000e+000 1.000000e+000 0.000000e+000 0.000000e+000 0.000000e+000
 0.000000e+000 6.424681e-001 3.575319e-001 0.000000e+000 0.000000e+000
 0.000000e+000 0.000000e+000 7.575052e-001 2.424948e-001 0.000000e+000
 0.000000e+000 0.000000e+000 0.000000e+000 8.615804e-001 1.384197e-001
 0.000000e+000 0.000000e+000 0.000000e+000 0.000000e+000 0.000000e+000
<ENDHMM>
~h "r"
<BEGINHMM>
<NUMSTATES> 5
<STATE> 2
<MEAN> 25
 4.534095e+000 -8.156096e+000 -3.508946e+000 -3.872551e+000 -6.753963e-001 -2.971789e+000 2.069495e+000 3.939346e+000 4.367356e+000 -2.294260e+000 -4.994484e+000 -1.771701e+000 -1.758903e-001 -2.664124e-002 6.310389e-001 1.140274e-001 -4.943111e-001 -4.907014e-001 2.719163e-001 3.082837e-001 -4.288048e-001 -3.200081e-001 1.280953e-001 5.280581e-001 -1.086301e-002
<VARIANCE> 25
 9.018126e+001 4.477161e+001 4.196293e+001 4.048441e+001 3.804713e+001 5.375274e+001 6.132243e+001 3.821617e+001 5.605714e+001 5.504006e+001 3.836178e+001 2.489114e+001 1.331717e+000 1.312997e+000 1.928806e+000 1.920759e+000 2.684577e+000 2.926854e+000 3.102050e+000 3.631042e+000 3.058531e+000 4.434184e+000 2.959268e+000 2.316857e+000 1.156116e+000
<GCONST> 1.029956e+002
<STATE> 3
<MEAN> 25
 5.811049e+000 -3.180862e+000 4.604201e+000 -2.652414e+000 -2.879736e+000 -4.689869e+000 -1.036099e+000 1.651907e+000 -2.978789e+000 7.072237e-001 -1.179981e+000 -3.093965e-001 -8.163429e-002 5.842776e-001 2.987861e-001 5.258011e-001 -6.009680e-002 2.107851e-001 -4.971350e-002 -5.432387e-001 -3.105117e-001 2.188048e-002 2.210163e-001 2.775623e-002 -8.712875e-001
<VARIANCE> 25
 6.601763e+001 4.426395e+001 6.690166e+001 4.686621e+001 7.557504e+001 4.386843e+001 6.250724e+001 3.918552e+001 5.162169e+001 4.326873e+001 3.678027e+001 2.970291e+001 1.957945e+000 2.108577e+000 2.534054e+000 1.791640e+000 2.795303e+000 2.153141e+000 2.991267e+000 2.505369e+000 2.476591e+000 2.228493e+000 2.678872e+000 2.103724e+000 9.325295e-001
<GCONST> 1.027023e+002
<STATE> 4
<MEAN> 25
 -1.550458e+000 1.349832e+000 2.548330e+000 2.239522e+000 -1.091553e+000 -2.758079e+000 3.074130e+000 -6.871475e-001 -1.352181e-001 -2.729532e+000 7.960057e-001 7.318175e-001 -5.499564e-001 1.180286e-001 -1.216815e-001 2.401923e-001 2.274512e-001 1.035179e-001 -3.835802e-002 -1.849104e-001 5.218027e-002 -1.025352e-001 5.813586e-002 -5.197079e-002 -5.336853e-001
<VARIANCE> 25
 9.259383e+001 6.057722e+001 6.109820e+001 8.183031e+001 1.073907e+002 6.566703e+001 7.624258e+001 6.597607e+001 6.695204e+001 5.575362e+001 3.831448e+001 3.532367e+001 4.806444e+000 4.011637e+000 4.218392e+000 4.727791e+000 5.788104e+000 6.244974e+000 6.108627e+000 5.510419e+000 5.604615e+000 5.926590e+000 4.335642e+000 3.370496e+000 2.618361e+000
<GCONST> 1.161193e+002
<TRANSP> 5
 0.000000e+000 1.000000e+000 0.000000e+000 0.000000e+000 0.000000e+000
 0.000000e+000 7.360955e-001 2.639045e-001 0.000000e+000 0.000000e+000
 0.000000e+000 0.000000e+000 6.887488e-001 3.112511e-001 0.000000e+000
 0.000000e+000 0.000000e+000 0.000000e+000 7.525082e-001 2.474919e-001
 0.000000e+000 0.000000e+000 0.000000e+000 0.000000e+000 0.000000e+000
<ENDHMM>
~h "s"
<BEGINHMM>
<NUMSTATES> 5
<STATE> 2
<MEAN> 25
 5.742114e+000 -1.589800e+000 -1.751045e+000 -2.960746e+000 1.174595e+000 -2.959029e+000 -2.640441e+000 3.499579e-001 2.555328e+000 7.472918e-001 -1.029296e+000 -4.369459e-001 4.052404e-001 -3.420392e-001 -1.964457e-001 -7.896510e-003 -2.515062e-001 -1.583623e-001 1.851091e-002 3.069921e-001 3.541647e-001 -1.919196e-001 -2.888820e-001 -1.324212e-001 6.116644e-001
<VARIANCE> 25
 7.825148e+001 6.435440e+001 5.771103e+001 7.224399e+001 7.344663e+001 5.683517e+001 6.326671e+001 5.323199e+001 6.696222e+001 6.279564e+001 5.696749e+001 4.011590e+001 6.567155e+000 4.872840e+000 5.088201e+000 6.544886e+000 6.359679e+000 5.621097e+000 5.728349e+000 4.856086e+000 6.183632e+000 6.077686e+000 4.845203e+000 5.000329e+000 6.856267e+000
<GCONST> 1.179565e+002
<STATE> 3
<MEAN> 25
 6.467887e+000 -7.412504e+000 -1.884753e+000 5.898707e-001 -4.801195e-001 -2.986494e+000 2.866803e+000 5.105670e+000 2.291366e+000 -4.296762e+000 -4.847425e+000 1.043434e-001 -5.801302e-001 6.539202e-001 2.030956e-001 2.896641e-001 4.401360e-001 -1.423934e-001 3.946896e-001 1.098557e-001 -4.000230e-001 1.533487e-001 2.828974e-001 1.619520e-001 -5.910118e-001
<VARIANCE> 25
 6.159943e+001 7.009673e+001 5.594522e+001 4.504814e+001 7.522808e+001 5.326677e+001 5.764146e+001 5.014447e+001 5.964643e+001 5.490332e+001 4.957924e+001 2.638027e+001 2.904320e+000 2.892051e+000 3.047388e+000 2.621897e+000 3.774605e+000 3.556070e+000 2.892943e+000 3.589283e+000 3.436752e+000 3.270467e+000 3.128627e+000 2.102256e+000 1.364763e+000
<GCONST> 1.074423e+002
<STATE> 4
<MEAN> 25
 -1.047696e+001 4.685992e+000 -1.430801e+000 -1.147474e+000 7.648397e+000 -8.958113e+000 5.307859e+000 6.021195e+000 -5.864654e-001 9.064181e-001 1.172874e+000 1.664732e+000 -2.273387e-002 1.238722e-002 -7.350734e-002 6.597977e-002 1.096355e-001 1.305820e-001 -2.139729e-001 -1.142385e-001 2.857740e-002 1.861202e-001 2.724828e-002 -2.392412e-002 -6.409537e-001
<VARIANCE> 25
 8.199766e+001 2.534590e+001 3.771464e+001 4.227583e+001 4.212165e+001 6.053062e+001 5.239999e+001 5.151052e+001 4.652207e+001 3.713895e+001 3.984797e+001 2.640879e+001 3.329285e+000 1.584994e+000 1.808506e+000 2.180055e+000 2.856138e+000 3.565834e+000 3.349591e+000 3.698221e+000 3.140439e+000 2.725463e+000 2.471326e+000 2.341309e+000 8.779894e-001
<GCONST> 1.027634e+002
<TRANSP> 5
 0.000000e+000 1.000000e+000 0.000000e+000 0.000000e+000 0.000000e+000
 0.000000e+000 7.646809e-001 2.353191e-001 0.000000e+000 0.000000e+000
 0.000000e+000 0.000000e+000 7.861914e-001 2.138086e-001 0.000000e+000
 0.000000e+000 0.000000e+000 0.000000e+000 8.283914e-001 1.716086e-001
 0.000000e+000 0.000000e+000 0.000000e+000 0.000000e+000 0.000000e+000
<ENDHMM>
~h "t"
<BEGINHMM>
<NUMSTATES> 5
<STATE> 2
<MEAN> 25
 8.688291e+000 1.305197e-001 -1.600057e-002 -2.691515e+000 1.714333e+000 -1.748250e+000 -4.030057e+000 5.589157e-001 -1.112915e+000 -1.158029e+000 -3.530164e+000 -1.925213e-001 -5.365086e-001 3.198667e-001 -1.229487e-002 1.855996e-001 1.009611e-001 4.665043e-001 3.331589e-001 -1.370879e-001 -4.426245e-001 -6.337745e-002 5.742529e-001 2.783211e-001 -7.695802e-001
<VARIANCE> 25
 5.776345e+001 3.691436e+001 4.157303e+001 4.319016e+001 6.158991e+001 3.558259e+001 5.380624e+001 5.113357e+001 5.292855e+001 4.399296e+001 4.690160e+001 4.066757e+001 1.510316e+000 1.517831e+000 1.644511e+000 2.746649e+000 2.737091e+000 2.597085e+000 2.846321e+000 2.992557e+000 3.620223e+000 2.244659e+000 2.771924e+000 2.669265e+000 1.186034e+000
<GCONST> 1.027315e+002
<STATE> 3
<MEAN> 25
 4.728526e+000 1.974259e+000 1.102780e+000 4.568191e-001 2.414619e+000 3.174738e-001 -1.779633e+000 1.893784e-001 -2.926188e+000 2.334396e-001 -8.948769e-001 6.842994e-002 -3.276687e-001 5.886772e-002 -1.764216e-002 9.481125e-002 -6.914338e-002 1.980507e-001 2.490645e-001 -1.617221e-002 7.323081e-003 4.614259e-002 2.302758e-001 2.685749e-002 -3.837298e-001
<VARIANCE> 25
 4.346236e+001 3.192558e+001 2.808171e+001 4.170252e+001 3.813591e+001 3.004739e+001 3.513968e+001 3.041848e+001 4.360271e+001 2.407504e+001 2.846854e+001 2.149661e+001 6.301514e-001 9.720181e-001 1.068581e+000 1.558486e+000 1.669536e+000 1.710717e+000 1.819680e+000 1.909150e+000 1.994264e+000 1.697564e+000 1.635958e+000 1.572100e+000 4.910558e-001
<GCONST> 9.140678e+001
<STATE> 4
<MEAN> 25
 6.106751e+000 6.445639e-001 -1.021260e+000 -3.032641e+000 2.322820e+000 -1.657053e+000 -1.211134e+000 2.285086e+000 -3.556466e-001 6.199813e-001 -1.460874e+000 -1.207233e+000 2.189399e-002 8.484739e-002 5.868741e-002 1.958000e-002 -8.111379e-002 -3.765391e-002 -2.217839e-002 -2.014846e-001 -7.446727e-002 4.210898e-002 2.110315e-001 3.204190e-002 -1.492262e-001
<VARIANCE> 25
 6.311424e+001 5.659659e+001 5.390313e+001 5.522527e+001 6.792985e+001 5.415710e+001 4.763108e+001 4.901082e+001 6.236499e+001 3.448089e+001 3.914124e+001 2.652954e+001 4.144545e+000 4.291922e+000 3.712761e+000 4.127789e+000 4.831523e+000 4.986770e+000 4.224243e+000 4.614146e+000 4.724270e+000 3.194005e+000 3.149214e+000 2.558895e+000 4.477016e+000
<GCONST> 1.107708e+002
<TRANSP> 5
 0.000000e+000 1.000000e+000 0.000000e+000 0.000000e+000 0.000000e+000
 0.000000e+000 4.081974e-001 5.918027e-001 0.000000e+000 0.000000e+000
 0.000000e+000 0.000000e+000 7.657875e-001 2.342125e-001 0.000000e+000
 0.000000e+000 0.000000e+000 0.000000e+000 7.288495e-001 2.711506e-001
 0.000000e+000 0.000000e+000 0.000000e+000 0.000000e+000 0.000000e+000
<ENDHMM>
~h "v"
<BEGINHMM>
<NUMSTATES> 5
<STATE> 2
<MEAN> 25
 4.195889e+000 -4.617471e-001 -3.358727e+000 -3.468757e+000 2.158351e+000 1.248900e+000 5.137740e-001 -4.492095e-001 -7.613559e-001 2.525316e+000 1.213778e+000 -9.150496e-001 1.612365e+000 -1.026245e+000 -1.703059e+000 -2.401158e+000 -7.990733e-001 5.863013e-001 4.361594e-001 -1.087716e+000 3.899926e-001 5.578491e-001 3.392503e-001 -8.569349e-001 3.019531e+000
<VARIANCE> 25
 5.921946e+001 3.384605e+001 5.541685e+001 6.720943e+001 4.262692e+001 6.589449e+001 6.536913e+001 5.063785e+001 5.031895e+001 3.743075e+001 3.736521e+001 2.779773e+001 5.528016e+000 4.314829e+000 4.891032e+000 5.517340e+000 5.015845e+000 9.078856e+000 7.825152e+000 5.564123e+000 6.782835e+000 5.279989e+000 5.087325e+000 3.928608e+000 7.104872e+000
<GCONST> 1.148981e+002
<STATE> 3
<MEAN> 25
 5.715551e+000 -6.887750e+000 -5.823544e+000 -6.551081e+000 -1.994871e+000 1.385477e+000 3.164050e+000 -1.325980e+000 2.551522e+000 2.138856e+000 1.149022e+000 -4.582371e+000 1.900497e-002 -3.210309e-001 2.964069e-001 2.880846e-001 -1.155388e-001 -1.609973e-001 2.248965e-001 1.523747e-001 3.707979e-001 -2.354159e-001 -1.482171e-001 3.498261e-001 6.694865e-001
<VARIANCE> 25
 5.393519e+001 4.244007e+001 4.652800e+001 5.121498e+001 4.040652e+001 7.984754e+001 7.731563e+001 4.736293e+001 6.629716e+001 4.133321e+001 4.883371e+001 3.229560e+001 5.295631e+000 3.388725e+000 2.320541e+000 3.650149e+000 3.687199e+000 4.239633e+000 5.597375e+000 3.787525e+000 4.509315e+000 3.901726e+000 4.364764e+000 3.115672e+000 6.642130e+000
<GCONST> 1.112212e+002
<STATE> 4
<MEAN> 25
 8.558075e+000 1.458714e-001 -4.235641e+000 -5.161445e+000 2.752709e+000 4.192611e+000 1.348793e+000 -1.825118e+000 -7.599875e-002 2.093028e+000 2.171211e+000 -3.060291e-001 -3.758363e-001 4.094490e-001 5.188676e-001 6.121393e-001 3.631250e-001 -3.988371e-001 -1.434110e-001 3.517728e-001 -3.144957e-001 -2.160558e-001 -2.075027e-001 1.899651e-001 -5.910982e-001
<VARIANCE> 25
 5.768333e+001 5.020481e+001 4.211477e+001 7.780898e+001 4.798219e+001 7.539660e+001 6.259575e+001 4.997289e+001 6.323934e+001 4.240032e+001 3.988199e+001 2.703475e+001 2.939456e+000 2.777287e+000 2.423517e+000 3.724716e+000 3.208211e+000 4.304302e+000 3.369370e+000 4.256387e+000 4.675657e+000 3.038943e+000 3.051825e+000 2.535254e+000 2.373883e+000
<GCONST> 1.082844e+002
<TRANSP> 5
 0.000000e+000 1.000000e+000 0.000000e+000 0.000000e+000 0.000000e+000
 0.000000e+000 6.060207e-001 3.939792e-001 0.000000e+000 0.000000e+000
 0.000000e+000 0.000000e+000 6.358241e-001 3.641759e-001 0.000000e+000
 0.000000e+000 0.000000e+000 0.000000e+000 8.011206e-001 1.988795e-001
 0.000000e+000 0.000000e+000 0.000000e+000 0.000000e+000 0.000000e+000
<ENDHMM>
~h "w"
<BEGINHMM>
<NUMSTATES> 5
<STATE> 2
<MEAN> 25
 -6.158859e+000 -2.496049e+000 -6.784366e-001 2.003593e+000 2.614637e-001 2.371953e+000 -8.195566e-001 -1.763141e+000 -2.010735e-001 -8.629403e-001 1.685083e-001 3.874881e-001 -2.998279e-002 -8.275998e-003 -1.050197e-002 6.190051e-003 1.191606e-002 2.985697e-002 1.857272e-002 5.894799e-003 8.277996e-003 1.665942e-004 -6.141770e-003 -1.026697e-002 -2.087951e-002
<VARIANCE> 25
 9.914515e+000 5.175749e+000 1.258720e+001 1.201599e+001 1.180136e+001 1.305689e+001 1.282759e+001 1.427544e+001 1.449317e+001 1.528142e+001 1.192192e+001 1.107214e+001 1.082465e-001 2.173559e-001 3.660834e-001 5.476203e-001 7.013368e-001 8.045509e-001 8.818397e-001 1.015402e+000 1.082609e+000 1.082385e+000 1.046748e+000 8.951368e-001 4.217115e-002
<GCONST> 6.632273e+001
<STATE> 3
<MEAN> 25
 -4.746513e+000 1.193703e+000 -2.446200e+000 3.338624e+000 5.116621e-001 3.271672e+000 8.802573e-001 -4.447045e-001 -2.314733e+000 1.213105e+000 1.488400e+000 7.860963e-001 1.516478e+000 2.099911e-001 6.694683e-001 2.381982e-002 1.423654e-001 -3.319217e-001 -1.109482e-001 -2.090560e-001 -6.938552e-001 -3.864749e-001 -3.349520e-001 -1.855467e-001 1.501086e+000
<VARIANCE> 25
 7.512778e+001 2.206181e+001 3.021044e+001 1.771659e+001 1.623787e+001 2.132845e+001 2.073697e+001 2.548172e+001 5.229740e+001 2.851278e+001 2.052742e+001 1.869271e+001 6.675551e+000 1.130160e+000 1.933070e+000 1.511263e+000 1.670820e+000 1.651807e+000 1.698524e+000 1.797906e+000 2.133926e+000 1.346639e+000 1.716259e+000 1.430553e+000 8.794303e+000
<GCONST> 9.436944e+001
<STATE> 4
<MEAN> 25
 1.383060e+000 1.678907e+000 1.638588e+000 3.338078e+000 3.527341e+000 1.882451e+000 -9.369187e-001 -2.928127e-001 -2.692594e+000 -6.499605e-001 1.024074e+000 9.909578e-001 1.218935e-001 4.584623e-002 -1.986800e-003 -1.650662e-002 2.577339e-002 -8.390408e-004 1.296689e-002 6.923337e-002 -1.125952e-002 -2.330222e-002 6.839883e-003 -8.722496e-003 8.924791e-002
<VARIANCE> 25
 1.349929e+001 9.557928e+000 1.369053e+001 1.315393e+001 1.659535e+001 1.536684e+001 1.543032e+001 1.401162e+001 1.772248e+001 1.272819e+001 1.199855e+001 1.193200e+001 3.397412e-001 6.051369e-001 7.148811e-001 8.610358e-001 1.160598e+000 1.030674e+000 1.213694e+000 1.356905e+000 1.363898e+000 1.137537e+000 1.089616e+000 1.066511e+000 1.978645e-001
<GCONST> 7.488073e+001
<TRANSP> 5
 0.000000e+000 1.000000e+000 0.000000e+000 0.000000e+000 0.000000e+000
 0.000000e+000 9.348837e-001 6.511631e-002 0.000000e+000 0.000000e+000
 0.000000e+000 0.000000e+000 4.405544e-001 5.594456e-001 0.000000e+000
 0.000000e+000 0.000000e+000 0.000000e+000 8.704644e-001 1.295356e-001
 0.000000e+000 0.000000e+000 0.000000e+000 0.000000e+000 0.000000e+000
<ENDHMM>
~h "y"
<BEGINHMM>
<NUMSTATES> 5
<STATE> 2
<MEAN> 25
 2.279605e-001 4.032663e+000 9.791968e+000 1.407570e+000 -4.677018e+000 -2.025856e+000 7.123199e+000 -7.107130e+000 1.114851e+000 -7.711798e-001 1.102972e+000 1.785330e+000 4.080450e-001 -1.559788e-001 9.150842e-002 1.140826e-001 -7.300543e-001 4.587986e-002 1.032743e-001 -4.511909e-001 -1.983086e-001 7.489926e-002 1.480752e-001 6.161403e-002 5.810617e-002
<VARIANCE> 25
 1.487222e+002 4.288024e+001 6.604495e+001 7.129180e+001 5.905983e+001 4.477121e+001 1.018671e+002 6.522131e+001 6.289529e+001 2.498037e+001 3.724607e+001 3.219576e+001 9.385417e+000 6.619493e+000 3.992156e+000 9.509026e+000 5.578741e+000 5.699788e+000 1.284087e+001 9.184170e+000 7.491795e+000 3.260125e+000 4.354777e+000 4.620105e+000 7.535630e+000
<GCONST> 1.185072e+002
<STATE> 3
<MEAN> 25
 1.625396e+001 3.934188e+000 7.578169e+000 -4.795529e+000 -8.597344e+000 1.435728e+000 2.588241e+000 -5.448065e+000 -2.456896e+000 2.637240e+000 2.308615e+000 3.632302e+000 4.346297e-002 7.578614e-002 -1.936049e-001 -1.048922e-001 -1.953713e-002 -4.113159e-002 -2.661926e-001 3.187711e-002 3.272224e-001 -1.644821e-002 -3.142741e-002 -7.166365e-002 1.883943e-002
<VARIANCE> 25
 2.080606e+001 3.573130e+001 1.283948e+002 1.245956e+002 9.079894e+001 5.312542e+001 5.689224e+001 5.548879e+001 6.617203e+001 5.120886e+001 4.290567e+001 2.758466e+001 1.548242e+000 2.756384e+000 6.005641e+000 1.018051e+001 6.395109e+000 4.330275e+000 4.913478e+000 6.743361e+000 6.384235e+000 5.762990e+000 5.935879e+000 4.377848e+000 6.470427e-001
<GCONST> 1.127949e+002
<STATE> 4
<MEAN> 25
 1.432995e+001 -2.115426e+000 -3.625223e+000 -1.642153e+000 -9.222277e+000 8.093524e-001 3.481137e+000 -2.943609e+000 5.085489e+000 5.037107e+000 8.672766e-001 -3.234627e+000 -4.343252e-001 6.425814e-002 -1.200638e+000 -8.966525e-001 1.434364e+000 3.590220e-001 -8.032848e-001 2.800972e-001 2.204729e-001 4.685091e-001 -2.993639e-002 -8.425305e-001 -6.052501e-001
<VARIANCE> 25
 9.770885e+001 5.968457e+001 4.447313e+001 6.241425e+001 1.731211e+001 1.876166e+001 6.464490e+001 2.006872e+002 3.543829e+001 3.744635e+002 4.456068e+001 1.312183e+002 8.358358e-001 5.810878e+000 1.770227e+000 5.906266e+000 2.845383e+000 2.327548e+000 3.408539e+000 5.099617e+000 2.367022e+000 6.085633e+000 4.923417e+000 2.337457e+000 1.858306e+000
<GCONST> 1.103713e+002
<TRANSP> 5
 0.000000e+000 1.000000e+000 0.000000e+000 0.000000e+000 0.000000e+000
 0.000000e+000 9.285347e-001 7.146526e-002 0.000000e+000 0.000000e+000
 0.000000e+000 0.000000e+000 9.388090e-001 6.119106e-002 0.000000e+000
 0.000000e+000 0.000000e+000 0.000000e+000 8.373913e-001 1.626087e-001
 0.000000e+000 0.000000e+000 0.000000e+000 0.000000e+000 0.000000e+000
<ENDHMM>
~h "z"
<BEGINHMM>
<NUMSTATES> 5
<STATE> 2
<MEAN> 25
 -1.118082e+001 4.176162e+000 2.503769e+000 -1.823477e+000 3.775417e+000 -1.010816e+001 3.709892e+000 4.052359e+000 -4.322757e+000 -4.518466e-001 1.262996e+000 3.035123e+000 2.062423e-001 -5.015525e-002 -4.240291e-001 4.187580e-002 2.187163e-001 4.072464e-001 -1.832819e-001 6.041199e-003 1.783152e-001 1.219821e-001 -9.802969e-002 -4.629187e-002 -8.928682e-001
<VARIANCE> 25
 7.435638e+001 5.204593e+001 5.872564e+001 2.570270e+001 3.294624e+001 8.467646e+001 7.235143e+001 5.275154e+001 4.154534e+001 3.792905e+001 3.051850e+001 2.590295e+001 1.976713e+000 1.506710e+000 1.417877e+000 1.560571e+000 2.420009e+000 2.893441e+000 2.756740e+000 2.836445e+000 2.119337e+000 2.232764e+000 1.874312e+000 1.905169e+000 7.095010e-001
<GCONST> 1.001158e+002
<STATE> 3
<MEAN> 25
 -3.467228e+000 1.400323e-002 -1.080153e+000 2.260466e+000 4.838344e-001 3.143793e+000 6.085728e-001 -5.024245e-001 -2.734544e+000 -2.267601e-001 1.658897e-001 4.695927e-001 6.208801e-005 -8.086624e-003 -2.587481e-002 4.628400e-002 -2.484298e-002 1.697990e-001 -6.783774e-002 -7.438003e-002 2.296725e-002 1.061058e-002 6.964923e-003 -1.791608e-002 -2.058326e-001
<VARIANCE> 25
 2.463627e+001 1.391105e+001 1.717239e+001 1.645144e+001 2.058434e+001 2.509360e+001 2.626775e+001 2.458919e+001 3.917846e+001 2.033983e+001 1.885908e+001 1.484714e+001 2.839758e-001 4.941342e-001 6.073157e-001 9.445004e-001 1.144939e+000 1.305546e+000 1.423762e+000 1.816909e+000 1.859902e+000 1.433888e+000 1.435982e+000 1.286790e+000 2.020942e-001
<GCONST> 8.128953e+001
<STATE> 4
<MEAN> 25
 3.231954e+000 5.631903e+000 4.200964e+000 2.324621e+000 5.909867e+000 2.542852e-001 -2.962245e+000 1.166030e+000 -5.692363e+000 1.305124e-002 8.283833e-001 -2.930143e-001 1.551903e-001 -5.320364e-002 3.274709e-002 -5.393516e-002 2.020063e-002 2.170235e-003 -1.430214e-001 3.112059e-002 5.312905e-002 9.946122e-002 -1.731754e-002 1.870309e-005 -8.194737e-003
<VARIANCE> 25
 3.511781e+001 3.490064e+001 3.006257e+001 2.310345e+001 3.461077e+001 3.112615e+001 4.039273e+001 2.834006e+001 3.700735e+001 1.735213e+001 1.226010e+001 1.560063e+001 1.541465e+000 3.287108e+000 2.875976e+000 1.987428e+000 3.091776e+000 2.250179e+000 2.310776e+000 2.614547e+000 3.220595e+000 1.693070e+000 1.288518e+000 1.594452e+000 1.608766e+000
<GCONST> 9.534104e+001
<TRANSP> 5
 0.000000e+000 1.000000e+000 0.000000e+000 0.000000e+000 0.000000e+000
 0.000000e+000 8.178071e-001 1.821929e-001 0.000000e+000 0.000000e+000
 0.000000e+000 0.000000e+000 8.886948e-001 1.113052e-001 0.000000e+000
 0.000000e+000 0.000000e+000 0.000000e+000 8.223127e-001 1.776872e-001
 0.000000e+000 0.000000e+000 0.000000e+000 0.000000e+000 0.000000e+000
<ENDHMM>
~h "aa"
<BEGINHMM>
<NUMSTATES> 5
<STATE> 2
<MEAN> 25
 3.524501e+000 -1.766432e+000 -1.221513e+000 -8.274034e-001 2.218860e+000 -8.887317e-001 -1.188570e-002 2.553137e-001 -8.615772e-001 -3.930336e-001 -1.046380e+000 -7.910508e-001 1.318919e+000 -1.046602e+000 -4.721761e-001 -1.192691e+000 -5.092685e-002 -3.552390e-001 -2.058329e-001 2.118410e-001 6.389350e-001 -4.902011e-001 -8.262178e-001 -3.044660e-001 2.869579e+000
<VARIANCE> 25
 4.408133e+001 6.004821e+001 6.904443e+001 6.084369e+001 5.481731e+001 5.143235e+001 4.528311e+001 4.859445e+001 6.499586e+001 4.921756e+001 5.007999e+001 3.208812e+001 5.663633e+000 6.301334e+000 5.760291e+000 4.961664e+000 6.656074e+000 6.072480e+000 5.450404e+000 5.588797e+000 5.843519e+000 5.649917e+000 5.223925e+000 3.761601e+000 7.754226e+000
<GCONST> 1.158312e+002
<STATE> 3
<MEAN> 25
 7.517209e+000 -9.365252e+000 -2.831918e+000 -3.307660e+000 2.922430e+000 6.650767e-001 1.788675e-001 1.070680e+000 2.971564e+000 -7.321161e+000 -5.170149e+000 -1.803266e+000 -4.452878e-002 1.676450e-001 1.810935e-001 -3.535871e-001 -3.684294e-001 -1.018798e-001 2.133166e-001 -4.080763e-002 -1.080735e-001 -5.978861e-002 1.883752e-001 -9.239632e-002 6.639737e-001
<VARIANCE> 25
 3.975080e+001 6.591222e+001 8.817122e+001 4.527316e+001 8.460935e+001 4.976784e+001 5.862718e+001 8.962103e+001 6.343989e+001 7.212363e+001 5.214632e+001 3.713549e+001 2.322271e+000 2.775598e+000 2.757998e+000 2.408351e+000 3.719970e+000 3.375770e+000 3.626666e+000 4.868933e+000 3.207276e+000 4.000538e+000 3.065476e+000 2.044831e+000 2.568635e+000
<GCONST> 1.095083e+002
<STATE> 4
<MEAN> 25
 3.141744e+000 -5.966322e+000 -1.797857e+000 -7.346517e+000 2.336895e-001 -3.143615e+000 2.819678e+000 6.593086e-001 3.221607e+000 1.027115e+000 -3.992553e+000 -1.943221e+000 2.555215e-002 -1.503791e-002 1.328887e-001 7.638847e-002 -1.204718e-001 -1.330640e-001 -1.088182e-001 8.439608e-002 1.076007e-002 4.667658e-002 1.615608e-002 5.162602e-002 1.307788e-002
<VARIANCE> 25
 7.550309e+001 2.170440e+001 4.337128e+001 2.191922e+001 5.793596e+001 4.216652e+001 4.003469e+001 4.133484e+001 3.512232e+001 5.021719e+001 4.749543e+001 2.955086e+001 9.146884e-001 7.488640e-001 9.934223e-001 9.553990e-001 1.821230e+000 1.638391e+000 1.996914e+000 1.972508e+000 2.136261e+000 2.249387e+000 2.015370e+000 2.095326e+000 6.002537e-001
<GCONST> 9.467350e+001
<TRANSP> 5
 0.000000e+000 1.000000e+000 0.000000e+000 0.000000e+000 0.000000e+000
 0.000000e+000 7.505192e-001 2.494807e-001 0.000000e+000 0.000000e+000
 0.000000e+000 0.000000e+000 7.096776e-001 2.903224e-001 0.000000e+000
 0.000000e+000 0.000000e+000 0.000000e+000 8.661224e-001 1.338776e-001
 0.000000e+000 0.000000e+000 0.000000e+000 0.000000e+000 0.000000e+000
<ENDHMM>
~h "ae"
<BEGINHMM>
<NUMSTATES> 5
<STATE> 2
<MEAN> 25
 6.364734e-001 -3.318455e+000 -1.758664e+000 -9.956322e-001 1.861474e+000 7.412797e-001 2.629560e-001 5.510367e-001 -4.881701e-001 -2.547480e+000 -2.762623e+000 9.187559e-001 -8.502693e-002 -5.720847e-001 6.000372e-003 -3.813087e-001 -9.653848e-002 -6.998707e-002 -2.214486e-001 1.561588e-001 -3.767843e-002 -1.256438e-001 -2.248751e-001 2.809888e-001 6.399345e-001
<VARIANCE> 25
 3.457394e+001 3.899378e+001 2.759436e+001 4.328810e+001 2.695187e+001 2.402633e+001 3.185337e+001 2.050847e+001 2.472339e+001 3.788153e+001 4.934720e+001 1.739334e+001 7.838678e-001 1.200616e+000 1.182624e+000 1.783610e+000 1.718179e+000 1.918563e+000 1.737495e+000 1.544888e+000 2.071407e+000 1.916482e+000 2.346971e+000 1.613540e+000 1.773620e+000
<GCONST> 9.294051e+001
<STATE> 3
<MEAN> 25
 7.550858e+000 -2.574259e+000 3.285394e+000 -4.755676e+000 4.199810e+000 3.199062e-001 -1.172537e+001 -4.480483e+000 -4.165258e+000 -1.881785e+000 -4.065272e-001 2.709053e+000 4.148577e-001 -1.163309e-001 -2.493384e-002 -3.196396e-001 -1.025603e-001 -4.101713e-001 -5.222783e-001 -2.226576e-001 -9.661177e-002 3.394563e-002 2.249432e-003 1.967183e-001 7.095518e-001
<VARIANCE> 25
 2.900182e+001 2.180684e+001 1.943998e+001 3.722376e+001 6.828834e+001 2.925431e+001 7.672692e+001 4.703513e+001 4.645597e+001 3.427044e+001 5.933853e+001 2.413914e+001 2.636803e+000 2.119770e+000 1.796071e+000 2.077447e+000 2.684684e+000 2.317846e+000 3.220979e+000 3.819996e+000 2.391235e+000 3.183501e+000 3.312126e+000 2.018786e+000 3.523197e+000
<GCONST> 1.019766e+002
<STATE> 4
<MEAN> 25
 3.701174e+000 -4.505815e+000 1.494173e+000 -5.415311e+000 -3.102406e+000 -4.867529e+000 -1.960999e-001 1.390230e+000 7.524811e-002 1.221444e+000 -2.763563e+000 -2.812803e-001 6.823850e-002 9.546014e-002 8.953255e-002 -1.776631e-001 -1.769247e-001 -2.033965e-001 1.759978e-001 7.001308e-002 9.726905e-003 7.622952e-002 -2.154701e-002 -1.060452e-001 3.356485e-001
<VARIANCE> 25
 6.291223e+001 3.734547e+001 3.295245e+001 2.588453e+001 3.852490e+001 3.519284e+001 5.269794e+001 6.759836e+001 3.189573e+001 6.123131e+001 5.525480e+001 2.650018e+001 1.897911e+000 2.014853e+000 2.281870e+000 1.576799e+000 2.510504e+000 2.446042e+000 3.416751e+000 2.886835e+000 2.360325e+000 2.740041e+000 2.633487e+000 1.938768e+000 3.398226e+000
<GCONST> 1.021600e+002
<TRANSP> 5
 0.000000e+000 1.000000e+000 0.000000e+000 0.000000e+000 0.000000e+000
 0.000000e+000 5.428519e-001 4.571480e-001 0.000000e+000 0.000000e+000
 0.000000e+000 0.000000e+000 7.540841e-001 2.459159e-001 0.000000e+000
 0.000000e+000 0.000000e+000 0.000000e+000 8.376913e-001 1.623086e-001
 0.000000e+000 0.000000e+000 0.000000e+000 0.000000e+000 0.000000e+000
<ENDHMM>
~h "ah"
<BEGINHMM>
<NUMSTATES> 5
<STATE> 2
<MEAN> 25
 3.888615e+000 1.250799e+000 -1.468766e+000 -4.256667e+000 6.420669e-001 -7.496881e-001 -2.032224e-002 7.416254e-001 -8.562098e-002 5.524533e-001 1.324528e-001 -4.346874e-001 1.139734e+000 -3.901513e-002 -2.751902e-001 -1.216566e+000 -2.140233e-001 2.529065e-001 -1.782412e-001 -1.329090e-001 2.607229e-001 3.270161e-001 6.431724e-003 -2.644430e-001 1.531765e+000
<VARIANCE> 25
 1.206835e+002 6.754183e+001 6.088893e+001 7.768723e+001 8.169370e+001 8.633656e+001 5.064790e+001 5.314083e+001 6.496468e+001 4.924917e+001 5.185601e+001 2.855235e+001 7.947592e+000 5.952592e+000 4.694448e+000 6.684658e+000 7.072900e+000 7.143635e+000 5.557492e+000 6.292668e+000 6.395410e+000 5.575643e+000 5.289219e+000 3.558175e+000 7.245471e+000
<GCONST> 1.188138e+002
<STATE> 3
<MEAN> 25
 9.990836e+000 -1.268389e+000 -2.194006e+000 -7.279829e+000 1.247709e+000 2.156488e+000 -2.001674e+000 8.910097e-001 2.498229e+000 3.319773e+000 -1.426226e+000 -2.094347e+000 -4.807298e-001 -1.323803e-001 5.762252e-002 6.071372e-001 1.741959e-001 -1.804592e-001 1.124130e-001 2.791345e-001 1.904082e-001 -1.716672e-001 -2.400961e-001 2.782013e-002 -3.876085e-001
<VARIANCE> 25
 6.515727e+001 4.837479e+001 4.586489e+001 8.268550e+001 5.911674e+001 8.196763e+001 5.828634e+001 5.573501e+001 6.773990e+001 4.263405e+001 5.929876e+001 3.855957e+001 2.357471e+000 2.655490e+000 2.025813e+000 3.143192e+000 3.006845e+000 4.220916e+000 3.088553e+000 3.694483e+000 3.399910e+000 2.990807e+000 3.882237e+000 2.738578e+000 2.826035e+000
<GCONST> 1.089013e+002
<STATE> 4
<MEAN> 25
 -3.497830e-002 -2.796590e-001 -1.114136e+000 2.035619e+000 1.436961e+000 9.938509e-001 4.418747e-001 1.883198e+000 -1.641167e+000 5.278576e-001 -4.862532e-001 2.839919e-001 -1.986886e-001 2.124086e-002 4.921485e-002 8.801085e-002 -3.167514e-002 6.721822e-002 3.319303e-002 -7.681693e-002 -9.340920e-002 -5.279351e-002 8.371385e-003 6.011199e-002 -2.941401e-001
<VARIANCE> 25
 4.368232e+001 2.012687e+001 2.282062e+001 3.565488e+001 2.782426e+001 2.933468e+001 3.243535e+001 2.995476e+001 5.052593e+001 2.747205e+001 2.933497e+001 2.078347e+001 6.551082e-001 8.308519e-001 1.189511e+000 1.467687e+000 1.717639e+000 2.042914e+000 2.023920e+000 2.031109e+000 2.227918e+000 1.839363e+000 1.911465e+000 1.688818e+000 5.647734e-001
<GCONST> 9.128866e+001
<TRANSP> 5
 0.000000e+000 1.000000e+000 0.000000e+000 0.000000e+000 0.000000e+000
 0.000000e+000 6.945896e-001 3.054104e-001 0.000000e+000 0.000000e+000
 0.000000e+000 0.000000e+000 7.737618e-001 2.262382e-001 0.000000e+000
 0.000000e+000 0.000000e+000 0.000000e+000 8.101892e-001 1.898108e-001
 0.000000e+000 0.000000e+000 0.000000e+000 0.000000e+000 0.000000e+000
<ENDHMM>
~h "ao"
<BEGINHMM>
<NUMSTATES> 5
<STATE> 2
<MEAN> 25
 7.413501e+000 -1.259324e+000 7.529410e-001 -4.845735e+000 -4.650254e+000 -5.243708e+000 -3.708412e+000 -4.816561e+000 1.527314e+000 2.147227e+000 -4.111818e-001 -4.348305e-001 5.603362e-001 4.481283e-001 -1.843013e-001 -2.838230e-001 -9.189997e-002 1.529677e-001 7.882304e-002 9.408064e-002 -3.278367e-001 1.945528e-001 -6.791501e-002 -2.846019e-002 -5.206199e-001
<VARIANCE> 25
 4.772205e+001 3.088011e+001 3.461105e+001 2.777250e+001 3.935006e+001 3.302293e+001 4.406540e+001 4.608594e+001 4.317170e+001 2.764155e+001 4.716570e+001 2.101418e+001 3.073666e+000 2.416079e+000 1.641482e+000 2.104999e+000 2.580803e+000 1.942030e+000 2.210398e+000 3.256452e+000 3.260360e+000 2.602265e+000 2.772215e+000 2.234383e+000 3.691103e+000
<GCONST> 1.009782e+002
<STATE> 3
<MEAN> 25
 9.408218e+000 4.431874e+000 9.232900e-001 -1.822796e+000 3.552563e-001 -1.798643e+000 -2.765999e+000 3.542606e-001 -3.688192e+000 1.815259e+000 6.293080e-001 -1.353929e+000 2.107948e-002 3.675751e-002 3.095276e-002 -2.248738e-001 -1.136845e-001 3.380417e-001 2.004741e-001 -1.326656e-001 -1.578012e-001 2.125372e-001 5.020258e-002 -4.217056e-002 -4.812746e-003
<VARIANCE> 25
 3.690864e+001 3.844594e+001 4.503685e+001 4.441551e+001 3.337239e+001 3.264951e+001 2.566280e+001 2.579834e+001 3.003101e+001 2.622412e+001 2.921046e+001 2.227301e+001 2.089985e+000 2.124841e+000 1.778188e+000 3.462697e+000 2.264554e+000 2.294067e+000 1.856396e+000 2.648227e+000 2.269543e+000 1.999680e+000 1.777477e+000 1.605413e+000 1.406361e+000
<GCONST> 9.689230e+001
<STATE> 4
<MEAN> 25
 1.618724e+001 2.670534e+000 -4.153446e+000 -1.019451e+001 -1.044508e+000 8.679529e+000 1.647872e+000 -6.147504e+000 -2.525297e+000 2.618255e+000 2.374671e+000 3.742726e-001 -2.426211e-001 -3.060505e-001 4.401140e-002 3.810038e-001 4.182806e-001 6.030747e-002 -1.633642e-001 1.395375e-001 3.197648e-001 -1.581421e-001 -1.955894e-002 4.469115e-002 -1.887601e-001
<VARIANCE> 25
 2.708119e+001 6.524416e+001 2.220987e+001 7.279784e+001 5.906350e+001 6.140506e+001 5.967970e+001 5.677364e+001 4.600354e+001 4.420345e+001 4.845317e+001 3.392958e+001 1.043359e+000 2.118638e+000 1.562140e+000 3.339902e+000 3.532129e+000 4.226941e+000 3.501508e+000 3.466841e+000 2.401878e+000 2.947954e+000 2.466334e+000 2.866801e+000 1.380552e+000
<GCONST> 1.040395e+002
<TRANSP> 5
 0.000000e+000 1.000000e+000 0.000000e+000 0.000000e+000 0.000000e+000
 0.000000e+000 7.981117e-001 2.018883e-001 0.000000e+000 0.000000e+000
 0.000000e+000 0.000000e+000 8.070972e-001 1.929028e-001 0.000000e+000
 0.000000e+000 0.000000e+000 0.000000e+000 8.686635e-001 1.313365e-001
 0.000000e+000 0.000000e+000 0.000000e+000 0.000000e+000 0.000000e+000
<ENDHMM>
~h "aw"
<BEGINHMM>
<NUMSTATES> 5
<STATE> 2
<MEAN> 25
 4.038534e+000 -5.737360e+000 -2.351511e+000 -5.078290e+000 6.054518e+000 2.585196e+000 2.108067e+000 -1.107342e+000 -1.927160e+000 2.315397e+000 8.950147e-001 -2.741937e+000 -1.246684e-001 -2.233249e-001 9.696100e-001 -2.136212e+000 -1.553805e+000 1.017841e+000 1.414824e+000 -4.861296e-001 3.245620e-001 2.831754e-001 4.286054e-001 -7.601780e-001 2.599995e+000
<VARIANCE> 25
 5.587925e+001 4.808842e+001 1.160867e+002 5.626433e+001 1.086985e+002 8.387194e+001 5.783231e+001 6.254743e+001 6.431242e+001 3.609956e+001 4.005486e+001 2.661977e+001 1.041842e+001 7.824388e+000 5.842330e+000 4.245442e+000 7.241235e+000 7.725942e+000 8.633492e+000 5.636145e+000 5.328032e+000 5.763439e+000 5.466556e+000 3.007118e+000 5.064492e+000
<GCONST> 1.180283e+002
<STATE> 3
<MEAN> 25
 -5.586768e+000 -1.347133e+001 1.094188e+001 -8.077052e+000 4.667154e+000 1.896938e+000 2.556417e+000 4.872641e+000 -1.205307e+001 3.123818e+000 3.526594e+000 -1.346745e+000 1.469139e-001 1.569871e-001 -7.751421e-001 -2.875834e-001 -6.430734e-001 2.077344e-001 2.539980e-001 3.947758e-001 2.025293e-001 -3.081409e-001 9.977574e-002 -9.571557e-002 -4.755933e-001
<VARIANCE> 25
 5.794613e+001 4.769676e+001 9.195792e+001 3.213292e+001 3.440281e+001 2.982327e+001 3.930711e+001 3.726023e+001 5.696252e+001 2.769127e+001 3.137239e+001 1.897181e+001 2.527538e+000 2.926352e+000 2.208906e+000 3.009926e+000 2.057252e+000 1.704418e+000 2.635277e+000 2.317782e+000 2.285787e+000 1.965850e+000 2.226147e+000 2.038821e+000 1.834131e+000
<GCONST> 1.004191e+002
<STATE> 4
<MEAN> 25
 6.633834e+000 -3.393271e+000 -5.988615e+000 -1.372573e+001 -2.945631e+000 7.692074e+000 2.931490e+000 -1.647284e+000 5.234370e-001 -2.203481e-001 2.423625e+000 -3.799266e+000 4.243741e-001 5.734820e-001 1.326877e-001 -2.246267e-002 -5.015184e-001 -3.295500e-001 -5.023765e-001 -1.272545e-001 2.644879e-001 -1.193871e-001 -4.066194e-001 6.277309e-002 -1.652480e-001
<VARIANCE> 25
 9.448611e+001 4.678445e+001 2.803518e+001 6.320699e+001 5.500913e+001 8.569238e+001 4.843274e+001 4.285227e+001 4.544894e+001 3.592285e+001 5.548305e+001 2.514829e+001 9.493040e-001 9.752949e-001 1.312609e+000 2.118981e+000 2.277394e+000 2.580255e+000 1.973781e+000 1.696094e+000 2.245906e+000 1.983268e+000 3.033861e+000 1.528235e+000 7.754247e-001
<GCONST> 9.925440e+001
<TRANSP> 5
 0.000000e+000 1.000000e+000 0.000000e+000 0.000000e+000 0.000000e+000
 0.000000e+000 6.814809e-001 3.185191e-001 0.000000e+000 0.000000e+000
 0.000000e+000 0.000000e+000 8.060206e-001 1.939795e-001 0.000000e+000
 0.000000e+000 0.000000e+000 0.000000e+000 8.337668e-001 1.662333e-001
 0.000000e+000 0.000000e+000 0.000000e+000 0.000000e+000 0.000000e+000
<ENDHMM>
~h "ay"
<BEGINHMM>
<NUMSTATES> 5
<STATE> 2
<MEAN> 25
 1.398615e+000 1.313051e+000 2.091027e+000 3.475771e+000 1.672132e-001 -4.506646e-001 3.794725e-001 -3.120178e-002 -1.826316e+000 -1.844492e+000 -3.229570e-001 -8.304954e-001 -6.944732e-001 -2.808423e-001 -4.279138e-001 8.126636e-002 1.954799e-001 2.332712e-001 4.854359e-002 -9.023948e-002 4.980633e-002 1.591350e-001 1.527158e-001 1.097179e-001 -6.620492e-001
<VARIANCE> 25
 4.853610e+001 3.125525e+001 3.771577e+001 3.491353e+001 5.485250e+001 4.175318e+001 4.433047e+001 3.258388e+001 3.750948e+001 3.705933e+001 3.101414e+001 2.048609e+001 1.620026e+000 2.024282e+000 2.621304e+000 2.765785e+000 3.598262e+000 3.392136e+000 3.294488e+000 2.833821e+000 3.105765e+000 2.613960e+000 2.097054e+000 1.891381e+000 9.266123e-001
<GCONST> 1.004578e+002
<STATE> 3
<MEAN> 25
 -4.075617e+000 -1.246913e+000 -9.010605e-002 1.895192e+000 -1.151708e+000 1.046219e+000 -6.986974e-001 -1.652683e+000 -1.003632e+000 -7.638038e-001 9.192520e-001 -2.493175e-001 -1.792421e-001 -5.360581e-002 -1.764526e-001 -5.739661e-002 -2.692542e-002 7.180355e-002 4.989234e-002 4.195125e-004 6.900249e-002 5.553000e-002 3.525372e-002 7.276928e-002 -1.922837e-001
<VARIANCE> 25
 2.585523e+001 9.516339e+000 1.335601e+001 1.962159e+001 1.606251e+001 1.611452e+001 1.729879e+001 1.607107e+001 1.895870e+001 1.855453e+001 1.680289e+001 1.227217e+001 2.340761e-001 3.571802e-001 5.508348e-001 6.998037e-001 8.810957e-001 1.005783e+000 1.045704e+000 1.096452e+000 1.218645e+000 1.132728e+000 9.875677e-001 8.850535e-001 1.278557e-001
<GCONST> 7.410872e+001
<STATE> 4
<MEAN> 25
 1.200762e+000 1.526864e+000 1.363107e+000 2.920958e+000 3.231273e+000 1.039251e+000 -4.819980e-001 3.763555e-001 -2.256642e+000 -9.356733e-002 1.017197e+000 4.402640e-001 -5.223817e-003 -1.849413e-002 9.266628e-003 1.348699e-001 1.766499e-001 9.367550e-002 5.808748e-002 1.418518e-001 2.256551e-002 9.711433e-003 3.388324e-002 6.351773e-002 -3.144145e-002
<VARIANCE> 25
 2.070207e+001 1.010514e+001 1.487637e+001 1.599647e+001 1.735144e+001 1.647254e+001 1.636568e+001 1.528578e+001 1.973808e+001 1.570743e+001 1.259967e+001 1.192069e+001 3.643530e-001 6.658309e-001 7.861591e-001 1.070907e+000 1.286765e+000 1.456476e+000 1.355376e+000 1.516460e+000 1.432118e+000 1.242556e+000 1.110170e+000 1.067172e+000 1.753369e-001
<GCONST> 7.745343e+001
<TRANSP> 5
 0.000000e+000 1.000000e+000 0.000000e+000 0.000000e+000 0.000000e+000
 0.000000e+000 7.531151e-001 2.468849e-001 0.000000e+000 0.000000e+000
 0.000000e+000 0.000000e+000 7.744349e-001 2.255651e-001 0.000000e+000
 0.000000e+000 0.000000e+000 0.000000e+000 7.673461e-001 2.326539e-001
 0.000000e+000 0.000000e+000 0.000000e+000 0.000000e+000 0.000000e+000
<ENDHMM>
~h "ch"
<BEGINHMM>
<NUMSTATES> 5
<STATE> 2
<MEAN> 25
 -2.726116e+000 1.788714e-001 3.022494e+000 -2.913554e+000 3.906626e+000 -3.260417e+000 -4.825174e-001 2.775763e+000 -1.095362e+000 -1.592741e+000 -1.212139e+000 8.393095e-001 -2.106525e+000 -1.734293e-001 7.390632e-001 -6.794103e-001 8.230400e-003 -4.081879e-001 4.443105e-002 6.324676e-001 2.139363e-001 1.992315e-001 3.572607e-001 2.879354e-001 7.279226e-001
<VARIANCE> 25
 7.173023e+001 1.085727e+002 4.922856e+001 5.195888e+001 3.947623e+001 3.580720e+001 4.701412e+001 4.315497e+001 5.804203e+001 3.551041e+001 5.753203e+001 1.842966e+001 5.063897e+000 8.229696e+000 5.991752e+000 5.299661e+000 3.846287e+000 2.585322e+000 4.385449e+000 4.840938e+000 6.279362e+000 2.573654e+000 3.936408e+000 1.715268e+000 2.783300e+000
<GCONST> 1.104769e+002
<STATE> 3
<MEAN> 25
 -6.941015e+000 -1.104936e+001 1.236638e+001 -5.789746e+000 3.493817e+000 -1.950671e+000 -6.697655e-001 6.118020e+000 -7.742384e+000 3.249616e+000 2.398745e+000 -7.273324e-001 -1.295881e-001 -1.853747e-001 -4.655487e-002 2.329974e-001 -3.359893e-001 -5.105240e-002 1.628586e-001 3.032930e-001 1.438755e-001 3.518581e-002 2.974621e-001 1.710613e-002 -2.229244e-001
<VARIANCE> 25
 6.817357e+001 8.299935e+001 7.014880e+001 4.173822e+001 2.767763e+001 2.328437e+001 4.721960e+001 3.966854e+001 6.120534e+001 2.610358e+001 2.708472e+001 1.365203e+001 3.222888e+000 3.371729e+000 3.137894e+000 2.413273e+000 1.956977e+000 1.211026e+000 2.394261e+000 1.768136e+000 2.893594e+000 1.547168e+000 1.977050e+000 1.214339e+000 1.490907e+000
<GCONST> 9.935301e+001
<STATE> 4
<MEAN> 25
 -9.263406e+000 -1.069802e+000 5.533368e+000 2.990551e-001 3.664340e+000 -6.557987e+000 5.205087e-001 8.589590e+000 2.285448e+000 -1.382803e+000 2.158916e+000 1.582508e+000 1.124377e+000 -1.429034e-001 -2.304903e-001 3.527254e-001 3.413874e-002 6.181890e-001 -2.067014e-001 -1.242942e-001 -2.744273e-001 5.137409e-002 -9.070969e-002 -3.539942e-001 -1.292283e+000
<VARIANCE> 25
 5.972718e+001 4.393180e+001 3.923935e+001 4.893396e+001 5.822590e+001 6.767354e+001 4.062710e+001 5.433041e+001 5.845821e+001 3.405334e+001 3.812099e+001 2.827202e+001 1.867575e+000 2.361022e+000 3.033697e+000 2.884691e+000 2.548225e+000 4.562684e+000 2.825344e+000 4.434301e+000 4.018357e+000 2.761544e+000 2.134168e+000 2.401247e+000 2.459582e+000
<GCONST> 1.055119e+002
<TRANSP> 5
 0.000000e+000 1.000000e+000 0.000000e+000 0.000000e+000 0.000000e+000
 0.000000e+000 7.936628e-001 2.063372e-001 0.000000e+000 0.000000e+000
 0.000000e+000 0.000000e+000 8.145571e-001 1.854430e-001 0.000000e+000
 0.000000e+000 0.000000e+000 0.000000e+000 7.762148e-001 2.237852e-001
 0.000000e+000 0.000000e+000 0.000000e+000 0.000000e+000 0.000000e+000
<ENDHMM>
~h "dh"
<BEGINHMM>
<NUMSTATES> 5
<STATE> 2
<MEAN> 25
 1.876480e+000 4.557237e+000 1.309881e+000 3.193027e+000 3.746519e+000 1.311450e+000 -8.610652e-001 -1.712445e+000 -3.200688e+000 -4.285524e-001 -5.613415e-001 -1.585833e+000 1.276310e+000 -7.766349e-001 1.562608e+000 -7.902811e-001 -1.295268e-001 -6.497114e-001 -1.235844e+000 -6.195695e-003 -9.503583e-001 5.950404e-002 -7.240714e-001 -3.162439e-001 2.238628e+000
<VARIANCE> 25
 3.934455e+001 3.096059e+001 3.931624e+001 2.105937e+001 4.956062e+001 2.867992e+001 5.808273e+001 2.389347e+001 4.401622e+001 2.555490e+001 2.293039e+001 2.138514e+001 3.617951e+000 5.078192e+000 5.327532e+000 2.346699e+000 9.286592e+000 3.042208e+000 5.103677e+000 3.789707e+000 6.253444e+000 2.691030e+000 3.395559e+000 2.312778e+000 3.480438e+000
<GCONST> 1.053577e+002
<STATE> 3
<MEAN> 25
 5.927145e+000 2.841567e+000 6.732938e+000 -1.578387e+000 -2.021794e+000 -2.605891e+000 -2.606880e+000 -5.401257e-001 -3.843827e+000 1.787136e+000 -9.444987e-001 -5.889412e-001 7.008884e-001 -1.915022e+000 7.013261e-001 -1.671128e+000 -2.642370e+000 -9.924089e-001 -1.968305e-002 7.462876e-002 1.163066e+000 -2.600483e-001 -2.100639e-001 3.453390e-001 3.942716e+000
<VARIANCE> 25
 3.346106e+001 7.275197e+001 5.355976e+001 2.750430e+001 1.139806e+002 4.472923e+001 4.017887e+001 4.913736e+001 5.069741e+001 2.905434e+001 4.074882e+001 1.674966e+001 5.554536e+000 6.788584e+000 1.137252e+001 3.073415e+000 8.291187e+000 4.720743e+000 8.508186e+000 7.259557e+000 7.001364e+000 5.606131e+000 7.700745e+000 3.372721e+000 4.799454e+000
<GCONST> 1.144548e+002
<STATE> 4
<MEAN> 25
 4.330961e+000 -6.639721e-001 -3.545540e-001 -6.625403e+000 -4.975297e+000 4.697829e+000 1.918205e+000 2.720466e-001 3.397062e+000 -2.170578e+000 -2.062261e+000 -9.495528e-001 -4.139182e-001 -7.679809e-001 -4.884005e-001 -3.614263e-001 5.909335e-001 -1.511529e-002 1.550109e-001 2.493121e-001 2.680164e-001 9.541297e-002 2.032085e-002 1.470719e-002 1.525559e+000
<VARIANCE> 25
 8.593120e+001 1.141848e+002 1.164541e+002 1.048266e+002 6.942994e+001 9.042371e+001 6.311918e+001 4.026155e+001 6.794386e+001 5.144524e+001 9.238000e+001 5.847088e+001 9.498326e+000 4.706118e+000 3.355314e+000 6.740100e+000 4.440358e+000 3.721294e+000 4.555819e+000 3.890747e+000 3.872522e+000 4.580516e+000 4.852586e+000 4.557297e+000 1.808547e+001
<GCONST> 1.193525e+002
<TRANSP> 5
 0.000000e+000 1.000000e+000 0.000000e+000 0.000000e+000 0.000000e+000
 0.000000e+000 4.973800e-001 5.026200e-001 0.000000e+000 0.000000e+000
 0.000000e+000 0.000000e+000 4.597027e-001 5.402973e-001 0.000000e+000
 0.000000e+000 0.000000e+000 0.000000e+000 8.145714e-001 1.854286e-001
 0.000000e+000 0.000000e+000 0.000000e+000 0.000000e+000 0.000000e+000
<ENDHMM>
~h "eh"
<BEGINHMM>
<NUMSTATES> 5
<STATE> 2
<MEAN> 25
 -1.994740e-001 -6.657423e+000 7.540402e+000 -3.285876e+000 6.420908e-001 -2.856105e+000 5.025520e-001 2.397385e+000 -2.938038e+000 2.762660e+000 1.158702e+000 -1.029741e-001 -1.693863e+000 -1.395609e+000 1.217924e+000 -8.880221e-001 -2.773293e-001 -2.478038e-001 1.073922e+000 1.029277e+000 -5.127675e-001 5.994909e-001 2.263806e-001 -1.666461e-001 9.760880e-001
<VARIANCE> 25
 8.151335e+001 6.542423e+001 1.106734e+002 3.555107e+001 7.013060e+001 4.371733e+001 3.691216e+001 4.003991e+001 5.809511e+001 3.429282e+001 2.685950e+001 2.610447e+001 4.351405e+000 4.805873e+000 4.715801e+000 1.891187e+000 2.208656e+000 2.145401e+000 4.068549e+000 3.656010e+000 2.673108e+000 2.637768e+000 2.463848e+000 2.040572e+000 1.926674e+000
<GCONST> 1.059902e+002
<STATE> 3
<MEAN> 25
 -5.645692e+000 -9.689978e+000 6.869254e+000 -6.603400e+000 -9.689966e-001 -5.107096e+000 2.650129e+000 6.552929e+000 -1.137727e+000 2.425960e+000 -2.971059e-001 -2.716323e-001 8.306473e-002 1.638261e-001 -1.317432e-001 1.097843e-001 -1.902308e-001 4.106440e-002 2.095709e-001 1.046364e-001 1.027842e-001 -1.588431e-001 -1.617099e-001 -5.159087e-002 -5.251361e-001
<VARIANCE> 25
 1.029739e+002 6.636069e+001 9.218496e+001 2.501435e+001 4.896564e+001 2.692283e+001 3.039897e+001 3.806228e+001 5.762492e+001 2.579389e+001 2.854534e+001 1.672169e+001 8.468246e-001 1.130957e+000 1.390794e+000 1.163640e+000 1.175629e+000 1.240947e+000 1.620217e+000 1.724684e+000 1.794865e+000 1.340921e+000 1.375294e+000 1.085735e+000 8.991724e-001
<GCONST> 9.324622e+001
<STATE> 4
<MEAN> 25
 -5.598576e+000 -8.770415e+000 9.509517e+000 -4.238066e-001 -8.730853e+000 3.569316e+000 4.936564e+000 -4.377423e-001 5.385113e+000 -4.696310e+000 1.280784e+000 -1.949083e+000 4.603752e-001 2.192129e-001 1.471988e-001 3.782003e-001 1.508355e-001 3.559688e-001 -2.428758e-001 -2.212757e-001 -1.313588e-001 -1.315507e-001 -1.415252e-002 1.456910e-001 -8.314747e-001
<VARIANCE> 25
 9.038399e+001 5.734235e+001 6.495922e+001 5.094459e+001 7.991316e+001 8.469537e+001 4.674010e+001 6.850946e+001 7.093573e+001 6.427895e+001 4.206874e+001 3.983922e+001 5.063979e+000 3.931103e+000 4.247034e+000 2.951629e+000 4.751392e+000 4.565305e+000 3.561523e+000 4.207300e+000 4.355345e+000 3.483402e+000 3.368418e+000 2.516050e+000 2.459823e+000
<GCONST> 1.124055e+002
<TRANSP> 5
 0.000000e+000 1.000000e+000 0.000000e+000 0.000000e+000 0.000000e+000
 0.000000e+000 5.158986e-001 4.841015e-001 0.000000e+000 0.000000e+000
 0.000000e+000 0.000000e+000 8.162448e-001 1.837552e-001 0.000000e+000
 0.000000e+000 0.000000e+000 0.000000e+000 7.981204e-001 2.018796e-001
 0.000000e+000 0.000000e+000 0.000000e+000 0.000000e+000 0.000000e+000
<ENDHMM>
~h "er"
<BEGINHMM>
<NUMSTATES> 5
<STATE> 2
<MEAN> 25
 3.265109e+000 -2.126131e+000 -4.614870e+000 -3.327405e+000 4.691702e+000 6.394385e-001 1.175193e+000 6.344489e-001 5.484704e+000 -1.108122e+000 -3.924271e+000 -1.083385e+000 -4.540323e-001 -4.843417e-001 -5.803236e-002 -3.552243e-002 -3.979984e-001 -7.548144e-001 -1.173179e-001 6.614687e-001 7.794678e-001 -2.002243e-001 -1.354830e-001 4.594093e-003 1.031308e+000
<VARIANCE> 25
 5.800404e+001 2.903579e+001 4.545401e+001 5.155153e+001 5.168856e+001 8.830181e+001 8.621767e+001 6.605779e+001 5.461055e+001 6.308634e+001 7.455706e+001 3.482044e+001 3.659347e+000 2.537328e+000 2.141954e+000 3.884331e+000 4.258804e+000 5.841590e+000 6.300632e+000 6.727531e+000 4.862644e+000 3.934008e+000 4.372952e+000 3.417374e+000 5.630486e+000
<GCONST> 1.129068e+002
<STATE> 3
<MEAN> 25
 2.114406e+000 -4.673785e+000 -3.358168e+000 -4.697423e+000 -2.481726e+000 -7.326460e+000 -4.576957e-001 2.727403e+000 6.789868e+000 2.511601e+000 -2.947623e+000 -2.842024e+000 4.104725e-001 -5.945981e-002 6.609190e-002 2.683844e-001 2.923394e-003 -2.157307e-001 -2.532140e-001 1.091410e-001 8.085946e-003 3.144635e-002 -6.602000e-002 -6.842437e-002 -1.949617e-001
<VARIANCE> 25
 5.224374e+001 1.483905e+001 1.639006e+001 3.408396e+001 1.943703e+001 3.394778e+001 3.907991e+001 3.585838e+001 3.999372e+001 2.915531e+001 3.973023e+001 2.052028e+001 3.902112e+000 1.260923e+000 1.173735e+000 2.693643e+000 1.769633e+000 2.489909e+000 2.575698e+000 3.343668e+000 2.984291e+000 2.147367e+000 2.824440e+000 2.034359e+000 3.549388e+000
<GCONST> 9.768121e+001
<STATE> 4
<MEAN> 25
 1.090803e+001 -5.243443e+000 -3.081420e+000 4.030325e+000 -1.290444e+000 -1.069983e+001 -5.385141e+000 7.439479e+000 3.936446e+000 -1.480286e+000 -2.441181e+000 -3.527607e-001 -6.431886e-002 1.895787e-001 6.803524e-002 3.003637e-001 2.540326e-001 1.368888e-001 3.981422e-002 -9.639388e-002 -4.788129e-001 7.126160e-003 1.984440e-001 1.885054e-001 -8.812568e-001
<VARIANCE> 25
 3.593733e+001 4.272915e+001 5.450846e+001 7.068556e+001 4.924949e+001 7.428608e+001 9.293971e+001 4.845496e+001 5.270211e+001 4.510885e+001 4.399411e+001 3.532518e+001 2.887022e+000 2.916785e+000 2.554605e+000 3.972373e+000 4.233423e+000 5.716640e+000 5.517749e+000 3.979117e+000 4.124368e+000 3.208426e+000 3.241913e+000 2.733945e+000 2.615454e+000
<GCONST> 1.097294e+002
<TRANSP> 5
 0.000000e+000 1.000000e+000 0.000000e+000 0.000000e+000 0.000000e+000
 0.000000e+000 7.264259e-001 2.735742e-001 0.000000e+000 0.000000e+000
 0.000000e+000 0.000000e+000 8.458356e-001 1.541645e-001 0.000000e+000
 0.000000e+000 0.000000e+000 0.000000e+000 8.698715e-001 1.301285e-001
 0.000000e+000 0.000000e+000 0.000000e+000 0.000000e+000 0.000000e+000
<ENDHMM>
~h "ey"
<BEGINHMM>
<NUMSTATES> 5
<STATE> 2
<MEAN> 25
 6.528069e+000 2.751577e+000 1.403137e+000 -1.546360e+000 1.277189e+000 -1.833354e-001 -1.111939e-001 1.255885e-001 -1.349751e+000 -1.705189e+000 -1.586614e-001 1.575083e-001 2.523551e-001 -8.201778e-001 -5.773979e-002 -4.898181e-001 -6.841201e-002 4.667589e-002 -6.251900e-001 -1.078395e+000 -3.561605e-002 -5.343401e-001 2.489848e-001 8.059670e-002 1.955372e+000
<VARIANCE> 25
 6.148369e+001 6.859642e+001 5.034873e+001 5.103032e+001 8.533417e+001 5.896695e+001 5.734636e+001 6.847815e+001 6.405017e+001 3.178394e+001 3.587265e+001 2.246738e+001 6.549200e+000 6.240408e+000 4.294200e+000 5.260186e+000 8.928628e+000 5.543810e+000 6.678648e+000 8.203747e+000 5.050645e+000 6.053117e+000 4.614635e+000 2.691395e+000 6.312526e+000
<GCONST> 1.157704e+002
<STATE> 3
<MEAN> 25
 9.244452e+000 -9.115732e-001 1.576900e+000 -1.736631e+000 9.063939e-002 -1.601964e+000 -7.665648e+000 -2.136485e+000 2.303255e+000 -2.258576e+000 2.910203e+000 -2.266079e+000 -1.966699e-001 5.295152e-002 3.504308e-001 3.772134e-001 -3.974094e-001 -5.442549e-001 -1.340006e-001 6.489898e-002 1.337654e-001 -4.511618e-003 1.215869e-001 -1.266009e-001 -9.426338e-002
<VARIANCE> 25
 4.002880e+001 4.797282e+001 4.525971e+001 6.090302e+001 3.278462e+001 6.406896e+001 8.450336e+001 9.722156e+001 6.230271e+001 5.223809e+001 9.386652e+001 4.052361e+001 3.245210e+000 2.980131e+000 2.061012e+000 2.413682e+000 3.392206e+000 4.066417e+000 4.168147e+000 5.931730e+000 3.631504e+000 3.292251e+000 6.083446e+000 3.526389e+000 4.087247e+000
<GCONST> 1.110846e+002
<STATE> 4
<MEAN> 25
 2.955451e+000 1.011314e+000 8.366509e+000 -1.798328e+000 -6.727478e+000 -5.087432e+000 -3.772132e+000 -2.760541e+000 -2.701737e+000 -2.231038e+000 3.162593e+000 -6.114941e-001 -2.201327e-001 7.082316e-002 -2.542409e-002 1.368705e-001 2.732338e-001 7.456400e-002 1.327254e-001 1.298338e-002 -1.913572e-001 1.464917e-001 -7.723355e-002 -7.015773e-002 -3.612211e-001
<VARIANCE> 25
 7.454559e+001 4.445139e+001 5.822681e+001 5.750793e+001 1.290405e+002 5.982174e+001 4.338504e+001 8.839436e+001 6.173601e+001 6.323833e+001 4.902007e+001 3.406098e+001 2.876726e+000 1.830068e+000 2.843649e+000 2.874429e+000 6.020371e+000 3.819108e+000 3.898612e+000 5.377589e+000 4.109762e+000 3.621552e+000 3.577868e+000 2.477426e+000 1.691519e+000
<GCONST> 1.104104e+002
<TRANSP> 5
 0.000000e+000 1.000000e+000 0.000000e+000 0.000000e+000 0.000000e+000
 0.000000e+000 5.765996e-001 4.234005e-001 0.000000e+000 0.000000e+000
 0.000000e+000 0.000000e+000 7.676229e-001 2.323771e-001 0.000000e+000
 0.000000e+000 0.000000e+000 0.000000e+000 8.720211e-001 1.279788e-001
 0.000000e+000 0.000000e+000 0.000000e+000 0.000000e+000 0.000000e+000
<ENDHMM>
~h "hh"
<BEGINHMM>
<NUMSTATES> 5
<STATE> 2
<MEAN> 25
 -1.243170e+001 4.971793e+000 -3.500143e-002 8.504534e+000 1.485187e+000 9.643343e+000 3.972676e+000 3.559749e+000 6.206364e+000 2.083095e+000 4.490025e+000 3.190932e+000 2.513684e-001 -2.754556e-001 -7.229628e-002 -1.431808e-001 -1.007095e-001 5.468941e-002 -9.275991e-003 -1.043389e-001 -1.965136e-001 -3.290627e-002 1.006374e-001 2.398249e-001 9.655433e-002
<VARIANCE> 25
 5.989077e+001 2.766062e+001 3.060536e+001 6.170887e+001 2.306994e+001 1.198712e+002 2.339252e+001 3.294692e+001 4.142212e+001 3.643468e+001 2.340624e+001 1.339890e+001 1.013808e+000 9.486504e-001 1.128284e+000 1.600163e+000 1.240717e+000 1.815585e+000 1.399583e+000 1.777989e+000 1.718226e+000 1.351549e+000 1.240604e+000 9.662500e-001 9.351872e-001
<GCONST> 9.177519e+001
<STATE> 3
<MEAN> 25
 -5.009923e+000 -7.603992e-001 -2.794421e+000 3.204993e+000 9.122145e-001 2.556530e+000 1.933886e+000 1.959574e+000 -8.455946e-001 1.688888e-001 1.685560e+000 2.609848e+000 2.384442e+000 -1.705639e+000 4.107823e-001 -1.452535e+000 3.054390e-001 -9.112234e-001 -5.358912e-001 -4.166677e-001 -6.656792e-001 -7.166512e-001 -7.991421e-001 -2.644773e-001 4.294495e+000
<VARIANCE> 25
 8.502880e+001 5.067662e+001 3.722217e+001 5.551353e+001 3.678106e+001 6.465190e+001 2.972549e+001 5.588272e+001 5.354089e+001 3.527777e+001 3.498933e+001 1.682451e+001 8.539765e+000 4.036366e+000 4.200727e+000 4.381639e+000 3.198155e+000 6.826674e+000 2.998374e+000 4.192484e+000 4.795056e+000 2.337319e+000 3.100436e+000 2.153819e+000 1.511462e+001
<GCONST> 1.101583e+002
<STATE> 4
<MEAN> 25
 4.853625e+000 -6.553183e+000 -5.281615e-001 -4.184549e+000 1.668130e+000 -1.110701e+000 1.187288e+000 -4.481593e-001 -1.341690e+000 -1.629618e+000 -4.400179e+000 1.768132e+000 3.044587e-001 8.548445e-003 2.880345e-001 3.081899e-002 -3.036600e-002 6.509467e-002 -1.673359e-001 -2.480306e-001 -2.688066e-001 1.226978e-001 3.594261e-003 -2.553448e-001 2.263047e-001
<VARIANCE> 25
 6.729428e+001 7.181983e+001 8.037617e+001 6.347876e+001 7.935484e+001 5.282275e+001 7.152709e+001 3.904667e+001 5.373652e+001 4.611084e+001 5.027517e+001 2.458075e+001 1.515255e+000 1.896431e+000 2.604634e+000 2.125310e+000 3.020063e+000 3.203028e+000 2.623386e+000 2.334593e+000 3.335030e+000 2.485652e+000 2.381167e+000 1.740648e+000 2.699349e+000
<GCONST> 1.055562e+002
<TRANSP> 5
 0.000000e+000 1.000000e+000 0.000000e+000 0.000000e+000 0.000000e+000
 0.000000e+000 7.499652e-001 2.500347e-001 0.000000e+000 0.000000e+000
 0.000000e+000 0.000000e+000 6.740141e-001 3.259858e-001 0.000000e+000
 0.000000e+000 0.000000e+000 0.000000e+000 7.912285e-001 2.087715e-001
 0.000000e+000 0.000000e+000 0.000000e+000 0.000000e+000 0.000000e+000
<ENDHMM>
~h "ih"
<BEGINHMM>
<NUMSTATES> 5
<STATE> 2
<MEAN> 25
 2.542234e+000 1.123787e+000 7.398484e+000 -2.136802e+000 -4.678508e+000 -2.496930e+000 1.492044e+000 -2.924158e+000 -2.342538e+000 -9.866009e-002 8.093821e-001 -4.483609e-001 -1.591418e-001 -8.983706e-001 2.604678e+000 -1.505649e+000 -2.586402e+000 -8.076518e-001 -1.668620e-001 -5.997764e-001 -9.396772e-001 -2.041690e-001 6.503120e-001 1.307947e-001 2.934385e+000
<VARIANCE> 25
 6.024638e+001 5.198195e+001 7.395486e+001 4.475142e+001 1.039600e+002 5.745241e+001 4.816724e+001 6.182562e+001 5.433720e+001 4.312053e+001 3.435759e+001 2.403179e+001 8.152956e+000 5.007451e+000 6.689706e+000 5.461515e+000 1.131142e+001 5.170793e+000 6.663436e+000 8.126227e+000 5.906132e+000 5.825042e+000 5.361653e+000 3.299816e+000 4.387689e+000
<GCONST> 1.165285e+002
<STATE> 3
<MEAN> 25
 4.566577e+000 -3.445783e+000 1.445117e+001 -7.189733e+000 -1.033208e+001 -3.547945e+000 -2.472693e+000 -4.130149e-001 -6.857660e+000 1.285650e+000 2.599321e+000 -1.948738e-001 -2.644525e-002 9.808883e-002 -2.748404e-001 2.900436e-001 3.023153e-001 -9.949416e-002 1.305115e-002 -1.782197e-001 -1.960655e-002 -3.406686e-002 -1.210228e-001 2.646824e-001 2.936900e-001
<VARIANCE> 25
 5.540553e+001 4.392664e+001 6.064233e+001 4.478793e+001 7.860206e+001 4.817610e+001 3.537240e+001 7.216164e+001 4.582641e+001 4.709630e+001 3.760839e+001 3.216584e+001 2.189723e+000 2.600786e+000 2.454892e+000 2.117848e+000 3.916233e+000 2.628659e+000 3.776661e+000 2.764913e+000 3.021768e+000 2.303681e+000 2.405010e+000 1.833425e+000 3.793097e+000
<GCONST> 1.053331e+002
<STATE> 4
<MEAN> 25
 -4.695156e+000 4.492663e+000 7.113592e+000 4.349643e+000 -3.159482e+000 -7.205224e+000 4.480594e+000 -2.971894e+000 -1.877270e+000 -3.652177e+000 2.393665e+000 2.785465e+000 -4.618948e-001 4.304523e-001 -5.818160e-001 5.985272e-001 9.321771e-001 -5.112454e-002 6.296807e-002 2.882125e-001 1.349258e-001 -1.031741e-001 -6.819797e-002 -2.825737e-003 -9.941004e-001
<VARIANCE> 25
 9.079254e+001 5.993444e+001 5.454702e+001 7.089980e+001 9.890706e+001 9.748753e+001 8.153918e+001 8.432437e+001 6.684972e+001 3.951377e+001 3.711863e+001 2.867009e+001 5.531663e+000 4.758113e+000 3.752857e+000 4.754632e+000 5.854418e+000 6.096112e+000 6.476049e+000 5.371098e+000 5.189198e+000 3.707039e+000 3.567508e+000 2.730717e+000 1.991136e+000
<GCONST> 1.148657e+002
<TRANSP> 5
 0.000000e+000 1.000000e+000 0.000000e+000 0.000000e+000 0.000000e+000
 0.000000e+000 6.453989e-001 3.546011e-001 0.000000e+000 0.000000e+000
 0.000000e+000 0.000000e+000 7.732391e-001 2.267609e-001 0.000000e+000
 0.000000e+000 0.000000e+000 0.000000e+000 8.159155e-001 1.840845e-001
 0.000000e+000 0.000000e+000 0.000000e+000 0.000000e+000 0.000000e+000
<ENDHMM>
~h "iy"
<BEGINHMM>
<NUMSTATES> 5
<STATE> 2
<MEAN> 25
 6.237028e+000 1.340181e+000 8.090705e+000 8.962366e-001 -3.014447e+000 -2.631713e+000 -1.092427e+000 5.380328e-001 -4.656567e+000 -8.418191e-001 2.918759e+000 -1.503757e+000 4.947426e-001 -2.339449e-001 1.569077e+000 -7.885386e-001 -1.299353e+000 -3.100012e-001 -9.110902e-001 -3.448682e-001 -6.161834e-001 -5.487586e-001 6.401296e-001 -4.895928e-001 2.311319e+000
<VARIANCE> 25
 6.717570e+001 6.033004e+001 6.500739e+001 5.686846e+001 8.985380e+001 4.798516e+001 7.496967e+001 6.355762e+001 6.359600e+001 5.472935e+001 5.084066e+001 3.489127e+001 6.635711e+000 5.643596e+000 5.132784e+000 5.825583e+000 7.527095e+000 6.165649e+000 7.720477e+000 5.531869e+000 5.355569e+000 4.405882e+000 5.756814e+000 3.589904e+000 4.004919e+000
<GCONST> 1.171332e+002
<STATE> 3
<MEAN> 25
 4.607451e+000 -2.500460e+000 1.195653e+001 -6.522403e+000 -4.895116e+000 -1.146868e+000 -4.779985e+000 -9.834445e-001 -5.634545e+000 4.854429e-003 3.632983e+000 -1.302607e+000 8.364854e-003 1.394322e-001 -2.135298e-002 -1.161773e-001 -8.490103e-002 1.339868e-001 -7.232876e-002 -2.694836e-001 -3.999229e-002 5.726044e-002 1.913509e-002 5.654036e-002 -1.683921e-001
<VARIANCE> 25
 7.334915e+001 6.730958e+001 7.644019e+001 3.938716e+001 1.044869e+002 3.843060e+001 5.934432e+001 1.019695e+002 4.621570e+001 5.216683e+001 4.719864e+001 2.410594e+001 4.479226e-001 8.130918e-001 9.233778e-001 1.133690e+000 1.305719e+000 1.582632e+000 1.768232e+000 1.850392e+000 1.737873e+000 2.016803e+000 1.335882e+000 1.221625e+000 4.061356e-001
<GCONST> 9.608176e+001
<STATE> 4
<MEAN> 25
 5.972785e+000 1.541056e+000 1.277823e+001 -2.111554e+000 -9.141067e+000 -1.648610e+000 -7.782100e-001 -3.770012e+000 -5.053299e+000 1.090912e+000 1.872699e+000 -1.806156e+000 1.425750e-001 1.388716e-001 -8.187083e-001 4.617426e-001 6.549873e-001 -3.072778e-001 2.482837e-001 1.666654e-001 5.191771e-001 2.528216e-001 -6.603088e-001 1.584668e-001 -1.064094e+000
<VARIANCE> 25
 3.814999e+001 3.636444e+001 7.511695e+001 5.856926e+001 8.251043e+001 6.523620e+001 4.728941e+001 7.340172e+001 4.279844e+001 3.394463e+001 4.100897e+001 2.608923e+001 2.345692e+000 2.963482e+000 2.970342e+000 3.419335e+000 6.106324e+000 4.317095e+000 3.851266e+000 3.695645e+000 3.837454e+000 3.359669e+000 4.011604e+000 2.747841e+000 2.315170e+000
<GCONST> 1.085517e+002
<TRANSP> 5
 0.000000e+000 1.000000e+000 0.000000e+000 0.000000e+000 0.000000e+000
 0.000000e+000 7.641629e-001 2.358371e-001 0.000000e+000 0.000000e+000
 0.000000e+000 0.000000e+000 8.387564e-001 1.612436e-001 0.000000e+000
 0.000000e+000 0.000000e+000 0.000000e+000 7.820715e-001 2.179285e-001
 0.000000e+000 0.000000e+000 0.000000e+000 0.000000e+000 0.000000e+000
<ENDHMM>
~h "jh"
<BEGINHMM>
<NUMSTATES> 5
<STATE> 2
<MEAN> 25
 -7.922947e+000 -2.044221e-001 3.722198e+000 1.281375e+001 6.356201e+000 -7.108348e+000 5.696527e+000 2.479214e+000 6.620164e+000 -4.826518e+000 2.245314e+000 1.411920e+000 1.145158e+000 3.214720e-001 -5.498515e-003 -9.747611e-001 -5.361869e-001 3.186409e-001 -1.636152e-001 -8.324783e-002 -7.706696e-001 1.661871e-001 1.791787e-001 -1.798137e-001 4.492794e-001
<VARIANCE> 25
 1.245436e+002 5.292380e+001 8.795653e+001 8.266097e+001 4.722379e+001 3.807348e+001 3.005632e+001 3.022291e+001 4.554915e+001 3.478054e+001 3.386533e+001 2.965288e+001 1.380405e+001 2.539641e+000 2.584449e+000 1.049344e+001 5.798207e+000 4.942182e+000 5.123765e+000 4.338953e+000 9.148240e+000 4.011624e+000 5.337420e+000 3.214570e+000 1.869991e+000
<GCONST> 1.126032e+002
<STATE> 3
<MEAN> 25
 1.531619e+001 1.571747e+000 7.219895e+000 -1.149771e+001 -6.108263e+000 2.975489e+000 -3.405789e+000 3.168993e+000 -5.204562e+000 4.364107e+000 2.809847e+000 -3.902653e-001 -2.401601e-001 1.164820e-001 4.137026e-001 1.798145e-001 -2.289418e-001 4.887933e-002 2.999400e-001 -1.733651e-001 9.366590e-002 -8.749305e-002 -1.039252e-001 2.541427e-002 -4.411505e-002
<VARIANCE> 25
 2.529766e+001 6.693694e+001 1.460111e+002 4.526695e+001 1.314760e+002 4.879520e+001 4.230059e+001 7.412832e+001 4.477946e+001 7.022821e+001 4.788996e+001 2.906735e+001 1.345901e+000 2.574642e+000 3.116281e+000 4.494759e+000 4.113694e+000 4.254977e+000 6.584678e+000 3.430354e+000 5.708072e+000 6.056959e+000 3.350314e+000 3.707959e+000 9.558393e-001
<GCONST> 1.101663e+002
<STATE> 4
<MEAN> 25
 -1.108264e+001 1.097630e+001 8.417954e+000 6.162907e+000 8.270272e-001 -6.952058e+000 7.681504e+000 1.330699e+000 4.203665e+000 -4.828508e+000 2.467820e+000 1.976246e+000 -2.265650e-001 -2.242494e-001 -4.016341e-001 1.242786e-001 4.097305e-001 -2.642769e-002 -3.384122e-001 2.320526e-001 -1.066422e-002 -3.975385e-002 -3.040075e-002 9.963207e-002 -4.008801e-001
<VARIANCE> 25
 1.224059e+002 3.665261e+001 1.712026e+002 4.264122e+001 1.705212e+002 5.899171e+001 3.082149e+001 3.124335e+001 5.917492e+001 3.120710e+001 4.241842e+001 5.752090e+001 5.822192e+000 4.923282e+000 4.135795e+000 3.818083e+000 3.235725e+000 3.950257e+000 3.278889e+000 4.917859e+000 7.951570e+000 3.247030e+000 7.507520e+000 5.377021e+000 7.004843e-001
<GCONST> 1.126952e+002
<TRANSP> 5
 0.000000e+000 1.000000e+000 0.000000e+000 0.000000e+000 0.000000e+000
 0.000000e+000 9.384588e-001 6.154119e-002 0.000000e+000 0.000000e+000
 0.000000e+000 0.000000e+000 9.687660e-001 3.123394e-002 0.000000e+000
 0.000000e+000 0.000000e+000 0.000000e+000 9.488858e-001 5.111421e-002
 0.000000e+000 0.000000e+000 0.000000e+000 0.000000e+000 0.000000e+000
<ENDHMM>
~h "ng"
<BEGINHMM>
<NUMSTATES> 5
<STATE> 2
<MEAN> 25
 1.076857e+001 -4.294486e-001 8.134634e+000 -3.606653e+000 -1.048847e+001 3.284755e+000 2.633026e+000 -1.066769e+001 -1.455202e+000 1.953712e+000 -6.907222e+000 -3.851067e+000 6.804764e-001 5.967864e-001 -8.771541e-001 3.936844e-001 1.071067e+000 1.410366e-001 -2.241135e-001 1.362460e-001 -5.463880e-001 -1.206867e-001 -4.932585e-001 6.387858e-002 -1.222083e+000
<VARIANCE> 25
 5.820120e+001 4.714950e+001 3.166018e+001 4.146078e+001 9.454510e+001 3.528882e+001 7.482197e+001 4.417552e+001 4.555916e+001 4.282983e+001 4.063849e+001 2.139172e+001 2.685065e+000 3.124727e+000 2.711349e+000 2.390821e+000 5.171262e+000 3.673619e+000 3.339949e+000 5.199270e+000 3.355895e+000 2.996466e+000 3.605898e+000 1.684602e+000 9.196122e-001
<GCONST> 1.054272e+002
<STATE> 3
<MEAN> 25
 8.243521e+000 3.993353e-001 6.264190e+000 -2.253500e-001 7.448092e+000 5.719250e-001 -1.252641e+001 -1.952039e+000 -1.799883e+000 2.459099e+000 -1.273189e+000 -4.287102e+000 -1.523011e-001 7.971058e-001 -5.334165e-001 2.614925e-001 -1.924249e-001 -1.975113e-002 8.120099e-001 6.673876e-001 3.414941e-001 3.569499e-002 5.185903e-002 -6.466975e-001 -7.451773e-001
<VARIANCE> 25
 1.888782e+001 3.588417e+001 3.138903e+001 1.680622e+001 5.905518e+001 2.017403e+001 1.261426e+002 2.104799e+001 3.633392e+001 2.347224e+001 2.188764e+001 2.214731e+001 5.901827e-001 1.047085e+000 1.398904e+000 2.060893e+000 3.410870e+000 1.312462e+000 3.903395e+000 2.436262e+000 2.745730e+000 2.139729e+000 1.856557e+000 1.405257e+000 2.818525e-001
<GCONST> 9.242524e+001
<STATE> 4
<MEAN> 25
 6.306886e+000 7.065216e+000 6.707890e+000 3.366921e+000 1.952534e-002 9.528955e-001 -1.462083e+000 -2.974744e+000 -5.558397e+000 -1.769820e+000 -3.670070e+000 -4.068707e+000 -8.726752e-001 -2.319849e-001 -1.595351e-001 4.527182e-001 6.829547e-001 1.127812e-001 2.841901e-002 2.126721e-001 -8.548991e-002 -1.170080e-002 3.992544e-001 4.209605e-001 -6.743963e-001
<VARIANCE> 25
 2.926912e+001 2.130021e+001 3.334980e+001 3.737403e+001 5.048235e+001 2.613634e+001 2.574314e+001 2.304125e+001 5.081195e+001 3.109381e+001 2.854274e+001 2.588322e+001 6.569659e-001 8.172184e-001 1.157203e+000 1.903322e+000 2.754192e+000 2.060666e+000 2.065819e+000 2.314672e+000 2.024486e+000 1.571981e+000 1.676309e+000 1.602717e+000 3.000619e-001
<GCONST> 9.146151e+001
<TRANSP> 5
 0.000000e+000 1.000000e+000 0.000000e+000 0.000000e+000 0.000000e+000
 0.000000e+000 8.281596e-001 1.718404e-001 0.000000e+000 0.000000e+000
 0.000000e+000 0.000000e+000 6.735471e-001 3.264529e-001 0.000000e+000
 0.000000e+000 0.000000e+000 0.000000e+000 7.589988e-001 2.410012e-001
 0.000000e+000 0.000000e+000 0.000000e+000 0.000000e+000 0.000000e+000
<ENDHMM>
~h "ow"
<BEGINHMM>
<NUMSTATES> 5
<STATE> 2
<MEAN> 25
 1.435016e+001 7.105093e+000 -1.397634e+000 -3.468624e+000 2.025288e-001 -1.172248e-001 -2.458727e+000 -4.040848e+000 -2.877281e+000 3.253934e+000 3.243743e+000 -6.586661e-003 -3.424828e-001 -1.295965e-001 2.108041e-001 4.636400e-001 -5.118715e-001 -8.900296e-002 2.189647e-001 5.423061e-001 2.745174e-002 -2.639937e-001 -4.090295e-002 2.468844e-001 -7.258238e-001
<VARIANCE> 25
 5.430104e+001 3.701795e+001 1.986838e+001 4.584845e+001 2.939518e+001 4.217677e+001 3.496128e+001 4.991509e+001 3.522487e+001 4.459064e+001 4.100376e+001 2.800348e+001 1.463943e+000 1.207491e+000 1.322291e+000 2.795179e+000 2.305509e+000 2.746613e+000 2.342214e+000 3.588825e+000 2.859452e+000 2.615649e+000 2.558182e+000 1.991057e+000 5.712423e-001
<GCONST> 9.829157e+001
<STATE> 3
<MEAN> 25
 4.238526e+000 -1.703143e+000 -8.933418e-001 -2.407047e+000 -1.725845e+000 -2.646782e+000 4.138752e-002 4.770402e+000 4.434897e-002 2.703864e+000 -1.527963e+000 -3.305624e-001 -4.567309e-001 -1.932883e-001 -1.694067e-001 2.426498e-001 3.726496e-001 6.433780e-001 3.866182e-001 6.263085e-002 -3.348595e-001 -1.487111e-001 5.575863e-004 -1.964755e-001 -3.921740e-001
<VARIANCE> 25
 4.713631e+001 3.241988e+001 1.811010e+001 4.177478e+001 2.082486e+001 3.255450e+001 2.271215e+001 2.161855e+001 6.303336e+001 3.967076e+001 3.355147e+001 3.079684e+001 4.653657e-001 6.810468e-001 7.466113e-001 1.297862e+000 1.448669e+000 1.944326e+000 1.387098e+000 1.890718e+000 1.990259e+000 2.386181e+000 1.788496e+000 1.580516e+000 2.825797e-001
<GCONST> 8.954026e+001
<STATE> 4
<MEAN> 25
 3.423645e+000 -2.449161e+000 -2.988128e+000 1.078888e+000 4.836080e+000 2.704197e+000 1.371739e+000 2.831174e+000 5.710872e-001 -1.041421e+000 -4.065261e+000 -3.173019e-001 -5.129786e-001 -3.861309e-002 -3.643778e-002 2.089668e-001 9.395723e-002 1.949277e-001 -1.041231e-001 -3.184191e-001 -9.901319e-002 9.424895e-002 1.178138e-001 1.022716e-001 -7.697756e-001
<VARIANCE> 25
 4.160296e+001 3.360748e+001 3.011872e+001 4.267527e+001 3.658882e+001 2.773319e+001 3.451466e+001 3.829209e+001 4.298536e+001 2.841136e+001 3.600653e+001 2.556147e+001 1.377689e+000 1.792849e+000 1.924328e+000 2.393544e+000 3.428130e+000 2.858942e+000 2.877305e+000 2.454133e+000 2.761089e+000 2.171332e+000 2.274811e+000 1.855134e+000 9.779444e-001
<GCONST> 9.826723e+001
<TRANSP> 5
 0.000000e+000 1.000000e+000 0.000000e+000 0.000000e+000 0.000000e+000
 0.000000e+000 8.222991e-001 1.777009e-001 0.000000e+000 0.000000e+000
 0.000000e+000 0.000000e+000 7.929502e-001 2.070498e-001 0.000000e+000
 0.000000e+000 0.000000e+000 0.000000e+000 8.516952e-001 1.483047e-001
 0.000000e+000 0.000000e+000 0.000000e+000 0.000000e+000 0.000000e+000
<ENDHMM>
~h "oy"
<BEGINHMM>
<NUMSTATES> 5
<STATE> 2
<MEAN> 25
 5.592097e+000 8.212049e+000 8.293556e+000 7.068459e-001 -3.238836e+000 -1.043349e+001 6.675314e-001 1.589698e+000 7.910548e+000 -2.823708e+000 -2.159677e+000 1.402478e+000 2.633468e+000 -8.090799e-001 5.233457e-001 -1.323176e+000 -2.484658e+000 -8.579471e-001 1.965423e+000 -6.250671e-002 -1.870371e+000 5.658947e-001 -1.681912e-001 -9.425169e-002 1.228135e+000
<VARIANCE> 25
 1.222902e+002 2.903107e+001 1.579193e+002 3.588675e+001 6.020447e+001 8.906036e+001 1.011123e+001 1.695144e+001 3.480946e+001 2.325683e+001 2.636824e+001 1.500596e+001 1.308331e+001 3.999144e+000 2.200801e+000 4.742998e+000 7.699410e+000 6.738382e+000 1.307567e+000 2.115574e+000 1.258575e+001 5.938342e+000 9.640050e+000 3.593036e+000 3.029520e+000
<GCONST> 1.094090e+002
<STATE> 3
<MEAN> 25
 1.460840e+001 4.396309e+000 1.157788e+001 7.852042e-002 -1.425068e+001 -8.242771e+000 8.481139e+000 4.697797e+000 -5.171913e+000 -2.772803e+000 4.376839e+000 -2.628316e+000 9.308555e-001 -1.471253e+000 -1.389500e+000 4.980001e-001 8.865266e-001 -5.513939e-001 1.246043e+000 1.296631e+000 -1.273070e+000 7.949719e-001 6.863824e-001 3.874026e-001 2.496958e-001
<VARIANCE> 25
 2.000528e+001 4.751486e+001 1.196795e+002 6.259668e+001 1.206590e+002 6.205951e+001 1.046416e+001 4.091026e+001 2.536514e+001 1.184248e+002 3.029899e+001 5.746232e+001 4.706537e-001 9.640167e-001 1.120603e+001 9.123031e+000 6.485175e+000 7.434381e+000 4.741311e+000 3.774660e+000 3.919854e+000 4.517961e+000 5.500184e+000 7.996932e+000 1.099442e+000
<GCONST> 1.095258e+002
<STATE> 4
<MEAN> 25
 1.176516e+001 6.138150e+000 -1.198854e+000 -9.501173e-001 -1.997639e+000 1.631613e+000 -9.487436e-001 -2.190509e+000 1.566248e-001 3.376444e+000 2.099794e+000 -1.601281e+000 -6.324906e-001 -1.039126e-001 -3.600446e-001 -3.809913e-002 7.938206e-001 5.932238e-001 -4.075045e-001 -4.692365e-001 3.618639e-001 -1.699099e-002 -2.943483e-001 -7.397272e-002 -4.822796e-001
<VARIANCE> 25
 7.565224e+001 4.758341e+001 3.282320e+001 7.848695e+001 6.641589e+001 5.300953e+001 7.306038e+001 3.854559e+001 4.043449e+001 6.728370e+001 5.879442e+001 6.909775e+001 8.067710e-001 2.339151e+000 3.649214e+000 4.965963e+000 3.460988e+000 3.248078e+000 7.597550e+000 4.719173e+000 7.005700e+000 8.073290e+000 5.699468e+000 8.449104e+000 1.125159e+000
<GCONST> 1.118762e+002
<TRANSP> 5
 0.000000e+000 1.000000e+000 0.000000e+000 0.000000e+000 0.000000e+000
 0.000000e+000 6.482356e-001 3.517644e-001 0.000000e+000 0.000000e+000
 0.000000e+000 0.000000e+000 5.973752e-001 4.026248e-001 0.000000e+000
 0.000000e+000 0.000000e+000 0.000000e+000 9.393278e-001 6.067219e-002
 0.000000e+000 0.000000e+000 0.000000e+000 0.000000e+000 0.000000e+000
<ENDHMM>
~h "sh"
<BEGINHMM>
<NUMSTATES> 5
<STATE> 2
<MEAN> 25
 -1.686246e+000 -4.455750e-001 -2.911682e+000 1.284411e+000 1.569085e+000 4.549743e+000 4.462738e-001 -9.516395e-001 -2.414104e+000 6.712487e-001 -9.781031e-001 1.396150e+000 2.783170e-003 2.326719e-001 -2.591182e-001 7.915353e-003 -4.586374e-002 3.087103e-002 -1.057858e-001 -1.544520e-001 2.108619e-002 2.572440e-002 -5.249954e-003 -2.559727e-002 -2.729391e-001
<VARIANCE> 25
 3.601064e+001 1.632845e+001 2.731143e+001 2.595537e+001 2.763782e+001 2.152600e+001 2.056874e+001 2.630206e+001 3.368472e+001 2.278466e+001 1.904847e+001 1.659192e+001 4.396782e-001 1.231788e+000 1.363446e+000 1.310656e+000 1.966571e+000 1.882681e+000 2.181857e+000 2.261125e+000 2.316449e+000 1.687243e+000 1.656033e+000 1.884683e+000 3.310944e-001
<GCONST> 8.823653e+001
<STATE> 3
<MEAN> 25
 -8.792812e-001 1.892956e+000 -2.263756e+000 2.838918e+000 2.611035e+000 2.314660e+000 -2.689282e+000 -2.740103e+000 -2.673903e+000 -1.537825e+000 -1.092496e-001 1.570136e-001 9.932982e-003 2.636623e-002 -1.359950e-002 -6.836645e-003 5.590789e-002 2.438571e-002 7.956395e-003 -3.636790e-003 -5.415082e-002 -1.655514e-002 2.386336e-003 8.864811e-003 -6.749324e-003
<VARIANCE> 25
 1.024761e+001 3.402866e+000 1.571140e+001 4.918653e+000 7.620418e+000 6.746738e+000 6.500114e+000 1.056877e+001 8.178406e+000 6.464498e+000 6.571744e+000 7.397302e+000 4.684497e-002 1.322483e-001 1.989415e-001 2.978051e-001 4.731589e-001 4.448022e-001 4.811915e-001 6.867411e-001 5.885877e-001 4.912464e-001 5.944696e-001 4.877508e-001 2.535352e-002
<GCONST> 5.313784e+001
<STATE> 4
<MEAN> 25
 2.754647e+000 3.160890e+000 1.103411e+000 2.073350e+000 5.694718e+000 2.554329e+000 -2.590688e+000 -3.681450e-001 -3.269532e+000 -3.087170e-001 5.022050e-001 1.022495e+000 7.118742e-003 2.195497e-002 -6.541857e-003 -8.835220e-003 3.836126e-002 3.235964e-003 2.532253e-002 2.218781e-002 4.923350e-003 3.085643e-002 3.336586e-002 1.071419e-003 8.547208e-003
<VARIANCE> 25
 6.603675e+000 1.997256e+001 1.807449e+001 1.222197e+001 1.509391e+001 1.775161e+001 1.515176e+001 1.647654e+001 1.941984e+001 1.362707e+001 9.756864e+000 1.201644e+001 4.470882e-001 1.683946e+000 1.573233e+000 1.396061e+000 1.604064e+000 2.171666e+000 1.728752e+000 1.753320e+000 2.055171e+000 1.392316e+000 1.133019e+000 1.327750e+000 5.192296e-001
<GCONST> 8.134423e+001
<TRANSP> 5
 0.000000e+000 1.000000e+000 0.000000e+000 0.000000e+000 0.000000e+000
 0.000000e+000 9.444205e-001 5.557957e-002 0.000000e+000 0.000000e+000
 0.000000e+000 0.000000e+000 9.393615e-001 6.063860e-002 0.000000e+000
 0.000000e+000 0.000000e+000 0.000000e+000 9.637825e-001 3.621746e-002
 0.000000e+000 0.000000e+000 0.000000e+000 0.000000e+000 0.000000e+000
<ENDHMM>
~h "sp"
<BEGINHMM>
<NUMSTATES> 3
<STATE> 2
~s "silst"
<TRANSP> 3
 0.000000e+000 4.169430e-002 9.583056e-001
 0.000000e+000 9.480174e-001 5.198263e-002
 0.000000e+000 0.000000e+000 0.000000e+000
<ENDHMM>
~h "th"
<BEGINHMM>
<NUMSTATES> 5
<STATE> 2
<MEAN> 25
 9.237364e+000 -1.455554e+000 5.992790e+000 5.548630e+000 -6.657280e+000 -5.285279e+000 -7.604311e-001 2.494190e+000 -2.327893e+000 -6.220486e+000 4.811913e+000 -4.916198e+000 -6.879235e-002 1.828048e-001 -2.176210e-001 1.896676e-001 2.325982e-001 1.412702e-001 2.847977e-001 -5.822383e-001 7.497440e-002 -8.651051e-002 -1.705954e-001 -2.275136e-001 -2.407235e-001
<VARIANCE> 25
 2.524368e+001 7.515993e+001 6.852354e+001 3.640060e+001 3.841791e+001 2.723053e+001 6.924960e+001 2.261240e+002 2.656954e+001 4.148463e+001 8.091830e+001 4.243647e+001 2.176127e+000 1.637393e+000 2.541643e+000 2.925276e+000 3.602129e+000 2.878939e+000 3.874761e+000 3.883206e+000 1.929282e+000 2.358740e+000 5.992899e+000 2.693507e+000 4.106969e+000
<GCONST> 1.071114e+002
<STATE> 3
<MEAN> 25
 3.027997e+000 1.206309e+000 3.315623e+000 8.372873e+000 8.810509e+000 -3.462871e-001 -5.880119e+000 -8.778902e+000 -6.393689e+000 -1.850398e+000 -4.334221e+000 -2.909105e+000 -3.673906e-001 -9.447702e-001 -7.503223e-001 -8.467743e-002 3.272562e-001 -1.613906e-002 -5.074989e-002 9.675879e-001 2.445165e-001 1.184276e-001 -1.145783e-001 5.123253e-001 -3.933639e-002
<VARIANCE> 25
 7.134045e+001 4.382359e+001 3.058419e+001 4.410584e+001 8.186273e+001 4.162844e+001 3.147569e+001 6.715295e+001 7.398033e+001 4.138338e+001 6.043443e+001 2.952965e+001 7.173602e+000 3.203300e+000 3.208792e+000 2.201243e+000 6.190449e+000 4.516303e+000 3.936118e+000 5.704666e+000 7.181921e+000 3.392136e+000 3.120768e+000 4.070621e+000 3.807445e+000
<GCONST> 1.111088e+002
<STATE> 4
<MEAN> 25
 8.885565e+000 -9.331308e+000 5.307427e-001 5.071202e+000 3.707265e-001 -7.370815e-001 -5.429195e+000 8.303501e+000 3.571968e+000 -1.299949e+000 -4.248732e-001 1.657536e+000 -8.163748e-001 -1.238766e+000 5.991161e-001 -6.936471e-001 -1.041136e+000 4.626835e-001 1.474262e+000 5.426809e-001 2.839784e-002 -1.025993e-002 3.006684e-001 2.881785e-001 7.041010e-001
<VARIANCE> 25
 5.071156e+001 1.531024e+002 4.489397e+001 2.026977e+001 3.462215e+001 2.607703e+001 4.164990e+001 1.195749e+002 5.648939e+001 2.768860e+001 3.000254e+001 2.407544e+001 4.465787e-001 2.689833e+000 1.599953e+000 2.001379e+000 3.183784e+000 3.387443e+000 1.949550e+000 5.005489e+000 3.603828e+000 1.538163e+000 1.656823e+000 6.538508e-001 1.305911e+000
<GCONST> 9.903690e+001
<TRANSP> 5
 0.000000e+000 1.000000e+000 0.000000e+000 0.000000e+000 0.000000e+000
 0.000000e+000 8.855423e-001 1.144577e-001 0.000000e+000 0.000000e+000
 0.000000e+000 0.000000e+000 7.079202e-001 2.920798e-001 0.000000e+000
 0.000000e+000 0.000000e+000 0.000000e+000 5.955192e-001 4.044808e-001
 0.000000e+000 0.000000e+000 0.000000e+000 0.000000e+000 0.000000e+000
<ENDHMM>
~h "uh"
<BEGINHMM>
<NUMSTATES> 5
<STATE> 2
<MEAN> 25
 -7.962284e+000 -1.016404e+000 -2.005912e+000 3.709777e+000 -2.360024e-001 1.744889e-001 -5.905668e-001 -1.905780e+000 -6.512637e-001 -2.470156e+000 2.470783e-001 6.167058e-001 -3.428422e-002 -4.963058e-004 -1.734177e-002 5.729916e-003 5.003192e-004 3.150435e-003 7.621286e-003 1.264528e-002 -1.344202e-002 1.400691e-002 1.929484e-003 1.174995e-002 -3.689113e-002
<VARIANCE> 25
 1.670989e+001 5.279645e+000 6.029404e+000 5.436430e+000 8.510035e+000 1.164965e+001 7.920873e+000 9.865819e+000 9.896774e+000 1.111819e+001 7.900217e+000 7.483710e+000 5.561115e-002 1.111918e-001 1.608344e-001 2.377970e-001 3.473424e-001 4.265046e-001 4.861138e-001 5.174559e-001 5.564824e-001 5.398363e-001 4.886070e-001 4.888549e-001 2.535352e-002
<GCONST> 5.370343e+001
<STATE> 3
<MEAN> 25
