~o
<STREAMINFO> 1 25
<VECSIZE> 25<NULLD><MFCC_D_N_Z_0><DIAGC>
~s "silst"
<MEAN> 25
 -1.188994e+001 4.821068e+000 -7.899765e+000 5.200644e+000 -2.113697e+000 2.788427e+000 4.149343e+000 -2.019384e+000 4.401616e+000 1.301018e+000 3.537687e+000 1.783271e+000 -1.471043e-002 1.935821e-002 -3.454291e-002 6.020864e-003 5.702103e-003 5.748842e-003 1.359515e-002 -2.682704e-002 6.740506e-003 -1.312260e-002 -8.763731e-003 7.540044e-003 -3.051898e-002
<VARIANCE> 25
 8.217991e+001 9.283792e+000 1.025277e+001 7.041124e+000 9.623137e+000 1.620390e+001 2.190324e+001 1.994477e+001 1.446496e+001 1.381581e+001 9.645921e+000 9.658530e+000 7.730890e-002 1.515178e-001 2.798022e-001 4.260637e-001 6.001567e-001 5.802664e-001 7.840119e-001 1.010578e+000 9.179428e-001 7.199699e-001 7.383158e-001 7.169608e-001 5.267617e-002
<GCONST> 6.596901e+001
~h "b"
<BEGINHMM>
<NUMSTATES> 5
<STATE> 2
<MEAN> 25
 1.193934e+001 8.616717e-001 -2.966114e-001 -4.566124e+000 1.577009e+000 1.043797e+000 -3.968605e+000 -2.657341e+000 4.725033e+000 -5.229838e-001 -2.016154e+000 -1.296124e+000 1.164451e-001 -5.847782e-001 -1.576195e-002 -2.167999e-001 -2.491905e-001 -4.072428e-001 -1.332669e-001 2.188083e-001 4.313186e-001 6.618804e-002 -4.302359e-002 -3.556474e-002 7.415600e-001
<VARIANCE> 25
 4.200089e+001 8.167064e+001 6.970294e+001 4.529288e+001 4.946942e+001 6.230498e+001 5.492788e+001 7.178050e+001 1.161353e+002 4.694156e+001 7.675475e+001 4.737209e+001 3.631326e+000 4.375689e+000 4.711226e+000 4.222583e+000 4.431291e+000 5.713993e+000 5.914447e+000 7.462753e+000 8.372242e+000 5.421753e+000 8.378666e+000 4.420291e+000 6.580319e+000
<GCONST> 1.173464e+002
<STATE> 3
<MEAN> 25
 -7.574999e-001 -2.990504e+000 9.090364e+000 7.149133e-002 -3.193939e-001 -5.048029e+000 1.022050e+000 9.571351e-001 -1.973642e+000 -1.377750e+000 1.139975e+000 5.209856e-001 -5.466809e-002 3.494837e-002 1.868953e-001 -3.696676e-002 -2.823954e-001 -1.818496e-001 6.766528e-002 2.327026e-001 -2.187784e-001 -8.002432e-002 -5.198435e-003 -2.959159e-002 -2.043035e-002
<VARIANCE> 25
 1.036403e+002 8.764306e+001 1.136752e+002 7.627859e+001 1.333290e+002 8.825897e+001 1.053039e+002 7.896249e+001 1.300795e+002 5.058232e+001 5.898052e+001 3.460472e+001 5.917504e+000 4.553843e+000 6.078191e+000 4.054961e+000 7.138893e+000 5.381955e+000 7.892611e+000 6.242271e+000 6.365666e+000 5.376371e+000 5.848783e+000 3.488559e+000 2.321247e+000
<GCONST> 1.203759e+002
<STATE> 4
<MEAN> 25
 8.178123e+000 -3.462239e+000 6.569516e+000 -4.498464e+000 -2.731936e+000 -4.442631e+000 -3.993161e+000 3.116549e+000 -9.640338e-001 5.452220e-001 -6.286001e-001 -1.770792e+000 -1.147797e-001 3.762730e-001 4.904541e-002 2.690355e-001 1.767576e-001 6.797538e-002 1.698392e-002 -1.533314e-001 -2.798832e-001 1.580478e-001 1.870236e-001 1.352669e-001 -6.930841e-001
<VARIANCE> 25
 3.381956e+001 3.893171e+001 7.020092e+001 5.073919e+001 1.081995e+002 3.753185e+001 6.394585e+001 6.096496e+001 5.383937e+001 6.091027e+001 5.652365e+001 2.744471e+001 1.435647e+000 1.892440e+000 3.358275e+000 2.641670e+000 4.184437e+000 2.922561e+000 2.888555e+000 3.458026e+000 3.174094e+000 2.997311e+000 2.791871e+000 2.018526e+000 1.707167e+000
<GCONST> 1.058318e+002
<TRANSP> 5
 0.000000e+000 1.000000e+000 0.000000e+000 0.000000e+000 0.000000e+000
 0.000000e+000 8.880374e-001 1.119626e-001 0.000000e+000 0.000000e+000
 0.000000e+000 0.000000e+000 8.507110e-001 1.492890e-001 0.000000e+000
 0.000000e+000 0.000000e+000 0.000000e+000 9.214687e-001 7.853133e-002
 0.000000e+000 0.000000e+000 0.000000e+000 0.000000e+000 0.000000e+000
<ENDHMM>
~h "d"
<BEGINHMM>
<NUMSTATES> 5
<STATE> 2
<MEAN> 25
 -5.100411e+000 -1.175980e+000 -1.829789e+000 2.932318e+000 9.123915e-001 1.252859e+000 -1.145031e+000 -1.782293e+000 -8.016612e-001 -1.635866e+000 2.355207e-001 2.241996e-001 -3.091459e-002 1.688469e-003 -1.836488e-002 9.808718e-004 -3.386140e-002 3.309550e-003 7.136624e-004 -4.514441e-002 -3.487956e-002 -2.175118e-002 1.470174e-002 8.742946e-003 -3.756372e-002
<VARIANCE> 25
 2.220146e+001 6.991702e+000 9.769924e+000 8.451320e+000 1.110543e+001 1.093849e+001 1.049568e+001 1.205820e+001 1.266044e+001 1.281366e+001 9.918078e+000 8.553141e+000 9.107786e-002 1.676908e-001 2.779873e-001 4.022050e-001 5.082301e-001 6.600465e-001 7.056931e-001 7.815606e-001 8.577726e-001 7.774065e-001 7.438462e-001 6.834478e-001 4.454837e-002
<GCONST> 6.232266e+001
<STATE> 3
<MEAN> 25
 9.620711e-001 1.826872e+000 1.602988e+000 3.730347e+000 3.651022e+000 1.743582e+000 -5.052447e-001 5.935611e-001 -3.316464e+000 -2.852744e-001 1.102073e+000 8.006508e-001 6.708086e-002 8.170061e-002 9.031271e-002 2.650122e-002 7.054187e-002 5.466207e-002 7.803410e-002 2.545677e-002 -7.574569e-002 -7.601501e-003 -3.550042e-003 -1.188944e-002 6.765988e-002
<VARIANCE> 25
 1.878691e+001 1.086954e+001 1.405097e+001 1.276823e+001 2.003743e+001 1.701463e+001 2.209820e+001 1.907127e+001 2.963709e+001 1.774013e+001 1.411695e+001 1.316456e+001 4.573401e-001 1.074787e+000 1.122985e+000 1.094755e+000 1.575345e+000 1.322358e+000 1.709286e+000 1.654258e+000 1.844994e+000 1.713300e+000 1.364403e+000 1.266742e+000 3.090394e-001
<GCONST> 8.161423e+001
<STATE> 4
<MEAN> 25
 6.230161e+000 6.364439e+000 3.859135e+000 1.473526e+000 3.469374e+000 -1.959275e+000 -2.471485e+000 3.624327e-001 -4.638044e+000 3.082745e-001 5.110681e-001 -5.654040e-001 5.797517e-001 2.878935e-001 2.838912e-001 -2.968144e-001 1.185513e-001 -1.505274e-001 -1.725209e-001 1.602457e-001 -1.801500e-001 2.565235e-002 -1.471938e-001 -5.937361e-002 6.766084e-001
<VARIANCE> 25
 4.705111e+001 4.075091e+001 2.962970e+001 3.153978e+001 4.056017e+001 4.172547e+001 3.699370e+001 3.761365e+001 3.932389e+001 1.956762e+001 2.005742e+001 2.033366e+001 3.968728e+000 4.514946e+000 3.147397e+000 3.717198e+000 3.708717e+000 3.576284e+000 3.635357e+000 3.903610e+000 3.429143e+000 2.395889e+000 2.219293e+000 2.099158e+000 4.157094e+000
<GCONST> 1.033269e+002
<TRANSP> 5
 0.000000e+000 1.000000e+000 0.000000e+000 0.000000e+000 0.000000e+000
 0.000000e+000 9.287597e-001 7.124028e-002 0.000000e+000 0.000000e+000
 0.000000e+000 0.000000e+000 8.483993e-001 1.516007e-001 0.000000e+000
 0.000000e+000 0.000000e+000 0.000000e+000 8.100613e-001 1.899388e-001
 0.000000e+000 0.000000e+000 0.000000e+000 0.000000e+000 0.000000e+000
<ENDHMM>
~h "f"
<BEGINHMM>
<NUMSTATES> 5
<STATE> 2
<MEAN> 25
 3.700509e+000 -6.428140e-001 1.611511e+000 2.319609e-001 2.614355e+000 -1.603764e+000 -1.672144e+000 6.009569e-001 -6.506457e-001 1.669902e+000 -1.135715e-001 -1.049585e+000 -4.389568e-001 -4.690444e-001 -5.435114e-001 -4.246723e-001 1.386981e-001 -1.707130e-001 8.485721e-002 5.247708e-003 1.668583e-001 2.982028e-001 1.193905e-001 2.018475e-002 6.140859e-001
<VARIANCE> 25
 5.065543e+001 4.706810e+001 6.031995e+001 5.973178e+001 4.015250e+001 7.115562e+001 3.266997e+001 3.837762e+001 4.655411e+001 2.970389e+001 2.413350e+001 2.397931e+001 4.690347e+000 5.566763e+000 4.844712e+000 6.287947e+000 4.318321e+000 6.187234e+000 2.921010e+000 4.172442e+000 5.466094e+000 3.394838e+000 2.938545e+000 2.260070e+000 6.005572e+000
<GCONST> 1.096687e+002
<STATE> 3
<MEAN> 25
 4.358386e-001 -2.016269e+000 -2.233880e+000 -9.992173e-002 1.229086e+000 -1.043816e+000 7.091010e-003 8.753429e-001 7.281905e-001 1.827621e+000 2.269881e-001 -8.104111e-002 -2.568103e-001 -2.408957e-001 -8.437794e-002 5.587132e-002 -8.821527e-003 1.274757e-001 1.744803e-001 9.027615e-002 5.299722e-002 -7.131624e-003 4.232384e-002 -1.196417e-003 -5.898144e-002
<VARIANCE> 25
 4.768351e+001 3.165966e+001 4.725680e+001 5.263936e+001 3.463049e+001 3.806315e+001 2.547044e+001 2.552376e+001 3.821380e+001 2.783158e+001 2.684120e+001 1.955037e+001 1.778376e+000 1.235645e+000 1.430044e+000 1.445106e+000 1.911216e+000 2.327911e+000 1.729794e+000 1.941546e+000 2.041898e+000 1.667097e+000 1.560106e+000 1.600076e+000 8.730511e-001
<GCONST> 9.420041e+001
<STATE> 4
<MEAN> 25
 4.868106e+000 -5.679667e+000 -4.114687e+000 -2.505231e+000 6.318231e-001 -3.320852e+000 3.154495e-001 1.775748e+000 4.197556e+000 1.550550e+000 -1.959633e+000 -2.473155e+000 1.264079e+000 5.292215e-002 -1.318782e-001 -2.178880e-001 -4.100323e-001 -2.540191e-001 -2.310034e-001 3.451036e-002 3.428725e-001 -3.561962e-001 -6.213186e-001 -2.367410e-001 9.054561e-001
<VARIANCE> 25
 8.919714e+001 4.005251e+001 3.814228e+001 5.282191e+001 3.700731e+001 4.773545e+001 5.577195e+001 3.287473e+001 5.449021e+001 4.240761e+001 4.672566e+001 2.871891e+001 7.578603e+000 4.820152e+000 3.060759e+000 5.109596e+000 4.101171e+000 5.460801e+000 5.530401e+000 4.057011e+000 5.117338e+000 4.292831e+000 3.679329e+000 2.558655e+000 5.967774e+000
<GCONST> 1.113598e+002
<TRANSP> 5
 0.000000e+000 1.000000e+000 0.000000e+000 0.000000e+000 0.000000e+000
 0.000000e+000 7.146480e-001 2.853520e-001 0.000000e+000 0.000000e+000
 0.000000e+000 0.000000e+000 8.211735e-001 1.788265e-001 0.000000e+000
 0.000000e+000 0.000000e+000 0.000000e+000 8.258776e-001 1.741224e-001
 0.000000e+000 0.000000e+000 0.000000e+000 0.000000e+000 0.000000e+000
<ENDHMM>
~h "g"
<BEGINHMM>
<NUMSTATES> 5
<STATE> 2
<MEAN> 25
 -2.344413e+001 5.028361e+000 -7.042770e+000 4.732042e+000 -1.625468e+000 6.237377e+000 5.466310e-001 3.704183e+000 3.513245e+000 4.805909e+000 5.019338e+000 3.009234e+000 -2.313794e-003 -6.904320e-004 -1.376737e-002 -7.898965e-003 2.867729e-003 1.380019e-002 1.466486e-002 2.131863e-003 -5.123666e-003 -3.040991e-002 -1.212625e-002 -4.301529e-003 1.154553e-004
<VARIANCE> 25
 1.665837e+001 6.085782e+000 8.831120e+000 6.334736e+000 1.267416e+001 1.152057e+001 1.001317e+001 1.620827e+001 1.932608e+001 1.393836e+001 1.020111e+001 7.702880e+000 5.117778e-002 1.467300e-001 2.264271e-001 3.808195e-001 6.296698e-001 6.201947e-001 1.068088e+000 1.307894e+000 1.142522e+000 8.834664e-001 8.411056e-001 8.113735e-001 2.535352e-002
<GCONST> 6.262751e+001
<STATE> 3
<MEAN> 25
 -7.275448e+000 3.447691e+000 -7.381116e+000 3.333787e+000 -3.084889e+000 1.074932e+000 5.016190e+000 -2.380471e+000 4.454773e+000 5.349803e-001 3.094001e+000 1.801995e+000 -8.257890e-003 -1.845010e-002 -2.249716e-002 -1.703665e-002 -1.588912e-002 2.300609e-002 1.838604e-002 -8.090683e-003 -1.995912e-002 -8.520634e-002 -1.381157e-002 -1.635434e-002 2.316281e-001
<VARIANCE> 25
 2.076157e+001 4.267446e+000 8.668545e+000 8.840109e+000 9.743347e+000 9.883726e+000 1.213672e+001 1.378617e+001 1.194635e+001 9.475049e+000 9.085262e+000 7.434109e+000 3.342171e-001 2.229690e-001 4.458580e-001 6.107084e-001 7.092132e-001 6.928855e-001 8.240091e-001 1.085589e+000 1.049373e+000 8.344237e-001 7.647563e-001 8.480212e-001 1.968752e+000
<GCONST> 6.879125e+001
<STATE> 4
<MEAN> 25
 -7.482055e+000 2.285466e+000 -4.464623e+000 3.723839e+000 -8.141147e-001 1.700594e+000 1.706812e+000 -1.874094e+000 1.785610e+000 8.823255e-001 1.476243e+000 1.183384e-001 -7.941687e-003 -4.326745e-003 3.074005e-002 -5.494078e-002 -3.089250e-002 -3.757129e-002 2.248342e-002 3.859891e-002 -1.513346e-002 2.474796e-002 -3.336606e-002 -2.104897e-002 2.416509e-002
<VARIANCE> 25
 2.541262e+001 5.256127e+000 7.190804e+000 1.114765e+001 8.928183e+000 1.058111e+001 1.705781e+001 1.448286e+001 1.471597e+001 1.194230e+001 1.236175e+001 8.877904e+000 1.040867e-001 1.910977e-001 3.858085e-001 6.238633e-001 5.571170e-001 5.665945e-001 8.490416e-001 8.485549e-001 9.082237e-001 8.281609e-001 7.387154e-001 7.404262e-001 1.107130e-001
<GCONST> 6.523895e+001
<TRANSP> 5
 0.000000e+000 1.000000e+000 0.000000e+000 0.000000e+000 0.000000e+000
 0.000000e+000 9.626170e-001 3.738303e-002 0.000000e+000 0.000000e+000
 0.000000e+000 0.000000e+000 8.525380e-001 1.474620e-001 0.000000e+000
 0.000000e+000 0.000000e+000 0.000000e+000 8.043982e-001 1.956018e-001
 0.000000e+000 0.000000e+000 0.000000e+000 0.000000e+000 0.000000e+000
<ENDHMM>
~h "k"
<BEGINHMM>
<NUMSTATES> 5
<STATE> 2
<MEAN> 25
 5.326297e+000 -8.816586e-001 3.080050e+000 -9.823911e-001 5.587561e-001 -6.270639e-001 -1.848300e-001 -3.456337e+000 1.364154e-001 -3.829909e+000 3.617404e-002 -2.726317e+000 3.780653e-001 -6.100778e-001 1.547035e-001 6.439503e-003 1.339654e-001 6.899229e-002 -6.567860e-001 -5.087020e-001 2.812524e-001 -3.858731e-002 -1.723968e-001 -1.773003e-001 6.670195e-001
<VARIANCE> 25
 5.068873e+001 6.243851e+001 8.827995e+001 6.818460e+001 9.151350e+001 6.174227e+001 8.385818e+001 8.461270e+001 1.064621e+002 6.016039e+001 1.038781e+002 3.571584e+001 2.498877e+000 4.400691e+000 4.681198e+000 4.110750e+000 6.971779e+000 4.775500e+000 6.840033e+000 7.564740e+000 7.454176e+000 6.324856e+000 6.442997e+000 3.481372e+000 4.605677e+000
<GCONST> 1.184972e+002
<STATE> 3
<MEAN> 25
 7.910580e+000 -6.483947e+000 1.550385e+000 -5.160631e-001 3.515907e+000 9.770845e-001 -3.409052e+000 -4.561026e+000 1.406358e+000 -6.310279e+000 -4.568437e+000 -1.649901e+000 -1.585075e-001 1.212944e-001 -2.979940e-001 -4.688511e-002 4.871896e-001 -2.097507e-002 9.819753e-002 2.004748e-001 -3.169326e-002 4.526356e-002 9.336335e-003 2.351342e-001 -9.364876e-003
<VARIANCE> 25
 3.440693e+001 7.563462e+001 6.683307e+001 4.116113e+001 9.967001e+001 6.116977e+001 8.328574e+001 1.058695e+002 1.052160e+002 8.957271e+001 5.818842e+001 3.935218e+001 1.893979e+000 2.969597e+000 3.071033e+000 2.753417e+000 3.436953e+000 3.358772e+000 3.870858e+000 3.610553e+000 3.137367e+000 3.479649e+000 2.797717e+000 2.131052e+000 2.072629e+000
<GCONST> 1.102681e+002
<STATE> 4
<MEAN> 25
 7.258074e-001 1.603619e+000 -2.638671e+000 -1.593206e+000 5.669286e+000 -2.034581e+000 1.104747e-001 -6.178237e-001 7.132554e-001 -2.592020e-001 -1.365440e-001 2.114606e+000 -2.735498e-001 -7.169792e-002 -1.712130e-001 -1.142054e-002 -2.009341e-001 3.761172e-002 3.899573e-001 2.394256e-001 1.482425e-001 1.187921e-001 2.372417e-001 9.818351e-002 1.099994e-001
<VARIANCE> 25
 1.066660e+002 6.580915e+001 9.289319e+001 9.517107e+001 7.977168e+001 1.021794e+002 8.442264e+001 8.107743e+001 7.731312e+001 5.842867e+001 5.086014e+001 3.920642e+001 5.584781e+000 5.499656e+000 6.280097e+000 6.841884e+000 7.327085e+000 8.462969e+000 6.520036e+000 6.599988e+000 5.474524e+000 4.168304e+000 3.925080e+000 4.180967e+000 3.287053e+000
<GCONST> 1.199312e+002
<TRANSP> 5
 0.000000e+000 1.000000e+000 0.000000e+000 0.000000e+000 0.000000e+000
 0.000000e+000 7.761856e-001 2.238144e-001 0.000000e+000 0.000000e+000
 0.000000e+000 0.000000e+000 7.660358e-001 2.339642e-001 0.000000e+000
 0.000000e+000 0.000000e+000 0.000000e+000 7.590491e-001 2.409509e-001
 0.000000e+000 0.000000e+000 0.000000e+000 0.000000e+000 0.000000e+000
<ENDHMM>
~h "l"
<BEGINHMM>
<NUMSTATES> 5
<STATE> 2
<MEAN> 25
 9.221554e+000 -6.740023e-001 5.541924e+000 2.515148e-001 -3.724299e+000 -3.129620e+000 -1.517967e+000 1.547144e+000 -1.103813e+000 4.888175e-001 4.256823e-003 -1.138856e+000 1.485929e-001 -1.078221e-001 -8.070195e-002 -3.897101e-001 -1.028757e-001 -1.772501e-001 -3.008978e-001 3.709422e-002 2.921374e-001 1.191992e-001 -1.708443e-002 3.044588e-002 3.987597e-001
<VARIANCE> 25
 4.987741e+001 5.639622e+001 4.656018e+001 5.372080e+001 1.379321e+002 5.718594e+001 9.258417e+001 4.318195e+001 5.410637e+001 3.201861e+001 3.636125e+001 2.528391e+001 2.057857e+000 4.956286e+000 2.969725e+000 4.828112e+000 5.882806e+000 3.665621e+000 6.625237e+000 3.384093e+000 4.139506e+000 3.185574e+000 3.703575e+000 2.631424e+000 3.289021e+000
<GCONST> 1.104739e+002
<STATE> 3
<MEAN> 25
 9.725936e+000 -9.241916e-001 5.134007e+000 -2.442020e+000 -5.323441e+000 -5.754060e+000 -5.080992e+000 1.681590e+000 1.493310e+000 -3.696383e+000 -7.195177e+000 -8.034177e-001 -8.502665e-002 3.307269e-001 -1.580440e-001 -1.038006e-002 2.397954e-001 2.148256e-001 3.170817e-002 -1.236963e-001 4.157591e-001 3.240085e-001 -8.064536e-003 -1.729642e-001 -3.174118e-001
<VARIANCE> 25
 3.080859e+001 2.080790e+001 3.075470e+001 2.542447e+001 5.245434e+001 4.371210e+001 3.315429e+001 4.335290e+001 4.883518e+001 5.099896e+001 6.910264e+001 2.033519e+001 4.241805e-001 9.885201e-001 1.205344e+000 1.290423e+000 2.357384e+000 1.947836e+000 1.954571e+000 2.245322e+000 2.368048e+000 2.059006e+000 2.975539e+000 1.494673e+000 6.370501e-001
<GCONST> 9.434972e+001
<STATE> 4
<MEAN> 25
 1.050784e+001 3.520627e+000 -2.446345e+000 -7.524642e+000 2.095026e+000 3.110331e+000 -2.914229e+000 -5.078856e+000 3.449453e+000 3.965701e+000 3.039588e+000 -4.477566e-001 -4.012276e-001 2.166163e-001 -1.355449e-001 3.376826e-001 -5.726457e-003 2.858726e-001 2.625931e-001 -1.498462e-001 -2.315349e-001 -1.300343e-001 3.410401e-001 1.299346e-001 -6.235503e-001
<VARIANCE> 25
 6.986015e+001 3.699361e+001 3.549350e+001 9.855242e+001 5.534573e+001 8.666233e+001 7.620219e+001 8.112308e+001 8.468588e+001 5.770531e+001 5.522906e+001 3.969833e+001 1.876364e+000 2.223280e+000 2.455189e+000 4.239528e+000 3.617804e+000 4.545889e+000 4.302073e+000 5.291719e+000 3.573615e+000 3.390335e+000 3.590470e+000 2.635972e+000 1.421519e+000
<GCONST> 1.101463e+002
<TRANSP> 5
 0.000000e+000 1.000000e+000 0.000000e+000 0.000000e+000 0.000000e+000
 0.000000e+000 7.219876e-001 2.780124e-001 0.000000e+000 0.000000e+000
 0.000000e+000 0.000000e+000 8.105648e-001 1.894352e-001 0.000000e+000
 0.000000e+000 0.000000e+000 0.000000e+000 8.514237e-001 1.485764e-001
 0.000000e+000 0.000000e+000 0.000000e+000 0.000000e+000 0.000000e+000
<ENDHMM>
~h "m"
<BEGINHMM>
<NUMSTATES> 5
<STATE> 2
<MEAN> 25
 4.907980e+000 7.384984e-001 -9.202662e-001 -3.058476e+000 5.478296e-001 -8.703239e-001 7.076225e-001 1.025742e+000 -1.542689e+000 -2.835911e-001 -2.191623e-002 -4.504674e-001 1.724633e+000 6.666372e-001 6.434124e-001 -8.586436e-001 -2.690506e-001 -5.033460e-002 9.011173e-002 -6.752844e-002 7.175484e-003 3.819963e-001 -5.638384e-001 -5.645853e-001 9.697955e-001
<VARIANCE> 25
 5.712243e+001 6.414420e+001 6.094944e+001 8.809800e+001 9.522056e+001 5.919341e+001 5.516615e+001 5.061964e+001 4.668684e+001 3.218341e+001 2.887937e+001 1.967946e+001 5.362579e+000 5.300454e+000 4.209704e+000 6.059197e+000 6.745585e+000 5.156128e+000 4.585637e+000 5.646116e+000 4.735892e+000 2.991656e+000 3.239447e+000 2.919600e+000 8.742549e+000
<GCONST> 1.134263e+002
<STATE> 3
<MEAN> 25
 8.665189e+000 1.728417e+000 1.767841e+000 -6.563604e+000 -8.587485e-001 -1.416120e+000 -4.658250e-002 -3.587850e-001 -1.348646e+000 1.352327e+000 -2.521898e+000 -9.800460e-001 3.062113e-001 2.099422e-001 5.417676e-001 2.222609e-001 -4.390160e-001 8.643772e-002 -8.106732e-002 -2.471438e-001 9.975710e-002 1.362229e-001 -2.667432e-001 -1.429211e-001 -2.955532e-001
<VARIANCE> 25
 4.401637e+001 6.959293e+001 5.093225e+001 5.710664e+001 9.643987e+001 5.147869e+001 5.028740e+001 5.946601e+001 3.929713e+001 3.577328e+001 3.733001e+001 2.229891e+001 2.210171e+000 1.784858e+000 2.273918e+000 2.805318e+000 3.151501e+000 3.525099e+000 2.570530e+000 4.078629e+000 2.993729e+000 2.538334e+000 2.800683e+000 2.593202e+000 3.535882e+000
<GCONST> 1.056923e+002
<STATE> 4
<MEAN> 25
 8.636246e+000 2.441079e-001 3.264804e+000 -2.941636e+000 -3.478809e+000 3.053373e+000 4.504700e-001 -3.728509e+000 1.831285e+000 -7.111896e-001 -2.911231e+000 -1.828967e+000 -2.953977e-001 -2.791452e-001 -1.678048e-001 4.731822e-001 3.363204e-001 -4.848837e-002 -8.198213e-002 1.383977e-001 2.096058e-001 -1.709400e-001 2.603484e-002 1.004667e-001 -1.448521e-001
<VARIANCE> 25
 4.884695e+001 8.130593e+001 8.974984e+001 9.098984e+001 9.011008e+001 9.533276e+001 7.750772e+001 1.274319e+002 8.939091e+001 8.822343e+001 7.954427e+001 4.030846e+001 2.289157e+000 4.089889e+000 3.520089e+000 4.724499e+000 5.425087e+000 6.507115e+000 5.473855e+000 7.580945e+000 4.945839e+000 6.455122e+000 5.368697e+000 3.352422e+000 2.570762e+000
<GCONST> 1.181791e+002
<TRANSP> 5
 0.000000e+000 1.000000e+000 0.000000e+000 0.000000e+000 0.000000e+000
 0.000000e+000 4.840918e-001 5.159082e-001 0.000000e+000 0.000000e+000
 0.000000e+000 0.000000e+000 5.323703e-001 4.676297e-001 0.000000e+000
 0.000000e+000 0.000000e+000 0.000000e+000 8.747912e-001 1.252089e-001
 0.000000e+000 0.000000e+000 0.000000e+000 0.000000e+000 0.000000e+000
<ENDHMM>
~h "n"
<BEGINHMM>
<NUMSTATES> 5
<STATE> 2
<MEAN> 25
 7.737268e+000 -1.220585e+000 6.037966e+000 -2.285850e+000 -5.550942e+000 -1.863742e+000 -2.046767e+000 -9.175433e-001 -1.506918e+000 -1.245731e+000 6.064413e-002 -2.604576e+000 1.193789e+000 -1.187872e-001 1.721297e-001 2.621831e-001 -5.141251e-001 6.985668e-002 -6.050192e-001 -6.067028e-001 2.291280e-001 -6.288989e-002 -5.828705e-001 -1.013541e-001 2.064823e-001
<VARIANCE> 25
 5.904325e+001 6.436314e+001 8.449678e+001 5.338287e+001 9.547689e+001 7.470840e+001 6.405061e+001 6.384369e+001 6.623770e+001 4.710523e+001 7.432720e+001 3.588859e+001 5.137918e+000 4.281263e+000 4.973228e+000 4.382683e+000 6.354718e+000 5.810222e+000 5.231308e+000 5.794790e+000 5.667687e+000 4.771589e+000 5.257894e+000 3.482352e+000 4.881126e+000
<GCONST> 1.167104e+002
<STATE> 3
<MEAN> 25
 1.253598e+001 -1.873617e+000 3.650825e+000 -3.967930e+000 -2.656273e+000 -2.088796e+000 -6.472355e+000 -1.438471e+000 -2.619705e-001 -1.866104e+000 -6.628192e+000 -8.037757e-001 1.090354e-001 2.638300e-002 -1.275261e-001 7.514748e-002 1.532305e-001 3.705567e-002 2.746832e-002 -1.175614e-002 1.385465e-001 3.309274e-002 -1.781384e-001 1.129125e-001 -1.307599e-001
<VARIANCE> 25
 1.799035e+001 3.694593e+001 4.920024e+001 3.788987e+001 9.335719e+001 5.051685e+001 4.388009e+001 9.173087e+001 7.358484e+001 3.510668e+001 4.418831e+001 3.725352e+001 5.139545e-001 1.475875e+000 1.453713e+000 1.978157e+000 2.560676e+000 2.552987e+000 2.130116e+000 3.166994e+000 2.831011e+000 2.026571e+000 2.529979e+000 2.233711e+000 7.179352e-001
<GCONST> 9.971278e+001
<STATE> 4
<MEAN> 25
 1.146636e+001 -1.686184e+000 4.349987e+000 -5.802959e-001 -3.729829e+000 -1.719335e+000 -1.524588e-002 1.272858e+000 5.364589e-001 -1.972605e+000 -4.681656e+000 -7.201939e-001 -3.654441e-001 5.603811e-001 -2.303744e-001 1.686331e-001 5.792689e-001 -2.946402e-002 1.274315e-001 3.319587e-001 -2.991559e-001 1.293773e-001 3.813991e-001 -1.988703e-001 -6.557657e-001
<VARIANCE> 25
 2.960161e+001 8.980769e+001 4.269202e+001 4.126111e+001 9.563412e+001 4.810083e+001 6.264688e+001 6.915408e+001 5.179432e+001 6.978601e+001 4.141505e+001 3.340204e+001 1.407373e+000 3.017599e+000 2.320420e+000 2.528191e+000 4.938158e+000 3.302405e+000 3.551363e+000 4.340114e+000 3.252967e+000 3.681748e+000 2.860213e+000 2.263523e+000 1.538080e+000
<GCONST> 1.070626e+002
<TRANSP> 5
 0.000000e+000 1.000000e+000 0.000000e+000 0.000000e+000 0.000000e+000
 0.000000e+000 7.751190e-001 2.248810e-001 0.000000e+000 0.000000e+000
 0.000000e+000 0.000000e+000 8.546535e-001 1.453464e-001 0.000000e+000
 0.000000e+000 0.000000e+000 0.000000e+000 7.975085e-001 2.024914e-001
 0.000000e+000 0.000000e+000 0.000000e+000 0.000000e+000 0.000000e+000
<ENDHMM>
~h "p"
<BEGINHMM>
<NUMSTATES> 5
<STATE> 2
<MEAN> 25
 3.099788e+000 -2.696729e+000 2.864859e-001 -1.516894e+000 5.421373e-001 -2.478322e+000 5.743605e-001 8.914906e-001 -2.007868e-001 1.412272e+000 5.011477e-001 1.055443e-001 -7.005597e-001 -8.998077e-001 -1.605165e-002 -8.304392e-001 6.208346e-002 -1.455698e-001 6.956586e-001 5.917051e-001 3.427984e-001 -7.146895e-002 -3.331723e-001 -2.432490e-001 2.247052e+000
<VARIANCE> 25
 4.738188e+001 6.012559e+001 6.039951e+001 5.423149e+001 4.488569e+001 5.018258e+001 4.667514e+001 3.742376e+001 4.945330e+001 2.774153e+001 3.902589e+001 3.250507e+001 6.929448e+000 5.608578e+000 6.480623e+000 6.934564e+000 5.027227e+000 5.152218e+000 4.747303e+000 3.889277e+000 6.090094e+000 4.433525e+000 3.605206e+000 3.665598e+000 1.106236e+001
<GCONST> 1.134670e+002
<STATE> 3
<MEAN> 25
 1.003163e+000 -5.483402e+000 7.403480e-001 -2.876265e+000 1.626839e+000 -1.653057e+000 6.144733e+000 3.913039e+000 -4.923432e-001 -2.212598e-001 -2.660867e+000 -3.983090e-001 -1.351597e+000 1.100475e+000 3.876193e-002 2.147999e-001 6.974689e-001 -3.005221e-001 2.750122e-001 3.050563e-001 -2.289916e-001 -1.521646e-001 4.089550e-001 2.018861e-001 -4.403183e-001
<VARIANCE> 25
 7.591475e+001 5.478942e+001 9.863494e+001 5.147578e+001 5.261525e+001 4.287153e+001 4.951779e+001 3.247139e+001 6.244473e+001 5.454726e+001 3.902390e+001 2.589720e+001 5.611156e+000 3.157189e+000 3.467792e+000 3.307575e+000 3.383332e+000 3.473388e+000 2.946345e+000 3.427278e+000 4.681925e+000 2.721520e+000 3.142951e+000 2.365635e+000 1.795663e+000
<GCONST> 1.081951e+002
<STATE> 4
<MEAN> 25
 -1.181815e+001 5.881785e+000 -1.188358e+000 -9.010167e-001 9.069755e+000 -6.036208e+000 6.925630e+000 4.642719e+000 4.408425e-001 -1.577206e+000 9.679706e-001 1.411489e+000 1.560252e-001 -3.864510e-002 -3.835343e-002 1.493549e-001 6.899446e-002 1.389433e-001 -3.108123e-001 -2.025962e-001 -7.189173e-002 8.537903e-002 -1.214853e-001 -9.003084e-002 -8.824854e-001
<VARIANCE> 25
 7.201287e+001 3.149801e+001 4.685669e+001 4.757705e+001 4.942651e+001 5.645669e+001 4.359505e+001 6.294401e+001 4.122999e+001 3.869165e+001 3.896503e+001 3.633509e+001 2.598766e+000 2.016984e+000 2.340140e+000 3.356658e+000 3.549871e+000 4.143234e+000 3.451535e+000 4.015373e+000 3.544312e+000 3.634469e+000 2.824115e+000 2.942423e+000 1.512001e+000
<GCONST> 1.059863e+002
<TRANSP> 5
 0.000000e+000 1.000000e+000 0.000000e+000 0.000000e+000 0.000000e+000
 0.000000e+000 6.702529e-001 3.297471e-001 0.000000e+000 0.000000e+000
 0.000000e+000 0.000000e+000 7.720774e-001 2.279226e-001 0.000000e+000
 0.000000e+000 0.000000e+000 0.000000e+000 8.677765e-001 1.322236e-001
 0.000000e+000 0.000000e+000 0.000000e+000 0.000000e+000 0.000000e+000
<ENDHMM>
~h "r"
<BEGINHMM>
<NUMSTATES> 5
<STATE> 2
<MEAN> 25
 4.581769e+000 -7.591232e+000 -1.162531e+000 -4.459594e+000 4.366873e-001 -2.806031e+000 5.002491e-001 3.436226e+000 1.969092e+000 -1.390683e+000 -4.399779e+000 -1.010187e+000 -3.326702e-001 -1.681801e-002 7.990474e-001 -8.569942e-002 -5.734754e-001 -5.929863e-001 2.334055e-001 2.953871e-001 -5.221780e-001 -9.663911e-002 3.399287e-001 4.417939e-001 1.649991e-001
<VARIANCE> 25
 8.168033e+001 5.521082e+001 5.298571e+001 4.377180e+001 5.061430e+001 5.008670e+001 7.767249e+001 4.259696e+001 7.057096e+001 6.453156e+001 4.704124e+001 2.741673e+001 2.005777e+000 2.100681e+000 2.493277e+000 2.083684e+000 3.242927e+000 2.687618e+000 3.776485e+000 3.459654e+000 3.395921e+000 4.406034e+000 3.067673e+000 2.442430e+000 1.594862e+000
<GCONST> 1.066455e+002
<STATE> 3
<MEAN> 25
 3.873372e+000 -4.564211e+000 5.169867e+000 -3.384839e+000 -2.312249e+000 -5.134197e+000 -8.261244e-001 2.537276e+000 -2.887297e+000 7.772117e-001 -1.135510e+000 -7.329223e-001 8.429409e-002 5.965677e-001 2.342243e-001 5.115446e-001 -1.929429e-001 8.996595e-002 -6.337549e-002 -4.533877e-001 -1.196215e-001 -8.296528e-002 9.904686e-002 5.136722e-002 -7.953037e-001
<VARIANCE> 25
 8.168044e+001 5.747310e+001 8.420683e+001 4.513947e+001 7.339336e+001 4.403611e+001 6.170298e+001 3.901578e+001 6.443833e+001 4.182455e+001 3.521247e+001 2.840754e+001 2.324559e+000 2.109869e+000 2.561399e+000 1.723745e+000 2.831729e+000 2.461587e+000 2.925283e+000 2.706374e+000 2.459819e+000 2.513843e+000 2.610948e+000 2.136178e+000 1.124431e+000
<GCONST> 1.040623e+002
<STATE> 4
<MEAN> 25
 -1.499373e+000 1.830332e+000 2.821734e+000 2.097000e+000 -1.083843e+000 -3.149961e+000 3.468990e+000 -2.239631e-001 -7.065277e-003 -2.299939e+000 6.462199e-001 7.584177e-001 -4.157914e-001 1.075928e-001 -8.751467e-002 2.802478e-001 9.443016e-002 8.694889e-002 5.617575e-002 -1.737662e-001 7.375749e-002 -1.213815e-001 6.486932e-002 1.287084e-002 -4.791408e-001
<VARIANCE> 25
 9.624364e+001 6.314981e+001 6.782221e+001 8.140078e+001 1.019881e+002 7.642368e+001 8.184453e+001 6.658351e+001 6.520426e+001 5.965904e+001 4.179010e+001 3.652045e+001 4.927453e+000 4.112598e+000 4.497965e+000 4.874037e+000 5.804133e+000 6.644231e+000 6.358028e+000 5.806105e+000 5.778846e+000 6.303995e+000 4.765265e+000 3.357903e+000 2.938940e+000
<GCONST> 1.172402e+002
<TRANSP> 5
 0.000000e+000 1.000000e+000 0.000000e+000 0.000000e+000 0.000000e+000
 0.000000e+000 6.631122e-001 3.368878e-001 0.000000e+000 0.000000e+000
 0.000000e+000 0.000000e+000 6.685265e-001 3.314734e-001 0.000000e+000
 0.000000e+000 0.000000e+000 0.000000e+000 7.707649e-001 2.292351e-001
 0.000000e+000 0.000000e+000 0.000000e+000 0.000000e+000 0.000000e+000
<ENDHMM>
~h "s"
<BEGINHMM>
<NUMSTATES> 5
<STATE> 2
<MEAN> 25
 6.626103e+000 -1.615802e+000 -2.083572e+000 -3.858720e+000 1.487779e+000 -2.037053e+000 -2.385125e+000 6.159393e-001 3.195563e+000 1.093972e+000 -1.356853e+000 -1.023931e+000 2.541571e-001 -3.099137e-001 -2.135652e-001 -8.829220e-002 -1.102470e-001 -1.377015e-001 -3.100062e-002 3.248974e-001 3.136873e-001 -2.224037e-001 -1.859868e-001 -5.387409e-002 7.206560e-001
<VARIANCE> 25
 7.674657e+001 5.867614e+001 5.542175e+001 7.722842e+001 8.301400e+001 7.228320e+001 6.177185e+001 5.304692e+001 7.020673e+001 5.937075e+001 6.121233e+001 3.892743e+001 7.496604e+000 4.932676e+000 4.720985e+000 6.720197e+000 6.304653e+000 6.203283e+000 5.547912e+000 5.379639e+000 6.091044e+000 5.925122e+000 5.234440e+000 4.671913e+000 6.578811e+000
<GCONST> 1.184233e+002
<STATE> 3
<MEAN> 25
 6.054959e+000 -6.911465e+000 -2.006833e+000 5.565342e-001 -5.792127e-002 -3.060857e+000 2.798191e+000 5.358585e+000 2.049855e+000 -4.186996e+000 -4.117692e+000 5.099923e-002 -7.721063e-001 6.965925e-001 2.334991e-001 2.844503e-001 4.644737e-001 -1.766693e-001 4.028671e-001 1.950482e-001 -4.121135e-001 1.541214e-001 3.774845e-001 2.011682e-001 -5.548638e-001
<VARIANCE> 25
 6.504447e+001 7.492837e+001 5.695415e+001 4.520600e+001 7.484168e+001 5.380377e+001 5.864458e+001 5.195924e+001 5.924479e+001 5.695296e+001 4.767194e+001 2.588238e+001 3.164875e+000 2.988008e+000 3.098151e+000 2.467203e+000 3.988511e+000 3.642881e+000 2.975943e+000 3.843467e+000 3.518185e+000 3.090514e+000 3.143288e+000 2.100694e+000 1.315182e+000
<GCONST> 1.077980e+002
<STATE> 4
<MEAN> 25
 -1.088414e+001 4.855689e+000 -7.255730e-001 -8.917049e-001 7.920100e+000 -8.674591e+000 5.315832e+000 6.122187e+000 -7.288834e-001 1.017905e+000 8.390187e-001 1.959226e+000 5.642590e-002 -4.369607e-002 -8.293013e-002 9.864754e-002 9.108342e-002 1.766373e-001 -2.245737e-001 -1.764533e-001 -2.645460e-002 1.783269e-001 -1.838953e-002 -6.057662e-002 -6.763665e-001
<VARIANCE> 25
 8.258565e+001 2.787856e+001 3.849519e+001 4.768866e+001 4.470275e+001 6.709078e+001 5.239334e+001 5.440424e+001 4.814830e+001 3.821683e+001 4.127010e+001 3.034215e+001 3.081820e+000 1.642061e+000 1.853022e+000 2.530011e+000 3.244934e+000 3.600712e+000 3.533385e+000 4.085466e+000 3.629199e+000 2.922810e+000 2.611929e+000 2.481682e+000 9.738660e-001
<GCONST> 1.043139e+002
<TRANSP> 5
 0.000000e+000 1.000000e+000 0.000000e+000 0.000000e+000 0.000000e+000
 0.000000e+000 7.657923e-001 2.342077e-001 0.000000e+000 0.000000e+000
 0.000000e+000 0.000000e+000 7.643452e-001 2.356547e-001 0.000000e+000
 0.000000e+000 0.000000e+000 0.000000e+000 8.420694e-001 1.579305e-001
 0.000000e+000 0.000000e+000 0.000000e+000 0.000000e+000 0.000000e+000
<ENDHMM>
~h "t"
<BEGINHMM>
<NUMSTATES> 5
<STATE> 2
<MEAN> 25
 8.882328e+000 -6.162243e-001 -8.503365e-001 -3.451315e+000 1.705166e+000 -1.650137e+000 -4.089234e+000 5.564350e-001 -5.996034e-001 -5.033800e-001 -3.597009e+000 -1.020912e+000 -5.472498e-001 1.945090e-001 -2.144520e-002 1.343289e-001 1.949415e-001 2.884472e-001 1.913048e-001 -7.126735e-002 -4.519495e-001 -1.174770e-001 4.464943e-001 3.702503e-001 -6.632656e-001
<VARIANCE> 25
 5.901473e+001 4.114214e+001 4.198814e+001 5.000537e+001 6.668673e+001 3.263160e+001 6.423274e+001 5.214368e+001 5.954237e+001 4.823311e+001 4.587418e+001 4.577130e+001 1.506720e+000 1.521230e+000 1.548764e+000 2.610902e+000 2.653689e+000 2.717623e+000 2.810579e+000 2.911663e+000 3.281930e+000 2.108214e+000 2.715224e+000 2.664087e+000 1.163848e+000
<GCONST> 1.031745e+002
<STATE> 3
<MEAN> 25
 5.866691e+000 1.490263e+000 4.257262e-001 -1.445017e+000 1.865837e+000 -4.169619e-001 -2.698495e+000 2.091522e-001 -2.914411e+000 6.148963e-002 -1.525326e+000 -6.052251e-001 -3.792070e-001 1.070432e-001 5.508173e-002 1.804455e-001 -4.688336e-002 1.602939e-001 2.923160e-001 -1.223750e-002 -4.185821e-002 9.106097e-002 2.192572e-001 1.618104e-002 -4.661568e-001
<VARIANCE> 25
 4.956701e+001 3.999934e+001 2.904160e+001 4.099105e+001 4.287722e+001 2.876868e+001 4.227119e+001 3.287761e+001 5.300073e+001 2.596788e+001 3.296595e+001 2.389631e+001 7.090931e-001 9.710259e-001 1.007361e+000 1.688790e+000 1.821699e+000 1.766759e+000 1.864703e+000 1.889462e+000 2.083831e+000 1.800058e+000 1.794113e+000 1.827711e+000 5.612309e-001
<GCONST> 9.339056e+001
<STATE> 4
<MEAN> 25
 6.587201e+000 9.622267e-001 -1.888980e+000 -3.052098e+000 2.349658e+000 -1.554621e+000 -8.003927e-001 2.190438e+000 5.957381e-001 9.974347e-001 -1.583817e+000 -1.019694e+000 -1.570814e-001 8.380381e-002 5.752674e-002 1.942830e-001 -6.999066e-002 -2.560062e-003 1.052429e-001 -1.501486e-001 -6.995381e-002 4.784410e-003 2.606838e-001 6.167688e-002 -3.705128e-001
<VARIANCE> 25
 6.717441e+001 5.662914e+001 5.118721e+001 5.849182e+001 6.993554e+001 6.575059e+001 5.016914e+001 5.189802e+001 6.403454e+001 3.850890e+001 4.393783e+001 3.071549e+001 3.813287e+000 3.992632e+000 3.793076e+000 4.254703e+000 5.349160e+000 5.567073e+000 4.371050e+000 4.672043e+000 5.181611e+000 3.726017e+000 3.414066e+000 2.895787e+000 4.213364e+000
<GCONST> 1.121155e+002
<TRANSP> 5
 0.000000e+000 1.000000e+000 0.000000e+000 0.000000e+000 0.000000e+000
 0.000000e+000 3.980941e-001 6.019059e-001 0.000000e+000 0.000000e+000
 0.000000e+000 0.000000e+000 7.305685e-001 2.694315e-001 0.000000e+000
 0.000000e+000 0.000000e+000 0.000000e+000 7.468736e-001 2.531264e-001
 0.000000e+000 0.000000e+000 0.000000e+000 0.000000e+000 0.000000e+000
<ENDHMM>
~h "v"
<BEGINHMM>
<NUMSTATES> 5
<STATE> 2
<MEAN> 25
 4.440117e+000 -6.819223e-001 -3.872361e+000 -3.949439e+000 1.869859e+000 1.490118e+000 7.473483e-001 -4.816004e-001 -6.723225e-001 2.391763e+000 1.282949e+000 -1.471866e+000 1.564802e+000 -1.180565e+000 -1.493780e+000 -2.537302e+000 -9.821972e-001 7.873111e-001 6.327699e-001 -9.597527e-001 5.703419e-001 4.556639e-001 2.976348e-001 -8.319223e-001 3.268890e+000
<VARIANCE> 25
 5.744483e+001 3.582755e+001 5.398351e+001 6.458775e+001 4.496874e+001 6.967854e+001 6.294017e+001 4.813385e+001 5.118282e+001 3.689406e+001 3.721246e+001 3.044612e+001 6.216923e+000 4.294557e+000 5.927124e+000 5.508233e+000 5.004477e+000 9.164061e+000 7.343730e+000 5.872173e+000 7.042156e+000 5.583846e+000 5.159439e+000 4.197742e+000 6.603623e+000
<GCONST> 1.153701e+002
<STATE> 3
<MEAN> 25
 5.481159e+000 -8.039158e+000 -3.697820e+000 -6.222047e+000 -2.937052e+000 9.831814e-001 2.606249e+000 1.764822e-001 3.042336e+000 1.409196e+000 2.330631e-001 -4.363032e+000 -7.058753e-002 -1.191156e-001 4.068528e-001 5.121633e-002 -1.018467e-002 -1.909246e-001 2.489464e-001 2.380120e-001 2.655496e-001 -2.414134e-001 -2.015976e-001 3.982259e-001 8.314676e-001
<VARIANCE> 25
 5.133986e+001 4.678303e+001 6.551951e+001 5.555846e+001 4.575654e+001 8.028075e+001 7.313782e+001 5.613425e+001 6.832213e+001 4.246548e+001 5.483416e+001 3.396239e+001 4.566275e+000 3.736241e+000 3.045041e+000 3.955069e+000 3.793158e+000 4.546525e+000 5.591037e+000 4.050174e+000 4.792258e+000 4.030797e+000 4.299070e+000 3.048827e+000 5.250214e+000
<GCONST> 1.124473e+002
<STATE> 4
<MEAN> 25
 7.546486e+000 -3.945927e-001 -4.195287e+000 -7.006963e+000 2.791354e+000 4.084011e+000 8.958758e-001 -9.898483e-001 5.342737e-001 2.588534e+000 2.708820e+000 -9.415630e-001 -2.180480e-001 3.108534e-001 4.057069e-001 5.686038e-001 1.965579e-001 -2.988756e-001 -1.170663e-001 1.695169e-001 -2.420960e-001 -1.050569e-001 -1.336835e-001 1.984935e-001 -5.834422e-001
<VARIANCE> 25
 7.924594e+001 4.348495e+001 4.541290e+001 7.786906e+001 5.250416e+001 9.612107e+001 6.558244e+001 5.819291e+001 6.324506e+001 4.596216e+001 3.834816e+001 3.142691e+001 3.281849e+000 2.791956e+000 2.729290e+000 4.174326e+000 3.863349e+000 4.822714e+000 4.216669e+000 4.761637e+000 4.801172e+000 3.126908e+000 3.332176e+000 3.196950e+000 2.675848e+000
<GCONST> 1.107371e+002
<TRANSP> 5
 0.000000e+000 1.000000e+000 0.000000e+000 0.000000e+000 0.000000e+000
 0.000000e+000 6.187814e-001 3.812185e-001 0.000000e+000 0.000000e+000
 0.000000e+000 0.000000e+000 6.485466e-001 3.514534e-001 0.000000e+000
 0.000000e+000 0.000000e+000 0.000000e+000 8.463051e-001 1.536949e-001
 0.000000e+000 0.000000e+000 0.000000e+000 0.000000e+000 0.000000e+000
<ENDHMM>
~h "w"
<BEGINHMM>
<NUMSTATES> 5
<STATE> 2
<MEAN> 25
 -6.188645e+000 -2.390361e+000 -9.075413e-001 2.280252e+000 9.136627e-002 2.196651e+000 -8.843894e-001 -1.884299e+000 -2.461324e-001 -1.054778e+000 1.859015e-001 3.263933e-001 -3.622102e-002 -1.308832e-002 -1.727663e-002 4.152808e-003 6.258741e-003 2.022752e-002 6.893015e-003 -4.911643e-003 3.499890e-003 -7.930213e-003 -9.106908e-003 -8.624899e-003 -2.553749e-002
<VARIANCE> 25
 1.010334e+001 5.208511e+000 1.245485e+001 1.234179e+001 1.148022e+001 1.350305e+001 1.244625e+001 1.438976e+001 1.435064e+001 1.529410e+001 1.161260e+001 1.072155e+001 1.039988e-001 2.058124e-001 3.512240e-001 5.263757e-001 6.752850e-001 7.544284e-001 8.333121e-001 9.599631e-001 1.039862e+000 1.013935e+000 9.819184e-001 8.471823e-001 4.102037e-002
<GCONST> 6.563757e+001
<STATE> 3
<MEAN> 25
 -4.932306e+000 8.145099e-001 -2.110479e+000 2.871230e+000 5.546687e-001 3.145548e+000 6.677126e-001 -1.966229e-001 -7.146149e-001 1.208801e+000 1.641008e+000 7.596976e-001 1.594991e+000 1.368885e-001 7.034411e-001 6.683654e-002 2.465188e-001 -2.906812e-001 -1.374225e-001 -1.921126e-001 -5.963685e-001 -2.941465e-001 -2.581046e-001 -5.585683e-002 1.628743e+000
<VARIANCE> 25
 8.260750e+001 2.373047e+001 2.831436e+001 1.858083e+001 1.721953e+001 2.316375e+001 2.111244e+001 2.193984e+001 3.927508e+001 2.720000e+001 2.008570e+001 1.782770e+001 7.115387e+000 1.001307e+000 1.731162e+000 1.304221e+000 1.459199e+000 1.677429e+000 1.653957e+000 1.532922e+000 1.914743e+000 1.282075e+000 1.373402e+000 1.199836e+000 9.573067e+000
<GCONST> 9.303461e+001
<STATE> 4
<MEAN> 25
 1.392398e+000 1.680455e+000 1.660316e+000 3.251239e+000 3.530892e+000 1.908682e+000 -1.057964e+000 -3.199742e-001 -2.597495e+000 -5.564318e-001 1.074051e+000 9.395463e-001 1.370325e-001 6.166986e-002 8.638425e-003 -2.796380e-002 2.864506e-002 -1.112620e-002 1.482037e-002 5.780274e-002 -4.901350e-002 -4.512220e-002 4.858771e-004 -8.067750e-003 1.046882e-001
<VARIANCE> 25
 1.386124e+001 1.013915e+001 1.412932e+001 1.393321e+001 1.694278e+001 1.528584e+001 1.487755e+001 1.370203e+001 1.857921e+001 1.318734e+001 1.206047e+001 1.206764e+001 3.716989e-001 6.633714e-001 7.696384e-001 9.187672e-001 1.200251e+000 1.053014e+000 1.239383e+000 1.332125e+000 1.456828e+000 1.150557e+000 1.112542e+000 1.117127e+000 2.237185e-001
<GCONST> 7.575636e+001
<TRANSP> 5
 0.000000e+000 1.000000e+000 0.000000e+000 0.000000e+000 0.000000e+000
 0.000000e+000 9.446666e-001 5.533340e-002 0.000000e+000 0.000000e+000
 0.000000e+000 0.000000e+000 3.223224e-001 6.776776e-001 0.000000e+000
 0.000000e+000 0.000000e+000 0.000000e+000 8.677211e-001 1.322789e-001
 0.000000e+000 0.000000e+000 0.000000e+000 0.000000e+000 0.000000e+000
<ENDHMM>
~h "y"
<BEGINHMM>
<NUMSTATES> 5
<STATE> 2
<MEAN> 25
 -3.081440e-001 4.158483e+000 9.388381e+000 1.306365e+000 -4.101151e+000 -1.832776e+000 6.672430e+000 -7.375170e+000 1.272948e+000 -7.316989e-001 1.011354e+000 1.817266e+000 3.221568e-001 -2.306996e-001 1.766074e-001 7.082395e-003 -7.268037e-001 9.501637e-002 8.034101e-002 -6.137682e-001 -1.431449e-001 2.025750e-001 8.298633e-002 -3.447614e-003 1.944081e-001
<VARIANCE> 25
 1.506368e+002 4.463445e+001 6.570611e+001 7.376734e+001 5.692265e+001 4.792674e+001 9.406813e+001 6.207075e+001 6.094774e+001 2.672463e+001 3.742197e+001 3.267785e+001 9.576791e+000 6.616734e+000 4.007108e+000 9.727761e+000 5.935305e+000 5.903447e+000 1.249704e+001 8.739187e+000 6.737562e+000 3.130128e+000 4.474289e+000 4.481405e+000 7.544369e+000
<GCONST> 1.184642e+002
<STATE> 3
<MEAN> 25
 1.592624e+001 3.920916e+000 7.957331e+000 -4.613133e+000 -8.901847e+000 1.187875e+000 3.382733e+000 -5.241762e+000 -2.284478e+000 2.232678e+000 2.272307e+000 3.767946e+000 9.197691e-002 1.455686e-002 -2.619874e-001 -8.099912e-002 -4.594891e-002 -7.305530e-002 -3.087689e-001 1.787455e-001 2.449175e-001 -1.695688e-001 4.616360e-002 5.471735e-002 -4.096263e-002
<VARIANCE> 25
 2.222786e+001 3.466840e+001 1.286165e+002 1.217497e+002 9.032263e+001 5.212972e+001 7.132172e+001 5.973557e+001 6.940218e+001 5.495572e+001 4.197206e+001 2.787810e+001 1.716776e+000 2.840646e+000 5.961894e+000 1.006365e+001 6.072764e+000 4.282140e+000 5.189779e+000 7.063628e+000 7.054801e+000 5.891616e+000 5.860203e+000 4.346880e+000 6.213396e-001
<GCONST> 1.134062e+002
<STATE> 4
<MEAN> 25
 1.420571e+001 -1.747791e+000 -3.486454e+000 -1.433965e+000 -8.900251e+000 7.764633e-001 2.866900e+000 -2.989418e+000 4.873604e+000 5.093829e+000 7.374414e-001 -3.524878e+000 -4.164596e-001 1.974944e-001 -1.127805e+000 -6.182529e-001 1.583603e+000 2.923108e-001 -7.238007e-001 1.192572e-001 2.578820e-001 6.748388e-001 6.063594e-002 -9.722353e-001 -6.638353e-001
<VARIANCE> 25
 9.975142e+001 6.712737e+001 5.081826e+001 6.326900e+001 1.561482e+001 2.006197e+001 5.311711e+001 1.987271e+002 3.507299e+001 3.549265e+002 4.711897e+001 1.230121e+002 8.638063e-001 5.577590e+000 1.755391e+000 6.503069e+000 3.299040e+000 2.243022e+000 3.438774e+000 5.014368e+000 2.406240e+000 5.317737e+000 5.065865e+000 2.760168e+000 2.186689e+000
<GCONST> 1.107631e+002
<TRANSP> 5
 0.000000e+000 1.000000e+000 0.000000e+000 0.000000e+000 0.000000e+000
 0.000000e+000 9.255417e-001 7.445831e-002 0.000000e+000 0.000000e+000
 0.000000e+000 0.000000e+000 9.403826e-001 5.961742e-002 0.000000e+000
 0.000000e+000 0.000000e+000 0.000000e+000 8.436285e-001 1.563715e-001
 0.000000e+000 0.000000e+000 0.000000e+000 0.000000e+000 0.000000e+000
<ENDHMM>
~h "z"
<BEGINHMM>
<NUMSTATES> 5
<STATE> 2
<MEAN> 25
 -1.124908e+001 3.023669e+000 3.359247e+000 -1.975947e+000 3.387523e+000 -9.629325e+000 4.004536e+000 4.272404e+000 -4.734268e+000 -7.507149e-002 1.499731e+000 2.770330e+000 5.222843e-002 3.843331e-003 -4.683169e-001 6.970584e-002 2.550637e-001 3.936103e-001 -7.517088e-002 6.781239e-002 2.287052e-001 9.038962e-002 -1.307427e-002 -1.214216e-002 -8.682499e-001
<VARIANCE> 25
 7.284225e+001 6.835370e+001 6.445880e+001 2.902298e+001 3.503916e+001 7.645244e+001 6.947771e+001 5.089357e+001 4.090349e+001 3.892327e+001 3.096251e+001 2.521808e+001 1.875213e+000 1.496164e+000 1.466678e+000 1.611447e+000 2.424462e+000 2.604244e+000 2.398833e+000 2.605561e+000 1.932782e+000 2.094082e+000 1.780447e+000 1.806576e+000 6.453847e-001
<GCONST> 9.978667e+001
<STATE> 3
<MEAN> 25
 -3.096877e+000 4.732303e-001 -1.079158e+000 2.706270e+000 4.643435e-001 3.034493e+000 6.825196e-001 -3.498189e-001 -3.136762e+000 -3.565888e-001 2.993855e-001 5.935224e-001 -1.921616e-002 -9.429355e-003 -3.390477e-002 6.345198e-002 -1.978839e-002 2.021174e-001 -1.007061e-002 -4.443207e-002 4.848565e-002 2.238849e-002 3.722921e-002 6.128447e-003 -2.257183e-001
<VARIANCE> 25
 2.629609e+001 1.491034e+001 1.952168e+001 1.812515e+001 2.097501e+001 2.711723e+001 2.766526e+001 2.607839e+001 4.373850e+001 2.008934e+001 1.986436e+001 1.480163e+001 3.223684e-001 5.697739e-001 7.245968e-001 1.041246e+000 1.223860e+000 1.365772e+000 1.576776e+000 1.970523e+000 1.980687e+000 1.538249e+000 1.547874e+000 1.295164e+000 2.168636e-001
<GCONST> 8.312633e+001
<STATE> 4
<MEAN> 25
 2.698363e+000 5.865826e+000 4.323621e+000 2.295884e+000 5.814512e+000 3.648265e-002 -2.653924e+000 1.401176e+000 -5.803744e+000 -6.348090e-002 7.823632e-001 -3.104379e-001 2.197873e-001 -7.403807e-002 3.227320e-002 -7.269414e-002 -1.667101e-002 -1.109129e-002 -1.749312e-001 4.608557e-002 9.235796e-002 1.023320e-001 -6.859276e-002 -4.713181e-002 -3.732293e-002
<VARIANCE> 25
 4.384611e+001 3.735644e+001 3.107862e+001 2.398743e+001 3.542199e+001 3.359212e+001 4.398136e+001 2.961569e+001 3.684563e+001 1.841633e+001 1.350052e+001 1.703508e+001 2.120578e+000 3.570936e+000 3.101931e+000 2.115299e+000 3.245356e+000 2.518827e+000 2.488441e+000 2.816998e+000 3.281695e+000 1.806766e+000 1.478963e+000 1.740468e+000 1.730633e+000
<GCONST> 9.740180e+001
<TRANSP> 5
 0.000000e+000 1.000000e+000 0.000000e+000 0.000000e+000 0.000000e+000
 0.000000e+000 8.260487e-001 1.739513e-001 0.000000e+000 0.000000e+000
 0.000000e+000 0.000000e+000 8.954723e-001 1.045277e-001 0.000000e+000
 0.000000e+000 0.000000e+000 0.000000e+000 8.114569e-001 1.885431e-001
 0.000000e+000 0.000000e+000 0.000000e+000 0.000000e+000 0.000000e+000
<ENDHMM>
~h "aa"
<BEGINHMM>
<NUMSTATES> 5
<STATE> 2
<MEAN> 25
 3.722971e+000 -2.443454e+000 -1.342180e+000 -1.376390e+000 2.471491e+000 -3.125309e-001 4.920999e-001 2.359820e-001 -2.381972e-001 -1.173087e+000 -1.994634e+000 -5.006559e-001 1.273705e+000 -1.019613e+000 -3.161833e-001 -1.140930e+000 1.750622e-002 -1.738620e-001 -1.828535e-001 1.961362e-001 4.973035e-001 -4.968375e-001 -7.615549e-001 -2.319161e-001 2.861550e+000
<VARIANCE> 25
 4.616432e+001 7.135683e+001 6.231875e+001 5.777151e+001 5.152420e+001 4.655872e+001 4.276320e+001 4.749996e+001 5.711859e+001 5.185404e+001 4.556993e+001 2.907870e+001 5.780614e+000 6.689732e+000 5.251545e+000 5.091536e+000 5.927595e+000 5.883998e+000 4.959825e+000 5.558470e+000 5.445755e+000 5.270514e+000 4.693290e+000 3.344651e+000 7.720322e+000
<GCONST> 1.147816e+002
<STATE> 3
<MEAN> 25
 7.704355e+000 -9.338563e+000 -2.338756e+000 -3.775075e+000 2.478585e+000 8.727250e-001 8.907915e-002 6.706464e-001 1.828470e+000 -7.605196e+000 -5.074930e+000 -1.340643e+000 -2.515991e-002 1.827828e-001 1.563007e-001 -2.651086e-001 -3.670181e-001 -2.649427e-001 2.813238e-001 -6.549192e-002 -3.316425e-001 -1.640577e-001 1.440991e-001 4.671873e-002 5.605267e-001
<VARIANCE> 25
 4.270472e+001 6.819438e+001 7.239602e+001 4.644869e+001 7.245338e+001 4.898800e+001 4.938150e+001 7.290250e+001 5.831198e+001 7.480096e+001 4.564098e+001 3.501836e+001 2.171634e+000 2.400880e+000 2.450898e+000 2.228241e+000 3.314035e+000 3.024691e+000 2.967260e+000 4.185384e+000 3.103575e+000 3.254099e+000 2.716594e+000 1.924953e+000 2.027572e+000
<GCONST> 1.070114e+002
<STATE> 4
<MEAN> 25
 3.412001e+000 -5.917396e+000 -1.919693e+000 -7.085557e+000 3.237936e-001 -2.750356e+000 2.399441e+000 6.675924e-001 2.870431e+000 8.743547e-001 -4.064043e+000 -1.768213e+000 9.955857e-003 2.599332e-002 1.480417e-001 1.372962e-001 -1.083314e-001 -1.036756e-001 -9.279492e-002 1.534473e-001 1.801209e-002 7.745706e-002 1.061086e-001 -3.705760e-002 -5.617708e-002
<VARIANCE> 25
 7.624133e+001 2.289702e+001 3.983072e+001 2.428429e+001 5.913962e+001 4.230395e+001 4.129572e+001 4.175068e+001 3.644653e+001 5.235049e+001 5.085091e+001 2.918324e+001 9.072882e-001 7.967489e-001 9.739211e-001 1.055170e+000 1.799769e+000 1.727180e+000 2.125222e+000 2.052907e+000 2.156246e+000 2.259661e+000 2.155507e+000 2.161857e+000 6.542891e-001
<GCONST> 9.542828e+001
<TRANSP> 5
 0.000000e+000 1.000000e+000 0.000000e+000 0.000000e+000 0.000000e+000
 0.000000e+000 7.634350e-001 2.365650e-001 0.000000e+000 0.000000e+000
 0.000000e+000 0.000000e+000 6.278058e-001 3.721943e-001 0.000000e+000
 0.000000e+000 0.000000e+000 0.000000e+000 8.634377e-001 1.365623e-001
 0.000000e+000 0.000000e+000 0.000000e+000 0.000000e+000 0.000000e+000
<ENDHMM>
~h "ae"
<BEGINHMM>
<NUMSTATES> 5
<STATE> 2
<MEAN> 25
 6.352076e-001 -2.140155e+000 -3.947463e-001 3.747154e-001 1.236817e+000 5.884724e-001 -6.826871e-001 1.050380e-001 -8.210579e-001 -1.626007e+000 -2.072066e+000 6.357288e-001 -1.269177e-001 -3.086867e-001 -3.086402e-002 -1.715173e-001 -3.418029e-002 -1.302531e-002 -3.216021e-002 1.516430e-001 1.936201e-002 -1.215709e-001 -9.236629e-002 1.601913e-001 3.067534e-001
<VARIANCE> 25
 3.971037e+001 2.725424e+001 2.122081e+001 3.879629e+001 2.405711e+001 2.266572e+001 2.894054e+001 2.157887e+001 2.450217e+001 3.654819e+001 4.400962e+001 1.407050e+001 5.563824e-001 6.684829e-001 1.021366e+000 1.469310e+000 1.537967e+000 1.679114e+000 1.435398e+000 1.603905e+000 1.679068e+000 1.728066e+000 1.975614e+000 1.476601e+000 1.141364e+000
<GCONST> 8.907877e+001
<STATE> 3
<MEAN> 25
 6.922281e+000 -2.580907e+000 3.462622e+000 -3.827502e+000 4.245502e+000 5.837482e-001 -1.065104e+001 -4.316780e+000 -4.422889e+000 -1.612328e+000 -1.522967e-001 2.279296e+000 4.028570e-001 -1.846060e-001 3.054379e-002 -2.944595e-001 -1.622694e-001 -4.477954e-001 -3.823276e-001 -1.570055e-001 -1.042164e-001 1.034857e-001 -1.984021e-003 1.919211e-001 6.363081e-001
<VARIANCE> 25
 3.199732e+001 2.122602e+001 1.869604e+001 3.857307e+001 7.250288e+001 2.858804e+001 8.659073e+001 4.860197e+001 4.295199e+001 3.802870e+001 6.244394e+001 2.375810e+001 2.266296e+000 1.965394e+000 1.666415e+000 1.977743e+000 2.727523e+000 2.450195e+000 3.037458e+000 3.860084e+000 2.433199e+000 3.314823e+000 3.006473e+000 1.919883e+000 3.498752e+000
<GCONST> 1.018716e+002
<STATE> 4
<MEAN> 25
 4.260251e+000 -5.514418e+000 1.628127e+000 -4.897621e+000 -1.599457e+000 -5.314580e+000 4.182158e-001 2.802472e+000 -1.258805e-001 1.365215e+000 -3.774440e+000 2.020466e-001 7.801043e-002 4.613763e-002 1.090714e-001 -2.120898e-001 -3.119517e-001 -3.058229e-001 1.702004e-001 1.146102e-001 5.489082e-002 5.635712e-002 -6.784365e-003 -9.343129e-002 5.106194e-001
<VARIANCE> 25
 5.930399e+001 3.969402e+001 3.431470e+001 2.821985e+001 4.648067e+001 3.814737e+001 5.724441e+001 7.071946e+001 2.999981e+001 7.248580e+001 6.010110e+001 2.654787e+001 1.948070e+000 2.320993e+000 2.323767e+000 1.886672e+000 2.658939e+000 2.780475e+000 3.580836e+000 2.770190e+000 2.131484e+000 2.996530e+000 2.587849e+000 1.921608e+000 3.900978e+000
<GCONST> 1.035339e+002
<TRANSP> 5
 0.000000e+000 1.000000e+000 0.000000e+000 0.000000e+000 0.000000e+000
 0.000000e+000 6.401222e-001 3.598778e-001 0.000000e+000 0.000000e+000
 0.000000e+000 0.000000e+000 7.355587e-001 2.644413e-001 0.000000e+000
 0.000000e+000 0.000000e+000 0.000000e+000 8.267819e-001 1.732180e-001
 0.000000e+000 0.000000e+000 0.000000e+000 0.000000e+000 0.000000e+000
<ENDHMM>
~h "ah"
<BEGINHMM>
<NUMSTATES> 5
<STATE> 2
<MEAN> 25
 3.910837e+000 7.845039e-001 -1.638514e+000 -4.370139e+000 1.064571e+000 -4.054657e-001 3.310396e-001 1.190586e+000 5.917265e-002 8.581393e-001 7.353681e-001 -5.743646e-001 9.108258e-001 -5.952908e-002 -1.085263e-001 -9.322953e-001 -1.646401e-001 6.476314e-002 -1.744990e-001 -1.116121e-001 2.144696e-001 2.635334e-001 5.078836e-003 -2.452695e-001 1.403167e+000
<VARIANCE> 25
 1.180814e+002 6.926595e+001 6.216574e+001 7.810614e+001 8.454838e+001 8.030102e+001 5.263811e+001 5.347720e+001 7.004441e+001 4.824332e+001 4.618008e+001 3.093398e+001 7.949423e+000 5.682729e+000 4.589717e+000 6.492693e+000 7.032375e+000 6.727206e+000 5.386704e+000 5.893684e+000 5.973134e+000 5.329150e+000 4.995438e+000 3.472475e+000 7.683894e+000
<GCONST> 1.184722e+002
<STATE> 3
<MEAN> 25
 8.706581e+000 -8.600928e-001 -9.919519e-001 -6.840038e+000 6.342068e-001 1.775464e+000 -1.598371e+000 1.289926e+000 1.973252e+000 2.609406e+000 -9.125305e-001 -1.515957e+000 -2.752031e-001 -2.297603e-001 -9.000167e-002 3.794300e-001 8.392921e-002 -7.214723e-002 -2.155707e-002 2.593321e-001 3.235627e-001 -1.634325e-001 -2.975852e-001 -5.309797e-002 -2.126049e-001
<VARIANCE> 25
 7.786382e+001 5.259021e+001 5.336762e+001 7.951480e+001 5.785185e+001 7.847924e+001 5.120857e+001 4.884219e+001 6.396880e+001 4.129350e+001 4.863252e+001 3.400568e+001 2.729646e+000 2.550055e+000 2.049703e+000 3.159069e+000 2.805946e+000 3.728151e+000 2.636121e+000 3.008146e+000 3.244610e+000 2.705327e+000 3.376226e+000 2.453107e+000 3.218077e+000
<GCONST> 1.078344e+002
<STATE> 4
<MEAN> 25
 1.815950e+000 -6.544115e-001 -1.244106e+000 7.217330e-001 1.507255e+000 3.143438e-001 2.279917e-002 2.112303e+000 -1.673608e-001 4.613465e-001 -1.369966e+000 1.081389e-001 -2.506301e-001 -1.575054e-002 5.295028e-002 1.183423e-001 2.423482e-002 1.095194e-001 1.750695e-002 -8.900956e-002 -1.216745e-001 -7.663033e-002 -1.136658e-002 3.899267e-002 -3.199263e-001
<VARIANCE> 25
 5.594109e+001 2.524788e+001 2.570504e+001 4.479386e+001 3.380785e+001 3.504313e+001 3.687011e+001 3.185048e+001 5.355033e+001 2.800927e+001 3.593386e+001 2.467697e+001 8.275277e-001 9.752247e-001 1.289636e+000 1.710647e+000 1.896324e+000 2.236584e+000 2.122568e+000 2.236072e+000 2.341730e+000 1.841645e+000 2.155752e+000 1.818776e+000 7.806667e-001
<GCONST> 9.465445e+001
<TRANSP> 5
 0.000000e+000 1.000000e+000 0.000000e+000 0.000000e+000 0.000000e+000
 0.000000e+000 7.141240e-001 2.858760e-001 0.000000e+000 0.000000e+000
 0.000000e+000 0.000000e+000 6.345807e-001 3.654194e-001 0.000000e+000
 0.000000e+000 0.000000e+000 0.000000e+000 7.883999e-001 2.116001e-001
 0.000000e+000 0.000000e+000 0.000000e+000 0.000000e+000 0.000000e+000
<ENDHMM>
~h "ao"
<BEGINHMM>
<NUMSTATES> 5
<STATE> 2
<MEAN> 25
 6.610607e+000 -5.253279e-001 8.908830e-001 -5.361948e+000 -4.319203e+000 -5.311792e+000 -4.059150e+000 -5.311068e+000 5.116955e-001 1.238481e+000 -2.800002e-001 -1.179317e-001 4.997571e-001 3.580160e-001 -1.884590e-001 -2.656036e-001 -7.728752e-002 1.305875e-001 7.522004e-003 4.149779e-002 -1.925955e-001 3.252937e-001 2.313058e-002 1.042258e-002 -4.908720e-001
<VARIANCE> 25
 4.373489e+001 2.489563e+001 3.516134e+001 2.604312e+001 3.762527e+001 3.032466e+001 3.789577e+001 4.777039e+001 3.942476e+001 2.860064e+001 4.716023e+001 2.235457e+001 2.747635e+000 2.029805e+000 1.401168e+000 1.820793e+000 2.226918e+000 1.930325e+000 1.995583e+000 3.100455e+000 3.235934e+000 2.591522e+000 2.599552e+000 2.163846e+000 3.495151e+000
<GCONST> 9.932997e+001
<STATE> 3
<MEAN> 25
 9.169093e+000 4.142744e+000 5.344665e-001 -1.594858e+000 9.182071e-001 -1.531662e+000 -2.430861e+000 3.527243e-001 -3.556583e+000 1.863717e+000 8.946203e-001 -7.590035e-001 -9.070053e-002 7.068666e-003 9.274960e-002 -1.772570e-001 -1.014618e-001 3.118454e-001 2.570764e-001 -1.832194e-002 -1.033783e-001 1.898934e-001 7.339439e-002 5.138572e-002 -6.655975e-002
<VARIANCE> 25
 3.445837e+001 3.222093e+001 4.106596e+001 4.869365e+001 3.286612e+001 3.205554e+001 2.398616e+001 2.346531e+001 2.484616e+001 2.452900e+001 2.597398e+001 1.891979e+001 1.932114e+000 1.724755e+000 1.839839e+000 2.968379e+000 2.201790e+000 1.920463e+000 1.828797e+000 2.574005e+000 2.297022e+000 2.055738e+000 1.716710e+000 1.611767e+000 1.244734e+000
<GCONST> 9.514406e+001
<STATE> 4
<MEAN> 25
 1.555048e+001 2.447480e+000 -4.328510e+000 -1.114406e+001 -8.726706e-001 8.685466e+000 9.284081e-001 -4.993607e+000 -1.614939e+000 4.004349e+000 2.481105e+000 -5.091325e-001 -2.607249e-001 -2.774239e-001 1.650212e-001 2.808040e-001 3.873009e-001 -4.040720e-002 -2.496790e-001 1.071738e-001 2.764393e-001 -3.504129e-002 -1.973739e-002 -7.056479e-002 -6.880702e-002
<VARIANCE> 25
 3.001993e+001 5.688702e+001 2.206061e+001 8.017892e+001 5.949247e+001 5.883971e+001 5.822483e+001 6.298462e+001 4.943792e+001 4.242915e+001 4.673373e+001 3.207545e+001 1.196323e+000 2.048415e+000 1.411689e+000 3.583426e+000 2.955052e+000 4.225093e+000 3.360616e+000 3.929802e+000 2.272342e+000 2.673000e+000 2.471570e+000 2.469532e+000 1.517622e+000
<GCONST> 1.038496e+002
<TRANSP> 5
 0.000000e+000 1.000000e+000 0.000000e+000 0.000000e+000 0.000000e+000
 0.000000e+000 8.215998e-001 1.784002e-001 0.000000e+000 0.000000e+000
 0.000000e+000 0.000000e+000 8.213521e-001 1.786479e-001 0.000000e+000
 0.000000e+000 0.000000e+000 0.000000e+000 8.766415e-001 1.233585e-001
 0.000000e+000 0.000000e+000 0.000000e+000 0.000000e+000 0.000000e+000
<ENDHMM>
~h "aw"
<BEGINHMM>
<NUMSTATES> 5
<STATE> 2
<MEAN> 25
 3.948145e+000 -5.917427e+000 -4.488666e+000 -4.603525e+000 6.381667e+000 2.493817e+000 5.343974e-001 2.255757e-001 -2.032912e+000 2.335708e+000 9.578435e-001 -1.692150e+000 1.075107e-001 -2.680542e-001 5.631423e-001 -2.229083e+000 -1.207496e+000 9.595008e-001 9.355834e-001 -1.705676e-001 4.906242e-001 5.873283e-001 2.581092e-001 -7.339996e-001 2.638274e+000
<VARIANCE> 25
 5.750283e+001 5.290853e+001 1.330071e+002 6.674657e+001 1.001156e+002 8.460748e+001 6.572109e+001 6.231002e+001 6.026474e+001 4.907533e+001 4.703236e+001 2.752186e+001 8.976203e+000 8.109162e+000 8.025172e+000 5.535385e+000 8.505444e+000 8.781998e+000 9.311798e+000 7.575605e+000 5.900551e+000 5.836698e+000 5.199970e+000 2.774470e+000 5.456651e+000
<GCONST> 1.201345e+002
<STATE> 3
<MEAN> 25
 -4.184662e+000 -1.212599e+001 9.586630e+000 -7.124050e+000 5.471022e+000 2.514471e+000 1.129650e+000 3.614045e+000 -1.148431e+001 3.032012e+000 2.955730e+000 -1.712043e+000 1.181681e-001 1.259798e-001 -6.043346e-001 -4.159907e-001 -7.137609e-001 2.259622e-001 3.292373e-001 3.747258e-001 1.071822e-001 -3.222900e-001 1.440986e-001 -7.578604e-002 -3.136151e-001
<VARIANCE> 25
 5.960648e+001 5.785197e+001 1.045590e+002 4.372248e+001 3.767322e+001 3.456669e+001 4.858836e+001 3.952091e+001 5.840865e+001 2.907910e+001 3.514715e+001 1.871435e+001 3.056210e+000 3.150277e+000 2.417329e+000 3.421594e+000 2.618003e+000 1.938761e+000 3.751991e+000 2.477317e+000 2.698078e+000 2.365039e+000 2.295539e+000 2.176028e+000 2.601087e+000
<GCONST> 1.038277e+002
<STATE> 4
<MEAN> 25
 8.365772e+000 -2.738610e+000 -6.002711e+000 -1.461645e+001 -2.579074e+000 8.580428e+000 2.539696e+000 -1.551824e+000 -3.733168e-001 5.908146e-001 2.594654e+000 -3.854281e+000 4.174859e-001 5.428181e-001 1.924745e-001 -1.069925e-002 -5.778157e-001 -3.593000e-001 -3.757819e-001 -3.956975e-002 2.758836e-001 -1.011093e-001 -2.767573e-001 2.765338e-002 -1.071264e-001
<VARIANCE> 25
 1.022151e+002 5.236753e+001 3.572861e+001 5.418502e+001 5.832094e+001 9.085388e+001 4.755180e+001 4.378647e+001 4.612675e+001 4.044417e+001 5.419744e+001 2.364034e+001 1.026103e+000 9.985240e-001 1.382204e+000 2.236937e+000 2.072894e+000 2.447925e+000 2.019070e+000 2.026177e+000 2.026453e+000 1.916283e+000 3.252563e+000 1.539916e+000 9.372650e-001
<GCONST> 1.000930e+002
<TRANSP> 5
 0.000000e+000 1.000000e+000 0.000000e+000 0.000000e+000 0.000000e+000
 0.000000e+000 7.000998e-001 2.999003e-001 0.000000e+000 0.000000e+000
 0.000000e+000 0.000000e+000 8.059752e-001 1.940248e-001 0.000000e+000
 0.000000e+000 0.000000e+000 0.000000e+000 8.427808e-001 1.572192e-001
 0.000000e+000 0.000000e+000 0.000000e+000 0.000000e+000 0.000000e+000
<ENDHMM>
~h "ay"
<BEGINHMM>
<NUMSTATES> 5
<STATE> 2
<MEAN> 25
 1.598101e+000 1.361064e+000 2.248944e+000 3.115813e+000 4.327717e-001 -4.370511e-001 2.697971e-001 1.348081e-001 -2.112712e+000 -1.226321e+000 -5.095709e-001 -8.160744e-001 -6.330231e-001 -2.235290e-001 -3.603693e-001 1.750119e-001 1.551790e-001 3.267652e-001 1.012219e-001 -1.945280e-001 8.535785e-002 1.130965e-001 1.812207e-001 1.023005e-001 -6.618076e-001
<VARIANCE> 25
 4.986582e+001 2.902423e+001 3.560643e+001 3.577556e+001 5.635597e+001 4.120955e+001 4.523864e+001 3.056631e+001 4.038654e+001 3.160492e+001 2.928242e+001 1.937469e+001 1.573000e+000 2.052147e+000 2.532712e+000 2.594157e+000 3.316760e+000 3.200031e+000 3.197354e+000 2.795707e+000 3.350734e+000 2.451716e+000 2.121740e+000 1.738937e+000 9.450787e-001
<GCONST> 9.981113e+001
<STATE> 3
<MEAN> 25
 -3.792721e+000 -8.964365e-001 -2.814855e-001 2.454618e+000 -5.591946e-001 8.426061e-001 -6.374975e-001 -1.610732e+000 -1.285777e+000 -9.286873e-001 7.394463e-001 -1.372783e-001 -1.905513e-001 -1.010059e-001 -1.946669e-001 -4.493202e-002 -3.385802e-002 1.230003e-001 4.392574e-002 -5.582066e-002 1.904688e-002 1.919889e-002 5.985843e-002 8.865137e-002 -2.147235e-001
<VARIANCE> 25
 3.265469e+001 1.008597e+001 1.529336e+001 2.036827e+001 1.854780e+001 1.929290e+001 1.913747e+001 1.621809e+001 2.245492e+001 1.951639e+001 1.741629e+001 1.208217e+001 2.634310e-001 3.859077e-001 5.784101e-001 7.952632e-001 1.048464e+000 1.168557e+000 1.187079e+000 1.117718e+000 1.303561e+000 1.222639e+000 9.874175e-001 8.622153e-001 1.525104e-001
<GCONST> 7.638310e+001
<STATE> 4
<MEAN> 25
 9.182786e-001 1.050310e+000 1.308239e+000 2.806068e+000 2.759194e+000 7.198362e-001 -5.887340e-001 3.730065e-001 -2.077078e+000 -4.604707e-001 8.530467e-001 4.386567e-001 -7.824743e-003 -1.557853e-002 7.301775e-003 1.207864e-001 1.806194e-001 8.476666e-002 6.949934e-002 1.765802e-001 4.773621e-002 5.191815e-002 2.825186e-002 6.239034e-002 -1.900898e-002
<VARIANCE> 25
 2.366397e+001 1.188716e+001 1.546663e+001 1.681674e+001 2.158622e+001 1.647748e+001 1.776919e+001 1.746533e+001 1.913837e+001 2.084617e+001 1.478590e+001 1.345267e+001 3.972979e-001 7.181599e-001 7.930419e-001 1.081717e+000 1.275391e+000 1.387960e+000 1.329555e+000 1.617085e+000 1.478723e+000 1.434827e+000 1.166177e+000 1.118099e+000 2.135422e-001
<GCONST> 7.944361e+001
<TRANSP> 5
 0.000000e+000 1.000000e+000 0.000000e+000 0.000000e+000 0.000000e+000
 0.000000e+000 7.130746e-001 2.869254e-001 0.000000e+000 0.000000e+000
 0.000000e+000 0.000000e+000 7.637774e-001 2.362226e-001 0.000000e+000
 0.000000e+000 0.000000e+000 0.000000e+000 7.614478e-001 2.385521e-001
 0.000000e+000 0.000000e+000 0.000000e+000 0.000000e+000 0.000000e+000
<ENDHMM>
~h "ch"
<BEGINHMM>
<NUMSTATES> 5
<STATE> 2
<MEAN> 25
 -2.207925e+000 -2.582656e-002 3.377227e+000 -1.932146e+000 3.867771e+000 -3.048624e+000 -5.159289e-001 3.776569e+000 1.527384e-002 -1.481121e+000 -1.519105e+000 9.418252e-001 -1.962769e+000 -8.879859e-002 6.589725e-001 -6.524894e-001 3.028411e-002 -3.961490e-001 -3.079935e-002 5.853049e-001 2.729618e-001 2.279380e-001 4.256929e-001 2.891385e-001 5.202764e-001
<VARIANCE> 25
 7.857549e+001 1.055409e+002 4.765726e+001 6.184407e+001 3.766819e+001 3.529610e+001 4.940993e+001 4.867028e+001 7.126718e+001 3.501903e+001 5.526575e+001 1.988854e+001 5.993021e+000 7.911916e+000 5.940044e+000 5.516262e+000 3.658408e+000 3.137904e+000 4.599906e+000 5.145366e+000 6.308144e+000 2.865183e+000 3.769344e+000 1.854814e+000 3.781444e+000
<GCONST> 1.118835e+002
<STATE> 3
<MEAN> 25
 -7.538168e+000 -1.067472e+001 1.218510e+001 -6.579463e+000 3.074071e+000 -2.100320e+000 3.667685e-001 6.801171e+000 -7.310814e+000 3.434478e+000 2.432465e+000 -7.132199e-001 -2.507222e-001 -3.309948e-001 5.777778e-002 1.088687e-001 -3.451646e-001 -3.954240e-002 1.872688e-001 3.376128e-001 1.956767e-002 1.217339e-003 3.003770e-001 6.517610e-002 -1.262666e-001
<VARIANCE> 25
 6.614083e+001 8.108332e+001 7.995125e+001 3.577949e+001 2.669930e+001 2.566440e+001 4.287317e+001 3.391369e+001 6.974583e+001 2.251479e+001 2.746088e+001 1.338000e+001 3.384676e+000 3.552877e+000 3.368626e+000 2.559778e+000 1.898751e+000 1.324374e+000 2.435865e+000 1.999182e+000 3.003166e+000 1.624117e+000 2.083256e+000 1.188092e+000 1.771108e+000
<GCONST> 9.977948e+001
<STATE> 4
<MEAN> 25
 -1.052693e+001 -3.898271e-001 6.242441e+000 -5.675932e-001 4.139862e+000 -5.683055e+000 1.029400e+000 8.128877e+000 1.297787e+000 -2.096503e+000 3.615038e+000 2.139593e+000 1.012853e+000 -6.427758e-002 -2.219448e-001 3.279333e-001 1.035369e-001 4.454842e-001 -2.626154e-001 -2.127095e-001 -2.223429e-001 4.973437e-002 -1.727846e-001 -3.350088e-001 -1.053776e+000
<VARIANCE> 25
 6.467490e+001 5.259552e+001 4.813883e+001 4.792669e+001 5.604927e+001 7.204022e+001 4.252073e+001 5.609120e+001 4.746350e+001 3.133179e+001 3.348870e+001 2.345071e+001 2.049974e+000 2.412081e+000 3.871421e+000 3.144290e+000 2.855277e+000 4.716119e+000 3.227235e+000 4.461435e+000 3.534816e+000 3.249365e+000 2.374712e+000 2.411350e+000 2.155027e+000
<GCONST> 1.061926e+002
<TRANSP> 5
 0.000000e+000 1.000000e+000 0.000000e+000 0.000000e+000 0.000000e+000
 0.000000e+000 8.064330e-001 1.935670e-001 0.000000e+000 0.000000e+000
 0.000000e+000 0.000000e+000 8.111464e-001 1.888536e-001 0.000000e+000
 0.000000e+000 0.000000e+000 0.000000e+000 7.925217e-001 2.074783e-001
 0.000000e+000 0.000000e+000 0.000000e+000 0.000000e+000 0.000000e+000
<ENDHMM>
~h "dh"
<BEGINHMM>
<NUMSTATES> 5
<STATE> 2
<MEAN> 25
 2.644773e+000 4.600496e+000 1.855335e+000 2.373698e+000 2.522452e+000 8.647108e-001 -4.788079e-001 -1.332553e+000 -2.555502e+000 -3.031880e-001 -1.008889e+000 -1.032065e+000 1.075312e+000 -6.011796e-001 1.298908e+000 -8.217272e-001 -9.302371e-001 -1.050817e+000 -1.206136e+000 -7.904328e-002 -2.323414e-001 -2.551587e-002 -6.086827e-001 -9.322643e-002 2.057201e+000
<VARIANCE> 25
 3.867977e+001 2.944658e+001 4.455381e+001 2.730197e+001 4.866877e+001 2.805132e+001 4.402474e+001 2.553132e+001 5.206544e+001 2.340260e+001 2.803989e+001 2.215818e+001 3.432186e+000 4.550274e+000 4.645111e+000 2.418569e+000 9.278179e+000 3.579645e+000 4.181493e+000 4.364793e+000 7.347026e+000 2.096748e+000 3.027699e+000 1.902887e+000 3.653266e+000
<GCONST> 1.052254e+002
<STATE> 3
<MEAN> 25
 4.513645e+000 2.307787e+000 5.587519e+000 -6.648952e-001 -2.041936e+000 -2.875510e+000 -3.548735e+000 -1.471634e+000 -3.297093e+000 1.224890e+000 -4.658707e-001 -9.292710e-001 7.433056e-001 -1.803544e+000 1.469846e+000 -1.439703e+000 -2.190716e+000 -6.966459e-001 -2.279297e-001 2.284720e-001 8.006765e-001 -2.358287e-001 -1.742315e-001 -5.619141e-002 3.783363e+000
<VARIANCE> 25
 3.564359e+001 6.008194e+001 5.679905e+001 3.184472e+001 1.070667e+002 3.719437e+001 4.737322e+001 3.470060e+001 5.086226e+001 2.795957e+001 3.447259e+001 1.958355e+001 5.641693e+000 6.789739e+000 1.232082e+001 3.794562e+000 1.186983e+001 4.272119e+000 8.819846e+000 5.618778e+000 8.307681e+000 4.363477e+000 7.909916e+000 3.757813e+000 6.065160e+000
<GCONST> 1.146904e+002
<STATE> 4
<MEAN> 25
 4.666222e+000 1.970552e+000 1.111071e+000 -7.724376e+000 -5.306605e+000 6.514019e+000 7.000587e-001 -4.611839e-001 3.829503e+000 -2.984914e+000 -1.127915e+000 -4.759108e-001 -2.597593e-001 -9.098948e-001 -4.468414e-001 -4.358767e-001 4.296854e-001 -1.615952e-002 1.723508e-001 2.731334e-001 3.207948e-001 1.461847e-001 1.009968e-001 -2.594065e-004 1.606708e+000
<VARIANCE> 25
 8.674435e+001 1.002953e+002 1.242843e+002 1.115281e+002 6.482285e+001 8.361802e+001 5.544524e+001 4.191883e+001 7.047878e+001 5.544649e+001 8.573860e+001 5.415044e+001 9.542101e+000 4.374464e+000 3.602691e+000 7.123127e+000 4.600191e+000 3.666714e+000 4.567185e+000 4.117122e+000 4.166339e+000 5.444829e+000 5.061132e+000 4.705137e+000 1.926014e+001
<GCONST> 1.196037e+002
<TRANSP> 5
 0.000000e+000 1.000000e+000 0.000000e+000 0.000000e+000 0.000000e+000
 0.000000e+000 3.857649e-001 6.142352e-001 0.000000e+000 0.000000e+000
 0.000000e+000 0.000000e+000 4.311109e-001 5.688891e-001 0.000000e+000
 0.000000e+000 0.000000e+000 0.000000e+000 8.032008e-001 1.967992e-001
 0.000000e+000 0.000000e+000 0.000000e+000 0.000000e+000 0.000000e+000
<ENDHMM>
~h "eh"
<BEGINHMM>
<NUMSTATES> 5
<STATE> 2
<MEAN> 25
 -1.920162e+000 -7.606910e+000 9.050941e+000 -4.987155e+000 -6.284525e-002 -2.659680e+000 6.403258e-001 2.981421e+000 -3.504164e+000 3.262040e+000 1.622559e+000 -5.907575e-002 -1.564468e+000 -1.100504e+000 1.038972e+000 -7.875387e-001 -3.517073e-001 -1.899625e-001 9.254264e-001 8.625821e-001 -5.446746e-001 4.719709e-001 1.986854e-001 -1.972239e-001 7.487187e-001
<VARIANCE> 25
 7.101665e+001 5.997123e+001 1.168262e+002 3.792316e+001 6.807926e+001 4.628346e+001 3.427818e+001 3.966843e+001 6.222094e+001 3.900012e+001 2.475694e+001 2.216216e+001 3.785559e+000 3.725043e+000 4.276208e+000 1.794965e+000 1.941560e+000 2.125660e+000 3.502599e+000 3.242235e+000 3.117687e+000 2.270951e+000 2.268228e+000 1.639330e+000 1.880816e+000
<GCONST> 1.045062e+002
<STATE> 3
<MEAN> 25
 -5.815563e+000 -9.358840e+000 7.001800e+000 -6.748040e+000 -1.280252e+000 -4.896883e+000 2.428027e+000 6.556170e+000 -1.543560e+000 2.563880e+000 -9.187799e-002 -5.171957e-001 1.969296e-001 2.377532e-001 -2.310484e-001 1.972328e-001 -2.194282e-001 3.162346e-002 1.955450e-001 4.197218e-002 1.292477e-001 -1.655513e-001 -1.265195e-001 -5.103746e-002 -6.000807e-001
<VARIANCE> 25
 9.228314e+001 5.905768e+001 9.470992e+001 2.773122e+001 4.975376e+001 2.980820e+001 2.991060e+001 3.688317e+001 6.370530e+001 2.564790e+001 2.950533e+001 1.674412e+001 8.613017e-001 1.164362e+000 1.685719e+000 1.185393e+000 1.245992e+000 1.378709e+000 1.751563e+000 1.558485e+000 1.895456e+000 1.415928e+000 1.456314e+000 1.145366e+000 9.673668e-001
<GCONST> 9.403900e+001
<STATE> 4
<MEAN> 25
 -5.546557e+000 -8.023274e+000 9.664157e+000 -4.149788e-002 -8.316695e+000 3.239869e+000 4.928988e+000 -5.346321e-001 5.144160e+000 -4.905301e+000 1.370240e+000 -1.822475e+000 4.633365e-001 2.014091e-001 1.515665e-001 4.234348e-001 2.208739e-001 3.403257e-001 -2.647847e-001 -2.684108e-001 -1.975399e-001 -1.630138e-001 -4.630854e-002 1.513905e-001 -7.692527e-001
<VARIANCE> 25
 8.721600e+001 6.165143e+001 6.171588e+001 5.463517e+001 8.673212e+001 8.811030e+001 4.693382e+001 6.790935e+001 7.110131e+001 6.252057e+001 4.237367e+001 4.035213e+001 5.370702e+000 3.949142e+000 4.155863e+000 3.193993e+000 4.807112e+000 4.802206e+000 3.719148e+000 4.289531e+000 4.700987e+000 3.479693e+000 3.260832e+000 2.677227e+000 2.461689e+000
<GCONST> 1.129236e+002
<TRANSP> 5
 0.000000e+000 1.000000e+000 0.000000e+000 0.000000e+000 0.000000e+000
 0.000000e+000 5.235680e-001 4.764321e-001 0.000000e+000 0.000000e+000
 0.000000e+000 0.000000e+000 8.266782e-001 1.733218e-001 0.000000e+000
 0.000000e+000 0.000000e+000 0.000000e+000 8.086994e-001 1.913006e-001
 0.000000e+000 0.000000e+000 0.000000e+000 0.000000e+000 0.000000e+000
<ENDHMM>
~h "er"
<BEGINHMM>
<NUMSTATES> 5
<STATE> 2
<MEAN> 25
 2.960698e+000 -2.994983e+000 -2.403467e+000 -3.050121e+000 1.118785e+000 -1.679046e+000 5.189344e-001 6.150983e-001 4.196966e+000 7.846617e-001 -2.927789e+000 -3.942149e-001 -5.679076e-001 -6.871453e-001 -1.782525e-001 -1.052420e-001 -3.699696e-001 -8.503355e-001 -2.085838e-001 8.417636e-001 9.781368e-001 -2.828304e-002 -3.227319e-001 -3.140079e-001 1.209979e+000
<VARIANCE> 25
 5.652297e+001 2.510639e+001 5.243029e+001 4.928832e+001 4.136082e+001 7.329159e+001 6.352401e+001 4.916849e+001 5.109582e+001 5.051239e+001 7.617213e+001 2.936712e+001 3.059023e+000 2.371325e+000 2.449764e+000 3.256202e+000 3.825569e+000 4.843289e+000 5.176482e+000 5.630251e+000 4.120372e+000 3.875658e+000 3.636353e+000 2.241575e+000 5.351249e+000
<GCONST> 1.095899e+002
<STATE> 3
<MEAN> 25
 3.193949e+000 -4.717809e+000 -3.647698e+000 -3.896883e+000 -2.425722e+000 -7.805950e+000 -1.144050e+000 2.936367e+000 6.437733e+000 2.497988e+000 -3.022888e+000 -3.145093e+000 4.069682e-001 -7.438269e-002 3.105691e-002 2.713302e-001 4.918956e-002 -2.559799e-001 -2.612397e-001 1.310999e-001 1.876364e-002 -2.886865e-002 -9.395002e-002 -2.166089e-002 -2.121908e-001
<VARIANCE> 25
 5.979450e+001 1.670719e+001 1.736457e+001 3.591004e+001 1.986373e+001 3.515155e+001 4.104694e+001 3.465642e+001 4.284838e+001 2.924130e+001 3.933741e+001 2.029036e+001 3.760091e+000 1.265388e+000 1.264550e+000 2.626077e+000 1.764588e+000 2.556444e+000 2.463274e+000 3.501857e+000 2.837801e+000 2.061866e+000 2.669246e+000 1.984959e+000 3.269047e+000
<GCONST> 9.795335e+001
<STATE> 4
<MEAN> 25
 1.010083e+001 -5.393003e+000 -3.489264e+000 2.927024e+000 -7.523788e-001 -9.833747e+000 -4.318994e+000 6.893772e+000 4.324983e+000 -1.481168e+000 -3.259702e+000 -6.554779e-001 -1.104103e-001 1.576325e-001 5.651142e-002 3.044277e-001 2.497419e-001 1.651791e-001 9.928223e-002 -1.236030e-001 -4.929321e-001 1.467095e-002 2.369332e-001 1.455740e-001 -7.734513e-001
<VARIANCE> 25
 3.895228e+001 4.536366e+001 5.600402e+001 7.311853e+001 6.219007e+001 8.233785e+001 9.679729e+001 5.154178e+001 5.404897e+001 5.155990e+001 4.631385e+001 3.853152e+001 2.975696e+000 3.000628e+000 2.602827e+000 4.204122e+000 4.429851e+000 5.957145e+000 5.667303e+000 4.339307e+000 4.303154e+000 3.374605e+000 3.499272e+000 3.015379e+000 2.800756e+000
<GCONST> 1.113362e+002
<TRANSP> 5
 0.000000e+000 1.000000e+000 0.000000e+000 0.000000e+000 0.000000e+000
 0.000000e+000 6.369787e-001 3.630213e-001 0.000000e+000 0.000000e+000
 0.000000e+000 0.000000e+000 8.491458e-001 1.508542e-001 0.000000e+000
 0.000000e+000 0.000000e+000 0.000000e+000 8.765496e-001 1.234505e-001
 0.000000e+000 0.000000e+000 0.000000e+000 0.000000e+000 0.000000e+000
<ENDHMM>
~h "ey"
<BEGINHMM>
<NUMSTATES> 5
<STATE> 2
<MEAN> 25
 7.527662e+000 2.695035e+000 1.603248e+000 -2.905756e-001 2.397887e+000 6.147471e-002 -5.460118e-002 -6.391705e-001 -1.042839e+000 -9.796026e-001 -1.119117e+000 -8.143247e-001 7.152157e-001 -9.109479e-001 -9.441286e-002 -6.546177e-001 -1.089074e-001 -2.852806e-001 -1.082555e+000 -7.742856e-001 -2.706701e-001 -3.627655e-001 -2.006793e-001 5.200355e-002 1.739875e+000
<VARIANCE> 25
 5.658519e+001 6.781506e+001 4.267444e+001 5.269964e+001 8.091309e+001 4.975089e+001 6.220659e+001 6.000491e+001 6.170853e+001 3.711777e+001 3.374956e+001 2.017763e+001 6.396386e+000 6.460386e+000 3.898923e+000 6.417974e+000 7.636989e+000 5.153524e+000 7.832537e+000 8.051394e+000 4.235466e+000 6.964908e+000 4.579462e+000 2.502426e+000 7.808978e+000
<GCONST> 1.153396e+002
<STATE> 3
<MEAN> 25
 1.003089e+001 -8.773516e-001 5.913322e-001 -1.650887e+000 6.040498e-001 -1.167292e+000 -8.271847e+000 -1.169683e+000 3.415969e+000 -2.511074e+000 1.765230e+000 -1.474350e+000 -2.622961e-001 -8.511862e-002 3.187133e-001 2.490169e-001 -3.559852e-001 -5.067617e-001 -1.517946e-001 1.762580e-001 1.829830e-001 3.905974e-002 2.146850e-001 -1.005169e-002 5.969810e-002
<VARIANCE> 25
 3.777108e+001 4.438651e+001 4.668253e+001 7.052856e+001 3.976944e+001 6.634989e+001 8.568237e+001 9.815602e+001 6.543728e+001 5.633608e+001 9.909894e+001 4.108105e+001 3.267121e+000 2.629229e+000 1.969685e+000 2.625406e+000 3.297334e+000 4.490148e+000 4.911598e+000 5.211134e+000 4.077655e+000 3.326459e+000 6.007455e+000 3.748336e+000 4.049463e+000
<GCONST> 1.117616e+002
<STATE> 4
<MEAN> 25
 2.699330e+000 1.081870e+000 7.658795e+000 -1.273520e+000 -5.552863e+000 -5.745668e+000 -3.067765e+000 -1.885729e+000 -1.583650e+000 -1.407175e+000 3.348072e+000 3.547475e-001 -2.489770e-001 6.249560e-002 -1.129416e-002 1.814223e-001 1.736435e-001 1.100338e-001 1.665073e-001 3.610107e-002 -1.712046e-001 8.435515e-002 -5.248772e-003 -8.363083e-002 -3.429869e-001
<VARIANCE> 25
 7.807191e+001 5.282562e+001 5.908631e+001 6.012369e+001 1.205192e+002 5.971726e+001 5.294601e+001 9.262449e+001 6.592574e+001 5.947647e+001 4.354918e+001 3.250607e+001 3.385509e+000 2.410765e+000 3.055139e+000 3.115705e+000 6.177041e+000 3.932315e+000 4.180223e+000 6.121602e+000 4.745026e+000 3.591411e+000 3.619490e+000 2.353773e+000 2.260489e+000
<GCONST> 1.119342e+002
<TRANSP> 5
 0.000000e+000 1.000000e+000 0.000000e+000 0.000000e+000 0.000000e+000
 0.000000e+000 6.427827e-001 3.572173e-001 0.000000e+000 0.000000e+000
 0.000000e+000 0.000000e+000 8.220651e-001 1.779349e-001 0.000000e+000
 0.000000e+000 0.000000e+000 0.000000e+000 8.903217e-001 1.096783e-001
 0.000000e+000 0.000000e+000 0.000000e+000 0.000000e+000 0.000000e+000
<ENDHMM>
~h "hh"
<BEGINHMM>
<NUMSTATES> 5
<STATE> 2
<MEAN> 25
 -1.170432e+001 3.923130e+000 -1.393190e+000 6.784729e+000 2.635921e+000 4.844350e+000 4.573109e+000 3.409742e+000 5.203605e+000 1.668107e+000 3.703611e+000 2.779030e+000 3.029680e-001 -2.567699e-001 -2.641959e-002 -1.280615e-001 -4.244222e-002 1.155703e-001 -6.437848e-002 -8.459497e-002 -1.919876e-001 5.697998e-002 1.678541e-002 1.133058e-001 2.222091e-002
<VARIANCE> 25
 5.508027e+001 2.640829e+001 3.613363e+001 5.408620e+001 3.485921e+001 1.543866e+002 2.381197e+001 3.281779e+001 3.543222e+001 4.015314e+001 2.785605e+001 1.370617e+001 1.053718e+000 9.789907e-001 1.100871e+000 1.479164e+000 1.322287e+000 1.828980e+000 1.422685e+000 1.713288e+000 1.598117e+000 1.293686e+000 1.260227e+000 9.845064e-001 1.005301e+000
<GCONST> 9.250439e+001
<STATE> 3
<MEAN> 25
 -4.225041e+000 -1.411422e+000 -2.851283e+000 2.975074e+000 9.403952e-001 3.266193e+000 2.378202e+000 1.525709e+000 -7.573135e-001 4.634754e-001 1.472957e+000 2.434603e+000 2.582645e+000 -1.589213e+000 5.484911e-001 -1.365204e+000 3.379338e-001 -8.758050e-001 -4.919049e-001 -4.411165e-001 -7.508634e-001 -5.964718e-001 -8.714198e-001 -3.006018e-001 4.235394e+000
<VARIANCE> 25
 7.934264e+001 5.740889e+001 4.089756e+001 5.508983e+001 3.816147e+001 5.820665e+001 2.935929e+001 5.411258e+001 4.781680e+001 3.187707e+001 3.183891e+001 1.604719e+001 7.767021e+000 4.890257e+000 4.785845e+000 4.371417e+000 3.649804e+000 6.560638e+000 3.197696e+000 4.481056e+000 4.319255e+000 2.302339e+000 3.015197e+000 2.035104e+000 1.166896e+001
<GCONST> 1.098170e+002
<STATE> 4
<MEAN> 25
 6.183911e+000 -5.928402e+000 4.755689e-001 -3.851791e+000 6.507238e-001 -8.648002e-001 1.873794e+000 -5.738510e-001 -1.512140e+000 -4.403977e-001 -3.976746e+000 1.434642e+000 3.345276e-001 2.620815e-002 1.532274e-001 -7.275906e-002 -4.954802e-002 7.541262e-002 -2.470226e-001 -2.687691e-001 -3.530607e-001 1.525642e-001 4.571395e-002 -2.146054e-001 1.367138e-001
<VARIANCE> 25
 6.720727e+001 8.687910e+001 8.543127e+001 6.638934e+001 8.982550e+001 5.917482e+001 6.660913e+001 4.544574e+001 5.001662e+001 4.116358e+001 4.711877e+001 2.677828e+001 1.619189e+000 2.035158e+000 2.875746e+000 2.587425e+000 3.694435e+000 4.113073e+000 3.181113e+000 2.881068e+000 3.372102e+000 2.835449e+000 2.709873e+000 1.976419e+000 2.906921e+000
<GCONST> 1.077653e+002
<TRANSP> 5
 0.000000e+000 1.000000e+000 0.000000e+000 0.000000e+000 0.000000e+000
 0.000000e+000 8.026101e-001 1.973899e-001 0.000000e+000 0.000000e+000
 0.000000e+000 0.000000e+000 6.637537e-001 3.362463e-001 0.000000e+000
 0.000000e+000 0.000000e+000 0.000000e+000 7.767884e-001 2.232116e-001
 0.000000e+000 0.000000e+000 0.000000e+000 0.000000e+000 0.000000e+000
<ENDHMM>
~h "ih"
<BEGINHMM>
<NUMSTATES> 5
<STATE> 2
<MEAN> 25
 3.431110e+000 2.032226e+000 5.827319e+000 -8.624061e-001 -2.013115e+000 -2.292982e+000 6.853532e-001 -1.957741e+000 -3.203344e+000 3.256034e-001 2.216660e-001 -8.271986e-001 1.263931e-001 -6.246060e-001 2.449575e+000 -1.391151e+000 -2.403570e+000 -8.974797e-001 -3.770512e-002 -8.282596e-001 -1.088788e+000 1.190349e-003 2.443036e-001 -6.682803e-002 2.613159e+000
<VARIANCE> 25
 4.327101e+001 5.752534e+001 5.978033e+001 3.884799e+001 8.282579e+001 4.895820e+001 4.544786e+001 5.155753e+001 5.224534e+001 3.446256e+001 2.799464e+001 2.303431e+001 7.318620e+000 5.811224e+000 6.557973e+000 5.728005e+000 1.245119e+001 4.690110e+000 6.177866e+000 7.493152e+000 6.337431e+000 5.325337e+000 4.856870e+000 3.358629e+000 5.273938e+000
<GCONST> 1.148009e+002
<STATE> 3
<MEAN> 25
 4.617787e+000 -2.771227e+000 1.332599e+001 -6.454020e+000 -8.380156e+000 -3.098944e+000 -2.492889e+000 -5.244495e-001 -7.888602e+000 2.005286e+000 1.269700e+000 -7.257416e-001 -1.992203e-002 -2.765126e-001 2.773775e-002 1.788272e-002 -6.680224e-002 -1.571260e-001 -1.437009e-001 -2.399128e-001 -1.798241e-001 -1.376686e-001 2.234563e-002 2.808304e-001 8.769115e-001
<VARIANCE> 25
 5.475955e+001 5.788665e+001 6.151737e+001 4.518007e+001 1.080933e+002 3.827462e+001 4.195550e+001 7.902444e+001 4.759562e+001 5.070702e+001 3.845595e+001 2.976020e+001 2.896406e+000 2.992639e+000 3.335607e+000 2.555538e+000 5.806077e+000 3.018844e+000 4.237609e+000 3.718426e+000 3.340524e+000 2.950802e+000 2.894543e+000 1.941438e+000 4.360861e+000
<GCONST> 1.086147e+002
<STATE> 4
<MEAN> 25
 -2.953813e+000 3.425630e+000 7.696987e+000 3.237340e+000 -4.297944e+000 -6.832179e+000 4.002619e+000 -3.160749e+000 -2.417089e+000 -3.279022e+000 2.579987e+000 2.478154e+000 -4.659801e-001 4.348085e-001 -5.399215e-001 6.135500e-001 8.227659e-001 -5.162774e-002 1.428073e-001 3.144242e-001 1.852784e-001 -1.408315e-001 -2.671553e-002 5.502645e-002 -9.114607e-001
<VARIANCE> 25
 9.601480e+001 5.671032e+001 5.813734e+001 7.485477e+001 9.740903e+001 8.219760e+001 7.529130e+001 8.505950e+001 6.385349e+001 4.384821e+001 3.791077e+001 2.904915e+001 4.821664e+000 4.479820e+000 3.852867e+000 4.643598e+000 5.804021e+000 5.610903e+000 6.339829e+000 4.926760e+000 5.059377e+000 3.724231e+000 3.514847e+000 2.645077e+000 2.619061e+000
<GCONST> 1.146325e+002
<TRANSP> 5
 0.000000e+000 1.000000e+000 0.000000e+000 0.000000e+000 0.000000e+000
 0.000000e+000 5.840272e-001 4.159729e-001 0.000000e+000 0.000000e+000
 0.000000e+000 0.000000e+000 7.163085e-001 2.836915e-001 0.000000e+000
 0.000000e+000 0.000000e+000 0.000000e+000 8.300177e-001 1.699823e-001
 0.000000e+000 0.000000e+000 0.000000e+000 0.000000e+000 0.000000e+000
<ENDHMM>
~h "iy"
<BEGINHMM>
<NUMSTATES> 5
<STATE> 2
<MEAN> 25
 6.288031e+000 1.241620e+000 7.629605e+000 5.968908e-001 -2.766681e+000 -3.468023e+000 -1.307938e+000 3.191132e-001 -3.985026e+000 -6.325981e-001 2.703910e+000 -1.315373e+000 6.941331e-001 -2.352593e-001 1.410051e+000 -7.458289e-001 -1.222292e+000 -3.067458e-001 -7.630175e-001 -2.051712e-001 -6.653076e-001 -4.794619e-001 4.172314e-001 -4.815625e-001 2.183206e+000
<VARIANCE> 25
 5.961201e+001 6.278627e+001 7.780013e+001 6.135570e+001 9.648517e+001 4.142967e+001 7.269472e+001 6.647318e+001 6.340977e+001 5.212041e+001 6.421283e+001 3.510571e+001 6.581131e+000 6.037283e+000 5.599071e+000 5.907815e+000 7.919106e+000 5.499447e+000 6.919961e+000 5.091906e+000 5.291300e+000 4.333019e+000 6.736298e+000 3.637831e+000 4.345404e+000
<GCONST> 1.175629e+002
<STATE> 3
<MEAN> 25
 5.587815e+000 -2.717898e+000 1.165273e+001 -6.606281e+000 -4.664791e+000 -1.675846e+000 -4.562120e+000 -4.989419e-001 -5.513355e+000 3.708619e-001 2.458162e+000 -1.617033e+000 1.844943e-002 9.917773e-002 1.782450e-002 -1.059709e-001 -1.280765e-001 1.631112e-001 -7.730262e-002 -2.457968e-001 -1.649859e-002 4.719654e-002 -9.661983e-003 2.907529e-002 -1.622624e-001
<VARIANCE> 25
 7.018872e+001 7.003345e+001 7.378261e+001 3.797510e+001 1.252612e+002 3.417199e+001 6.469980e+001 9.331662e+001 4.571994e+001 5.438003e+001 5.792049e+001 2.297664e+001 4.878500e-001 8.540596e-001 9.589535e-001 1.165217e+000 1.349130e+000 1.437602e+000 1.810036e+000 1.750573e+000 1.714768e+000 1.739890e+000 1.432085e+000 1.206691e+000 4.495635e-001
<GCONST> 9.635664e+001
<STATE> 4
<MEAN> 25
 7.444335e+000 1.821635e+000 1.108537e+001 -2.904883e+000 -9.369497e+000 -5.877076e-001 -1.177989e-001 -3.017755e+000 -4.802719e+000 1.350080e+000 1.244171e+000 -1.856590e+000 -3.073386e-002 1.286956e-001 -7.606754e-001 4.688569e-001 4.986828e-001 -1.358814e-001 3.205746e-001 4.435133e-002 4.069614e-001 5.244024e-002 -4.698231e-001 1.865136e-001 -9.299237e-001
<VARIANCE> 25
 5.149450e+001 4.029002e+001 1.047722e+002 6.971381e+001 9.723995e+001 6.403029e+001 4.744144e+001 7.006332e+001 4.162837e+001 3.849307e+001 3.948577e+001 2.665665e+001 2.055458e+000 3.205938e+000 3.600310e+000 3.864098e+000 6.910137e+000 4.386034e+000 4.203620e+000 4.253555e+000 3.296866e+000 3.405661e+000 3.605764e+000 2.626450e+000 2.071823e+000
<GCONST> 1.098727e+002
<TRANSP> 5
 0.000000e+000 1.000000e+000 0.000000e+000 0.000000e+000 0.000000e+000
 0.000000e+000 7.722532e-001 2.277468e-001 0.000000e+000 0.000000e+000
 0.000000e+000 0.000000e+000 8.445548e-001 1.554453e-001 0.000000e+000
 0.000000e+000 0.000000e+000 0.000000e+000 8.135698e-001 1.864302e-001
 0.000000e+000 0.000000e+000 0.000000e+000 0.000000e+000 0.000000e+000
<ENDHMM>
~h "jh"
<BEGINHMM>
<NUMSTATES> 5
<STATE> 2
<MEAN> 25
 -9.552263e+000 -2.523069e+000 -6.032886e-001 1.299856e+001 7.042577e+000 -5.106684e+000 5.364560e+000 1.731590e+000 6.993018e+000 -3.032849e+000 1.540617e+000 9.596433e-001 2.425169e+000 3.319506e-001 -3.054800e-001 -1.987718e+000 -1.033877e+000 1.689139e-001 -4.252512e-001 8.354406e-003 -9.146854e-001 3.657381e-001 8.763710e-002 -5.402873e-001 5.243864e-001
<VARIANCE> 25
 1.495378e+002 5.624913e+001 5.935146e+001 1.073914e+002 4.597828e+001 3.178721e+001 3.293423e+001 2.826772e+001 5.544864e+001 3.490153e+001 4.249732e+001 3.312949e+001 1.317418e+001 3.001945e+000 2.709985e+000 1.052703e+001 6.859425e+000 5.283919e+000 5.514241e+000 5.134319e+000 1.229149e+001 4.863307e+000 6.969666e+000 3.545915e+000 2.099254e+000
<GCONST> 1.146871e+002
<STATE> 3
<MEAN> 25
 1.529701e+001 1.512705e+000 7.267759e+000 -1.143903e+001 -6.130258e+000 2.875260e+000 -3.377061e+000 3.136678e+000 -5.186643e+000 4.284091e+000 2.908078e+000 -2.968924e-001 -2.498602e-001 1.067843e-001 4.585090e-001 1.543205e-001 -2.613940e-001 3.445351e-002 3.077944e-001 -1.791226e-001 8.911353e-002 -8.587000e-002 -1.016997e-001 3.482692e-002 -1.694462e-002
<VARIANCE> 25
 2.539381e+001 6.672489e+001 1.456833e+002 4.605883e+001 1.311915e+002 4.928226e+001 4.295401e+001 7.489354e+001 4.511357e+001 7.123781e+001 4.637220e+001 2.804303e+001 1.396105e+000 2.603864e+000 2.912374e+000 4.350909e+000 3.961071e+000 4.288773e+000 6.770014e+000 3.482366e+000 5.695096e+000 6.047781e+000 3.353091e+000 3.691708e+000 8.644065e-001
<GCONST> 1.100218e+002
<STATE> 4
<MEAN> 25
 -1.097797e+001 1.088669e+001 8.295662e+000 6.025280e+000 8.527181e-001 -6.667713e+000 7.511702e+000 1.212749e+000 3.977488e+000 -4.606950e+000 2.249867e+000 1.776610e+000 -2.256020e-001 -2.765400e-001 -4.864894e-001 1.513321e-001 4.407686e-001 1.114190e-002 -3.995329e-001 1.971532e-001 -4.103516e-002 -3.658084e-002 -3.176630e-002 1.121633e-001 -4.546461e-001
<VARIANCE> 25
 1.220185e+002 3.715643e+001 1.709547e+002 4.444662e+001 1.700241e+002 6.214945e+001 3.193205e+001 3.525031e+001 6.097220e+001 3.216924e+001 4.371220e+001 5.964378e+001 5.734098e+000 5.095694e+000 4.382997e+000 4.023447e+000 3.492680e+000 3.903226e+000 3.101076e+000 5.069251e+000 8.136554e+000 3.217453e+000 7.435089e+000 5.538314e+000 8.203711e-001
<GCONST> 1.134379e+002
<TRANSP> 5
 0.000000e+000 1.000000e+000 0.000000e+000 0.000000e+000 0.000000e+000
 0.000000e+000 9.128097e-001 8.719036e-002 0.000000e+000 0.000000e+000
 0.000000e+000 0.000000e+000 9.687176e-001 3.128238e-002 0.000000e+000
 0.000000e+000 0.000000e+000 0.000000e+000 9.495799e-001 5.042011e-002
 0.000000e+000 0.000000e+000 0.000000e+000 0.000000e+000 0.000000e+000
<ENDHMM>
~h "ng"
<BEGINHMM>
<NUMSTATES> 5
<STATE> 2
<MEAN> 25
 9.376893e+000 -1.745075e+000 8.097240e+000 -5.561403e+000 -1.051979e+001 5.902894e+000 9.890760e-001 -1.056253e+001 -7.294167e-001 1.167334e+000 -5.302665e+000 -2.663166e+000 3.658906e-001 2.617083e-001 -5.040185e-001 1.653168e-001 6.074798e-001 3.142142e-002 -2.960149e-001 1.176280e-001 -3.194889e-001 -6.547035e-002 -2.163703e-001 2.170816e-004 -6.990684e-001
<VARIANCE> 25
 7.250049e+001 3.414522e+001 3.705058e+001 3.645910e+001 8.049139e+001 5.513876e+001 5.403454e+001 5.765572e+001 2.863297e+001 3.825335e+001 5.205637e+001 1.528448e+001 3.461635e+000 3.686380e+000 2.706141e+000 3.168616e+000 4.962547e+000 4.331118e+000 4.036078e+000 5.623998e+000 2.936927e+000 2.592201e+000 4.415808e+000 1.459328e+000 1.984618e+000
<GCONST> 1.065534e+002
<STATE> 3
<MEAN> 25
 7.307611e+000 -7.059472e-001 6.575475e+000 1.243556e-001 7.593988e+000 1.778643e-001 -1.296797e+001 -1.778183e+000 -2.083423e+000 2.273158e+000 -9.439168e-001 -3.591311e+000 -1.620204e-001 6.156005e-001 -5.224187e-001 -8.404467e-003 -2.351294e-001 1.514540e-002 5.217083e-001 4.111714e-001 2.822471e-001 2.366380e-001 -2.494991e-003 -6.537369e-001 -6.479140e-001
<VARIANCE> 25
 2.561671e+001 3.007061e+001 3.053310e+001 1.977256e+001 6.860138e+001 2.271515e+001 1.294797e+002 2.330452e+001 3.680160e+001 2.364785e+001 2.225202e+001 2.156803e+001 5.887914e-001 1.460391e+000 1.335385e+000 1.889354e+000 3.048671e+000 1.708259e+000 4.324567e+000 2.761483e+000 2.205712e+000 2.212939e+000 1.701715e+000 1.611187e+000 3.795029e-001
<GCONST> 9.383263e+001
<STATE> 4
<MEAN> 25
 6.590572e+000 4.998059e+000 9.431197e+000 2.237457e-001 -3.656362e+000 -2.892950e-001 -3.234389e+000 -1.749984e+000 -3.621546e+000 -9.557882e-001 -1.016604e+000 -3.341871e+000 -6.044325e-001 -3.832247e-002 -2.693427e-001 3.593263e-001 4.727653e-001 1.263373e-001 1.960294e-001 8.409514e-002 -1.266855e-003 -9.765017e-003 2.333909e-001 3.353381e-001 -6.541484e-001
<VARIANCE> 25
 2.733818e+001 5.200850e+001 6.377242e+001 6.913222e+001 9.548287e+001 2.265606e+001 2.580442e+001 2.267543e+001 4.233701e+001 2.255026e+001 3.265213e+001 2.489199e+001 7.823990e-001 1.026847e+000 1.164299e+000 1.850349e+000 2.572421e+000 1.547686e+000 1.939648e+000 1.939726e+000 1.837526e+000 1.359909e+000 1.509260e+000 1.607823e+000 3.698599e-001
<GCONST> 9.327399e+001
<TRANSP> 5
 0.000000e+000 1.000000e+000 0.000000e+000 0.000000e+000 0.000000e+000
 0.000000e+000 8.321047e-001 1.678952e-001 0.000000e+000 0.000000e+000
 0.000000e+000 0.000000e+000 6.753657e-001 3.246344e-001 0.000000e+000
 0.000000e+000 0.000000e+000 0.000000e+000 8.077738e-001 1.922262e-001
 0.000000e+000 0.000000e+000 0.000000e+000 0.000000e+000 0.000000e+000
<ENDHMM>
~h "ow"
<BEGINHMM>
<NUMSTATES> 5
<STATE> 2
<MEAN> 25
 1.263589e+001 6.459420e+000 -7.476227e-001 -3.610371e+000 -3.547562e-001 -1.831960e+000 -2.709378e+000 -3.311666e+000 -2.449547e+000 8.981517e-001 1.734630e+000 9.877208e-001 -3.638079e-001 -3.576200e-001 2.552762e-001 5.286975e-001 -5.097085e-001 -2.519264e-001 2.754116e-001 7.087720e-001 1.586390e-003 -1.396416e-001 -2.197555e-001 1.845607e-001 -6.868597e-001
<VARIANCE> 25
 4.377892e+001 4.293910e+001 2.362194e+001 4.809120e+001 3.065400e+001 3.531768e+001 3.717292e+001 4.912537e+001 3.380789e+001 3.281298e+001 3.689921e+001 2.995897e+001 1.360595e+000 1.008481e+000 1.336786e+000 3.043666e+000 2.714285e+000 2.558289e+000 2.513874e+000 3.243043e+000 2.834705e+000 2.611439e+000 2.305503e+000 2.036344e+000 6.540512e-001
<GCONST> 9.791740e+001
<STATE> 3
<MEAN> 25
 5.402294e+000 -2.328848e+000 -1.714265e-001 -3.404258e+000 -1.278458e+000 -2.879128e+000 -7.150391e-001 5.517808e+000 1.602580e+000 2.820193e+000 -2.092508e+000 1.160584e-001 -4.189206e-001 -1.769814e-001 -2.295840e-001 2.743783e-001 4.442621e-001 5.830758e-001 4.020817e-001 1.265037e-001 -1.805309e-001 -1.563037e-002 1.083087e-001 -2.787308e-001 -3.850804e-001
<VARIANCE> 25
 5.078835e+001 3.158640e+001 2.199841e+001 4.335505e+001 2.448999e+001 3.228704e+001 2.030080e+001 2.223061e+001 5.525858e+001 4.012052e+001 3.672785e+001 2.730658e+001 4.632638e-001 7.625189e-001 7.405941e-001 1.256658e+000 1.466925e+000 1.807916e+000 1.307700e+000 1.619104e+000 1.833086e+000 2.111194e+000 1.749179e+000 1.552733e+000 3.109671e-001
<GCONST> 8.938475e+001
<STATE> 4
<MEAN> 25
 4.073460e+000 -2.176183e+000 -3.078326e+000 7.790866e-001 4.371145e+000 1.592913e+000 1.540509e+000 3.077242e+000 1.270453e+000 -4.679779e-001 -5.326136e+000 -1.211185e+000 -5.801451e-001 2.478919e-002 -5.172441e-002 2.720769e-001 1.021098e-001 2.914377e-001 5.376050e-002 -2.969438e-001 -2.508552e-001 5.444130e-002 1.756070e-001 1.009588e-001 -9.395974e-001
<VARIANCE> 25
 4.635895e+001 3.655751e+001 2.828047e+001 5.100838e+001 4.270446e+001 3.963476e+001 3.551472e+001 3.921405e+001 4.851758e+001 3.359549e+001 4.089218e+001 2.701415e+001 1.338429e+000 1.545491e+000 1.724594e+000 2.704713e+000 3.637389e+000 3.000041e+000 2.400483e+000 2.264813e+000 2.629160e+000 2.458509e+000 2.631190e+000 1.867618e+000 9.019290e-001
<GCONST> 9.943798e+001
<TRANSP> 5
 0.000000e+000 1.000000e+000 0.000000e+000 0.000000e+000 0.000000e+000
 0.000000e+000 7.714213e-001 2.285787e-001 0.000000e+000 0.000000e+000
 0.000000e+000 0.000000e+000 7.920077e-001 2.079923e-001 0.000000e+000
 0.000000e+000 0.000000e+000 0.000000e+000 8.597687e-001 1.402313e-001
 0.000000e+000 0.000000e+000 0.000000e+000 0.000000e+000 0.000000e+000
<ENDHMM>
~h "oy"
<BEGINHMM>
<NUMSTATES> 5
<STATE> 2
<MEAN> 25
 8.900957e+000 8.225244e+000 7.946435e+000 -5.842448e-001 -5.402046e+000 -1.210807e+001 5.920156e-001 1.552938e+000 6.941490e+000 -2.539977e+000 -3.490603e+000 4.153218e-001 3.078725e+000 -1.125137e+000 5.924114e-001 -1.869705e+000 -3.212790e+000 5.489619e-002 2.279452e+000 -6.031441e-002 -3.527636e+000 1.307600e+000 8.696572e-001 2.591213e-003 1.174415e+000
<VARIANCE> 25
 4.517803e+001 3.586414e+001 1.848668e+002 4.339838e+001 5.768749e+001 8.419044e+001 9.867682e+000 2.138817e+001 3.367792e+001 2.963595e+001 2.284634e+001 8.325009e+000 1.109512e+001 4.302078e+000 2.679674e+000 3.924361e+000 8.025040e+000 5.547661e+000 9.750211e-001 2.513813e+000 5.795887e+000 5.699613e+000 5.166018e+000 3.886661e+000 3.502596e+000
<GCONST> 1.069831e+002
<STATE> 3
<MEAN> 25
 1.353083e+001 4.440004e+000 1.169329e+001 -2.528033e+000 -1.340301e+001 -6.863142e+000 7.370407e+000 2.518908e+000 -3.998377e+000 -2.081810e-001 3.147774e+000 -2.750304e+000 8.265332e-001 -1.590255e+000 -3.545099e-001 2.056525e-001 8.500469e-002 -3.363841e-001 2.040473e+000 1.410534e+000 -1.929018e+000 5.666410e-001 1.268051e+000 2.823441e-001 2.274798e-001
<VARIANCE> 25
 1.893115e+001 6.173478e+001 1.426733e+002 4.261865e+001 1.434893e+002 6.509102e+001 8.650745e+000 2.785293e+001 3.164781e+001 1.126784e+002 2.831309e+001 6.821289e+001 5.568548e-001 1.107018e+000 8.859851e+000 1.061146e+001 5.215708e+000 8.189211e+000 2.410874e+000 3.696134e+000 3.019825e+000 4.157624e+000 5.563036e+000 8.929402e+000 1.373226e+000
<GCONST> 1.088495e+002
<STATE> 4
<MEAN> 25
 1.246300e+001 6.372149e+000 -7.020001e-001 -8.933501e-001 -2.604279e+000 1.187452e+000 -2.992216e-001 -1.399458e+000 2.564690e-001 3.270700e+000 2.529412e+000 -1.505390e+000 -5.641038e-001 -1.516287e-001 -5.816072e-001 -5.708150e-002 8.552629e-001 4.706045e-001 -4.777103e-001 -4.828120e-001 3.937036e-001 8.722269e-002 -3.209174e-001 -3.716076e-002 -4.398139e-001
<VARIANCE> 25
 7.003701e+001 4.590993e+001 3.720090e+001 8.252164e+001 7.391866e+001 5.977088e+001 7.472866e+001 3.884538e+001 3.775398e+001 7.169264e+001 5.767373e+001 6.892825e+001 8.666244e-001 2.320463e+000 4.232043e+000 4.938709e+000 3.668123e+000 3.433016e+000 7.664592e+000 4.583102e+000 7.256335e+000 7.981436e+000 5.791075e+000 8.507927e+000 1.164890e+000
<GCONST> 1.125498e+002
<TRANSP> 5
 0.000000e+000 1.000000e+000 0.000000e+000 0.000000e+000 0.000000e+000
 0.000000e+000 4.932772e-001 5.067228e-001 0.000000e+000 0.000000e+000
 0.000000e+000 0.000000e+000 4.975466e-001 5.024533e-001 0.000000e+000
 0.000000e+000 0.000000e+000 0.000000e+000 9.399508e-001 6.004926e-002
 0.000000e+000 0.000000e+000 0.000000e+000 0.000000e+000 0.000000e+000
<ENDHMM>
~h "sh"
<BEGINHMM>
<NUMSTATES> 5
<STATE> 2
<MEAN> 25
 -9.913228e-001 -9.040989e-002 -2.519821e+000 1.324304e+000 2.284961e+000 4.526106e+000 1.868106e-001 -9.736944e-001 -2.496869e+000 3.626980e-001 -1.089371e+000 1.291559e+000 2.281095e-003 1.468635e-001 -2.341068e-001 5.468995e-003 -3.861428e-002 -6.314568e-003 -1.418805e-001 -1.220611e-001 1.192988e-002 3.125866e-002 -6.823009e-003 -3.835556e-002 -2.177944e-001
<VARIANCE> 25
 3.526467e+001 1.633820e+001 2.699968e+001 2.407587e+001 2.738980e+001 2.061543e+001 1.883320e+001 2.201864e+001 3.149735e+001 2.317531e+001 1.772003e+001 1.667208e+001 4.297507e-001 1.286305e+000 1.424708e+000 1.310312e+000 2.165857e+000 1.951964e+000 2.012871e+000 2.215243e+000 2.231621e+000 1.781857e+000 1.636094e+000 1.843559e+000 3.353006e-001
<GCONST> 8.778519e+001
<STATE> 3
<MEAN> 25
 -2.427212e+000 8.537872e-001 -2.218936e+000 2.692306e+000 1.965392e+000 2.722992e+000 -2.809825e+000 -3.242727e+000 -2.086836e+000 -1.786381e+000 9.643358e-002 2.607079e-001 1.654304e-002 3.805093e-002 9.376582e-003 7.709599e-003 6.126259e-002 3.888043e-002 1.815316e-002 1.613678e-002 -2.536260e-002 -7.975152e-003 6.782969e-003 4.715438e-003 -2.671218e-003
<VARIANCE> 25
 1.639638e+001 5.663917e+000 1.376210e+001 7.424290e+000 8.515910e+000 7.174153e+000 6.662765e+000 1.199331e+001 8.784254e+000 8.270234e+000 7.251182e+000 7.995573e+000 5.723621e-002 1.533175e-001 2.181078e-001 3.354769e-001 4.994782e-001 5.103790e-001 5.436056e-001 7.959218e-001 6.150354e-001 6.096129e-001 6.174209e-001 6.035640e-001 2.535352e-002
<GCONST> 5.674545e+001
<STATE> 4
<MEAN> 25
 2.814320e+000 3.706462e+000 1.582346e+000 1.985293e+000 6.090339e+000 2.312916e+000 -2.828963e+000 -1.778402e-001 -3.544879e+000 -9.227349e-002 5.294058e-001 1.088250e+000 4.475856e-003 2.326628e-002 1.477182e-002 -1.879786e-002 3.286957e-002 1.825806e-002 3.494724e-002 2.135142e-002 1.241408e-002 4.921795e-002 3.302135e-002 1.770485e-003 8.752012e-003
<VARIANCE> 25
 7.361462e+000 2.131095e+001 1.843958e+001 1.338860e+001 1.469934e+001 1.952360e+001 1.631268e+001 1.732055e+001 2.024913e+001 1.336678e+001 9.130967e+000 1.234242e+001 5.151153e-001 1.862121e+000 1.687684e+000 1.547596e+000 1.500005e+000 2.376699e+000 1.913546e+000 1.759467e+000 2.255020e+000 1.361223e+000 1.130782e+000 1.378271e+000 6.004036e-001
<GCONST> 8.259886e+001
<TRANSP> 5
 0.000000e+000 1.000000e+000 0.000000e+000 0.000000e+000 0.000000e+000
 0.000000e+000 9.495661e-001 5.043391e-002 0.000000e+000 0.000000e+000
 0.000000e+000 0.000000e+000 9.595619e-001 4.043814e-002 0.000000e+000
 0.000000e+000 0.000000e+000 0.000000e+000 9.544086e-001 4.559139e-002
 0.000000e+000 0.000000e+000 0.000000e+000 0.000000e+000 0.000000e+000
<ENDHMM>
~h "sp"
<BEGINHMM>
<NUMSTATES> 3
<STATE> 2
~s "silst"
<TRANSP> 3
 0.000000e+000 5.228950e-002 9.477105e-001
 0.000000e+000 9.489648e-001 5.103526e-002
 0.000000e+000 0.000000e+000 0.000000e+000
<ENDHMM>
~h "th"
<BEGINHMM>
<NUMSTATES> 5
<STATE> 2
<MEAN> 25
 9.336638e+000 -9.235501e-001 5.887806e+000 5.764750e+000 -6.495283e+000 -4.626338e+000 -8.421278e-002 1.647364e+000 -2.435208e+000 -6.588207e+000 4.173498e+000 -4.655879e+000 -9.034728e-002 1.436017e-001 -1.563633e-001 1.818061e-001 2.794643e-001 1.491103e-001 1.732688e-001 -4.177455e-001 5.569502e-002 -1.258013e-001 -1.883967e-001 -7.163889e-002 -3.183310e-001
<VARIANCE> 25
 2.672083e+001 7.468990e+001 6.700780e+001 3.549420e+001 3.959381e+001 3.551244e+001 6.767809e+001 2.196010e+002 2.590494e+001 4.045903e+001 8.409512e+001 4.756318e+001 2.308976e+000 1.589277e+000 2.423445e+000 2.861507e+000 3.499171e+000 3.171379e+000 3.994530e+000 4.142995e+000 1.994367e+000 2.775421e+000 5.922552e+000 2.785917e+000 4.040957e+000
<GCONST> 1.077844e+002
<STATE> 3
<MEAN> 25
 2.524465e+000 -3.952795e-001 3.475509e+000 7.709655e+000 8.148512e+000 -1.520434e+000 -5.754335e+000 -8.436313e+000 -6.186799e+000 -2.109680e+000 -4.780278e+000 -2.059381e+000 -2.032681e-001 -8.043574e-001 -7.522718e-001 -1.707705e-001 5.779157e-001 -1.556153e-001 -2.968468e-001 1.159599e+000 1.954031e-001 3.528955e-001 1.084144e-001 5.481609e-001 -2.275586e-001
<VARIANCE> 25
 7.686092e+001 4.144058e+001 3.757423e+001 3.431355e+001 9.793091e+001 3.984026e+001 3.698537e+001 6.823268e+001 8.658848e+001 4.349614e+001 6.673164e+001 2.542834e+001 8.334973e+000 3.559746e+000 3.513848e+000 1.990535e+000 6.584271e+000 4.287871e+000 3.578358e+000 5.380553e+000 8.359542e+000 3.889749e+000 3.197489e+000 3.924700e+000 4.035371e+000
<GCONST> 1.119879e+002
<STATE> 4
<MEAN> 25
 8.812028e+000 -9.727541e+000 6.218835e-001 5.099354e+000 1.214718e-001 -2.201021e-001 -4.816865e+000 8.849329e+000 3.186829e+000 -1.365937e+000 -1.754928e-001 2.607045e+000 -8.329379e-001 -8.601603e-001 6.040002e-001 -7.488121e-001 -4.775423e-001 3.450309e-001 1.256068e+000 7.871282e-001 -2.243985e-002 2.000773e-001 2.574271e-001 5.566425e-002 4.979457e-001
<VARIANCE> 25
 5.451488e+001 1.502121e+002 4.551095e+001 2.554638e+001 3.082939e+001 3.426150e+001 4.751097e+001 1.210571e+002 5.864405e+001 2.853737e+001 2.348456e+001 1.658590e+001 5.224372e-001 2.833756e+000 1.755441e+000 2.032020e+000 3.344061e+000 3.720377e+000 2.190414e+000 3.686193e+000 3.650229e+000 1.429693e+000 1.698471e+000 7.874126e-001 9.604412e-001
<GCONST> 9.919962e+001
<TRANSP> 5
 0.000000e+000 1.000000e+000 0.000000e+000 0.000000e+000 0.000000e+000
 0.000000e+000 8.901209e-001 1.098792e-001 0.000000e+000 0.000000e+000
 0.000000e+000 0.000000e+000 6.584248e-001 3.415752e-001 0.000000e+000
 0.000000e+000 0.000000e+000 0.000000e+000 5.722668e-001 4.277332e-001
 0.000000e+000 0.000000e+000 0.000000e+000 0.000000e+000 0.000000e+000
<ENDHMM>
~h "uh"
<BEGINHMM>
<NUMSTATES> 5
<STATE> 2
<MEAN> 25
 -6.652721e+000 -1.366395e+000 -1.180947e+000 2.616871e+000 4.106752e-001 7.159261e-001 -5.636359e-001 -1.639137e+000 -7.024548e-001 -1.857742e+000 2.752398e-001 8.047912e-001 -2.684937e-002 -1.348141e-004 -1.621783e-002 1.769871e-002 1.244562e-002 1.393734e-002 1.345329e-002 -1.124801e-002 -1.968005e-002 1.909294e-002 2.498189e-003 7.826306e-003 -2.522813e-002
<VARIANCE> 25
 1.745118e+001 4.633722e+000 6.958344e+000 1.039193e+001 1.001975e+001 1.077187e+001 8.226495e+000 1.124296e+001 1.017196e+001 1.307296e+001 9.152610e+000 9.311678e+000 6.751943e-002 1.494842e-001 2.273261e-001 3.533944e-001 4.682964e-001 6.015186e-001 6.451687e-001 7.524371e-001 6.584294e-001 7.665138e-001 6.644846e-001 6.992127e-001 2.835948e-002
<GCONST> 5.904454e+001
<STATE> 3
<MEAN> 25
