~o
<STREAMINFO> 1 25
<VECSIZE> 25<NULLD><MFCC_D_N_Z_0><DIAGC>
~h "b"
<BEGINHMM>
<NUMSTATES> 5
<STATE> 2
<MEAN> 25
 1.139002e+001 -1.118603e-001 4.750109e-001 -3.740029e+000 7.121486e-001 -1.557910e-002 -3.747983e+000 -1.593670e+000 4.387812e+000 -1.522648e+000 -2.236265e+000 -1.668139e+000 2.697310e-001 -3.510810e-001 9.811331e-002 -2.572977e-001 -2.000158e-001 -2.029070e-001 -2.388500e-001 4.774962e-002 1.423538e-001 -1.052781e-002 -1.866403e-002 -2.819771e-002 6.833348e-001
<VARIANCE> 25
 4.433268e+001 8.269583e+001 6.313285e+001 5.311810e+001 5.662965e+001 6.757812e+001 5.664172e+001 7.846675e+001 1.161251e+002 4.784544e+001 7.646447e+001 4.805085e+001 3.712519e+000 4.764135e+000 4.394711e+000 4.306672e+000 5.004815e+000 6.367437e+000 5.724602e+000 7.125021e+000 7.927608e+000 5.186617e+000 7.787565e+000 4.458960e+000 6.105614e+000
<GCONST> 1.178090e+002
<STATE> 3
<MEAN> 25
 2.918970e+000 -2.594866e+000 8.083509e+000 -1.897996e+000 -3.915455e-002 -5.890670e+000 -1.665610e+000 1.341676e+000 -2.165120e+000 -2.169314e+000 1.037973e+000 -6.841916e-001 -7.026212e-002 5.749492e-002 1.477443e-001 -5.582103e-002 -9.657608e-002 -1.214330e-001 6.554413e-002 1.072234e-001 -1.066330e-001 4.651650e-003 -9.972447e-002 -5.340145e-002 8.565747e-002
<VARIANCE> 25
 1.368474e+002 8.965547e+001 1.159596e+002 7.604092e+001 1.435579e+002 1.082488e+002 9.342931e+001 7.193594e+001 1.183751e+002 4.968360e+001 8.513149e+001 4.311580e+001 5.400169e+000 5.075557e+000 5.094574e+000 4.309623e+000 7.502653e+000 5.443321e+000 6.422760e+000 4.924134e+000 6.471349e+000 4.497451e+000 7.545500e+000 3.844260e+000 3.259637e+000
<GCONST> 1.212816e+002
<STATE> 4
<MEAN> 25
 7.732767e+000 -1.350561e+000 5.262701e+000 -2.932743e+000 -8.524596e-001 -3.523742e+000 -3.709358e+000 1.950533e+000 -9.151301e-001 6.845303e-001 -8.862726e-001 -1.618305e+000 -1.466984e-001 2.067189e-001 -1.001056e-001 1.916204e-001 1.237974e-001 5.725594e-002 9.052935e-002 -1.285156e-001 -1.075594e-001 1.349032e-001 1.586523e-001 2.874898e-002 -4.934682e-001
<VARIANCE> 25
 4.122652e+001 5.463822e+001 6.067586e+001 6.137187e+001 9.657727e+001 3.764014e+001 7.289544e+001 6.447549e+001 5.528282e+001 5.859768e+001 4.764284e+001 2.659266e+001 1.925589e+000 2.298689e+000 3.422277e+000 3.196372e+000 4.330652e+000 2.964793e+000 3.614864e+000 3.845869e+000 3.667247e+000 3.296939e+000 3.104402e+000 1.988461e+000 2.096592e+000
<GCONST> 1.078879e+002
<TRANSP> 5
 0.000000e+000 1.000000e+000 0.000000e+000 0.000000e+000 0.000000e+000
 0.000000e+000 9.285594e-001 7.144064e-002 0.000000e+000 0.000000e+000
 0.000000e+000 0.000000e+000 8.805329e-001 1.194671e-001 0.000000e+000
 0.000000e+000 0.000000e+000 0.000000e+000 9.380351e-001 6.196494e-002
 0.000000e+000 0.000000e+000 0.000000e+000 0.000000e+000 0.000000e+000
<ENDHMM>
~h "d"
<BEGINHMM>
<NUMSTATES> 5
<STATE> 2
<MEAN> 25
 -4.429365e+000 -7.338854e-001 -1.561603e+000 3.168139e+000 9.040459e-001 1.388463e+000 -5.974973e-001 -1.197464e+000 -6.802248e-001 -1.534328e+000 6.051935e-001 3.436645e-001 -6.482733e-002 7.318803e-003 -4.469532e-002 2.711348e-002 -1.497663e-002 2.107097e-002 1.159834e-002 -6.037888e-002 -7.874252e-003 -1.076855e-002 3.094829e-002 3.119385e-003 -8.225039e-002
<VARIANCE> 25
 2.608789e+001 8.653810e+000 1.299610e+001 9.161243e+000 1.499272e+001 1.131430e+001 1.377430e+001 1.494427e+001 1.484833e+001 1.301436e+001 1.126853e+001 9.204533e+000 1.674276e-001 2.708506e-001 4.324547e-001 5.444517e-001 6.906893e-001 7.434011e-001 7.762988e-001 9.106870e-001 9.531831e-001 8.686320e-001 7.949016e-001 7.451597e-001 1.011829e-001
<GCONST> 6.795614e+001
<STATE> 3
<MEAN> 25
 5.190687e-002 2.071001e+000 1.075084e+000 4.098555e+000 3.065197e+000 1.610978e+000 2.570719e-001 7.903238e-001 -3.564825e+000 -1.601614e-003 1.315076e+000 2.830199e-001 2.515866e-001 1.661989e-001 2.368726e-001 3.893881e-002 2.111508e-001 7.423165e-002 2.990950e-002 1.075977e-001 -1.084335e-001 -1.246509e-002 -6.292437e-002 -1.235154e-001 2.460986e-001
<VARIANCE> 25
 2.771749e+001 1.456900e+001 2.089594e+001 1.180102e+001 2.538908e+001 1.549582e+001 2.138960e+001 1.888915e+001 3.495975e+001 1.773229e+001 1.256014e+001 1.285933e+001 8.841238e-001 1.433684e+000 1.422269e+000 1.163724e+000 1.712610e+000 1.491490e+000 1.931105e+000 1.803560e+000 1.992023e+000 1.566769e+000 1.321314e+000 1.437345e+000 7.660371e-001
<GCONST> 8.538588e+001
<STATE> 4
<MEAN> 25
 5.052866e+000 4.236902e+000 2.848851e+000 1.818968e+000 3.288423e+000 -4.996427e-001 -7.186188e-001 1.269059e+000 -3.203126e+000 6.053808e-001 1.681130e-001 -3.878859e-001 5.710660e-001 1.913930e-001 2.446414e-001 -3.227855e-001 1.350028e-001 -1.838417e-001 -1.297861e-001 1.203768e-001 -2.351953e-001 5.077369e-002 -9.479386e-002 -9.810819e-002 7.027543e-001
<VARIANCE> 25
 4.547931e+001 4.859970e+001 3.352953e+001 3.517645e+001 5.155522e+001 3.814479e+001 4.290377e+001 3.959280e+001 4.089251e+001 2.664741e+001 2.435585e+001 2.390211e+001 3.267968e+000 3.726196e+000 3.163256e+000 3.556357e+000 3.533561e+000 3.295363e+000 3.600400e+000 3.565674e+000 3.244226e+000 2.596210e+000 2.340950e+000 2.109098e+000 3.828525e+000
<GCONST> 1.041000e+002
<TRANSP> 5
 0.000000e+000 1.000000e+000 0.000000e+000 0.000000e+000 0.000000e+000
 0.000000e+000 9.559885e-001 4.401152e-002 0.000000e+000 0.000000e+000
 0.000000e+000 0.000000e+000 6.892535e-001 3.107465e-001 0.000000e+000
 0.000000e+000 0.000000e+000 0.000000e+000 8.080906e-001 1.919094e-001
 0.000000e+000 0.000000e+000 0.000000e+000 0.000000e+000 0.000000e+000
<ENDHMM>
~h "f"
<BEGINHMM>
<NUMSTATES> 5
<STATE> 2
<MEAN> 25
 1.558866e+000 -1.559312e+000 4.270736e-001 -8.858497e-001 1.340819e+000 -2.662464e+000 -5.267655e-001 1.411068e+000 3.090666e-002 8.362967e-001 -5.291275e-001 -9.844981e-001 -1.745025e-001 -1.125146e-001 -3.292252e-001 -3.162697e-001 -8.646375e-002 -3.829628e-001 -1.182396e-001 -8.158758e-002 2.178813e-001 3.102756e-001 6.358047e-002 -9.359185e-002 5.032954e-001
<VARIANCE> 25
 7.299400e+001 4.919759e+001 5.456720e+001 5.247379e+001 4.285513e+001 5.697271e+001 4.256829e+001 3.937924e+001 4.986701e+001 3.141557e+001 2.737593e+001 2.383643e+001 4.572451e+000 3.911725e+000 3.341084e+000 3.988681e+000 3.584186e+000 4.487380e+000 3.104687e+000 3.634315e+000 3.896132e+000 2.456529e+000 2.588127e+000 2.315745e+000 4.362856e+000
<GCONST> 1.073526e+002
<STATE> 3
<MEAN> 25
 1.334423e+000 -1.893836e+000 -7.783230e-001 -1.975925e+000 1.092575e+000 -2.477180e+000 -8.435839e-001 1.331035e+000 4.468201e-001 1.639084e+000 -4.139425e-001 -5.300667e-001 1.214532e-001 -1.845589e-001 -2.196600e-001 -4.080282e-002 8.885133e-002 1.283520e-002 6.910379e-002 8.009414e-002 -1.386512e-002 2.631687e-002 1.739911e-002 1.168713e-001 1.673174e-001
<VARIANCE> 25
 7.200856e+001 4.619913e+001 5.892063e+001 4.696666e+001 4.588283e+001 4.094913e+001 3.333263e+001 2.998843e+001 4.935225e+001 2.859526e+001 2.983505e+001 2.158821e+001 3.316808e+000 2.480480e+000 2.011004e+000 1.962554e+000 2.302015e+000 2.792234e+000 2.273566e+000 2.335095e+000 2.673951e+000 2.037301e+000 2.128970e+000 1.891702e+000 1.677331e+000
<GCONST> 1.007640e+002
<STATE> 4
<MEAN> 25
 4.080016e+000 -4.656420e+000 -3.368550e+000 -2.185282e+000 4.631260e-001 -3.776844e+000 4.212906e-001 2.165004e+000 2.539260e+000 1.223569e+000 -1.627534e+000 -1.867306e+000 5.093316e-001 -6.398781e-002 -5.885027e-002 -1.780795e-001 -1.425901e-001 2.755482e-002 -3.039744e-002 -1.006939e-002 4.588930e-002 -2.813545e-001 -3.450906e-001 -3.820314e-002 5.063763e-001
<VARIANCE> 25
 8.017620e+001 3.925415e+001 4.582475e+001 5.760998e+001 4.575404e+001 5.020157e+001 5.304599e+001 3.849072e+001 5.043766e+001 3.790455e+001 4.038936e+001 2.688852e+001 5.765388e+000 3.708162e+000 2.872417e+000 4.876148e+000 4.256348e+000 4.905027e+000 4.808050e+000 3.845562e+000 4.304314e+000 3.862603e+000 3.056920e+000 2.518336e+000 5.222728e+000
<GCONST> 1.099495e+002
<TRANSP> 5
 0.000000e+000 1.000000e+000 0.000000e+000 0.000000e+000 0.000000e+000
 0.000000e+000 6.148983e-001 3.851016e-001 0.000000e+000 0.000000e+000
 0.000000e+000 0.000000e+000 7.220622e-001 2.779378e-001 0.000000e+000
 0.000000e+000 0.000000e+000 0.000000e+000 8.720685e-001 1.279315e-001
 0.000000e+000 0.000000e+000 0.000000e+000 0.000000e+000 0.000000e+000
<ENDHMM>
~h "g"
<BEGINHMM>
<NUMSTATES> 5
<STATE> 2
<MEAN> 25
 -1.937214e+001 5.838753e+000 -8.291287e+000 5.217246e+000 -1.337215e+000 5.048510e+000 2.473824e+000 1.032449e+000 4.808914e+000 3.169754e+000 4.119175e+000 2.749829e+000 5.888162e-003 -6.779724e-003 4.500896e-003 7.530436e-004 7.030585e-003 9.535004e-003 -7.657941e-004 3.984540e-003 -1.646824e-002 -1.327441e-002 -3.923325e-004 -4.615123e-003 1.519844e-002
<VARIANCE> 25
 8.029908e+001 5.518733e+000 7.303879e+000 5.387485e+000 1.017799e+001 1.743081e+001 1.891334e+001 3.125199e+001 1.239213e+001 1.448842e+001 9.244444e+000 7.870884e+000 6.113239e-002 1.408162e-001 2.177134e-001 3.931136e-001 5.933809e-001 5.753772e-001 9.786127e-001 1.210779e+000 9.959434e-001 7.793891e-001 7.955527e-001 7.621318e-001 4.690075e-002
<GCONST> 6.481970e+001
<STATE> 3
<MEAN> 25
 -8.566811e+000 3.476314e+000 -7.367898e+000 3.367505e+000 -3.265929e+000 1.353748e+000 5.099882e+000 -1.997242e+000 4.060587e+000 1.097051e+000 3.262427e+000 1.897778e+000 -4.247814e-002 -4.599433e-002 -1.405019e-002 -4.832371e-002 -3.350741e-002 2.961839e-002 -1.095539e-002 7.029033e-002 -9.622484e-003 -5.855384e-002 4.352567e-003 -5.596689e-002 4.105891e-001
<VARIANCE> 25
 3.009952e+001 4.588219e+000 7.568550e+000 8.115545e+000 9.166286e+000 8.493980e+000 1.436888e+001 1.768398e+001 1.423721e+001 1.137191e+001 9.673189e+000 8.368161e+000 4.444955e-001 2.275774e-001 4.066709e-001 6.262506e-001 6.924658e-001 6.277889e-001 8.754420e-001 9.970507e-001 1.109494e+000 9.157990e-001 7.774019e-001 8.210120e-001 3.499072e+000
<GCONST> 7.055769e+001
<STATE> 4
<MEAN> 25
 -6.715667e+000 1.504543e+000 -3.859325e+000 3.669265e+000 -5.993665e-001 9.998764e-001 7.816907e-001 -2.276808e+000 9.441842e-001 -3.740624e-001 1.325701e+000 8.752416e-002 1.070686e-001 -5.044969e-002 6.503195e-002 -6.683668e-002 -1.945958e-003 -4.965222e-002 -1.674397e-002 -2.577241e-002 -3.120981e-002 -1.814498e-002 -2.326079e-002 -1.545609e-002 1.844935e-001
<VARIANCE> 25
 1.846352e+001 6.390375e+000 1.139164e+001 9.815570e+000 8.854650e+000 9.591218e+000 1.539034e+001 1.282052e+001 1.311952e+001 1.318501e+001 1.032754e+001 8.033977e+000 7.611428e-001 3.174691e-001 7.651506e-001 6.523477e-001 5.294021e-001 6.421613e-001 8.000133e-001 7.966459e-001 9.504299e-001 7.687562e-001 6.051558e-001 6.071410e-001 1.247349e+000
<GCONST> 6.999399e+001
<TRANSP> 5
 0.000000e+000 1.000000e+000 0.000000e+000 0.000000e+000 0.000000e+000
 0.000000e+000 9.645759e-001 3.542408e-002 0.000000e+000 0.000000e+000
 0.000000e+000 0.000000e+000 9.159775e-001 8.402249e-002 0.000000e+000
 0.000000e+000 0.000000e+000 0.000000e+000 8.826966e-001 1.173033e-001
 0.000000e+000 0.000000e+000 0.000000e+000 0.000000e+000 0.000000e+000
<ENDHMM>
~h "k"
<BEGINHMM>
<NUMSTATES> 5
<STATE> 2
<MEAN> 25
 7.365231e+000 -1.743929e+000 3.453946e+000 -2.059629e+000 -1.639423e+000 7.497386e-001 -1.015738e+000 -4.488137e+000 5.535274e-001 -3.541361e+000 -6.649163e-001 -3.577056e+000 3.999322e-001 -3.742101e-001 1.869659e-001 -3.435532e-002 -3.776645e-002 2.188884e-002 -4.510270e-001 -4.658949e-001 4.078586e-001 -1.237805e-001 -2.091613e-001 -1.301194e-001 7.713680e-001
<VARIANCE> 25
 4.898220e+001 5.565011e+001 8.841078e+001 6.662003e+001 1.049378e+002 6.436096e+001 7.910655e+001 9.323205e+001 1.132946e+002 6.598652e+001 1.150378e+002 4.416412e+001 2.971793e+000 4.162444e+000 4.523135e+000 4.071857e+000 6.407959e+000 4.249193e+000 5.544104e+000 7.304724e+000 6.031239e+000 5.915749e+000 6.716313e+000 3.404558e+000 5.136577e+000
<GCONST> 1.184896e+002
<STATE> 3
<MEAN> 25
 8.610309e+000 -6.098794e+000 1.227265e+000 -1.895860e+000 2.680854e+000 6.046411e-001 -4.899359e+000 -4.083739e+000 2.190840e+000 -4.783127e+000 -3.843211e+000 -1.435688e+000 -2.450558e-001 2.403338e-001 -3.162169e-001 -1.581015e-001 1.921808e-001 -6.259559e-002 1.795738e-001 2.597781e-001 -9.640803e-002 8.565958e-002 1.721392e-001 1.893301e-001 5.978325e-003
<VARIANCE> 25
 3.932808e+001 7.237773e+001 7.225277e+001 4.896706e+001 9.343603e+001 6.815611e+001 8.632169e+001 1.245771e+002 9.598328e+001 8.889082e+001 6.435180e+001 3.508449e+001 2.108859e+000 3.635458e+000 3.527684e+000 3.301269e+000 4.471339e+000 4.453052e+000 4.381111e+000 4.420012e+000 4.182233e+000 3.575073e+000 3.239834e+000 2.474183e+000 2.317572e+000
<GCONST> 1.129612e+002
<STATE> 4
<MEAN> 25
 3.532141e+000 8.562631e-001 -2.659020e+000 -3.481864e+000 2.498938e+000 -7.823074e-001 1.192085e+000 -1.932980e+000 1.886673e+000 -8.476740e-001 1.049656e+000 1.930059e+000 -2.644173e-001 3.103159e-002 -1.097666e-001 4.616707e-002 5.571340e-002 -8.297012e-002 3.210443e-001 2.004560e-001 1.880691e-001 3.485097e-002 5.741958e-002 -7.122207e-002 -8.961001e-002
<VARIANCE> 25
 1.168015e+002 7.528904e+001 8.430942e+001 1.004317e+002 8.340421e+001 8.561016e+001 8.015491e+001 9.734830e+001 7.817537e+001 5.888508e+001 5.289219e+001 4.540414e+001 4.995362e+000 4.589993e+000 4.416151e+000 5.728093e+000 6.455159e+000 7.890162e+000 6.410010e+000 7.157519e+000 4.990974e+000 4.537811e+000 4.081474e+000 3.871017e+000 3.592825e+000
<GCONST> 1.194054e+002
<TRANSP> 5
 0.000000e+000 1.000000e+000 0.000000e+000 0.000000e+000 0.000000e+000
 0.000000e+000 8.570067e-001 1.429933e-001 0.000000e+000 0.000000e+000
 0.000000e+000 0.000000e+000 8.070517e-001 1.929483e-001 0.000000e+000
 0.000000e+000 0.000000e+000 0.000000e+000 8.383945e-001 1.616055e-001
 0.000000e+000 0.000000e+000 0.000000e+000 0.000000e+000 0.000000e+000
<ENDHMM>
~h "l"
<BEGINHMM>
<NUMSTATES> 5
<STATE> 2
<MEAN> 25
 7.133865e+000 -9.696090e-001 4.481814e+000 6.021535e-002 -3.902712e+000 -3.075200e+000 -8.028558e-001 1.102500e+000 -1.046505e+000 -8.524513e-001 -1.149074e+000 -4.462599e-001 5.402294e-003 -8.133937e-002 -3.030832e-002 -2.072446e-001 -6.263196e-002 -1.198195e-001 -4.029230e-001 -1.649440e-001 2.019689e-001 4.714581e-002 -2.018818e-002 -6.606125e-002 1.383976e-001
<VARIANCE> 25
 6.874175e+001 4.578156e+001 7.146382e+001 5.237107e+001 1.206557e+002 5.774400e+001 8.628227e+001 4.500657e+001 5.167217e+001 3.556931e+001 4.929175e+001 2.508216e+001 2.020296e+000 3.535128e+000 3.010686e+000 3.500643e+000 5.424725e+000 3.769749e+000 5.847971e+000 3.520588e+000 3.881929e+000 2.521608e+000 3.215389e+000 2.655849e+000 2.908558e+000
<GCONST> 1.098358e+002
<STATE> 3
<MEAN> 25
 7.320295e+000 -1.376922e-001 2.966607e+000 -1.219131e+000 -2.894737e+000 -5.161414e+000 -3.760525e+000 9.649168e-001 1.515502e+000 -1.294801e+000 -3.342652e+000 2.330384e-003 -7.975347e-002 2.203919e-001 -2.173288e-001 -1.393092e-001 2.476392e-001 2.627622e-001 -1.178823e-001 -2.230444e-001 5.013907e-001 3.352958e-001 2.720075e-002 5.375198e-002 -3.030101e-001
<VARIANCE> 25
 4.750060e+001 3.293840e+001 3.630762e+001 4.429443e+001 7.223890e+001 6.462260e+001 4.419167e+001 3.774628e+001 5.994194e+001 3.415396e+001 5.342516e+001 2.139726e+001 1.210518e+000 1.948192e+000 1.658950e+000 2.243400e+000 3.105228e+000 2.910964e+000 3.224734e+000 2.995335e+000 2.946474e+000 2.001061e+000 2.645880e+000 1.863687e+000 1.216124e+000
<GCONST> 1.014261e+002
<STATE> 4
<MEAN> 25
 9.796124e+000 2.279022e+000 -1.241070e+000 -5.685521e+000 8.411385e-001 2.499720e+000 -2.265404e+000 -3.181603e+000 4.392018e+000 3.508034e+000 1.931324e+000 -4.271374e-001 -2.997968e-001 1.004939e-001 -1.072421e-001 2.728918e-001 5.071166e-002 1.855632e-001 1.940755e-001 1.493644e-002 -1.039076e-001 -7.198606e-002 1.282662e-001 2.719602e-002 -5.430858e-001
<VARIANCE> 25
 7.084075e+001 3.371167e+001 3.859737e+001 9.856920e+001 6.200580e+001 9.166463e+001 6.873987e+001 8.253241e+001 6.745424e+001 5.334938e+001 5.483875e+001 3.552562e+001 1.441793e+000 2.110162e+000 2.561467e+000 3.957880e+000 3.703458e+000 4.861814e+000 4.230380e+000 5.180530e+000 4.060710e+000 4.142412e+000 3.690675e+000 2.588245e+000 1.482477e+000
<GCONST> 1.099010e+002
<TRANSP> 5
 0.000000e+000 1.000000e+000 0.000000e+000 0.000000e+000 0.000000e+000
 0.000000e+000 5.845233e-001 4.154768e-001 0.000000e+000 0.000000e+000
 0.000000e+000 0.000000e+000 5.953052e-001 4.046948e-001 0.000000e+000
 0.000000e+000 0.000000e+000 0.000000e+000 8.681437e-001 1.318564e-001
 0.000000e+000 0.000000e+000 0.000000e+000 0.000000e+000 0.000000e+000
<ENDHMM>
~h "m"
<BEGINHMM>
<NUMSTATES> 5
<STATE> 2
<MEAN> 25
 3.952460e+000 -1.941607e+000 -8.195242e-001 -4.541046e+000 1.206262e+000 -3.881785e-001 -2.852638e-001 2.560505e-001 -1.151387e+000 1.006944e+000 -4.901501e-001 -8.608572e-001 8.111669e-001 2.147484e-001 2.225758e-001 -6.892861e-001 -1.411568e-001 -1.865754e-001 -1.223350e-001 -9.612700e-002 -1.535148e-001 1.350714e-001 -4.798140e-001 -2.306170e-001 8.180579e-001
<VARIANCE> 25
 6.077160e+001 5.265874e+001 6.804633e+001 7.442172e+001 9.325095e+001 5.374430e+001 5.939134e+001 4.842388e+001 4.368133e+001 3.457512e+001 4.062127e+001 2.030618e+001 4.284543e+000 3.459292e+000 4.035784e+000 5.005366e+000 3.940629e+000 3.221744e+000 3.140450e+000 3.494965e+000 3.195754e+000 3.371282e+000 2.898885e+000 2.413766e+000 6.451848e+000
<GCONST> 1.098925e+002
<STATE> 3
<MEAN> 25
 6.341675e+000 -8.069713e-001 1.144871e+000 -5.777977e+000 -2.812826e-002 -5.872904e-001 -1.286635e+000 -5.671880e-001 -1.474036e+000 4.871467e-001 -2.716035e+000 -1.219452e+000 6.475880e-001 2.789456e-001 4.764303e-001 -1.422531e-001 -3.619778e-001 2.404963e-002 -2.002929e-001 -1.007307e-001 -7.331304e-002 -1.450438e-003 -6.033167e-001 -1.846253e-001 7.327060e-002
<VARIANCE> 25
 5.723275e+001 5.501318e+001 6.766575e+001 5.688359e+001 8.630208e+001 5.833231e+001 6.492531e+001 6.087339e+001 5.533363e+001 3.847008e+001 5.153606e+001 2.404111e+001 2.972515e+000 2.209452e+000 2.310890e+000 3.047329e+000 3.305477e+000 3.902316e+000 3.331631e+000 3.097942e+000 3.184227e+000 3.194495e+000 2.671228e+000 2.495286e+000 3.636647e+000
<GCONST> 1.080816e+002
<STATE> 4
<MEAN> 25
 7.986130e+000 -1.459562e+000 4.093529e+000 -5.141130e+000 -3.159719e+000 3.847763e+000 -4.206835e-001 -9.981941e-001 -1.831546e-001 -9.274916e-001 -3.239822e+000 -1.919861e+000 -1.091310e-001 2.279575e-002 3.027000e-002 4.202877e-001 1.578370e-001 -6.917194e-002 3.514092e-003 7.450645e-002 1.118720e-001 -1.790842e-002 7.979929e-002 5.860772e-002 -4.250781e-001
<VARIANCE> 25
 6.462798e+001 7.747524e+001 1.008136e+002 8.608583e+001 1.039073e+002 1.007092e+002 7.215681e+001 1.017915e+002 5.871336e+001 8.168314e+001 7.122237e+001 3.787028e+001 2.566959e+000 3.954789e+000 4.052208e+000 4.386448e+000 5.522160e+000 6.377339e+000 5.305429e+000 6.277977e+000 4.169003e+000 4.940136e+000 4.472200e+000 3.138958e+000 2.952108e+000
<GCONST> 1.170792e+002
<TRANSP> 5
 0.000000e+000 1.000000e+000 0.000000e+000 0.000000e+000 0.000000e+000
 0.000000e+000 4.506343e-001 5.493658e-001 0.000000e+000 0.000000e+000
 0.000000e+000 0.000000e+000 4.394076e-001 5.605924e-001 0.000000e+000
 0.000000e+000 0.000000e+000 0.000000e+000 8.796585e-001 1.203415e-001
 0.000000e+000 0.000000e+000 0.000000e+000 0.000000e+000 0.000000e+000
<ENDHMM>
~h "n"
<BEGINHMM>
<NUMSTATES> 5
<STATE> 2
<MEAN> 25
 8.475989e+000 -6.258891e-001 6.015863e+000 -3.275995e+000 -5.057242e+000 -2.538364e+000 -2.502945e+000 -1.184053e+000 -2.222362e+000 -7.022287e-001 -7.472933e-001 -2.096757e+000 8.053483e-001 -1.041557e-001 6.195252e-002 4.051923e-002 -4.460170e-001 1.221631e-001 -4.901069e-001 -5.734927e-001 1.260240e-001 7.634576e-002 -5.211826e-001 -7.210792e-002 2.396292e-001
<VARIANCE> 25
 5.525993e+001 6.489520e+001 7.880398e+001 5.038156e+001 9.563437e+001 6.865285e+001 5.970306e+001 6.575536e+001 6.034421e+001 4.132728e+001 6.962086e+001 3.729807e+001 4.719803e+000 3.379502e+000 4.020320e+000 3.325914e+000 5.799845e+000 4.896968e+000 4.620582e+000 5.504761e+000 4.753948e+000 3.743630e+000 4.481302e+000 3.090985e+000 3.911373e+000
<GCONST> 1.139834e+002
<STATE> 3
<MEAN> 25
 1.128764e+001 -1.511567e+000 4.932781e+000 -2.995107e+000 -3.755664e+000 -2.444997e+000 -5.361725e+000 -2.594349e+000 -1.290913e+000 -9.242951e-001 -5.322187e+000 -1.534467e+000 1.513834e-001 -4.458628e-002 -2.134735e-001 8.567444e-002 1.276846e-001 1.204479e-001 6.927173e-002 1.994284e-002 2.283962e-001 -1.687047e-002 -2.218040e-001 1.167442e-001 -1.104644e-001
<VARIANCE> 25
 3.376235e+001 4.350734e+001 6.353139e+001 4.004865e+001 9.795068e+001 5.440041e+001 5.767720e+001 9.284392e+001 8.601270e+001 4.628018e+001 5.827718e+001 3.663630e+001 1.079786e+000 1.840762e+000 1.856852e+000 2.178949e+000 3.345947e+000 2.773745e+000 2.677315e+000 3.956259e+000 3.476575e+000 2.991726e+000 3.254216e+000 2.281251e+000 1.106626e+000
<GCONST> 1.053235e+002
<STATE> 4
<MEAN> 25
 1.089335e+001 -1.968304e+000 3.753680e+000 -2.532740e+000 -3.154509e+000 -1.719631e+000 -1.382736e+000 3.879597e-001 -4.142157e-001 -8.084649e-001 -4.677082e+000 -2.439939e-001 -2.659502e-001 3.172813e-001 -2.019719e-001 1.918289e-001 4.722002e-001 -1.660506e-002 7.785611e-002 2.403476e-001 -1.247709e-001 2.251750e-002 3.056158e-001 -4.730358e-002 -4.510576e-001
<VARIANCE> 25
 3.893591e+001 6.451596e+001 4.587349e+001 4.994547e+001 9.229582e+001 5.382339e+001 6.992713e+001 7.563190e+001 4.872241e+001 6.575996e+001 4.210001e+001 3.093324e+001 1.329472e+000 2.594029e+000 1.980222e+000 2.377713e+000 4.208384e+000 3.232677e+000 3.303331e+000 3.820450e+000 2.975895e+000 3.174836e+000 2.398479e+000 2.230314e+000 1.315034e+000
<GCONST> 1.059703e+002
<TRANSP> 5
 0.000000e+000 1.000000e+000 0.000000e+000 0.000000e+000 0.000000e+000
 0.000000e+000 7.209172e-001 2.790828e-001 0.000000e+000 0.000000e+000
 0.000000e+000 0.000000e+000 7.135477e-001 2.864523e-001 0.000000e+000
 0.000000e+000 0.000000e+000 0.000000e+000 8.468420e-001 1.531580e-001
 0.000000e+000 0.000000e+000 0.000000e+000 0.000000e+000 0.000000e+000
<ENDHMM>
~h "p"
<BEGINHMM>
<NUMSTATES> 5
<STATE> 2
<MEAN> 25
 3.610321e+000 -2.799992e+000 -5.661504e-002 -1.690460e+000 1.131744e+000 -3.226058e+000 1.994536e+000 1.992588e+000 1.508253e-001 1.358879e+000 -1.080270e+000 9.185670e-002 -7.389202e-001 -4.194123e-001 -5.115337e-002 -4.626763e-001 3.570721e-002 -3.661791e-001 4.197304e-001 4.300418e-001 3.239732e-001 -1.317952e-001 -2.665637e-001 -4.142468e-003 1.427207e+000
<VARIANCE> 25
 5.285244e+001 7.278611e+001 6.921391e+001 5.587030e+001 4.973169e+001 4.648820e+001 5.346960e+001 3.477147e+001 5.160806e+001 3.218479e+001 4.550396e+001 2.941935e+001 5.975488e+000 6.444219e+000 4.797064e+000 5.932180e+000 4.576866e+000 4.652832e+000 4.506835e+000 3.631306e+000 6.272917e+000 3.499396e+000 4.109855e+000 3.662669e+000 8.961411e+000
<GCONST> 1.131968e+002
<STATE> 3
<MEAN> 25
 1.114307e+000 -4.719669e+000 -6.407537e-001 -3.085347e+000 2.310157e+000 -3.129940e+000 5.543519e+000 3.809923e+000 1.005274e+000 -3.256463e-001 -3.243279e+000 -9.468422e-002 -1.209560e+000 7.805942e-001 2.075632e-001 1.651745e-002 3.673586e-001 -1.071923e-001 2.264991e-001 1.090206e-001 -2.262496e-001 -3.144687e-001 3.918731e-001 9.554806e-002 -3.412860e-002
<VARIANCE> 25
 8.136914e+001 6.974398e+001 8.640379e+001 4.734877e+001 5.566553e+001 5.328191e+001 6.192971e+001 4.057772e+001 6.379118e+001 5.078736e+001 4.409036e+001 2.827221e+001 6.455345e+000 4.127831e+000 3.631818e+000 3.689349e+000 3.609604e+000 3.619436e+000 4.175934e+000 4.128832e+000 5.392039e+000 3.207653e+000 3.791850e+000 2.574808e+000 3.439142e+000
<GCONST> 1.116023e+002
<STATE> 4
<MEAN> 25
 -1.005459e+001 3.812237e+000 -1.459148e+000 -7.718287e-001 7.159113e+000 -6.096265e+000 6.658308e+000 4.459967e+000 1.132003e+000 -1.016605e+000 2.336636e-001 1.671363e+000 3.140507e-001 -5.996326e-002 4.003152e-002 4.689607e-002 -5.783979e-002 -4.445572e-002 -4.049940e-001 -1.072432e-001 3.545256e-002 5.212495e-002 -1.000814e-001 -1.343925e-001 -4.989794e-001
<VARIANCE> 25
 8.537149e+001 4.539469e+001 4.925413e+001 4.439242e+001 4.815031e+001 5.494876e+001 4.806326e+001 5.817825e+001 4.162198e+001 3.668894e+001 3.935427e+001 3.599765e+001 3.189108e+000 2.670801e+000 3.032912e+000 3.420263e+000 3.288775e+000 3.879464e+000 3.827968e+000 3.785504e+000 3.832490e+000 3.198179e+000 2.947403e+000 2.805256e+000 3.185142e+000
<GCONST> 1.077814e+002
<TRANSP> 5
 0.000000e+000 1.000000e+000 0.000000e+000 0.000000e+000 0.000000e+000
 0.000000e+000 7.371548e-001 2.628452e-001 0.000000e+000 0.000000e+000
 0.000000e+000 0.000000e+000 6.996378e-001 3.003623e-001 0.000000e+000
 0.000000e+000 0.000000e+000 0.000000e+000 8.665943e-001 1.334057e-001
 0.000000e+000 0.000000e+000 0.000000e+000 0.000000e+000 0.000000e+000
<ENDHMM>
~h "r"
<BEGINHMM>
<NUMSTATES> 5
<STATE> 2
<MEAN> 25
 3.175599e+000 -5.510986e+000 3.403511e+000 -4.101170e+000 9.061555e-001 -2.954612e+000 -9.400378e-001 2.695724e+000 -2.395617e+000 2.166915e-001 -1.727793e+000 -7.635084e-001 -3.494393e-001 -2.633914e-002 7.353695e-001 7.915286e-002 -2.177638e-001 -2.895837e-001 1.987835e-001 2.321017e-001 -4.738880e-001 -9.936147e-002 1.568149e-001 1.477946e-001 3.657889e-002
<VARIANCE> 25
 9.483947e+001 7.345483e+001 9.279797e+001 5.012004e+001 7.220608e+001 4.775412e+001 7.656320e+001 4.712203e+001 8.857079e+001 4.689549e+001 4.216487e+001 2.776649e+001 4.038146e+000 3.346857e+000 3.490850e+000 2.402154e+000 3.798856e+000 2.725849e+000 4.623680e+000 3.362853e+000 3.704737e+000 3.322549e+000 2.951792e+000 2.526807e+000 2.450732e+000
<GCONST> 1.102021e+002
<STATE> 3
<MEAN> 25
 2.111426e+000 -4.052380e+000 5.772304e+000 -3.600181e+000 -1.136712e+000 -3.782287e+000 2.733784e-002 3.383457e+000 -3.636324e+000 -4.261404e-002 -6.353191e-001 -1.123707e-001 9.903444e-002 4.935950e-001 9.979466e-002 3.228459e-001 -2.780540e-001 -1.542960e-001 6.972996e-002 2.667537e-002 -4.037111e-003 -1.117751e-001 -3.070579e-003 4.162905e-002 -5.920724e-001
<VARIANCE> 25
 9.588165e+001 8.530159e+001 9.970449e+001 4.644099e+001 7.679999e+001 5.675543e+001 5.864798e+001 4.305927e+001 7.425233e+001 3.807709e+001 3.983712e+001 2.554861e+001 3.511875e+000 2.695921e+000 2.698488e+000 2.166037e+000 2.796770e+000 2.784774e+000 2.965565e+000 3.080033e+000 3.332513e+000 2.677015e+000 2.737130e+000 2.446640e+000 2.056895e+000
<GCONST> 1.075725e+002
<STATE> 4
<MEAN> 25
 -6.302561e-001 1.339269e+000 3.129170e+000 4.476763e-001 -9.138200e-001 -4.161761e+000 1.914570e+000 5.854308e-001 -2.307321e-001 -1.868769e+000 3.617074e-001 4.039216e-001 -2.009380e-001 7.461438e-002 -1.131897e-001 2.294068e-001 8.249056e-002 8.350252e-002 -9.339148e-003 -2.301266e-001 2.145927e-001 -3.730255e-002 1.021003e-001 3.786818e-003 -3.657576e-001
<VARIANCE> 25
 1.179277e+002 6.684618e+001 6.979663e+001 8.611761e+001 1.060160e+002 8.641373e+001 8.124303e+001 6.804394e+001 6.462640e+001 6.947306e+001 4.765160e+001 4.161130e+001 4.892653e+000 4.141592e+000 4.436793e+000 4.647652e+000 5.449229e+000 6.922698e+000 5.703098e+000 5.685215e+000 5.012927e+000 6.079084e+000 5.084496e+000 3.515686e+000 3.500285e+000
<GCONST> 1.180603e+002
<TRANSP> 5
 0.000000e+000 1.000000e+000 0.000000e+000 0.000000e+000 0.000000e+000
 0.000000e+000 5.735757e-001 4.264243e-001 0.000000e+000 0.000000e+000
 0.000000e+000 0.000000e+000 5.862213e-001 4.137787e-001 0.000000e+000
 0.000000e+000 0.000000e+000 0.000000e+000 7.996147e-001 2.003853e-001
 0.000000e+000 0.000000e+000 0.000000e+000 0.000000e+000 0.000000e+000
<ENDHMM>
~h "s"
<BEGINHMM>
<NUMSTATES> 5
<STATE> 2
<MEAN> 25
 6.248826e+000 -2.536807e+000 -1.878002e+000 -3.327628e+000 2.044040e+000 -2.312071e+000 8.809850e-002 2.534285e+000 3.583727e+000 2.273016e-001 -1.819981e+000 -1.101346e+000 5.277204e-002 -8.133497e-002 -1.674533e-001 -6.540152e-002 1.219827e-001 3.513582e-003 2.368429e-001 2.223381e-001 3.749336e-002 -6.822962e-002 4.259724e-003 7.066193e-002 2.495091e-001
<VARIANCE> 25
 8.689495e+001 6.435775e+001 5.787386e+001 6.918038e+001 8.085914e+001 7.974696e+001 5.713526e+001 6.372029e+001 7.314292e+001 6.260266e+001 7.024110e+001 3.519950e+001 6.877738e+000 4.616513e+000 4.493587e+000 6.567451e+000 6.157900e+000 6.609977e+000 4.702958e+000 5.795158e+000 5.576093e+000 4.929321e+000 5.231783e+000 3.950349e+000 5.915471e+000
<GCONST> 1.180588e+002
<STATE> 3
<MEAN> 25
 5.164331e+000 -4.098689e+000 -1.441417e+000 -4.679389e-001 1.819224e+000 -2.695011e+000 2.840993e+000 5.353534e+000 6.601810e-001 -2.369982e+000 -2.721618e+000 2.344141e-001 -9.642835e-001 6.803424e-001 7.513031e-002 1.808115e-001 4.056258e-001 -1.675075e-001 1.884964e-001 2.078925e-001 -3.295862e-001 2.987886e-002 4.700325e-001 3.191862e-001 -5.421753e-001
<VARIANCE> 25
 7.881625e+001 9.096593e+001 5.697460e+001 6.045193e+001 6.249553e+001 6.205882e+001 6.924876e+001 5.121179e+001 7.214671e+001 5.480325e+001 5.293332e+001 2.578830e+001 4.207901e+000 3.234837e+000 3.074948e+000 3.045046e+000 4.019609e+000 3.908074e+000 3.387923e+000 3.957357e+000 4.087546e+000 3.077337e+000 3.452932e+000 2.430423e+000 1.896663e+000
<GCONST> 1.104044e+002
<STATE> 4
<MEAN> 25
 -7.538076e+000 3.978528e+000 -7.517550e-001 -1.316511e+000 7.210247e+000 -5.497635e+000 4.784481e+000 4.404871e+000 -7.057542e-001 9.103963e-001 1.116066e+000 1.441193e+000 1.323835e-002 -3.195676e-002 -2.323206e-002 1.569042e-001 -2.986628e-002 2.460977e-001 -2.273528e-001 -2.227236e-001 -1.834145e-002 1.206390e-001 3.791304e-002 -2.517736e-002 -6.046746e-001
<VARIANCE> 25
 1.216014e+002 3.561655e+001 3.571006e+001 6.562334e+001 4.729600e+001 8.420305e+001 4.968105e+001 4.913711e+001 4.735791e+001 3.841428e+001 3.962631e+001 2.569263e+001 2.961282e+000 1.848237e+000 1.883119e+000 2.735453e+000 3.206082e+000 3.709405e+000 3.374963e+000 3.981205e+000 3.609963e+000 2.926390e+000 2.689455e+000 2.432590e+000 1.186026e+000
<GCONST> 1.054209e+002
<TRANSP> 5
 0.000000e+000 1.000000e+000 0.000000e+000 0.000000e+000 0.000000e+000
 0.000000e+000 7.817450e-001 2.182550e-001 0.000000e+000 0.000000e+000
 0.000000e+000 0.000000e+000 6.438451e-001 3.561549e-001 0.000000e+000
 0.000000e+000 0.000000e+000 0.000000e+000 8.576154e-001 1.423846e-001
 0.000000e+000 0.000000e+000 0.000000e+000 0.000000e+000 0.000000e+000
<ENDHMM>
~h "t"
<BEGINHMM>
<NUMSTATES> 5
<STATE> 2
<MEAN> 25
 6.626528e+000 1.283918e-001 -8.923274e-001 -3.247451e+000 1.508711e+000 -1.036941e+000 -2.688979e+000 2.368262e-001 -1.794750e+000 -4.399453e-001 -2.501208e+000 -8.231679e-001 -3.595273e-001 3.936643e-002 -1.560892e-001 1.055914e-002 5.921099e-002 1.437816e-001 7.075990e-002 -1.836222e-001 -8.836558e-002 8.945389e-003 2.595530e-001 1.151295e-001 -2.672094e-001
<VARIANCE> 25
 7.789433e+001 4.951211e+001 4.535633e+001 4.964668e+001 5.558565e+001 3.618979e+001 5.870077e+001 4.715643e+001 5.975342e+001 3.687444e+001 4.314579e+001 3.770536e+001 1.567086e+000 1.705152e+000 1.463892e+000 2.230413e+000 2.612958e+000 2.297518e+000 2.460612e+000 2.813703e+000 2.892439e+000 2.098158e+000 2.558676e+000 2.644391e+000 1.550938e+000
<GCONST> 1.025961e+002
<STATE> 3
<MEAN> 25
 5.372990e+000 4.143576e-001 -7.903879e-001 -2.653887e+000 1.297391e+000 -6.223589e-001 -2.609576e+000 -2.892430e-001 -2.603489e+000 -1.284308e-001 -1.374724e+000 -7.573473e-001 -3.119141e-001 6.810776e-002 5.191440e-002 1.488281e-001 -1.635757e-002 4.560101e-002 1.482491e-001 -3.700239e-002 3.231444e-003 1.137948e-001 2.374494e-001 2.435544e-002 -3.897295e-001
<VARIANCE> 25
 7.180237e+001 4.653323e+001 3.821161e+001 4.337499e+001 4.501488e+001 3.366613e+001 5.303302e+001 4.084524e+001 5.937918e+001 3.268992e+001 4.146412e+001 3.339935e+001 1.242317e+000 1.293016e+000 1.294967e+000 1.898771e+000 2.177438e+000 2.097099e+000 2.180111e+000 2.330571e+000 2.535630e+000 1.921401e+000 2.237585e+000 2.155378e+000 1.127178e+000
<GCONST> 9.907702e+001
<STATE> 4
<MEAN> 25
 5.682118e+000 1.631635e+000 -9.928380e-001 -3.603355e+000 2.275379e+000 -1.522939e+000 -1.695496e+000 1.542370e+000 -1.065442e+000 1.355848e+000 -5.410435e-001 -5.174892e-001 -2.344642e-001 -8.312087e-003 1.390086e-001 3.140397e-001 -7.326362e-002 5.517838e-002 1.519170e-001 6.182231e-002 8.126710e-002 3.328564e-002 1.205354e-001 5.796356e-002 -3.745019e-001
<VARIANCE> 25
 8.810852e+001 5.286290e+001 4.509925e+001 6.236395e+001 6.020491e+001 5.895361e+001 4.921741e+001 5.221671e+001 5.592567e+001 4.210035e+001 3.955689e+001 3.208167e+001 2.942712e+000 2.717059e+000 2.728975e+000 4.312506e+000 3.983568e+000 4.255508e+000 3.744769e+000 3.879672e+000 4.124914e+000 3.647264e+000 3.094297e+000 2.820568e+000 3.208902e+000
<GCONST> 1.093656e+002
<TRANSP> 5
 0.000000e+000 1.000000e+000 0.000000e+000 0.000000e+000 0.000000e+000
 0.000000e+000 4.882370e-001 5.117630e-001 0.000000e+000 0.000000e+000
 0.000000e+000 0.000000e+000 5.750611e-001 4.249389e-001 0.000000e+000
 0.000000e+000 0.000000e+000 0.000000e+000 7.536899e-001 2.463101e-001
 0.000000e+000 0.000000e+000 0.000000e+000 0.000000e+000 0.000000e+000
<ENDHMM>
~h "v"
<BEGINHMM>
<NUMSTATES> 5
<STATE> 2
<MEAN> 25
 4.259670e+000 -1.195437e+000 -3.126896e+000 -4.194040e+000 4.453312e-001 2.074904e-001 1.281731e+000 8.191303e-003 4.886256e-001 1.620683e+000 8.414901e-001 -1.983749e+000 1.162908e+000 -1.231879e+000 -8.640693e-001 -1.939473e+000 -6.866677e-001 1.413269e-001 3.632930e-001 -4.931689e-001 8.056449e-001 1.549931e-001 2.436326e-001 -7.533128e-001 3.060083e+000
<VARIANCE> 25
 6.546420e+001 6.004007e+001 4.869064e+001 7.035101e+001 5.304245e+001 6.649998e+001 6.220924e+001 4.233176e+001 6.257991e+001 4.101576e+001 4.314330e+001 3.597713e+001 7.411791e+000 5.685768e+000 5.971106e+000 6.783647e+000 6.583729e+000 8.391318e+000 6.824444e+000 5.824207e+000 7.232981e+000 6.647781e+000 5.593664e+000 4.580184e+000 8.447478e+000
<GCONST> 1.179916e+002
<STATE> 3
<MEAN> 25
 5.134490e+000 -7.573791e+000 -9.860826e-001 -4.598990e+000 -2.981390e+000 -1.125276e+000 1.803954e+000 8.559842e-001 4.342563e+000 -8.933831e-001 3.663451e-001 -3.189185e+000 8.667917e-002 -9.771834e-002 3.579336e-001 -2.625148e-002 -2.385080e-002 -7.539469e-002 6.285734e-002 1.407769e-001 -2.576860e-002 -3.054273e-002 -1.005632e-001 1.007853e-001 4.087255e-001
<VARIANCE> 25
 5.146459e+001 6.384183e+001 9.527679e+001 6.031076e+001 5.476193e+001 7.892626e+001 7.574586e+001 5.958477e+001 8.025905e+001 6.141489e+001 5.937250e+001 3.767747e+001 5.136475e+000 3.979908e+000 4.845710e+000 4.666145e+000 4.294182e+000 5.935746e+000 4.948837e+000 4.671235e+000 5.323381e+000 4.809585e+000 5.023062e+000 3.145678e+000 5.385975e+000
<GCONST> 1.159041e+002
<STATE> 4
<MEAN> 25
 6.221620e+000 1.410108e-001 -2.901462e+000 -6.750737e+000 2.142529e+000 2.828398e+000 5.238218e-001 -6.325452e-001 2.955252e+000 2.173539e+000 2.086812e+000 -1.339570e+000 -1.457318e-001 1.109363e-001 2.577244e-001 2.768931e-001 1.079943e-001 -1.316572e-001 -5.923775e-002 1.244758e-001 -1.280980e-001 2.792851e-002 -9.141026e-002 1.302253e-001 -1.841486e-001
<VARIANCE> 25
 1.017708e+002 5.466191e+001 5.814621e+001 8.694836e+001 5.698607e+001 1.160524e+002 7.250074e+001 7.164941e+001 7.233472e+001 5.327271e+001 4.653355e+001 3.982672e+001 4.344390e+000 3.115602e+000 3.718407e+000 5.082812e+000 4.132890e+000 6.004729e+000 5.326464e+000 5.730119e+000 5.126346e+000 4.422721e+000 3.898132e+000 3.720514e+000 3.658930e+000
<GCONST> 1.154999e+002
<TRANSP> 5
 0.000000e+000 1.000000e+000 0.000000e+000 0.000000e+000 0.000000e+000
 0.000000e+000 6.673226e-001 3.326774e-001 0.000000e+000 0.000000e+000
 0.000000e+000 0.000000e+000 7.156243e-001 2.843756e-001 0.000000e+000
 0.000000e+000 0.000000e+000 0.000000e+000 8.805620e-001 1.194380e-001
 0.000000e+000 0.000000e+000 0.000000e+000 0.000000e+000 0.000000e+000
<ENDHMM>
~h "w"
<BEGINHMM>
<NUMSTATES> 5
<STATE> 2
<MEAN> 25
 -4.821033e+000 -1.698828e+000 -6.593316e-001 2.572315e+000 4.729744e-001 2.055573e+000 -1.011917e+000 -1.650044e+000 -4.674625e-001 -8.652945e-001 4.038656e-001 3.412876e-001 -5.907823e-002 -2.786736e-002 -4.894552e-002 -2.644194e-003 -8.096325e-003 2.466056e-002 1.930362e-003 -1.511076e-003 1.995789e-002 8.835273e-003 1.504461e-002 7.058378e-003 -5.484728e-002
<VARIANCE> 25
 2.142828e+001 7.888916e+000 1.444528e+001 1.377581e+001 1.456435e+001 1.503640e+001 1.390259e+001 1.571350e+001 1.551224e+001 1.562406e+001 1.251558e+001 1.057705e+001 1.806636e-001 2.716258e-001 4.159086e-001 5.814454e-001 7.749569e-001 8.366401e-001 9.147722e-001 1.019580e+000 1.061838e+000 9.757724e-001 9.603238e-001 8.643609e-001 9.698110e-002
<GCONST> 7.010114e+001
<STATE> 3
<MEAN> 25
 -2.772636e+000 1.587607e-001 -1.436521e+000 2.020626e+000 1.839040e-001 2.087948e+000 -5.721617e-001 -1.226222e+000 -6.544636e-001 3.537084e-001 1.185312e+000 4.005214e-001 8.663797e-001 -3.767189e-002 3.296918e-001 -1.733717e-002 1.277955e-001 -1.383844e-001 -7.203685e-002 -3.201943e-002 -3.271613e-001 -2.479656e-001 -1.955171e-001 -1.161359e-001 9.128854e-001
<VARIANCE> 25
 7.354234e+001 2.057864e+001 2.701329e+001 2.156583e+001 2.405070e+001 2.587417e+001 1.856305e+001 2.237184e+001 2.993378e+001 2.287189e+001 2.264653e+001 1.767225e+001 4.886537e+000 6.065350e-001 1.632445e+000 8.356863e-001 1.032320e+000 1.255188e+000 1.183686e+000 1.291746e+000 1.467753e+000 1.135323e+000 1.109205e+000 1.090149e+000 6.240780e+000
<GCONST> 8.923227e+001
<STATE> 4
<MEAN> 25
 1.147836e+000 1.214483e+000 1.032472e+000 2.534848e+000 2.524765e+000 1.743603e+000 -1.216134e+000 -5.781305e-001 -2.429004e+000 -5.693642e-001 1.005586e+000 7.187410e-001 2.183906e-001 8.533028e-002 5.898120e-002 -5.935820e-002 4.230751e-002 -2.296748e-002 -1.747772e-002 6.250248e-002 -8.645271e-002 -8.076424e-002 -4.880001e-002 -3.791421e-002 1.880373e-001
<VARIANCE> 25
 2.358694e+001 1.291443e+001 1.645258e+001 1.546760e+001 2.075210e+001 1.402680e+001 1.392761e+001 1.606519e+001 2.024244e+001 1.511620e+001 1.378913e+001 1.429001e+001 5.562887e-001 7.882189e-001 9.931728e-001 1.061786e+000 1.348729e+000 1.084127e+000 1.277402e+000 1.515832e+000 1.562123e+000 1.281664e+000 1.205096e+000 1.205830e+000 4.314319e-001
<GCONST> 7.979300e+001
<TRANSP> 5
 0.000000e+000 1.000000e+000 0.000000e+000 0.000000e+000 0.000000e+000
 0.000000e+000 9.562561e-001 4.374391e-002 0.000000e+000 0.000000e+000
 0.000000e+000 0.000000e+000 3.379990e-001 6.620010e-001 0.000000e+000
 0.000000e+000 0.000000e+000 0.000000e+000 8.045551e-001 1.954449e-001
 0.000000e+000 0.000000e+000 0.000000e+000 0.000000e+000 0.000000e+000
<ENDHMM>
~h "y"
<BEGINHMM>
<NUMSTATES> 5
<STATE> 2
<MEAN> 25
 1.432017e+000 4.635732e+000 8.751301e+000 9.540565e-001 -3.362803e+000 -1.916866e+000 5.485038e+000 -6.110812e+000 6.239938e-001 3.077174e-001 6.357338e-001 2.013188e+000 3.892495e-002 -2.701920e-001 3.414700e-001 -6.466278e-002 -7.147645e-001 3.656115e-002 5.566583e-001 -4.416273e-001 -3.979950e-001 2.042847e-001 2.880931e-002 1.754268e-001 2.657824e-001
<VARIANCE> 25
 1.702828e+002 4.971267e+001 5.553080e+001 7.429957e+001 5.603360e+001 5.091352e+001 8.624659e+001 6.404460e+001 6.216592e+001 3.960909e+001 3.826370e+001 3.055475e+001 7.913972e+000 7.150214e+000 3.715562e+000 9.949059e+000 5.987858e+000 5.930003e+000 1.284272e+001 7.624662e+000 5.983074e+000 3.868147e+000 4.113967e+000 4.219268e+000 7.353303e+000
<GCONST> 1.185521e+002
<STATE> 3
<MEAN> 25
 1.423430e+001 3.549582e+000 9.621320e+000 -2.590364e+000 -1.026787e+001 -1.312337e-001 6.008224e+000 -3.544602e+000 -2.091255e+000 8.558684e-001 1.403410e+000 3.750541e+000 2.928521e-001 -8.190040e-002 -5.347854e-001 2.736858e-001 -1.431899e-001 2.226219e-002 -2.778294e-001 2.122327e-001 2.667438e-001 -4.963452e-001 1.351304e-001 1.127336e-001 -2.742669e-001
<VARIANCE> 25
 3.250285e+001 3.260212e+001 1.243051e+002 1.079862e+002 7.920047e+001 5.146597e+001 1.208271e+002 7.940442e+001 6.977796e+001 6.045674e+001 4.050035e+001 3.879745e+001 2.962296e+000 3.372847e+000 5.459836e+000 9.248230e+000 5.225888e+000 4.141724e+000 6.414459e+000 8.274331e+000 8.257906e+000 5.866964e+000 5.527473e+000 4.324325e+000 9.970778e-001
<GCONST> 1.159277e+002
<STATE> 4
<MEAN> 25
 1.547737e+001 1.642010e+000 1.188623e+000 -4.491841e+000 -7.090892e+000 1.428980e+000 2.378286e+000 -4.795861e+000 1.543799e+000 4.751411e+000 1.612771e+000 -2.491656e-001 -2.553620e-001 1.897806e-001 -4.478537e-001 -2.819336e-001 9.152514e-001 4.363715e-002 -4.469802e-001 7.204799e-002 3.443960e-001 3.034804e-001 2.149791e-002 -4.348693e-001 -3.735352e-001
<VARIANCE> 25
 6.334589e+001 6.709478e+001 1.170599e+002 9.603506e+001 5.709144e+001 3.510874e+001 4.235833e+001 1.303707e+002 6.424167e+001 2.001184e+002 4.955169e+001 9.134394e+001 1.179152e+000 3.972237e+000 4.195157e+000 9.365981e+000 5.592865e+000 3.352140e+000 3.620434e+000 5.115854e+000 4.781757e+000 6.025698e+000 5.351801e+000 4.304638e+000 1.726005e+000
<GCONST> 1.158368e+002
<TRANSP> 5
 0.000000e+000 1.000000e+000 0.000000e+000 0.000000e+000 0.000000e+000
 0.000000e+000 9.332886e-001 6.671143e-002 0.000000e+000 0.000000e+000
 0.000000e+000 0.000000e+000 9.163338e-001 8.366621e-002 0.000000e+000
 0.000000e+000 0.000000e+000 0.000000e+000 9.195814e-001 8.041862e-002
 0.000000e+000 0.000000e+000 0.000000e+000 0.000000e+000 0.000000e+000
<ENDHMM>
~h "z"
<BEGINHMM>
<NUMSTATES> 5
<STATE> 2
<MEAN> 25
 -7.718988e+000 1.106893e+000 3.865892e+000 -5.326967e-001 3.604896e+000 -5.550296e+000 3.539256e+000 2.973503e+000 -5.542776e+000 4.530206e-001 2.234314e+000 2.203019e+000 -2.660231e-001 2.320153e-002 -5.010517e-001 -1.963639e-002 2.464892e-001 2.737332e-001 -2.604828e-002 1.454914e-001 2.702851e-001 3.719966e-002 1.381779e-001 6.457648e-002 -6.392183e-001
<VARIANCE> 25
 9.917900e+001 8.125597e+001 6.704098e+001 3.911581e+001 4.264111e+001 6.616516e+001 7.362000e+001 5.158016e+001 3.824664e+001 3.763366e+001 3.079921e+001 2.359564e+001 1.786265e+000 1.364027e+000 1.750124e+000 1.787071e+000 2.670864e+000 2.028554e+000 2.084765e+000 2.245158e+000 2.118435e+000 1.841114e+000 1.666715e+000 1.578678e+000 6.031030e-001
<GCONST> 9.994763e+001
<STATE> 3
<MEAN> 25
 -2.505480e+000 1.610187e+000 -1.358697e+000 3.298995e+000 1.076789e+000 1.392143e+000 2.395952e-001 -3.163624e-002 -4.589409e+000 -4.512749e-001 8.941606e-001 8.018935e-001 3.439309e-002 7.851651e-002 -7.695409e-002 2.081635e-002 -4.240304e-003 1.829554e-001 -6.388558e-003 6.059545e-003 1.122596e-001 1.225356e-002 2.198642e-002 -1.592109e-003 -2.724440e-001
<VARIANCE> 25
 4.400907e+001 2.150290e+001 2.915845e+001 2.282453e+001 2.994598e+001 3.438673e+001 3.576747e+001 3.238401e+001 4.704126e+001 2.163392e+001 2.122261e+001 1.481253e+001 5.209652e-001 9.695821e-001 1.105435e+000 1.278877e+000 1.556175e+000 1.542828e+000 1.664832e+000 2.110376e+000 2.340920e+000 1.705108e+000 1.583733e+000 1.278168e+000 3.993183e-001
<GCONST> 8.893478e+001
<STATE> 4
<MEAN> 25
 2.059240e+000 6.035148e+000 4.208922e+000 1.231529e+000 5.404540e+000 -4.868172e-001 -1.797555e+000 2.138183e+000 -5.333992e+000 -3.017065e-001 8.152465e-001 -4.695479e-002 3.810262e-001 9.780163e-002 2.872083e-002 -1.294487e-003 -5.294422e-002 1.216209e-001 -1.104180e-001 -1.079578e-001 1.140084e-001 1.391632e-001 -1.119915e-001 -1.239613e-001 -1.712283e-001
<VARIANCE> 25
 5.751574e+001 4.417886e+001 3.529380e+001 2.471955e+001 4.283489e+001 3.661076e+001 4.805027e+001 3.093476e+001 3.893901e+001 2.281695e+001 1.473596e+001 1.920755e+001 2.013435e+000 3.536328e+000 2.993815e+000 2.183027e+000 3.283517e+000 2.674837e+000 2.734686e+000 3.105253e+000 3.694447e+000 2.140652e+000 1.640326e+000 1.766950e+000 2.036805e+000
<GCONST> 9.965103e+001
<TRANSP> 5
 0.000000e+000 1.000000e+000 0.000000e+000 0.000000e+000 0.000000e+000
 0.000000e+000 7.346222e-001 2.653778e-001 0.000000e+000 0.000000e+000
 0.000000e+000 0.000000e+000 8.377876e-001 1.622124e-001 0.000000e+000
 0.000000e+000 0.000000e+000 0.000000e+000 8.120340e-001 1.879660e-001
 0.000000e+000 0.000000e+000 0.000000e+000 0.000000e+000 0.000000e+000
<ENDHMM>
~h "aa"
<BEGINHMM>
<NUMSTATES> 5
<STATE> 2
<MEAN> 25
 4.390788e+000 -4.734625e+000 -1.370052e+000 -4.476894e-001 2.803638e+000 6.603711e-001 3.472400e-001 5.120806e-001 2.085561e-001 -3.678142e+000 -3.453895e+000 -5.126883e-001 7.611085e-001 -6.466138e-001 -1.288684e-001 -7.098245e-001 1.363085e-001 -8.107604e-002 -1.020708e-001 1.617975e-001 5.230586e-002 -4.385088e-001 -7.036516e-001 -6.988934e-004 1.899065e+000
<VARIANCE> 25
 4.871042e+001 8.127898e+001 5.070157e+001 5.099125e+001 4.220510e+001 3.745910e+001 4.045684e+001 4.239043e+001 4.677272e+001 5.075171e+001 4.490474e+001 2.578818e+001 4.443905e+000 5.592518e+000 3.547423e+000 4.300399e+000 3.482976e+000 3.801602e+000 3.393365e+000 3.661266e+000 3.890665e+000 4.199851e+000 3.606212e+000 2.562047e+000 7.199047e+000
<GCONST> 1.097598e+002
<STATE> 3
<MEAN> 25
 7.223392e+000 -6.323252e+000 -9.783606e-001 -3.982625e+000 2.136969e+000 2.102726e-001 -1.345554e+000 3.797117e-001 -7.488815e-001 -6.282249e+000 -5.763412e+000 -5.325698e-001 1.302470e-001 1.296870e-001 7.928386e-002 -2.916237e-001 1.813099e-002 -1.529128e-001 3.252102e-003 2.654973e-001 -4.237861e-001 1.869895e-001 2.823059e-002 5.738995e-002 3.906308e-001
<VARIANCE> 25
 5.740335e+001 6.423928e+001 5.568192e+001 4.904333e+001 5.745662e+001 4.259258e+001 5.791584e+001 4.847572e+001 6.289704e+001 6.440588e+001 4.749678e+001 3.810682e+001 2.110889e+000 1.641472e+000 2.130347e+000 2.794565e+000 2.981513e+000 2.705496e+000 2.268877e+000 3.061722e+000 2.588228e+000 2.851110e+000 2.530742e+000 2.080967e+000 2.661001e+000
<GCONST> 1.053139e+002
<STATE> 4
<MEAN> 25
 5.697353e+000 -4.803187e+000 -1.488814e+000 -6.357064e+000 1.612733e+000 -1.715312e+000 1.169337e+000 2.125819e+000 6.828642e-001 3.234352e-001 -5.289321e+000 -1.484694e+000 2.327234e-002 2.149282e-001 2.170145e-001 1.952737e-001 -1.660600e-001 -1.065584e-001 3.543926e-002 -2.115783e-002 -4.850176e-002 2.183752e-001 1.721858e-001 -8.248057e-002 -1.883622e-001
<VARIANCE> 25
 7.499303e+001 3.552104e+001 4.839489e+001 4.274052e+001 5.484656e+001 4.209940e+001 5.253453e+001 4.739999e+001 4.977359e+001 5.871825e+001 4.637804e+001 3.343471e+001 1.370489e+000 1.224499e+000 1.580892e+000 2.253850e+000 2.542984e+000 2.296270e+000 2.636683e+000 2.830562e+000 2.646960e+000 2.776932e+000 2.537124e+000 2.472345e+000 1.513515e+000
<GCONST> 1.021686e+002
<TRANSP> 5
 0.000000e+000 1.000000e+000 0.000000e+000 0.000000e+000 0.000000e+000
 0.000000e+000 7.580259e-001 2.419741e-001 0.000000e+000 0.000000e+000
 0.000000e+000 0.000000e+000 6.235256e-001 3.764744e-001 0.000000e+000
 0.000000e+000 0.000000e+000 0.000000e+000 8.273035e-001 1.726965e-001
 0.000000e+000 0.000000e+000 0.000000e+000 0.000000e+000 0.000000e+000
<ENDHMM>
~h "ae"
<BEGINHMM>
<NUMSTATES> 5
<STATE> 2
<MEAN> 25
 -5.564771e-001 -1.715472e+000 -1.205585e-001 1.077139e+000 -3.807049e-001 7.326862e-001 -2.380204e+000 -1.990921e+000 -1.211381e+000 -2.208736e+000 -1.967672e+000 1.844842e-001 1.565378e-002 -2.040693e-001 8.107276e-003 -2.035499e-001 -5.488362e-002 9.506123e-002 1.213335e-001 -2.414868e-002 -1.161736e-001 -1.093303e-002 -1.368717e-001 8.195613e-002 2.964064e-001
<VARIANCE> 25
 5.547185e+001 2.288529e+001 2.846541e+001 4.185487e+001 3.229811e+001 2.956519e+001 2.916095e+001 3.004349e+001 2.382412e+001 3.150647e+001 4.164146e+001 1.626394e+001 8.188052e-001 6.280633e-001 8.763363e-001 1.302131e+000 1.307736e+000 1.549741e+000 2.040943e+000 1.698352e+000 1.448624e+000 1.726864e+000 1.555999e+000 1.257587e+000 1.909685e+000
<GCONST> 9.060381e+001
<STATE> 3
<MEAN> 25
 6.773394e+000 -1.702437e+000 3.478637e+000 -1.681335e+000 2.397545e+000 3.543460e-002 -7.374372e+000 -2.883715e+000 -1.627271e+000 -2.389809e+000 -3.045905e+000 7.982868e-001 3.449604e-001 -3.109443e-001 -7.054008e-002 -3.075403e-001 -1.330933e-001 -4.627559e-001 -1.410828e-001 2.141947e-001 1.140641e-001 9.620269e-002 -4.080507e-002 1.268636e-002 7.041065e-001
<VARIANCE> 25
 4.180256e+001 2.478302e+001 3.570913e+001 4.007454e+001 8.748814e+001 3.815247e+001 8.920321e+001 6.176852e+001 5.581075e+001 4.946918e+001 1.029522e+002 2.599759e+001 1.471384e+000 1.738444e+000 1.570212e+000 1.943403e+000 2.627850e+000 2.682303e+000 3.642285e+000 3.151746e+000 2.206899e+000 2.677053e+000 2.396222e+000 1.647598e+000 5.211608e+000
<GCONST> 1.039478e+002
<STATE> 4
<MEAN> 25
 5.633454e+000 -5.829668e+000 1.843254e+000 -5.406675e+000 2.105516e-001 -3.511453e+000 6.919845e-003 3.787999e+000 -1.024610e-001 1.390907e+000 -4.729945e+000 -2.099345e-002 1.243602e-001 8.816292e-002 5.043381e-002 -1.651063e-001 -1.858885e-001 -3.721197e-001 1.930280e-001 2.543934e-001 1.016322e-002 5.645668e-002 2.661251e-002 -4.157810e-002 6.649361e-001
<VARIANCE> 25
 5.895248e+001 4.433069e+001 3.854431e+001 3.791391e+001 7.703109e+001 4.688625e+001 7.098830e+001 6.967767e+001 3.809041e+001 8.524998e+001 5.834420e+001 2.727858e+001 2.020798e+000 2.465524e+000 2.183626e+000 2.163551e+000 2.948463e+000 2.980923e+000 3.383276e+000 3.158032e+000 1.945444e+000 3.190594e+000 2.462315e+000 1.827513e+000 3.937232e+000
<GCONST> 1.056600e+002
<TRANSP> 5
 0.000000e+000 1.000000e+000 0.000000e+000 0.000000e+000 0.000000e+000
 0.000000e+000 6.988442e-001 3.011558e-001 0.000000e+000 0.000000e+000
 0.000000e+000 0.000000e+000 5.853730e-001 4.146270e-001 0.000000e+000
 0.000000e+000 0.000000e+000 0.000000e+000 8.081988e-001 1.918013e-001
 0.000000e+000 0.000000e+000 0.000000e+000 0.000000e+000 0.000000e+000
<ENDHMM>
~h "ah"
<BEGINHMM>
<NUMSTATES> 5
<STATE> 2
<MEAN> 25
 1.797054e+000 9.670793e-001 -1.137749e+000 -2.459198e+000 1.842507e+000 -4.666038e-001 9.626354e-001 1.900980e+000 -1.075130e+000 3.859653e-001 3.057521e-001 2.397423e-001 7.284929e-001 4.252226e-002 4.335175e-002 -6.499135e-001 -1.301791e-001 -1.549547e-001 4.441586e-002 1.349431e-001 1.151219e-001 1.229956e-001 -1.767892e-002 -1.561801e-001 1.345362e+000
<VARIANCE> 25
 1.012020e+002 6.283311e+001 5.089161e+001 5.909610e+001 6.205368e+001 5.490290e+001 4.176514e+001 4.534938e+001 5.290232e+001 3.706265e+001 3.659844e+001 2.579743e+001 8.192065e+000 4.848363e+000 4.071488e+000 5.264381e+000 4.972060e+000 4.897038e+000 3.683248e+000 4.270219e+000 4.956151e+000 3.606914e+000 3.315840e+000 2.637526e+000 9.682942e+000
<GCONST> 1.128419e+002
<STATE> 3
<MEAN> 25
 3.773015e+000 -1.122465e-001 -8.288636e-001 -2.704111e+000 5.848323e-001 -6.561397e-001 -1.685574e-001 1.905256e+000 -3.481752e-001 7.312683e-001 -8.619055e-001 -3.572926e-001 1.469764e-001 -1.129825e-001 -1.372310e-001 -9.061515e-002 -4.259795e-002 1.154392e-001 -1.176282e-001 -4.863279e-002 1.155518e-001 -2.503959e-002 -2.184460e-001 -1.087859e-001 4.299542e-002
<VARIANCE> 25
 8.180801e+001 5.155212e+001 5.405359e+001 6.142238e+001 4.947824e+001 5.811982e+001 4.302915e+001 4.327426e+001 5.047462e+001 3.551305e+001 3.760065e+001 2.668087e+001 3.274270e+000 2.017957e+000 2.157836e+000 2.633195e+000 2.934831e+000 3.094243e+000 2.631537e+000 2.749164e+000 3.226547e+000 2.670442e+000 2.861032e+000 2.321786e+000 3.087023e+000
<GCONST> 1.052824e+002
<STATE> 4
<MEAN> 25
 2.112607e+000 -5.420724e-001 -1.029986e+000 -3.291909e-001 1.402122e+000 9.350630e-001 -3.863043e-001 1.104700e+000 1.130148e+000 4.154240e-001 -1.484953e+000 7.099875e-002 -1.444032e-001 -3.548316e-002 3.895050e-002 1.572461e-001 5.320884e-003 -1.012826e-002 1.055463e-002 -6.167537e-002 -2.975892e-002 -9.141700e-002 -8.243459e-002 4.855863e-003 -1.932636e-001
<VARIANCE> 25
 7.395840e+001 3.054097e+001 2.780926e+001 6.141964e+001 4.053477e+001 4.358131e+001 3.772143e+001 3.534403e+001 4.943739e+001 2.924283e+001 3.716803e+001 2.454738e+001 1.195558e+000 1.368896e+000 1.464446e+000 2.191145e+000 2.302927e+000 2.546079e+000 2.193224e+000 2.517046e+000 2.610789e+000 2.234493e+000 2.344988e+000 2.052812e+000 1.266969e+000
<GCONST> 9.858464e+001
<TRANSP> 5
 0.000000e+000 1.000000e+000 0.000000e+000 0.000000e+000 0.000000e+000
 0.000000e+000 6.388150e-001 3.611850e-001 0.000000e+000 0.000000e+000
 0.000000e+000 0.000000e+000 3.427665e-001 6.572335e-001 0.000000e+000
 0.000000e+000 0.000000e+000 0.000000e+000 8.160279e-001 1.839721e-001
 0.000000e+000 0.000000e+000 0.000000e+000 0.000000e+000 0.000000e+000
<ENDHMM>
~h "ao"
<BEGINHMM>
<NUMSTATES> 5
<STATE> 2
<MEAN> 25
 7.430496e+000 1.263062e-001 4.335073e-001 -4.151637e+000 -3.306180e+000 -4.524031e+000 -4.398621e+000 -5.302569e+000 -1.276756e+000 -2.377935e-002 -1.168125e+000 -7.489721e-001 2.217249e-001 3.607824e-001 -5.660002e-002 -2.748459e-001 -1.757820e-001 1.756664e-001 -3.408152e-002 -1.670713e-001 -1.198821e-001 4.020480e-001 2.567998e-001 7.613833e-002 -2.384731e-001
<VARIANCE> 25
 4.791569e+001 2.183151e+001 3.953934e+001 3.113737e+001 3.221764e+001 3.428258e+001 3.549009e+001 5.582122e+001 3.874683e+001 2.606460e+001 3.803130e+001 2.785051e+001 2.813737e+000 1.857479e+000 1.487522e+000 2.146815e+000 2.581772e+000 2.291868e+000 2.091858e+000 3.213599e+000 2.652156e+000 2.334701e+000 2.410894e+000 2.238508e+000 2.814860e+000
<GCONST> 9.953897e+001
<STATE> 3
<MEAN> 25
 8.022511e+000 3.339308e+000 1.660757e-001 -3.187391e+000 -3.967792e-001 -1.700598e+000 -3.232821e+000 -1.500624e+000 -2.425415e+000 1.888856e+000 2.521106e-001 -1.024333e+000 4.285523e-002 2.419431e-001 1.328725e-001 -1.198572e-001 -3.774576e-002 3.852755e-001 2.858811e-001 1.416128e-001 -4.842883e-002 9.255394e-002 1.313185e-001 9.246321e-002 -2.100281e-001
<VARIANCE> 25
 4.042822e+001 2.522030e+001 3.251540e+001 4.151744e+001 2.888302e+001 3.225520e+001 2.419615e+001 3.495076e+001 3.003741e+001 2.292853e+001 2.818382e+001 1.896423e+001 2.199055e+000 1.772750e+000 1.599282e+000 2.286436e+000 1.885975e+000 1.756339e+000 1.865559e+000 2.353468e+000 2.719596e+000 1.754610e+000 1.769709e+000 1.518871e+000 2.176042e+000
<GCONST> 9.513838e+001
<STATE> 4
<MEAN> 25
 1.501121e+001 2.783952e+000 -3.980126e+000 -1.076646e+001 -2.033851e+000 7.710076e+000 3.626686e-001 -4.521009e+000 -7.904423e-001 4.114022e+000 3.277568e+000 -7.412759e-001 -1.952341e-001 -2.703850e-001 2.275605e-001 3.160461e-001 4.154490e-001 -1.820204e-001 -2.371522e-001 1.453107e-001 2.212707e-001 1.771864e-002 -1.087649e-001 -1.122583e-001 5.837734e-002
<VARIANCE> 25
 3.402112e+001 5.038949e+001 3.007830e+001 8.219698e+001 5.692173e+001 7.230139e+001 5.538005e+001 5.669767e+001 5.253143e+001 4.352531e+001 4.736015e+001 2.938363e+001 1.744476e+000 2.229565e+000 1.662387e+000 3.688579e+000 2.948804e+000 4.583006e+000 3.747746e+000 4.092277e+000 2.695925e+000 3.236261e+000 3.012080e+000 2.284566e+000 2.411573e+000
<GCONST> 1.060351e+002
<TRANSP> 5
 0.000000e+000 1.000000e+000 0.000000e+000 0.000000e+000 0.000000e+000
 0.000000e+000 7.697381e-001 2.302620e-001 0.000000e+000 0.000000e+000
 0.000000e+000 0.000000e+000 8.348272e-001 1.651728e-001 0.000000e+000
 0.000000e+000 0.000000e+000 0.000000e+000 8.802093e-001 1.197907e-001
 0.000000e+000 0.000000e+000 0.000000e+000 0.000000e+000 0.000000e+000
<ENDHMM>
~h "aw"
<BEGINHMM>
<NUMSTATES> 5
<STATE> 2
<MEAN> 25
 1.512305e+000 -4.242834e+000 6.482483e-001 -1.309693e+000 4.359848e+000 2.007751e+000 5.210742e-001 2.553260e-001 -3.083860e+000 -2.032787e-001 -7.174233e-001 -1.424725e-001 6.333513e-001 -6.186908e-001 6.537527e-001 -1.342667e+000 -4.909543e-001 8.013256e-001 2.604923e-001 -5.665268e-002 -3.669641e-001 3.865240e-001 -4.914479e-002 -2.639932e-001 1.272989e+000
<VARIANCE> 25
 5.799270e+001 5.774258e+001 1.396889e+002 6.245295e+001 8.468224e+001 7.277466e+001 5.310923e+001 4.391874e+001 6.824714e+001 4.422522e+001 4.034874e+001 2.611247e+001 8.782903e+000 6.357951e+000 7.497037e+000 6.761829e+000 5.557921e+000 6.409011e+000 6.609632e+000 4.499117e+000 4.154730e+000 4.707011e+000 3.822916e+000 2.335239e+000 4.548845e+000
<GCONST> 1.161814e+002
<STATE> 3
<MEAN> 25
 -2.227124e-001 -9.052320e+000 7.140203e+000 -7.177796e+000 3.353706e+000 2.728187e+000 1.260777e+000 1.568170e+000 -8.024971e+000 1.616302e+000 2.854415e-002 -9.509529e-001 5.288021e-001 -5.081236e-002 -2.799205e-001 -7.241578e-001 -7.097902e-001 2.325376e-001 1.833293e-001 -2.111816e-001 -8.692531e-002 -2.113964e-001 -2.054874e-003 -1.883571e-001 6.453694e-001
<VARIANCE> 25
 8.693111e+001 8.695050e+001 1.695339e+002 7.133300e+001 6.520444e+001 7.787531e+001 5.699271e+001 5.256505e+001 8.681413e+001 4.223989e+001 3.298264e+001 2.278120e+001 5.342888e+000 4.407794e+000 3.619914e+000 4.021225e+000 4.024907e+000 3.418332e+000 4.036530e+000 3.451510e+000 4.265822e+000 3.719687e+000 2.918483e+000 2.095870e+000 5.052614e+000
<GCONST> 1.129327e+002
<STATE> 4
<MEAN> 25
 7.624773e+000 -4.688872e+000 -3.199125e+000 -1.262607e+001 -1.778592e+000 8.284014e+000 1.302862e+000 -9.261148e-001 -3.524265e+000 -2.100548e-002 1.296549e+000 -2.836124e+000 4.403706e-001 4.948480e-001 5.394522e-002 2.458274e-002 -5.185986e-001 -3.060786e-001 -3.692724e-001 -2.871503e-004 2.530144e-001 1.635597e-002 -1.499437e-001 -1.995357e-001 1.675344e-002
<VARIANCE> 25
 8.795681e+001 9.164768e+001 7.825928e+001 1.164270e+002 6.295906e+001 1.008879e+002 4.846725e+001 4.505737e+001 5.467962e+001 4.038608e+001 4.639966e+001 2.242578e+001 1.679056e+000 1.886953e+000 2.208160e+000 2.839577e+000 2.663146e+000 2.565991e+000 2.259917e+000 2.339150e+000 2.689767e+000 2.199460e+000 3.437076e+000 1.363431e+000 1.977804e+000
<GCONST> 1.057321e+002
<TRANSP> 5
 0.000000e+000 1.000000e+000 0.000000e+000 0.000000e+000 0.000000e+000
 0.000000e+000 6.329946e-001 3.670054e-001 0.000000e+000 0.000000e+000
 0.000000e+000 0.000000e+000 7.040182e-001 2.959817e-001 0.000000e+000
 0.000000e+000 0.000000e+000 0.000000e+000 8.186759e-001 1.813241e-001
 0.000000e+000 0.000000e+000 0.000000e+000 0.000000e+000 0.000000e+000
<ENDHMM>
~h "ay"
<BEGINHMM>
<NUMSTATES> 5
<STATE> 2
<MEAN> 25
 -8.842376e-001 1.269965e+000 1.705377e+000 1.544233e+000 2.022186e+000 -1.202479e+000 6.373860e-001 3.966230e-001 -1.330186e+000 -2.055681e-001 -4.384642e-001 -7.331296e-002 -2.687475e-001 -1.045877e-001 -3.215862e-001 3.080065e-001 2.064228e-001 3.211140e-001 7.898576e-002 -1.051683e-001 1.908261e-002 -1.195385e-001 1.642729e-002 3.677187e-003 -4.296417e-001
<VARIANCE> 25
 8.184649e+001 2.590869e+001 3.712693e+001 4.263062e+001 4.049293e+001 4.208018e+001 4.840236e+001 3.526694e+001 4.157034e+001 2.862293e+001 3.200922e+001 1.861414e+001 1.953815e+000 1.499838e+000 2.051243e+000 1.984859e+000 2.450332e+000 2.587621e+000 2.509151e+000 2.539268e+000 2.542772e+000 2.101099e+000 1.902158e+000 1.352572e+000 1.591343e+000
<GCONST> 9.859121e+001
<STATE> 3
<MEAN> 25
 -1.669174e+000 -1.788852e-001 1.330536e-001 2.265289e+000 1.181406e+000 1.002602e-001 -2.190527e-001 -8.071738e-001 -1.684814e+000 -1.374714e+000 -3.550448e-001 -4.294476e-002 -9.894948e-002 -7.153537e-002 -1.333147e-001 8.971993e-002 -2.556890e-002 1.391280e-001 3.961541e-002 -4.984785e-002 8.400349e-003 -7.575560e-002 -1.932193e-002 2.403302e-002 -2.327817e-001
<VARIANCE> 25
 5.936797e+001 1.829128e+001 2.489852e+001 2.972857e+001 2.689681e+001 2.789850e+001 3.553414e+001 2.989958e+001 3.336699e+001 2.339296e+001 2.677659e+001 1.499373e+001 5.421271e-001 7.675008e-001 9.138324e-001 1.067170e+000 1.348505e+000 1.476897e+000 1.568808e+000 1.620313e+000 1.604345e+000 1.452123e+000 1.284302e+000 1.095293e+000 4.628475e-001
<GCONST> 8.692463e+001
<STATE> 4
<MEAN> 25
 1.732243e-001 -5.378630e-001 7.342115e-001 2.127640e+000 1.584473e-001 -1.553999e-001 -6.999764e-001 -2.312077e-001 -1.613242e+000 -1.702701e+000 -5.918425e-001 -4.960383e-001 -1.568840e-002 1.016225e-002 2.373470e-002 1.855469e-002 5.293602e-003 1.471528e-002 1.255393e-002 -2.390078e-002 -2.393890e-002 8.574461e-002 6.367697e-002 5.350298e-002 -9.985378e-002
<VARIANCE> 25
 5.170095e+001 1.976637e+001 2.490715e+001 2.705437e+001 3.684332e+001 2.265158e+001 2.647262e+001 2.200742e+001 2.148284e+001 2.661498e+001 2.556141e+001 1.432767e+001 6.487812e-001 8.998997e-001 1.014217e+000 1.191148e+000 1.706412e+000 1.631174e+000 1.513804e+000 1.505175e+000 1.518336e+000 1.610327e+000 1.348997e+000 1.154033e+000 6.844894e-001
<GCONST> 8.719151e+001
<TRANSP> 5
 0.000000e+000 1.000000e+000 0.000000e+000 0.000000e+000 0.000000e+000
 0.000000e+000 5.644848e-001 4.355153e-001 0.000000e+000 0.000000e+000
 0.000000e+000 0.000000e+000 6.661833e-001 3.338167e-001 0.000000e+000
 0.000000e+000 0.000000e+000 0.000000e+000 8.735693e-001 1.264307e-001
 0.000000e+000 0.000000e+000 0.000000e+000 0.000000e+000 0.000000e+000
<ENDHMM>
~h "ch"
<BEGINHMM>
<NUMSTATES> 5
<STATE> 2
<MEAN> 25
 -1.544319e+000 -3.526751e+000 4.942398e+000 -1.551970e+000 3.730822e+000 -2.490852e+000 -1.321312e+000 3.985319e+000 9.844643e-001 -2.435745e-001 -1.387823e+000 -8.690535e-002 -9.339013e-001 -3.470286e-001 6.043142e-001 -5.702989e-001 -1.491687e-001 -1.296802e-001 8.739273e-002 4.970642e-001 -7.037425e-002 1.775609e-002 3.534582e-001 1.771797e-001 5.854183e-001
<VARIANCE> 25
 9.179205e+001 1.109392e+002 7.230052e+001 5.502327e+001 5.619658e+001 4.558484e+001 4.482544e+001 4.907065e+001 9.374317e+001 4.680903e+001 5.276263e+001 2.635513e+001 8.178100e+000 8.104233e+000 7.057147e+000 4.988862e+000 4.844209e+000 4.076834e+000 5.036901e+000 5.724845e+000 6.817854e+000 3.845007e+000 3.828589e+000 2.280734e+000 3.786986e+000
<GCONST> 1.154973e+002
<STATE> 3
<MEAN> 25
 -4.391829e+000 -9.649950e+000 1.144183e+001 -6.305372e+000 1.693254e+000 -2.030736e+000 6.963244e-001 5.758805e+000 -5.834175e+000 2.588292e+000 1.672990e+000 -7.900956e-001 -3.739021e-001 -1.192873e-001 1.294233e-001 3.989933e-002 -1.387123e-001 -1.697327e-001 1.725049e-001 1.859994e-001 -1.352834e-001 -6.846441e-002 2.249734e-001 1.041260e-001 -5.460253e-002
<VARIANCE> 25
 9.706316e+001 1.024282e+002 9.982155e+001 4.214233e+001 4.676237e+001 3.937888e+001 4.716140e+001 3.272462e+001 7.810506e+001 4.184370e+001 3.390400e+001 1.635672e+001 3.899034e+000 4.058778e+000 3.938411e+000 2.633311e+000 2.915878e+000 2.023813e+000 2.880342e+000 2.315268e+000 3.550285e+000 2.522124e+000 2.611747e+000 1.268024e+000 1.691343e+000
<GCONST> 1.054544e+002
<STATE> 4
<MEAN> 25
 -8.816249e+000 5.510419e-001 5.278296e+000 -6.202919e-001 2.957468e+000 -5.810180e+000 2.541978e+000 6.284083e+000 -6.660783e-001 -2.242673e+000 3.569336e+000 1.946166e+000 6.211041e-001 2.894313e-002 -3.606343e-001 2.401415e-001 2.413689e-001 1.951742e-001 -3.393603e-001 -1.159199e-001 -5.794191e-002 1.317097e-001 -5.105123e-002 -2.242819e-001 -7.002172e-001
<VARIANCE> 25
 8.283300e+001 8.666350e+001 6.841558e+001 6.924892e+001 6.943402e+001 5.972998e+001 4.380401e+001 6.841715e+001 4.354677e+001 3.431102e+001 3.029658e+001 1.993694e+001 2.848949e+000 3.026208e+000 3.783187e+000 3.495669e+000 3.214720e+000 4.283749e+000 2.858636e+000 4.666461e+000 3.176623e+000 3.220483e+000 2.172991e+000 2.026156e+000 1.892416e+000
<GCONST> 1.077327e+002
<TRANSP> 5
 0.000000e+000 1.000000e+000 0.000000e+000 0.000000e+000 0.000000e+000
 0.000000e+000 8.331217e-001 1.668783e-001 0.000000e+000 0.000000e+000
 0.000000e+000 0.000000e+000 8.340966e-001 1.659034e-001 0.000000e+000
 0.000000e+000 0.000000e+000 0.000000e+000 8.337064e-001 1.662936e-001
 0.000000e+000 0.000000e+000 0.000000e+000 0.000000e+000 0.000000e+000
<ENDHMM>
~h "dh"
<BEGINHMM>
<NUMSTATES> 5
<STATE> 2
<MEAN> 25
 2.841635e+000 3.011781e+000 1.205374e+000 -3.961546e-001 5.554236e-001 1.760791e-002 -1.444723e+000 -2.194732e+000 -1.970971e+000 4.250580e-001 -3.331171e-001 6.752383e-001 2.417948e-001 -4.864778e-001 1.241851e-001 -8.791406e-001 -7.276495e-001 -4.417317e-001 -4.615017e-001 -3.828679e-001 8.817544e-002 6.534820e-002 2.292544e-001 9.515784e-003 1.359793e+000
<VARIANCE> 25
 4.159606e+001 3.435463e+001 3.646032e+001 4.451920e+001 5.787992e+001 3.803978e+001 4.179231e+001 2.485629e+001 5.628979e+001 2.089063e+001 3.026158e+001 1.577198e+001 4.314717e+000 4.006248e+000 4.404186e+000 3.762039e+000 6.920238e+000 3.011603e+000 3.921713e+000 3.636338e+000 7.423284e+000 2.586809e+000 2.870104e+000 1.844678e+000 5.303000e+000
<GCONST> 1.061264e+002
<STATE> 3
<MEAN> 25
 2.646473e+000 8.957710e-001 1.124495e+000 -2.665138e+000 -1.775903e+000 -1.895322e+000 -1.727152e+000 -2.695329e+000 -1.067381e+000 1.043578e+000 5.802376e-001 4.503134e-001 3.426271e-001 -6.285034e-001 6.884568e-001 -1.014658e+000 -1.155453e+000 -4.266139e-001 -3.617289e-001 -6.290499e-002 -2.464830e-002 -2.484612e-002 -5.580198e-002 -3.225840e-001 1.839740e+000
<VARIANCE> 25
 4.433925e+001 4.624703e+001 4.294424e+001 4.795130e+001 7.307540e+001 3.948195e+001 3.574592e+001 2.618895e+001 5.846480e+001 3.227760e+001 2.966431e+001 1.537690e+001 5.358979e+000 5.055749e+000 7.190050e+000 4.608242e+000 8.150291e+000 3.452885e+000 5.247206e+000 3.230574e+000 6.527900e+000 2.758436e+000 4.003234e+000 2.050932e+000 8.220316e+000
<GCONST> 1.097478e+002
<STATE> 4
<MEAN> 25
 3.533639e+000 1.377966e+000 -1.248301e+000 -8.531420e+000 -3.953517e+000 6.493002e+000 7.023275e-001 -9.861417e-001 3.901007e+000 -2.128867e+000 -1.154672e+000 -6.283218e-001 1.084996e-001 -8.086498e-001 -8.045293e-002 -4.962035e-001 8.829739e-002 7.763308e-002 -9.985590e-002 2.693280e-001 1.480742e-001 -6.838109e-002 1.216360e-001 -4.553728e-001 1.533166e+000
<VARIANCE> 25
 9.048741e+001 9.168369e+001 8.241168e+001 1.032800e+002 5.086924e+001 7.676335e+001 5.301081e+001 4.171004e+001 6.552860e+001 5.686797e+001 7.409999e+001 4.613785e+001 9.668396e+000 4.572978e+000 5.508186e+000 7.392805e+000 5.243712e+000 3.172786e+000 4.923470e+000 4.145660e+000 4.346726e+000 5.471212e+000 5.499517e+000 4.108118e+000 2.048756e+001
<GCONST> 1.189810e+002
<TRANSP> 5
 0.000000e+000 1.000000e+000 0.000000e+000 0.000000e+000 0.000000e+000
 0.000000e+000 3.083011e-001 6.916988e-001 0.000000e+000 0.000000e+000
 0.000000e+000 0.000000e+000 3.936456e-001 6.063544e-001 0.000000e+000
 0.000000e+000 0.000000e+000 0.000000e+000 7.997280e-001 2.002721e-001
 0.000000e+000 0.000000e+000 0.000000e+000 0.000000e+000 0.000000e+000
<ENDHMM>
~h "eh"
<BEGINHMM>
<NUMSTATES> 5
<STATE> 2
<MEAN> 25
 -2.771635e+000 -7.686804e+000 1.098780e+001 -5.453589e+000 -4.588671e-001 -2.594784e+000 -1.956869e-003 3.755216e+000 -3.968910e+000 2.661312e+000 1.059296e+000 1.225337e-002 -1.016598e+000 -8.404831e-001 8.145472e-001 -4.117298e-001 -4.177167e-001 -1.249078e-001 4.908477e-001 6.071998e-001 -3.124686e-001 1.690934e-001 1.750614e-001 8.810926e-002 3.427254e-001
<VARIANCE> 25
 8.623660e+001 8.012416e+001 1.100470e+002 3.755762e+001 7.790242e+001 4.187041e+001 3.312083e+001 3.797923e+001 7.471536e+001 3.662821e+001 2.389472e+001 1.783589e+001 3.491392e+000 3.699162e+000 4.090863e+000 1.682643e+000 2.157806e+000 1.859406e+000 3.057764e+000 2.273468e+000 2.520973e+000 2.122511e+000 1.739528e+000 1.703819e+000 2.199861e+000
<GCONST> 1.036790e+002
<STATE> 3
<MEAN> 25
 -4.582264e+000 -8.740296e+000 9.380787e+000 -5.085267e+000 -2.509698e+000 -4.134218e+000 1.246968e+000 5.728067e+000 -2.842336e+000 1.874352e+000 8.298137e-001 -1.733951e-001 4.059336e-001 3.613391e-001 -4.231808e-001 3.155721e-001 -2.607807e-001 1.490388e-001 1.429988e-001 -1.396498e-001 9.637935e-002 -2.101587e-001 -7.948516e-002 -5.919830e-002 -6.850671e-001
<VARIANCE> 25
 8.038614e+001 7.469582e+001 8.001696e+001 3.317589e+001 6.537132e+001 3.696554e+001 3.452573e+001 4.817296e+001 6.555352e+001 2.650469e+001 2.815763e+001 1.860655e+001 1.470898e+000 2.076118e+000 2.044927e+000 1.713485e+000 1.883280e+000 1.904906e+000 2.091948e+000 1.907224e+000 2.357860e+000 1.592079e+000 1.681818e+000 1.324083e+000 1.648820e+000
<GCONST> 9.911426e+001
<STATE> 4
<MEAN> 25
 -2.708795e+000 -4.913812e+000 7.675282e+000 2.294238e-001 -8.509732e+000 7.021562e-001 4.874683e+000 -1.528029e+000 2.995316e+000 -2.894385e+000 9.353942e-001 4.778875e-001 4.601969e-001 2.823180e-001 -1.847543e-001 2.889962e-001 2.533584e-001 3.620318e-002 -2.258303e-001 -2.370547e-001 -1.016193e-001 -1.124307e-001 -1.763644e-001 -1.758006e-002 -4.106646e-001
<VARIANCE> 25
 9.541761e+001 5.887684e+001 6.455649e+001 5.958117e+001 8.726681e+001 6.564793e+001 5.912901e+001 6.555110e+001 8.092892e+001 4.802999e+001 3.373547e+001 3.309206e+001 5.162580e+000 4.788117e+000 4.712444e+000 4.186672e+000 7.902474e+000 4.725955e+000 5.113229e+000 4.798219e+000 5.422405e+000 3.207459e+000 3.180326e+000 2.551292e+000 4.490819e+000
<GCONST> 1.144962e+002
<TRANSP> 5
 0.000000e+000 1.000000e+000 0.000000e+000 0.000000e+000 0.000000e+000
 0.000000e+000 6.840584e-001 3.159416e-001 0.000000e+000 0.000000e+000
 0.000000e+000 0.000000e+000 7.736318e-001 2.263681e-001 0.000000e+000
 0.000000e+000 0.000000e+000 0.000000e+000 8.367609e-001 1.632391e-001
 0.000000e+000 0.000000e+000 0.000000e+000 0.000000e+000 0.000000e+000
<ENDHMM>
~h "er"
<BEGINHMM>
<NUMSTATES> 5
<STATE> 2
<MEAN> 25
 3.079685e+000 -2.477292e+000 -2.426003e+000 -3.619652e+000 -7.882626e-002 -1.978293e+000 -5.189281e-001 -5.261505e-001 3.796894e+000 1.572682e+000 -1.598695e+000 -1.820434e+000 -7.216921e-002 -4.684308e-001 -2.270885e-001 9.181412e-002 -1.142586e-001 -6.350383e-001 -1.820845e-001 5.612676e-001 6.103370e-001 1.982644e-001 -3.679039e-001 -2.534629e-001 5.635924e-001
<VARIANCE> 25
 5.645573e+001 2.957517e+001 4.633361e+001 4.973491e+001 2.997725e+001 6.236712e+001 5.136318e+001 4.193386e+001 4.881514e+001 4.023233e+001 7.394227e+001 2.260314e+001 3.609766e+000 2.303030e+000 2.569970e+000 2.831809e+000 2.790448e+000 4.214946e+000 3.482513e+000 4.291363e+000 3.796317e+000 3.507577e+000 4.230703e+000 2.046037e+000 4.748723e+000
<GCONST> 1.068995e+002
<STATE> 3
<MEAN> 25
 5.419869e+000 -3.565372e+000 -2.996634e+000 -3.197810e+000 -8.127365e-001 -5.934168e+000 -2.458843e+000 1.670796e+000 5.922315e+000 2.034477e+000 -3.466909e+000 -3.063958e+000 4.687544e-001 -2.055183e-001 1.385593e-001 3.378049e-001 -6.763539e-002 -5.875471e-001 -4.046664e-001 4.718991e-001 1.320443e-001 -1.987137e-002 -1.911737e-001 5.417160e-002 -1.776415e-001
<VARIANCE> 25
 7.000398e+001 2.776487e+001 2.785582e+001 3.960797e+001 2.405409e+001 5.994514e+001 5.038652e+001 3.743814e+001 4.997452e+001 3.626096e+001 4.758387e+001 1.998804e+001 3.403635e+000 1.978400e+000 1.822672e+000 2.257785e+000 2.352348e+000 3.488874e+000 3.049997e+000 3.980171e+000 3.482632e+000 2.625711e+000 3.514350e+000 2.211768e+000 3.385532e+000
<GCONST> 1.031079e+002
<STATE> 4
<MEAN> 25
 7.491855e+000 -4.711974e+000 -3.989594e+000 1.150473e+000 -3.246549e-001 -7.904876e+000 -2.659499e+000 5.295263e+000 5.079421e+000 7.872535e-004 -3.340657e+000 -1.707564e+000 -6.321275e-002 6.719600e-002 5.035064e-002 1.623493e-001 3.958761e-002 1.515624e-001 7.087957e-002 -7.169895e-002 -2.197838e-001 2.587381e-002 1.207297e-001 1.395496e-001 -4.278864e-001
<VARIANCE> 25
 4.808020e+001 3.479660e+001 3.564111e+001 6.834455e+001 6.415039e+001 8.794524e+001 9.153924e+001 5.502813e+001 5.633960e+001 4.380273e+001 4.283286e+001 3.379971e+001 3.328816e+000 2.605829e+000 2.246594e+000 4.024334e+000 4.668249e+000 5.761652e+000 4.849150e+000 4.556331e+000 4.696722e+000 2.956048e+000 3.319986e+000 2.842298e+000 3.945777e+000
<GCONST> 1.104162e+002
<TRANSP> 5
 0.000000e+000 1.000000e+000 0.000000e+000 0.000000e+000 0.000000e+000
 0.000000e+000 7.322680e-001 2.677320e-001 0.000000e+000 0.000000e+000
 0.000000e+000 0.000000e+000 7.357435e-001 2.642565e-001 0.000000e+000
 0.000000e+000 0.000000e+000 0.000000e+000 9.191229e-001 8.087714e-002
 0.000000e+000 0.000000e+000 0.000000e+000 0.000000e+000 0.000000e+000
<ENDHMM>
~h "ey"
<BEGINHMM>
<NUMSTATES> 5
<STATE> 2
<MEAN> 25
 6.171503e+000 6.138074e-001 8.675065e-002 8.075261e-001 2.230031e+000 -1.723807e+000 -1.179249e+000 7.817544e-001 3.883696e-001 1.918263e-002 -1.594953e+000 -1.216957e+000 1.048217e+000 -1.727734e-001 3.112933e-001 -3.851448e-001 -2.840257e-001 -1.150649e+000 -1.001657e+000 -1.807726e-001 -1.093436e-001 -4.943072e-001 -4.034393e-001 -9.585550e-002 1.627787e+000
<VARIANCE> 25
 6.069879e+001 5.467031e+001 3.846547e+001 5.234764e+001 6.249957e+001 5.751272e+001 5.058138e+001 4.704297e+001 4.519991e+001 3.855852e+001 5.103400e+001 2.565926e+001 7.226913e+000 6.504024e+000 3.800970e+000 5.589112e+000 5.450903e+000 5.310921e+000 6.627488e+000 5.364909e+000 3.628158e+000 5.184036e+000 5.383568e+000 2.924858e+000 7.413679e+000
<GCONST> 1.138015e+002
<STATE> 3
<MEAN> 25
 1.014690e+001 -2.734297e-001 7.551069e-001 -5.609063e-001 6.242263e-001 -2.575643e+000 -8.599078e+000 6.333427e-001 2.420518e+000 -2.162739e+000 1.244934e+000 -1.853939e+000 -6.338917e-002 -7.285015e-003 3.717789e-001 -1.858939e-001 -5.973530e-001 -3.430644e-001 -1.720479e-001 -1.712372e-001 -1.074838e-002 -2.197448e-001 2.711098e-001 -4.978103e-002 5.283204e-001
<VARIANCE> 25
 3.759856e+001 4.952634e+001 4.688174e+001 6.164081e+001 6.771032e+001 6.676248e+001 8.223035e+001 9.507938e+001 6.672406e+001 5.001270e+001 9.439130e+001 3.782139e+001 3.569428e+000 3.147627e+000 2.353450e+000 2.784725e+000 4.739829e+000 5.222127e+000 4.583984e+000 5.363214e+000 4.078347e+000 3.491611e+000 5.592587e+000 3.599070e+000 4.170011e+000
<GCONST> 1.129153e+002
<STATE> 4
<MEAN> 25
 4.247624e+000 1.952635e+000 5.905796e+000 -5.620183e-001 -4.534238e+000 -6.643059e+000 -2.521420e+000 -2.166389e+000 -1.781007e+000 -1.180891e+000 2.767165e+000 -5.310144e-001 -1.797682e-001 -1.974717e-002 -4.252822e-002 7.636774e-002 8.006138e-002 1.392998e-001 1.187291e-001 -5.351204e-002 -1.215147e-001 3.600655e-002 -5.842407e-002 1.575250e-002 -2.284252e-001
<VARIANCE> 25
 9.097327e+001 5.885858e+001 5.753085e+001 5.853120e+001 1.266792e+002 5.821070e+001 6.606341e+001 8.216138e+001 6.706115e+001 6.096348e+001 4.244412e+001 3.220333e+001 3.647920e+000 3.367000e+000 3.007318e+000 3.826582e+000 6.630493e+000 4.104432e+000 4.903400e+000 6.615745e+000 4.830854e+000 3.930062e+000 3.636630e+000 2.488758e+000 3.492122e+000
<GCONST> 1.138270e+002
<TRANSP> 5
 0.000000e+000 1.000000e+000 0.000000e+000 0.000000e+000 0.000000e+000
 0.000000e+000 6.823614e-001 3.176385e-001 0.000000e+000 0.000000e+000
 0.000000e+000 0.000000e+000 8.021955e-001 1.978046e-001 0.000000e+000
 0.000000e+000 0.000000e+000 0.000000e+000 9.315416e-001 6.845836e-002
 0.000000e+000 0.000000e+000 0.000000e+000 0.000000e+000 0.000000e+000
<ENDHMM>
~h "hh"
<BEGINHMM>
<NUMSTATES> 5
<STATE> 2
<MEAN> 25
 -1.167453e+001 3.250225e+000 -3.383549e+000 3.748937e+000 4.144203e+000 -1.744769e+000 4.460638e+000 2.780497e+000 3.378728e+000 3.034900e+000 2.933778e+000 1.784090e+000 5.033379e-001 -2.984094e-001 5.423781e-002 -1.786927e-001 4.743110e-002 2.804368e-001 -3.598303e-002 4.082995e-002 -2.006419e-001 1.240543e-001 -1.031473e-001 1.260268e-002 1.526302e-001
<VARIANCE> 25
 5.653329e+001 1.884238e+001 3.337095e+001 2.990877e+001 4.624603e+001 1.122311e+002 2.731037e+001 3.154502e+001 2.701314e+001 2.971533e+001 2.616841e+001 1.478605e+001 1.962574e+000 1.061493e+000 1.029239e+000 1.152246e+000 1.640052e+000 1.547490e+000 1.313708e+000 2.047931e+000 1.975497e+000 1.708810e+000 1.359642e+000 1.070750e+000 1.856514e+000
<GCONST> 9.281956e+001
<STATE> 3
<MEAN> 25
 -3.089090e+000 1.438600e-001 -2.257320e+000 2.360818e+000 1.711840e+000 3.196613e+000 1.558323e+000 1.456061e+000 -8.305289e-001 1.099720e+000 1.823341e+000 1.739555e+000 2.746285e+000 -1.167223e+000 7.239877e-001 -1.152528e+000 3.067141e-001 -9.393082e-001 -6.211841e-001 -3.907223e-001 -8.540769e-001 -5.057297e-001 -7.762114e-001 -5.192134e-001 4.044819e+000
<VARIANCE> 25
 1.004153e+002 6.330281e+001 4.349195e+001 4.955038e+001 4.547101e+001 4.138960e+001 3.345113e+001 4.280106e+001 4.826894e+001 3.099923e+001 2.895433e+001 1.601979e+001 9.296847e+000 5.631990e+000 4.908992e+000 4.060141e+000 4.024774e+000 4.726336e+000 3.833124e+000 4.560695e+000 4.783036e+000 2.482046e+000 3.008605e+000 1.776423e+000 1.165367e+001
<GCONST> 1.099998e+002
<STATE> 4
<MEAN> 25
 2.780529e+000 -7.562276e-001 1.007993e+000 -9.863446e-001 1.686805e-001 -5.165340e-001 5.616976e-002 8.222947e-001 -3.830424e-001 8.546687e-001 -1.449636e+000 1.398745e-001 -1.721096e-002 -1.298698e-002 3.254038e-003 -1.223790e-002 -7.175135e-002 -2.494189e-003 1.462051e-002 -1.469131e-002 -7.885494e-003 -1.524786e-002 -1.545987e-002 2.390123e-002 -4.402988e-002
<VARIANCE> 25
 1.123954e+002 4.696457e+001 6.615004e+001 6.463031e+001 9.272002e+001 4.977700e+001 3.784016e+001 4.242732e+001 3.838490e+001 4.184284e+001 4.317689e+001 2.378830e+001 1.467192e+000 1.756917e+000 2.005913e+000 2.635829e+000 3.934412e+000 3.209363e+000 2.736287e+000 2.512532e+000 2.766212e+000 2.760440e+000 2.691085e+000 2.061610e+000 1.751798e+000
<GCONST> 1.043962e+002
<TRANSP> 5
 0.000000e+000 1.000000e+000 0.000000e+000 0.000000e+000 0.000000e+000
 0.000000e+000 6.677408e-001 3.322592e-001 0.000000e+000 0.000000e+000
 0.000000e+000 0.000000e+000 6.969733e-001 3.030266e-001 0.000000e+000
 0.000000e+000 0.000000e+000 0.000000e+000 9.604881e-001 3.951186e-002
 0.000000e+000 0.000000e+000 0.000000e+000 0.000000e+000 0.000000e+000
<ENDHMM>
~h "ih"
<BEGINHMM>
<NUMSTATES> 5
<STATE> 2
<MEAN> 25
 4.657409e+000 1.342117e+000 4.970036e+000 -7.835776e-001 6.478330e-001 -1.804744e+000 -1.899390e+000 -9.959442e-001 -4.639211e+000 8.182970e-001 8.026654e-002 -1.107136e+000 3.804611e-001 -1.548461e-001 1.614603e+000 -7.166482e-001 -8.069227e-001 -5.393047e-001 -1.188002e-001 -2.436797e-001 -1.047620e+000 1.910214e-001 1.141132e-001 -2.326467e-001 1.594052e+000
<VARIANCE> 25
 4.280037e+001 6.511115e+001 5.601006e+001 4.057419e+001 9.521107e+001 4.381827e+001 6.290986e+001 4.723576e+001 5.827423e+001 3.203732e+001 2.765158e+001 2.320440e+001 5.934968e+000 5.874806e+000 5.668050e+000 4.592373e+000 1.084184e+001 3.588078e+000 6.213696e+000 5.855006e+000 5.181574e+000 3.651752e+000 3.595402e+000 2.759967e+000 5.890428e+000
<GCONST> 1.130117e+002
<STATE> 3
<MEAN> 25
 4.574815e+000 -5.153595e-001 9.199114e+000 -2.667603e+000 -1.410769e+000 -2.105727e+000 -2.014876e+000 -8.145756e-001 -7.263496e+000 1.102718e+000 8.413396e-001 -1.315428e+000 -2.499189e-001 -4.612814e-001 6.605648e-001 -3.639867e-001 -8.460264e-001 1.803521e-002 2.346977e-001 -1.738640e-001 -1.181005e-001 -6.756911e-002 2.429014e-001 1.600129e-001 8.565623e-001
<VARIANCE> 25
 6.176118e+001 8.941480e+001 6.579432e+001 5.615121e+001 1.317640e+002 4.653702e+001 6.188216e+001 6.233546e+001 5.535846e+001 3.857858e+001 3.067179e+001 2.429201e+001 4.093681e+000 3.710094e+000 4.334616e+000 3.616552e+000 6.976200e+000 3.274313e+000 5.386744e+000 5.193280e+000 3.879170e+000 3.055110e+000 2.734725e+000 2.116827e+000 4.862147e+000
<GCONST> 1.117795e+002
<STATE> 4
<MEAN> 25
 2.864558e-001 1.849100e+000 8.905871e+000 -9.434250e-001 -4.495549e+000 -4.156926e+000 1.209782e+000 -1.552903e+000 -3.794382e+000 -1.050476e+000 1.939314e+000 1.213644e+000 -3.094493e-001 1.237963e-001 -4.241981e-001 3.841514e-001 4.001454e-001 -4.577065e-002 4.766968e-002 7.691194e-002 1.694397e-001 -1.973125e-001 -3.600540e-002 1.241790e-001 -3.735257e-001
<VARIANCE> 25
 9.813674e+001 7.525474e+001 7.890372e+001 9.700930e+001 1.165323e+002 9.199623e+001 7.019370e+001 8.242747e+001 6.972147e+001 5.017677e+001 3.523470e+001 3.252472e+001 4.413492e+000 4.189218e+000 3.909331e+000 4.783967e+000 6.250244e+000 5.804098e+000 5.390861e+000 4.661366e+000 4.564888e+000 3.401345e+000 3.235673e+000 2.584097e+000 3.311158e+000
<GCONST> 1.156689e+002
<TRANSP> 5
 0.000000e+000 1.000000e+000 0.000000e+000 0.000000e+000 0.000000e+000
 0.000000e+000 5.937250e-001 4.062750e-001 0.000000e+000 0.000000e+000
 0.000000e+000 0.000000e+000 5.214188e-001 4.785812e-001 0.000000e+000
 0.000000e+000 0.000000e+000 0.000000e+000 8.676484e-001 1.323516e-001
 0.000000e+000 0.000000e+000 0.000000e+000 0.000000e+000 0.000000e+000
<ENDHMM>
~h "iy"
<BEGINHMM>
<NUMSTATES> 5
<STATE> 2
<MEAN> 25
 5.176249e+000 -2.023947e+000 7.264006e+000 -2.430376e-001 -5.100874e+000 -3.939813e+000 -3.201329e+000 -2.095729e-001 -2.074148e+000 -2.705132e+000 3.654253e+000 -2.484601e+000 4.780926e-001 7.158506e-002 7.952712e-001 -4.101220e-001 -5.486394e-001 -2.106794e-001 -3.231398e-001 -2.365834e-001 -5.064418e-001 -2.657229e-001 2.181025e-001 -2.404200e-001 1.023242e+000
<VARIANCE> 25
 5.651754e+001 5.789465e+001 8.281136e+001 5.301070e+001 8.773516e+001 4.286645e+001 6.234385e+001 1.128752e+002 5.348678e+001 6.131798e+001 1.100499e+002 2.946656e+001 4.201575e+000 3.793749e+000 3.543689e+000 4.240080e+000 5.404338e+000 4.087117e+000 4.724126e+000 4.342402e+000 4.349656e+000 3.833786e+000 7.117563e+000 2.709499e+000 4.427518e+000
<GCONST> 1.145541e+002
<STATE> 3
<MEAN> 25
 5.918216e+000 -4.025099e+000 9.105755e+000 -3.143199e+000 -1.387124e+000 -3.120246e+000 -3.365650e+000 -8.797787e-001 -5.227498e+000 -1.500775e+000 -8.224348e-001 -3.019163e+000 7.713058e-002 1.236487e-001 4.098068e-002 -9.719267e-002 -1.388086e-001 -3.509280e-002 4.040501e-002 4.881762e-002 -1.489489e-001 1.431314e-001 -1.884732e-002 8.954002e-003 -1.634415e-001
<VARIANCE> 25
 7.273389e+001 8.792407e+001 8.474478e+001 4.816359e+001 1.476807e+002 3.171236e+001 9.606895e+001 9.012910e+001 7.341638e+001 7.088171e+001 7.681799e+001 3.199927e+001 1.212569e+000 1.631161e+000 1.696075e+000 2.092350e+000 2.443105e+000 1.919124e+000 3.132046e+000 2.711735e+000 2.368814e+000 2.361670e+000 2.712275e+000 1.754080e+000 1.450854e+000
<GCONST> 1.061935e+002
<STATE> 4
<MEAN> 25
 8.052217e+000 1.691602e+000 1.080535e+001 -4.171360e+000 -8.589771e+000 -3.137314e-002 -9.811706e-001 -2.005104e+000 -3.876878e+000 9.369918e-001 1.505129e+000 -2.024872e+000 3.238576e-003 -4.982432e-002 -4.351469e-001 2.165914e-001 1.651377e-001 1.401532e-001 2.053587e-001 -9.226908e-002 2.401223e-001 4.483735e-002 -2.778913e-001 9.619149e-002 -4.291403e-001
<VARIANCE> 25
 7.613206e+001 5.741048e+001 1.028496e+002 6.657655e+001 1.009340e+002 5.600421e+001 4.909045e+001 6.903189e+001 3.929313e+001 3.942282e+001 3.907943e+001 2.684667e+001 1.968069e+000 3.322144e+000 4.429078e+000 3.620071e+000 6.899276e+000 3.841552e+000 3.873554e+000 4.180855e+000 2.813906e+000 3.214557e+000 3.078029e+000 2.573380e+000 2.888910e+000
<GCONST> 1.102775e+002
<TRANSP> 5
 0.000000e+000 1.000000e+000 0.000000e+000 0.000000e+000 0.000000e+000
 0.000000e+000 7.607922e-001 2.392078e-001 0.000000e+000 0.000000e+000
 0.000000e+000 0.000000e+000 7.464548e-001 2.535452e-001 0.000000e+000
 0.000000e+000 0.000000e+000 0.000000e+000 8.696383e-001 1.303617e-001
 0.000000e+000 0.000000e+000 0.000000e+000 0.000000e+000 0.000000e+000
<ENDHMM>
~h "jh"
<BEGINHMM>
<NUMSTATES> 5
<STATE> 2
<MEAN> 25
 -1.031908e+001 -1.776477e+000 -4.412397e+000 5.874838e+000 6.753087e+000 -3.162131e+000 4.869166e+000 1.594155e+000 5.125271e+000 -2.000995e+000 3.252621e+000 9.852785e-001 1.751293e+000 2.764312e-001 -2.911066e-001 -1.148537e+000 -6.650053e-001 3.877690e-001 3.763835e-003 8.977760e-002 -5.631110e-001 -1.645292e-002 2.036292e-001 -1.165272e-001 4.056847e-001
<VARIANCE> 25
 1.993304e+002 5.083758e+001 2.656718e+001 1.534104e+002 6.313774e+001 3.322303e+001 3.598225e+001 3.568915e+001 5.318221e+001 2.698653e+001 5.984673e+001 4.059168e+001 8.991561e+000 3.054195e+000 2.549390e+000 9.044158e+000 7.346827e+000 5.639458e+000 6.881296e+000 6.116966e+000 9.862614e+000 4.403742e+000 7.760438e+000 6.606218e+000 3.997819e+000
<GCONST> 1.163629e+002
<STATE> 3
<MEAN> 25
 1.650690e+001 2.516514e+000 3.789613e+000 -1.121346e+001 -5.465583e+000 2.096321e+000 -7.699148e-001 1.919220e+000 -3.286135e+000 2.813837e+000 3.731774e+000 6.574706e-002 -4.323293e-001 8.140505e-002 7.128543e-001 2.535417e-001 -2.669673e-001 -1.144880e-001 1.506469e-001 -1.760845e-001 8.077140e-002 3.816102e-002 -1.452068e-001 9.292864e-002 1.161161e-001
<VARIANCE> 25
 3.367317e+001 6.512194e+001 1.569071e+002 6.529765e+001 1.268878e+002 6.511826e+001 5.324704e+001 7.028962e+001 4.203718e+001 8.691209e+001 4.059293e+001 2.801727e+001 2.084852e+000 2.890584e+000 4.162305e+000 5.595447e+000 4.563630e+000 6.651691e+000 6.553303e+000 5.107666e+000 5.511824e+000 6.990166e+000 3.323124e+000 3.366072e+000 8.419266e-001
<GCONST> 1.131233e+002
<STATE> 4
<MEAN> 25
 -1.171510e+001 1.126512e+001 4.696450e+000 4.643133e+000 3.284269e+000 -7.498635e+000 6.565578e+000 2.504829e+000 2.195500e+000 -3.813823e+000 8.991618e-001 2.549972e+000 -2.755759e-002 -5.621611e-001 -8.562919e-001 7.367571e-002 7.231356e-001 1.063651e-001 -5.016081e-001 1.535519e-001 -1.517555e-001 1.383199e-001 -1.320177e-001 -8.944234e-002 -6.130261e-001
<VARIANCE> 25
 1.618851e+002 5.267771e+001 1.594646e+002 6.135447e+001 1.904416e+002 7.380032e+001 3.312682e+001 4.231285e+001 6.785531e+001 3.675347e+001 5.106902e+001 7.079543e+001 4.414094e+000 5.887033e+000 5.157664e+000 4.472742e+000 4.298884e+000 4.749032e+000 3.108966e+000 6.169224e+000 9.719973e+000 4.087968e+000 9.631880e+000 6.727677e+000 1.237611e+000
<GCONST> 1.174301e+002
<TRANSP> 5
 0.000000e+000 1.000000e+000 0.000000e+000 0.000000e+000 0.000000e+000
 0.000000e+000 9.421198e-001 5.788010e-002 0.000000e+000 0.000000e+000
 0.000000e+000 0.000000e+000 9.705099e-001 2.949017e-002 0.000000e+000
 0.000000e+000 0.000000e+000 0.000000e+000 9.367027e-001 6.329738e-002
 0.000000e+000 0.000000e+000 0.000000e+000 0.000000e+000 0.000000e+000
<ENDHMM>
~h "ng"
<BEGINHMM>
<NUMSTATES> 5
<STATE> 2
<MEAN> 25
 7.771801e+000 -3.712131e+000 6.948530e+000 -5.849127e+000 -8.760942e+000 7.191229e+000 7.968927e-001 -9.505504e+000 5.808709e-001 -1.262827e+000 -4.703151e+000 -2.368736e+000 1.430837e-001 -2.190340e-002 -1.127432e-001 1.275263e-001 6.657320e-002 2.604881e-002 -3.471469e-001 -3.452955e-003 2.712042e-002 -1.979265e-001 -2.153449e-001 -5.133854e-002 -2.233136e-001
<VARIANCE> 25
 6.810676e+001 3.115868e+001 5.405060e+001 4.554722e+001 8.569152e+001 6.778203e+001 5.556192e+001 7.093659e+001 3.320765e+001 4.662697e+001 5.618637e+001 1.249349e+001 3.349372e+000 3.152517e+000 2.541379e+000 3.301614e+000 4.449586e+000 4.203619e+000 4.692956e+000 6.555384e+000 3.018977e+000 3.556553e+000 4.716482e+000 1.500083e+000 1.946417e+000
<GCONST> 1.080964e+002
<STATE> 3
<MEAN> 25
 6.964714e+000 -2.299388e+000 7.422690e+000 -3.706420e-001 3.481610e+000 3.246344e-002 -1.096052e+001 -8.793618e-001 -7.040515e-001 2.434793e-001 -2.882272e+000 -3.282568e+000 -3.569305e-001 2.180312e-001 -1.005363e-001 3.021522e-002 2.484089e-001 -4.274517e-002 8.554196e-002 5.936396e-002 1.143657e-002 3.673724e-001 1.199767e-001 -3.164781e-001 -4.234178e-001
<VARIANCE> 25
 4.743881e+001 3.747125e+001 4.030278e+001 3.434514e+001 1.056525e+002 2.794219e+001 1.298585e+002 4.563635e+001 3.858881e+001 2.376658e+001 3.606908e+001 1.792688e+001 5.795648e-001 1.383920e+000 1.194174e+000 1.634735e+000 2.497822e+000 1.598267e+000 3.538980e+000 2.210994e+000 1.784376e+000 1.946375e+000 1.727587e+000 1.718877e+000 4.324944e-001
<GCONST> 9.601849e+001
<STATE> 4
<MEAN> 25
 6.429009e+000 2.097453e+000 9.515728e+000 -1.755423e+000 -3.426094e+000 -2.834965e-001 -3.774005e+000 -5.009307e-001 -2.175226e+000 -2.225116e-001 -4.589545e-001 -2.882260e+000 -3.959495e-001 2.020694e-001 -4.020621e-001 4.119198e-001 4.670720e-001 1.200697e-001 4.693399e-001 1.457538e-001 1.475313e-001 4.130388e-002 1.161812e-001 2.133740e-001 -6.249887e-001
<VARIANCE> 25
 5.174372e+001 6.872750e+001 7.207374e+001 6.793550e+001 1.058704e+002 2.108568e+001 3.141763e+001 3.948549e+001 2.632620e+001 1.750116e+001 3.287579e+001 2.168835e+001 7.597908e-001 1.260373e+000 1.370548e+000 1.809806e+000 2.377314e+000 1.220640e+000 2.332056e+000 1.728400e+000 1.748355e+000 1.186515e+000 1.354041e+000 1.771163e+000 4.312986e-001
<GCONST> 9.424397e+001
<TRANSP> 5
 0.000000e+000 1.000000e+000 0.000000e+000 0.000000e+000 0.000000e+000
 0.000000e+000 8.413979e-001 1.586020e-001 0.000000e+000 0.000000e+000
 0.000000e+000 0.000000e+000 6.143202e-001 3.856798e-001 0.000000e+000
 0.000000e+000 0.000000e+000 0.000000e+000 7.876951e-001 2.123049e-001
 0.000000e+000 0.000000e+000 0.000000e+000 0.000000e+000 0.000000e+000
<ENDHMM>
~h "ow"
<BEGINHMM>
<NUMSTATES> 5
<STATE> 2
<MEAN> 25
 1.120186e+001 2.919143e+000 5.424222e-001 -2.773509e+000 2.938476e-002 -4.627019e+000 -3.817927e+000 -6.534209e-001 -2.952757e-001 1.151784e+000 -1.767109e+000 1.146563e+000 -9.083574e-002 -2.639448e-001 -4.112527e-002 1.561538e-001 -1.323431e-001 9.807102e-002 3.149476e-001 5.490887e-001 1.094437e-001 3.153577e-002 -2.180066e-001 -3.609889e-002 -4.061621e-001
<VARIANCE> 25
 4.659012e+001 4.129033e+001 2.395709e+001 5.312742e+001 3.729747e+001 5.584407e+001 4.364534e+001 6.389278e+001 3.751399e+001 3.431650e+001 4.418932e+001 3.437116e+001 7.272789e-001 1.287952e+000 1.360968e+000 3.060393e+000 3.275065e+000 3.128698e+000 2.917672e+000 3.192408e+000 2.660737e+000 2.578355e+000 2.455332e+000 1.952782e+000 8.382348e-001
<GCONST> 9.995541e+001
<STATE> 3
<MEAN> 25
 7.403330e+000 -7.591595e-001 -2.154404e-002 -3.057167e+000 -4.724144e-001 -3.154036e+000 -1.781877e+000 3.059297e+000 2.547558e+000 1.919733e+000 -2.322937e+000 6.358055e-001 -3.458353e-001 -1.140874e-001 -2.101544e-001 1.265130e-001 1.505378e-001 3.549363e-001 2.863056e-001 3.131817e-001 6.281578e-002 9.293164e-002 1.321718e-001 -1.947355e-001 -3.649631e-001
<VARIANCE> 25
 6.075375e+001 3.590440e+001 2.433482e+001 5.001081e+001 2.945175e+001 4.035777e+001 3.028012e+001 3.674573e+001 4.950734e+001 4.615256e+001 3.395134e+001 2.702118e+001 6.184127e-001 1.083620e+000 1.104432e+000 1.578129e+000 2.039871e+000 2.192265e+000 1.858682e+000 2.794040e+000 1.947929e+000 2.095827e+000 1.958273e+000 1.545188e+000 6.321727e-001
<GCONST> 9.474522e+001
<STATE> 4
<MEAN> 25
 7.183793e+000 -1.481686e+000 -3.189232e+000 -2.006865e+000 2.529641e+000 1.663902e-001 -2.170158e-002 2.471141e+000 4.554726e-001 -2.232655e-001 -4.756620e+000 -1.241194e+000 -5.423532e-001 8.655430e-002 3.157356e-002 3.174833e-001 5.858246e-002 3.838290e-001 1.564046e-001 -2.244448e-001 -4.722999e-001 -1.179634e-001 2.394773e-001 8.828592e-003 -9.824448e-001
<VARIANCE> 25
 4.822438e+001 3.913185e+001 2.822823e+001 5.513491e+001 3.574614e+001 3.957722e+001 3.805777e+001 5.717949e+001 4.673418e+001 4.491723e+001 4.528993e+001 2.664584e+001 1.317726e+000 1.246949e+000 1.570745e+000 2.473258e+000 2.873664e+000 2.602648e+000 2.105026e+000 2.522380e+000 2.422411e+000 2.672304e+000 2.490072e+000 2.008253e+000 7.623829e-001
<GCONST> 9.926616e+001
<TRANSP> 5
 0.000000e+000 1.000000e+000 0.000000e+000 0.000000e+000 0.000000e+000
 0.000000e+000 6.724227e-001 3.275773e-001 0.000000e+000 0.000000e+000
 0.000000e+000 0.000000e+000 6.675561e-001 3.324439e-001 0.000000e+000
 0.000000e+000 0.000000e+000 0.000000e+000 8.412286e-001 1.587714e-001
 0.000000e+000 0.000000e+000 0.000000e+000 0.000000e+000 0.000000e+000
<ENDHMM>
~h "oy"
<BEGINHMM>
<NUMSTATES> 5
<STATE> 2
<MEAN> 25
 1.208270e+001 6.475379e+000 1.811094e+000 -2.484664e+000 -6.567859e+000 -8.450376e+000 7.550069e-001 1.496616e+000 6.339715e-001 2.196866e-002 1.292503e+000 4.176529e-001 1.844641e+000 -1.544260e+000 -3.035508e-002 -2.195966e+000 -1.367802e+000 9.276006e-001 2.071846e+000 -9.073994e-002 -2.470720e+000 1.884051e+000 1.029692e+000 -2.364459e-001 1.242677e+000
<VARIANCE> 25
 3.651559e+001 4.481782e+001 1.653157e+002 4.914229e+001 6.273773e+001 1.076097e+002 1.383227e+001 4.001805e+001 1.964641e+001 4.070691e+001 1.823531e+001 1.426698e+001 3.131238e+000 2.645359e+000 4.740568e+000 5.214584e+000 1.057226e+001 5.874310e+000 3.069527e+000 4.792752e+000 8.631237e+000 6.412164e+000 4.164517e+000 5.645757e+000 5.248987e+000
<GCONST> 1.106977e+002
<STATE> 3
<MEAN> 25
 1.347649e+001 5.289394e+000 3.263281e+000 -4.203748e+000 -6.894044e+000 -4.377654e+000 4.433220e+000 1.757012e-001 -2.417631e+000 2.993635e+000 2.367389e+000 -1.648533e+000 6.071824e-001 -1.406374e+000 4.674637e-001 -1.221834e+000 -4.613914e-001 1.019408e+000 2.057336e+000 1.252304e-002 -1.213360e+000 1.238844e+000 1.743266e-001 -1.370703e-001 3.253899e-001
<VARIANCE> 25
 2.948110e+001 8.484787e+001 1.480244e+002 1.848031e+001 1.058532e+002 9.480975e+001 2.236669e+001 3.636261e+001 3.571521e+001 7.578513e+001 1.710383e+001 2.667618e+001 7.706889e-001 2.642376e+000 5.597888e+000 7.912610e+000 5.330054e+000 2.723245e+000 5.277265e+000 1.430436e+000 4.776710e+000 5.392273e+000 5.561950e+000 9.228635e+000 1.988334e+000
<GCONST> 1.087001e+002
<STATE> 4
<MEAN> 25
 1.355076e+001 6.820830e+000 8.288562e-001 -1.787268e+000 -3.643993e+000 8.645712e-001 5.229030e-001 -1.245619e+000 3.208683e-001 3.626410e+000 2.908859e+000 -1.974474e+000 -5.369610e-001 -2.867294e-001 -7.088071e-001 -1.440426e-002 8.493254e-001 1.989916e-001 -3.634133e-001 -2.809474e-001 3.919055e-001 -6.659628e-003 -3.365782e-001 1.049070e-001 -4.249735e-001
<VARIANCE> 25
 4.913628e+001 3.849422e+001 5.607421e+001 8.386893e+001 9.507529e+001 6.764926e+001 7.858227e+001 3.793880e+001 4.213737e+001 7.896307e+001 5.754701e+001 7.612395e+001 9.503805e-001 2.465786e+000 4.804612e+000 5.515730e+000 3.791898e+000 4.017021e+000 7.995366e+000 5.236378e+000 7.793008e+000 7.937623e+000 6.045040e+000 9.097055e+000 1.271112e+000
<GCONST> 1.141706e+002
<TRANSP> 5
 0.000000e+000 1.000000e+000 0.000000e+000 0.000000e+000 0.000000e+000
 0.000000e+000 1.164492e-001 8.835508e-001 0.000000e+000 0.000000e+000
 0.000000e+000 0.000000e+000 2.280113e-001 7.719886e-001 0.000000e+000
 0.000000e+000 0.000000e+000 0.000000e+000 9.364822e-001 6.351782e-002
 0.000000e+000 0.000000e+000 0.000000e+000 0.000000e+000 0.000000e+000
<ENDHMM>
~h "sh"
<BEGINHMM>
<NUMSTATES> 5
<STATE> 2
<MEAN> 25
 -1.638411e+000 7.339583e-001 -1.380310e+000 1.634818e+000 3.238344e+000 3.033599e+000 3.410617e-001 -7.680277e-001 -2.270145e+000 -1.309555e-002 -5.900828e-001 1.436945e+000 3.646333e-002 8.780204e-002 -2.212112e-001 -1.086060e-002 -9.015051e-002 4.048413e-002 -1.709091e-001 -1.968853e-001 -7.577375e-003 2.588235e-002 -4.943087e-002 -1.445616e-002 -2.285278e-001
<VARIANCE> 25
 3.487511e+001 2.074858e+001 3.079532e+001 2.960213e+001 2.484487e+001 3.421572e+001 2.634343e+001 2.123082e+001 2.869165e+001 2.184037e+001 1.787205e+001 1.540739e+001 3.177098e-001 1.113148e+000 1.393341e+000 1.578058e+000 1.942328e+000 2.055673e+000 2.031478e+000 2.403550e+000 1.969086e+000 1.806866e+000 1.531044e+000 1.749778e+000 3.268865e-001
<GCONST> 8.833199e+001
<STATE> 3
<MEAN> 25
 -1.604119e+000 8.373989e-001 -1.211393e+000 2.522388e+000 2.331530e+000 3.150942e+000 -2.573788e+000 -2.227145e+000 -1.984582e+000 -1.795176e+000 9.064215e-002 7.103758e-001 2.415488e-003 3.203639e-002 3.270795e-004 -4.269076e-003 1.998902e-002 9.848235e-003 6.245771e-003 1.957373e-003 -1.472260e-003 -9.669386e-003 1.280915e-002 5.997608e-003 -9.713880e-003
<VARIANCE> 25
 1.982462e+001 8.573447e+000 1.271910e+001 8.651956e+000 1.392354e+001 9.049568e+000 7.860366e+000 1.305556e+001 1.075685e+001 9.716056e+000 7.561694e+000 8.006556e+000 1.001790e-001 2.963120e-001 4.199107e-001 4.644078e-001 7.095302e-001 7.225415e-001 7.636614e-001 9.002957e-001 9.568442e-001 6.984995e-001 6.988978e-001 7.306197e-001 6.530987e-002
<GCONST> 6.400513e+001
<STATE> 4
<MEAN> 25
 3.031795e+000 2.975403e+000 1.282590e+000 1.670757e+000 6.491426e+000 2.495746e+000 -2.648838e+000 1.457552e-001 -3.539299e+000 2.558008e-001 3.213930e-001 7.459747e-001 3.324313e-002 1.086859e-001 7.186548e-002 -2.374514e-002 8.554067e-002 8.989939e-003 9.317712e-002 6.417400e-002 -2.674516e-002 8.055668e-002 4.534478e-003 -6.241250e-002 4.055338e-002
<VARIANCE> 25
 1.024455e+001 2.937599e+001 2.317509e+001 1.803945e+001 1.876676e+001 2.344173e+001 1.981211e+001 1.917582e+001 2.537707e+001 1.531124e+001 9.981254e+000 1.444783e+001 7.241886e-001 2.405371e+000 2.176683e+000 2.394042e+000 1.815369e+000 3.165681e+000 2.589239e+000 2.018005e+000 2.595329e+000 1.562638e+000 1.313247e+000 1.560478e+000 8.929341e-001
<GCONST> 8.826198e+001
<TRANSP> 5
 0.000000e+000 1.000000e+000 0.000000e+000 0.000000e+000 0.000000e+000
 0.000000e+000 9.436225e-001 5.637752e-002 0.000000e+000 0.000000e+000
 0.000000e+000 0.000000e+000 9.734710e-001 2.652903e-002 0.000000e+000
 0.000000e+000 0.000000e+000 0.000000e+000 9.248895e-001 7.511046e-002
 0.000000e+000 0.000000e+000 0.000000e+000 0.000000e+000 0.000000e+000
<ENDHMM>
~h "th"
<BEGINHMM>
<NUMSTATES> 5
<STATE> 2
<MEAN> 25
 9.926218e+000 5.856686e-001 5.227462e+000 5.356260e+000 -5.059155e+000 -3.930226e-001 1.389412e+000 -3.220283e+000 -1.461181e+000 -4.894766e+000 7.451189e-001 -6.236636e+000 -8.190977e-002 -5.680015e-002 -5.662562e-002 2.531063e-001 4.151247e-001 4.346482e-001 1.729146e-002 -3.937732e-001 -2.526462e-002 -3.128895e-001 -2.819255e-001 1.575711e-001 -3.893216e-001
<VARIANCE> 25
 5.156460e+001 9.165623e+001 5.510016e+001 4.165536e+001 6.044437e+001 5.745119e+001 6.412296e+001 2.051975e+002 2.966492e+001 5.711197e+001 8.271272e+001 5.236933e+001 3.284244e+000 1.929289e+000 2.311557e+000 2.714167e+000 3.849702e+000 3.813954e+000 4.004646e+000 5.155611e+000 2.994657e+000 3.037410e+000 6.179601e+000 3.128709e+000 4.552137e+000
<GCONST> 1.116747e+002
<STATE> 3
<MEAN> 25
 -2.262755e+000 -5.996725e+000 4.299175e+000 3.383588e+000 1.411924e+000 3.579965e+000 -2.713520e+000 -4.207459e+000 3.212210e-001 -5.989988e+000 -9.038405e-001 -4.087308e+000 1.647559e-001 -6.533234e-001 -4.004471e-001 -2.275499e-001 9.263150e-002 -1.045638e-001 -4.296118e-001 7.851592e-001 5.555568e-001 1.895975e-001 3.189094e-001 2.018680e-001 -9.134211e-002
<VARIANCE> 25
 1.052169e+002 8.066897e+001 4.672702e+001 5.428224e+001 1.617480e+002 7.543340e+001 6.770937e+001 9.575610e+001 1.217980e+002 8.628198e+001 8.168226e+001 4.660167e+001 8.352358e+000 4.218653e+000 4.061033e+000 3.344872e+000 5.732024e+000 3.990937e+000 7.067917e+000 6.894289e+000 7.028943e+000 5.680967e+000 4.733819e+000 4.397113e+000 3.073183e+000
<GCONST> 1.195554e+002
<STATE> 4
<MEAN> 25
 2.245298e+000 -1.408944e+001 6.706644e+000 1.927486e-001 -4.686747e+000 4.370517e+000 -4.134874e-001 5.770686e+000 4.528055e+000 -5.386569e+000 1.314231e-001 9.069853e-001 -4.957436e-001 2.934859e-001 4.339762e-001 -2.174644e-001 2.160501e-001 -1.614847e-001 8.783268e-001 -2.557525e-002 -4.148876e-001 2.593659e-001 1.407961e-001 3.997496e-001 -1.348254e-001
<VARIANCE> 25
 1.411340e+002 1.045083e+002 9.660551e+001 5.050637e+001 6.972968e+001 1.200402e+002 6.867603e+001 1.430851e+002 5.035017e+001 7.573432e+001 2.330390e+001 4.189240e+001 1.817473e+000 3.437269e+000 2.310842e+000 2.601373e+000 4.353636e+000 3.667171e+000 2.853680e+000 5.286444e+000 4.269466e+000 2.508602e+000 2.120403e+000 1.554390e+000 1.074374e+000
<GCONST> 1.101395e+002
<TRANSP> 5
 0.000000e+000 1.000000e+000 0.000000e+000 0.000000e+000 0.000000e+000
 0.000000e+000 8.584499e-001 1.415500e-001 0.000000e+000 0.000000e+000
 0.000000e+000 0.000000e+000 7.976041e-001 2.023958e-001 0.000000e+000
 0.000000e+000 0.000000e+000 0.000000e+000 7.394633e-001 2.605367e-001
 0.000000e+000 0.000000e+000 0.000000e+000 0.000000e+000 0.000000e+000
<ENDHMM>
~h "uh"
<BEGINHMM>
<NUMSTATES> 5
<STATE> 2
<MEAN> 25
 -5.839097e+000 -1.685945e+000 -6.782214e-001 2.121279e+000 9.994946e-001 1.109846e+000 -3.994337e-001 -1.266744e+000 -7.736585e-001 -1.295737e+000 2.963084e-001 6.783697e-001 -2.947525e-002 -1.205396e-002 -2.003340e-002 5.408958e-003 5.040180e-003 9.367253e-003 3.521287e-003 -6.793083e-003 -3.050530e-002 1.635994e-003 8.140926e-003 5.307644e-003 -1.876381e-002
<VARIANCE> 25
 2.306850e+001 5.480867e+000 9.202113e+000 1.024807e+001 1.136650e+001 1.337526e+001 9.847054e+000 1.321026e+001 1.302699e+001 1.541788e+001 1.100418e+001 1.029997e+001 1.245907e-001 2.249410e-001 3.316843e-001 4.974211e-001 6.118116e-001 8.315955e-001 8.145967e-001 9.529522e-001 9.216266e-001 9.737099e-001 9.061068e-001 8.708578e-001 6.160111e-002
<GCONST> 6.582066e+001
<STATE> 3
<MEAN> 25
 -6.705182e+000 7.574919e-001 -1.480022e+000 2.721225e+000 4.273838e-001 2.604784e+000 7.653884e-001 -4.620287e-003 -8.817593e-001 7.294908e-001 1.609443e+000 8.919730e-001 7.500308e-001 1.106924e-001 3.094042e-001 7.127156e-002 3.161386e-001 -4.326820e-002 -5.744069e-002 2.281991e-001 -2.008351e-001 -1.574685e-002 -1.727848e-001 -1.198732e-001 7.242339e-001
<VARIANCE> 25
 8.084499e+001 1.386154e+001 2.214516e+001 1.195977e+001 1.743294e+001 1.747699e+001 1.643809e+001 2.111280e+001 2.782023e+001 2.431259e+001 1.345611e+001 1.246340e+001 1.636049e+000 6.435325e-001 8.690661e-001 7.700449e-001 8.974358e-001 1.110972e+000 1.392030e+000 1.490994e+000 1.599178e+000 1.340322e+000 1.128042e+000 1.012536e+000 1.335245e+000
<GCONST> 8.331700e+001
<STATE> 4
<MEAN> 25
